{"model": "OLSTM", "benchmark": "CED1", "meta": {"LR": 0.001, "n_re": 10, "n_hs": [2, 4, 8, 16, 32], "n_look": [2, 4, 8, 16, 32], "n_opt": 20000, "batch_len": null}, "nh_xval": 16, "look_xval": 16, "theta": {"params": {"Dense_0": {"bias": [0.05903135612607002], "kernel": [[0.2560037672519684], [0.1493280529975891], [-0.24927332997322083], [-0.2301557958126068], [0.2491207867860794], [-0.19514253735542297], [-0.07214619219303131], [-0.2985790967941284], [0.40596330165863037], [0.2512364685535431], [-0.10607264190912247], [0.27470654249191284], [0.14558646082878113], [-0.1284741312265396], [-0.22738848626613617], [0.07052907347679138]]}, "OptimizedLSTMCell_0": {"hf": {"bias": [0.04571707919239998, 0.10015732049942017, 0.03919776529073715, 0.051987286657094955, 0.14020489156246185, 0.1918283998966217, -0.023461658507585526, 0.017311155796051025, 0.08419565111398697, -0.01528891921043396, 0.09653457999229431, 0.05596718564629555, -0.0041543287225067616, 0.10024528950452805, -0.0010300432331860065, 0.02360350452363491], "kernel": [[-0.3556458652019501, -0.5302799940109253, 0.49796101450920105, 0.2732078433036804, -1.8028266429901123, -0.0025780044961720705, -0.06867723912000656, 0.3696843087673187, 0.1900024563074112, 0.2916555404663086, 0.6714365482330322, 0.3198412358760834, -0.28378060460090637, -0.4076294004917145, 0.08569151908159256, 0.33770692348480225], [-0.9347069263458252, 0.1385805755853653, 0.20628385245800018, 0.19533281028270721, -0.6903270483016968, -0.4314752221107483, 0.23099030554294586, 0.12837104499340057, 0.2526932954788208, -0.4219052195549011, -0.24382145702838898, -0.3451686203479767, -0.3566649258136749, -0.04775337129831314, 0.2026730179786682, -0.04597536474466324], [-0.3842746615409851, -0.1983666568994522, -0.19488129019737244, 0.2529571056365967, -0.36016345024108887, 0.01395330112427473, 0.05305888503789902, 0.48068293929100037, -0.1629549264907837, 0.06497251987457275, -0.06933153420686722, 0.44717851281166077, -0.12128221243619919, 0.42675119638442993, -0.4279235601425171, 0.11578226089477539], [0.4345114231109619, -0.5407441258430481, 0.04222118854522705, -0.07980303466320038, -0.021049439907073975, -0.12100030481815338, 0.18781346082687378, -0.6698399186134338, 0.27272558212280273, 0.1329723298549652, -0.22593148052692413, 0.33543384075164795, 0.41330042481422424, 0.02136112004518509, -0.04956633970141411, 0.08571301400661469], [-0.11050878465175629, 0.22343167662620544, 0.09741738438606262, -0.03468688577413559, 0.01153846550732851, -0.7937440872192383, -0.2972554564476013, -0.09352660179138184, -0.0007543236133642495, 0.5784170627593994, 0.034314341843128204, -0.316840797662735, 0.03387279808521271, 0.02905918098986149, -0.0906183049082756, -0.12719768285751343], [-0.7293289303779602, 0.039120398461818695, -0.175903782248497, 0.5603076815605164, -0.5487591624259949, -0.10339678823947906, 0.12121924757957458, -0.00015976132999639958, 0.4069597125053406, 0.04922492429614067, -0.3689126670360565, 0.0680621936917305, -0.03804812580347061, -0.33704322576522827, 0.40659183263778687, 0.11043589562177658], [-0.004963350016623735, 0.43761324882507324, -0.12350409477949142, -0.113713338971138, -0.47369369864463806, 0.2300698459148407, 0.4118545353412628, 0.015916932374238968, 0.15341705083847046, 0.4754295349121094, -0.4624899625778198, -0.05471666157245636, -0.13930797576904297, 0.15866297483444214, 0.18727736175060272, 0.11570025980472565], [0.6357631683349609, 0.13657577335834503, -0.2507363259792328, -0.06671194732189178, -0.5350967645645142, 0.46092766523361206, -0.2453281581401825, -0.11167115718126297, 0.06312134861946106, -0.26792818307876587, 0.10609617829322815, -0.391652911901474, 0.23506323993206024, -0.08939079940319061, -0.1996486335992813, 0.5162360072135925], [-0.3291032910346985, 0.27248865365982056, -0.26079174876213074, -0.03625909239053726, -0.7990102171897888, 0.02192423678934574, -0.3429346978664398, 0.02458273433148861, -0.31114211678504944, 0.13717225193977356, -0.416062593460083, -0.26402151584625244, 0.4536788761615753, -0.26672640442848206, -0.37061607837677, -0.6033324003219604], [0.21580079197883606, -0.6547280550003052, 0.07467299699783325, 0.14757704734802246, -0.3118574321269989, -0.030192891135811806, 0.01674853451550007, -0.12604469060897827, -0.5400128960609436, -0.026807427406311035, 0.04049226641654968, -0.2965516448020935, -0.3819492757320404, 0.21523603796958923, -0.025781650096178055, -0.018537912517786026], [-0.016110796481370926, -0.020252859219908714, 0.38034766912460327, -0.4623774588108063, -0.3071938157081604, -0.27427998185157776, -0.015089673921465874, 0.3177044689655304, 0.2225981503725052, -0.15992556512355804, -0.02468465082347393, -0.005814868491142988, 0.1510680466890335, 0.057304300367832184, 0.26867783069610596, 0.43619346618652344], [0.17407162487506866, -0.04695812240242958, 0.0468195304274559, 0.2945665419101715, 0.0945073738694191, 0.03435603901743889, 0.4915822744369507, 0.3879604637622833, 0.36545810103416443, -0.07421450316905975, 0.09194525331258774, -0.2323441505432129, 0.2467583417892456, 0.06227690353989601, -0.3695838451385498, -0.10754568129777908], [-1.1685208082199097, -0.058084044605493546, 0.1905968338251114, -0.17634747922420502, 0.22363092005252838, -0.5075790286064148, 0.008395317010581493, -0.34366294741630554, -0.007460171356797218, -0.10815760493278503, -0.0029359895270317793, -0.29053810238838196, 0.39422211050987244, -0.38091394305229187, -0.09119553864002228, 0.2950802147388458], [-0.8822930455207825, 0.23818203806877136, -0.13898049294948578, -0.14444172382354736, -0.5381172895431519, -0.5527473092079163, 0.08369985967874527, -0.10875014960765839, 0.482837438583374, -0.03271907567977905, 0.23549547791481018, -0.2602893114089966, -0.39313364028930664, 0.03349512442946434, -0.7402576208114624, -0.1950352042913437], [-1.0998746156692505, -0.7176696062088013, 0.09681402891874313, 0.26441219449043274, -0.08974174410104752, -0.3931236267089844, -0.2868914008140564, 0.01230716798454523, -0.0160964522510767, 0.2840013802051544, 0.215865820646286, -0.152658149600029, 0.4615272581577301, 0.09231280535459518, 0.5923908948898315, 0.21162709593772888], [0.5259680151939392, 0.6204665303230286, 0.20014473795890808, 0.25195926427841187, 0.08798139542341232, 0.32663771510124207, 0.4185480773448944, -0.12425954639911652, -0.1915932595729828, 0.20751197636127472, 0.3708058297634125, 0.15500393509864807, -0.020538175478577614, -0.2690841257572174, 0.1004103496670723, 0.019428536295890808]]}, "hg": {"bias": [-0.11912466585636139, -0.022077174857258797, -0.03349916264414787, 0.0029786296654492617, 0.03903365880250931, 0.01502049621194601, -0.005042041651904583, -0.018177954480051994, -0.10863035917282104, -0.01912512071430683, 0.043356578797101974, -0.049040816724300385, 0.030077673494815826, 0.06661751866340637, -0.0298817977309227, -0.02445521578192711], "kernel": [[-0.25440865755081177, -0.5193175077438354, -0.0826391726732254, 0.668545663356781, -0.06458549946546555, 0.19562412798404694, -0.30833157896995544, 0.09592901915311813, -0.35742855072021484, -0.17736336588859558, 1.121005654335022, -0.3056594729423523, 0.4169173836708069, -0.3747177720069885, 0.791041374206543, 0.32091736793518066], [-0.009508199989795685, 0.5928246378898621, -0.11820980906486511, -0.19570006430149078, 0.5444927215576172, -0.22993898391723633, 0.49823904037475586, -0.42626693844795227, -0.01116263773292303, 0.3985729217529297, -0.29557088017463684, 0.2759135365486145, 0.31720587611198425, -0.3006826341152191, 0.48192641139030457, 0.46570298075675964], [0.32508623600006104, -0.15661273896694183, 0.3187500834465027, -0.1966303139925003, 0.013746919110417366, 0.22276414930820465, -0.016990937292575836, 0.05711722746491432, 0.27750298380851746, 0.21917161345481873, 0.5815573930740356, 0.8096756935119629, 0.34970101714134216, 0.09028762578964233, 0.2685975134372711, -0.2903587520122528], [-0.1243964433670044, -0.052368130534887314, 0.009057280607521534, 0.12124692648649216, -0.434250146150589, 0.08025534451007843, -0.24296358227729797, 0.28894421458244324, -0.3177143335342407, 0.16901855170726776, -0.12598875164985657, 0.14701466262340546, -0.20348720252513885, -0.6253798007965088, 0.13237278163433075, -0.05927132070064545], [-0.219147726893425, 0.09126665443181992, -0.02578292414546013, 0.25440484285354614, 0.16340799629688263, 0.5765923261642456, 0.488247275352478, 0.14063924551010132, 0.36195942759513855, 0.18486034870147705, -0.13066920638084412, -0.2978791296482086, 0.08389769494533539, -0.21378342807292938, 0.03726343438029289, -0.046399954706430435], [-0.4381004571914673, 0.4421757757663727, -0.4549979567527771, 0.05588531494140625, -0.881594181060791, 0.4124434292316437, -0.2633112072944641, 0.1903824359178543, -0.3813873529434204, -0.16306960582733154, -0.3982814848423004, 0.3847212791442871, -0.1919688880443573, 0.2841442823410034, 0.1721159964799881, 1.1561239957809448], [0.2761383652687073, -0.268552303314209, 0.27157631516456604, -0.2684771716594696, 0.05569668114185333, -0.2218729853630066, 0.5453916192054749, -0.11674802005290985, -0.12451475858688354, -0.2588030695915222, 0.23520275950431824, 0.0434969961643219, -0.2894909977912903, -0.36542367935180664, -0.34961679577827454, -0.300716757774353], [0.16632916033267975, -0.2263563871383667, 0.16654790937900543, 0.32520416378974915, 0.3782215416431427, 0.21846070885658264, -0.004116606432944536, -0.5590760707855225, 0.011111535131931305, 0.09182918816804886, -0.3110902011394501, 0.4388486444950104, -0.2987515926361084, -0.10463365167379379, -0.15988877415657043, 0.03350590541958809], [-0.21324381232261658, -0.11106573790311813, 0.3176407516002655, -0.2452014535665512, 0.2296861857175827, 0.5309543609619141, -0.21577975153923035, 0.14744621515274048, -0.26600515842437744, -0.1774870604276657, 0.014190948568284512, -0.4370570480823517, -0.516351580619812, 0.2321614921092987, 0.10916510224342346, 0.007358826696872711], [0.43134841322898865, -0.44894173741340637, 0.030506420880556107, -0.2811560034751892, -0.3836992383003235, -0.15266644954681396, 0.03193080052733421, -0.4120493233203888, 0.39283832907676697, 0.33065322041511536, 0.2998804450035095, -0.1450512707233429, -0.11473599821329117, -0.013905452564358711, -0.0542534776031971, 0.23765666782855988], [-0.8596792817115784, -0.2744300067424774, 0.3405523896217346, 0.019338207319378853, -0.3399035632610321, -0.04259026050567627, -0.11829011142253876, 0.10168334096670151, -0.08793125301599503, -0.06778480112552643, 0.09527532756328583, -0.2666483521461487, 0.22447410225868225, 0.5906858444213867, 0.28113260865211487, 0.854709804058075], [0.30367612838745117, -0.17393115162849426, 0.07024284452199936, -0.11598227918148041, -0.058102961629629135, 0.32884877920150757, 0.09369223564863205, 0.0003997694293502718, -0.6043247580528259, 0.342725545167923, 0.21549341082572937, -0.0033463879954069853, 0.3272869884967804, -0.01899300515651703, -0.4975103735923767, 0.34241583943367004], [-0.29199454188346863, 0.11999089270830154, 0.05571946129202843, 0.44597548246383667, -0.11631685495376587, -0.16470977663993835, 0.21187303960323334, 0.472585529088974, -0.0486527644097805, 0.405438631772995, 0.2910750210285187, -0.26496437191963196, -0.4609017074108124, 0.30248919129371643, 0.04683542251586914, 0.17077936232089996], [-0.32737448811531067, 0.4855222702026367, 0.6848970055580139, 0.17529147863388062, 0.1218676045536995, -0.1466597467660904, 0.23818449676036835, 0.2568056583404541, 0.44421496987342834, -0.2660505771636963, -0.09675059467554092, 0.39735761284828186, -0.07058187574148178, -0.06346461176872253, -0.05067940428853035, 0.43358510732650757], [-0.44078367948532104, 0.5409129858016968, 0.42112571001052856, 0.3161400258541107, -0.14168106019496918, -0.06584730744361877, -0.018872274085879326, -0.4300593435764313, 0.07512021064758301, 0.08736567944288254, 0.13723088800907135, 0.03405638411641121, 0.08480111509561539, 0.0055799102410674095, -0.09254559129476547, 0.053389228880405426], [-1.2301052808761597, 0.009810728952288628, 0.3075926601886749, -0.2401307225227356, 0.2367272675037384, -0.22633273899555206, -0.3017539978027344, 0.09673388302326202, -0.13482752442359924, 0.33497536182403564, 0.11279930919408798, -0.041306253522634506, -0.0774848684668541, -0.28491905331611633, -0.12137719243764877, -0.09744933992624283]]}, "hi": {"bias": [0.16366036236286163, 0.2055748850107193, 0.008317030034959316, -0.08250859379768372, 0.03919811546802521, 0.15763089060783386, -0.015948498621582985, 0.057119082659482956, -0.011636638082563877, -0.03491222858428955, 0.13243317604064941, 0.07156098634004593, 0.005598536692559719, 0.08278622478246689, -0.02174520120024681, 0.09019523859024048], "kernel": [[0.2574406564235687, -0.1543760746717453, -0.21156544983386993, 0.4256180226802826, -0.9059491157531738, -0.0761517733335495, -0.0044085560366511345, -0.0030951700173318386, -0.2796470522880554, 0.045425813645124435, 0.288127601146698, -0.3476038873195648, 0.2321902960538864, -0.22512118518352509, 0.5149032473564148, -0.31484103202819824], [0.4832112789154053, -0.37930533289909363, -0.6476603150367737, 0.32015687227249146, -0.44088101387023926, -0.23917554318904877, -0.24815182387828827, 0.06254440546035767, 0.8427025079727173, 0.4830097258090973, 0.0879235714673996, -0.287336528301239, -0.8425400853157043, -0.14899437129497528, 0.3958803415298462, 0.4422840476036072], [-0.6121907830238342, -0.6043277382850647, 0.30043768882751465, 0.49292758107185364, -0.3418070375919342, -0.3322218656539917, 0.32489511370658875, 0.2222602218389511, 0.1516301929950714, 0.011921235360205173, -0.04050340875983238, 0.18292558193206787, -0.28126904368400574, -0.0379972979426384, 0.11871900409460068, -0.4673433303833008], [0.2976255714893341, 0.3201148808002472, 0.4290837347507477, -0.3114989399909973, -0.15304581820964813, 0.012575698085129261, -0.07061562687158585, -0.4999001622200012, 0.4324312210083008, 0.05083772540092468, 0.2564466595649719, 0.061001166701316833, -0.5022179484367371, 0.056625258177518845, 0.005371367558836937, -0.22521741688251495], [0.09001582115888596, -0.13878223299980164, 0.0780642032623291, 0.08741088211536407, -0.6793681979179382, 0.07804617285728455, -0.3108353018760681, 0.09157748520374298, 0.013413554057478905, 0.48874250054359436, 0.05247703939676285, -0.09464087337255478, 0.023505203425884247, -0.07578475028276443, -0.16960610449314117, -0.6417778134346008], [-0.9284242987632751, 0.16044510900974274, -0.11653636395931244, -0.021828262135386467, 0.036095406860113144, 0.24268823862075806, 0.24215243756771088, -0.03521871566772461, -1.060642123222351, -0.3606779873371124, -0.4672881066799164, 0.5272293090820312, -1.1248257160186768, -0.20080456137657166, 0.07087414711713791, -0.38282790780067444], [-0.24106954038143158, -0.5816646218299866, -0.02190954051911831, 0.10259237885475159, -0.5728127956390381, -0.8235336542129517, -0.39375269412994385, 0.15995992720127106, 0.2446717768907547, -0.20720486342906952, -0.037498872727155685, -0.022732006385922432, -0.02453683689236641, 0.27334049344062805, 0.18383251130580902, 0.024883516132831573], [0.27119311690330505, 0.21536757051944733, 0.26358485221862793, 0.016861623153090477, -0.2730451822280884, 0.3323661684989929, 0.177032470703125, -0.25231191515922546, -0.5404635071754456, -0.4021572172641754, 0.6193963885307312, -0.1635221540927887, 0.137166827917099, -0.06729322671890259, 0.16393613815307617, -0.2078436017036438], [-0.1769758015871048, 0.40778934955596924, -0.10822251439094543, 0.47760388255119324, -0.14452478289604187, 0.3518466353416443, -0.33015573024749756, -0.5062429904937744, 0.04042309150099754, 0.056479208171367645, -0.44940832257270813, -0.13642214238643646, -0.5973235368728638, 0.013471192680299282, 0.30449357628822327, -0.03842702507972717], [0.4569835960865021, -0.2299324870109558, -0.5344477891921997, 0.44717326760292053, -0.07045182585716248, 0.17486092448234558, 0.1709805130958557, -0.221868097782135, 0.12542517483234406, -0.10676156729459763, 0.3846629858016968, 0.2798217833042145, 0.04500493407249451, 0.2737147808074951, -0.3232206404209137, -0.08909624814987183], [0.21642805635929108, -0.5226832628250122, 0.4404154121875763, -0.3292432725429535, 0.23100773990154266, 0.41475075483322144, -0.4830225706100464, -0.4534875750541687, -0.33309218287467957, -0.3549501299858093, 0.1858399361371994, 0.050492238253355026, 0.15965993702411652, -0.011513980105519295, -0.20985902845859528, 0.09976056963205338], [-0.4657464027404785, -0.20887868106365204, -0.348366379737854, -0.33153125643730164, -0.2924233078956604, 0.015125332400202751, 0.41680908203125, -0.46644070744514465, -0.061541419476270676, -0.04767991974949837, -0.32891225814819336, 0.03917339816689491, 0.2228672355413437, 0.15320336818695068, 0.28524717688560486, -0.22652339935302734], [0.291519433259964, -0.06786195188760757, 0.49317583441734314, 0.12214448302984238, -0.30821219086647034, -0.031107855960726738, 0.1486527919769287, -0.011598112061619759, 0.021225474774837494, 0.07419903576374054, -0.003071926534175873, -0.5553199648857117, -0.23541393876075745, 0.5235539078712463, -0.1296391636133194, -0.020894329994916916], [0.1433083415031433, -0.028547849506139755, -0.25950759649276733, 0.1203267052769661, 0.7088364362716675, -0.15715602040290833, 0.0605028010904789, 0.06269953399896622, -0.03817174211144447, -0.24550332129001617, -0.047650616616010666, -0.6060895323753357, -0.4226798415184021, -0.4343178868293762, -0.5529404878616333, -0.1324792504310608], [0.4598531424999237, 0.024766629561781883, -0.27202802896499634, 0.10189922153949738, -0.0633503645658493, -0.28626811504364014, -0.6188315749168396, 0.4244581460952759, 0.017273619771003723, -0.02413569949567318, -0.08351067453622818, 0.205809086561203, 0.09571748226881027, 0.46419602632522583, 0.3392329216003418, -0.3369012176990509], [-0.22141848504543304, 0.3009360730648041, -0.03251716494560242, -0.2698603868484497, -0.30208951234817505, 0.5769677758216858, 0.031842947006225586, 0.1979592889547348, 0.5273696780204773, -0.524307370185852, 0.13699814677238464, -0.10697700828313828, 0.0001948956196429208, -0.036382924765348434, -0.07185555249452591, 0.17843672633171082]]}, "ho": {"bias": [0.2787216603755951, 0.21946489810943604, 0.06546387076377869, 0.01430948544293642, 0.04248423129320145, 0.14306487143039703, 0.036990996450185776, 0.008850703947246075, -0.09789057821035385, 0.019162237644195557, 0.14998336136341095, -0.019721103832125664, 0.06931847333908081, 0.07526279985904694, -0.06367705017328262, 0.03625831753015518], "kernel": [[0.2909938097000122, -0.16610439121723175, -0.37705060839653015, 0.49030962586402893, -0.5348467826843262, 0.03243903070688248, -0.038741447031497955, 0.27719661593437195, -0.3204887807369232, 0.08585896342992783, 0.05071883276104927, 1.0866596698760986, -0.035689324140548706, 0.2229251116514206, 0.5679036378860474, -0.527217447757721], [-0.07160178571939468, -0.26383882761001587, -0.03935830667614937, 0.4556654989719391, -0.021794699132442474, -0.3378654718399048, 0.4942544102668762, 0.04218076542019844, 0.9649509191513062, 0.166142076253891, -0.5764963626861572, 0.09258930385112762, -0.1291055828332901, -0.420091450214386, 0.2875428795814514, 0.11058849096298218], [-0.2625681459903717, -0.5645039677619934, -0.5392133593559265, -0.07357759028673172, 0.08883795142173767, -0.22088739275932312, -0.296673059463501, 0.14009776711463928, -0.2329852432012558, 0.07693737000226974, -0.3351372182369232, -0.2282165288925171, -0.3495769202709198, -0.03945143148303032, 0.2008955180644989, 0.06744986772537231], [0.1570042073726654, -0.07366438955068588, 0.44360578060150146, 0.13158608973026276, 0.05490296334028244, 0.02269928716123104, -0.28502339124679565, 0.435265451669693, -0.2675652801990509, -0.07788210362195969, 0.14750957489013672, 0.01590941846370697, 0.394852876663208, 0.1594005674123764, -0.14151710271835327, 0.31833720207214355], [0.7595984935760498, -0.21227502822875977, 0.07101893424987793, 0.3868904709815979, -0.17244993150234222, -0.3110290467739105, -0.37201422452926636, -0.30861762166023254, -0.262492299079895, 0.05207834392786026, -0.18055766820907593, -0.2362189143896103, -0.6214667558670044, 0.10343033820390701, 0.08148045092821121, 0.05172935873270035], [0.9256748557090759, 0.142815500497818, 0.1517622470855713, -0.47691625356674194, 0.1320715844631195, 0.0687728300690651, 0.7101903557777405, 0.1215096265077591, -0.1878412812948227, 0.14675314724445343, 0.0194963738322258, 0.2984711229801178, 0.10172418504953384, 0.3793989419937134, -0.6269083023071289, -0.8403468132019043], [-0.4762409031391144, 0.4502871036529541, -0.40894994139671326, -0.031114870682358742, -0.27173516154289246, -0.4861430525779724, -0.24595610797405243, -0.12862783670425415, 0.026359951123595238, -0.19968290627002716, -0.8184131979942322, 0.17107506096363068, -0.3350370228290558, -0.20186704397201538, -0.0036746873520314693, 0.04774937778711319], [-0.9607652425765991, -0.023043561726808548, 0.234964057803154, 0.022700771689414978, 0.23223313689231873, 0.6295972466468811, 0.27272847294807434, -0.5518670082092285, 0.2335900366306305, -0.24817559123039246, -0.2031458020210266, 0.2481040209531784, -0.11386717855930328, 0.2584100067615509, -0.2755717635154724, 0.4539412558078766], [0.7938420176506042, 0.20632708072662354, -0.4877268671989441, -0.5225361585617065, -0.22802232205867767, 0.09686332195997238, 0.05980523303151131, -0.04731126129627228, 0.14611753821372986, 0.1832011491060257, -0.6936550140380859, 0.08234500139951706, 0.06398117542266846, 0.26785701513290405, 0.18418261408805847, 0.05959027633070946], [0.8151463866233826, 0.03270567208528519, 0.24081450700759888, -0.04157605394721031, 0.2551371157169342, 0.7483920454978943, -0.08303622901439667, -0.02985425665974617, -0.09405902773141861, -0.13471248745918274, -0.26539650559425354, 0.03754526376724243, 0.06551139801740646, 0.14139029383659363, -0.013366470113396645, -0.4999275803565979], [3.342601776123047, 0.41865792870521545, -0.0690762847661972, 0.3748105466365814, 0.1400342583656311, 0.13932056725025177, 0.36661046743392944, 0.04271802306175232, -0.07849511504173279, -0.2335369884967804, 0.3890129625797272, -0.4483857750892639, 0.162692591547966, 0.3180886209011078, -0.61223304271698, -0.13231462240219116], [0.07194812595844269, 0.2689736485481262, -0.14065532386302948, -0.18385936319828033, 0.2890751361846924, -0.11850308626890182, -0.24415642023086548, -0.3125038743019104, -0.12340433895587921, -0.01719227246940136, 0.23503604531288147, 0.14859643578529358, 0.3873298168182373, 0.5287469029426575, 0.2851426601409912, -0.0010723454179242253], [0.33947625756263733, -0.20821496844291687, 0.21371331810951233, 0.08395814150571823, -0.5124630331993103, -0.21740008890628815, -0.22242741286754608, -0.0432974137365818, 0.5634489059448242, -0.4635156989097595, -0.15492822229862213, -0.3839651644229889, 0.15442535281181335, 0.17265816032886505, 0.40159645676612854, -0.20134858787059784], [-0.46815967559814453, 0.009172999300062656, -0.4424619972705841, 0.048826638609170914, 0.5564989447593689, 0.22645820677280426, 0.0005843645194545388, 0.1225752905011177, -0.16461673378944397, -0.12070702761411667, 0.04398984834551811, 0.12158709019422531, 0.10246909409761429, -0.1420806497335434, 0.35422104597091675, -0.26708030700683594], [0.30125510692596436, 0.025544757023453712, 0.6137474179267883, 0.34627842903137207, 0.12776310741901398, -0.3075859546661377, -0.17196570336818695, 0.41176456212997437, -0.24036921560764313, -0.3050358295440674, 0.4262743294239044, 0.045581016689538956, -0.15326082706451416, -0.19281873106956482, 0.2753632962703705, 0.20861709117889404], [-0.7117366790771484, 0.8122023344039917, 0.36204031109809875, 0.15367662906646729, 0.12325899302959442, -0.04125930741429329, -0.3386324942111969, -0.22520878911018372, 0.3221099078655243, 0.4454028010368347, 0.10055074840784073, -0.2212805449962616, 0.09416023641824722, -0.0049210949800908566, 0.18075986206531525, -0.17635956406593323]]}, "if": {"kernel": [[-0.2972935438156128, 0.17071285843849182, -0.2989548146724701, 0.29637518525123596, 0.2848778963088989, -0.09778560698032379, -0.03495786339044571, -0.02991834655404091, 0.7145580649375916, 0.02032436989247799, 0.08615835756063461, -0.09836190938949585, -0.24944959580898285, -0.35052943229675293, 0.3238086700439453, -0.23196136951446533], [0.2696651518344879, -0.009348045103251934, 0.032026033848524094, 0.3566703498363495, -0.17691922187805176, 0.5872406363487244, 0.2755030393600464, 0.1025383323431015, -0.27815136313438416, 0.16411283612251282, 0.3200596570968628, 0.08195124566555023, 0.017309514805674553, 0.1441100835800171, 0.19318826496601105, -0.14895842969417572], [0.28542500734329224, 0.03992931917309761, -0.4235275089740753, 0.09943103045225143, -0.22315049171447754, -0.03900497034192085, -0.5620653033256531, 0.109354168176651, -0.058003976941108704, 0.31024208664894104, 0.021954474970698357, 0.14253072440624237, -0.46818503737449646, -0.2682797908782959, -0.16950826346874237, 0.13836467266082764], [-0.3406694233417511, 0.1773347705602646, -0.5205015540122986, 0.06989746540784836, 0.03386587277054787, 0.11120391637086868, -0.2614298164844513, 0.09906898438930511, 0.021989962086081505, 0.08616120368242264, 0.24149781465530396, 0.25640109181404114, 0.03605690598487854, 0.13223358988761902, 0.3805370032787323, 0.18521052598953247], [-0.24549417197704315, -0.48217496275901794, -0.165711909532547, 0.24321123957633972, -0.5262657403945923, -0.38033241033554077, 0.19330039620399475, 0.2868204414844513, -0.6704915761947632, 0.23347625136375427, 0.20353396236896515, 0.18751296401023865, 0.34472206234931946, 0.2030806690454483, 0.15975184738636017, -0.07517629861831665], [0.4227955937385559, -0.4455190896987915, 0.016294753178954124, -0.022091681137681007, -0.26769962906837463, 0.6120926141738892, 0.32805153727531433, 0.5836790800094604, -0.06515751034021378, 0.16521649062633514, -0.0601990669965744, 0.23547105491161346, 0.20749719440937042, -0.04636397585272789, 0.08046328276395798, -0.16616179049015045], [-0.13954542577266693, 0.12504252791404724, 0.3302166759967804, 0.16746093332767487, 0.07768657058477402, 0.3613804578781128, -0.04764595627784729, 0.28880536556243896, 0.19869796931743622, 0.3356429636478424, 0.305312842130661, 0.328166127204895, 0.13891884684562683, -0.24349302053451538, -0.018528761342167854, 0.08092144876718521], [0.180994912981987, 0.4843807816505432, -0.2323017120361328, 0.13846160471439362, -0.5281708240509033, 0.3215428590774536, 0.36755940318107605, -0.01344666164368391, 0.3450736403465271, 0.37292879819869995, 0.058980055153369904, -0.16653761267662048, 0.21748660504817963, 0.4638116955757141, 0.09767384082078934, -0.31701573729515076], [-0.23188059031963348, -0.11646758019924164, 0.29082009196281433, 0.12187805026769638, 0.07508102059364319, -0.4207567870616913, -0.3264281749725342, -0.2765054702758789, -0.10536661744117737, -0.07623017579317093, -0.36997345089912415, 0.055390797555446625, 0.17057743668556213, 0.22715815901756287, 0.36885443329811096, -0.2182149887084961], [-0.15893852710723877, -0.04978616535663605, 0.2877478301525116, 0.06270979344844818, -0.10550452768802643, -0.3731383681297302, 0.1619245558977127, 0.020364338532090187, -0.177048459649086, -0.20594710111618042, -0.07214312255382538, -0.20081596076488495, -0.1204560324549675, 0.3775271773338318, -0.3469690680503845, 0.008791614323854446], [0.29272472858428955, -0.19745184481143951, -0.2744770646095276, 0.3028441071510315, 0.006675747223198414, -0.05349364131689072, -0.374685138463974, -0.19342510402202606, 0.18545177578926086, 0.26779255270957947, 0.2627476155757904, -0.2880728840827942, 0.38026320934295654, -0.07756536453962326, 0.3177372217178345, 0.3224615156650543], [0.42502862215042114, -0.00875906553119421, 0.06896062195301056, 0.24019353091716766, 0.11460503935813904, 0.16575884819030762, -0.09201600402593613, 0.019366983324289322, 0.14943017065525055, 0.22161786258220673, 0.036193229258060455, 0.10382785648107529, 0.4068765640258789, 0.003300685668364167, -0.2983080744743347, -0.32162174582481384], [-0.47042062878608704, 0.5563101768493652, 0.6266631484031677, 0.0829378217458725, 0.005475335754454136, 0.5090836882591248, 0.2147746980190277, -0.036201734095811844, -0.13144007325172424, 0.01429546158760786, -0.2890590727329254, 0.17746159434318542, 0.045623864978551865, 0.030918776988983154, -0.02728257142007351, 0.09618349373340607], [-0.12196162343025208, 0.15121181309223175, 0.06572820991277695, 0.21516314148902893, 0.1652022749185562, 0.06793338060379028, 0.011177163571119308, -0.4830515682697296, -0.5244227051734924, 0.09819863736629486, -0.11991649866104126, -0.36532625555992126, 0.10694574564695358, -0.16852669417858124, -0.15385542809963226, -0.08152152597904205], [0.5034106373786926, 0.23402827978134155, -0.27750688791275024, 0.07563193887472153, -0.19116035103797913, -0.01552270445972681, -0.05443263426423073, -0.275118887424469, 0.1079324260354042, 0.09726114571094513, -0.12397310137748718, 0.2532463073730469, 0.13630010187625885, 0.2765653431415558, 0.20388300716876984, 0.1751251518726349], [0.13029491901397705, 0.41447171568870544, 0.037185188382864, 0.09810888022184372, 0.1491835117340088, -0.29522159695625305, 0.10834301263093948, 0.36983320116996765, -0.24376192688941956, -0.03431703522801399, -0.607460618019104, 0.3592529296875, -0.12643566727638245, -0.3105703592300415, -0.02634461037814617, 0.14427216351032257]]}, "ig": {"kernel": [[0.2680218815803528, -0.5787734985351562, -0.2503730058670044, -0.21574079990386963, -0.46794912219047546, 0.5202938914299011, -0.12951642274856567, -0.013904096558690071, 0.25068339705467224, 0.04145492613315582, -0.225773885846138, -0.21271832287311554, -0.10601194202899933, 0.13222484290599823, -0.23163262009620667, 0.5269211530685425], [0.16081638634204865, 0.25780612230300903, 0.02194538526237011, -0.1496681123971939, -0.28240156173706055, 0.2043856680393219, 0.135140523314476, 0.029407979920506477, 0.11633583903312683, 0.5188465714454651, 0.051247257739305496, 0.3112664222717285, -0.2076241672039032, 0.42593657970428467, -0.47689059376716614, -0.05964207276701927], [-0.06271081417798996, -0.2076324224472046, -0.044068533927202225, -0.21171627938747406, 0.11492326110601425, -0.48935338854789734, 0.14768800139427185, 0.09471016377210617, 0.16773848235607147, -0.15773649513721466, -0.29423004388809204, 0.39490577578544617, -0.2048966884613037, -0.20741908252239227, 0.28929591178894043, 0.5954867005348206], [0.31362104415893555, -0.12412392348051071, 0.3175879418849945, 0.0438360795378685, -0.16235356032848358, -0.3008965253829956, 0.11285148561000824, 0.33054569363594055, -0.19208775460720062, 0.0847800150513649, 0.2734418511390686, 0.36237025260925293, -0.324606716632843, -0.36642709374427795, 0.2164240926504135, -0.18739017844200134], [-0.3290257453918457, 0.056765004992485046, 0.3694206178188324, 0.09735787659883499, -0.46022745966911316, -0.0439271442592144, 0.09244418144226074, 0.12083892524242401, -0.11315558850765228, -0.021567923948168755, -0.11082512885332108, 0.38713374733924866, 0.37795743346214294, -0.2460751235485077, -0.18009351193904877, 0.3824845552444458], [0.22599825263023376, -0.040327947586774826, -0.0346519835293293, 0.07302418351173401, -0.21848396956920624, 0.14237567782402039, 0.10078560560941696, 0.18940678238868713, -0.18838796019554138, 0.12144283950328827, 0.19342027604579926, -0.18125827610492706, 0.16516825556755066, -0.15262414515018463, 0.22517609596252441, 0.7535196542739868], [0.13679462671279907, -0.20932763814926147, 0.41937732696533203, 0.3040062189102173, -0.11434449255466461, 0.1026485338807106, 0.07082285732030869, -0.01162830088287592, 0.1889137476682663, 0.025957144796848297, -0.19716504216194153, -0.02778024598956108, 0.08643396198749542, -0.1707700937986374, -0.10761188715696335, 0.22813443839550018], [0.11968515068292618, -0.26639801263809204, -0.13002683222293854, 0.11380590498447418, -0.07840916514396667, -0.5334158539772034, -0.07193814218044281, -0.44898808002471924, 0.3030408024787903, -0.24774067103862762, 0.48732906579971313, 0.09119156748056412, 0.08076853305101395, 0.06281781196594238, 0.10563470423221588, -0.2109833061695099], [0.24594447016716003, -0.3083944618701935, -0.10847017914056778, 0.5386611819267273, -0.0018123831832781434, 0.2917148470878601, 0.24306362867355347, -0.06924939155578613, -0.17716574668884277, 0.3726383149623871, -0.05829642713069916, 0.4014430642127991, 0.41108256578445435, -0.07334090769290924, 0.24965712428092957, 0.5643719434738159], [-0.14614708721637726, -0.1417643427848816, -0.4855419397354126, 0.08116577565670013, -0.22150558233261108, 0.00696524977684021, -0.39179322123527527, -0.24149343371391296, 0.06296276301145554, 0.1957971155643463, -0.22889964282512665, 0.45846858620643616, -0.3009538948535919, -0.05844728276133537, -0.058641333132982254, 0.03926791995763779], [-0.005517483688890934, 0.21078869700431824, 0.36258020997047424, -0.13837437331676483, 0.3108785152435303, 0.04813900962471962, -0.01727692410349846, -0.3823203444480896, 0.08673352003097534, -0.2163737267255783, 0.15042676031589508, 0.017151905223727226, -0.2488580048084259, 0.022439125925302505, -0.020416976884007454, -0.14988674223423004], [0.03944101184606552, 0.32993653416633606, -0.09833691269159317, -0.08591368049383163, 0.43083253502845764, 0.2768404483795166, -0.13624589145183563, 0.1614246815443039, 0.28549692034721375, -0.08968135714530945, 0.045123301446437836, 0.12810151278972626, -0.2748868763446808, -0.051442742347717285, 0.1514028012752533, 0.20856206119060516], [0.0362844318151474, 0.009420777671039104, -0.007731839548796415, -0.17457269132137299, 0.2898291051387787, -0.25017377734184265, 0.11620224267244339, 0.13411109149456024, -0.13881497085094452, -0.03652983158826828, 0.2915598452091217, 0.003550673136487603, 0.3685948848724365, -0.07318434864282608, 0.09910038858652115, 0.1763847917318344], [-0.08660508692264557, -0.1409185379743576, -0.2734163999557495, -0.0805366113781929, 0.3187820315361023, 0.49589696526527405, 0.24774087965488434, -0.22401544451713562, 0.24554355442523956, 0.03536802530288696, 0.20796804130077362, -0.23462557792663574, -0.15887708961963654, -0.12521544098854065, -0.0942445695400238, 0.5004830360412598], [-0.1060856357216835, 0.5222190022468567, -0.6059866547584534, -0.1403876543045044, -0.1274278163909912, -0.3455129563808441, -0.3695921003818512, -0.31076839566230774, -0.14072956144809723, 0.2806638479232788, -0.1496018022298813, 0.09718560427427292, -0.43029066920280457, -0.2450915426015854, -0.006586817093193531, 0.2032838612794876], [-0.026291271671652794, -0.556266188621521, -0.5011433959007263, -0.1717044562101364, -0.22312891483306885, -0.1699453592300415, -0.10334716737270355, -0.29639536142349243, -0.09642711281776428, -0.46656233072280884, 0.28312063217163086, 0.20685747265815735, 0.09772323071956635, 0.12257731705904007, 0.20678262412548065, -0.29760804772377014]]}, "ii": {"kernel": [[0.6137458682060242, 0.5781446695327759, -0.3574526309967041, -0.18835477530956268, -0.042137134820222855, -0.29171547293663025, -0.06493066996335983, -0.2528257369995117, -0.2981990575790405, -0.16322147846221924, 0.15589085221290588, 0.097118079662323, -0.0018373100319877267, -0.060812901705503464, -0.25825491547584534, -0.11679556220769882], [-0.029874838888645172, 0.14720511436462402, 0.11575488746166229, -0.14450572431087494, 0.14327192306518555, 0.4120660126209259, 0.06660319119691849, -0.4062989056110382, 0.0835610032081604, 0.13719876110553741, -0.3759245276451111, -0.3440210819244385, -0.43040788173675537, 0.3435588479042053, -0.24487638473510742, 0.056493427604436874], [0.10877244919538498, 0.11569333076477051, -0.1461196392774582, 0.00860664714127779, -0.3445044755935669, 0.22858236730098724, -0.041814226657152176, 0.45576924085617065, -0.09737569838762283, 0.2539169490337372, 0.044176939874887466, 0.2888830900192261, -0.0849328562617302, 0.11344477534294128, 0.0002946151071228087, 0.13311657309532166], [-0.27557235956192017, -0.3423081636428833, 0.10685956478118896, -0.04690986126661301, 0.01803525909781456, 0.6017850041389465, -0.5018272995948792, 0.3086579740047455, -0.4088698625564575, -0.2128518968820572, -0.2668640613555908, 0.18055006861686707, -0.18085314333438873, 0.03223612904548645, -0.21831907331943512, -0.20820392668247223], [-0.19235911965370178, 0.10737056285142899, -0.23651523888111115, -0.5631898045539856, 0.32576093077659607, 0.08138386905193329, 0.01890885829925537, 0.10813630372285843, 0.3203897476196289, 0.4550600051879883, 0.02688152715563774, -0.20674851536750793, -0.20355433225631714, 0.1583596020936966, -0.34492915868759155, 0.05687856674194336], [0.465344101190567, -0.29401513934135437, -0.11985957622528076, -0.03844030946493149, 0.28575190901756287, -0.505807101726532, -0.38298195600509644, 0.08177613466978073, -0.2819468677043915, 0.3110574185848236, -0.11930397897958755, -0.14652448892593384, 0.1435798555612564, -0.15776006877422333, -0.241510272026062, 0.15872913599014282], [-0.28207144141197205, -0.06869997084140778, 0.21202236413955688, 0.04562279209494591, -0.037768296897411346, -0.07112959027290344, 0.04201590642333031, -0.26268383860588074, -0.3221123218536377, -0.021429838612675667, -0.19958119094371796, 0.42384546995162964, 0.12966236472129822, 0.23988020420074463, 0.12219303101301193, -0.3745793104171753], [-0.6091192364692688, -0.3547186553478241, 0.10292719304561615, 0.3899267315864563, -0.336952269077301, -0.20161086320877075, -0.04748956859111786, -0.18097539246082306, -0.380460649728775, 0.14115868508815765, -0.36163902282714844, 0.08652986586093903, -0.43943163752555847, 0.20513877272605896, -0.35762372612953186, -0.08933085948228836], [0.43368789553642273, -0.05751870945096016, -0.08326178789138794, -0.18557985126972198, -0.1484459638595581, -0.4666394889354706, -0.3178640604019165, 0.21340210735797882, -0.38345858454704285, -0.38068118691444397, -0.30766505002975464, -0.24261023104190826, -0.4331827759742737, 0.2867182195186615, 0.16181722283363342, 0.1489650011062622], [0.6576778292655945, 0.14501845836639404, 0.207797572016716, -0.1611744612455368, 0.37546396255493164, -0.10863365978002548, -0.5735150575637817, -0.005529012065380812, -0.2855762541294098, 0.17487196624279022, 0.17922335863113403, -0.2464258372783661, -0.502617597579956, -0.03379949554800987, -0.061269525438547134, 0.4627169370651245], [0.20619265735149384, -0.13299250602722168, 0.5786705613136292, 0.4065471291542053, -0.13930340111255646, 0.17196860909461975, -0.32127395272254944, 0.07344810664653778, 0.253010094165802, -0.07622264325618744, 0.07911479473114014, 0.0947425365447998, -0.26591944694519043, -0.39150381088256836, 0.22184254229068756, -0.0020483701955527067], [0.5195468068122864, 0.28501397371292114, -0.36845308542251587, -0.06202917546033859, -0.5504475831985474, 0.08964745700359344, 0.04115227237343788, -0.05992908403277397, 0.4116503894329071, -0.3019389510154724, -0.17002509534358978, 0.19571970403194427, 0.22886745631694794, 0.16462433338165283, 0.49641042947769165, -0.12613873183727264], [-0.19554944336414337, 0.12126817554235458, 0.40929970145225525, 0.1487608551979065, -0.03897805139422417, -0.22823426127433777, 0.107837975025177, -0.085667684674263, 0.1527445763349533, -0.22341692447662354, 0.4066443145275116, -0.11619503796100616, -0.07324258983135223, 0.12681853771209717, -0.42788952589035034, 0.0938979759812355], [0.035005975514650345, -0.12007557600736618, -0.23948854207992554, -0.28118109703063965, -0.056555379182100296, -0.051565222442150116, 0.21879538893699646, -0.09374457597732544, -0.046272289007902145, -0.26912686228752136, 0.32391756772994995, -0.26105135679244995, 0.2638932764530182, 0.07399778068065643, -0.02115289866924286, -0.09215997159481049], [0.22304335236549377, -0.23950542509555817, -0.036298539489507675, -0.15342620015144348, 0.3324137032032013, 0.04522661492228508, -0.18701380491256714, -0.14384230971336365, -0.4193729758262634, -0.30217984318733215, -0.23665989935398102, -0.09910005331039429, 0.22906920313835144, 0.31488797068595886, 0.23079299926757812, 0.4928743839263916], [0.21851347386837006, -0.11414703726768494, 0.02860451489686966, -0.043066248297691345, -0.031078238040208817, -0.615967333316803, -0.02674335055053234, 0.1899896264076233, 0.3930286467075348, 0.2050747126340866, -0.1686403602361679, 0.2134096324443817, -0.1159997507929802, -0.30378028750419617, 0.466840922832489, 0.22791023552417755]]}, "io": {"kernel": [[-0.5640673637390137, 0.18977849185466766, -0.20957791805267334, -0.09259309619665146, -0.1736241579055786, -0.09765870124101639, 0.44115784764289856, 0.3083104193210602, 0.5551356077194214, 0.3402203917503357, 0.14020313322544098, -0.388034462928772, 0.39764121174812317, -0.3556687533855438, 0.055092744529247284, 0.21238110959529877], [0.1527336835861206, 0.05907706916332245, -0.23769082129001617, 0.14082396030426025, 0.13747620582580566, -0.1304933875799179, 0.4232161045074463, 0.02129361405968666, 0.06894810497760773, -0.265474408864975, 0.4721015989780426, 0.1416439414024353, -0.21486374735832214, 0.3447147011756897, 0.04082895442843437, -0.40072354674339294], [1.0867505073547363, 0.11904291808605194, -0.13562914729118347, -0.3863205015659332, 0.3142779767513275, -0.1428048312664032, 0.44248172640800476, 0.39772361516952515, 0.013179081492125988, 0.11234758794307709, 0.2898472845554352, 0.10434455424547195, 0.07137733697891235, -0.13629308342933655, 0.4692956805229187, 0.30455952882766724], [0.15590064227581024, -0.325233519077301, -0.5235509276390076, 0.18992331624031067, 0.2541845142841339, -0.20042450726032257, 0.037244901061058044, 0.3375255763530731, -0.3709726929664612, 0.20386835932731628, 0.30091777443885803, 0.26633745431900024, 0.29154524207115173, 0.06814572215080261, 0.15725074708461761, 0.10073745250701904], [0.29625746607780457, -0.2497207522392273, -0.2160874456167221, 0.504524827003479, 0.18317826092243195, -0.09405385702848434, -0.007304542697966099, 0.5389339923858643, 0.5476124882698059, 0.25154101848602295, -0.38880935311317444, 0.34973087906837463, 0.32915034890174866, -0.14850422739982605, -0.04685356095433235, 0.26006871461868286], [-0.2672736644744873, 0.04310421273112297, -0.14024238288402557, -0.38699987530708313, -0.32103869318962097, -0.13248731195926666, -0.22522053122520447, -0.1563969850540161, 0.20190037786960602, 0.052724745124578476, -0.5081457495689392, 0.31811845302581787, -0.382127046585083, -0.06732802093029022, 0.37468427419662476, -0.13755397498607635], [0.10742580145597458, 0.3827805519104004, -0.46728312969207764, 0.32916292548179626, -0.5781396627426147, -0.02264644391834736, 0.43365925550460815, 0.5704189538955688, -0.2621634900569916, -0.32666754722595215, -0.3305013179779053, 0.2127096801996231, 0.2724722921848297, -0.3861824870109558, -0.20154787600040436, -0.19423943758010864], [1.0958828926086426, 0.12582917511463165, -0.14423952996730804, 0.6511101722717285, 0.050493452697992325, -0.20336365699768066, -0.619546115398407, 0.11434994637966156, 0.27874186635017395, 0.36929136514663696, 0.029281817376613617, -0.2369547039270401, 0.15795926749706268, 0.15747018158435822, 0.25790536403656006, -0.15755480527877808], [-0.03522830456495285, 0.27529776096343994, 0.2425592541694641, -0.1418352574110031, -0.32377874851226807, -0.24547892808914185, -0.1804673820734024, 0.2786405384540558, -0.2643325924873352, 0.5580636858940125, -0.40214914083480835, 0.0991310104727745, -0.19703026115894318, -0.12320046871900558, -0.17384280264377594, 0.013569005765020847], [0.6884944438934326, -0.16409152746200562, 0.29031312465667725, 0.36830374598503113, -0.4670822322368622, -0.16167990863323212, -0.22834184765815735, -0.14716778695583344, 0.40656229853630066, -0.041619472205638885, 0.20220033824443817, -0.12300527840852737, -0.09841682761907578, 0.22994661331176758, 0.04136853292584419, 0.21289709210395813], [0.1835503876209259, -0.37430813908576965, 0.3418391942977905, -0.2230912297964096, -0.38105183839797974, -0.3586510419845581, -0.09268571436405182, 0.29838383197784424, -0.27368634939193726, 0.27315449714660645, 0.20141130685806274, 0.45928874611854553, 0.2395181953907013, -0.021903736516833305, -0.050085000693798065, -0.23145295679569244], [0.0851147472858429, 0.20431700348854065, -0.28653961420059204, 0.5527308583259583, -0.34427496790885925, -0.09764472395181656, 0.06285887956619263, 0.13005909323692322, 0.11938562244176865, 0.2636357545852661, -0.2069486826658249, 0.5183285474777222, -0.23433437943458557, 0.20948702096939087, -0.17021533846855164, 0.2690221667289734], [1.1197879314422607, -0.2810807526111603, 0.1563423126935959, 0.08618530631065369, -0.32214686274528503, -0.03685345500707626, -0.18636231124401093, -0.25440171360969543, 0.10358709841966629, -0.29208439588546753, 0.1272551566362381, 0.45987096428871155, -0.21753428876399994, 0.025490980595350266, 0.3570314943790436, -0.0591745488345623], [-0.2630465626716614, 0.15062099695205688, 0.2522262632846832, 0.10544458031654358, -0.21893316507339478, 0.43731871247291565, 0.36220085620880127, 0.5760064721107483, -0.6102464199066162, 0.2908097207546234, 0.43797311186790466, 0.5445654988288879, -0.2883272171020508, -0.19011051952838898, -0.41330400109291077, 0.33112820982933044], [0.4439050257205963, -0.041581280529499054, 0.3362317383289337, 0.13723894953727722, -0.0009314242051914334, 0.31250524520874023, -0.22526544332504272, 0.5253462791442871, 0.17981578409671783, 0.46060416102409363, 0.34981197118759155, 0.03976063430309296, 0.395457923412323, 0.09843655675649643, 0.11545456200838089, 0.25039348006248474], [-0.12182479351758957, 0.455121785402298, -0.19499945640563965, -0.3817216157913208, 0.28736019134521484, -0.08687889575958252, 0.04239193722605705, 0.13212065398693085, -0.1026698425412178, -0.21254129707813263, -0.18015077710151672, 0.02468138001859188, 0.24965384602546692, -0.10992908477783203, -0.1395789533853531, 0.08772102743387222]]}}}}, "test_1": {"yhat": [0.24738304316997528, 0.18869180977344513, 0.18239063024520874, 0.04395759478211403, -0.061662767082452774, -0.048680879175662994, 0.033272694796323776, 0.11363732069730759, 0.0707838386297226, -0.015858380123972893, -0.09372365474700928, -0.14059938490390778, -0.15165196359157562, -0.10270684957504272, -0.03322209045290947, 0.028019391000270844, 0.03471629321575165, 0.04219834506511688, 0.06643844395875931, 0.11067257076501846, 0.1260794997215271, 0.09732350707054138, 0.07043565809726715, 0.06122206524014473, 0.03799708932638168, 0.006162283010780811, -0.0029963008128106594, -0.0025423725601285696, -0.03889854997396469, -0.0688447430729866, -0.06979899108409882, -0.027016185224056244, 0.05377201363444328, 0.14665482938289642, 0.19725964963436127, 0.1946353167295456, 0.15469680726528168, 0.10714443773031235, 0.050582922995090485, 0.00698055000975728, -0.007298052776604891, -0.006255714222788811, -0.0046393172815442085, -0.002779934322461486, 0.013205491937696934, 0.0404137521982193, 0.06498909741640091, 0.07193771004676819, 0.056524984538555145, 0.02493499591946602, -0.015163221396505833, -0.059845708310604095, -0.08594317734241486, -0.08536005020141602, -0.03920568898320198, 0.022882312536239624, 0.11339499056339264, 0.20708082616329193, 0.28631165623664856, 0.2885577082633972, 0.24558183550834656, 0.16006281971931458, 0.07299433648586273, -0.009276336058974266, -0.037693895399570465, -0.013035226613283157, 0.11400924623012543, 0.2695491909980774, 0.42119771242141724, 0.47681644558906555, 0.442992627620697, 0.33241021633148193, 0.21250763535499573, 0.07056170701980591, -0.016941498965024948, -0.04660232365131378, 0.04882172867655754, 0.22588546574115753, 0.5162959098815918, 0.8300480246543884, 1.1089136600494385, 1.2896337509155273, 1.353765606880188, 1.3825558423995972, 1.4176616668701172], "rmse": 0.15149597667606504}}