{"model": "LSTM", "benchmark": "CED1", "meta": {"LR": 0.001, "n_re": 10, "n_hs": [2, 4, 8, 16, 32], "n_look": [2, 4, 8, 16, 32], "n_opt": 20000, "batch_len": null}, "nh_xval": 4, "look_xval": 2, "theta": {"params": {"Dense_0": {"bias": [0.028783608227968216], "kernel": [[1.5598114728927612], [-1.282527208328247], [-1.4974061250686646], [-0.6507634520530701]]}, "LSTMCell_0": {"hf": {"bias": [0.10119178891181946, 0.352839857339859, -1.1558668613433838, 0.25616317987442017], "kernel": [[0.07833702862262726, -0.7934730648994446, -0.8427132368087769, 0.12945453822612762], [0.8133980631828308, -0.7801646590232849, 2.4247403144836426, 0.2769075930118561], [-1.0787842273712158, 0.9890550971031189, -2.147085666656494, -0.5052686333656311], [-0.17858834564685822, -0.3989984393119812, 0.037873703986406326, 0.4099065959453583]]}, "hg": {"bias": [0.013339833356440067, -0.12741206586360931, 0.07196494191884995, 0.09025833755731583], "kernel": [[0.6249764561653137, 1.9702531099319458, -0.6255192160606384, 0.07751081138849258], [-0.25537002086639404, 0.2286805659532547, -0.697780430316925, -0.06967514753341675], [0.7261626124382019, -0.14027835428714752, 1.2199077606201172, 0.36221644282341003], [-0.6947134137153625, -0.489868700504303, -0.4825391173362732, 0.48948782682418823]]}, "hi": {"bias": [0.29349467158317566, 0.17238089442253113, 0.13605397939682007, -0.15364961326122284], "kernel": [[0.30663251876831055, -1.0956459045410156, 1.0138016939163208, 0.6908251047134399], [-0.9820490479469299, -1.3561073541641235, 3.4848225116729736, -0.482984721660614], [-0.08289998769760132, 2.972123384475708, 0.33577901124954224, -0.31314876675605774], [0.14508500695228577, 0.5824845433235168, 1.0349825620651245, -0.0817541852593422]]}, "ho": {"bias": [0.6115228533744812, 0.661929190158844, 1.5586482286453247, 0.08062859624624252], "kernel": [[0.4792322516441345, 0.7615079283714294, 0.4277529716491699, 0.306394100189209], [-0.14168612658977509, -2.0839786529541016, 0.840400218963623, 0.5659747123718262], [0.5995864272117615, 0.1009865328669548, -1.3079431056976318, -0.22754280269145966], [0.026814740151166916, -0.15284086763858795, -0.8880736231803894, -0.009514467790722847]]}, "if": {"kernel": [[0.2818964123725891, -0.23805636167526245, -0.8451939821243286, 0.6057486534118652], [0.04608629271388054, 1.0072234869003296, -0.8850210905075073, 0.14981961250305176]]}, "ig": {"kernel": [[-0.23292000591754913, -0.07591411471366882, -0.08577174693346024, -0.08617608994245529], [0.23427551984786987, 0.3242914378643036, 0.03488989546895027, -0.2573680579662323]]}, "ii": {"kernel": [[-0.3858746290206909, -0.6178290247917175, -0.5112734436988831, -0.29114171862602234], [0.25164198875427246, -0.1483066976070404, 0.8868157267570496, 0.04620327427983284]]}, "io": {"kernel": [[0.20431450009346008, 0.6063558459281921, 0.609542965888977, -0.0011540858540683985], [-0.12471149861812592, 0.06646785140037537, -0.3207074701786041, 0.30066290497779846]]}}}}, "test_1": {"yhat": [0.003677045227959752, -0.0001765700726537034, 0.021147195249795914, 0.07598086446523666, 0.15130113065242767, 0.23339219391345978, 0.3191359341144562, 0.4053954780101776, 0.4231838285923004, 0.28713032603263855, 0.12804168462753296, 0.07676924020051956, 0.23597635328769684, 0.5373532772064209, 0.7445129156112671, 0.7439730167388916, 0.5612321496009827, 0.319833368062973, 0.14938479661941528, 0.08477383106946945, 0.08410634845495224, 0.09557334333658218, 0.0896652564406395, 0.06343293935060501, 0.05087811127305031, 0.04800449684262276, 0.06531041860580444, 0.09922436624765396, 0.13353431224822998, 0.14388366043567657, 0.1391388326883316, 0.12505532801151276, 0.09639406949281693, 0.06279566884040833, 0.037920109927654266, 0.028845999389886856, 0.03273195028305054, 0.041056614369153976, 0.045825034379959106, 0.03222980722784996, 0.01580251380801201, 0.006989772897213697, 0.007478837855160236, 0.01918007619678974, 0.04504711553454399, 0.08981805294752121, 0.14757290482521057, 0.20721086859703064, 0.24502500891685486, 0.24997907876968384, 0.21566638350486755, 0.1546746790409088, 0.09089227765798569, 0.045753974467515945, 0.02678392082452774, 0.02575160562992096, 0.027024859562516212, 0.02385767176747322, 0.02178838476538658, 0.0280067790299654, 0.04183751344680786, 0.056239813566207886, 0.06286102533340454, 0.058316152542829514, 0.02981860563158989, 0.005016013514250517, -0.005741286091506481, -0.003169792704284191, 0.011547278612852097, 0.04073326289653778, 0.09712980687618256, 0.17263942956924438, 0.2499092072248459, 0.29772865772247314, 0.26229578256607056, 0.20119813084602356, 0.12970726191997528, 0.07447537779808044, 0.052430249750614166, 0.0641392394900322, 0.10392667353153229, 0.1807543933391571, 0.28158271312713623, 0.3620983064174652, 0.31104227900505066, 0.24391944706439972, 0.15776492655277252, 0.09039393812417984, 0.07138186693191528, 0.11217088997364044, 0.22527769207954407, 0.42307329177856445, 0.6905568242073059, 0.9770514369010925, 1.2203421592712402, 1.3794312477111816, 1.4499098062515259, 1.4559592008590698, 1.4327753782272339], "rmse": 0.3026426306820303}}