{"model": "GRU", "benchmark": "CED1", "meta": {"LR": 0.001, "n_re": 10, "n_hs": [2, 4, 8, 16, 32], "n_look": [2, 4, 8, 16, 32], "n_opt": 20000, "batch_len": null}, "nh_xval": 16, "look_xval": 2, "theta": {"params": {"Dense_0": {"bias": [0.028691863641142845], "kernel": [[0.2602601945400238], [-0.2891407608985901], [-0.1798480600118637], [-0.3915926516056061], [0.4457024037837982], [-0.28966468572616577], [-0.2128419280052185], [0.25416332483291626], [-0.2362344115972519], [-0.0726013258099556], [-0.1613771617412567], [0.41931191086769104], [-0.3643999397754669], [0.15206488966941833], [-0.004706078674644232], [-0.18405380845069885]]}, "GRUCell_0": {"hn": {"bias": [0.06045060232281685, 0.005140088964253664, 0.013255340978503227, -0.04165840148925781, 0.014380618929862976, -0.02113632671535015, -0.05714035779237747, 0.04767969250679016, 0.03756261244416237, -0.004852258134633303, -0.1351805180311203, 0.0956461951136589, 0.028021972626447678, 0.09158320724964142, -0.23933078348636627, 0.026900868862867355], "kernel": [[0.7109450697898865, 0.30829229950904846, -0.1772920787334442, -0.39944472908973694, -0.3810412883758545, 0.4980558753013611, 0.1445346474647522, 0.10327427834272385, -0.2441903054714203, -0.21025796234607697, 0.35469117760658264, -0.23736366629600525, -0.11011222004890442, -0.051487036049366, -0.3536106050014496, -0.4101250469684601], [-0.4730115234851837, 0.0736439898610115, 0.08970551937818527, -0.2471097856760025, -0.0009640345233492553, 0.11631091684103012, -0.1760605424642563, -0.21836507320404053, -0.1957235336303711, -0.19935373961925507, -0.6339521408081055, 0.2974052131175995, 0.03517096862196922, 0.2517257034778595, 0.08793845772743225, 0.1430201232433319], [0.20732182264328003, 0.03691735491156578, -0.016916217282414436, 0.11044783890247345, -0.2219589352607727, -0.45462653040885925, -0.5526102781295776, -0.25614848732948303, -0.08949245512485504, -0.12369026988744736, -0.5636442303657532, -0.020186075940728188, 0.23132507503032684, -0.32622867822647095, 0.3878374993801117, -0.26731544733047485], [0.027080632746219635, -0.026501648128032684, 0.06366988271474838, -0.15625901520252228, -0.4906280040740967, -0.016063060611486435, -0.043870024383068085, 0.039588890969753265, 0.13113529980182648, -0.37494274973869324, -0.03024284541606903, -0.4416269361972809, -0.33387595415115356, 0.06305956840515137, -0.05071393772959709, 0.6264827251434326], [0.6744706034660339, 0.6014482378959656, -0.3022141456604004, 0.47795069217681885, 0.40163901448249817, -0.40181994438171387, -0.2125656008720398, 0.37028199434280396, -0.27301129698753357, 0.19605813920497894, 0.5972867608070374, -0.12056080996990204, -0.9136248826980591, 0.2781680226325989, -1.310742974281311, -0.3466385304927826], [-0.2063552737236023, -0.008137555792927742, -0.10191406309604645, 0.007765425369143486, -0.16841380298137665, -0.0565408356487751, -0.37564677000045776, 0.18879181146621704, 0.022047556936740875, 0.06561143696308136, -0.11624300479888916, -0.43842607736587524, -0.05008823797106743, 0.11995665729045868, 0.14231984317302704, -0.07468613982200623], [-0.28826600313186646, -0.004221627954393625, 0.32969045639038086, 0.32671645283699036, 0.1330842226743698, 0.3139473795890808, 0.05859290063381195, 0.12522462010383606, -0.03881474584341049, -0.07715163379907608, 0.01198382955044508, -0.2975381910800934, 0.026461215689778328, -0.5397228598594666, -0.49599310755729675, -0.12081462889909744], [0.28995481133461, -0.3866678476333618, -0.06263834238052368, 0.4060008227825165, -0.227394700050354, 0.18858443200588226, 0.14914634823799133, -0.24504384398460388, 0.14874078333377838, -0.27411437034606934, 0.048723895102739334, 0.3214413523674011, -0.4104907512664795, 0.08167219907045364, -0.45329520106315613, -0.2566652297973633], [0.31573939323425293, -0.035623617470264435, -0.1490810513496399, 0.4087565541267395, -0.17757688462734222, 0.34125036001205444, -0.023151502013206482, 0.4615924656391144, -0.18491144478321075, -0.08580229431390762, -0.07012248039245605, -0.10276064276695251, 0.3726921081542969, 0.3273410201072693, -0.10670788586139679, 0.2086942195892334], [0.21301914751529694, -0.055766310542821884, 0.24996431171894073, 0.08187340945005417, 0.14072436094284058, -0.45408856868743896, 0.35985836386680603, 0.16202573478221893, 0.3612152934074402, -0.3595499098300934, -0.2667984068393707, -0.113111212849617, 0.23016251623630524, 0.07063202559947968, -0.2811580002307892, -0.19792549312114716], [0.17518053948879242, -0.3722931742668152, 0.0554887093603611, 0.011201505549252033, 0.062194447964429855, -0.3369410037994385, -0.04143154248595238, -0.08726654946804047, -0.6037777662277222, -0.07029063254594803, 0.5520700216293335, -0.26872414350509644, -0.3762395977973938, 0.8051260113716125, 0.24028557538986206, -0.6177147030830383], [-0.04626534506678581, 0.5357868075370789, 0.050728004425764084, -0.04651027172803879, 0.3246863782405853, 0.06519073247909546, -0.14708831906318665, 0.09651989489793777, 0.02541322074830532, -0.5886892676353455, 0.31772059202194214, 0.10591762512922287, -0.2032977044582367, -0.2107144147157669, 0.5387141108512878, -0.04281729832291603], [-0.7004691362380981, -0.12343287467956543, -0.5508199334144592, 0.009892715141177177, -0.17128416895866394, -0.12264273315668106, -0.2957567870616913, 0.07344482839107513, 0.5826703310012817, -0.108443483710289, 0.367302805185318, 0.4717496931552887, 0.38382837176322937, 0.1436874121427536, -0.09729377180337906, -0.04674278572201729], [-0.4708336889743805, 0.20007796585559845, 0.48284295201301575, -0.09620263427495956, -0.7503752708435059, -0.16712665557861328, 0.009468259289860725, 0.02823164314031601, -0.1254722774028778, 0.018072396516799927, -0.4362511932849884, 0.570393979549408, 0.37329161167144775, 0.5829148888587952, 0.8597851991653442, 0.02202760800719261], [-0.09392144531011581, -0.053973253816366196, -0.46762675046920776, -0.2483755499124527, 0.0030308212153613567, -0.30414220690727234, 0.39506796002388, 0.41812434792518616, 0.0602678507566452, 0.1718006581068039, -0.7863060832023621, 0.17957647144794464, -0.1715950220823288, -1.0084071159362793, 0.34147995710372925, -0.10450331121683121], [0.1368114948272705, -0.2995781898498535, 0.47536027431488037, -0.2831549346446991, -0.03545159846544266, 0.25791633129119873, -0.36956462264060974, 0.25430697202682495, 0.5215727090835571, 0.19080272316932678, 0.16887250542640686, 0.03762548416852951, -0.06539025157690048, -0.17276041209697723, 0.17582499980926514, -0.04845397174358368]]}, "hr": {"kernel": [[0.26080626249313354, 0.12562333047389984, 0.051903944462537766, -0.13301938772201538, 0.5292290449142456, -0.502071738243103, 0.5982155203819275, 0.16293422877788544, 0.3078356981277466, -0.34298714995384216, -1.0883756875991821, 0.0015010616043582559, 0.45275983214378357, 0.9260265231132507, -0.9415806531906128, 0.12883570790290833], [-0.3147643804550171, 0.005541847553104162, 0.2703196108341217, 0.1952333152294159, -0.2383512705564499, -0.19875015318393707, -0.02146196737885475, -0.3100764751434326, -0.15815559029579163, -0.32679396867752075, -0.2980075776576996, -0.14786246418952942, -0.6729372143745422, -1.2125873565673828, -0.378657728433609, -0.4082016944885254], [-0.14029701054096222, -0.006335654761642218, -0.6023088693618774, 0.06763733923435211, -0.06949561089277267, -0.08777408301830292, -0.018091903999447823, -0.41226083040237427, 0.1461637020111084, -0.2222294807434082, -0.11168944835662842, 0.39909833669662476, -0.02115585096180439, -0.7315786480903625, -0.3827834725379944, 0.052431680262088776], [-0.4345703423023224, 0.1626245677471161, -0.5133271217346191, 0.00028599955840036273, -0.5046401619911194, -0.21807622909545898, -0.07491666823625565, 0.32928380370140076, -0.17850105464458466, -0.414821058511734, -0.3730742931365967, -0.3634490668773651, 0.03656978905200958, -0.7717113494873047, -0.7377681732177734, -0.27972614765167236], [-0.2012440711259842, -0.626754641532898, -0.2684860825538635, 0.22725729644298553, 0.4273257255554199, 0.8041182160377502, -0.627450704574585, -0.25276872515678406, 0.0851965993642807, 0.11276119947433472, 0.40234214067459106, -0.5945793390274048, 0.050771377980709076, 2.4648890495300293, -0.4861026406288147, 0.35033127665519714], [0.31599393486976624, 0.07122405618429184, -0.029013432562351227, 0.08099281787872314, -0.045909419655799866, 0.4141860008239746, -0.02370147779583931, 0.11485159397125244, 0.21760742366313934, -0.30422893166542053, 0.7875341176986694, 0.1271975338459015, -0.052303772419691086, 0.7864302396774292, 0.9189409613609314, -0.36968398094177246], [0.3825320601463318, 0.44974151253700256, 0.27638956904411316, -0.6326101422309875, -0.011896905489265919, 0.5693275332450867, 0.08391212671995163, -0.15752628445625305, 0.314890593290329, 0.09294424206018448, 0.18546292185783386, -0.13673385977745056, -0.08205936849117279, 0.2244558483362198, 0.19461435079574585, 0.37879735231399536], [-0.39281758666038513, -0.14371326565742493, 0.37925073504447937, -0.4223158061504364, 0.4204684793949127, 0.6054819822311401, -0.022968215867877007, -0.15902139246463776, -0.049469850957393646, -0.0822775736451149, 0.942314863204956, 0.26936107873916626, 0.12010227143764496, 1.0764914751052856, 0.8849930167198181, 0.13639898598194122], [-0.044874995946884155, -0.1380452662706375, -0.15858803689479828, 0.24761876463890076, -0.40915998816490173, 0.05134408548474312, 0.36705324053764343, -0.10303337126970291, -0.4669934809207916, -0.008659188635647297, -0.11813081055879593, -0.2805221974849701, 0.4725857973098755, -0.3390183448791504, 0.36285242438316345, -0.20328828692436218], [0.4594511389732361, 0.3680703043937683, 0.32827168703079224, 0.29093390703201294, 0.1648109257221222, 0.6507963538169861, 0.02905213087797165, 0.05316227674484253, -0.17945867776870728, -0.0010107697453349829, 0.1997111439704895, 0.4719166159629822, -0.09699159115552902, 0.8372696042060852, -0.506505012512207, 0.2882125675678253], [-0.958777129650116, 0.13411399722099304, -0.15484189987182617, 0.2803041636943817, -0.22579461336135864, 0.3727900981903076, 0.06072491034865379, 0.18909277021884918, 0.10348217189311981, 0.2835715711116791, 0.13116784393787384, -0.14050863683223724, -0.1809161901473999, 0.9456619024276733, 0.049611568450927734, 0.5816655158996582], [-0.30049294233322144, 0.23178976774215698, 0.030970802530646324, 0.28696924448013306, -0.14484915137290955, -0.15796512365341187, -0.3246583342552185, -0.11137580871582031, 0.3679899275302887, 0.4274959862232208, 0.06304670870304108, -0.02120758220553398, 0.2859739661216736, -0.6243864297866821, -0.2615699768066406, -0.548263430595398], [-0.32527175545692444, 0.3551041781902313, -0.40795809030532837, 0.32090362906455994, -0.2401806116104126, -0.6048814058303833, 0.4834015965461731, 0.03275202587246895, 0.1816217303276062, 0.2773916721343994, 1.4227769374847412, 0.11556952446699142, -0.48820748925209045, -0.5316671133041382, 0.8249121308326721, -0.06833082437515259], [0.08073174208402634, -0.13471898436546326, 0.4103703796863556, -0.2534361779689789, -0.05285259708762169, -0.3185558617115021, 0.31659525632858276, -0.6278278827667236, -0.07656279951334, 0.22241440415382385, -0.07159776985645294, 0.30567410588264465, -0.12704744935035706, 0.3917487859725952, -0.20331555604934692, -0.2091083526611328], [-0.1573147177696228, 0.32097476720809937, -0.22349953651428223, -0.14845308661460876, -0.004360614810138941, -0.5847854018211365, 0.39728787541389465, -0.11428484320640564, -0.2012818604707718, 0.2698420584201813, -0.5200569033622742, 0.1570652276277542, 0.07791014015674591, -0.6310211420059204, -0.22184734046459198, -0.598004162311554], [-0.1411639153957367, -0.45987191796302795, -0.15297922492027283, 0.3441731631755829, -0.40886154770851135, -0.10203338414430618, 0.29048794507980347, -0.23923511803150177, 0.3219606280326843, -0.04262302443385124, -0.4465324580669403, -0.3426155745983124, -0.1508745700120926, -1.1483619213104248, -0.3323526680469513, -0.49673229455947876]]}, "hz": {"kernel": [[-0.16845914721488953, 0.02829403057694435, 0.27387598156929016, 0.5507867932319641, -0.14243581891059875, -0.4957466721534729, -1.2860523462295532, 0.14334656298160553, -0.0030077239498496056, -0.3330869674682617, 0.05798840522766113, -0.6667197942733765, -0.45017579197883606, 0.3610471785068512, -0.058500614017248154, 0.20816534757614136], [0.26366665959358215, -0.024171531200408936, -0.09731728583574295, -0.13755939900875092, -1.04849374294281, 0.37452730536460876, -0.012996467761695385, -0.40969645977020264, -0.1331971138715744, 0.15027397871017456, 0.6937940716743469, -0.0949644222855568, -0.02580629102885723, -0.43753865361213684, -0.5715927481651306, -0.25590988993644714], [-0.2908819913864136, -0.0670061782002449, 0.4605850577354431, -0.2535143196582794, 0.03000897541642189, 0.09555603563785553, 0.47689393162727356, 0.12096112966537476, -0.32595348358154297, -0.3224513530731201, -0.4798164665699005, -0.1494522988796234, 0.352588415145874, -0.018213970586657524, 0.481047123670578, -0.4901512861251831], [0.045848287642002106, -0.1507778763771057, 0.05512631684541702, -0.12432607263326645, 0.19793018698692322, -0.4070398509502411, -0.13952164351940155, -0.43930473923683167, -0.02860991097986698, -0.2630831003189087, 0.8269140124320984, 0.15558870136737823, 0.08631057292222977, -1.2797051668167114, 0.2324206531047821, 0.26003846526145935], [1.4702402353286743, -0.4554558992385864, 0.8443255424499512, 0.5586358308792114, 0.12126482278108597, 0.03962557017803192, 0.5587517619132996, 0.09870994091033936, -0.25832122564315796, -0.5959776043891907, -1.526860237121582, -0.9592283368110657, -0.634722113609314, -0.850701093673706, 0.6088584661483765, 0.7160969972610474], [0.23841476440429688, 0.17738217115402222, 0.09307681024074554, 0.5758101344108582, 0.02289029024541378, -0.22307926416397095, -0.09983701258897781, -0.3494620621204376, 0.021202746778726578, 0.6022395491600037, 0.9352549910545349, 0.1182231456041336, -0.03797521814703941, 0.8573368787765503, -0.15571077167987823, 0.09055072069168091], [0.6775389909744263, 0.019620412960648537, -0.11322571337223053, 0.2778208553791046, -0.5949015021324158, -0.15694934129714966, 0.12395619601011276, -0.08218742907047272, 0.5093600749969482, 0.13885881006717682, 0.8437016606330872, -0.5449593663215637, 0.2599118947982788, -0.2580878734588623, -0.549890398979187, 0.002893804106861353], [-0.2099057137966156, 0.14761072397232056, -0.477403849363327, 0.32770439982414246, 0.006304751615971327, 0.20073489844799042, 0.08897704631090164, 0.29514655470848083, 0.34512168169021606, 0.7368741631507874, 0.7045982480049133, 0.6153357625007629, 0.4134378433227539, 1.0057443380355835, -0.5378645062446594, 0.3831060528755188], [-0.13742054998874664, -0.2823459506034851, 0.06720826029777527, -0.7188875675201416, -0.21748170256614685, -0.5122191309928894, 0.3953602612018585, -0.5075174570083618, -0.420937180519104, 0.2564697563648224, 0.9846912026405334, -0.10733061283826828, 0.7712187767028809, 0.03362128883600235, 0.20859064161777496, 0.28410282731056213], [0.4235368072986603, 0.2899450659751892, -0.18784597516059875, 0.15618623793125153, 0.21210458874702454, 0.027784215286374092, 0.14147256314754486, 0.4389634132385254, 0.4266231656074524, 0.5026074647903442, -3.8744449615478516, 0.39941298961639404, 0.14536701142787933, -0.5473647117614746, 0.718482494354248, 0.31005775928497314], [-0.32830965518951416, 0.11163761466741562, -0.5178534388542175, 0.23804828524589539, 0.06109440326690674, 0.01040906086564064, 0.7406435012817383, 0.32829493284225464, -0.44966018199920654, 0.08361981809139252, 1.1178321838378906, 0.21328285336494446, 0.09110819548368454, 0.3569902777671814, 1.5161066055297852, 0.03822420910000801], [-0.26303189992904663, -0.45784977078437805, 0.7225207090377808, 0.090323805809021, -0.18026751279830933, -0.09217085689306259, 0.309587687253952, -0.3559476137161255, 0.021726509556174278, -0.4280558228492737, 2.2948551177978516, 0.04262553155422211, 0.15194305777549744, 0.28847429156303406, -0.38181766867637634, -0.532172679901123], [-0.3934951722621918, -0.5616120100021362, 0.13653922080993652, -0.23820438981056213, 0.038899268954992294, -0.13438063859939575, -0.00787283480167389, 0.20725443959236145, 0.04227008670568466, 1.1908501386642456, 0.865236759185791, 0.15578745305538177, 0.7638358473777771, 0.11872200667858124, 0.6998804807662964, -0.12493596971035004], [-2.030289649963379, -0.5027480125427246, 1.1196504831314087, -0.2647245228290558, -0.37481576204299927, 0.004819757770746946, 0.010500210337340832, 0.6156832575798035, -0.027072617784142494, -0.44205108284950256, 0.9483121633529663, 0.8558467626571655, -0.35741522908210754, 0.41292351484298706, 0.5500592589378357, -0.9384856224060059], [0.3028663694858551, 0.43193501234054565, -0.5136722326278687, 0.15227797627449036, 0.15549063682556152, -0.30859819054603577, -0.2981155216693878, 0.756117582321167, 0.473977267742157, -0.20670844614505768, 0.8512091636657715, 0.2910344898700714, -0.2658803164958954, 0.519199550151825, -0.5821930766105652, -0.9382426738739014], [0.05838599428534508, -0.10347259789705276, 0.38888314366340637, -0.6371080875396729, -0.19461888074874878, -0.17273129522800446, 0.19182749092578888, -0.5619905591011047, 0.221755251288414, 0.08161472529172897, 1.4919648170471191, -0.4498175084590912, 0.14358343183994293, 0.6248907446861267, 0.22236375510692596, 0.33384042978286743]]}, "in": {"bias": [0.08084310591220856, 0.019863881170749664, 0.017189862206578255, -0.032549142837524414, 0.006385449320077896, -0.025209248065948486, -0.0584062859416008, 0.047381285578012466, 0.02179895155131817, 0.003630446968600154, -0.12249844521284103, 0.0726730078458786, 0.022420862689614296, 0.06789317727088928, -0.07382962107658386, 0.026574792340397835], "kernel": [[-0.12262514978647232, -0.4073854386806488, -1.1625758409500122, -0.7865274548530579, -0.5477520227432251, 1.202865481376648, 1.1762480735778809, 1.5952966213226318, -0.5326533317565918, 0.23470284044742584, -0.5838582515716553, -0.5162479281425476, -0.06491158902645111, -1.002403736114502, 1.2268986701965332, -1.3084144592285156], [0.5765920281410217, -0.7610002756118774, 0.130711168050766, -0.6690388321876526, 0.36057212948799133, 0.6020160913467407, -0.6336341500282288, -0.3566925525665283, -0.6552127599716187, 0.5099131464958191, -0.3911430537700653, -1.4379191398620605, -0.1137235015630722, -0.005339036695659161, -0.10264696180820465, 0.49022334814071655]]}, "ir": {"bias": [-0.148817241191864, 0.0451987199485302, 0.3087320327758789, -0.027870243415236473, 0.021449245512485504, 0.07234756648540497, 0.025871004909276962, -0.10168661922216415, 0.009042956866323948, 0.035265132784843445, 0.5874817371368408, 0.06252966076135635, 0.00736701674759388, 0.369181364774704, 0.4564296305179596, 0.1592814326286316], "kernel": [[-0.2074359804391861, 0.1246587261557579, -0.19384780526161194, -1.0521665811538696, -0.21657432615756989, -0.2115720957517624, 0.2957904040813446, -0.9172191023826599, -0.8246557712554932, 1.2507641315460205, 0.28905734419822693, -0.9010375738143921, 0.007125677075237036, 1.2432973384857178, -1.282516360282898, -0.2633212208747864], [-1.1867581605911255, 0.9121116399765015, 1.6508204936981201, 0.6246236562728882, 0.5213797092437744, -0.25034433603286743, 0.07378112524747849, 1.211783528327942, -0.3838197588920593, -0.5041868686676025, -0.10037438571453094, 0.6117861866950989, 1.3016815185546875, 0.4540066719055176, -0.5838429927825928, 0.6331019401550293]]}, "iz": {"bias": [-0.01703774742782116, 0.3594546914100647, 0.02990841679275036, 0.346937358379364, -0.055116910487413406, -0.006183546502143145, -0.191083163022995, 0.2296847254037857, 0.2982691526412964, 0.09798657894134521, -0.11207067221403122, -0.10148932039737701, -0.011464172042906284, 0.8229100704193115, -0.5921100378036499, 0.04609937593340874], "kernel": [[0.39331963658332825, 0.4086119532585144, -0.6898349523544312, -0.5184236764907837, 0.7698001265525818, -0.9729779958724976, 0.3484862446784973, 0.19791355729103088, 0.7463353276252747, -0.751610517501831, 0.875829815864563, -0.43460509181022644, 0.4973377287387848, 0.3851926624774933, 0.9288383722305298, 0.7669360637664795], [0.39547574520111084, 0.5256157517433167, -0.7357659339904785, 0.4104810357093811, -1.059363603591919, 0.528243899345398, 0.7430710792541504, 0.5463322401046753, 0.4196038246154785, 0.07954810559749603, -0.7702991962432861, -0.5167738795280457, 0.6579461693763733, -1.0816837549209595, -0.24665184319019318, 0.36492782831192017]]}}}}, "test_1": {"yhat": [-0.03568674251437187, -0.001212081522680819, -0.009280179627239704, 0.08538030833005905, 0.19532141089439392, 0.4904501736164093, 0.7385008931159973, 0.7784207463264465, 0.5765223503112793, 0.4676910936832428, 0.5268546938896179, 0.5810995101928711, 0.6283692717552185, 0.648594856262207, 0.6325646042823792, 0.6071168780326843, 0.5441739559173584, 0.41310232877731323, 0.25871944427490234, 0.17640525102615356, 0.18899966776371002, 0.2349482625722885, 0.25142428278923035, 0.21201832592487335, 0.12249002605676651, -0.02066889777779579, -0.06740375608205795, -0.037436094135046005, 0.031287580728530884, 0.13848726451396942, 0.22464154660701752, 0.2408471703529358, 0.15806043148040771, 0.025098083540797234, -0.042193640023469925, -0.010981546714901924, 0.0629754364490509, 0.12262722849845886, 0.13930857181549072, 0.11184359341859818, 0.0483739972114563, -0.01671222224831581, -0.06064380332827568, -0.07155123353004456, -0.0444687120616436, 0.01619255170226097, 0.13197782635688782, 0.2541654706001282, 0.32892122864723206, 0.34140974283218384, 0.3026627004146576, 0.2143448293209076, 0.10645321011543274, 0.023482460528612137, -0.002128488151356578, 0.010396351106464863, 0.01215081661939621, -0.011359564028680325, -0.023709790781140327, 0.014495263807475567, 0.08822318911552429, 0.15521909296512604, 0.18356527388095856, 0.16335929930210114, 0.1024630144238472, 0.028001654893159866, -0.03608662635087967, -0.07559911161661148, -0.08297814428806305, -0.050047148019075394, 0.029684513807296753, 0.1622779220342636, 0.2918345034122467, 0.3654909133911133, 0.3868885338306427, 0.3050401508808136, 0.19589494168758392, 0.10643159598112106, 0.07059691101312637, 0.12306676805019379, 0.13636454939842224, 0.24763986468315125, 0.3907274007797241, 0.47258102893829346, 0.48131534457206726, 0.34857288002967834, 0.19788648188114166, 0.13160599768161774, 0.1549108475446701, 0.22931396961212158, 0.32615911960601807, 0.4443265199661255, 0.6011894941329956, 0.7995303273200989, 1.0099037885665894, 1.1961160898208618, 1.3364001512527466, 1.4227896928787231, 1.4616119861602783], "rmse": 0.2858183579316095}}