{"model": "FIR_MLP", "benchmark": "CED1", "meta": {"LR": 0.001, "n_re": 10, "n_hs": [2, 4, 8, 16, 32], "n_look": [2, 4, 8, 16, 32], "n_opt": 20000, "batch_len": null}, "nh_xval": 32, "look_xval": 32, "theta": {"params": {"Dense_0": {"bias": [-0.03412562236189842, 0.006031308323144913, -0.02457420714199543, 0.06365292519330978, 0.1808992177248001, 0.04466979578137398, -0.04574810341000557, 0.020464632660150528, -0.01646255888044834, 0.24008838832378387, 0.03286508843302727, -0.21582747995853424, -0.008886624127626419, -0.023229455575346947, 0.03174544870853424, 0.14101631939411163, -0.037944599986076355, 0.03660868480801582, -0.034143391996622086, 0.007585564162582159, -0.3215457797050476, -0.26393982768058777, -0.04719416797161102, -0.08106516301631927, 0.02078108862042427, 0.12824544310569763, 0.06854286789894104, -0.006928917020559311, -0.008997193537652493, 0.23341397941112518, -0.03975336253643036, 0.21698705852031708], "kernel": [[0.0963108167052269, -0.18923832476139069, -0.35740530490875244, 0.32933199405670166, 0.08604597300291061, 0.1348169893026352, 0.12756627798080444, -0.08549129217863083, -0.24990637600421906, -0.24476128816604614, 0.09281093627214432, -0.14182764291763306, -0.1532353162765503, 0.18578103184700012, -0.09466654807329178, -0.0980859249830246, -0.13435381650924683, 0.35298970341682434, -0.22761009633541107, -0.23286841809749603, 0.13060708343982697, 0.22941578924655914, 0.15299999713897705, -0.050260577350854874, -0.14883410930633545, -0.14390498399734497, -0.009786169975996017, 0.06931358575820923, 0.18220168352127075, 0.2155616134405136, -0.12768268585205078, 0.23124462366104126], [0.046611886471509933, -0.3422187268733978, 0.09156734496355057, 0.23017866909503937, 0.136736661195755, -0.006150584202259779, -0.0711195319890976, -0.22486239671707153, 0.062004152685403824, -0.02828734554350376, -0.06498537212610245, -0.04759138077497482, -0.2480216771364212, 0.11998166888952255, 0.15856793522834778, -0.15504591166973114, -0.4277254045009613, 0.5917233824729919, -0.05140675604343414, 0.0862811803817749, 0.2782929539680481, 0.174321249127388, 0.15740834176540375, 0.05783575400710106, 0.31735309958457947, -0.20839233696460724, 0.17685078084468842, -0.07004208862781525, -0.20464575290679932, 0.3406860828399658, 0.035395633429288864, -0.09882891923189163], [-0.09808070957660675, 0.2645341157913208, 0.2688336670398712, -0.08753666281700134, -0.11173733323812485, 0.015173978172242641, 0.005758941173553467, 0.3294144868850708, 0.051068082451820374, 0.11370071768760681, 0.31031832098960876, 0.09034951776266098, 0.10022351890802383, 0.22095060348510742, -0.11476726084947586, -0.23727896809577942, 0.12774451076984406, 0.009832888841629028, -0.1187811940908432, 0.07571590691804886, -0.023661678656935692, -0.45951777696609497, -0.16865859925746918, 0.010515823028981686, 0.05364024266600609, -0.17653128504753113, -0.25867778062820435, -0.22623349726200104, 0.10773798078298569, 0.01347225159406662, 0.09139475971460342, -0.03855708986520767], [0.033078633248806, 0.10555507242679596, 0.023205045610666275, -0.09993719309568405, 0.21830087900161743, -0.03306746855378151, 0.003065373282879591, -0.08198846876621246, -0.04211469739675522, -0.035444214940071106, -0.0907084196805954, 0.30410224199295044, -0.17841516435146332, 0.006552224513143301, 0.0942353755235672, 0.08210170269012451, -0.15797358751296997, 0.09009286761283875, -0.2463124543428421, -0.1065811738371849, -0.33451226353645325, -0.19406644999980927, 0.24622903764247894, 0.09251508116722107, 0.08842303603887558, -0.07462278753519058, 0.08754672110080719, -0.11298266798257828, -0.09171793609857559, 0.018567048013210297, 0.0946139246225357, -0.45437660813331604], [-0.10464093089103699, -0.005305859725922346, -0.09706766158342361, 0.23031727969646454, -0.16226734220981598, -0.03135059028863907, 0.022456752136349678, 0.03211930766701698, -0.1776866614818573, 0.29424798488616943, -0.07940445095300674, 0.45638346672058105, -0.09125228971242905, 0.221675843000412, 0.1968556046485901, -0.2807362675666809, -0.010462051257491112, 0.14603768289089203, -0.06014905869960785, -0.0577615387737751, 0.1818861961364746, -0.09025996178388596, -0.30670028924942017, 0.09694638848304749, 0.17693625390529633, -0.14735600352287292, 0.17551404237747192, -0.0746409222483635, -0.3029594421386719, -0.038546882569789886, -0.10366830974817276, -0.3202931880950928], [-0.06194814294576645, 0.07562369853258133, -0.31385117769241333, -0.1429588347673416, -0.3630868196487427, -0.012116042897105217, -0.09136995673179626, 0.0906771570444107, -0.030005618929862976, 0.2517933249473572, -0.3299236595630646, 0.14262215793132782, 0.050172243267297745, -0.04500487074255943, 0.06557286530733109, -0.06107113137841225, 0.11827027052640915, -0.09140302240848541, -0.06384019553661346, -0.00925573892891407, 0.31415045261383057, 0.14000004529953003, 1.7001353626255877e-05, 0.16546785831451416, -0.29199734330177307, -0.20765411853790283, -0.103409044444561, 0.2571011185646057, 0.10994536429643631, -0.3086581230163574, 0.3667389750480652, -0.2320849895477295], [0.09036180377006531, 0.0810597687959671, 0.05944694206118584, -0.023618513718247414, -0.29306933283805847, -0.22875064611434937, 0.265415221452713, -0.07843226194381714, -0.27849724888801575, -0.027055926620960236, -0.021159812808036804, 0.5274248719215393, 0.060107942670583725, 0.21901743113994598, 0.09734352678060532, -0.1049053817987442, 0.11991354823112488, -0.002540351590141654, 0.016999904066324234, -0.025183847174048424, -0.048835188150405884, 0.3358578085899353, 0.10699526965618134, 0.06607291847467422, 0.1681179702281952, -0.4939621686935425, 0.10726965963840485, -0.13164982199668884, 0.18118590116500854, -0.12658099830150604, -0.028625700622797012, -0.058254171162843704], [0.07881315797567368, 0.14548583328723907, 0.19972534477710724, -0.10947661846876144, -0.251982718706131, -0.3508647680282593, 0.07807780802249908, 0.026983287185430527, 0.058120399713516235, -0.10131470859050751, 0.16188518702983856, -0.2502564489841461, -0.009451683610677719, -0.08486892282962799, -0.24812710285186768, -0.16527390480041504, 0.15765142440795898, -0.20575501024723053, 0.3960440158843994, -0.051303450018167496, 0.16039179265499115, 0.3468244969844818, 0.35132479667663574, 0.3266487419605255, -0.11901737749576569, -0.9249619245529175, 0.31128066778182983, -0.05611011013388634, -0.09155382961034775, -0.26258426904678345, 0.11092004179954529, 0.010356448590755463], [0.233201265335083, 0.029897699132561684, -0.3524523675441742, 0.06780417263507843, 0.09072421491146088, 0.2097877413034439, 0.3132428824901581, 0.13067719340324402, 0.12233573943376541, -0.14816848933696747, -0.03763324394822121, 0.061652183532714844, -0.067271888256073, 0.40841495990753174, 0.17019619047641754, 0.1914585828781128, 0.1691015660762787, 0.14020667970180511, -0.1660626381635666, -0.10313542932271957, 0.3606029450893402, -0.097897969186306, 0.1982187181711197, -0.045673269778490067, -0.09484000504016876, -0.723015308380127, 0.014583218842744827, -0.014677667059004307, -0.2680343985557556, -0.1517886370420456, -0.08777983486652374, -0.3175670802593231], [-0.35133811831474304, 0.171378955245018, 0.19239541888237, -0.22353915870189667, -0.4116990864276886, -0.052333276718854904, -0.10093275457620621, 0.013563022948801517, -0.2700515389442444, 0.039995644241571426, 0.02528288960456848, 0.2819868326187134, -0.3444736897945404, -0.04840465262532234, -0.1985827386379242, -0.038417182862758636, 0.17913773655891418, 0.09785548597574234, 0.0890023410320282, 0.018311267718672752, 0.2803850769996643, 0.09625864773988724, 0.22192107141017914, 0.36228713393211365, 0.036809906363487244, -0.3987560570240021, -0.10898624360561371, -0.14549171924591064, 0.04486158490180969, -0.40522900223731995, 0.27735182642936707, 0.0661851018667221], [-0.0851692482829094, -0.2946496605873108, -0.18515634536743164, -0.15603645145893097, -0.459343820810318, 0.08507480472326279, 0.06825074553489685, -0.25893300771713257, -0.1742452085018158, -0.13214363157749176, 0.011299104429781437, 0.028672626242041588, -0.15036818385124207, 0.08251937478780746, 0.040614932775497437, -0.08446276932954788, -0.06015897914767265, -0.1103539988398552, -0.3126586973667145, -0.1873341202735901, 0.3431037962436676, -0.10186415165662766, -0.08923257142305374, 0.01211197953671217, -0.08902926743030548, -0.2545137107372284, -0.1302756369113922, 0.11415699869394302, 0.1518453061580658, -0.11038002371788025, -0.07175056636333466, -0.20915445685386658], [-0.05111929401755333, -0.2205713391304016, -0.25051349401474, -0.16803589463233948, -0.21859271824359894, 0.2533213198184967, -0.3353341817855835, -0.09208686649799347, 0.05598490312695503, -0.21142889559268951, 0.2400156855583191, -0.24713917076587677, 0.0798608586192131, -0.14706513285636902, 0.09955943375825882, -0.1484968513250351, 0.06734569370746613, -0.02353159710764885, 0.009068476967513561, 0.09613032639026642, 0.2641427218914032, -0.13077181577682495, 0.14417167007923126, 0.05893442779779434, 0.019716322422027588, -0.07258579134941101, 0.11116982251405716, -0.15880513191223145, -0.2991925776004791, -0.19614243507385254, 0.009539663791656494, -0.12570470571517944], [0.36660265922546387, -0.08224697411060333, 0.2645281255245209, -0.3068404197692871, -0.14747023582458496, -0.23559820652008057, -0.06378693133592606, -0.049410827457904816, 0.0422564260661602, -0.36303940415382385, -0.2205209732055664, 0.041177958250045776, 0.19783365726470947, -0.10820691287517548, -0.11323036998510361, 0.13464172184467316, -0.21402974426746368, 0.09237559139728546, 0.10092137008905411, 0.07379621267318726, -0.15644066035747528, 0.24168185889720917, -0.2473180741071701, 0.02729116566479206, 0.06244192644953728, 0.06926020234823227, -0.08983325958251953, 0.14997506141662598, -0.03403576835989952, -0.21337254345417023, 0.20256885886192322, -0.1183992475271225], [0.18214018642902374, -0.1156255304813385, -0.3447578251361847, -0.08072926849126816, 0.36052975058555603, 0.12368153780698776, 0.04147098585963249, 0.23401816189289093, 0.02949194610118866, -0.30214905738830566, 0.03113226220011711, -0.10355531424283981, 0.033648159354925156, -0.10134123265743256, 0.02142675593495369, -0.05378257855772972, 0.04443361610174179, 0.1676412969827652, 0.16925369203090668, 0.12659883499145508, 0.20492605865001678, 0.026081273332238197, 0.07341241836547852, 0.2832501530647278, -0.12152759730815887, 0.12930013239383698, 0.048631515353918076, 0.10018518567085266, 0.08036410063505173, -0.019183741882443428, -0.25032350420951843, 0.16771924495697021], [0.28956177830696106, 0.05396169051527977, 0.0873970314860344, -0.20130442082881927, 0.32240942120552063, -0.25783053040504456, -0.19833120703697205, 0.2749989330768585, -0.024901753291487694, -0.2068638950586319, -0.20779860019683838, -0.1371019184589386, 0.3605380654335022, 0.06362827867269516, 0.021875662729144096, 0.09651186317205429, 0.10629826784133911, -0.09247071295976639, 0.18537697196006775, -0.13249556720256805, 0.09828128665685654, 0.25562259554862976, -0.19486577808856964, 0.0285175871104002, 0.1571728140115738, 0.20579244196414948, -0.3069365322589874, 0.013113584369421005, -0.12077551335096359, -0.24184541404247284, -0.07552102208137512, 0.0962667465209961], [0.256289541721344, -0.022491712123155594, 0.028157725930213928, -0.18899592757225037, 0.22103819251060486, 0.12254850566387177, 0.2200070321559906, 0.03472588583827019, -0.07273055613040924, -0.3921976685523987, 0.06210263445973396, -0.11799982190132141, 0.024096449837088585, 0.05703263357281685, -0.09475021809339523, -0.05731687322258949, 0.0844436064362526, -0.024209685623645782, 0.057238347828388214, 0.09511197358369827, -0.11467134207487106, 0.046739038079977036, 0.08439542353153229, -0.13576948642730713, -0.2092117965221405, 0.19658653438091278, 0.26988428831100464, 0.21828000247478485, -0.12302687019109726, -0.1622275710105896, 0.18261602520942688, 0.11360324174165726], [-0.03427065908908844, 0.03968297690153122, -0.09479330480098724, -0.11901220679283142, -0.15511931478977203, -0.15707840025424957, -0.2047087401151657, -0.014905319549143314, -0.004358393605798483, 0.11472639441490173, 0.18840926885604858, -0.0267766285687685, -0.21674026548862457, -0.07151782512664795, 0.2715449333190918, -0.22310741245746613, 0.2987571656703949, 0.10406879335641861, -0.07710342109203339, -0.06647823005914688, 0.24709166586399078, 0.09582114219665527, -0.09101016819477081, -0.0873391255736351, -0.040337253361940384, -0.09373919665813446, -0.039668869227170944, -0.18219204246997833, 0.31154653429985046, -0.05769195780158043, 0.0727250799536705, 0.3758476972579956], [-0.019180631265044212, -0.08265087008476257, -0.07462385296821594, -0.15405726432800293, 0.2907525897026062, 0.13488057255744934, 0.12510307133197784, 0.20058006048202515, -0.1278177797794342, -0.29316574335098267, 0.24070380628108978, -0.18223527073860168, 0.10754527896642685, 0.38874155282974243, 0.1064721867442131, -0.03197371959686279, 0.01917669177055359, -0.07784764468669891, 0.21812495589256287, -0.05554429441690445, 0.02624102123081684, 0.2056088149547577, -0.1965586394071579, -0.22891557216644287, -0.22582657635211945, 0.005318083800375462, 0.3360414206981659, 0.16126497089862823, -0.022479087114334106, -0.36771801114082336, -0.10817170143127441, -0.15375831723213196], [-0.19870136678218842, -0.1605241745710373, -0.05169584974646568, 0.20131172239780426, -0.19512760639190674, 0.17859198153018951, 0.09974835813045502, -0.2360994815826416, -0.25891661643981934, -0.1557784378528595, -0.08863464742898941, 0.05157867819070816, 0.1641041338443756, 0.032736632972955704, -0.13217195868492126, -0.15442252159118652, -0.19109657406806946, -0.2313719391822815, -0.057963427156209946, 0.16478446125984192, 0.006361550185829401, -0.048495613038539886, 0.2017957866191864, -0.07797598838806152, -0.21334023773670197, -0.10555296391248703, -0.3838244378566742, -0.29325631260871887, -0.05237884446978569, -0.14441576600074768, 0.07751505821943283, 0.034188542515039444], [-0.031461939215660095, 0.13598865270614624, -0.06394460052251816, -0.0076677678152918816, 0.10242931544780731, -0.29496321082115173, -0.1369106024503708, 0.23807555437088013, 0.23188677430152893, -0.09706335514783859, 0.10536615550518036, 0.032471273094415665, -0.21238182485103607, -0.2820863425731659, 0.04052291437983513, -0.29744455218315125, 0.10738421231508255, 0.27391350269317627, 0.09358244389295578, -0.0855226069688797, 0.19007112085819244, 0.07820746302604675, 0.12236379832029343, -0.10528051108121872, 0.43120044469833374, 0.20286573469638824, 0.28344184160232544, -0.0643547922372818, 0.08272860944271088, 0.015591389499604702, 0.2659826874732971, -0.09590098261833191], [-0.04511693865060806, -0.2551570236682892, 0.12366250157356262, 0.06080279499292374, 0.10326337814331055, -0.17398801445960999, 0.17509998381137848, 0.07074563205242157, 0.15624088048934937, -0.15148454904556274, -0.04937359318137169, -0.17371700704097748, -0.02156168222427368, -0.11636733263731003, -0.004945929627865553, -0.21769949793815613, -0.1346205472946167, 0.1431231051683426, -0.13095401227474213, -0.12658050656318665, -0.033239804208278656, 0.22386294603347778, 0.07236956059932709, 0.18775971233844757, 0.14229419827461243, 0.006193517707288265, -0.10852929949760437, 0.11502736061811447, -0.10179055482149124, 0.3076643943786621, -0.08481612056493759, -0.28406208753585815], [0.17616015672683716, -0.07590509206056595, -0.07654432952404022, 0.2674545645713806, -0.18667906522750854, -0.02495608665049076, 0.08912455290555954, -0.1602267473936081, 0.1008928045630455, 0.08536707609891891, -0.1451965570449829, -0.05934048444032669, 0.06645143777132034, -0.041558023542165756, -0.05109322443604469, -0.30540579557418823, 0.01892843469977379, 0.021581320092082024, 0.2192721664905548, 0.04464486613869667, 0.20617681741714478, 0.16526250541210175, -0.13975819945335388, -0.2030796855688095, -0.22688347101211548, 0.313613623380661, -0.1981080323457718, 0.058576252311468124, -0.17580831050872803, 0.04380318894982338, 0.20272383093833923, -0.20510539412498474], [0.26015737652778625, 0.23603679239749908, 0.09535492956638336, 0.19838666915893555, -0.2570510804653168, 0.04459208995103836, 0.045673009008169174, 0.09976611286401749, -0.2962173521518707, 0.2698993980884552, 0.19777251780033112, 0.15591470897197723, 0.07963044941425323, -0.01706867851316929, 0.19183193147182465, -0.09067357331514359, -0.012968949973583221, -0.1644139438867569, 0.03270742669701576, 0.18724307417869568, 0.24032548069953918, 0.03239273652434349, 0.3101615011692047, -0.025373797863721848, -0.06752753257751465, -0.07576201111078262, 0.00039041932905092835, 0.1287381798028946, 0.005352898966521025, -0.22595728933811188, -0.17530827224254608, -0.29614585638046265], [-0.1985866129398346, -0.1445474922657013, -0.028606003150343895, 0.07405045628547668, 0.3946108818054199, -0.17730341851711273, 0.1696588397026062, 0.15968936681747437, 0.23629535734653473, 0.1372321993112564, 0.0252408217638731, 0.25444740056991577, 0.16547469794750214, -0.05539918690919876, -0.0076655438169837, -0.11175110191106796, -0.1468367576599121, 0.11423086374998093, -0.07232178747653961, -0.36111077666282654, 0.22185911238193512, -0.14844118058681488, -0.24257129430770874, -0.027805201709270477, 0.27880653738975525, -0.20990443229675293, -0.23257610201835632, -0.11633173376321793, -0.286925733089447, 0.12405630946159363, -0.07514442503452301, -0.10329434275627136], [0.012011883780360222, 0.025130894035100937, 0.06769753992557526, 0.2555423676967621, -0.10540664941072464, -0.2608972489833832, 0.045480843633413315, 0.046704404056072235, -0.032837845385074615, -0.03485516831278801, 0.2412116825580597, 0.19511669874191284, -0.10897417366504669, 0.13342933356761932, -0.0782221257686615, 0.14531227946281433, 0.01998794637620449, -0.04382709041237831, 0.026202797889709473, 0.12018272280693054, 0.07576393336057663, 0.11655672639608383, -0.1759999692440033, 0.039133258163928986, 0.37126150727272034, -0.11590081453323364, -0.05584697052836418, -0.18165606260299683, 0.15208294987678528, 0.013570105656981468, 0.054133638739585876, -0.47874122858047485], [-0.31787362694740295, -0.1973048895597458, 0.051404427736997604, -0.15934094786643982, -0.023257790133357048, -0.03649812564253807, -0.28817981481552124, -0.01898319087922573, 0.10468682646751404, 0.12682165205478668, -0.27084431052207947, -0.05884263291954994, -0.06689741462469101, -0.031409479677677155, -0.3292296528816223, -0.0846116840839386, -0.09117824584245682, -0.04743500426411629, 0.2468341439962387, -0.36339759826660156, 0.04565010964870453, -0.050776999443769455, 0.0382951982319355, -0.005768666509538889, 0.15565140545368195, 0.37090376019477844, -0.1983974575996399, 0.09484150260686874, 0.012179888784885406, -0.19924212992191315, 0.02299715392291546, 0.03262781724333763], [-0.07691476494073868, -0.022012583911418915, 0.11161644756793976, -0.0633760467171669, -0.16901543736457825, 0.021806370466947556, -0.26032555103302, -0.2680422365665436, -0.024904798716306686, -0.1359449177980423, 0.16992363333702087, 0.3271631598472595, -0.27893728017807007, -0.07429773360490799, 0.17530080676078796, 0.08547113835811615, -0.1687576174736023, -0.36304616928100586, 0.13946451246738434, 0.2782715857028961, -0.1880819946527481, 0.038812924176454544, -0.26399773359298706, 0.07826440036296844, -0.08210056275129318, -0.04956561699509621, -0.08057820796966553, -0.06256207823753357, 0.09030897915363312, 0.1939522922039032, -0.06143775209784508, 0.01592436619102955], [0.19622519612312317, 0.21345840394496918, -0.1372695416212082, 0.006593786180019379, 0.17976845800876617, 0.15489701926708221, 0.02782103419303894, 0.15052732825279236, 0.08482664823532104, -0.3172083795070648, 0.08307628333568573, 0.4715788960456848, -0.03317490592598915, -0.24942274391651154, -0.12566186487674713, -0.06522209942340851, -0.03224236145615578, -0.4675430953502655, 0.10500826686620712, 0.19266411662101746, -0.3910066783428192, 0.1947496235370636, 0.2744997441768646, -0.2268868386745453, 0.07704920321702957, 0.3578399121761322, 0.072880320250988, -0.023796817287802696, -0.10023318231105804, 0.15809862315654755, -0.08910547941923141, -0.1675765961408615], [-0.11192923784255981, 0.013476034626364708, 0.12679000198841095, 0.02710084244608879, -0.03461296856403351, 0.14434228837490082, -0.004219942260533571, 0.04988367483019829, -0.24417473375797272, -0.2946518361568451, 0.2660713493824005, 0.15134793519973755, 0.18244406580924988, -0.1324065774679184, 0.19923847913742065, 0.05462295562028885, -0.16155661642551422, -0.008665425702929497, 0.10514640063047409, 0.07634927332401276, -0.03230469673871994, 0.36511123180389404, -0.0668521597981453, -0.2627216875553131, 0.10173231363296509, -0.062949039041996, -0.21177507936954498, -0.09133030474185944, -0.19279412925243378, 0.033456671983003616, -0.2995106875896454, 0.027145542204380035], [0.1828032284975052, 0.21576917171478271, -0.2707459628582001, -0.018512608483433723, 0.599661111831665, 0.2968958616256714, 0.10962776094675064, -0.10489600151777267, 0.22656556963920593, 0.059481482952833176, 0.12950724363327026, 0.3890109956264496, -0.280863881111145, -0.017266523092985153, 0.02775847353041172, 0.07913994044065475, -0.16431893408298492, -0.15459251403808594, 0.015014815144240856, -0.29073378443717957, -0.1172102764248848, 0.2488839030265808, 0.13904428482055664, 0.046333834528923035, 0.049352411180734634, 0.05446329712867737, 0.035408083349466324, 0.026409199461340904, -0.16935794055461884, -0.21205639839172363, 0.04557209089398384, 0.010239978320896626], [-0.015230420976877213, 0.0850055068731308, 0.21523568034172058, 0.24316515028476715, 0.17533773183822632, -0.3376829922199249, 0.03347158804535866, -0.19675356149673462, -0.21236316859722137, -0.13699190318584442, 0.11913102865219116, 0.032249245792627335, -0.019110804423689842, 0.07759401202201843, 0.2832799255847931, -0.13445334136486053, -0.14329074323177338, -0.3887985050678253, 0.08630993217229843, -0.0047424170188605785, 0.22158336639404297, -0.16763678193092346, -0.06719518452882767, -0.24078349769115448, 0.05775236338376999, -0.14389191567897797, -0.00443639513105154, -0.2508162260055542, 0.07247544825077057, -0.23515628278255463, 0.25626513361930847, -0.08022303134202957], [-0.06271883845329285, -0.22378183901309967, 0.1439630389213562, 0.024196522310376167, 0.04685279354453087, -0.10162372887134552, -0.06769921630620956, 0.35603752732276917, 0.11513186991214752, -0.2553269565105438, -0.2302018702030182, -0.15096265077590942, -0.06624758243560791, 0.21563054621219635, 0.17478111386299133, -0.4594059884548187, -0.047154203057289124, -0.0687815323472023, -0.011193874292075634, 0.07665953785181046, 0.14823265373706818, -0.0906355157494545, 0.056600235402584076, 0.15128585696220398, -0.06388655304908752, -0.4381348192691803, 0.11010739207267761, -0.026310790330171585, 0.3689975440502167, 0.24961285293102264, 0.03477177768945694, 0.25113528966903687]]}, "Dense_1": {"bias": [0.06564688682556152], "kernel": [[0.1557038277387619], [-0.16814546287059784], [-0.29225319623947144], [-0.3299550712108612], [-0.38549596071243286], [-0.12400391697883606], [0.3813345730304718], [0.29667994379997253], [-0.16257983446121216], [0.2256544679403305], [0.17025300860404968], [-0.22075481712818146], [-0.22424869239330292], [0.18291671574115753], [0.36896589398384094], [0.20074404776096344], [-0.23930664360523224], [-0.1554049700498581], [0.39032721519470215], [-0.22800132632255554], [-0.15860508382320404], [-0.10499773919582367], [0.16951073706150055], [0.1593899130821228], [0.12697452306747437], [0.3872019052505493], [-0.1281917244195938], [-0.14926017820835114], [-0.23164084553718567], [0.35139384865760803], [0.34166833758354187], [0.16473448276519775]]}}}, "test_1": {"yhat": [0.085025355219841, -0.14800013601779938, 0.05600352957844734, -0.07554516941308975, 0.1361778974533081, 0.33571407198905945, 0.2538992762565613, 0.11916237324476242, 0.08821339905261993, 0.022979795932769775, 0.04740450531244278, 0.046288974583148956, 0.0444226898252964, -0.014333376660943031, 0.0054126642644405365, 0.05105278640985489, 0.06323027610778809, 0.0950278490781784, 0.15762805938720703, 0.2002849578857422, 0.20009183883666992, 0.13941171765327454, 0.10463405400514603, 0.04704098030924797, 0.040339406579732895, 0.04924917593598366, 0.01662777177989483, -0.034718602895736694, -0.018947524949908257, -0.03734336048364639, -0.015329821035265923, 0.010426436550915241, 0.008248420432209969, -0.016442686319351196, -0.06867361068725586, -0.10642870515584946, -0.09560094773769379, -0.09784023463726044, -0.09707128256559372, -0.06565887480974197, -0.00835354533046484, 0.07717164605855942, 0.16285735368728638, 0.22297455370426178, 0.2066810429096222, 0.1759353131055832, 0.09349215775728226, 0.016863355413079262, -0.0461982861161232, 0.007984207011759281, 0.0706789493560791, 0.19011765718460083, 0.31024691462516785, 0.41946858167648315, 0.33521154522895813, 0.3852061331272125, 0.23683013021945953, 0.11993087083101273, -0.0167394932359457, -0.006038125138729811, 0.13927066326141357, 0.399892657995224, 0.6173073649406433, 0.8732327222824097, 1.0687001943588257, 1.2668784856796265, 1.2770421504974365, 1.5146538019180298, 1.4680860042572021], "rmse": 0.12162770941775344}}