{"model": "LSTM", "benchmark": "CED2", "meta": {"LR": 0.001, "n_re": 10, "n_hs": [2, 4, 8, 16, 32], "n_look": [2, 4, 8, 16, 32], "n_opt": 20000, "batch_len": null}, "nh_xval": 32, "look_xval": 16, "theta": {"params": {"Dense_0": {"bias": [0.020443815737962723], "kernel": [[-0.13735747337341309], [0.015453978441655636], [0.08230682462453842], [-0.1717982292175293], [0.07901895046234131], [-0.04000958055257797], [-0.035253532230854034], [0.2225460708141327], [-0.13434256613254547], [0.11591381579637527], [0.027389151975512505], [-0.0028699494432657957], [0.0445283018052578], [-0.023170597851276398], [0.10881202667951584], [-0.04614289477467537], [-0.11198338866233826], [-0.2494211196899414], [-0.05584809184074402], [0.2919119894504547], [0.2778942883014679], [-0.018873995169997215], [-0.21638987958431244], [-0.1401401162147522], [-0.15012294054031372], [0.1987617313861847], [-0.09888172149658203], [-0.05642198026180267], [-0.03748321905732155], [0.1285926252603531], [0.18569833040237427], [0.06137401983141899]]}, "LSTMCell_0": {"hf": {"bias": [0.04247698187828064, -0.005933437030762434, 0.013393007218837738, 0.015298734419047832, -0.02191227860748768, 0.011417482048273087, -0.03510252386331558, -0.0026845980901271105, -0.019287701696157455, 0.024086935445666313, 0.0763009637594223, -0.01191263273358345, 0.030902152881026268, 0.04155195131897926, 0.0022241210099309683, 0.026670830324292183, 0.0074675194919109344, -0.024710923433303833, -0.008584294468164444, 0.021937036886811256, -0.043992698192596436, 0.04727182537317276, -0.014653876423835754, 0.04930590093135834, 0.012074495665729046, -0.0331907793879509, 0.0973745808005333, 0.021803682669997215, 0.045823704451322556, 0.00040940733742900193, -0.023750221356749535, 0.1681988686323166], "kernel": [[-0.23305433988571167, -0.11039834469556808, -0.1818452626466751, 0.06176421418786049, -0.1796043962240219, -0.16180293262004852, -0.023422997444868088, -0.2277422398328781, -0.1992000937461853, -0.03369380533695221, 0.1627890020608902, 0.03927338123321533, -0.07985170185565948, 0.3278023898601532, 0.16652637720108032, 0.20688459277153015, 0.07260961830615997, 0.08113235980272293, -0.6075860857963562, -0.08530262857675552, -0.018868891522288322, -0.058647867292165756, 0.02004336193203926, -0.1415019929409027, -0.26082926988601685, 0.14913474023342133, 0.006488695275038481, 0.2011769413948059, 0.09744123369455338, 0.059598248451948166, -0.27856868505477905, 0.260376900434494], [-0.17749527096748352, 0.24132131040096283, -0.07607904076576233, 0.09302005171775818, -0.09203434735536575, 0.0386580191552639, 0.008611612021923065, -0.1629345566034317, -0.19995495676994324, 0.07618813961744308, -0.17264147102832794, 0.036016546189785004, -0.3446780741214752, -0.2735542058944702, 0.07912873476743698, -0.20203903317451477, 0.31261229515075684, -0.4042221009731293, 0.0362619012594223, -0.217940554022789, -0.050296295434236526, -0.3424869775772095, -0.277555376291275, -0.06198844313621521, -0.0845242366194725, 0.08939440548419952, 0.15297704935073853, 0.09067688882350922, -0.24410542845726013, 0.1406586766242981, 0.23090997338294983, 0.09689022600650787], [-0.1894816756248474, -0.11384645104408264, 0.18404491245746613, 0.21596400439739227, -0.11936818063259125, 0.3190235495567322, 0.0943688452243805, -0.0533025823533535, 0.252285897731781, 0.2202804684638977, -0.11009836196899414, -0.031567830592393875, -0.10318471491336823, -0.15749268233776093, 0.3343905806541443, 0.028384998440742493, -0.10772385448217392, -0.19283902645111084, 0.08016762137413025, -0.14028701186180115, -0.29425904154777527, -0.18660248816013336, 0.13044020533561707, -0.13098742067813873, 0.19148440659046173, -0.15483352541923523, -0.1558373123407364, -0.02245398238301277, 0.005286971107125282, -0.23899981379508972, -0.22582335770130157, -0.0901348814368248], [-0.07407913357019424, 0.11383111774921417, 0.21702025830745697, -0.16706277430057526, -0.20398229360580444, 0.1466113030910492, 0.09391264617443085, 0.22362330555915833, -0.005413025617599487, 0.21232609450817108, 0.15157665312290192, 0.020473655313253403, -0.41639360785484314, 0.207003653049469, -0.009459948167204857, -0.1089225485920906, 0.017020588740706444, 0.2966490387916565, -0.3413926362991333, -0.025931991636753082, 0.032487235963344574, 0.29778149724006653, -0.08245526254177094, 0.2448510080575943, 0.5063335299491882, 0.15679356455802917, 0.1655847430229187, 0.2724806070327759, 0.16501891613006592, 0.15524686872959137, -0.08402978628873825, 0.03333185985684395], [0.11475767940282822, -0.042023055255413055, 0.17656058073043823, 0.25400209426879883, 0.04933762922883034, 0.031364452093839645, 0.1737373173236847, 0.4065198004245758, -0.308977335691452, 0.11295884102582932, 0.3165733814239502, -0.2215985357761383, 0.13473854959011078, 0.2229476124048233, 0.07452045381069183, -0.3534733057022095, 0.37420839071273804, 0.04754532873630524, 0.053252216428518295, 0.049343448132276535, -0.3202393352985382, -0.3928520679473877, 0.011851930059492588, -0.09046986699104309, -0.034596532583236694, 0.15661822259426117, -0.10636313259601593, 0.0005995184765197337, 0.11652085930109024, 0.023448504507541656, -0.08325385302305222, 0.44088709354400635], [0.3062436878681183, -0.04102043807506561, -0.11233095079660416, 0.03333713486790657, -0.1448260098695755, 0.2195160984992981, 0.3584575355052948, 0.06972701847553253, -0.10776463896036148, 0.01624702289700508, 0.10633590072393417, -0.017988571897149086, 0.15103329718112946, -0.12180572748184204, -0.04319462925195694, 0.02296932227909565, -0.1909169852733612, -0.18773725628852844, 0.0017148052575066686, -0.17818783223628998, 0.2772677540779114, -0.11072758585214615, 0.019794680178165436, 0.17126604914665222, -0.10367828607559204, -0.26263341307640076, -0.2876999080181122, 0.10171511024236679, -0.0652855634689331, 0.3637515604496002, -0.25447961688041687, -0.3200795650482178], [-0.06288337707519531, -0.051626306027173996, -0.050972796976566315, -0.08370780199766159, -0.39392784237861633, 0.19094911217689514, 0.07757170498371124, -0.34315225481987, 0.10105865448713303, -0.3371563255786896, -0.18458648025989532, -0.3335869014263153, 0.03711380064487457, 0.2133219838142395, -0.03548198193311691, 0.08242671936750412, 0.07138171792030334, 0.052521415054798126, 0.29174938797950745, 0.03066279925405979, 0.22560632228851318, -0.07371808588504791, 0.08892536908388138, -0.3178064227104187, 0.2628616690635681, 0.3803178668022156, -0.07101713120937347, -0.12240606546401978, -0.2444731593132019, 0.2071228325366974, 0.2204144448041916, -0.49055007100105286], [-0.009580105543136597, -0.043702382594347, -0.10573474317789078, 0.01285274513065815, -0.23142923414707184, 0.3869686424732208, -0.35311633348464966, 0.21576358377933502, 0.13496702909469604, 0.32878267765045166, 0.12528756260871887, 0.25497278571128845, 0.12927429378032684, 0.046792227774858475, -0.06514783948659897, -0.19918803870677948, 0.05304727703332901, -0.09607794880867004, -0.2622387707233429, 0.08079222589731216, 0.100259929895401, 0.025559885427355766, 0.12872731685638428, -0.13945458829402924, 0.06861551851034164, 0.011610759422183037, 0.009448460303246975, -0.41973501443862915, -0.10559924691915512, 0.08219029009342194, -0.026239385828375816, 0.12347646057605743], [-0.1560966819524765, 0.1277591586112976, -0.060720935463905334, 0.09315071254968643, 0.0069825793616473675, -0.16140346229076385, 0.18665985763072968, 0.3572992980480194, 0.07292063534259796, -0.11680543422698975, 0.2357214391231537, 0.10345125943422318, -0.560590922832489, 0.0973968580365181, -0.017482904717326164, 0.20703046023845673, -0.1599007248878479, -0.025837980210781097, 0.27814027667045593, -0.05139971897006035, 0.3162480294704437, -0.1371685415506363, 0.01520383171737194, -0.17482683062553406, -0.028698045760393143, 0.06913270056247711, -0.3701387941837311, -0.09802695363759995, -0.003191453404724598, -0.1455807238817215, -0.07699573785066605, 0.11867062002420425], [0.14750994741916656, -0.2237032800912857, -0.11426591128110886, 0.20181989669799805, 0.3372894823551178, 0.03491184115409851, -0.032187558710575104, -0.23755310475826263, 0.21572859585285187, 0.09483586251735687, 0.1663101464509964, 0.2983050048351288, -0.2770659327507019, 0.2056056410074234, -0.0037630300503224134, -0.32041308283805847, -0.26246005296707153, 0.16954673826694489, 0.21226264536380768, -0.3173571527004242, 0.02190299704670906, -0.4771552085876465, -0.01754916086792946, 0.1898532509803772, 0.007661806419491768, -0.08293379098176956, 0.3647775948047638, -0.006897437386214733, 0.2681736648082733, -0.0639316588640213, 0.17545829713344574, -0.19884932041168213], [0.27665749192237854, 0.18783625960350037, -0.11982326209545135, -0.41197651624679565, 0.07501078397035599, 0.1134871318936348, -0.006421143654733896, -0.07230202108621597, 0.3229357898235321, -0.13189968466758728, 0.043341998010873795, 0.1746283322572708, 0.06420514732599258, -0.04980272427201271, 0.02026962861418724, -0.03789222240447998, 0.055108003318309784, -0.17864912748336792, 0.058513540774583817, 0.22721309959888458, -0.13733606040477753, 0.45949965715408325, -0.08586505800485611, 0.011207275092601776, -0.05865643545985222, 0.2002587616443634, -0.2129666954278946, 0.38833072781562805, 0.011975876986980438, -0.05382127687335014, -0.24469658732414246, 0.04000052064657211], [-0.20224173367023468, -0.5355772972106934, -0.009710858575999737, -0.12707963585853577, 0.2220706045627594, -0.1323675662279129, 0.12641139328479767, -0.03722142055630684, 0.013563614338636398, -0.34148263931274414, -0.21218730509281158, -0.07696600258350372, 0.08512898534536362, 0.25455141067504883, -0.08028806000947952, -0.2357843965291977, -0.3595748245716095, -0.13859347999095917, -0.01788032427430153, -0.3813491761684418, -0.10583879053592682, 0.007781610358506441, -0.02224121429026127, -0.2372155338525772, 0.01487729325890541, 0.21102623641490936, 0.011206359602510929, -0.05835379660129547, -0.3239709138870239, 0.10081923007965088, -0.21552518010139465, -0.0013143867254257202], [-0.14183443784713745, 0.012112727388739586, -0.22158879041671753, 0.12206421792507172, 0.020315738394856453, 0.19536104798316956, 0.0396585576236248, 0.2563088536262512, 0.08202916383743286, 0.47667232155799866, -0.23778875172138214, -0.0695783942937851, -0.023720011115074158, 0.05240560695528984, -0.22840093076229095, -0.1544502079486847, -0.05262211710214615, -0.1578836441040039, 0.06694918125867844, 0.11654214560985565, 0.0556483194231987, 0.257778137922287, 0.3518463671207428, -0.20619678497314453, -0.35630717873573303, 0.4048606753349304, -0.40560078620910645, 0.2902572751045227, -0.009150823578238487, 0.052819184958934784, 0.12734436988830566, -0.2229316383600235], [0.19659437239170074, 0.061899565160274506, 0.18459144234657288, 0.1557396501302719, 0.2468568980693817, -0.3429689407348633, 0.08730097115039825, -0.14059238135814667, 0.04772572964429855, -0.37991273403167725, 0.05254759266972542, 0.1934257596731186, -0.180898517370224, 0.291133314371109, 0.351110577583313, -0.20368510484695435, 0.3614541292190552, 0.006276163272559643, 0.21651454269886017, 0.2506154179573059, -0.03728259354829788, 0.17663267254829407, 0.2405620515346527, -0.07296381890773773, -0.12912587821483612, -0.21796762943267822, -0.18962623178958893, -0.32161474227905273, -0.43640729784965515, 0.26918891072273254, 0.11961137503385544, 0.5623450875282288], [-0.0791870579123497, -0.43130773305892944, -0.2617160975933075, -0.13155092298984528, -0.5259309411048889, -0.029019780457019806, 0.3779757022857666, 0.040408115833997726, 0.00261320429854095, -0.33320704102516174, 0.22620612382888794, -0.05942557007074356, 0.058059580624103546, -0.18005438148975372, -0.05895756557583809, -0.18656130135059357, 0.012474843300879002, 0.07246295362710953, 0.008028227835893631, 0.17616267502307892, -0.14433877170085907, 0.057479023933410645, 0.2941909730434418, -0.24381619691848755, 0.10333050787448883, -0.032225169241428375, 0.05666143447160721, 0.05276784300804138, 0.034223832190036774, 0.02101995423436165, 0.16312554478645325, 0.25164031982421875], [0.18988104164600372, -0.15699322521686554, 0.35362672805786133, 0.2601369321346283, 0.47417110204696655, 0.2847759425640106, -0.0021668768022209406, -0.2835303544998169, -0.18969914317131042, -0.026577679440379143, -0.05031392723321915, 0.1595240980386734, -0.2855736017227173, 0.08620277047157288, 0.07290244847536087, 0.05198606103658676, 0.037195418030023575, -0.22457370162010193, 0.08993203938007355, 0.23368191719055176, -0.04299568012356758, -0.34580525755882263, 0.22858063876628876, 0.2466593235731125, -0.01561057846993208, -0.09276691824197769, 0.3352615237236023, 0.05071050301194191, 0.33545273542404175, 0.18231427669525146, 0.1846591681241989, 1.0485464334487915], [-0.5369380712509155, 0.4053937494754791, -0.3001631498336792, 0.14924238622188568, 0.09231533855199814, -0.13991795480251312, -0.002795959822833538, 0.05789715424180031, 0.020620940253138542, 0.1547871083021164, -0.17536498606204987, -0.12465722113847733, 0.23787309229373932, 0.19807007908821106, -0.0018332030158489943, -0.15576955676078796, 0.3369216322898865, -0.06980472058057785, -0.23751771450042725, 0.36611878871917725, 0.15684723854064941, -0.10317984223365784, 0.23905210196971893, 0.2532038986682892, 0.38054248690605164, -0.16073989868164062, -0.11509194225072861, 0.01685318350791931, 0.3518550395965576, 0.2361048012971878, -0.23330725729465485, -0.22622588276863098], [0.004590462427586317, -0.000877317157573998, 0.03269694373011589, -0.1915324181318283, 0.2782774865627289, 0.0652490109205246, 0.11495791375637054, -0.21589556336402893, 0.08127021789550781, -0.0012823138386011124, -0.17747148871421814, -0.09089034050703049, 0.08907991647720337, -0.14726197719573975, 0.35510656237602234, -0.20578689873218536, 0.18603603541851044, 0.08789287507534027, -0.042249199002981186, -0.21630112826824188, 0.3822174370288849, 0.1679394543170929, -0.041655030101537704, -0.021471336483955383, -0.08532778918743134, 0.18537026643753052, -0.22516952455043793, -0.179890438914299, 0.26772722601890564, 0.033603888005018234, -0.08192108571529388, 0.0037454338744282722], [0.07520796358585358, -0.1619640588760376, -0.007207752205431461, 0.04416615143418312, -0.19262272119522095, -0.45829060673713684, -0.07658127695322037, 0.13053856790065765, 0.13607828319072723, 0.10188012570142746, 0.2560151517391205, -0.0042948042973876, 0.16787487268447876, 0.1292579174041748, 0.0710294172167778, 0.12660524249076843, 0.14019879698753357, -0.44568073749542236, -0.04613998159766197, -0.09401160478591919, -0.009495547972619534, 0.19286184012889862, 0.02621634490787983, 0.42372801899909973, 0.2691499888896942, 0.3677767813205719, -0.02179889753460884, -0.07588726282119751, 0.29468834400177, -0.05911429598927498, 0.026976056396961212, -0.012301186099648476], [-0.075531005859375, 0.16503497958183289, -0.20511409640312195, -0.14186514914035797, 0.46132156252861023, 0.19993750751018524, 0.05009032413363457, 0.3054768145084381, 0.2000170797109604, -0.012363308109343052, 0.8016289472579956, 0.1424717903137207, 0.13024233281612396, -0.18574479222297668, 0.03349941223859787, 0.26662448048591614, 0.13057555258274078, -0.11838354170322418, -0.17090141773223877, -0.2008783370256424, -0.0906708762049675, 0.2704407274723053, 0.36709174513816833, -0.13677136600017548, -0.04371212050318718, 0.037652213126420975, 0.47432705760002136, -0.023144762963056564, -0.09903004765510559, -0.022893736138939857, 0.1574135422706604, -0.34571704268455505], [-0.4736897647380829, -0.26127907633781433, 0.07143030315637589, -0.027717938646674156, 0.24202768504619598, 0.11247605830430984, 0.10441470146179199, -0.007170580793172121, 0.046041276305913925, 0.17364422976970673, 0.09463998675346375, 0.00553094083443284, 0.18723033368587494, -0.21030880510807037, -0.25157254934310913, 0.25528281927108765, 0.21974334120750427, -0.041667480021715164, -0.20182187855243683, 0.1615014374256134, -0.22981835901737213, -0.2031223475933075, -0.16910776495933533, 0.15623913705348969, 0.030225679278373718, 0.1733589619398117, -0.3194543421268463, -0.1298515647649765, -0.08180705457925797, 0.3670566976070404, 0.05742045119404793, -0.14508171379566193], [-0.04316297918558121, 0.11395444720983505, -0.08631348609924316, 0.06829115003347397, 0.21955619752407074, -0.025856157764792442, 0.09813488274812698, -0.14320166409015656, 0.1974722146987915, 0.020850418135523796, -0.05804288759827614, -0.09667862206697464, -0.08480197191238403, -0.10501366853713989, 0.25434643030166626, -0.2925991117954254, 0.26929494738578796, -0.16026130318641663, 0.06177455559372902, 0.08980484306812286, -0.13357454538345337, -0.09420032799243927, -0.1689484566450119, -0.1470639556646347, -0.4933965504169464, 0.11090623587369919, 0.4669569134712219, -0.06555313616991043, 0.2321794331073761, 0.18778276443481445, -0.04434240981936455, -0.18503940105438232], [-0.1483435034751892, 0.04315682873129845, 0.23600538074970245, -0.17073391377925873, -0.09029135853052139, 0.15991832315921783, 0.08102156221866608, -0.16581390798091888, -0.1659805029630661, -0.15465563535690308, 0.05205434560775757, 0.07462873309850693, -0.17513900995254517, 0.24218399822711945, -0.4125813841819763, -0.18728870153427124, 0.08171136677265167, -0.10457402467727661, 0.3085145354270935, -0.04791172593832016, 0.07995137572288513, 0.29535096883773804, -0.0487774983048439, 0.10883636027574539, -0.10279674082994461, -0.09703578054904938, -0.04978516697883606, -0.19415433704853058, -0.027999872341752052, -0.3590400218963623, -0.26339223980903625, -0.28468531370162964], [-0.08480806648731232, 0.16480807960033417, -0.028502510860562325, 0.48947635293006897, -0.04208178445696831, -0.03799569234251976, 0.27719616889953613, -0.2774515450000763, 0.4069967269897461, -0.13814572989940643, 0.021023262292146683, -0.12913505733013153, 0.1487828493118286, -0.1980319321155548, -0.1602546125650406, -0.08156167715787888, 0.21593238413333893, 0.0360298752784729, -0.08246888220310211, 0.3146108388900757, -0.16571323573589325, 0.017775073647499084, -0.034484099596738815, 0.16605140268802643, -0.17869020998477936, 0.23314842581748962, 0.024201858788728714, -0.08980071544647217, -0.1753794103860855, -0.10246238112449646, 0.08598406612873077, -0.054226890206336975], [0.34392276406288147, 0.12827201187610626, 0.2572095990180969, 0.1324227750301361, -0.07691603899002075, -0.18234629929065704, -0.28913792967796326, -0.030827542766928673, 0.17825712263584137, -0.285620778799057, -0.4132513105869293, -0.15049545466899872, -0.3111489713191986, -0.17465868592262268, -0.3042948842048645, 0.050281766802072525, 0.012876998633146286, 0.08027686178684235, 0.2405160516500473, -0.2287968397140503, -0.1008743867278099, -0.1469322144985199, 0.18319551646709442, -0.13771258294582367, -0.17667867243289948, 0.03428908810019493, -0.12527713179588318, -0.2885338068008423, 0.10098899155855179, 0.3110311031341553, -0.2783968448638916, -0.3114606440067291], [-0.00611157389357686, -0.07930077612400055, 0.30194979906082153, -0.2853967845439911, 0.24215827882289886, -0.21396709978580475, 0.28083401918411255, 0.042244087904691696, 0.026661140844225883, 0.17618755996227264, -0.013500949367880821, -0.0012690623989328742, 0.02920546941459179, -0.017846420407295227, 0.016681484878063202, -0.03909770026803017, 0.23828716576099396, -0.40212512016296387, -0.43627503514289856, 0.1726033240556717, 0.15557368099689484, -0.3334791362285614, 0.22883209586143494, -0.22092817723751068, 0.003638471243903041, 0.008405986241996288, 0.38707196712493896, -0.079359270632267, -0.0060715400613844395, -0.1165972352027893, 0.09762106835842133, -0.09694670140743256], [0.06543655693531036, -0.02801697328686714, 0.004399758763611317, -0.12481548637151718, -0.15581269562244415, 0.009684809483587742, 0.160253643989563, 0.3014254868030548, 0.37283390760421753, 0.20822520554065704, -0.1296073943376541, -0.21234720945358276, 0.04920875281095505, 0.4836518466472626, 0.03092331439256668, 0.2683294713497162, 0.5759533047676086, -0.0065408991649746895, -0.29805657267570496, 0.04273500293493271, -0.006566413212567568, 0.03186126425862312, -0.4094884395599365, 0.33865177631378174, 0.10580238699913025, -0.4038999378681183, -0.06643781810998917, 0.24064376950263977, 0.17620672285556793, 0.00617123581469059, 0.11213382333517075, -0.06793258339166641], [0.029202478006482124, -0.6463416814804077, 0.05526604503393173, 0.22859300673007965, 0.11691934615373611, -0.14432214200496674, -0.2664036452770233, 0.039242979139089584, 0.14485907554626465, -0.24269475042819977, -0.08275671303272247, -0.08737659454345703, -0.20486465096473694, -0.2565374970436096, 0.0335865318775177, -0.21445339918136597, 0.22044332325458527, -0.056846387684345245, 0.08506178110837936, -0.046311795711517334, 0.43876925110816956, -0.10135183483362198, 0.08742547780275345, 0.027390604838728905, -0.30831223726272583, -0.11879477649927139, 0.2779598832130432, 0.21657513082027435, -0.3290640413761139, -0.013560652732849121, -0.14561426639556885, -0.0665459856390953], [0.24224990606307983, -0.042657461017370224, -0.24519237875938416, 0.05083936080336571, 0.15517452359199524, -0.046623215079307556, 0.005258642137050629, -0.2978780269622803, -0.229722797870636, 0.5731816291809082, 0.23993554711341858, -0.21462610363960266, -0.029133304953575134, 0.056533027440309525, -0.19903407990932465, 0.15264904499053955, 0.19789308309555054, -0.1518227756023407, -0.052579984068870544, 0.08454059809446335, -0.06566725671291351, 0.1585984230041504, -0.130807563662529, -0.3795508146286011, 0.40745460987091064, 0.0359843410551548, -0.00023302021145354956, 0.19888658821582794, 0.05191453918814659, 0.021369189023971558, -0.14599743485450745, 0.28548485040664673], [-0.10935981571674347, 0.18844474852085114, 0.332662433385849, 0.029479991644620895, -0.06180862709879875, -0.05052052065730095, 0.0777493566274643, -0.01909032091498375, 0.14241397380828857, 0.05549154430627823, 0.18555673956871033, 0.26453542709350586, 0.40305283665657043, -0.14233773946762085, -0.2469862699508667, -0.06336888670921326, -0.005474298261106014, -0.012093919329345226, -0.11244048923254013, -0.11414620280265808, 0.12913614511489868, 0.09235907346010208, 0.028471380472183228, -0.45119115710258484, 0.04718891158699989, 0.06512554734945297, 0.0937945693731308, 0.3649657070636749, 0.07731553167104721, 0.1173906922340393, 0.01608407124876976, 0.27540701627731323], [-0.0844373106956482, -0.08295880258083344, 0.263062059879303, 0.02628164179623127, 0.09501578658819199, 0.008812052197754383, -0.3106880187988281, -0.03365536406636238, -0.09063348174095154, -0.286674439907074, 0.20129816234111786, -0.22935734689235687, 0.003034312278032303, 0.18220242857933044, 0.18317626416683197, -0.19475871324539185, -0.2392420470714569, -0.24695593118667603, -0.13093385100364685, 0.21005085110664368, -0.010763108730316162, 0.12937524914741516, -0.2819466292858124, -0.14719638228416443, 0.0064105200581252575, -0.10773412883281708, -0.17420047521591187, 0.07504429668188095, 0.10120228677988052, 0.15125544369220734, 0.2222534716129303, -0.09299401938915253], [-0.45265108346939087, -0.03856523707509041, 0.027508629485964775, -0.606191098690033, -0.5889857411384583, -0.14081744849681854, -0.08180636912584305, -0.20579290390014648, 0.09756068140268326, 0.4087825417518616, 0.006517786532640457, -0.3518052399158478, -0.018919698894023895, -0.020241323858499527, -0.0561588890850544, -0.19694730639457703, 0.14391884207725525, 0.2309306114912033, -0.14175932109355927, 0.022793235257267952, -0.07025434076786041, -0.19396913051605225, 0.1733400821685791, 0.12385975569486618, -0.08858685195446014, 0.08500450849533081, -0.3130375146865845, 0.3570142984390259, -0.25825512409210205, 0.03240567073225975, 0.030878078192472458, -0.3088078796863556]]}, "hg": {"bias": [-0.01602185145020485, -0.10132681578397751, -0.02122323028743267, 0.021149029955267906, -0.03172386437654495, -0.07915030419826508, 0.003508453955873847, 0.0003999292093794793, 0.0016062656650319695, 0.01210726611316204, 0.03540005534887314, -0.029694871976971626, -0.0017878450453281403, 0.017138734459877014, -0.03906538709998131, -0.010611306875944138, -0.049382030963897705, 0.04151807725429535, 0.01163355354219675, -0.012140797451138496, -0.006292481906712055, -0.031183766201138496, 0.01082156877964735, -0.012368880212306976, 0.08401349931955338, -0.0043767960742115974, 0.020322933793067932, 0.001637816778384149, 0.03501995652914047, -0.043739382177591324, -0.024490971118211746, -0.01637023314833641], "kernel": [[-0.022467684000730515, 0.23148247599601746, -0.04277869313955307, 0.01927349530160427, 0.07937844842672348, 0.25672778487205505, 0.13294023275375366, 0.3306296765804291, -0.17797908186912537, -0.28551504015922546, -0.20529037714004517, -0.054164476692676544, 0.12209813296794891, 0.15560820698738098, -0.13190333545207977, 0.1307554990053177, -0.03309740126132965, 0.24912650883197784, -0.33391591906547546, 0.27709925174713135, 0.028931736946105957, -0.03835214674472809, -0.009802001528441906, -0.26320919394493103, -0.5574948191642761, 0.1325262486934662, 0.19999291002750397, 0.42768871784210205, 0.2650907337665558, -0.09623071551322937, 0.09328484535217285, 0.17433665692806244], [-0.049535129219293594, -0.07258852571249008, -0.04646169766783714, -0.07021790742874146, -0.24016256630420685, -0.33267179131507874, -0.1614266037940979, 0.212632417678833, 0.05656709149479866, -0.08792393654584885, -0.08405876159667969, 0.14854498207569122, 0.24263733625411987, 0.1659357100725174, -0.11836504936218262, 0.18681110441684723, 0.21652469038963318, -0.2932843863964081, -0.2813720405101776, -0.3975151777267456, -0.06480429321527481, 0.37198787927627563, 0.16850830614566803, -0.01631684973835945, -0.10152702033519745, 0.299022912979126, 0.024701103568077087, 0.18357983231544495, -0.0772799700498581, 0.007590543013066053, 0.03913196921348572, 0.19509823620319366], [-0.4093453884124756, 0.25369247794151306, -0.027091197669506073, -0.21729588508605957, 0.062042731791734695, -0.41814783215522766, -0.14613191783428192, 0.15905725955963135, 0.09725634008646011, 0.002188884885981679, -0.20150622725486755, -0.09595450013875961, 0.2089371681213379, -0.04624267667531967, 0.12326141446828842, -0.3253768980503082, -0.23132026195526123, 0.2761455774307251, 0.135483518242836, 0.16734318435192108, -0.10512852668762207, 0.11358533799648285, 0.20746836066246033, 0.1283205896615982, 0.22482410073280334, 0.016822364181280136, -0.28654754161834717, -0.059221796691417694, 0.1501011997461319, 0.16188399493694305, -0.07065990567207336, -0.14316187798976898], [-0.07566048949956894, -0.10585792362689972, 0.11885463446378708, -0.12359882891178131, -0.029145652428269386, -0.0191150214523077, -0.2775052487850189, 0.05853652209043503, 0.011764616705477238, 0.081871397793293, -0.06212921068072319, -0.2036013901233673, -0.0643029510974884, -0.13871584832668304, -0.4314693212509155, -0.1346573382616043, 0.25316280126571655, -0.20570644736289978, 0.11090433597564697, 0.2939073145389557, 0.06331156939268112, 0.05936180800199509, 0.013864202424883842, 0.1898556351661682, -0.21749566495418549, -0.1972922384738922, 0.5047909617424011, 0.06770582497119904, 0.15841926634311676, 0.10330494493246078, -0.06242029368877411, 0.10888510197401047], [-0.13454200327396393, 0.029462002217769623, 0.12016179412603378, 0.011683633551001549, -0.07005888223648071, -0.2953418791294098, 0.27412205934524536, 0.04154656454920769, 0.05954834446310997, 0.04201836884021759, 0.23748604953289032, -0.24192146956920624, -0.17785358428955078, 0.0609394907951355, 0.1737976372241974, 0.09372052550315857, 0.31871429085731506, 0.20303159952163696, -0.013720676302909851, -0.20019951462745667, 0.4651077687740326, 0.05719016119837761, 0.18297813832759857, -0.2661699652671814, 0.27460381388664246, -0.15505515038967133, -0.021326370537281036, 0.03933591768145561, -0.015011831186711788, 0.40802326798439026, 0.07159426808357239, 0.021851064637303352], [0.29305630922317505, 0.21665075421333313, 0.006224054843187332, -0.13300061225891113, 0.030786912888288498, 0.01996666006743908, -0.31693172454833984, -0.08036384731531143, -0.08431693911552429, -0.10605330765247345, 0.1279294490814209, 0.06980922073125839, 0.15692706406116486, -0.01350863091647625, 0.018501995131373405, -0.303760826587677, 0.16841907799243927, -0.040530938655138016, -0.0782461166381836, 0.2360365092754364, -0.17683029174804688, -0.11899182200431824, 0.027252890169620514, -0.3215440809726715, 0.2350967973470688, 0.058011382818222046, -0.3022278845310211, 0.15991586446762085, -0.21214130520820618, 0.27896302938461304, 0.12309982627630234, 0.1752137541770935], [-0.12342178076505661, -0.31468436121940613, 0.2602391541004181, -0.09023592621088028, -0.041007284075021744, 0.0008871850441209972, 0.0036084281746298075, 0.1711266040802002, 0.30846646428108215, 0.2687153220176697, -0.054978348314762115, 0.15876874327659607, 0.10400421172380447, 0.0671348050236702, -0.25643113255500793, -0.12231278419494629, -0.06930505484342575, 0.11032108217477798, -0.14659950137138367, 0.08825056254863739, 0.10516876727342606, -0.246123269200325, 0.0702892616391182, -0.03573454171419144, -0.5111392736434937, -0.23007024824619293, -0.1319810003042221, 0.24474962055683136, -0.5103467702865601, -0.025514381006360054, 0.1688336431980133, 0.12392984330654144], [-0.23817241191864014, -0.07692261785268784, -0.3266420364379883, -0.013517888262867928, -0.08145000785589218, -0.0966559424996376, -0.08555185794830322, 0.2191780060529709, -0.01659473590552807, -0.10585810989141464, 0.26083052158355713, -0.0002470604085829109, -0.22817246615886688, -0.35440531373023987, -0.3454279899597168, 0.17230695486068726, 0.2457152158021927, 0.28676947951316833, -0.18558703362941742, -0.27640292048454285, -0.19740135967731476, -0.19810935854911804, -0.2611466646194458, 0.11832606792449951, -0.05524076893925667, -0.11596574634313583, -0.11573577672243118, -0.17395055294036865, 0.16576047241687775, -0.08731122314929962, 0.04471098631620407, 0.05995535850524902], [-0.17085833847522736, 0.026778854429721832, -0.06379202008247375, 0.07272997498512268, 0.023271432146430016, 0.14687830209732056, 0.3116416037082672, 0.0030716864857822657, 0.25410428643226624, 0.01876084879040718, -0.21269333362579346, 0.17201164364814758, -0.0031116940081119537, 0.4374677240848541, -0.11562421172857285, -0.2712865173816681, 0.18339315056800842, 0.04572177678346634, 0.2354959100484848, -0.03970827907323837, -0.17664992809295654, -0.006566157098859549, -0.10934905707836151, -0.0007358705042861402, 0.17481687664985657, 0.011331056244671345, 0.059219200164079666, -0.2101050615310669, 0.053811945021152496, 0.3353520929813385, 0.10375460237264633, 0.17720209062099457], [0.01995101012289524, 0.47403961420059204, -0.3611079454421997, 0.13415619730949402, 0.14926940202713013, -0.2655697762966156, -0.11578691750764847, -0.25110140442848206, 0.06816894561052322, -0.0639321580529213, 0.08957438170909882, -0.014056923799216747, -0.42148223519325256, 0.09183573722839355, -0.077924944460392, 0.27203625440597534, -0.1945076584815979, 0.04607906937599182, 0.4214320182800293, -0.0987449660897255, -0.009534988552331924, -0.05977237597107887, 0.06780396401882172, 0.0272402074187994, -0.26786068081855774, 0.0791434496641159, 0.2350343018770218, 0.10616009682416916, -0.21349245309829712, -0.09108626842498779, 0.14294037222862244, 0.4025348722934723], [0.3047255277633667, 0.23487545549869537, 0.15214550495147705, -0.1720954030752182, -0.11631923913955688, -0.3936425745487213, 0.15992732346057892, 0.14745670557022095, 0.07772789895534515, 0.40181964635849, 0.15352614223957062, -0.09682680666446686, -0.03735596314072609, -0.0919525995850563, -0.06759215891361237, -0.028820300474762917, -0.46196556091308594, -0.08909954130649567, 0.01844959706068039, -0.05749909579753876, -0.310943067073822, -0.32935404777526855, 0.06080133095383644, -0.29169324040412903, 0.42407116293907166, -0.002144888509064913, 0.34848251938819885, -0.48309382796287537, 0.08203253149986267, -0.10647415369749069, 0.1346464306116104, 0.3647944927215576], [0.016375014558434486, 0.14414000511169434, -0.19399024546146393, -0.41402071714401245, 0.2652811110019684, 0.2576933801174164, 0.13492585718631744, -0.09895617514848709, 0.4338253438472748, 0.22686147689819336, -0.13406813144683838, -0.28135401010513306, 0.0509418286383152, -0.24154624342918396, 0.10472393780946732, -0.15061213076114655, -0.33410340547561646, -0.20523491501808167, -0.18579821288585663, 0.04919835552573204, 0.1229400485754013, 0.06950163096189499, -0.23875263333320618, -0.01169086154550314, -0.33806365728378296, 0.21181824803352356, -0.1592656672000885, 0.023730561137199402, -0.03745592385530472, 0.10282903909683228, -0.08842610567808151, 0.321342408657074], [0.37002822756767273, 0.12322033941745758, 0.03425087779760361, -0.003990642726421356, 0.017987485975027084, -0.035733912140131, -0.03736726939678192, -0.1698262095451355, -0.07522526383399963, -0.318019300699234, -0.33261433243751526, -0.030790062621235847, -0.12821213901042938, 0.05925459414720535, 0.018078813329339027, -0.5151054263114929, 0.009921903721988201, -0.014545124024152756, -0.3922090232372284, -0.05245552211999893, -0.007012049201875925, 0.03645261749625206, -0.11295986920595169, 0.2385483831167221, -0.2710994482040405, -0.09709924459457397, -0.2786479890346527, -0.3881801664829254, 0.016179563477635384, 0.437722384929657, 0.1604679673910141, 0.014238735660910606], [0.05516021326184273, 0.3861769735813141, 0.2063484489917755, -0.2041202038526535, -0.09965106099843979, 0.05348392203450203, -0.08602340519428253, -0.1667652577161789, 0.0730399638414383, -0.27569788694381714, -0.1541140079498291, -0.017227845266461372, 0.5131968259811401, -0.022909242659807205, -0.00560393463820219, 0.22667033970355988, 0.04610540345311165, -0.055748049169778824, 0.07544033229351044, -0.28396862745285034, 0.08123155683279037, -0.01204147469252348, -0.2435726672410965, -0.2350746989250183, 0.038004957139492035, -0.39245471358299255, -0.2781488001346588, 0.11480958014726639, -0.006034477148205042, 0.110244520008564, -0.15001720190048218, 0.16352683305740356], [0.17254619300365448, -0.1889558881521225, -0.2674536108970642, 0.1863098442554474, -0.5641213655471802, 0.07045578956604004, -0.05986598879098892, 0.15838298201560974, 0.1159718930721283, 0.1286962926387787, 0.11487894505262375, -0.10336665064096451, 0.11665312945842743, -0.22660166025161743, 0.18319270014762878, -0.022607306018471718, 0.1359197199344635, -0.04882834479212761, 0.05397976562380791, 0.11352990567684174, 0.03534027934074402, -0.4004293382167816, 0.23850135505199432, 0.26189377903938293, -0.290693074464798, 0.25104790925979614, 0.04447921738028526, -0.1277609020471573, 0.3890019655227661, 0.002116445917636156, -0.12937386333942413, -0.031934432685375214], [0.011684102937579155, 0.0006507110083475709, -0.21141590178012848, 0.07374022901058197, -0.18836846947669983, 0.05642091482877731, -0.09841808676719666, 0.08837056159973145, -0.06940224766731262, 0.10030290484428406, 0.051439810544252396, -0.37625235319137573, 0.07460809499025345, 0.13332150876522064, -0.027452176436781883, 0.15100805461406708, 0.08607596158981323, 0.18632332980632782, 0.18543952703475952, 0.042942728847265244, -0.2667456865310669, 0.3476242423057556, -0.33039847016334534, -0.3096054196357727, -0.0608525276184082, 0.056052468717098236, 0.11884269118309021, 0.00929267518222332, -0.2615920305252075, -0.009245454333722591, 0.004129810258746147, -0.3158535361289978], [0.02084827609360218, -0.04444768652319908, -0.18838118016719818, 0.0641971156001091, 0.1337445229291916, -0.17806649208068848, -0.12090090662240982, 0.13039974868297577, -0.08159523457288742, -0.03628488630056381, 0.2584647536277771, -0.08852817118167877, 0.4665282964706421, 0.24060988426208496, 0.03359120339155197, -0.33561885356903076, 0.11560328304767609, 0.015362093225121498, 0.037541043013334274, -0.10054640471935272, 0.41157472133636475, -0.25690141320228577, -0.2951662540435791, -0.10963369905948639, 0.022172361612319946, 0.0386531762778759, 0.057308245450258255, -0.39913755655288696, 0.37781813740730286, -0.1959206610918045, 0.39430055022239685, -0.11795756965875626], [-0.09017519652843475, 0.13754361867904663, 0.16469690203666687, -0.2459455281496048, 0.006870818790048361, -0.06115012988448143, -0.3199543058872223, -0.013222457841038704, 0.2694224715232849, 0.005989843048155308, 0.15498508512973785, 0.16755710542201996, -0.13278117775917053, 0.32519879937171936, 0.3938378691673279, 0.26570001244544983, 0.2673695981502533, 0.048382699489593506, -0.14288169145584106, 0.06506913900375366, -0.09954728186130524, -0.20671425759792328, -0.2034507542848587, -0.021322302520275116, -0.048201292753219604, 0.009637758135795593, 0.155453160405159, 0.03437798097729683, 0.16142572462558746, -0.03414960578083992, -0.04030141979455948, -0.1931963860988617], [0.09865131229162216, -0.15136867761611938, -0.1399635672569275, 0.09415198117494583, 0.05731482803821564, -0.04549768567085266, -0.27752625942230225, -0.19745950400829315, 0.02184116840362549, -0.13646622002124786, -0.2141038477420807, -0.36611732840538025, 0.09079700708389282, 0.07247290760278702, 0.0668531060218811, 0.1143985241651535, 0.231620654463768, 0.4645887017250061, -0.13288559019565582, -0.17819412052631378, 0.03817711025476456, -0.051028311252593994, 0.22510793805122375, 0.20916250348091125, 0.2786729037761688, 0.11013396084308624, 0.4658666253089905, 0.09182077646255493, -0.26513004302978516, -0.22498399019241333, -0.11504612118005753, 0.0616612546145916], [0.32228848338127136, 0.4648974537849426, -0.11544913053512573, 0.10552416741847992, 0.9582594037055969, 0.00630164286121726, 0.08519552648067474, 0.06463000178337097, 0.1532115638256073, -0.07506588101387024, 0.27000460028648376, -0.21477892994880676, 0.26878106594085693, 0.08242465555667877, -0.28560012578964233, 0.0709734708070755, 0.2700342535972595, 0.09632744640111923, 0.02403140254318714, 0.1774980127811432, -0.0308977160602808, -0.024036437273025513, 0.13487066328525543, 0.16885170340538025, -0.7588772773742676, 0.11921704560518265, -0.09040455520153046, -0.19336874783039093, 0.9393162727355957, 0.08428940176963806, -0.27607694268226624, 0.13354894518852234], [-0.1750180870294571, -0.3593641519546509, 0.10685533285140991, 0.237565279006958, -0.24079462885856628, 0.08000332862138748, -0.2452557235956192, -0.018868444487452507, 0.1510147601366043, -0.13934747874736786, -0.07178056985139847, -0.13300374150276184, 0.14701689779758453, 0.05082288384437561, 0.04443571716547012, 0.388681560754776, 0.02140204794704914, 0.011475149542093277, 0.11305342614650726, 0.07876788824796677, -0.009747812524437904, 0.0014316700398921967, 0.17927783727645874, -0.11247216910123825, 0.062019698321819305, 0.035729940980672836, -0.350100040435791, -0.5518680810928345, 0.04342999309301376, 0.09423484653234482, 0.3859238624572754, 0.21757566928863525], [-0.1946697235107422, 0.3410804271697998, 0.03781617805361748, 0.18377017974853516, -0.36224377155303955, 0.04901077225804329, 0.15485458076000214, -0.12122713029384613, -0.04897882044315338, -0.09163855761289597, -0.2205462008714676, 0.3951406180858612, 0.28384554386138916, -0.34434786438941956, 0.13597357273101807, -0.022704124450683594, 0.19372937083244324, 0.016163799911737442, -0.19001464545726776, 0.3400156497955322, 0.1271367073059082, 0.14885219931602478, -0.12405025213956833, 0.04804856330156326, 0.010595571249723434, 0.17105896770954132, 0.07171817868947983, -0.4710155129432678, -0.45968297123908997, 0.04164370521903038, 0.008040789514780045, 0.13122108578681946], [-0.21923436224460602, -0.16622884571552277, 0.363420695066452, -0.0883253961801529, -0.13612541556358337, 0.21551351249217987, -0.01533732283860445, -0.252362996339798, 0.13886742293834686, -0.18281373381614685, 0.14061886072158813, 0.06601907312870026, 0.011996716260910034, -0.23676227033138275, 0.08166294544935226, -0.34264522790908813, -0.037209950387477875, 0.23950059711933136, -0.05931707099080086, -0.14386533200740814, -0.09874241799116135, 0.19532322883605957, 0.07559119164943695, -0.3163488805294037, -0.2425704449415207, 0.15261989831924438, 0.12489166110754013, 0.02601369470357895, 0.17200183868408203, -0.042330700904130936, 0.10139936953783035, 0.03183099254965782], [0.2218276709318161, -0.25850486755371094, 0.12168457359075546, 0.12783119082450867, -0.3530920147895813, -0.10141588747501373, -0.07238171249628067, 0.16325053572654724, 0.14878930151462555, -0.5369848608970642, 0.28853753209114075, -0.027855122461915016, -0.08061990886926651, 0.20090825855731964, 0.023093687370419502, -0.19653268158435822, -0.14903277158737183, -0.03625595569610596, -0.034075137227773666, 0.3504810333251953, 0.2785702645778656, 0.13899299502372742, -0.2672480046749115, 0.14955131709575653, 0.05415300279855728, 0.04236115515232086, -0.11631995439529419, -0.15352419018745422, -0.12005215883255005, -0.1485528200864792, -0.26041358709335327, 0.22496595978736877], [0.060838859528303146, 0.1789228320121765, 0.20689308643341064, -0.07437273114919662, 0.26334148645401, 0.4082646667957306, -0.15439294278621674, 0.5441450476646423, -0.026686858385801315, 0.12720711529254913, -0.017431028187274933, 0.27930086851119995, 0.15847189724445343, -0.25595545768737793, 0.38658666610717773, -0.2291593998670578, 0.007070781197398901, 0.15489637851715088, 0.13545012474060059, -0.15153010189533234, -0.024154994636774063, 0.3020473122596741, -0.07564496994018555, 0.07635505497455597, 0.018125737085938454, -0.07669045031070709, 0.0031636161729693413, -0.044758930802345276, -0.22887296974658966, 0.15698964893817902, 0.06228281930088997, 0.20236442983150482], [-0.12151525914669037, 0.09202009439468384, 0.0023378997575491667, 0.034832313656806946, 0.09498246759176254, -0.1174931526184082, 0.31301161646842957, 0.06511398404836655, 0.08645926415920258, -0.2742307484149933, 0.16720958054065704, -0.40561696887016296, 0.11744014918804169, -0.022784104570746422, 0.2134471833705902, -0.009996171109378338, 0.28694286942481995, -0.21011631190776825, -0.05051947385072708, 0.01486477442085743, -0.4035602807998657, -0.03664863109588623, 0.16538873314857483, 0.199357271194458, -0.22369787096977234, -0.1850355714559555, -0.03944477066397667, 0.0032944867853075266, -0.1356481909751892, -0.33885881304740906, 0.14748325943946838, -0.23910294473171234], [0.04171851649880409, -0.3392358124256134, -0.11620789766311646, 0.20826643705368042, 0.009905102662742138, -0.3667430281639099, 0.015278796665370464, -0.040710195899009705, -0.3088074028491974, 0.357744425535202, -0.11139480024576187, -0.05432847514748573, -0.03734229877591133, -0.05341481789946556, 0.19903969764709473, 0.04659878462553024, 0.4749062657356262, 0.15829427540302277, -0.02855060063302517, 0.09224341064691544, -0.07863850891590118, -0.002661490347236395, -0.07708793133497238, -0.19753357768058777, -0.27730271220207214, -0.08735311776399612, -0.058620963245630264, -0.026935458183288574, 0.2254267930984497, -0.37398889660835266, -0.13067330420017242, 0.5273904204368591], [-0.15567821264266968, -0.0877477377653122, -0.1695796251296997, -0.5277765393257141, 0.1938532441854477, 0.2755816876888275, 0.020155686885118484, 0.23084485530853271, -0.2766876220703125, -0.32767435908317566, -0.11463258415460587, 0.0864519253373146, 0.07859349995851517, 0.08144606649875641, 0.0843413844704628, -0.08480102568864822, 0.09127102792263031, -0.06282620877027512, 0.03204309567809105, -0.03852098807692528, 0.1295773833990097, -0.16101962327957153, 0.24349787831306458, -0.331182599067688, -0.08905567973852158, 0.07095430046319962, 0.026895595714449883, -0.24062788486480713, -0.2624815106391907, 0.11139517277479172, -0.24346394836902618, -0.08664151281118393], [-0.11690645664930344, 0.38628944754600525, 0.2990471422672272, 0.1446823626756668, -0.2014639973640442, 0.18563242256641388, -0.12591101229190826, 0.01093434076756239, -0.1917390525341034, 0.31206217408180237, 0.11371416598558426, -0.18946050107479095, -0.0354333259165287, 0.2110910266637802, -0.24033507704734802, -0.15121671557426453, -0.011575188487768173, -0.08432736247777939, -0.08524519950151443, -0.21363066136837006, 0.013539688661694527, -0.09959059208631516, 0.16995681822299957, -0.04567050561308861, -0.046659357845783234, -0.001610233448445797, -0.21627908945083618, -0.3037160336971283, 0.0954805463552475, -0.17180678248405457, -0.19835656881332397, 0.05721259489655495], [0.13380710780620575, -0.05975467339158058, 0.42389392852783203, -0.07920189946889877, 0.10392175614833832, -0.19188056886196136, 0.17241379618644714, 0.07609763741493225, -0.04790070280432701, -0.13961347937583923, -0.092647984623909, -0.1357012838125229, 0.10015549510717392, -0.020649665966629982, -0.1550549864768982, -0.0008629797375760972, 0.13088203966617584, 0.125360369682312, 0.3057405650615692, -0.19176098704338074, -0.041357312351465225, -0.3550792634487152, -0.27957847714424133, 0.06357427686452866, -0.0022351930383592844, 0.4745296239852905, -0.13036967813968658, 0.1246057078242302, -0.06563088297843933, 0.10360062122344971, -0.05336711183190346, -0.13291436433792114], [-0.19957463443279266, -0.14289453625679016, -0.014386788941919804, 0.6411747336387634, 0.2451954036951065, -0.20010513067245483, -0.14071717858314514, -0.012011226266622543, 0.10040966421365738, -0.018938826397061348, -0.029392261058092117, -0.12385322153568268, 0.03434784710407257, -0.08448819071054459, 0.057172033935785294, -0.11037594079971313, 0.052247460931539536, -0.1831423044204712, -0.2682092785835266, -0.08051293343305588, -0.12701666355133057, -0.2684909999370575, -0.07846904546022415, -0.19311551749706268, 0.00679620960727334, 0.009595904499292374, 0.20895032584667206, -0.0788477286696434, 0.0398426428437233, 0.09899003803730011, -0.3557887673377991, -0.09915489703416824], [0.553980827331543, 0.12481975555419922, -0.2307399958372116, 0.27227842807769775, -0.1859317421913147, 0.023211374878883362, -0.13503088057041168, 0.09521714597940445, 0.31425729393959045, -0.09334002435207367, -0.5264601111412048, 0.02514917403459549, -0.30259817838668823, -0.3156830072402954, -0.04214219003915787, 0.01334572397172451, 0.07307536154985428, -0.136705681681633, 0.22267107665538788, 0.003247451037168503, 0.17506776750087738, 0.20793864130973816, 0.11802781373262405, -0.27690795063972473, -0.1261194348335266, -0.01606379635632038, 0.13288263976573944, 0.009672502987086773, 0.06695860624313354, -0.5252478122711182, -0.06155400350689888, -0.0231233611702919]]}, "hi": {"bias": [-0.05680062249302864, 0.006502497475594282, -0.012126094661653042, 0.06708677858114243, 0.13346555829048157, 0.022731414064764977, -0.11189534515142441, 0.01887916773557663, -0.03829231113195419, 0.09518654644489288, 0.042581602931022644, -0.0002848199219442904, 0.07214727252721786, 0.06445679068565369, -0.006161304656416178, 0.05428694933652878, 0.07300717383623123, -0.030219849199056625, -0.01010594330728054, 0.02247682213783264, -0.041286904364824295, 0.017542053014039993, -0.04617089033126831, 0.0672246441245079, 0.12515106797218323, -0.0537773072719574, 0.023557327687740326, 0.03014751337468624, 0.01991400681436062, -0.02743198722600937, -0.027262043207883835, 0.0900200828909874], "kernel": [[-0.37699055671691895, -0.017992299050092697, -0.18334825336933136, -0.23658260703086853, 0.2372346967458725, -0.08902833610773087, -0.08645105361938477, 0.0641496554017067, 0.03750063478946686, 0.3385145366191864, 0.023692110553383827, -0.07569242268800735, 0.10058003664016724, 0.01343829557299614, 0.018214670941233635, 0.21207557618618011, -0.0244491845369339, -0.25697579979896545, 0.439386785030365, 0.26440075039863586, 0.21629391610622406, -0.26465079188346863, 0.30427300930023193, -0.41995999217033386, 0.10006225109100342, -0.07468270510435104, 0.058802202343940735, 0.13247378170490265, 0.0960441306233406, 0.142560213804245, -0.013022094033658504, 0.20981693267822266], [0.18808571994304657, -0.22979778051376343, -0.16621221601963043, 0.22186675667762756, 0.04252726212143898, 0.19771111011505127, 0.19918480515480042, -0.004108714405447245, 0.26127856969833374, 0.0937279462814331, -0.2213083654642105, 0.0015160164330154657, 0.14614595472812653, -0.2715985178947449, 0.3043924868106842, -0.22832044959068298, 0.05363279581069946, -0.011704993434250355, 0.06264590471982956, -0.15500186383724213, -0.10956770181655884, -0.4899095296859741, 0.37651726603507996, 0.15783175826072693, -0.21477971971035004, 0.2090439647436142, -0.05336315184831619, 0.2057763934135437, 0.007512473966926336, 0.1770392805337906, -0.08744584023952484, 0.13972905278205872], [0.4901619255542755, -0.18226444721221924, 0.3560236990451813, 0.10418698936700821, -0.008907804265618324, 0.09240592271089554, -0.3370448052883148, -0.20087526738643646, -0.06016583368182182, -0.050655949860811234, -0.20604105293750763, -0.19676554203033447, 0.07764465361833572, -0.04221252724528313, 0.047246724367141724, -0.11357000470161438, -0.011990691535174847, -0.061763763427734375, 0.015776613727211952, 0.012575862929224968, -0.017354244366288185, -0.21912649273872375, -0.02223280817270279, -0.13434040546417236, 0.25158536434173584, 0.21671068668365479, -0.23756015300750732, -0.22901295125484467, -0.022427959367632866, 0.11347345262765884, 0.20734041929244995, 0.09158976376056671], [0.05423533171415329, -0.3071913421154022, -0.26096609234809875, -0.38709452748298645, 0.0333675742149353, -0.2264561504125595, -0.11485613137483597, 0.15975674986839294, -0.3120400905609131, -0.2628747820854187, 0.05224817246198654, -0.06195324659347534, 0.21458639204502106, 0.3887876868247986, -0.02288874424993992, -0.20838859677314758, -0.09494123607873917, -0.3082197904586792, -0.021844996139407158, -0.02966860681772232, 0.12716804444789886, 0.07914768159389496, 0.21269862353801727, 0.13784226775169373, 0.3231256604194641, -0.10070118308067322, 0.20327472686767578, 0.2228260040283203, -0.019772948697209358, -0.1289544403553009, -0.2784053087234497, -0.13036257028579712], [0.1741032898426056, 0.20026391744613647, -0.04548712819814682, -0.08006109297275543, 0.2041788250207901, 0.02268526330590248, -0.016406364738941193, 0.0006375339580699801, -0.2359054833650589, -0.06560979783535004, 0.06494101881980896, 0.1004759892821312, 0.06991130858659744, -0.20373885333538055, 0.4710574448108673, -0.04463256150484085, -0.06294012814760208, -0.19007153809070587, -0.17275360226631165, 0.16020813584327698, -0.17709475755691528, -0.31189146637916565, -0.2728486657142639, 0.08392943441867828, 0.42187801003456116, 0.19607612490653992, 0.0751190260052681, 0.20622964203357697, 0.13632018864154816, -0.3442661166191101, -0.23654316365718842, 0.22192424535751343], [0.01955927349627018, 0.3109630048274994, -0.015925871208310127, -0.1875128149986267, 0.3121418356895447, 0.154794380068779, -0.041081856936216354, 0.05926728993654251, 0.13905632495880127, -0.011959257535636425, -0.04602407291531563, 0.16177286207675934, -0.10551270097494125, -0.19833160936832428, 0.21394719183444977, 0.06798779219388962, 0.14103369414806366, 0.18850508332252502, -0.23129777610301971, 5.998529013595544e-05, 0.45220425724983215, 0.1588251292705536, 0.349446564912796, -0.14412148296833038, -0.039926979690790176, 0.16517110168933868, -0.12797357141971588, -0.22662979364395142, -0.22450384497642517, 0.1261405348777771, 0.18498089909553528, -0.33939328789711], [-0.11650259792804718, -0.0037146355025470257, 0.08225984126329422, 0.16553108394145966, -0.26414167881011963, -0.21133935451507568, 0.09445080906152725, -0.3836555480957031, 0.07453946024179459, 0.32556262612342834, -0.0020844938699156046, 0.19450858235359192, -0.032043106853961945, -0.08056027442216873, -0.09545683115720749, -0.361331969499588, 0.09620167315006256, -0.01734609156847, 0.10013861954212189, -0.2599058747291565, 0.34406304359436035, 0.2942551076412201, -0.046980805695056915, -0.18240192532539368, 0.3055269718170166, -0.018412044271826744, -0.11265441030263901, 0.2737155556678772, 0.051881592720746994, -0.08825203031301498, 0.061553385108709335, 0.06739336997270584], [0.01777913235127926, 0.09717732667922974, 0.3866925537586212, -0.18871340155601501, 0.13848912715911865, 0.03092532604932785, 0.05864733085036278, -0.30873003602027893, 0.0007315616239793599, 0.1424795538187027, -0.13492265343666077, -0.1707126796245575, -0.07352801412343979, -0.03521653264760971, -0.10994864255189896, -0.21501487493515015, -0.2892155349254608, -0.26819559931755066, -0.04696822538971901, 0.12814977765083313, -0.01911851204931736, 0.1769203096628189, 0.19137528538703918, -0.1431197077035904, -0.41647636890411377, -0.19335877895355225, 0.21181899309158325, 0.2945762574672699, -0.042845219373703, -0.05117221921682358, -0.08792977035045624, -0.047395188361406326], [0.2344093918800354, 0.3970238268375397, -0.011973136104643345, 0.22492359578609467, -0.27551913261413574, -0.0769629254937172, 0.03208499401807785, 0.3400034010410309, -0.14098148047924042, -0.12636364996433258, -0.09431422501802444, 0.13541927933692932, -0.2439497411251068, 0.412875235080719, -0.023128990083932877, -0.06202268972992897, 0.010433323681354523, 0.11108652502298355, -0.09612352401018143, 0.12412746995687485, 0.060284703969955444, 0.04580596834421158, 0.22521665692329407, -0.06782903522253036, -0.051169343292713165, 0.11240436881780624, -0.46760690212249756, -0.08328167349100113, 0.002538453321903944, -0.08977600187063217, -0.28775936365127563, 0.07324319332838058], [0.31423333287239075, -0.3333514630794525, -0.2147771567106247, 0.3848770260810852, 0.570966899394989, 0.148106187582016, -0.10472588986158371, -0.3675345182418823, -0.10160315036773682, -0.1306605488061905, -0.15921150147914886, 0.31271442770957947, -0.22405560314655304, -0.2562106251716614, -0.4881807267665863, -0.09171392768621445, 0.13105635344982147, -0.006148731801658869, 0.0761985257267952, 0.13283194601535797, 0.15480029582977295, -0.00981272291392088, -0.2556362450122833, -0.15381991863250732, -0.25646302103996277, 0.08620643615722656, -0.14892463386058807, -0.024967508390545845, 0.03884991258382797, -0.24248701333999634, -0.12162349373102188, 0.342705637216568], [-0.19958604872226715, 0.27615803480148315, 0.062393415719270706, 0.15785300731658936, -0.20589545369148254, -0.3778722882270813, -0.28027206659317017, 0.029055155813694, -0.05144045129418373, 0.37942105531692505, -0.10958617925643921, 0.004353966563940048, 0.2680606245994568, -0.07414031773805618, -0.08304276317358017, 0.15470066666603088, 0.04904371127486229, -0.07143606245517731, -0.0756247490644455, 0.0477338507771492, 0.14487390220165253, 0.20439545810222626, 0.02266540378332138, -0.09224776178598404, -0.145948126912117, 0.31254613399505615, 0.3195449411869049, 0.30069002509117126, 0.4532583951950073, 0.32403331995010376, 0.15489691495895386, -0.28700339794158936], [-0.23732522130012512, -0.2196625918149948, 0.08563748002052307, -0.22132760286331177, 0.218588724732399, -0.1537119597196579, 0.2995468080043793, -0.19308622181415558, -0.15983539819717407, -0.2604696452617645, 0.008296934887766838, 0.16394267976284027, 0.07931143045425415, 0.2513625919818878, -0.3634386658668518, 0.020384488627314568, 0.15554498136043549, 0.340368390083313, -0.24968887865543365, 0.031025858595967293, -0.11224370449781418, -0.09461984038352966, 0.11597554385662079, -0.22629223763942719, -0.18620848655700684, 0.23406769335269928, -0.007812528870999813, 0.2239234745502472, -0.1759922355413437, -0.08281400054693222, 0.0008430137531831861, 0.161027729511261], [0.07962501794099808, 0.059504903852939606, -0.056011881679296494, -0.13133493065834045, 0.057331591844558716, -0.3592361807823181, 0.1529259979724884, 0.1821041703224182, 0.0899093970656395, -0.15786370635032654, -0.2144620567560196, 0.1816505491733551, -0.12445574998855591, -0.23567749559879303, 0.33400800824165344, -0.09463410079479218, -0.06704602390527725, -0.27104806900024414, 0.11375094950199127, -0.011646512895822525, -0.33398330211639404, 0.020135076716542244, -0.09384271502494812, -0.09386198222637177, 0.10468193888664246, 0.1417788416147232, -0.28870460391044617, -0.1606443226337433, -0.32491403818130493, 0.0390043780207634, 0.1349097341299057, -0.4808642566204071], [-0.0013346541672945023, 0.2621084153652191, -0.09739839285612106, 0.16558116674423218, 0.2799641489982605, 0.11516286432743073, -0.11502352356910706, 0.10930728167295456, -0.20873598754405975, -0.7588883638381958, -0.5039787888526917, 0.07434401661157608, 0.08377762883901596, 0.13265076279640198, 0.03551998734474182, -0.3439093232154846, 0.14374153316020966, -0.12386860698461533, 0.1579359918832779, -0.30055105686187744, 0.08776494115591049, -0.08183786273002625, -0.1353393793106079, -0.04341215640306473, -0.027563676238059998, 0.055343467742204666, 0.05261103808879852, -0.32617026567459106, -0.20585346221923828, 0.149086132645607, 0.1309802383184433, 0.48260894417762756], [0.023004332557320595, 0.15609250962734222, -0.18468239903450012, 0.06024325639009476, 0.04406839981675148, -0.20639944076538086, -0.08556189388036728, -0.2822328507900238, 0.3805508613586426, -0.05537532642483711, 0.4803139567375183, -0.06553097814321518, 0.1625710427761078, 0.03239310905337334, 0.01760125905275345, 0.3995431065559387, 0.19943521916866302, -0.3684222400188446, -0.13758714497089386, -0.041357699781656265, 0.03443154692649841, -0.07419728487730026, 0.1744745671749115, 0.37544649839401245, -0.05372467637062073, -0.08673138171434402, 0.3667398989200592, 0.04014894366264343, -0.14972653985023499, 0.021834319457411766, 0.09725142270326614, 0.10646720975637436], [0.028010733425617218, 0.01206873543560505, 0.23474085330963135, 0.3241681754589081, 0.4777834117412567, -0.09282008558511734, -0.19833949208259583, -0.4622338116168976, -0.16480478644371033, 0.12614476680755615, -0.19180263578891754, 0.05906455218791962, -0.019793707877397537, -0.27447018027305603, -0.11322377622127533, 0.027015481144189835, -0.27236565947532654, 0.2151857316493988, 0.31340181827545166, -0.08089152723550797, -0.18694277107715607, -0.042765289545059204, -0.04649868607521057, 0.18107947707176208, 0.16621434688568115, -0.054841235280036926, 0.03397244215011597, 0.060498740524053574, -0.09200195968151093, 0.3286482095718384, -0.6035224795341492, -0.07054873555898666], [-0.06911183893680573, 0.04878201708197594, 0.052317265421152115, 0.36156946420669556, 0.40438130497932434, 0.10330802947282791, 0.16073742508888245, 0.08459152281284332, 0.012957478873431683, -0.19514405727386475, 0.27398765087127686, 0.3077245056629181, -0.04225247725844383, 0.07126010209321976, 0.10260146111249924, -0.09677142649888992, 0.08560971170663834, -0.2483767718076706, -0.006041277199983597, 0.42060407996177673, -0.16597126424312592, 0.13830497860908508, -0.04601803049445152, 0.1451188325881958, 0.3716653287410736, 0.14396046102046967, -0.08826923370361328, -0.07495195418596268, 0.30957573652267456, 0.27581146359443665, 0.042182113975286484, -0.08110664784908295], [0.2351570725440979, 0.012820256873965263, -0.29674723744392395, -0.26620370149612427, 0.06718914955854416, 0.081920325756073, 0.15547265112400055, -0.057111483067274094, 0.12327683717012405, 0.35045045614242554, -0.12937971949577332, 0.006374529097229242, 0.0236398596316576, 0.4097474217414856, -0.08144482225179672, 0.22001424431800842, -0.059715963900089264, -0.14105191826820374, -0.1157328188419342, 0.005664308089762926, 0.08950542658567429, 0.3373953402042389, -0.15170416235923767, 0.04060209169983864, 0.17039655148983002, 0.2779434621334076, -0.009470145218074322, 0.2169356346130371, 0.06126927584409714, 0.23388008773326874, -0.10914953798055649, 0.1556476205587387], [0.046252988278865814, -0.2569923996925354, -0.0024250054266303778, -0.00849776528775692, -0.04611656814813614, -0.44553813338279724, -0.0787435844540596, -0.07303071767091751, 0.3172313868999481, 0.4161580204963684, 0.12397178262472153, 0.14432482421398163, 0.25843900442123413, 0.0897652804851532, 0.125106081366539, -0.028588710352778435, 0.022051237523555756, 0.00045046256855130196, -0.18901923298835754, 0.2520802915096283, 0.002608309267088771, -0.050410956144332886, 0.048858221620321274, -0.18617063760757446, -0.14702270925045013, 0.12027327716350555, 0.40155789256095886, -0.2929268479347229, -0.3104860484600067, 0.06801989674568176, -0.14010699093341827, 0.20500889420509338], [-0.15471503138542175, -0.01602003537118435, -0.09383238106966019, -0.10112351179122925, -0.19620607793331146, -0.11118709295988083, 0.3088739216327667, 0.05388617515563965, -0.4148581922054291, -0.038222018629312515, -0.09676065295934677, 0.10231803357601166, -0.017398668453097343, -0.48053473234176636, 0.12603075802326202, 0.13737058639526367, -0.3179091513156891, 0.0047354851849377155, -0.12804663181304932, 0.183974951505661, -0.13769829273223877, 0.17295211553573608, 0.31998300552368164, 0.043126367032527924, 0.17267818748950958, 0.08737310767173767, 0.26790300011634827, -0.21765969693660736, -0.2686329782009125, 0.01332044880837202, 0.10709996521472931, -0.19321663677692413], [0.27664822340011597, 0.04296110197901726, -0.2590436637401581, 0.19584983587265015, 0.3132849335670471, -0.15372328460216522, 0.3147822618484497, -0.2438184767961502, -0.0973520576953888, 0.02431856468319893, -0.07791032642126083, -0.2582559585571289, 0.08545459061861038, -0.15827453136444092, -0.11892320960760117, -0.06594564765691757, -0.2343505322933197, 0.14684757590293884, -0.12772716581821442, 0.08981350809335709, 0.15459854900836945, -0.339419960975647, -0.2447361797094345, 0.07007279247045517, 0.10985275357961655, -0.3917640149593353, -0.1319916993379593, -0.14310728013515472, 0.12646666169166565, 0.23831894993782043, -0.08006816357374191, 0.2594589293003082], [0.1313859224319458, -0.36557480692863464, 0.07889305055141449, 0.10333335399627686, 0.13749587535858154, -0.17655833065509796, 0.1657547503709793, -0.024793827906250954, -0.2894704341888428, 0.17106841504573822, -0.541386067867279, -0.04848827049136162, -0.5405861735343933, 0.05112306401133537, 0.4919081926345825, 0.07093217968940735, 0.3654528558254242, -0.1257050782442093, -0.12834033370018005, -0.26474472880363464, 0.005533723626285791, -0.09353161603212357, 0.1389559507369995, 0.004540677648037672, -0.2602689266204834, 0.050689179450273514, -0.05759652331471443, -0.17495845258235931, 0.0905122384428978, 0.02148793265223503, 0.022936532273888588, -0.12378896772861481], [0.16028966009616852, -0.17525005340576172, 0.08596684038639069, -0.10967560112476349, -0.03896602243185043, 0.08462207764387131, -0.10466877371072769, 0.05239013209939003, -0.19864915311336517, -0.08644966036081314, 0.1660711169242859, 0.3647303581237793, -0.05901755020022392, -0.03193148598074913, 0.17961999773979187, 0.0933438315987587, -0.3927357494831085, -0.03999773785471916, -0.09759066998958588, -0.06493787467479706, 0.008222276344895363, -0.03586064279079437, -0.006262172479182482, 0.1866748183965683, -0.19128745794296265, -0.01031824853271246, -0.22076168656349182, 0.1943037360906601, -0.09292160719633102, 0.2280743569135666, 0.26018983125686646, 0.34450510144233704], [-0.20826615393161774, 0.31639742851257324, -0.16146372258663177, -0.1907675564289093, -0.11660286039113998, -0.2094266712665558, -0.14506061375141144, -0.08958959579467773, 0.18261295557022095, -0.23222897946834564, 0.3377572298049927, -0.33622246980667114, -0.39648348093032837, -0.08662407100200653, 0.3889884054660797, 0.04731861874461174, 0.20025421679019928, 0.13952960073947906, 0.15691229701042175, 0.1915881484746933, 0.06472118198871613, 0.0858236700296402, -0.2370309829711914, -0.11591663211584091, -0.16801869869232178, 0.2584286034107208, -0.030063213780522346, 0.008006283082067966, -0.124823659658432, 0.17449478805065155, -0.05071957781910896, 0.09136921912431717], [-0.24413493275642395, -0.04684906825423241, 0.058917660266160965, -0.07373110204935074, -0.2284492403268814, 0.16780418157577515, -0.01762494444847107, -0.14607247710227966, 0.17605577409267426, -0.10391855239868164, -0.5475650429725647, 0.1534002274274826, -0.023065360262989998, -0.31666234135627747, 0.11084926128387451, 0.09030725806951523, 0.14379580318927765, -0.10838059335947037, -0.1404830515384674, 0.194512277841568, 0.21629571914672852, -0.10447130352258682, -0.2679004371166229, 0.22838899493217468, -0.12920835614204407, -0.1620204746723175, -0.245801642537117, -0.14391706883907318, -0.04405848681926727, 0.20808683335781097, -0.257164865732193, -0.12009406834840775], [-0.037567660212516785, -0.1094958558678627, -0.07140844315290451, -0.15221968293190002, 0.40657827258110046, 0.01709437184035778, -0.08668028563261032, 0.006231077015399933, 0.13927936553955078, -0.13399778306484222, -0.021566037088632584, 0.05979238823056221, 0.28984954953193665, -0.022198693826794624, 0.3558059632778168, 0.10851000249385834, -0.1474713236093521, 0.11639032512903214, -0.29868900775909424, -0.11050963401794434, -0.27900785207748413, 0.26203760504722595, 0.1806282103061676, -0.2333831489086151, 0.037987638264894485, -0.29225394129753113, 0.17558538913726807, -0.1543889343738556, 0.5073293447494507, -0.18877120316028595, -0.12741118669509888, 0.21790485084056854], [0.09128058701753616, 0.16782402992248535, -0.23492029309272766, -0.052860576659440994, 0.1948641836643219, -0.11647959053516388, -0.3497214615345001, 0.3451955318450928, -0.11118832230567932, 0.5643124580383301, -0.0734436884522438, 0.07318175584077835, -0.08327164500951767, 0.03853818401694298, -0.045552704483270645, -0.1971791386604309, 0.17051365971565247, 0.28048884868621826, -0.11804583668708801, 0.3378373980522156, -0.27855756878852844, 0.06684412807226181, 0.09554785490036011, 0.12362785637378693, 0.1691766083240509, -0.2799393832683563, 0.3561210334300995, 0.44484540820121765, 0.006753116846084595, 0.20190441608428955, 0.16723021864891052, -0.007947206497192383], [0.20916716754436493, -0.02728516235947609, 0.2356087863445282, 0.1844826340675354, -0.021363677456974983, 0.032443784177303314, 0.22894226014614105, 0.2703649699687958, -0.16677969694137573, -0.33191367983818054, -0.17698119580745697, -0.09281907230615616, 0.2719106376171112, -0.1861923635005951, 0.14232587814331055, 0.2809534966945648, 0.5136111378669739, 0.08136847615242004, 0.18442974984645844, -0.00770181929692626, 0.3518422544002533, 0.19847522675991058, -0.03710925579071045, -0.2220282405614853, -0.20163071155548096, -0.033991679549217224, -0.08349376171827316, 0.2102026492357254, -0.17097361385822296, 0.14956796169281006, 0.027623308822512627, -0.007177862338721752], [-0.27730393409729004, 0.18222370743751526, 0.04561774432659149, -0.2345096617937088, 0.1943238526582718, -0.09902054816484451, -0.03046576678752899, 0.42567023634910583, -0.053578197956085205, 0.39030784368515015, 0.2296460121870041, -0.26775845885276794, 0.2689804136753082, -0.15943793952465057, -0.1619238704442978, -0.12322364002466202, 0.1679876297712326, -0.21018360555171967, -0.2557923495769501, -0.10301552712917328, -0.20556606352329254, 0.1744595468044281, -0.02321542240679264, 0.22608716785907745, 0.16022615134716034, 0.08307791501283646, -0.28925859928131104, -0.0691569447517395, -0.012669877149164677, 0.07635850459337234, -0.09050291031599045, 0.44822365045547485], [0.09027336537837982, -0.08128949999809265, 0.2492585927248001, -0.08281930536031723, -0.05116313695907593, 0.023500271141529083, -0.03721173480153084, 0.23333187401294708, 0.08837514370679855, -0.07118982076644897, 0.21719640493392944, 0.1325966715812683, -0.23536533117294312, -0.17247681319713593, -0.18327116966247559, -0.007072323467582464, 0.12467589229345322, -0.09149561077356339, -0.2372836172580719, -0.21790532767772675, 0.1585334986448288, -0.3494063913822174, 0.13959690928459167, -0.12464186549186707, 0.2818334102630615, -0.12377070635557175, 0.2566606402397156, 0.016679413616657257, 0.02323385700583458, 0.17368319630622864, -0.20151387155056, 0.31529662013053894], [-0.037214092910289764, 0.1357019990682602, -0.01661883294582367, -0.3560997545719147, -0.21582646667957306, -0.0011955223744735122, 0.09331226348876953, -0.28660979866981506, -0.1912771612405777, 0.14439433813095093, 0.3051096200942993, 0.24513933062553406, 0.154698446393013, 0.15830181539058685, 0.179807648062706, -0.2530535161495209, 0.32256266474723816, -0.04164686053991318, 0.028433794155716896, -0.08221036940813065, -0.14585809409618378, -0.10681261122226715, -0.0798143744468689, -0.16814398765563965, -0.019983863458037376, -0.19669416546821594, -0.1372937113046646, -0.15000414848327637, 0.11333371698856354, 0.27474087476730347, 0.10603690147399902, -0.15844014286994934], [-0.1421208530664444, -0.1020318940281868, -0.47001010179519653, -0.3204970955848694, -0.6032217144966125, 0.17407864332199097, -0.0523054376244545, 0.18831831216812134, -0.09930320829153061, 0.5113318562507629, 0.14501038193702698, -0.15590094029903412, -0.14776940643787384, 0.45788776874542236, -0.0005274830618873239, 0.05676150694489479, 0.27983027696609497, -0.21688459813594818, -0.558977484703064, 0.07076774537563324, -0.3104228973388672, -0.17215389013290405, 0.1561991274356842, -0.609473705291748, -0.17535391449928284, 0.26309624314308167, 0.47878190875053406, 0.326815664768219, -0.3094239830970764, 0.10439389944076538, -0.09842018783092499, -0.28784802556037903]]}, "ho": {"bias": [-0.0349840372800827, 0.0065736351534724236, 0.007130597252398729, 3.9921280404087156e-05, 0.07208025455474854, 0.0013021448394283652, -0.08013208955526352, 0.020233815535902977, -0.03288891538977623, 0.10945399850606918, 0.06381083279848099, 0.0055684894323349, 0.053629033267498016, 0.05973927304148674, 0.0765797421336174, 0.002222745679318905, 0.06588475406169891, -0.02138030156493187, 0.023617001250386238, 0.06186043471097946, -0.048437949270009995, 0.04615195840597153, -0.02240271493792534, 0.05204913392663002, 0.04157799482345581, 0.012835063971579075, 0.04192062467336655, -0.016437655314803123, 0.024605905637145042, -0.00035577735980041325, -0.01562921330332756, 0.0769287496805191], "kernel": [[0.015623574145138264, 0.19364559650421143, 0.03138057515025139, 0.026159536093473434, 0.02849631942808628, 0.3989826738834381, 0.13193191587924957, -0.1332722008228302, -0.11566179990768433, 0.10821899026632309, 0.07075704634189606, -0.26040709018707275, -0.015995867550373077, -0.20512902736663818, -0.05563119426369667, -0.011455981992185116, 0.3738177716732025, 0.11749909073114395, 0.005324624478816986, -0.020205587148666382, -0.11616431921720505, 0.01756810024380684, -0.20017409324645996, -0.00298310280777514, -0.12492547184228897, -0.2122056484222412, 0.1677386611700058, 0.3081474006175995, -0.1152622327208519, 0.2808220386505127, -0.30918973684310913, -0.2432325929403305], [0.07271336019039154, -0.07008317112922668, -0.20150361955165863, 0.07031339406967163, -0.017439603805541992, -0.14906257390975952, 0.034860942512750626, -0.3236890137195587, -0.12479022145271301, 0.2937866151332855, 0.04496145620942116, 0.014308884739875793, -0.14529213309288025, 0.07562372088432312, -0.299807071685791, -0.3185916244983673, 0.005716833285987377, 0.20482659339904785, -0.10693729668855667, -0.0717480331659317, -0.05070720613002777, -0.2537733316421509, 0.39643359184265137, 0.20593762397766113, -0.08994805067777634, -0.2758609652519226, 0.27215713262557983, -0.32424548268318176, 0.2567193806171417, 0.20755021274089813, 0.04424778372049332, -0.006858323700726032], [0.011676250956952572, -0.0271963719278574, -0.22089335322380066, 0.1732974499464035, -0.06460141390562057, 0.12506510317325592, 0.35117611289024353, -0.0615730807185173, 0.2584019601345062, -0.12282492965459824, -0.3215509057044983, -0.07925235480070114, -0.061285533010959625, -0.006766293663531542, -0.15664201974868774, -0.04020274057984352, -0.3602422773838043, -0.23548060655593872, -0.20789124071598053, -0.07682064175605774, -0.20919664204120636, -0.04302648454904556, -0.15150286257266998, 0.09385191649198532, 0.2712462246417999, 0.07792208343744278, -0.05731206014752388, -0.3118973970413208, -0.361418753862381, 0.02847140282392502, 0.029608912765979767, -0.2112714797258377], [-0.12402062863111496, -0.2498936951160431, 0.19378866255283356, -0.06759683042764664, -0.16760222613811493, 0.04557817429304123, 0.01167843583971262, 0.034325774759054184, 0.15858052670955658, -0.09630218893289566, 0.5223667025566101, -0.11391878128051758, -0.24474255740642548, 0.01532226987183094, 0.25511765480041504, 0.087848000228405, -0.24151088297367096, -0.009212112054228783, -0.18385416269302368, 0.10294748842716217, -0.20239005982875824, -0.029203249141573906, -0.036200281232595444, 0.13062931597232819, 0.006514452397823334, -0.2732125520706177, -0.14935746788978577, 0.007308999542146921, -0.009934651665389538, -0.05146988108754158, 0.08646465837955475, -0.37458398938179016], [0.14051111042499542, -0.07747183740139008, -0.10606488585472107, -0.22957530617713928, 0.03482683748006821, -0.08413371443748474, 0.08787566423416138, -0.19750738143920898, 0.16307029128074646, 0.06949267536401749, 0.2153719961643219, 0.0019349033245816827, 0.3262656331062317, 0.27860313653945923, 0.6474315524101257, -0.2937169075012207, 0.01252265740185976, 0.11036644876003265, 0.09985434263944626, -0.1302628517150879, -0.2374379187822342, -0.36499732732772827, -0.02087421901524067, 0.3602950870990753, 0.15479430556297302, -0.13428685069084167, -0.27776774764060974, 0.07188833504915237, -0.001931385020725429, -0.1908852756023407, 0.024002986028790474, 0.3481174409389496], [0.2037224918603897, 0.017628712579607964, -0.18686680495738983, -0.28624045848846436, 0.037815723568201065, 0.052779510617256165, 0.2608208954334259, 0.04533005505800247, 0.287266343832016, -0.2013402283191681, 0.04463917389512062, -0.15475338697433472, 0.1768759787082672, -0.09668710082769394, -0.23459777235984802, 0.0896078497171402, 0.03820331022143364, -0.06524385511875153, -0.2920686602592468, -0.2741376757621765, 0.5861799120903015, 0.21722550690174103, 0.08184942603111267, 0.15205630660057068, -0.2564670443534851, 0.0233948715031147, -0.030847549438476562, -0.000786254764534533, -0.13123153150081635, -0.07872773706912994, -0.07545851916074753, -0.12959134578704834], [-0.08619879186153412, 0.08145177364349365, 0.10852230340242386, -0.026059364899992943, 0.029317162930965424, -0.1810007393360138, 0.05549805238842964, -0.2880653440952301, 0.09924110025167465, 0.3506135046482086, -0.5328127145767212, -0.2087542712688446, -0.1679169088602066, -0.1826743334531784, 0.190763920545578, -0.1884211003780365, 0.07135225832462311, -0.06967747956514359, -0.043828852474689484, -0.004572988022118807, -0.0022905722726136446, 0.011801903136074543, 0.312465101480484, -0.5241830945014954, -0.06218578666448593, -0.23438207805156708, -0.1375349909067154, 0.1840331107378006, -0.1870739609003067, -0.11382371932268143, 0.19816070795059204, -0.45375266671180725], [-0.07007148861885071, -0.06898795068264008, 0.15032489597797394, -0.021738344803452492, 0.2942287027835846, 0.1792120337486267, -0.055562574416399, -0.1609107404947281, -0.2517630159854889, -0.107298344373703, -0.11932500451803207, -0.07643910497426987, 0.34932729601860046, -0.11090915650129318, -0.0814046636223793, -0.13289690017700195, -0.20171573758125305, 0.31063351035118103, -0.41469117999076843, 0.30502232909202576, -0.04548301920294762, -0.39241087436676025, 0.1159663051366806, 0.07255296409130096, -0.09394554793834686, 0.10741189867258072, -0.039711445569992065, -0.05065402388572693, 0.010167308151721954, -0.1062832772731781, 0.03515993803739548, -0.07927955687046051], [-0.18378415703773499, 0.09009048342704773, -0.23847265541553497, 0.3737282454967499, 0.1622312366962433, 0.0782659500837326, 0.19103622436523438, 0.18672803044319153, 0.11657972633838654, 0.03480041027069092, -0.007089585065841675, 0.17770463228225708, -8.927823364501819e-05, 0.1255369782447815, 0.24330730736255646, -0.054810862988233566, 0.3830699324607849, 0.11768180876970291, -0.06451462209224701, 0.1489071398973465, -0.011487865820527077, 0.27690669894218445, 0.083457350730896, 0.022925572469830513, -0.2736758887767792, 0.13864508271217346, -0.1184307262301445, -0.25747883319854736, 0.06837514787912369, -0.19645904004573822, -0.049391355365514755, -0.2286680042743683], [-0.32984885573387146, -0.3148406147956848, -0.1987316906452179, 0.32661548256874084, 0.1985696256160736, 0.04343661665916443, 0.16147491335868835, 0.16159725189208984, -0.03086458146572113, -0.03910750523209572, -0.010099823586642742, 0.23287391662597656, 0.1070505753159523, 0.10244636237621307, -0.1458846628665924, 0.03109808824956417, -0.3843306303024292, -0.10252512246370316, 0.2546229958534241, -0.1722637414932251, 0.026412751525640488, -0.183084174990654, 0.1010502278804779, 0.1362912654876709, -0.22674113512039185, -0.33151692152023315, -0.11342956870794296, 0.39605993032455444, 0.00844591110944748, 0.05676978453993797, 0.05687861889600754, 0.08328714221715927], [-0.056669529527425766, 0.03495004028081894, 0.13302239775657654, 0.01755281165242195, -0.18697263300418854, 0.5835121870040894, -0.209613636136055, -0.19013376533985138, -0.34865859150886536, 0.3497336208820343, -0.06350627541542053, 0.0949769914150238, 0.18282867968082428, 0.00775109650567174, 0.11554853618144989, 0.42061537504196167, 0.16873955726623535, -0.3131479024887085, 0.4379728436470032, 0.07735685259103775, 0.10360384732484818, 0.5013635158538818, 0.24131686985492706, 0.11998724937438965, -0.0923965722322464, -0.07011614739894867, -0.3625395894050598, 0.09588315337896347, -0.02223823219537735, -0.3214368224143982, 0.09507223963737488, -0.05871959030628204], [-0.029013659805059433, -0.05737940967082977, 0.01000350434333086, -0.22604146599769592, -0.4257274270057678, 0.3244790732860565, -0.1050611138343811, -0.28408485651016235, 0.12438134104013443, -0.5295466780662537, -0.04698621854186058, 0.11590181291103363, -0.11225980520248413, 0.20328009128570557, 0.042709629982709885, -0.02548014372587204, -0.010677413083612919, 0.3942353427410126, -0.05513041466474533, -0.4322969615459442, -0.08236900717020035, 0.21838653087615967, -0.09989038854837418, -0.429770290851593, -0.34350666403770447, 0.0880538746714592, 0.16607703268527985, -0.017420845106244087, -0.15189996361732483, 0.055672746151685715, 0.4440271258354187, -0.04927701875567436], [-0.3603459298610687, 0.20804128050804138, 0.032670337706804276, 0.1902734488248825, 0.25903481245040894, 0.22092558443546295, -0.3094572126865387, 0.2853325307369232, 0.2631915509700775, 0.025024965405464172, -0.29071298241615295, -0.13321658968925476, 0.23911498486995697, -0.260344535112381, 0.1312853991985321, -0.2310829907655716, -0.030093446373939514, 0.21868041157722473, -0.14448323845863342, 0.10384972393512726, 0.09599713236093521, 0.2570134103298187, 0.30899015069007874, 0.050112009048461914, 0.2418145388364792, -0.12373519688844681, -0.030641181394457817, -0.28198570013046265, -0.2171473503112793, -0.20139117538928986, 0.2033553570508957, -0.2449120432138443], [0.16195306181907654, 0.21393416821956635, -0.024338170886039734, 0.07946915924549103, 0.16252045333385468, -0.07675572484731674, -0.5220638513565063, 0.4176120460033417, -0.08293209969997406, -0.3146683871746063, 0.07744726538658142, -0.2186533361673355, -0.01516052708029747, 0.14629825949668884, 0.40329641103744507, -0.4111127257347107, 0.06384497135877609, -0.013419955037534237, -0.2212454080581665, -0.33205536007881165, 0.07979488372802734, -0.3267025947570801, -0.050673168152570724, 0.151872918009758, -0.12248095124959946, 0.09083717316389084, 0.11887329071760178, -0.11589411646127701, -0.03623778373003006, 0.14993375539779663, 0.02460426837205887, 0.19586776196956635], [0.04055705666542053, 0.1639900654554367, 0.07976635545492172, 0.08529097586870193, -0.24609610438346863, -0.014437141828238964, -0.10556073486804962, 0.20409809052944183, -0.20187251269817352, -0.20617760717868805, -0.051507994532585144, 0.054655738174915314, 0.14323514699935913, 0.1599700152873993, 0.03558361530303955, 0.006330152507871389, 0.2534778118133545, -0.015330026857554913, -0.07245109230279922, 0.0833057314157486, 0.35060566663742065, 0.009846500121057034, -0.03019336611032486, -0.05780985951423645, 0.2763393223285675, 0.011927548795938492, 0.09555010497570038, -0.21106205880641937, -0.23047079145908356, -0.005963040050119162, 0.30580469965934753, -0.5067579746246338], [0.4125286936759949, -0.3717953860759735, -0.14015817642211914, 0.10538308322429657, 0.229309543967247, -0.004154813475906849, -0.3364437222480774, 0.21918536722660065, 0.04970827326178551, -0.17183241248130798, -0.10704255849123001, 0.002501562936231494, -0.0775495171546936, 0.06885352730751038, 0.036914706230163574, -0.2122945636510849, 0.13025206327438354, 0.13538715243339539, -0.010829544626176357, 0.26176977157592773, -0.0867915153503418, 0.03077669069170952, -0.08818578720092773, -0.07451925426721573, 0.11375817656517029, -0.14872035384178162, -0.577954888343811, 0.07788994908332825, 0.09713993966579437, 0.2201845943927765, -0.2497834712266922, 0.2825733721256256], [-0.24840497970581055, 0.13457827270030975, 0.1183173730969429, 0.023666348308324814, 0.5900334715843201, 0.2834841012954712, -0.06053468957543373, 0.12233129888772964, 0.2487805038690567, 0.40629541873931885, 0.07841866463422775, -0.2001049965620041, 0.2354699671268463, 0.4209364950656891, 0.0269327275454998, -0.18388283252716064, 0.28991463780403137, -0.29447147250175476, -0.16509537398815155, 0.22971490025520325, 0.1627284735441208, -0.33242014050483704, -0.04041687399148941, -0.1626509577035904, -0.02043001540005207, -0.10725907981395721, 0.06159169599413872, -0.15786902606487274, -0.03211026266217232, 0.3872374892234802, 0.26338064670562744, 0.347432404756546], [0.19604943692684174, -0.11760234087705612, 0.15134574472904205, 0.20013266801834106, -0.17652519047260284, -0.12214682996273041, 0.1674596220254898, -0.20003917813301086, 0.026070715859532356, 0.260236918926239, -0.17264166474342346, -0.17802606523036957, 0.4474804997444153, -0.07890385389328003, 0.15860800445079803, 0.18012672662734985, -0.15775610506534576, 0.11242860555648804, 0.24025598168373108, -0.0918276458978653, 0.10870455205440521, 0.02387985959649086, -0.05687660723924637, -0.11180978268384933, 0.01945648342370987, 0.007257884833961725, -0.02682710625231266, -0.04798607528209686, 0.40253692865371704, 0.2924261689186096, 0.022181643173098564, -0.11892808228731155], [0.11087660491466522, 0.20919270813465118, 0.03703395649790764, -0.24165280163288116, -0.18668822944164276, -0.21656502783298492, -0.1382286697626114, -0.0666484385728836, -0.010103774257004261, 0.18669748306274414, -0.14797550439834595, 0.0869356244802475, 0.021919654682278633, -0.2509431540966034, -0.21286535263061523, -0.19761230051517487, -0.10634732991456985, -0.2247822880744934, -0.05952511727809906, 0.07673926651477814, -0.2917730510234833, 0.1361410766839981, -0.249878391623497, 0.22200462222099304, -0.3849625289440155, 0.019672110676765442, -0.092849962413311, -0.2060358077287674, 0.14468178153038025, -0.039716873317956924, 0.18247175216674805, 0.08736297488212585], [-0.04809953644871712, 0.024876104667782784, -0.06064264476299286, -0.023404330015182495, -0.30390703678131104, 0.29113781452178955, 0.041060250252485275, 0.04717212915420532, 0.22050297260284424, 0.26700761914253235, 0.23252716660499573, -0.09350734949111938, -0.17330719530582428, -0.43541499972343445, -0.022550804540514946, 0.028655976057052612, 0.08295294642448425, 0.2610345184803009, 0.07526825368404388, -0.013337131589651108, 0.0839613527059555, -0.16505484282970428, 0.4021783471107483, 0.20640957355499268, -0.13648934662342072, 0.5697600245475769, -0.08396236598491669, -0.14160047471523285, -0.26839935779571533, 0.22223883867263794, 0.10221067816019058, -0.21201185882091522], [0.35642164945602417, -0.219145268201828, 0.1532767415046692, 0.23439085483551025, 0.46473047137260437, 0.10211768746376038, 0.10638002306222916, 0.2832345962524414, -0.038599368184804916, 0.19919593632221222, -0.045589614659547806, -0.0016251496272161603, 0.03370227664709091, -0.07008789479732513, -0.10117022693157196, -0.32160764932632446, -0.10081624239683151, -0.01352307852357626, 0.4079127609729767, -0.2547236680984497, -0.1379280388355255, -0.45595091581344604, -0.01679505966603756, 0.23823818564414978, 0.01419020164757967, -0.00519982073456049, -0.04514852166175842, -0.30238306522369385, -0.16653405129909515, -0.0518447682261467, 0.14186948537826538, 0.16941873729228973], [0.2414276897907257, -0.339979887008667, -0.34976115822792053, 0.04425705969333649, 0.1789620965719223, 0.18474949896335602, -0.29392239451408386, -0.0348735935986042, 0.3179175853729248, -0.08383388072252274, -0.5126907229423523, -0.194200336933136, -0.09144692867994308, -0.21327582001686096, -0.05693909153342247, -0.46197959780693054, -0.3223956525325775, 0.08482271432876587, 0.20723958313465118, 0.20372320711612701, 0.15695172548294067, -0.30340278148651123, -0.16012364625930786, -0.08478650450706482, 0.08294523507356644, -0.050957631319761276, 0.1445615142583847, 0.08505796641111374, 0.20151934027671814, -0.17088870704174042, 0.15666192770004272, -0.1716495305299759], [0.3048689365386963, 0.21854446828365326, 0.07287262380123138, 0.2736879289150238, -0.24214260280132294, 0.09840813279151917, 0.31217411160469055, 0.26250159740448, 0.1655827760696411, -0.07274943590164185, 0.019963691011071205, 0.04155048727989197, -0.18937236070632935, 0.15433642268180847, -0.19275863468647003, 0.06886297464370728, -0.01347858551889658, -0.031080368906259537, -0.23643215000629425, -0.013819530606269836, 0.021148649975657463, -0.22500935196876526, 0.11187490075826645, -0.23650145530700684, -0.059826839715242386, -0.08631286770105362, 0.02404044009745121, 0.31057679653167725, 0.1169629618525505, -0.39574936032295227, 0.07363370060920715, 0.24681618809700012], [-0.22419984638690948, 0.21695178747177124, 0.49085891246795654, -0.2867802679538727, -0.22027982771396637, -0.08981406688690186, 0.22599877417087555, 0.194383442401886, 0.024887563660740852, 0.18609748780727386, -0.0009404629818163812, -0.10502157360315323, -0.11080501973628998, 0.15189018845558167, -0.01749579980969429, -0.16743014752864838, 0.07218904793262482, 0.20234717428684235, 0.23932090401649475, 0.21191291511058807, -0.08099792897701263, 0.21604909002780914, 0.14077958464622498, 0.09912878274917603, 0.0010529406135901809, 0.21354247629642487, 0.010978772304952145, -0.19969874620437622, 0.06743042916059494, -0.04920918494462967, -0.26854372024536133, -0.2830893099308014], [0.07616579532623291, 0.17447704076766968, 0.01700255088508129, 0.2266840934753418, -0.0667894259095192, -0.039361562579870224, 0.06907202303409576, -0.08668927848339081, 0.204264834523201, -0.3064412772655487, -0.4825237989425659, -0.04789550602436066, -0.4208979904651642, -0.10512417554855347, 0.016759933903813362, 0.10600414872169495, -0.07160250842571259, -0.017974093556404114, 0.17905721068382263, 0.15447959303855896, 0.45928749442100525, -0.10048376023769379, -0.015844672918319702, 0.4621119201183319, -0.0338357575237751, -0.22248071432113647, -0.1483481228351593, -0.05575350299477577, -0.08638458698987961, 0.16011036932468414, 0.027244480326771736, 0.49715179204940796], [0.234380304813385, 0.13029085099697113, -0.19922852516174316, -0.12378035485744476, 0.06922299414873123, -0.026974741369485855, 0.06215423345565796, 0.07173362374305725, -0.17626182734966278, 0.1530255377292633, 0.11469705402851105, -0.15020528435707092, 0.055663589388132095, 0.12739086151123047, 0.008694504387676716, 0.13374148309230804, -0.40615740418434143, 0.15162315964698792, 0.2497093677520752, 0.5003834962844849, -0.1323084682226181, 0.184397354722023, 0.2009468376636505, -0.08302837610244751, -0.12812858819961548, -0.08602941036224365, 0.09510447084903717, 0.06588897854089737, -0.29273587465286255, 0.04287554696202278, 0.05516335740685463, -0.06388974189758301], [0.007530285976827145, -0.060435112565755844, -0.0306436438113451, -0.19123533368110657, -0.042970139533281326, 0.04684044420719147, 0.08733411878347397, 0.2862958312034607, -0.273318350315094, 0.28212228417396545, 0.09620895236730576, 0.1694299876689911, 0.13898400962352753, -0.25811707973480225, 0.2903619408607483, -0.3491201102733612, 0.03751802444458008, 0.09646450728178024, -0.21877287328243256, 0.0948791652917862, 0.034939274191856384, -0.06866443902254105, 0.03112729825079441, -0.1806706339120865, 0.05195588245987892, -0.18895240128040314, 0.29145821928977966, -0.19151265919208527, -0.2809160649776459, 0.3214018642902374, -0.036213427782058716, 0.18541093170642853], [0.01734798401594162, -0.22140194475650787, 0.06525013595819473, -0.12677927315235138, 0.08577573299407959, -0.21759165823459625, -0.10699765384197235, -0.006927457172423601, 0.3557433485984802, 0.32174792885780334, -0.2742217183113098, 0.22733859717845917, 0.06742092221975327, 0.017878735437989235, -0.2368307113647461, 0.19344449043273926, 0.388591468334198, 0.11457870155572891, 0.11970999091863632, 0.06254532933235168, 0.12656588852405548, -0.5129655599594116, -0.07230794429779053, -0.03251056373119354, -0.09018111974000931, -0.1270180195569992, 0.1606951355934143, 0.008604466915130615, -0.37319859862327576, -0.06434477865695953, -0.1778472661972046, 0.0431068129837513], [0.16767647862434387, -0.18274232745170593, 0.16598831117153168, 0.07143042981624603, -0.02430727332830429, -0.07852168381214142, -0.2674483358860016, 0.03795302286744118, 0.11220328509807587, -0.06513847410678864, 0.1290566772222519, -0.025442998856306076, 0.3225495517253876, 0.09256544709205627, 0.13096868991851807, 0.12263543158769608, 0.27334660291671753, -0.3778185248374939, -0.07859515398740768, 0.1076115220785141, -0.3704412579536438, 0.1606600284576416, 0.3772151470184326, 0.20665724575519562, -0.0324552021920681, 0.08009670674800873, 0.30082958936691284, 0.23228926956653595, -0.06994257867336273, 0.15192972123622894, -0.018365759402513504, 0.1223599910736084], [0.21307475864887238, 0.06873266398906708, 0.12600456178188324, -0.08687141537666321, 0.3000088334083557, 0.21289950609207153, -0.021090364083647728, 0.09272029250860214, 0.27892306447029114, 0.2824181318283081, 0.06051325425505638, 0.5612266063690186, 0.008024845272302628, -0.11646322906017303, 0.21702556312084198, -0.02164691686630249, -0.14685824513435364, -0.062496382743120193, -0.09863676875829697, 0.15803608298301697, 0.0014041622634977102, 0.020490147173404694, 0.1463180035352707, 0.051927052438259125, 0.19460202753543854, -0.07230290025472641, 0.06734903156757355, -0.09670951962471008, 0.19499251246452332, 0.18568624556064606, 0.09618297964334488, -0.07759171724319458], [-0.12631815671920776, 0.20902903378009796, -0.15676361322402954, -0.1941022127866745, -0.19002079963684082, 0.12565843760967255, -0.123898446559906, -0.058558519929647446, 0.07254894077777863, -0.2919872999191284, -0.04801265522837639, 0.012003714218735695, 0.03871709108352661, 0.020597103983163834, 0.12611998617649078, 0.03431149572134018, -0.20405103266239166, -0.23790979385375977, 0.2275976538658142, -0.0639452114701271, -0.013176584616303444, -0.2391781061887741, 0.23916126787662506, -0.36227017641067505, -0.1782936006784439, -0.07403969764709473, 0.04982094466686249, -0.3545421361923218, 0.09444961696863174, -0.012480353005230427, -0.39044415950775146, -0.09983856976032257], [-0.43144726753234863, -0.07959430664777756, -0.12108378857374191, -0.6500285267829895, -0.3048599362373352, 0.14289025962352753, 0.19795283675193787, 0.3205067217350006, -0.07234686613082886, -0.08246028423309326, -0.0965648964047432, -0.42031386494636536, -0.23061580955982208, 0.14315573871135712, 0.09094346314668655, 0.5465003848075867, 0.5955536365509033, 0.2819165587425232, -0.3468429744243622, -0.10447035729885101, -0.3302897810935974, 0.042246878147125244, 0.20948265492916107, -0.20358134806156158, -0.24214084446430206, -0.052296582609415054, 0.32751184701919556, -0.046288054436445236, 0.14448411762714386, -0.08263988792896271, 0.28755849599838257, 0.0991901084780693]]}, "if": {"kernel": [[0.12404435873031616, -0.5697370767593384, 0.4123322069644928, 0.026979248970746994, 0.2269292026758194, -0.17707559466362, 0.37004518508911133, 0.055002469569444656, 0.4341524541378021, 0.31963345408439636, 0.2297554761171341, 0.15082316100597382, 0.20453697443008423, 0.360194593667984, -0.16889740526676178, 0.26786863803863525, -0.19745345413684845, -0.06578173488378525, 0.08008532226085663, 0.043661054223775864, 0.18302065134048462, 0.35997700691223145, -0.27642908692359924, 0.21890054643154144, -0.48514869809150696, -0.0432075597345829, 0.3061264157295227, -0.5688581466674805, 0.49365517497062683, 0.48019734025001526, 0.36623209714889526, -0.13174445927143097], [-0.21908769011497498, 0.18361681699752808, 0.1306438446044922, -0.3041670620441437, -0.18129487335681915, -0.43099161982536316, -0.15926606953144073, -0.2132551521062851, 0.47799327969551086, -0.11568501591682434, -0.09233075380325317, 0.3697744309902191, 0.00871938094496727, -0.47925901412963867, 0.44424301385879517, 0.365157812833786, 0.03298614174127579, 0.4692837595939636, 0.18575140833854675, -0.3600810766220093, -0.10001451522111893, 0.14821477234363556, -0.3004409670829773, 0.18350212275981903, 0.22412890195846558, 0.4764103889465332, 0.15019509196281433, 0.0050703417509794235, 0.1320599913597107, 0.14569702744483948, 0.12305085361003876, -0.1852119117975235], [-0.4079163670539856, 0.4166802763938904, -0.5199480056762695, -0.0699615329504013, -0.19137190282344818, -0.13660892844200134, -0.035248201340436935, 0.21380917727947235, -0.09727133065462112, -0.0017052232287824154, -0.37610405683517456, -0.09593485295772552, -0.37818706035614014, 0.15489624440670013, 0.31140077114105225, 0.15442971885204315, 0.2918088436126709, 0.14469170570373535, -0.10013347864151001, -0.09710489958524704, 0.20273450016975403, -0.2491818070411682, 0.3103363513946533, 0.25636062026023865, 0.20118962228298187, -0.007470114156603813, 0.10970670729875565, -0.37480786442756653, 0.06627770513296127, 0.4201987087726593, 0.2430853396654129, 0.2682492733001709], [-0.3450634777545929, -0.09417923539876938, -0.2549070417881012, -0.19624486565589905, 0.28316399455070496, -0.2609763741493225, 0.5520556569099426, -0.0497940368950367, 0.18392592668533325, -0.132183238863945, 0.18943634629249573, -0.14555369317531586, -0.09640222042798996, -0.4728330075740814, 0.18487204611301422, -0.47165215015411377, -0.06377239525318146, 0.01744263619184494, -0.38261035084724426, 0.4613317549228668, 0.10401032865047455, 0.22156184911727905, 0.08855224400758743, -0.11367615312337875, -0.48708927631378174, -0.0256585031747818, 0.4764660894870758, -0.26677632331848145, -0.466805636882782, 0.5586763620376587, 0.23013177514076233, -0.03526034578680992], [-0.06264131516218185, -0.08164634555578232, -0.4211224913597107, -0.08082517981529236, 0.47069400548934937, 0.21332059800624847, -0.3464207649230957, 0.383699506521225, -0.09265847504138947, 0.1627718210220337, 0.4713382422924042, -0.09963563829660416, 0.13459669053554535, -0.34079065918922424, -0.22966109216213226, -0.2899820804595947, 0.15285226702690125, -0.2881968021392822, 0.2861044108867645, 0.23044858872890472, -0.14891605079174042, 0.48037391901016235, 0.39381200075149536, -0.5532074570655823, 0.07604649662971497, -0.14946292340755463, -0.26973092555999756, 0.07703763991594315, 0.21011978387832642, -0.4897840619087219, 0.011061863042414188, -0.40682727098464966], [-0.6075001955032349, -0.0628446564078331, 0.10495837777853012, -0.15654167532920837, -0.0938984826207161, -0.2559933662414551, 0.11036590486764908, 0.12965981662273407, -0.5043327212333679, 0.2257484644651413, 0.0976325273513794, 0.2904353439807892, 0.15480950474739075, -0.38505032658576965, -0.10335171967744827, 0.0782179906964302, 0.2970188856124878, -0.11849237978458405, -0.300577849149704, 0.45509299635887146, -0.14985644817352295, 0.11445356905460358, 0.5293599963188171, 0.23913772404193878, -0.4580158591270447, -0.16534006595611572, 0.1397666037082672, 0.22832466661930084, 0.16815583407878876, -0.0762675404548645, -0.011781515553593636, 0.2521364390850067], [0.3089219629764557, -0.10505165159702301, -0.17838943004608154, -0.5041447281837463, 0.049962203949689865, -0.3845558762550354, 0.0062766908667981625, -0.17201989889144897, -0.07400554418563843, 0.18097402155399323, 0.131165012717247, 0.3347022235393524, -0.13880755007266998, 0.04369926452636719, 0.22800323367118835, 0.08669525384902954, -0.5211862921714783, 0.2276291400194168, -0.24061430990695953, -0.09055282920598984, 0.022274846211075783, -0.26951864361763, -0.26272889971733093, 0.12575596570968628, -0.5065999031066895, -0.05680704116821289, -0.030145440250635147, 0.010954882949590683, -0.25707483291625977, 0.07606475055217743, -0.018930474296212196, 0.017683394253253937], [-0.5534318685531616, -0.3475586473941803, 0.09147483110427856, -0.4427858293056488, 0.548166811466217, 0.0985407903790474, -0.0016845744103193283, 0.12089946120977402, 0.1553407460451126, 0.17418870329856873, -0.011235400103032589, -0.11254584789276123, 0.19758504629135132, 0.1359148621559143, 0.08636096119880676, 0.015246671624481678, 0.23505839705467224, -0.25348401069641113, 0.29891133308410645, -0.3262905478477478, -0.4343504011631012, -0.18500714004039764, -0.018339121714234352, -0.0032618322875350714, 0.27536213397979736, 0.2746708393096924, 0.01672237552702427, -0.012610708363354206, -0.05867787450551987, 0.12613308429718018, 0.28902366757392883, 0.3098708391189575], [0.1248370110988617, 0.1674550622701645, -0.31359103322029114, -0.024094799533486366, 0.4418324828147888, -0.03713739290833473, 0.018892813473939896, -0.504589319229126, 0.07556989789009094, -0.16213876008987427, 0.2041245400905609, -0.365879088640213, 0.19904422760009766, 0.1583136022090912, 0.3874109387397766, 0.1403130739927292, -0.15395386517047882, -0.18535779416561127, -0.14906428754329681, 0.19415467977523804, -0.3127346634864807, 0.23481641709804535, -0.25800564885139465, -0.06746227294206619, -0.02106747217476368, -0.011584467254579067, 0.03179299831390381, 0.22786873579025269, 0.14170725643634796, -0.4405612051486969, -0.2963367700576782, -0.1449294090270996], [0.037485718727111816, -0.23146498203277588, 0.34207406640052795, -0.42169028520584106, -0.07448475062847137, -0.044626522809267044, 0.10010097175836563, 0.02320990525186062, -0.04446357861161232, -0.39152398705482483, 0.07942850887775421, -0.2632617652416229, 0.455398291349411, -0.38239601254463196, -0.15455691516399384, 0.11722482740879059, 0.05582517758011818, -0.08396091312170029, -0.43104058504104614, 0.24915193021297455, 0.42068246006965637, -0.21519513428211212, -0.22279348969459534, -0.012108119204640388, 0.4890748858451843, -0.1797252744436264, 0.13367345929145813, -0.1535586416721344, 0.1913391351699829, 0.07377073168754578, -0.2282460480928421, 0.2819329500198364], [0.352925568819046, 0.35420936346054077, -0.29175296425819397, -0.06205758452415466, -0.09904449433088303, -0.22292889654636383, -0.08939561992883682, -0.07390622049570084, 0.32525792717933655, -0.08250895142555237, 0.2651275098323822, 0.15364836156368256, -0.37309545278549194, -0.16365404427051544, 0.4715045988559723, 0.22180026769638062, 0.3401038646697998, -0.23098070919513702, 0.19086328148841858, 0.3815471827983856, -0.3289436101913452, -0.21419070661067963, -0.10474178194999695, -0.549495279788971, -0.4453659951686859, -0.2071487009525299, -0.07854268699884415, -0.20411500334739685, -0.11882183700799942, -0.23198026418685913, -0.310267835855484, -0.12210866808891296], [0.29274407029151917, 0.015079084783792496, -0.06997707486152649, 0.18634949624538422, 0.6785656809806824, 0.0610201396048069, -0.16783419251441956, 0.09861696511507034, 0.34976962208747864, -0.052980903536081314, -0.23033934831619263, -0.20287765562534332, -0.29766610264778137, -0.4185221791267395, 0.3252458870410919, -0.38006076216697693, -0.3851984143257141, 0.31268608570098877, -0.07146134972572327, 0.29187989234924316, -0.5353399515151978, 0.2959718406200409, 0.12908005714416504, -0.19137157499790192, -0.2576625943183899, 0.04284119978547096, -0.1651451140642166, -0.10803002864122391, 0.17139121890068054, 0.11912312358617783, -0.049829255789518356, 0.07699494808912277], [-0.15588800609111786, -0.46322745084762573, 0.03170900419354439, 0.2969639301300049, 0.5536550283432007, -0.19111329317092896, 