{"model": "GRU", "benchmark": "CED2", "meta": {"LR": 0.001, "n_re": 10, "n_hs": [2, 4, 8, 16, 32], "n_look": [2, 4, 8, 16, 32], "n_opt": 20000, "batch_len": null}, "nh_xval": 16, "look_xval": 8, "theta": {"params": {"Dense_0": {"bias": [0.02959119901061058], "kernel": [[-0.06455360352993011], [-0.24040693044662476], [-0.0943899154663086], [0.19117511808872223], [0.2794901430606842], [0.0779217779636383], [0.1762762814760208], [0.2295902669429779], [-0.01205784548074007], [0.19170287251472473], [0.07922648638486862], [-0.11209918558597565], [-0.07772841304540634], [0.2603905200958252], [0.1348806619644165], [-0.2077161967754364]]}, "GRUCell_0": {"hn": {"bias": [-0.16114704310894012, 0.09721336513757706, 0.08760125190019608, -0.03399035707116127, 0.009466307237744331, -0.0006717927171848714, -0.016001271083950996, 0.020035862922668457, 0.11608520150184631, -0.02990894392132759, 0.025457236915826797, 0.13946931064128876, -0.11061819642782211, 0.012899162247776985, 0.09359391778707504, -0.06096765398979187], "kernel": [[0.23170091211795807, 0.2942666709423065, 0.2523728609085083, 0.23362396657466888, 0.5767470002174377, -0.5008442997932434, -0.0527077354490757, -0.06701695173978806, 0.49342408776283264, 0.15882104635238647, -0.0929814800620079, 0.2245580554008484, -0.22230011224746704, 0.15616928040981293, 0.02002401277422905, 0.5076223015785217], [0.05061451718211174, 0.049641288816928864, 0.2394280582666397, -0.33005908131599426, 0.3120630383491516, 0.40512341260910034, -0.12766289710998535, 0.08627643436193466, -0.1255500614643097, 0.11802385002374649, 0.3529875576496124, 0.2750699818134308, -0.13435319066047668, 0.36861735582351685, 0.44649413228034973, 0.064912810921669], [-1.078163981437683, -0.07659877091646194, 0.5250165462493896, 0.40140220522880554, -0.5222898721694946, 0.07374419271945953, 0.1202860176563263, 0.5211265683174133, -0.46876612305641174, -0.3721681535243988, 0.23138728737831116, 0.34045401215553284, -0.005228639114648104, -0.013318536803126335, 0.027769718319177628, -0.12114153802394867], [0.5217956900596619, 0.18577413260936737, -0.5042883157730103, 0.3983091711997986, 0.05182567238807678, 0.2726612985134125, -0.17152446508407593, 0.49505728483200073, 0.23480774462223053, 0.2573756277561188, -0.15517161786556244, -0.20032821595668793, -0.08366838097572327, 0.31579479575157166, -0.08401480317115784, 0.7047163248062134], [0.261984646320343, -0.24159829318523407, 0.4617878794670105, 0.3719835579395294, 0.0935179740190506, 0.4241953492164612, -0.2493591457605362, -0.7308474183082581, 0.2964511215686798, 0.4409177899360657, -0.009333187714219093, -0.39772072434425354, -0.048985619097948074, 0.2574619650840759, -0.06733056902885437, 0.187075674533844], [0.08934003114700317, -0.011299893260002136, 0.13150259852409363, 0.14895710349082947, 0.1274905800819397, 0.09905684739351273, -0.4952308237552643, 0.00027925739414058626, 0.035115618258714676, -0.33507493138313293, -0.581707775592804, -0.07529081404209137, 0.17109842598438263, -0.322411447763443, 0.27835002541542053, 0.01717873476445675], [0.14530237019062042, -0.033557116985321045, 0.03155313804745674, -0.12028175592422485, -0.11278656870126724, 0.019497951492667198, 0.05922708660364151, -0.025746986269950867, -0.09053033590316772, 0.6316553354263306, -0.5995191931724548, 0.48103567957878113, -0.05871093273162842, 0.16131167113780975, 0.1820601522922516, -0.03891240060329437], [-0.0724654570221901, 0.4376130700111389, -0.04725595563650131, -0.20485049486160278, 0.19606345891952515, 0.06442134827375412, 0.11741378158330917, 0.47341054677963257, 0.3501465320587158, 0.6983906626701355, 0.05726570263504982, -0.48973268270492554, -0.03837860748171806, -0.42130136489868164, 0.28321415185928345, 0.24763555824756622], [-0.0585545152425766, 0.019162515178322792, 0.49211615324020386, -0.2631981372833252, -0.10554541647434235, -0.056614454835653305, -0.5083839297294617, -0.22074930369853973, -0.5013245344161987, -0.21087893843650818, 0.014471524395048618, 0.014367909170687199, -0.431242436170578, -0.08061359822750092, -0.40494003891944885, 0.3518364429473877], [0.033851508051157, 0.3637431263923645, 0.1736718863248825, -0.2665516138076782, 0.08205065876245499, 0.26963233947753906, 0.12370538711547852, -0.17935894429683685, 0.41235366463661194, 0.046373412013053894, -0.07757902890443802, 0.46580207347869873, 0.3671049475669861, 0.17270682752132416, -0.3038008511066437, 0.5623898506164551], [-0.35648348927497864, 0.1698613166809082, -0.508766233921051, 0.025357162579894066, 0.3155485987663269, -0.0011128243058919907, -0.23231108486652374, -0.14392302930355072, -0.5410085320472717, -0.09205158054828644, 0.0892261415719986, -0.09694145619869232, 0.3266665041446686, 0.2796672582626343, 0.004891195800155401, -0.4363195598125458], [-0.6890154480934143, 1.0796619653701782, 0.47679808735847473, -0.12177901715040207, -0.46753501892089844, -0.09080721437931061, -0.1359996497631073, 0.01628132164478302, 0.29358479380607605, -0.42782145738601685, 0.10521052032709122, 0.19830180704593658, -0.1281490921974182, 0.1491258293390274, -0.06923414766788483, -0.592694878578186], [-0.07927055656909943, -0.12267869710922241, 0.023477468639612198, 0.023489054292440414, 0.531419575214386, 0.32545405626296997, 0.43262678384780884, 0.47094428539276123, -0.043111808598041534, 0.30140984058380127, -0.2802085876464844, -0.2735987901687622, -0.09150951355695724, 0.009685619734227657, -0.40132880210876465, -0.13840946555137634], [-0.6215072870254517, -0.21339820325374603, 0.04506577551364899, -0.3279452919960022, -0.0033635320141911507, 0.04862619936466217, -0.3036399185657501, 0.5121914148330688, 0.30527326464653015, 0.018384994938969612, 0.10512067377567291, -0.5602115392684937, 0.18603847920894623, 0.6037840843200684, 0.21377642452716827, 0.08663486689329147], [-0.19978849589824677, -0.11244715005159378, 0.1447422355413437, -0.16445952653884888, 0.060985539108514786, 0.2504112422466278, -0.5461196303367615, -0.04175605997443199, 0.46882209181785583, 0.13627958297729492, 0.19878637790679932, 0.5463402271270752, -0.30240726470947266, -0.19930174946784973, -0.2344476282596588, -0.31871461868286133], [0.4234152138233185, 0.05662548542022705, 0.5006342530250549, -0.024064647033810616, 0.050252944231033325, -0.1604095697402954, -0.0897061675786972, 0.34690168499946594, -0.15149493515491486, 0.11077818274497986, 0.44759994745254517, 0.12716469168663025, 0.6720631718635559, 0.06597214937210083, -0.21424971520900726, -0.055999305099248886]]}, "hr": {"kernel": [[0.18722094595432281, 0.3076881468296051, 0.6010839939117432, 0.2368442416191101, -0.3812195956707001, -0.2166280448436737, -0.03208627179265022, 0.034710921347141266, 0.21260039508342743, 0.22276268899440765, 0.31211134791374207, 0.20246359705924988, -0.4925974905490875, 0.2965761125087738, -0.33780065178871155, 0.09487973153591156], [0.22053323686122894, -0.30594056844711304, 0.4302093982696533, 0.39767611026763916, 0.2636987566947937, 0.15925416350364685, 0.11199740320444107, -0.4634567201137543, 0.7839307188987732, 1.6123113632202148, -0.13164840638637543, 0.1484077274799347, -0.11893881857395172, 0.38243386149406433, -0.0797276645898819, 0.5367332100868225], [0.07813142240047455, -0.22145606577396393, -0.0908258929848671, 0.1622394323348999, -0.05900069698691368, -0.14984317123889923, 0.00444048410281539, -0.18184341490268707, -0.40997761487960815, -0.7278143763542175, 0.2580586075782776, 0.5121147036552429, -0.13365429639816284, -0.4218352437019348, 0.351411372423172, 1.1187095642089844], [0.3334992229938507, 0.170183002948761, 0.1624443531036377, 0.15499775111675262, 0.6283004879951477, 0.03869766741991043, -0.06359531730413437, 0.21289466321468353, -0.5730076432228088, -0.5345463156700134, 0.36914071440696716, -0.2933330833911896, -0.18799613416194916, -0.05052890256047249, -0.4832688570022583, -0.47657182812690735], [-0.4345795512199402, 0.2879945933818817, 0.23641328513622284, 0.44668418169021606, -0.3001115620136261, -0.9423161149024963, -0.5557076930999756, -0.7856972813606262, 0.7214459180831909, -0.5195206999778748, -0.06001928821206093, 0.00023957248777151108, 0.10945438593626022, -0.06592258810997009, -0.05185873806476593, 0.018539907410740852], [-0.31130099296569824, -0.4177955687046051, 0.024967804551124573, -0.2900136709213257, -0.03296678140759468, 0.2414521872997284, 0.0063624633476138115, 0.325503945350647, -0.054304879158735275, 0.45523586869239807, -0.2110113948583603, -0.25492972135543823, -0.13978536427021027, -0.24976851046085358, -0.1928265243768692, 0.5249308347702026], [0.537598729133606, -0.2683914303779602, 0.3890487849712372, -0.0700400099158287, 0.046878375113010406, -0.3483373820781708, 0.3310006558895111, 0.1863502413034439, 0.6493899822235107, 2.094022274017334, 0.09099512547254562, -0.03731164336204529, -0.03424010053277016, -0.21782079339027405, 0.08197808265686035, -0.22219274938106537], [0.6002745628356934, -0.08427062630653381, 0.371522456407547, -0.13286538422107697, -0.18134501576423645, -0.06654118746519089, 0.14553521573543549, 0.3822160065174103, -0.3548017740249634, 1.6245250701904297, -0.2988429367542267, 0.2549988925457001, 0.15086832642555237, -0.2400069683790207, -0.15203678607940674, -0.1978813260793686], [0.024304883554577827, 0.04621240496635437, 0.002110988600179553, 0.17115959525108337, -0.3331775665283203, -0.17112107574939728, 0.3493184447288513, -0.4831241965293884, 0.2769570052623749, -0.8765791058540344, 0.18170803785324097, 0.03890092298388481, 0.7469815015792847, -0.09878213703632355, -0.33990731835365295, 0.38204023241996765], [-0.07820310443639755, 0.18411099910736084, -0.41419151425361633, 0.09283397346735, -0.26674413681030273, 0.05708051100373268, 0.2144513726234436, 0.08272819221019745, 0.4110700488090515, 3.741792678833008, 0.21173402667045593, -0.10301230847835541, -0.38252297043800354, 0.15617451071739197, 0.034278810024261475, 0.03647106885910034], [0.09422171115875244, -0.37429264187812805, -0.2789028584957123, -0.09996288269758224, -0.365891695022583, 0.25182706117630005, -0.6248815655708313, -0.24585555493831635, 0.07039505988359451, -1.4553083181381226, 0.3583679795265198, -0.10958434641361237, 0.23079197108745575, 0.052097830921411514, 0.35342302918434143, 0.05850487947463989], [0.32873255014419556, 0.11810862272977829, 0.48233214020729065, 0.059207767248153687, -0.1510552316904068, -0.028774060308933258, -0.10296937078237534, -0.3588554561138153, -0.016643540933728218, 1.0541239976882935, 0.28265368938446045, -0.04400204122066498, 0.3307187855243683, 0.3445517122745514, 0.2650781571865082, 0.7745788097381592], [0.007481314707547426, 0.11365556716918945, -0.10241898149251938, -0.6166521310806274, -0.029319116845726967, -0.38778460025787354, -0.16441193222999573, -0.2837473750114441, 0.0766698494553566, 1.0251855850219727, 0.3016325533390045, 0.18814080953598022, -0.0692703127861023, 0.1738799810409546, -0.4664502441883087, 0.024671735242009163], [-0.16536922752857208, -0.2223432958126068, 0.48102641105651855, -0.03835064917802811, -0.13287827372550964, 0.12553530931472778, 0.40475770831108093, -0.506013810634613, -0.10733015835285187, 0.6247230172157288, 0.8349698185920715, -0.1544046849012375, -0.37044498324394226, 0.08619556576013565, 0.039113473147153854, 0.05527542158961296], [0.5016261339187622, 0.5257130861282349, 0.6522999405860901, -0.2517879903316498, 0.23306533694267273, -0.018030783161520958, 0.07275915890932083, -0.7423836588859558, -0.05782153457403183, 1.2075495719909668, 0.14796632528305054, -0.09367069602012634, -0.1489902138710022, 0.06671490520238876, 0.22802852094173431, 0.1580914855003357], [-0.5289565920829773, -0.2406146228313446, 0.3420274257659912, -0.2133338749408722, 0.11060000211000443, -0.3109915852546692, 0.4188039004802704, 0.17542439699172974, -0.1719314455986023, 3.5381839275360107, 0.5424845218658447, -0.06799067556858063, -0.16934604942798615, 0.4436660408973694, 0.08925805985927582, -0.19663897156715393]]}, "hz": {"kernel": [[0.44012144207954407, 0.3487902879714966, -0.09498588740825653, -0.09783338755369186, 0.15749149024486542, -1.6196554899215698, 0.5258676409721375, -0.0332661047577858, 0.01337734516710043, -0.12308727949857712, 0.20282933115959167, 0.17492231726646423, -0.06122613325715065, -0.2678878903388977, -0.09259402751922607, 0.36857956647872925], [-0.18850500881671906, -0.3900488615036011, -0.3586491644382477, -0.3424861431121826, 0.599658727645874, 0.7497434616088867, 0.5897224545478821, 0.6002752184867859, 0.30907365679740906, -0.14922019839286804, -0.19644135236740112, -0.16842220723628998, -0.2278839647769928, 0.06449027359485626, -0.14388389885425568, 0.4849143922328949], [0.7769594788551331, -0.10923417657613754, 0.23049956560134888, -1.064886450767517, 0.5035303235054016, 0.028685757890343666, 0.7767062783241272, -0.5211570262908936, -0.055924806743860245, -1.5809526443481445, 1.0881322622299194, -0.4353693425655365, -0.2310314029455185, -0.27221858501434326, -0.5373066663742065, -0.464729368686676], [-0.39445406198501587, -0.09109903872013092, -0.2139643132686615, 0.28066954016685486, -0.7622501850128174, 0.0733734667301178, 0.11027476191520691, -0.09549363702535629, -0.8536098599433899, 0.6748682856559753, -0.10369846969842911, 0.10614978522062302, -0.10389837622642517, 0.16421566903591156, -0.35914918780326843, 0.5306169390678406], [-0.8658832311630249, 0.0017440369119867682, -0.006442550104111433, -0.34158194065093994, 0.2921108603477478, 0.9784887433052063, 0.5733128190040588, 0.13893327116966248, -0.10981903970241547, -0.6916252374649048, -0.3842519521713257, -0.6436254978179932, 0.6537946462631226, 0.48164597153663635, -0.34456145763397217, -0.5269010663032532], [0.1539825201034546, 0.0019625036511570215, -0.21250827610492706, 0.02608707919716835, 0.4679238200187683, 0.5751862525939941, 0.30225154757499695, 0.38557204604148865, 1.0816296339035034, 0.1351369172334671, -0.7399734258651733, 0.03609289228916168, -0.06832654029130936, 0.08511903882026672, -0.2769598066806793, -0.14957666397094727], [-0.4043116271495819, 0.20855310559272766, 0.07496201246976852, 0.30624231696128845, 0.41965317726135254, -2.3016021251678467, 0.8136209845542908, -0.30711373686790466, -0.20826098322868347, 0.10747645795345306, 0.0005364804528653622, 0.6260296702384949, -0.2143665850162506, -0.32715731859207153, 0.474672794342041, 0.5106011033058167], [0.44119176268577576, -0.38782253861427307, -0.12243657559156418, -0.1881643533706665, -0.5740287899971008, -0.29776278138160706, 0.43877875804901123, -0.0520792230963707, -0.9581071734428406, 0.744055449962616, 0.9334115982055664, -0.39822497963905334, -0.5010517239570618, 0.28074508905410767, 0.6698898673057556, 0.60804682970047], [1.0530129671096802, 0.19505798816680908, -0.20127946138381958, 0.03367888927459717, 0.0073838066309690475, 0.548216700553894, -0.12375767529010773, -0.5821585059165955, -0.16555145382881165, -0.24424432218074799, 0.2935427725315094, 0.5723214149475098, 0.2581380009651184, -0.10419495403766632, -0.14095298945903778, 0.25356945395469666], [-0.24845601618289948, -0.1031421348452568, -0.3884989321231842, -0.20529502630233765, 0.5332785844802856, -1.1982946395874023, 0.5851766467094421, 0.10824723541736603, 0.3863445818424225, 0.15866093337535858, 0.5884076356887817, -0.6852756142616272, 0.31014227867126465, 0.6284524202346802, -0.48209959268569946, 0.44609445333480835], [0.3902931213378906, -0.6529659628868103, 0.0020387480035424232, -0.39854171872138977, 0.63962721824646, 0.36315515637397766, 0.1752583384513855, -0.246783047914505, 0.06987042725086212, -0.416530579328537, -0.07440277934074402, -0.362530380487442, 0.12698456645011902, 0.17307926714420319, 0.234186589717865, -0.2902841866016388], [-0.3116306960582733, -1.282691240310669, 0.15258368849754333, 0.43622082471847534, 0.9874069690704346, -0.7476785778999329, 0.06262872368097305, 0.24890287220478058, 0.5804018378257751, -0.019802261143922806, 0.2971441149711609, -0.5469487309455872, -0.22105200588703156, -0.006807745900005102, 1.216362476348877, 0.12087617814540863], [-0.9404133558273315, -0.44702258706092834, -0.47721901535987854, -0.3421280086040497, 0.07813076674938202, 1.2634425163269043, -0.23448315262794495, -0.29759660363197327, 0.40002018213272095, -0.003925996832549572, 0.0018804032588377595, -0.4981529414653778, 0.09947708249092102, -0.43320006132125854, -0.09924939274787903, 0.7504658699035645], [-0.4633640944957733, -0.0640903040766716, -0.023590141907334328, -0.2098965346813202, 0.6383717060089111, 1.5110039710998535, 0.3884834051132202, 0.41832438111305237, 0.6610506772994995, 0.25476837158203125, -0.7886351943016052, -0.537339985370636, 0.6788774728775024, -0.0023691109381616116, -0.9090594053268433, 0.4192325174808502], [0.33502644300460815, -0.14366421103477478, -0.5256245136260986, -0.18821418285369873, -0.7470501065254211, 0.6923924088478088, 0.4183426797389984, -0.12476733326911926, 0.620715856552124, -0.28159427642822266, -1.0982387065887451, -0.4305284023284912, 0.3390769362449646, 0.42263779044151306, 0.9367231726646423, 0.7998650074005127], [-0.07697657495737076, 1.1708050966262817, -0.35021162033081055, -0.18661844730377197, -0.2545880377292633, -2.0012829303741455, -0.41992542147636414, 0.43082186579704285, 0.04080462455749512, 0.41532284021377563, 0.6130918860435486, 0.534572422504425, 0.1659727692604065, -0.513937771320343, -0.6062420606613159, 0.6701760292053223]]}, "in": {"bias": [-0.11115777492523193, 0.0654732882976532, 0.07415459305047989, -0.02205328270792961, 0.00275094504468143, 0.015407294034957886, 0.0014703299384564161, 0.010690619237720966, 0.09032071381807327, 0.13538695871829987, -0.0029107823502272367, 0.13862672448158264, -0.08162412792444229, 0.006206465419381857, 0.08455022424459457, -0.04467759281396866], "kernel": [[0.3392905294895172, -0.5515323281288147, -0.17649535834789276, -0.20760589838027954, -0.6911939382553101, -0.013938693329691887, 0.6263906359672546, 0.6374030709266663, 0.04136420413851738, -0.2101595103740692, -0.5199329853057861, -0.0474412776529789, 0.01168787106871605, -0.17666445672512054, 0.45874840021133423, -0.02377871423959732], [0.27583590149879456, -0.4619098901748657, -0.12984982132911682, 0.30278804898262024, 0.2677519917488098, -0.5346652865409851, 0.0345090851187706, 0.04921328276395798, 0.3947831988334656, -0.2224934995174408, -0.37196120619773865, -0.16496707499027252, 0.5643319487571716, -0.10150404274463654, -0.5110328197479248, 0.39020994305610657], [0.49073347449302673, -0.08880753070116043, -0.04166477918624878, 0.4272952675819397, -0.041040822863578796, -0.04917490482330322, 0.01058197021484375, 0.382464736700058, -0.3729650378227234, -0.30396103858947754, -0.49578791856765747, 0.2326466143131256, 0.28322309255599976, 0.42732250690460205, -0.09362286329269409, -0.26856324076652527], [0.08961820602416992, 0.07456957548856735, 0.6395056247711182, 0.0631488636136055, 0.10843053460121155, 0.01856643334031105, -0.24929551780223846, -0.31340715289115906, -0.423701673746109, 0.7763344645500183, 0.12701337039470673, -0.29967954754829407, -0.12793326377868652, -0.1007685661315918, 0.04326770827174187, 0.10336535423994064], [-0.6268683075904846, 0.36777377128601074, -0.6133867502212524, -0.025150638073682785, -0.6488142609596252, 0.36226245760917664, -0.035512156784534454, 0.39672937989234924, 0.31898728013038635, 0.5806915163993835, -0.20310890674591064, -0.41149792075157166, -0.30151858925819397, 0.04332852363586426, 0.14729449152946472, 0.2614383101463318], [-0.1292957216501236, -0.4335845410823822, 0.2699710726737976, 0.32676711678504944, 0.09928365051746368, 0.30758967995643616, -0.4163382053375244, -0.15227310359477997, -0.5920825004577637, -0.05149678885936737, -0.35474276542663574, -0.231500044465065, 0.35238176584243774, -0.0839512050151825, 0.060102514922618866, -0.6533553004264832], [0.06695770472288132, -0.2634340524673462, -0.16325318813323975, -0.013101095333695412, 0.5172294974327087, -0.3116336762905121, -0.2217373251914978, 0.3551548421382904, -0.22415658831596375, -0.26762932538986206, 0.052611593157052994, 0.7069169878959656, -0.41899576783180237, 0.30262085795402527, 0.4630257785320282, 0.43418076634407043], [0.17518563568592072, 0.5136318206787109, -0.6891828775405884, 0.11084616929292679, 0.10005754977464676, -0.17031137645244598, 0.6301370859146118, -0.6907002925872803, -0.5260223150253296, 0.6446741819381714, -0.41749274730682373, -0.20005950331687927, 0.3981526494026184, 0.20739272236824036, 0.07511626183986664, -0.07510875165462494]]}, "ir": {"bias": [0.30041810870170593, 0.09241586178541183, 0.2199229896068573, -0.006891304161399603, 0.011644319631159306, -0.04615457355976105, 0.10451534390449524, -0.060538340359926224, 0.14762860536575317, 0.4835216999053955, 0.15481072664260864, 0.1986813247203827, 0.0420219749212265, 0.13575875759124756, -0.09137044847011566, 0.15704427659511566], "kernel": [[-0.5418040156364441, -0.28626716136932373, -0.3354986906051636, 0.17205160856246948, 0.22424033284187317, 0.40587010979652405, 0.19828684628009796, 0.14631634950637817, -0.26375827193260193, 2.8057498931884766, 0.22854967415332794, 0.5355868935585022, -0.16375279426574707, -0.2241668999195099, 0.06202985718846321, 0.3725692927837372], [0.5800405144691467, -0.4517633318901062, -0.06657038629055023, -0.027073392644524574, 0.42376017570495605, -0.0856110081076622, -0.2790427803993225, 0.906500518321991, 0.027342041954398155, 0.6307390928268433, 0.806693971157074, 0.34117648005485535, 0.2745293080806732, -0.3139912784099579, -0.5318658351898193, 0.37895625829696655], [0.426376074552536, 0.19135083258152008, 0.01301069837063551, 0.36391958594322205, 0.3854485750198364, -0.7094689607620239, -0.2506541907787323, -0.5179039239883423, 0.24487712979316711, 0.26409438252449036, 0.36842742562294006, 0.4438623785972595, -0.11316296458244324, 0.18604113161563873, -0.45247504115104675, -0.014269895851612091], [-0.3695240914821625, 0.5653486847877502, 0.1618218570947647, -0.2776622474193573, 0.6235976219177246, 0.2979334592819214, 0.3602351248264313, 0.07011497765779495, -0.08752615749835968, 0.37201839685440063, -0.0992860496044159, 0.7186058163642883, -0.48517975211143494, 0.4252118766307831, 0.44654273986816406, -0.7126526832580566], [0.37368643283843994, -0.4222823679447174, -0.04777183383703232, 0.008876495063304901, 0.16775207221508026, 0.4947243630886078, -0.18896164000034332, 0.6086012721061707, 0.09972766786813736, 0.7843590974807739, 0.19421567022800446, 0.11492053419351578, 0.007578513119369745, 0.6940457820892334, 0.06805654615163803, -0.699259877204895], [-0.4392194151878357, 0.6226005554199219, 0.5890296101570129, -0.5455524325370789, 0.13529379665851593, -0.1758892983198166, 0.2530004680156708, 0.054283980280160904, -0.2844253480434418, 0.8299880027770996, 0.5252347588539124, -0.3174893260002136, 0.6492217183113098, 0.42758575081825256, 0.10645981132984161, 0.20596501231193542], [0.5722528696060181, 0.799651026725769, 0.2970196008682251, 0.1093134805560112, 0.21307650208473206, -0.26448342204093933, 0.13520419597625732, 0.13027581572532654, -0.7197240591049194, 0.13709820806980133, -0.5098823308944702, 0.5346970558166504, 0.1556532382965088, 0.43026992678642273, -0.11588426679372787, -0.09607173502445221], [-0.13554424047470093, -0.5623136758804321, 0.26461732387542725, -0.07488033175468445, 0.19553396105766296, 0.09419196099042892, -0.06520902365446091, 0.7291378974914551, 0.09284915775060654, -0.059545811265707016, -0.4069071114063263, 0.22650744020938873, -0.04002263396978378, -0.3611002564430237, 0.40135693550109863, -0.026171427220106125]]}, "iz": {"bias": [0.09512949734926224, 0.7075364589691162, -0.04585916921496391, 0.04711437225341797, 0.00678669847548008, 1.4382015466690063, 0.14873839914798737, 0.03802848979830742, 0.42248451709747314, 0.12328428030014038, -0.30381423234939575, -0.45810467004776, 0.19661836326122284, 0.6063675284385681, 0.6205693483352661, 0.26649656891822815], "kernel": [[0.401741623878479, -0.04034969210624695, -0.20911702513694763, -0.07183436304330826, -0.27136141061782837, 0.028573336079716682, 0.8040355443954468, 0.7696520686149597, 0.3822523057460785, 0.4087561368942261, -0.2934202551841736, 0.19644968211650848, 0.4707019031047821, 0.32423120737075806, 0.2953204810619354, 0.0010204326827079058], [0.22665748000144958, 0.006260006222873926, 0.010501318611204624, -0.03215740993618965, 0.7933017015457153, -0.8218557834625244, -0.04141528904438019, 0.6013262867927551, -0.24735036492347717, -0.05486232787370682, 0.1933489441871643, 0.4639565348625183, 0.26792284846305847, -0.15553098917007446, 0.5581443905830383, 0.5480512976646423], [-0.5723254084587097, -0.21220821142196655, 0.22981002926826477, 0.8224643468856812, 0.020330263301730156, 0.9888871312141418, -0.22134748101234436, 0.330356240272522, 0.5191272497177124, -0.01816881261765957, 0.2153363674879074, 0.2208745777606964, -0.23563463985919952, 0.7095674276351929, -0.08899993449449539, 0.42771443724632263], [0.7554634213447571, -0.1401812732219696, -0.055816955864429474, -0.15392246842384338, -0.3758791983127594, -0.15198974311351776, -0.19095149636268616, 0.012002597562968731, 0.01895788125693798, -0.5449711680412292, -0.6919146180152893, 0.44918739795684814, 0.2017037272453308, -0.27042967081069946, -0.4273407459259033, 0.040205731987953186], [0.3591141402721405, 0.8143774271011353, -0.212135910987854, 0.3728371858596802, 0.24050825834274292, -0.4114043712615967, 0.22253923118114471, 0.7633175253868103, -0.1657877117395401, -0.19115732610225677, 0.030798930674791336, -0.2525840401649475, 0.6972900032997131, -0.4386095702648163, 0.43836456537246704, -0.04548298567533493], [0.0775008499622345, 0.32044100761413574, -0.25114184617996216, 0.4811280071735382, -0.2292230874300003, -1.844088077545166, -0.36202752590179443, 0.20903755724430084, 0.1893465220928192, -0.2555390000343323, -0.22026684880256653, 0.07198630273342133, 0.12257839739322662, 0.6589576005935669, -0.19733424484729767, 0.36832278966903687], [-0.021152600646018982, -0.30571430921554565, 0.4304100573062897, 0.342852920293808, 0.4526122212409973, 0.23058393597602844, -0.43104180693626404, 0.7404173612594604, -0.2644301652908325, -0.14415417611598969, -0.5202556252479553, -0.36108070611953735, 0.3432818651199341, -0.37496429681777954, -0.19620633125305176, 0.16297286748886108], [-0.4975680112838745, 0.1357388198375702, 0.5831558108329773, 0.17545214295387268, -0.2579381465911865, -0.3043314218521118, -0.021805020049214363, 0.2521696984767914, -0.37265172600746155, -0.2487654834985733, -0.15336954593658447, 0.08225268125534058, 0.16458839178085327, -0.1682198941707611, 0.009089010767638683, 0.17183174192905426]]}}}}, "test_1": {"yhat": [0.9511029720306396, 1.1905982494354248, 1.0518990755081177, 0.7139699459075928, 0.4716505706310272, 0.21330644190311432, 0.14261354506015778, 0.3120289146900177, 0.3883933424949646, 0.37972044944763184, 0.3801599442958832, 0.3928469717502594, 0.38507595658302307, 0.3712833821773529, 0.3567560613155365, 0.29665398597717285, 0.21890999376773834, 0.12517568469047546, 0.0362437479197979, -0.05684193596243858, -0.13266117870807648, -0.1861526519060135, -0.1731247901916504, -0.07379501312971115, 0.0327649749815464, 0.10482552647590637, 0.0863291546702385, 0.02659246139228344, -0.0006676707998849452, 0.03484416380524635, 0.07413003593683243, 0.13706858456134796, 0.17621923983097076, 0.15616537630558014, 0.13581666350364685, 0.11539967358112335, 0.09293316304683685, 0.12004030495882034, 0.15239380300045013, 0.19774331152439117, 0.27883294224739075, 0.40162843465805054, 0.4913899302482605, 0.5526964664459229, 0.5647248029708862, 0.5503689050674438, 0.47039976716041565, 0.36790868639945984, 0.2802315950393677, 0.22661645710468292, 0.20325979590415955, 0.19563856720924377, 0.20330066978931427, 0.21793228387832642, 0.23119117319583893, 0.23400771617889404, 0.2277551293373108, 0.21073265373706818, 0.18764394521713257, 0.1838202178478241, 0.1749984323978424, 0.16682898998260498, 0.20642732083797455, 0.2508312165737152, 0.2986493706703186, 0.3646638095378876, 0.47547879815101624, 0.5469076633453369, 0.5500778555870056, 0.5448240637779236, 0.5092588067054749, 0.41759219765663147, 0.41150903701782227, 0.4329477548599243, 0.4802415370941162, 0.5749122500419617, 0.7303873300552368, 0.8491231799125671, 0.8011247515678406, 0.7797189354896545, 0.7159165143966675, 0.5686875581741333, 0.5230095982551575, 0.5508242249488831, 0.5971947908401489, 0.7872872948646545, 1.0541019439697266, 1.3336373567581177, 1.6329164505004883, 1.916454792022705, 2.1377203464508057, 2.2872025966644287, 2.382305860519409], "rmse": 0.2382348481059753}}