{"model": "RNN", "benchmark": "CT", "meta": {"LR": 0.001, "n_re": 10, "n_hs": [2, 4, 8, 16, 32], "n_look": [2, 4, 8, 16, 32], "n_opt": 20000, "batch_len": null}, "nh_xval": 32, "look_xval": 4, "theta": {"params": {"Dense_0": {"bias": [0.13753467798233032], "kernel": [[0.11184625327587128], [-0.1291116178035736], [-0.1563878357410431], [-0.23997947573661804], [-0.2634213864803314], [-0.18597891926765442], [0.11842992901802063], [-0.012711030431091785], [-0.03288188949227333], [-0.1177542507648468], [-0.0033481873106211424], [-0.22169914841651917], [-0.20040160417556763], [-0.10655254870653152], [0.13058817386627197], [0.12076666206121445], [-0.09921609610319138], [0.0012129101669415832], [-0.04387296363711357], [0.1440933644771576], [0.1969146430492401], [-0.17146478593349457], [-0.09976322948932648], [-0.06133146956562996], [-0.19525142014026642], [0.021415522322058678], [-0.22233286499977112], [-0.01705406792461872], [-0.0444159097969532], [0.12818962335586548], [0.18283812701702118], [-0.09994154423475266]]}, "RNNCell_0": {"Dense_0": {"bias": [0.08730816096067429, 0.007197964005172253, 0.0014960502739995718, -0.057652126997709274, -0.003684784984216094, 0.004659268539398909, 0.05000291019678116, -0.013788171112537384, 0.013539447449147701, -0.029164139181375504, 0.008556664921343327, -0.03837871178984642, -0.029820473864674568, -0.024089477956295013, 0.029677551239728928, 0.04520270973443985, -0.06979671865701675, 0.028040647506713867, -0.017485642805695534, 0.07264205813407898, -0.0037054154090583324, 0.019531570374965668, -0.10579655319452286, 0.016707077622413635, -0.040338627994060516, 0.016618655994534492, -0.016433551907539368, 0.009673870168626308, -0.019534850493073463, 0.04412340745329857, 0.051657672971487045, 0.024170545861124992], "kernel": [[-0.08135496824979782, 0.19556207954883575, -0.003550020745024085, -0.29612329602241516, -0.220403254032135, -0.3070536255836487, 0.14559179544448853, -0.1944977194070816, 0.16551294922828674, 0.17827880382537842, 0.04647369682788849, 0.039617106318473816, -0.16539128124713898, 0.220646932721138, -0.005425130017101765, -0.0020802635699510574, 0.10406751185655594, -0.19282275438308716, -0.11348341405391693, 0.04842463880777359, -0.0020983433350920677, -0.08214160799980164, 0.336172491312027, -0.03097308613359928, 0.10548834502696991, 0.24207936227321625, -0.4320586025714874, -0.03673917427659035, 0.22915983200073242, -0.16486166417598724, -0.3530596196651459, 0.02340666949748993], [-0.15804189443588257, 0.09008093923330307, -0.03645351156592369, 0.20388920605182648, 0.11143306642770767, 0.056438613682985306, 0.09687017649412155, 0.07753627002239227, 0.17328333854675293, -0.2929309904575348, -0.011494298465549946, -0.2334141880273819, -0.03927849978208542, -0.21322232484817505, -0.09994863718748093, 0.01922457106411457, 0.1379624754190445, -0.1922941952943802, -0.005953624844551086, -0.001616958761587739, -0.0003089306701440364, 0.15707258880138397, -0.19457657635211945, 0.08450520783662796, 0.3534657657146454, 0.3210645020008087, 0.07572949677705765, 0.16614609956741333, 0.11472832411527634, -0.004330730531364679, 0.17856507003307343, -0.07604851573705673], [-0.030299892649054527, 0.24160650372505188, 0.026432668790221214, -0.20145024359226227, -0.3194255828857422, -0.18231940269470215, 0.12019314616918564, 0.21843639016151428, 0.33266639709472656, 0.08448665589094162, 0.26656925678253174, 0.03953838720917702, 0.10413122177124023, -0.016856519505381584, -0.04452591761946678, 0.19170613586902618, 0.04133228585124016, -0.05742303282022476, -0.10461384803056717, 0.016255425289273262, -0.14038589596748352, -0.07699475437402725, -0.20214036107063293, 0.13446176052093506, -0.1090540885925293, -0.05038644000887871, 0.16857267916202545, -0.2153538316488266, 0.1434083878993988, 0.19847214221954346, -0.113895945250988, 0.12966901063919067], [-0.1782374083995819, -0.047703541815280914, 0.3246958553791046, -0.03539535403251648, 0.3662267029285431, -0.27325087785720825, -0.1858452409505844, -0.08264169096946716, 0.09546509385108948, -0.19536399841308594, 0.3868532180786133, -0.12588948011398315, 0.10820887237787247, 0.25675439834594727, -0.24109593033790588, -0.09007435292005539, -0.16515110433101654, -0.3090987503528595, 0.14638200402259827, 0.0018903356976807117, 0.018682822585105896, -0.15971209108829498, 0.07774370163679123, -0.15091608464717865, 0.0941561758518219, 0.3296057879924774, -0.05537824705243111, -0.12013914436101913, -0.2679719924926758, -0.2358519285917282, 0.0657069981098175, 0.059415530413389206], [-0.15547820925712585, -0.2747076749801636, 0.2493012696504593, -0.1021648570895195, -0.28738510608673096, 0.16259966790676117, -0.03243285417556763, -0.031687308102846146, -0.025922860950231552, -0.32095909118652344, 0.4182004928588867, -0.03885597735643387, -0.15515755116939545, -0.12863408029079437, 0.28416725993156433, 0.039963506162166595, 0.16618935763835907, 0.036201361566782, 0.13119065761566162, -0.06454475969076157, -0.3768513798713684, 0.04590562358498573, -0.03684771806001663, -0.3364744782447815, -0.09196610003709793, -0.2259255349636078, 0.41735851764678955, 0.0031885108910501003, 0.3742242753505707, -0.2466474026441574, -0.31080135703086853, 0.04916077479720116], [-0.001554690534248948, 0.13219626247882843, -0.04206360876560211, 0.05886493995785713, -0.02222791314125061, -0.2694826126098633, 0.0608329139649868, -0.055869679898023605, 0.10249432176351547, 0.04680987074971199, 0.17910847067832947, -0.1400553584098816, 0.12079267203807831, -0.09514354169368744, 0.19296525418758392, 0.14872485399246216, 0.2846352756023407, -0.08273568004369736, 0.03175896778702736, -0.24087217450141907, 0.23439578711986542, -0.0057341898791491985, -0.23698177933692932, -0.15057247877120972, -0.11756231635808945, 0.27245861291885376, 0.1123577281832695, 0.26104485988616943, -0.006660266313701868, 0.1671762615442276, -0.24903316795825958, -0.10372745245695114], [0.004996531177312136, 0.060037609189748764, 0.03764825314283371, -0.05626880005002022, 0.13736048340797424, -0.04189958795905113, -0.16010648012161255, -0.12813609838485718, 0.09901078045368195, 0.006940453313291073, -0.07476125657558441, -0.06384897977113724, -0.09488686919212341, -0.21865256130695343, -0.06157143786549568, 0.144224613904953, -0.3025808036327362, 0.1310032159090042, -0.008013688959181309, -0.3561458885669708, -0.0990995541214943, 0.18437032401561737, -0.16349151730537415, -0.010757485404610634, 0.364010751247406, 0.01319032534956932, 0.03902951627969742, -0.13218525052070618, -0.06840892881155014, 0.04398082196712494, -0.0089797992259264, 0.11217190325260162], [-0.29496121406555176, -0.032126542180776596, -0.17556162178516388, -0.04068195819854736, 0.020190659910440445, 0.2544334828853607, -0.31283628940582275, -0.0855260118842125, -0.06423048675060272, 0.22087524831295013, -0.1447981595993042, 0.05714258551597595, -0.09242188930511475, -0.07712094485759735, -0.09334772080183029, 0.062099870294332504, 0.36368951201438904, 0.07787927985191345, -0.0771809071302414, 0.04254380613565445, -0.04384173825383186, -0.09909916669130325, 0.2158827781677246, -0.3573295772075653, 0.29669052362442017, 0.08681104332208633, 0.02202003076672554, -0.03794240579009056, 0.048584289848804474, -0.3190421164035797, 0.3017910122871399, 0.002822783775627613], [0.087896429002285, -0.08444567024707794, 0.25195637345314026, -0.39817655086517334, 0.25443145632743835, 0.13902409374713898, -0.2916373014450073, -0.06880813091993332, 0.02191019058227539, -0.16422879695892334, 0.03503766283392906, 0.014293646439909935, 0.041582416743040085, -0.288913369178772, -0.05549084022641182, 0.3170117437839508, -0.02841784432530403, -0.023407256230711937, -0.3322887420654297, 0.13315977156162262, 0.006245529744774103, -0.006337929051369429, -0.06653942167758942, 0.24191492795944214, -0.1014607772231102, 0.2059279829263687, 0.11360014975070953, -0.04762973263859749, 0.034405387938022614, 0.0383060947060585, 0.14682531356811523, 0.36004817485809326], [-0.10057616978883743, 0.1984805315732956, -0.2605662941932678, 0.06808725744485855, 0.2434382289648056, 0.19375644624233246, 0.34903255105018616, 0.20323699712753296, -0.14955715835094452, 0.07148338109254837, -0.01933002658188343, -0.21104925870895386, 0.03331584110856056, 0.07107749581336975, -0.3462362587451935, -0.11428202688694, 0.35682785511016846, -0.1148308515548706, -0.031197283416986465, 0.04264428839087486, 0.2597792446613312, 0.171870157122612, -0.051146965473890305, 0.15272678434848785, -0.3689417839050293, 0.03575481101870537, -0.15116313099861145, -0.15744620561599731, -0.1730944961309433, 0.19297170639038086, -0.08124511688947678, 0.01100529357790947], [-0.3821306526660919, -0.13954417407512665, 0.19275043904781342, -0.06602262705564499, 0.20219747722148895, -0.31291067600250244, -0.09419482946395874, 0.2539929449558258, 0.022167718037962914, -0.058545440435409546, 0.05048876255750656, -0.026534337550401688, 0.18488508462905884, -0.10210854560136795, -0.11731207370758057, 0.12535029649734497, 0.025527924299240112, 0.037539612501859665, -0.26240459084510803, -0.17000165581703186, 0.3060758411884308, 0.3521764576435089, -0.12482641637325287, -0.11370633542537689, -0.3505949079990387, -0.19197799265384674, 0.12214454263448715, -0.13232409954071045, 0.3749663233757019, 0.109144426882267, -0.24040110409259796, 0.260235071182251], [0.4450226426124573, -0.27410465478897095, -0.09700208157300949, -0.0027309085708111525, 0.12949982285499573, 0.18873651325702667, -0.18179887533187866, -0.21693341434001923, 0.04846181347966194, 0.26715517044067383, 0.18874064087867737, -0.14108002185821533, -0.009097208268940449, -0.12652108073234558, 0.30470237135887146, 0.03121010959148407, 0.18173754215240479, 0.13980552554130554, 0.07126030325889587, -0.07583914697170258, 0.3533380925655365, 0.19624584913253784, -0.1554260551929474, 0.22149941325187683, 0.14923755824565887, -0.06097247079014778, 0.08798151463270187, -0.04910823330283165, -0.31216031312942505, -0.36745572090148926, 0.1386217325925827, -0.0068536559119820595], [0.09689202159643173, -0.1092425063252449, -0.07566241174936295, -0.10575325787067413, -0.041967764496803284, -0.11681056022644043, -0.14270085096359253, -0.11437557637691498, 0.3102627992630005, 0.08685531467199326, 0.24487124383449554, 0.24511116743087769, 0.08055315911769867, 0.30326998233795166, -0.1821894496679306, -0.21832230687141418, -0.17766828835010529, -0.4635217487812042, -0.1407395601272583, 0.02914070151746273, -0.06098988279700279, -0.10014030337333679, 0.21739256381988525, 0.06685628741979599, 0.11904723942279816, 0.08507807552814484, -0.06687391549348831, -0.022276006639003754, 0.1880364865064621, 0.1219172328710556, -0.1280095875263214, -0.02940019778907299], [-0.17532142996788025, -0.29056695103645325, -0.076821468770504, -0.16648754477500916, 0.00852120015770197, 0.0597430095076561, 0.42786267399787903, -0.21737278997898102, -0.2275535762310028, -0.3223441541194916, -0.2779276967048645, 0.1801939755678177, -0.3331950902938843, -0.2447541356086731, -0.05186828598380089, 0.23802487552165985, 0.07540794461965561, 0.20127831399440765, 0.19329430162906647, -0.3334517478942871, 0.1133071705698967, 0.05966188386082649, 0.24437077343463898, -0.09236791729927063, -0.06467559188604355, 0.04634140804409981, -0.019629111513495445, -0.05164182931184769, 0.3150264322757721, -0.21324867010116577, 0.1662784367799759, 0.01872503198683262], [0.07631948590278625, -0.1814722716808319, 0.13782677054405212, 0.008386689238250256, 0.15974247455596924, 0.029253195971250534, -0.16887077689170837, -0.2469097226858139, -0.18722425401210785, -0.30978187918663025, -0.38984543085098267, 0.1306406408548355, -0.10416433215141296, -0.06641978025436401, -0.09189337491989136, 0.3201967179775238, -0.055197685956954956, -0.11950666457414627, 0.15312880277633667, -0.11182297766208649, 0.10181555896997452, 0.017676038667559624, -0.38386550545692444, -0.20848192274570465, -0.2422061264514923, 0.05588163807988167, -0.0292966328561306, -0.29740288853645325, 0.28781983256340027, -0.29204893112182617, -0.033595550805330276, -0.24748142063617706], [0.28161829710006714, -0.21844112873077393, 0.11871667951345444, -0.15806637704372406, 0.25502899289131165, 0.21739432215690613, 0.21340125799179077, 0.17110620439052582, 0.06729992479085922, 0.43836188316345215, -0.3735257387161255, 0.0008537900866940618, 0.079170823097229, -0.16078828275203705, 0.08287627249956131, -0.056153006851673126, -0.07466622442007065, 0.3032296597957611, -0.2923283874988556, -0.1705092191696167, -0.09660777449607849, 0.22782590985298157, 0.16194488108158112, -0.007340674288570881, -0.27243342995643616, 0.24547384679317474, -0.05966240167617798, 0.1619492769241333, 0.16515271365642548, -0.13798151910305023, -0.15923583507537842, 0.037853799760341644], [0.030278315767645836, -0.010325864888727665, 0.11986605077981949, 0.18328595161437988, 0.21666023135185242, 0.3049847483634949, 0.15564267337322235, -0.2983056306838989, -0.14696654677391052, 0.3257783055305481, -0.3009510338306427, 0.014559903182089329, -0.13372910022735596, -0.1451583355665207, 0.036036498844623566, -0.047998178750276566, -0.08993957191705704, 0.07926107943058014, -0.11430337280035019, 0.2678503096103668, 0.344910591840744, 0.010870955884456635, 0.11266086250543594, 0.1813320517539978, 0.05715694651007652, -0.01008016336709261, -0.002725758822634816, 0.027912335470318794, 0.14597733318805695, 0.13329924643039703, -0.2415299266576767, 0.13975845277309418], [0.14826245605945587, 0.01253531500697136, 0.028877174481749535, -0.12206950783729553, -0.057572685182094574, 0.09933362901210785, -0.07762602716684341, 0.33662092685699463, 0.017209984362125397, -0.041941557079553604, -0.04093002900481224, 0.0753532275557518, -0.1191236674785614, -0.1913745403289795, 0.25804296135902405, -0.012298180721700191, 0.11063028872013092, -0.07142560184001923, 0.05376783758401871, -0.10792899131774902, 0.07537149637937546, 0.13979531824588776, -0.21605829894542694, 0.2735188603401184, 0.2590582072734833, 0.2918619215488434, 0.02187647670507431, -0.02115320786833763, -0.4130047857761383, -0.13763950765132904, -0.19061721861362457, 0.2857295274734497], [-0.12264891713857651, 0.19820065796375275, 0.17856211960315704, 0.14330211281776428, -0.13673856854438782, -0.20188117027282715, 0.29117462038993835, -0.028302107006311417, 0.09098603576421738, 0.2870871126651764, -0.16701193153858185, 0.3018692433834076, -0.10756876319646835, -0.08177108317613602, 0.30794557929039, 0.10643675923347473, -0.26763486862182617, 0.08473727852106094, -0.2375325858592987, -0.2828006148338318, 0.23249727487564087, -0.4775579273700714, -0.03050345554947853, -0.02974051982164383, -0.13989011943340302, -0.3885263502597809, 0.01671517826616764, -0.3441380560398102, -0.23707425594329834, -0.19436393678188324, 0.08004613220691681, 0.04464542865753174], [0.09770506620407104, -0.03605428710579872, 0.09149698168039322, 0.10784786939620972, 0.37809455394744873, 0.10859382152557373, 0.18716049194335938, 0.41526126861572266, -0.059341512620449066, 0.0197736956179142, -0.1192297637462616, -0.25795087218284607, -0.37167540192604065, -0.16200977563858032, 0.11987058818340302, 0.1167450025677681, 0.1063111200928688, 0.35052379965782166, 0.23111297190189362, 0.15166817605495453, -0.11586107313632965, 0.34353357553482056, -0.0442412793636322, -0.1604335457086563, -0.07096494734287262, -0.1634695827960968, -0.08292969316244125, 0.19690541923046112, 0.33542513847351074, -0.013184478506445885, 0.06692371517419815, -0.2978909909725189], [0.08962457627058029, -0.2731735408306122, -0.1703387200832367, -0.06906493008136749, 0.015740109607577324, 0.03455245494842529, -0.1605222374200821, -0.25643303990364075, -0.1498265117406845, -0.014217074029147625, 0.13819292187690735, -0.20903557538986206, -0.16750115156173706, 0.026738744229078293, -0.1686144322156906, -0.2279892861843109, -0.16496142745018005, 0.2968836724758148, -0.09696090966463089, 0.06889474391937256, -0.06697432696819305, 0.10094838589429855, -0.2681978642940521, -0.24126742780208588, 0.022636542096734047, -0.21448272466659546, 0.16076774895191193, 0.4013582170009613, -0.026022721081972122, -0.12015601992607117, -0.04752200096845627, -0.3861037492752075], [0.10617627948522568, 0.013562620617449284, 0.12014053016901016, -0.11505372077226639, -0.022856280207633972, -0.1074456050992012, -0.12483279407024384, 0.20572836697101593, 0.04787909612059593, -0.07418377697467804, -0.025655578821897507, -0.09787581861019135, -0.060774896293878555, 0.13515767455101013, 0.006234028842300177, 0.17025437951087952, -0.2032196968793869, -0.19254788756370544, 0.08481178432703018, 0.007040767464786768, 0.06338746100664139, 0.14388230443000793, -0.26013827323913574, -0.07451002299785614, 0.2905397415161133, -0.3558388948440552, -0.018737977370619774, 0.005329341161996126, 0.02948072738945484, -0.2002151608467102, 0.251616895198822, 0.09290304034948349], [-0.16790953278541565, -0.2677253186702728, 0.2772252559661865, 0.03117278404533863, -0.18348568677902222, 0.015084032900631428, 0.32845211029052734, 0.19330237805843353, -0.05354377254843712, -0.005104150157421827, -0.09379297494888306, 0.35725706815719604, -0.03221486136317253, -0.0182489100843668, -0.06550464779138565, 0.3469560146331787, 0.22635680437088013, 0.53070068359375, 0.029035372659564018, -0.024778280407190323, 0.17052273452281952, -0.012237912975251675, -0.04766196012496948, -0.056595008820295334, 0.006564210169017315, -0.15207631886005402, 0.03930731117725372, 0.32215753197669983, -0.2085825651884079, 0.26887503266334534, 0.13348940014839172, -0.20939446985721588], [-0.15092697739601135, -0.05359118431806564, 0.229131281375885, -0.1933162808418274, 0.3048841953277588, 0.005027216859161854, 0.10411206632852554, 0.08127614110708237, -0.22968170046806335, -0.15574312210083008, 0.14903739094734192, -0.15579813718795776, -0.004347401671111584, 0.1666511595249176, 0.05092142894864082, 0.03257256746292114, 0.0007316211704164743, 0.13460169732570648, 0.18474367260932922, -0.12710346281528473, -0.3920994997024536, 0.11873673647642136, -0.02457246743142605, 0.3169156610965729, 0.13593389093875885, -0.02958919294178486, 0.12056487798690796, 0.17508958280086517, 0.1938266158103943, -0.018408605828881264, -0.3041260838508606, 0.2955511212348938], [0.06721115112304688, 0.25472933053970337, 0.06749489903450012, 0.047584567219018936, 0.4658548831939697, -0.007595369126647711, 0.2611019015312195, 0.10361013561487198, -0.10192297399044037, 0.16123650968074799, 0.052565645426511765, 0.11538433283567429, -0.25433865189552307, 0.25822487473487854, 0.002669570967555046, 0.08253172785043716, 0.004470068030059338, -0.04787009209394455, -0.07535066455602646, 0.07239710539579391, 0.163620263338089, 0.19177557528018951, 0.08839976787567139, 0.2756832242012024, -0.06813082098960876, -0.07368435710668564, -0.07013798505067825, 0.0068675153888762, -0.21798920631408691, 0.24842865765094757, -0.0692598819732666, -0.2899535894393921], [0.10076838731765747, -0.056814923882484436, 0.12447160482406616, 0.14906206727027893, 0.04320148751139641, -0.3210306763648987, -0.078535296022892, 0.2303067445755005, 0.19716963171958923, 0.04970815032720566, 0.14513184130191803, 0.131262868642807, 0.13954511284828186, -0.20960383117198944, -0.25471922755241394, 0.2971266806125641, -0.19048930704593658, 0.17807799577713013, -0.015326131135225296, -0.055613718926906586, -0.20290927588939667, -0.06260582059621811, -0.019010044634342194, -0.3674479126930237, 0.2161053568124771, 0.32437077164649963, -0.3800201416015625, 0.37328940629959106, 0.10097166895866394, 0.15476979315280914, -0.34458956122398376, -0.13738176226615906], [-0.061042383313179016, 0.2327132374048233, -0.07069864869117737, 0.17791211605072021, 0.13386042416095734, 0.023947322741150856, 0.3489743769168854, -0.1719425767660141, -0.0313202366232872, 0.14366908371448517, 0.026645317673683167, -0.30781784653663635, -0.04118349030613899, -0.23528195917606354, -0.16012269258499146, -0.3078936040401459, -0.03252384066581726, 0.09544071555137634, 0.22262389957904816, 0.07303567975759506, -0.2644304931163788, 0.021457519382238388, 0.09802156686782837, 0.2966819107532501, -0.005765402689576149, 0.22655358910560608, 0.12248935550451279, -0.12447723746299744, -0.09459025412797928, 0.10410784184932709, 0.3066936731338501, 0.007442764472216368], [-0.011565541848540306, 0.25014448165893555, 0.21858365833759308, -0.010603775270283222, -0.11991837620735168, 0.0443437360227108, -0.09837745130062103, 0.113929882645607, 0.08389128744602203, -0.008669206872582436, -0.16349200904369354, -0.1378701627254486, -0.17485176026821136, -0.21184800565242767, -0.1552089899778366, 0.04092906415462494, -0.20400652289390564, 0.1804446429014206, -0.24695850908756256, -0.1289963275194168, 0.08926195651292801, 0.2621763348579407, 0.2249683439731598, 0.007856035605072975, -0.21758341789245605, 0.1310051828622818, 0.20009297132492065, 0.044887296855449677, -0.06315796077251434, -0.22517117857933044, 0.15266995131969452, 0.06734036654233932], [-0.15931478142738342, 0.15837432444095612, 0.23856934905052185, -0.27994248270988464, 0.2233148068189621, 0.11724793910980225, 0.032848943024873734, 0.015432948246598244, -0.296497106552124, -0.07132858783006668, 0.22681237757205963, 0.01589621789753437, 0.21497297286987305, -0.02945166826248169, -0.1704128086566925, 0.008122274652123451, -0.31806910037994385, 0.2535228431224823, -0.33697837591171265, 0.1378151774406433, -0.169306680560112, 0.14855104684829712, -0.08497940003871918, 0.06093306839466095, 0.15031473338603973, -0.1469952017068863, 0.07295147329568863, 0.12264230102300644, 0.025739755481481552, -0.08903944492340088, 0.03370288014411926, 0.06487404555082321], [0.26871174573898315, 0.3012864589691162, -0.06407211720943451, 0.016053739935159683, -0.10420076549053192, -0.2675585448741913, 0.038733724504709244, 0.26497867703437805, 0.2920475900173187, 0.04310954734683037, 0.2096511274576187, 0.2696879208087921, -0.22037863731384277, -0.1418929249048233, -0.0191067922860384, 0.0274919755756855, -0.3685295283794403, -0.01149250753223896, 0.2729739844799042, -0.014847129583358765, -0.025264380499720573, 0.20034301280975342, -0.07676581293344498, 0.2111167162656784, -0.10117553174495697, -0.04076511785387993, -0.20032615959644318, 0.22489194571971893, -0.03309241309762001, -0.12265261262655258, -0.18143753707408905, -0.10613983124494553], [-0.04561949521303177, 0.32736366987228394, 0.13545478880405426, 0.43138253688812256, 0.08046475052833557, -0.04497568681836128, -0.035781484097242355, 0.2331036627292633, -0.10184656083583832, 0.09324514865875244, -0.2527948021888733, -0.16406597197055817, -0.11519424617290497, -0.3249928951263428, -0.01252643670886755, -0.034456994384527206, 0.019996531307697296, -0.14693136513233185, 0.18059125542640686, 0.06216800957918167, 0.1656016856431961, 0.048236627131700516, -0.3274080753326416, -0.02760201133787632, 0.18065963685512543, -0.009080639109015465, -0.3370130658149719, -0.0777028501033783, -0.16955721378326416, 0.09829988330602646, 0.07258757948875427, 0.1934932917356491], [0.186059832572937, -0.13870646059513092, 0.05042952671647072, -0.4689660668373108, 0.34722498059272766, 0.4361431300640106, 0.31370866298675537, 0.10103492438793182, 0.1546328067779541, 0.027379386126995087, 0.0016906694509088993, -0.056155990809202194, 0.05772320553660393, 0.1637275069952011, -0.15898685157299042, 0.20556902885437012, -0.13378211855888367, 0.007898855023086071, 0.1569557785987854, 0.13781791925430298, 0.056766364723443985, 0.021044908091425896, -0.009441323578357697, 0.360927015542984, 0.13298629224300385, -0.0637078657746315, 0.10503971576690674, -0.06893375515937805, -0.24345088005065918, -0.17636246979236603, -0.12854556739330292, -0.10410702973604202]]}, "Dense_1": {"bias": [0.08730816096067429, 0.007197964005172253, 0.0014960502739995718, -0.057652126997709274, -0.003684784984216094, 0.004659268539398909, 0.05000291019678116, -0.013788171112537384, 0.013539447449147701, -0.029164139181375504, 0.008556664921343327, -0.03837871178984642, -0.029820473864674568, -0.024089477956295013, 0.029677551239728928, 0.04520270973443985, -0.06979671865701675, 0.028040647506713867, -0.017485642805695534, 0.07264205813407898, -0.0037054154090583324, 0.019531570374965668, -0.10579655319452286, 0.016707077622413635, -0.040338627994060516, 0.016618655994534492, -0.016433551907539368, 0.009673870168626308, -0.019534850493073463, 0.04412340745329857, 0.051657672971487045, 0.024170545861124992], "kernel": [[0.06421325355768204, 0.4286382496356964, -0.15485534071922302, -0.032749418169260025, 0.7860442399978638, 0.5309145450592041, 0.6044760346412659, -0.6515190601348877, -0.7784059643745422, -0.4102852940559387, -0.17357271909713745, -0.07177862524986267, -0.09658579528331757, 1.0384929180145264, -0.29028910398483276, 0.7490471601486206, 0.8942669034004211, -0.5596401691436768, 0.34310513734817505, 0.9690564274787903, -0.2795340418815613, -0.2478240579366684, 0.45251354575157166, -0.5572150349617004, -0.15973252058029175, -0.4919995665550232, -0.3575804829597473, 0.11049661040306091, 0.5885674953460693, 0.027585800737142563, -0.33493292331695557, 0.17268672585487366], [-0.03353529050946236, 0.1713877171278, -0.5085693597793579, 0.5898950695991516, -0.023120464757084846, -0.39484402537345886, 0.8747527599334717, -0.018812164664268494, 0.6028610467910767, -0.3141725957393646, -0.2688746154308319, -0.6820720434188843, -0.5077648758888245, 0.025801705196499825, -0.021463755518198013, -0.08086289465427399, -0.5687900185585022, -0.7498526573181152, -0.5983067154884338, -0.2590140402317047, 0.19338716566562653, -0.8836255669593811, 0.4217461347579956, 0.47601762413978577, -0.05946424603462219, 0.024308158084750175, -0.5392969846725464, 0.012132442556321621, -0.20166848599910736, -0.2875789999961853, -0.2540609538555145, 0.2776087522506714], [-0.965074360370636, -0.6474191546440125, -0.0253071878105402, 0.908542811870575, -0.9137266278266907, 0.2518400251865387, 0.20655091106891632, -0.09968641400337219, 0.30488377809524536, 0.6744557023048401, -0.5322518348693848, 0.6363518834114075, 0.21074561774730682, -0.08602164685726166, -0.1534433513879776, -0.029923444613814354, -0.9287277460098267, 1.1108494997024536, -0.07602939009666443, -0.2224976271390915, -0.17047351598739624, -0.3498527705669403, 0.9344666004180908, 0.12437932938337326, 0.5488442778587341, 0.3632492423057556, 0.49165987968444824, 0.19460426270961761, 0.0005062880227342248, 0.45600786805152893, 0.2440205216407776, -0.3742535412311554], [-0.7928963899612427, -0.46703818440437317, -0.0802275612950325, -0.09655933082103729, -0.019146544858813286, -0.009102094918489456, 0.16044284403324127, -1.0565340518951416, -0.4964446723461151, 0.043237145990133286, 0.6115009784698486, 0.9123209118843079, 0.4646727740764618, 0.1228247880935669, 0.2531123459339142, -0.5421705842018127, -0.21055768430233002, -0.2722090780735016, 0.028701215982437134, 0.6692057847976685, 0.35587432980537415, -0.3552832305431366, -1.1269500255584717, -0.35296592116355896, 0.23835204541683197, -0.21570242941379547, 0.31594419479370117, 0.3604753017425537, 0.3926142156124115, 0.18163788318634033, 0.395539253950119, -0.1375831663608551]]}}}}, "test_1": {"yhat": [5.383074760437012, 5.502901077270508, 5.230783939361572, 5.12563419342041, 4.8887128829956055, 4.932956695556641, 4.8568196296691895, 4.718116283416748, 4.751641273498535, 4.583711624145508, 4.479111194610596, 4.467008113861084, 4.336004257202148, 4.2688140869140625, 4.184962272644043, 4.08433723449707, 4.042122840881348, 3.9637911319732666, 3.9259326457977295, 3.905339002609253, 3.835944175720215, 3.8516845703125, 3.8393542766571045, 3.8217430114746094, 3.8273918628692627, 3.819626808166504, 3.838150978088379, 3.8313701152801514, 3.8277223110198975, 3.838033437728882, 3.8442320823669434, 3.8312830924987793, 3.834423303604126, 3.8348731994628906, 3.826744318008423, 3.828087329864502, 3.811633348464966, 3.8209681510925293, 3.804696798324585, 3.8035225868225098, 3.803025007247925, 3.7953107357025146, 3.796152353286743, 3.7897443771362305, 3.7979395389556885, 3.7900075912475586, 3.7950692176818848, 3.7920448780059814, 3.798769950866699, 3.794610023498535, 3.794116735458374, 3.7989189624786377, 3.79012131690979, 3.7905149459838867, 3.782986879348755, 3.7810754776000977, 3.764125108718872, 3.752887725830078, 3.7474138736724854, 3.7287278175354004, 3.7121293544769287, 3.69307279586792, 3.6879873275756836, 3.6722424030303955, 3.664078950881958, 3.654547929763794, 3.6506435871124268, 3.6574320793151855, 3.658421516418457, 3.6648976802825928, 3.666297435760498, 3.6869421005249023, 3.6945855617523193, 3.7044832706451416, 3.7150073051452637, 3.731753349304199, 3.7410593032836914, 3.747549057006836, 3.7618701457977295, 3.771807909011841, 3.777909278869629, 3.7850072383880615, 3.7977182865142822, 3.8084051609039307, 3.809415340423584, 3.8215830326080322, 3.8314335346221924, 3.8405439853668213, 3.8401575088500977, 3.852370262145996, 3.8548035621643066, 3.8477253913879395, 3.8514928817749023, 3.8529858589172363, 3.8428027629852295, 3.819167375564575, 3.828707695007324, 3.825129747390747, 3.8146214485168457, 3.7986507415771484, 3.8136258125305176, 3.819411277770996, 3.8192975521087646, 3.819655418395996, 3.8343052864074707, 3.8437397480010986, 3.842864513397217, 3.847717761993408, 3.8553059101104736, 3.8547279834747314, 3.8438589572906494, 3.8415186405181885, 3.844982385635376, 3.8476386070251465, 3.835181713104248, 3.852351188659668, 3.879688024520874, 3.898641586303711, 3.899260997772217, 3.960233688354492, 3.995431661605835, 3.971785306930542, 3.9629063606262207, 4.027693748474121, 4.022255897521973, 3.959212064743042, 3.969538927078247, 4.049332618713379, 4.043216705322266, 4.0307159423828125, 4.125161170959473, 4.257794380187988, 4.3332839012146, 4.46271276473999, 4.6898651123046875, 4.919594764709473, 5.160383701324463, 5.457850933074951, 5.767678260803223, 6.083578586578369, 6.439450740814209, 6.773600101470947, 7.069681644439697, 7.411534309387207, 7.749181270599365, 8.009442329406738, 8.265616416931152, 8.552122116088867, 8.77730941772461, 8.944389343261719, 9.125015258789062, 9.287446975708008, 9.391559600830078, 9.476912498474121, 9.56242847442627, 9.61978816986084, 9.650385856628418, 9.67744255065918, 9.69864273071289, 9.703622817993164, 9.700644493103027, 9.69713020324707, 9.687843322753906, 9.67029857635498, 9.6476411819458, 9.619519233703613, 9.58248519897461, 9.53503131866455, 9.477291107177734, 9.409187316894531, 9.329602241516113, 9.237289428710938, 9.132043838500977, 9.013611793518066, 8.880436897277832, 8.73066234588623, 8.563895225524902, 8.380315780639648, 8.179070472717285, 7.95899772644043, 7.720422267913818, 7.465526103973389, 7.19756555557251, 6.921151638031006, 6.643327713012695, 6.372164726257324, 6.113532066345215, 5.870866775512695, 5.646358966827393, 5.440317153930664, 5.251331329345703, 5.077664852142334, 4.917581558227539, 4.769044876098633, 4.630120277404785, 4.499506950378418, 4.376372337341309, 4.260075092315674, 4.1504435539245605, 4.0479865074157715, 3.9534878730773926, 3.867767095565796, 3.7920258045196533, 3.7277379035949707, 3.675896644592285, 3.6368248462677, 3.610483407974243, 3.5962202548980713, 3.5924599170684814, 3.5971364974975586, 3.6082918643951416, 3.624018430709839, 3.6423275470733643, 3.6615521907806396, 3.680541753768921, 3.6983578205108643, 3.714164972305298, 3.727433204650879, 3.737870216369629, 3.745325803756714, 3.7499656677246094, 3.752345561981201, 3.7532269954681396, 3.7535400390625, 3.754399538040161, 3.756784439086914, 3.7613260746002197, 3.768411874771118, 3.7781851291656494, 3.79046630859375, 3.804795980453491, 3.8204801082611084, 3.836775779724121, 3.853041648864746, 3.868389129638672, 3.8815910816192627, 3.8914620876312256, 3.8969228267669678, 3.897026300430298, 3.8913991451263428, 3.8803884983062744, 3.8648581504821777, 3.846299886703491, 3.82669734954834, 3.8077218532562256, 3.7903568744659424, 3.7752528190612793, 3.762568950653076, 3.7515065670013428, 3.7407944202423096, 3.7293834686279297, 3.716228723526001, 3.7000679969787598, 3.6800105571746826, 3.6558518409729004, 3.627563238143921, 3.5951664447784424, 3.559241533279419, 3.520768880844116, 3.4806132316589355, 3.439729690551758, 3.3993778228759766, 3.360783100128174, 3.324941873550415, 3.2927439212799072, 3.2648751735687256, 3.241619825363159, 3.22299861907959, 3.2089054584503174, 3.1989662647247314, 3.1925947666168213, 3.189281463623047, 3.1886098384857178, 3.190068244934082, 3.193150281906128, 3.1975924968719482, 3.2032599449157715, 3.2099366188049316, 3.217463731765747, 3.2258784770965576, 3.2352187633514404, 3.2453858852386475, 3.2563047409057617, 3.2679603099823, 3.2802374362945557, 3.2929186820983887, 3.305816650390625, 3.318743944168091, 3.3314437866210938, 3.343679428100586, 3.355280637741089, 3.366081953048706, 3.3759777545928955, 3.385039806365967, 3.3934388160705566, 3.4013607501983643, 3.4091176986694336, 3.417165994644165, 3.4258575439453125, 3.435368537902832, 3.445878505706787, 3.4575483798980713, 3.470301628112793, 3.4838929176330566, 3.498133420944214, 3.512861490249634, 3.5277626514434814, 3.542447328567505, 3.556657075881958, 3.570202112197876, 3.5827507972717285, 3.594008445739746, 3.6040005683898926, 3.6128697395324707, 3.6206741333007812, 3.6277849674224854, 3.6350409984588623, 3.6432058811187744, 3.6527791023254395, 3.664463758468628, 3.6790578365325928, 3.6967599391937256, 3.7172298431396484, 3.740236759185791, 3.7655391693115234, 3.792344331741333, 3.8196613788604736, 3.847015142440796, 3.8741726875305176, 3.900513172149658, 3.9255471229553223, 3.949620485305786, 3.9732303619384766, 3.9963488578796387, 4.019319534301758, 4.043383598327637, 4.069514751434326, 4.097987174987793, 4.129530429840088, 4.165372371673584, 4.205984115600586, 4.2511186599731445, 4.300840854644775, 4.355358123779297, 4.414201259613037, 4.476461410522461, 4.541553497314453, 4.6091628074646, 4.678618907928467, 4.7490081787109375, 4.819904804229736, 4.891203880310059, 4.962392807006836, 5.032912731170654, 5.102798938751221, 5.17207145690918, 5.240232467651367, 5.307035446166992, 5.372670650482178, 5.436922550201416, 5.4992876052856445, 5.559767723083496, 5.61856746673584, 5.675464153289795, 5.7302703857421875, 5.7833170890808105, 5.834920406341553, 5.885004997253418, 5.933634281158447, 5.981322765350342, 6.028423309326172, 6.074892520904541, 6.120983123779297, 6.167305946350098, 6.214025974273682, 6.260941982269287, 6.308229446411133, 6.356093406677246, 6.404163837432861, 6.452032566070557, 6.499725818634033, 6.547204971313477, 6.594196796417236, 6.640686988830566, 6.686958312988281, 6.733185291290283, 6.7794389724731445, 6.825933933258057, 6.873002052307129, 6.920864582061768, 6.969627857208252, 7.019451141357422, 7.07045316696167, 7.12248420715332, 7.1752166748046875, 7.228280544281006, 7.281212329864502, 7.333574295043945, 7.385183811187744, 7.436110496520996, 7.48667049407959, 7.537497043609619, 7.589194297790527, 7.6419572830200195, 7.695598602294922, 7.749505519866943, 7.802398681640625, 7.852528095245361, 7.8981499671936035, 7.937610149383545, 7.969234466552734, 7.991495132446289, 8.003315925598145, 8.004083633422852, 7.993406772613525, 7.971182823181152, 7.937931060791016, 7.894719123840332, 7.842738628387451, 7.783320426940918, 7.718253135681152, 7.649478912353516, 7.578564167022705, 7.506844520568848, 7.435710906982422, 7.36624813079834, 7.298973083496094, 7.234228610992432, 7.1724534034729, 7.113829612731934, 7.0581865310668945, 7.005444049835205, 6.955664157867432, 6.90860652923584, 6.863803863525391, 6.821010112762451, 6.780029296875, 6.740328788757324, 6.701332092285156, 6.662791728973389, 6.624472618103027, 6.585928916931152, 6.5469255447387695, 6.50764799118042, 6.468292236328125, 6.428950309753418, 6.389989852905273, 6.352048397064209, 6.31553316116333, 6.280588626861572, 6.247468948364258, 6.216395854949951, 6.187108516693115, 6.159024238586426, 6.131648063659668, 6.1043171882629395, 6.075840473175049, 6.044838905334473, 6.010107517242432, 5.970315933227539, 5.923883438110352, 5.869470596313477, 5.806283473968506, 5.733893871307373, 5.6521759033203125, 5.561619758605957, 5.463437080383301, 5.359151840209961, 5.250302314758301, 5.138565540313721, 5.025683879852295, 4.91304874420166, 4.801629066467285, 4.692190647125244, 4.585296154022217, 4.481197834014893, 4.379885673522949, 4.281235694885254, 4.185156345367432, 4.0915679931640625, 4.00030517578125, 3.9112548828125, 3.8245770931243896, 3.740548610687256, 3.6594440937042236, 3.5817883014678955, 3.5085208415985107, 3.4408652782440186, 3.380249261856079, 3.328268051147461, 3.286403179168701, 3.2556557655334473, 3.236415386199951, 3.2284140586853027, 3.230717182159424, 3.241912841796875, 3.2604153156280518, 3.2845311164855957, 3.3124544620513916, 3.3424532413482666, 3.373018264770508, 3.402817726135254, 3.4307119846343994, 3.4558403491973877, 3.4776060581207275, 3.4956774711608887, 3.5101332664489746, 3.5214738845825195, 3.530552864074707, 3.5387332439422607, 3.5479559898376465, 3.560380458831787, 3.578145980834961, 3.6033859252929688, 3.6379098892211914, 3.6827070713043213, 3.737934112548828, 3.8031609058380127, 3.8773980140686035, 3.959172010421753, 4.046895980834961, 4.139178276062012, 4.234852313995361, 4.332955360412598, 4.4328083992004395, 4.53403377532959, 4.63636589050293, 4.739490032196045, 4.843057632446289, 4.9466681480407715, 5.049759387969971, 5.151648998260498, 5.251704216003418, 5.3493852615356445, 5.4442267417907715, 5.53588342666626, 5.624139785766602, 5.70884370803833, 5.789905548095703, 5.867277145385742, 5.940936088562012, 6.010854244232178, 6.076988220214844, 6.139207363128662, 6.197307109832764, 6.251090049743652, 6.300413608551025, 6.345218658447266, 6.385587215423584, 6.421761512756348, 6.454126358032227, 6.483179092407227, 6.509471416473389, 6.533543109893799, 6.555880069732666, 6.576877593994141, 6.596770763397217, 6.615636348724365, 6.6334309577941895, 6.649984359741211, 6.664994716644287, 6.678088188171387, 6.688880443572998, 6.696975231170654, 6.7019829750061035, 6.703605651855469, 6.701673984527588, 6.69612979888916, 6.6870293617248535, 6.674600601196289, 6.659233570098877, 6.641399383544922, 6.621652603149414, 6.6006364822387695, 6.579007625579834, 6.557346820831299, 6.536165237426758, 6.515902519226074, 6.496842861175537, 6.479094982147217, 6.462667465209961, 6.447476387023926, 6.4332685470581055, 6.419655799865723, 6.4061994552612305, 6.392355918884277, 6.377439975738525, 6.360726833343506, 6.341571807861328, 6.319419860839844, 6.293862342834473, 6.264811992645264, 6.2325897216796875, 6.19785737991333, 6.161568641662598, 6.12493896484375, 6.089302062988281, 6.055864334106445, 6.025572776794434, 5.9990997314453125, 5.9767842292785645, 5.9585700035095215, 5.944108486175537, 5.932911396026611, 5.924370765686035, 5.917755126953125, 5.912352085113525, 5.90757417678833, 5.902922630310059, 5.898006916046143, 5.892670154571533, 5.887012958526611, 5.881283760070801, 5.875862121582031, 5.871234893798828, 5.8679022789001465, 5.866254806518555, 5.866541862487793, 5.868898391723633, 5.873294830322266, 5.879532814025879, 5.887291431427002, 5.896158218383789, 5.905618667602539, 5.915141582489014, 5.924265384674072, 5.932620048522949, 5.940002918243408, 5.946516990661621, 5.952487945556641, 5.9582977294921875, 5.964447975158691, 5.9715471267700195, 5.98002815246582, 5.990135669708252, 6.002128601074219, 6.016186237335205, 6.032250881195068, 6.050233840942383, 6.07017183303833, 6.092085838317871, 6.115909576416016, 6.141572952270508, 6.169030666351318, 6.198202610015869, 6.22899055480957, 6.261415481567383, 6.295666217803955, 6.331902503967285, 6.370134353637695, 6.410285949707031, 6.452131271362305, 6.495144367218018, 6.538692951202393, 6.582298278808594, 6.62558650970459, 6.668292999267578, 6.710345268249512, 6.751646041870117, 6.791853427886963, 6.83044958114624, 6.866787433624268, 6.899989128112793, 6.929039478302002, 6.952849388122559, 6.970083713531494, 6.979118824005127, 6.978384017944336, 6.96664571762085, 6.942967414855957, 6.906565189361572, 6.856672286987305, 6.792198657989502, 6.711262226104736, 6.611012935638428, 6.488289833068848, 6.341047763824463, 6.169654369354248, 5.977250099182129, 5.769586563110352, 5.5542426109313965, 5.3389668464660645, 5.130491256713867, 4.934493541717529, 4.755539417266846, 4.596923828125, 4.460824012756348, 4.3482666015625, 4.258975028991699, 4.191568851470947, 4.144033432006836, 4.114013671875, 4.098889350891113, 4.0959153175354, 4.102341651916504, 4.1152849197387695, 4.131589412689209, 4.147961616516113, 4.161211013793945, 4.168630599975586, 4.168826103210449, 4.162811279296875, 4.1554341316223145, 4.157370090484619, 4.186603546142578, 4.267179012298584, 4.424271106719971, 4.6768598556518555, 5.031561851501465, 5.481164455413818, 6.0071516036987305, 6.58262825012207, 7.174851417541504, 7.748937606811523, 8.272995948791504, 8.723814964294434, 9.090859413146973, 9.375927925109863, 9.58919620513916, 9.744660377502441, 9.85649585723877, 9.93680191040039, 9.994754791259766, 10.036733627319336, 10.066755294799805, 10.08710765838623, 10.099074363708496, 10.10360050201416, 10.10176944732666, 10.095013618469238, 10.08495807647705, 10.07302188873291, 10.060011863708496, 10.04593563079834, 10.030081748962402, 10.011274337768555, 9.988235473632812, 9.959951400756836, 9.926005363464355, 9.886724472045898, 9.84312915802002, 9.796677589416504, 9.748924255371094, 9.701212882995605, 9.654521942138672, 9.609413146972656, 9.56605052947998, 9.524195671081543, 9.483198165893555, 9.44199275970459, 9.39919376373291, 9.353299140930176, 9.303025245666504, 9.247669219970703, 9.187417984008789, 9.123486518859863, 9.05798625946045, 8.99354076385498, 8.9327392578125, 8.877605438232422, 8.829258918762207, 8.787854194641113, 8.752778053283691, 8.723038673400879, 8.697734832763672, 8.676384925842285, 8.659035682678223, 8.646076202392578, 8.637869834899902, 8.634407997131348, 8.635124206542969, 8.638960838317871, 8.644603729248047, 8.65080451965332, 8.656617164611816, 8.661505699157715, 8.665288925170898, 8.668022155761719, 8.669859886169434, 8.670985221862793, 8.671612739562988, 8.672037124633789, 8.672592163085938, 8.673561096191406, 8.67494010925293, 8.676170349121094, 8.675973892211914, 8.672403335571289, 8.663100242614746, 8.64567756652832, 8.618022918701172, 8.57848072052002, 8.525903701782227, 8.459646224975586, 8.379565238952637, 8.286046028137207, 8.180008888244629, 8.062920570373535, 7.936713218688965, 7.8036394119262695, 7.666039943695068, 7.526066780090332, 7.385441303253174, 7.2453083992004395, 7.106247425079346, 6.968434810638428, 6.83189058303833, 6.6967549324035645, 6.563477516174316, 6.432892799377441, 6.306201934814453, 6.1848602294921875, 6.070441722869873, 5.96450138092041, 5.868446350097656, 5.783426761627197, 5.710244655609131, 5.649275302886963, 5.6004133224487305, 5.563044548034668, 5.536044597625732, 5.517820358276367, 5.506398677825928, 5.499581336975098, 5.49514627456665, 5.491087436676025, 5.485839366912842, 5.478464126586914, 5.468719959259033, 5.457021713256836, 5.444296836853027, 5.4317708015441895, 5.420752048492432, 5.412473201751709, 5.408000469207764, 5.408222675323486, 5.413895130157471, 5.425689697265625, 5.444220542907715, 5.470024108886719, 5.5034637451171875, 5.544608116149902, 5.5930986404418945, 5.648088455200195, 5.708288192749023, 5.772162914276123, 5.8382248878479, 5.905345439910889, 5.972945690155029, 6.040955066680908, 6.109555244445801, 6.178838729858398, 6.248576641082764, 6.318210124969482, 6.387019634246826, 6.454325199127197, 6.51959753036499, 6.582510948181152, 6.642950057983398, 6.70100212097168, 6.756896495819092, 6.810873985290527, 6.863046169281006, 6.913296222686768, 6.96124267578125, 7.00632381439209, 7.04793643951416, 7.085629463195801, 7.1192779541015625, 7.149159908294678, 7.175896167755127, 7.200276851654053, 7.223040580749512, 7.24470329284668, 7.265494346618652, 7.285407066345215, 7.304308891296387, 7.322068691253662, 7.3386383056640625, 7.354074001312256, 7.368515968322754, 7.382144451141357, 7.395155906677246, 7.407764911651611, 7.4202446937561035, 7.432944297790527, 7.446254730224609, 7.460514545440674, 7.475847244262695, 7.492007732391357, 7.508328914642334, 7.523741245269775, 7.536880016326904, 7.5461812019348145, 7.549964427947998, 7.546529293060303, 7.534346103668213, 7.512269496917725, 7.479764461517334, 7.437036037445068, 7.385017395019531, 7.325228214263916, 7.259503364562988, 7.189671993255615, 7.117228984832764, 7.043087005615234, 6.9674391746521, 6.88975715637207, 6.808908462524414, 6.723388195037842, 6.631608486175537, 6.532223701477051, 6.424422264099121, 6.308161735534668, 6.1842803955078125, 6.05448579788208, 5.921212196350098, 5.787393569946289, 5.656191825866699, 5.530731201171875, 5.4138593673706055, 5.307958602905273, 5.2147908210754395, 5.1353936195373535, 5.0700273513793945, 5.01820182800293, 4.978765487670898, 4.9500813484191895, 4.930244445800781, 4.917318344116211, 4.9095258712768555, 4.905375003814697, 4.903690814971924, 4.9035444259643555, 4.904114246368408, 4.904531002044678, 4.903770923614502, 4.900608062744141, 4.893653392791748, 4.881436347961426, 4.862522125244141, 4.835648536682129, 4.799872875213623, 4.7547197341918945, 4.700301170349121, 4.637367248535156, 4.567278861999512, 4.491873741149902, 4.413231372833252, 4.333401203155518, 4.254119873046875, 4.176604747772217, 4.101447105407715, 4.028602600097656, 3.957455635070801, 3.886955976486206, 3.8158135414123535, 3.7427473068237305, 3.6667566299438477, 3.587364435195923, 3.504779815673828, 3.41992449760437, 3.3343088626861572, 3.2498137950897217, 3.1684184074401855, 3.091968297958374, 3.0220086574554443, 2.9597177505493164, 2.9058940410614014, 2.860992193222046, 2.8251583576202393, 2.798280954360962, 2.7800381183624268, 2.7699506282806396, 2.7674343585968018, 2.7718429565429688, 2.7825069427490234, 2.798764944076538, 2.819981813430786, 2.8455700874328613, 2.8749918937683105, 2.9077377319335938, 2.943297863006592, 2.9811182022094727, 3.0205636024475098, 3.0609095096588135, 3.1013476848602295, 3.1410300731658936, 3.179124355316162, 3.2148892879486084, 3.247763156890869, 3.2774364948272705, 3.303936719894409, 3.327688694000244, 3.349547863006592, 3.3707997798919678, 3.3930957317352295, 3.41831374168396, 3.4483449459075928, 3.4848058223724365, 3.5287163257598877, 3.580207347869873, 3.6383330821990967, 3.701075792312622, 3.765583038330078, 3.8286116123199463, 3.8870527744293213, 3.9383838176727295, 3.980898380279541, 4.0136847496032715, 4.036430835723877, 4.049180030822754, 4.052167892456055, 4.045815467834473, 4.030843734741211, 4.008416175842285, 3.980191946029663, 3.9481749534606934, 3.9143683910369873, 3.8803226947784424, 3.8467636108398438], "rmse": 0.5430623395738863}}