{"model": "LSTM", "benchmark": "EMPS", "meta": {"LR": 0.001, "n_re": 10, "n_hs": [2, 4, 8, 16, 32], "n_look": [2, 4, 8, 16, 32], "n_opt": 10000, "batch_len": 2000}, "nh_xval": 32, "look_xval": 8, "theta": {"params": {"Dense_0": {"bias": [0.08955147862434387], "kernel": [[-0.0647798404097557], [-0.04170028492808342], [0.0900324285030365], [-0.19775110483169556], [0.25140631198883057], [-0.18338561058044434], [-0.3451702296733856], [-0.26307442784309387], [0.307638019323349], [0.15462301671504974], [-0.12835709750652313], [-0.2831135392189026], [-0.3857956528663635], [0.1820896863937378], [-0.029478270560503006], [-0.030530758202075958], [0.23128581047058105], [0.2518799304962158], [0.3590269684791565], [-0.11531728506088257], [0.1928243786096573], [-0.04375572130084038], [-0.16638116538524628], [-0.137382373213768], [-0.010582489892840385], [0.07286079972982407], [-0.11250608414411545], [0.6592324376106262], [-0.36749184131622314], [-0.22662797570228577], [0.3940074145793915], [0.06446418911218643]]}, "LSTMCell_0": {"hf": {"bias": [0.17615768313407898, 0.006554773077368736, 0.0473204106092453, -0.030329620465636253, 0.05343098193407059, 0.13146473467350006, 0.21767209470272064, 0.028091086074709892, 0.2381206750869751, -0.08595291525125504, 0.2006748914718628, 0.06990522891283035, 0.031218383461236954, 0.054384686052799225, 0.1540564000606537, 0.1317097693681717, 0.08133836090564728, -0.021246980875730515, 0.03416528180241585, 0.038530804216861725, 0.19158729910850525, 0.22914917767047882, 0.12427716702222824, 0.16062046587467194, 0.08059544861316681, 0.055919673293828964, 0.07501396536827087, 0.2593875229358673, 0.012164629064500332, 0.03849475085735321, 0.10677652806043625, 0.23846006393432617], "kernel": [[0.060635294765233994, 0.040393006056547165, 0.28017744421958923, 0.0560070164501667, -0.06416406482458115, 0.07288693636655807, -0.19914133846759796, -0.18624810874462128, -0.602628231048584, -0.15108977258205414, 0.19384858012199402, -0.15820688009262085, -0.33549201488494873, 0.16266728937625885, 0.15748754143714905, 0.11877946555614471, -0.4415407180786133, -0.20380674302577972, -0.38232824206352234, 0.24177996814250946, -0.5174551010131836, -0.2729856073856354, -0.10411430150270462, -0.3095972537994385, 0.22717517614364624, 0.06998196989297867, 0.010694732889533043, 0.20813539624214172, -0.0002840832166839391, -0.0682097002863884, -0.0821966603398323, 0.06462133675813675], [0.040855079889297485, 0.4149671792984009, 0.1123386099934578, 0.8250182867050171, 0.47827568650245667, 0.207196444272995, 0.16591042280197144, 0.2797091603279114, -0.662649929523468, -0.42009779810905457, -0.06086675077676773, 0.4131931662559509, -0.11875717341899872, -0.025211989879608154, 0.5361414551734924, 0.10159938782453537, -0.07320743799209595, -0.08837520331144333, -0.2108236402273178, -0.1888887584209442, -0.36589083075523376, 0.02596728689968586, -0.39390718936920166, 0.11439116299152374, -0.19960826635360718, -0.1790774017572403, 0.24185243248939514, 0.22705580294132233, 0.45718908309936523, -0.057451218366622925, 0.2299666553735733, -0.2029888778924942], [0.002558015286922455, 0.048954226076602936, 0.020743319764733315, 0.23568269610404968, 0.4609357416629791, 0.32593172788619995, 0.32837778329849243, 0.16379791498184204, 0.22687672078609467, 0.08026368170976639, 0.07302238792181015, -0.28854987025260925, -0.012093281373381615, -0.07945436239242554, 0.5036881566047668, 0.2688305079936981, -0.08687353879213333, 0.10498643666505814, 0.053246986120939255, 0.2339649200439453, 0.09504608064889908, 0.08608818799257278, -0.07679961621761322, 0.07026959210634232, -0.03255737945437431, -0.14926669001579285, -0.13153676688671112, 0.17180700600147247, 0.047562673687934875, 0.3726658821105957, 0.1324969232082367, 0.05830879136919975], [-0.4859916865825653, 0.16638986766338348, -0.3871731162071228, -0.24490563571453094, -0.3952881097793579, -0.11365052312612534, 0.03729388490319252, 0.25706109404563904, -0.1503828763961792, 0.03753451257944107, -0.5445833802223206, -0.05233575403690338, -0.15191595256328583, -0.5504395961761475, -0.1740346997976303, -0.13283434510231018, -0.08685199916362762, -0.18863049149513245, -0.3812878131866455, -0.2756442725658417, 0.03794952481985092, -0.5055315494537354, 0.13309773802757263, -0.07048667222261429, 0.12674057483673096, -0.05276719108223915, -0.21796593070030212, -0.04267841577529907, 0.01516666915267706, 0.04036519303917885, -0.023030271753668785, -0.22589370608329773], [-0.25590044260025024, 0.22397860884666443, 0.07277306914329529, -0.17885427176952362, -0.3469310700893402, 0.15604257583618164, 0.11668248474597931, 0.11324722319841385, 0.643161952495575, -0.051110461354255676, -0.15504354238510132, 0.060010235756635666, -0.3403211832046509, 0.15929202735424042, -0.2404288947582245, -0.29570141434669495, 0.01938086561858654, 0.6792169213294983, 0.39739009737968445, 0.3402552902698517, 0.5465421676635742, -0.22430944442749023, 0.2003360092639923, -0.3600769340991974, 0.0005967665347270668, 0.26226478815078735, 0.10137935727834702, -0.5041165351867676, 0.19632714986801147, 0.04867761954665184, -0.027907269075512886, -0.09561730921268463], [-0.015930095687508583, -0.08033092319965363, 0.23878265917301178, -0.2611522972583771, 0.11867799609899521, -0.03256326541304588, -0.005668578203767538, -0.05741782858967781, -0.2894706428050995, 0.21427467465400696, 0.020925819873809814, -0.26834234595298767, 0.29226386547088623, 0.570443868637085, 0.16700126230716705, -0.18045052886009216, -0.3949356973171234, 0.30567070841789246, -0.2782972455024719, -0.12186916172504425, -0.3454337418079376, -0.08483438193798065, 0.2183530032634735, 0.07913066446781158, -0.22461114823818207, 0.019328508526086807, 0.34749746322631836, -0.3030875027179718, 0.05565667524933815, 0.0236134584993124, 0.0825067088007927, 0.03399980440735817], [-0.07140897959470749, -0.21890898048877716, -0.11514467000961304, 0.38151979446411133, -0.20449605584144592, -0.4839814007282257, 0.06876970082521439, 0.38756996393203735, -0.3314586579799652, -0.13487493991851807, -0.18085870146751404, -0.08915452659130096, 0.030065715312957764, 0.046076662838459015, -0.11239399015903473, -0.4792180359363556, -0.11543519794940948, 0.27364110946655273, -0.10647056996822357, 0.03649195656180382, -0.37521371245384216, -0.31798818707466125, 0.13341134786605835, -0.06326235830783844, -0.022365225479006767, -0.018448060378432274, 0.005039256997406483, -0.15348245203495026, -0.06136603653430939, 0.20941704511642456, -0.3387397825717926, -0.4468054473400116], [-0.09991008043289185, -0.042821500450372696, -0.25303328037261963, -0.2715241014957428, 0.1809002161026001, -0.30467331409454346, 0.03229912742972374, -0.009091504849493504, 0.14698515832424164, -0.058019302785396576, -0.15571269392967224, 0.25692448019981384, 0.12886691093444824, -0.28639981150627136, 0.0755089670419693, -0.04984019324183464, -0.25007906556129456, -0.06322487443685532, 0.4930725693702698, 0.3111664354801178, 0.575916588306427, 0.06972978264093399, 0.12786193192005157, -0.23121578991413116, -0.14781256020069122, -0.32014161348342896, 0.24323275685310364, -0.2504575252532959, -0.06455980241298676, -0.22183051705360413, -0.2563413083553314, -0.2450741082429886], [-0.017269743606448174, -0.03490610420703888, -0.10058943927288055, 0.14133764803409576, 0.17429843544960022, -0.0030734615866094828, 0.39947566390037537, 0.44962990283966064, 0.6322250366210938, 0.07077372074127197, -0.2596154510974884, -0.11733139306306839, 0.32452070713043213, 0.3662666976451874, -0.22590862214565277, 0.208273783326149, -0.013689483515918255, 0.1543877273797989, 0.06002987176179886, 0.6401333808898926, 0.7530321478843689, 0.09539185464382172, -0.18730750679969788, 0.23814734816551208, -0.234340637922287, 0.2696790099143982, 0.14233742654323578, -0.22863641381263733, -0.038787227123975754, -0.07761204242706299, -0.1248152032494545, -0.009728480130434036], [0.18395909667015076, -0.05787501856684685, 0.04909055680036545, -0.04643074795603752, 0.11142393201589584, -0.291748046875, -0.07184744626283646, -0.07289256155490875, -0.0014681218890473247, 0.37846100330352783, -0.0989365354180336, 0.09901922941207886, -0.02006659470498562, -0.34689804911613464, -0.2625545859336853, 0.08101969212293625, -0.23936443030834198, -0.011297301389276981, -0.0490339919924736, -0.17346559464931488, 0.5167762637138367, -0.2164044827222824, -0.16007894277572632, 0.05514424294233322, -0.0548986978828907, 0.010079875588417053, 0.0005395024782046676, -0.1478073000907898, 0.26127466559410095, 0.19813527166843414, -0.4072476923465729, -0.28515297174453735], [0.3616164028644562, -0.3412856161594391, 0.5906446576118469, 0.1670166701078415, -0.1161506325006485, 0.16144074499607086, 0.27779993414878845, -0.14163856208324432, 0.05394388735294342, -0.055895645171403885, 0.10086342692375183, -0.18080967664718628, -0.13129658997058868, -0.14672142267227173, 0.32562845945358276, 0.0943860337138176, -0.05137833580374718, 0.09933621436357498, 0.07925301045179367, -0.055205997079610825, 0.310876727104187, 0.09393005073070526, 0.12458302080631256, 0.3461984694004059, 0.020285556092858315, 0.25938498973846436, 0.05462796241044998, 0.4790678322315216, -0.07005143910646439, -0.3687293231487274, 0.48011311888694763, 0.37927353382110596], [0.4601317346096039, 0.19893576204776764, 0.1583162546157837, -0.10090269893407822, -0.05383855476975441, 0.18912073969841003, 0.11320081353187561, 0.22726412117481232, 0.33765241503715515, -0.0002409731678199023, 0.34791505336761475, -0.1753479689359665, 0.31619876623153687, -0.11807538568973541, 0.5105533599853516, 0.15424880385398865, 0.07821940630674362, 0.14566749334335327, -0.3381190299987793, 0.23261842131614685, 0.02078459970653057, 0.3180326521396637, -0.06449446827173233, -0.08943349123001099, 0.4314781427383423, 0.15729767084121704, 0.3401488661766052, 0.4037613868713379, 0.37355467677116394, -0.06718567758798599, 0.4239824712276459, 0.23157498240470886], [-0.09763618558645248, -0.29836371541023254, -0.2831750214099884, -0.20012642443180084, -0.3352350890636444, 0.017022380605340004, -0.21024897694587708, -0.07912242412567139, -1.036641001701355, 0.032194286584854126, -0.3180769681930542, -0.20491845905780792, 0.04716821387410164, -0.24557629227638245, 0.09406819939613342, -0.12576723098754883, -0.04503010958433151, 0.1426449716091156, 0.07331761717796326, -0.1546478122472763, -0.6211381554603577, -0.47893592715263367, 0.058014389127492905, -0.006106117740273476, -0.01976289413869381, -0.21001297235488892, 0.11039560288190842, -0.2720626890659332, 0.10924454033374786, -0.29201531410217285, -0.44399958848953247, -0.22976575791835785], [0.04769758880138397, 0.01796521432697773, 0.08589399605989456, 0.25640183687210083, 0.048261720687150955, -0.00389397912658751, 0.3531513214111328, -0.05929224193096161, 0.3994666039943695, 0.031726621091365814, 0.3910427987575531, 0.34994959831237793, -0.1390306055545807, 0.11088429391384125, 0.3378913402557373, 0.2737179696559906, 0.07299525290727615, 0.06676068156957626, -0.3379126787185669, 0.16591867804527283, 0.3682723641395569, 0.23799215257167816, 0.06851398199796677, 0.4161507785320282, 0.04228327423334122, -0.011351368390023708, 0.4893990755081177, -0.1392926573753357, -0.3459774851799011, 0.06523910164833069, 0.212016299366951, 0.4989270269870758], [0.19345973432064056, -0.23988650739192963, 0.1354721188545227, 0.06910468637943268, 0.18170686066150665, -0.3255045711994171, 0.1775819957256317, 0.06955233961343765, 0.13933990895748138, -0.2592832148075104, 0.287059485912323, -0.25990810990333557, -0.03457392007112503, 0.1066945269703865, -0.0004953595343977213, 0.06428158283233643, 0.0076103489845991135, 0.08103902637958527, -0.06793499737977982, -0.1550305038690567, -0.29695233702659607, -0.10757657885551453, -0.1034727543592453, 0.10118208080530167, 0.36967915296554565, 0.3497600257396698, 0.17823240160942078, -0.707112193107605, 0.03995471075177193, 0.05854453146457672, -0.05058759078383446, -0.14456361532211304], [0.15496376156806946, 0.14143237471580505, -0.06674601882696152, 0.18927569687366486, 0.10539044439792633, -0.07082279026508331, 0.41297459602355957, 0.25601905584335327, -0.2724650800228119, 0.5743114948272705, 0.1700211614370346, -0.17492932081222534, -0.22053618729114532, 0.190513014793396, -0.23481301963329315, -0.06944195181131363, 0.05691639706492424, 0.059940218925476074, 0.023151522502303123, -0.26645830273628235, -0.5645588040351868, -0.3506626784801483, -0.18554648756980896, -0.10572072118520737, 0.024239685386419296, 0.09396721422672272, 0.4450936019420624, -0.21095699071884155, -0.17672745883464813, -0.18414103984832764, 0.1695500910282135, -0.18086421489715576], [-0.0030703574884682894, 0.008425413630902767, -0.10479821264743805, -0.015987642109394073, -0.1251436024904251, -0.6580004692077637, 0.23759999871253967, 0.1319948434829712, -0.5098798871040344, 0.16650696098804474, -0.4247573912143707, 0.10845031589269638, 0.04718085005879402, 0.1133693978190422, 0.11100100725889206, -0.39359021186828613, 0.14230403304100037, -0.07131627947092056, 0.15650717914104462, -0.1969555765390396, -0.1387455016374588, -0.29352614283561707, -0.1997799277305603, -0.3411170244216919, -0.1117960512638092, -0.1563352793455124, -0.46428871154785156, -0.6138362884521484, -0.052388567477464676, -0.35836148262023926, -0.2760651707649231, -0.16857069730758667], [0.012093043886125088, 0.04241200536489487, 0.12458690255880356, 0.26981961727142334, -0.1238245964050293, 0.221910759806633, 0.024921773001551628, -0.1463976800441742, 0.3047274053096771, 0.11240842193365097, -0.045364126563072205, -0.2137351930141449, 0.23164597153663635, 0.45493388175964355, 0.3442830443382263, 0.3221927881240845, 0.1390787810087204, -0.1529475748538971, -0.37899115681648254, -0.18759404122829437, -0.4297269880771637, 0.2527805268764496, 0.3618496358394623, -0.26050153374671936, 0.35562095046043396, 0.6191158294677734, 0.26006439328193665, -0.128510981798172, 0.02105778269469738, -0.026582257822155952, 0.1647031605243683, -0.07622247189283371], [0.11803193390369415, -0.08113323152065277, 0.07993407547473907, 0.2237001359462738, 0.21018527448177338, 0.0014239553129300475, 0.16575446724891663, 0.02300640568137169, 0.6044255495071411, -0.11757581681013107, 0.1681719273328781, 0.17423130571842194, 0.13389624655246735, -0.09704321622848511, -0.0338076651096344, -0.2518542408943176, 0.4396961033344269, -0.23571819067001343, -0.12707345187664032, 0.14302831888198853, 0.4048301577568054, -0.02640753611922264, 0.21327508985996246, -0.13506194949150085, -0.23229895532131195, -0.07049863040447235, 0.29135534167289734, 0.09173823893070221, 0.10340669751167297, 0.01821422390639782, -0.12472508102655411, 0.6099087595939636], [0.014780130237340927, -0.061629656702280045, -0.3127606213092804, 0.005289609078317881, -0.11170639097690582, -0.13975949585437775, -0.31054040789604187, 0.007530622649937868, -0.2709515392780304, 0.09184634685516357, -0.5234490633010864, -0.13458755612373352, -0.39289045333862305, -0.19288630783557892, -0.311383992433548, -0.1961035579442978, -0.03991933539509773, 0.10155019164085388, -0.5040090084075928, -0.05109814181923866, -0.3421972393989563, 0.0342099703848362, -0.013612188398838043, -0.12190092355012894, -0.13361571729183197, -0.44106850028038025, -0.2823629677295685, -0.257720947265625, 0.15315347909927368, -0.22487014532089233, -0.18001891672611237, -0.19292110204696655], [-0.05131036788225174, -0.27809903025627136, -0.16151738166809082, 0.11026144027709961, -0.09124166518449783, -0.08418375998735428, -0.3228216767311096, 0.08157431334257126, -0.0739927887916565, 0.09952525049448013, 0.17330937087535858, -0.0021133532281965017, -0.08711317181587219, 0.09109365195035934, 0.04891800507903099, 0.04418419674038887, -0.3868196904659271, -0.06132982671260834, 0.19807623326778412, -0.1200113296508789, -0.04282097518444061, 0.08359861373901367, -0.2942684590816498, -0.25545036792755127, 0.11668293178081512, 0.0669139102101326, 0.13362328708171844, -0.36826953291893005, -0.06886286288499832, 0.04985955357551575, 0.038413260132074356, 0.05420932173728943], [0.16095192730426788, 0.29494842886924744, -0.3252567648887634, 0.11987380683422089, 0.18086427450180054, -0.1591114103794098, -0.2573375403881073, -0.2811792194843292, -0.842738151550293, -0.17519690096378326, -0.23820824921131134, -0.16503216326236725, 0.061341650784015656, -0.1383669376373291, 0.08954328298568726, -0.35182985663414, -0.053415145725011826, 0.025814635679125786, -0.28398963809013367, -0.27684229612350464, -0.3440605401992798, -0.41935718059539795, -0.016506588086485863, -0.35477861762046814, -0.18740659952163696, 0.04343722388148308, -0.1405131220817566, 0.0012315761996433139, -0.3417716920375824, 0.07679452002048492, -0.059177275747060776, -0.5016803741455078], [-0.4567561745643616, 0.07622049003839493, 0.039915505796670914, 0.013935396447777748, 0.20206311345100403, -0.3757052421569824, -0.5541425943374634, 0.07879631966352463, -0.3355986177921295, 0.058886729180812836, -0.5080327391624451, -0.005567717365920544, -0.09062611311674118, -0.16954323649406433, -0.14072386920452118, 0.010526182129979134, -0.1645381897687912, 0.3286501169204712, -0.22891554236412048, -0.24401485919952393, -0.21885962784290314, -0.022732531651854515, -0.34571993350982666, -0.3376390039920807, 0.2831724286079407, -0.09760431200265884, 0.13206970691680908, 0.299243301153183, -0.07678107172250748, 0.13323689997196198, -0.19863350689411163, -0.1217404454946518], [-0.08100703358650208, -0.016695087775588036, -0.03283132612705231, -0.24125279486179352, -0.15304194390773773, -0.34215980768203735, -0.28930556774139404, -0.08328733593225479, -0.27964645624160767, 0.3977271616458893, 0.11713755875825882, 0.03556813672184944, -0.38867709040641785, 0.32362544536590576, 0.20157156884670258, -0.2634539306163788, 0.14298772811889648, -0.15806463360786438, -0.11947692930698395, 0.105880007147789, -0.40357112884521484, -0.27010560035705566, 0.2017686516046524, 0.12886574864387512, 0.16120773553848267, -0.03363773226737976, 0.08862008154392242, -0.33072420954704285, 0.03368397057056427, -0.05415221303701401, 0.09667258709669113, -0.6383694410324097], [0.26930350065231323, 0.1961449384689331, 0.44841447472572327, -0.1737113744020462, -0.29336780309677124, 0.12951982021331787, 0.14340950548648834, 0.07946935296058655, 0.5145584940910339, -0.05787624791264534, -0.015501647256314754, -0.17692576348781586, -0.06383822858333588, -0.1239560917019844, 0.37810149788856506, 0.41845375299453735, 0.2630379796028137, -0.23379358649253845, -0.02977139875292778, 0.08437786251306534, -0.13827620446681976, 0.5159091949462891, 0.12806883454322815, 0.2786255180835724, -0.09960973262786865, 0.21046312153339386, 0.13417811691761017, 0.38311928510665894, -0.3631385862827301, 0.2770712375640869, 0.06728731095790863, 0.43687698245048523], [-0.32129091024398804, 0.06332501769065857, -0.6008967757225037, -0.04891509562730789, -0.10587536543607712, -0.7346500158309937, -0.06739220023155212, -0.39153367280960083, -0.736532986164093, -0.07547727227210999, -0.17497995495796204, -0.20515252649784088, -0.17574580013751984, -0.10341902822256088, -0.01104437094181776, -0.22638820111751556, -0.07693788409233093, -0.04771903157234192, 0.21879827976226807, -0.01332597155123949, -0.15891669690608978, -0.36121395230293274, -0.13137179613113403, -0.1415431797504425, -0.26865431666374207, -0.09726609289646149, -0.10428909212350845, -0.05987245589494705, 0.37196823954582214, 0.07166022807359695, 0.039761703461408615, -0.00925512332469225], [-0.19396911561489105, -0.02106168307363987, 0.3479362726211548, 0.3513219356536865, 0.25462281703948975, 0.12454153597354889, -0.20067180693149567, -0.23074910044670105, -1.1775838136672974, -0.17206545174121857, -0.06191769614815712, -0.4097388982772827, -0.17460928857326508, -0.25255200266838074, 0.1550717055797577, -0.30125027894973755, -0.1140638068318367, -0.0540209598839283, -0.2980192005634308, 0.040968138724565506, -0.36461910605430603, 0.1766400933265686, -0.5271084904670715, 0.02279110625386238, -0.12327592074871063, 0.20765787363052368, 0.15422265231609344, -0.18861155211925507, -0.31422826647758484, -0.06247728690505028, 0.26033443212509155, -0.28214508295059204], [-0.07834244519472122, 0.46970805525779724, 0.4295509457588196, 0.644174337387085, -0.1474829614162445, 0.12496192008256912, -0.11922898888587952, 0.22393566370010376, -0.08833256363868713, 0.25562983751296997, 0.20633000135421753, -0.5216242671012878, 0.2334280163049698, 0.019016003236174583, 0.11904556304216385, -0.18979759514331818, 0.037002675235271454, 0.06975908577442169, 0.13529415428638458, 0.08387314528226852, -0.20986483991146088, 0.07498269528150558, 0.26406440138816833, 0.15569312870502472, 0.3586615324020386, -0.13777413964271545, 0.17237170040607452, -0.410276859998703, 0.05817168205976486, -0.26742956042289734, -0.05080774426460266, -0.02464090846478939], [-0.27291157841682434, -0.0801260769367218, 0.049073897302150726, 0.10791978985071182, -0.18573832511901855, -0.2780061960220337, -0.1472567915916443, -0.042334072291851044, -0.31655532121658325, -0.09752730280160904, 0.021356485784053802, -0.1987466812133789, 0.10877633839845657, -0.1769939363002777, -0.36954569816589355, 0.24954795837402344, -0.09848207980394363, 0.24419589340686798, -0.19534087181091309, 0.0686202347278595, -0.02424882911145687, -0.33889782428741455, -0.06894776225090027, -0.26684147119522095, -0.5235483050346375, -0.20329226553440094, -0.213902547955513, -0.38355761766433716, -0.20518523454666138, -0.11412043124437332, -0.009477978572249413, -0.5098020434379578], [-0.2415313571691513, 0.18191568553447723, -0.4897209703922272, -0.069667287170887, -0.2949795126914978, -0.22847971320152283, 0.10736912488937378, -0.38034602999687195, 0.1592101901769638, 0.15784627199172974, -0.015943605452775955, 0.6774714589118958, 0.32782334089279175, -0.21929258108139038, -0.08136758953332901, -0.24110153317451477, -0.19523724913597107, 0.13153786957263947, 0.05693548917770386, 0.24718700349330902, 0.3901098966598511, 0.15222442150115967, -0.2306257039308548, -0.03470064699649811, -0.42771366238594055, 0.19501815736293793, -0.39044010639190674, 0.185039222240448, 0.16465622186660767, -0.02908167615532875, -0.2814086079597473, -0.021699707955121994], [0.16772624850273132, -0.007155304774641991, -0.028829950839281082, -0.25956830382347107, 0.749330461025238, -0.06678465008735657, -0.2654378414154053, 0.7073056697845459, -0.04065610468387604, 0.1983272135257721, 0.15364575386047363, -0.044976357370615005, -0.2345820814371109, 0.2266063392162323, 0.16201002895832062, 0.23729360103607178, -0.04378049075603485, 0.18264172971248627, 0.004527325741946697, 0.17641855776309967, -0.019321542233228683, 0.13926400244235992, 0.5895264744758606, 0.30419036746025085, -0.060981351882219315, 0.624112606048584, -0.019786842167377472, -0.17449072003364563, -0.07239503413438797, -0.14026691019535065, -0.0368373766541481, 0.3411136567592621], [-0.007712753023952246, 0.12504802644252777, -0.159316748380661, 0.09803726524114609, 0.16125690937042236, -0.24941524863243103, -0.3808133602142334, -0.18757286667823792, 0.18527640402317047, 0.08249451220035553, -0.4209453761577606, -0.04064800217747688, 0.15031296014785767, 0.023298194631934166, -0.20258665084838867, -0.08147075772285461, -0.14913244545459747, 0.3292326331138611, 0.21852421760559082, 0.21266093850135803, -0.461207777261734, -1.0872862339019775, -0.08364038914442062, -0.051084741950035095, 0.0428585559129715, -0.16128437221050262, -0.15175624191761017, -0.47262510657310486, -0.2908896207809448, -0.018137529492378235, -0.13420145213603973, -0.37791985273361206]]}, "hg": {"bias": [-0.03576098755002022, -0.05316396802663803, 0.03578309714794159, -0.0706348717212677, 0.050359271466732025, -0.11880282312631607, -0.05257105827331543, -0.002425761893391609, -0.08545960485935211, 0.04878991097211838, -0.10246878862380981, -0.02138037048280239, -0.07501714676618576, 0.10309385508298874, -0.02222711592912674, -0.116148442029953, 0.01842673122882843, -0.01979607716202736, 0.1599520593881607, -0.16233296692371368, -0.06761187314987183, -0.15238164365291595, 0.029405584558844566, 0.0863872691988945, 0.0190372746437788, 0.009111953899264336, -0.11406384408473969, 0.04260716959834099, -0.1491537243127823, 0.05059844255447388, 0.055503036826848984, -0.05527894198894501], "kernel": [[0.09952812641859055, -0.0697651207447052, 0.02934500202536583, -0.04966915771365166, -0.13595065474510193, 0.35708680748939514, -0.037440359592437744, -0.3320154547691345, 0.19878974556922913, 0.010427321307361126, -0.13792409002780914, 0.26617109775543213, -0.25110694766044617, -0.09059884399175644, 0.473501980304718, -0.01112303975969553, -0.2656378448009491, -0.02858731336891651, -0.2390056848526001, -0.12259852886199951, -0.051679424941539764, -0.06181956082582474, -0.08376479148864746, -0.25210198760032654, -0.09256090223789215, -0.08354325592517853, 0.2639087438583374, -0.5079140067100525, 0.00801705289632082, -0.1737799495458603, 0.11613932996988297, 0.3355886936187744], [0.43258199095726013, 0.029758159071207047, 0.13209137320518494, -0.4215684235095978, -0.3704608082771301, 0.15002909302711487, -0.1098644956946373, 0.12190187722444534, 0.0905052199959755, -0.14448346197605133, -0.1631217896938324, 0.27063390612602234, -0.3740231692790985, -0.23178105056285858, 0.09730875492095947, -0.1448608785867691, -0.36655083298683167, -0.04994646832346916, -0.03610759973526001, 0.07183883339166641, -0.2745172679424286, 0.11915414035320282, -0.08943846076726913, 0.05918041989207268, 0.18444117903709412, 0.13990329205989838, 0.036393821239471436, 0.41408658027648926, -0.10961700230836868, -0.04397933930158615, -0.03337188437581062, -0.17559084296226501], [-0.3979072570800781, -0.05349845439195633, 0.19392640888690948, -0.13197557628154755, 0.08919106423854828, -0.363613486289978, -0.130539670586586, -0.008721856400370598, 0.07597693055868149, -0.04546516016125679, -0.3548053205013275, -0.34575390815734863, 0.03357458487153053, -0.28189516067504883, 0.08649460971355438, 0.076594278216362, -0.13872437179088593, 0.2613018751144409, 0.035327594727277756, -0.20643161237239838, -0.14680680632591248, 0.12771441042423248, 0.4192625880241394, -0.03368934616446495, 0.010381871834397316, -0.27400389313697815, -0.27739885449409485, 0.04658681899309158, -0.19291731715202332, -0.015906158834695816, 0.12558121979236603, 0.06237509846687317], [-0.22898410260677338, 0.3154717683792114, 0.103492870926857, 0.4108263850212097, -0.09248118847608566, -0.05029761418700218, 0.22821985185146332, 0.07631530612707138, 0.018964441493153572, 0.04628973454236984, -0.17001046240329742, -0.03163547441363335, 0.05737941712141037, 0.032767992466688156, 0.021760161966085434, 0.10947775840759277, 0.005839855410158634, 0.000965821382123977, -0.10132628679275513, 0.08049265295267105, -0.019942592829465866, 0.16661721467971802, -0.14554157853126526, -0.24620436131954193, 0.24920810759067535, 0.6148722171783447, -0.013091442175209522, 0.03633491322398186, 0.1539289504289627, 0.0754203051328659, -0.023740611970424652, 0.34464120864868164], [-0.3815983235836029, -0.0481330007314682, -0.3565281629562378, -0.39228561520576477, 0.1462589055299759, -0.10082799941301346, 0.4070850908756256, -0.04988126456737518, 0.026812467724084854, -0.04382269084453583, 0.20147031545639038, -0.20693258941173553, 0.09766335785388947, 0.0943862646818161, -0.06125790998339653, -0.1498994380235672, 0.1686737984418869, -0.10995791107416153, 0.07310859858989716, 0.3015192449092865, -0.22744174301624298, 0.1089291125535965, 0.30413883924484253, 0.006731039844453335, -0.1256246417760849, -0.0966891348361969, 0.15117000043392181, 0.19724872708320618, -0.08893109112977982, -0.09264468401670456, 0.16512347757816315, 0.35885104537010193], [0.13326027989387512, -0.06320517510175705, 0.020458348095417023, -0.2578200399875641, 0.039981547743082047, 0.12479463964700699, -0.4261762201786041, -0.4435846209526062, 0.051862671971321106, -0.2657579183578491, 0.36234402656555176, 0.2234603315591812, 0.07997734099626541, 0.17513501644134521, 0.1636711210012436, 0.3463546633720398, 0.06759104877710342, -0.027679236605763435, -0.21752804517745972, 0.32785162329673767, -0.15458975732326508, 0.18186144530773163, 0.2572023868560791, 0.15085163712501526, 0.1711292564868927, 0.13546143472194672, -0.040669918060302734, -0.16672320663928986, -0.18080011010169983, 0.035924945026636124, 0.08959269523620605, 0.2122364193201065], [-0.13715860247612, -0.24989795684814453, -0.20356392860412598, 0.34996479749679565, -0.28924569487571716, 0.24280185997486115, 0.22610042989253998, -0.06068432703614235, 0.007883434183895588, -0.2694846987724304, -0.181965172290802, 0.18140198290348053, 0.011318570002913475, -0.5034698247909546, 0.15254394710063934, 0.09504584968090057, 0.5622143149375916, -0.17340871691703796, 0.0263715498149395, 0.36971190571784973, 0.15109670162200928, 0.30853381752967834, -0.21937771141529083, 0.17897121608257294, 0.1918177455663681, 0.08999528735876083, 0.3067660927772522, 0.24895331263542175, -0.10764708369970322, -0.22352834045886993, -0.08272810280323029, 0.051410239189863205], [0.07072067260742188, 0.028946705162525177, 0.18123044073581696, 0.06294279545545578, 0.2211274802684784, 0.22030241787433624, 0.4379428029060364, 0.11356113851070404, 0.12521930038928986, 0.06359750032424927, 0.13555996119976044, -0.15477895736694336, 0.18159061670303345, -0.2909920811653137, -0.02265818789601326, 0.018697353079915047, 0.20459389686584473, 0.004365819972008467, 0.05330808460712433, 0.3925199806690216, 0.0743224024772644, 0.17620760202407837, -0.16345924139022827, 0.15822504460811615, 0.33432045578956604, -0.1260334849357605, -0.3294088840484619, -0.41172856092453003, -0.008562689647078514, 0.11110611259937286, -0.09672614187002182, -0.01132814772427082], [-0.08380818367004395, 0.06566683948040009, 0.3435961604118347, -0.2578046917915344, 0.5507901310920715, 0.33221909403800964, -0.6374179720878601, 0.17141002416610718, -0.06438811123371124, 0.13260382413864136, -0.18994717299938202, 0.09957189857959747, 0.004908572416752577, -0.1709935963153839, 0.004104831721633673, 0.29170894622802734, 0.23154331743717194, -0.09847255796194077, -0.11819836497306824, 0.0779154971241951, 0.10236483812332153, -0.09968691319227219, 0.0833980143070221, -0.27343034744262695, -0.03417530655860901, 0.12509353458881378, 0.12911175191402435, 0.2910475432872772, 0.0381649024784565, -0.5010719895362854, 0.21732458472251892, -0.10481425374746323], [0.17081651091575623, -0.04713653028011322, -0.15900783240795135, -0.11740754544734955, -0.16334132850170135, -0.22071628272533417, 0.19416038691997528, 0.3048563301563263, 0.08838264644145966, -0.04041457921266556, -0.17722515761852264, 0.3633466362953186, 0.10316260904073715, -0.3559742271900177, -0.38187918066978455, 0.18982118368148804, 0.19381962716579437, 0.18915575742721558, -0.12200123071670532, 0.10317783802747726, 0.1701040267944336, -0.039877068251371384, -0.4248165488243103, -0.13802434504032135, -0.26371973752975464, 0.1971377432346344, 0.030132414773106575, -0.07482016831636429, -0.18869155645370483, 0.02119513787329197, -0.09727296978235245, 0.2098933905363083], [-0.1517980992794037, -0.18778985738754272, 0.05561130866408348, 0.30189698934555054, 0.38227495551109314, -0.24923554062843323, -0.1855396032333374, -0.02122158743441105, -0.13357801735401154, -0.09051769971847534, 0.32227998971939087, -0.052419185638427734, -0.1598258763551712, 0.06916739791631699, -0.2097117155790329, 0.0017002532258629799, -0.29183924198150635, -0.1905861794948578, 0.020564790815114975, -0.10453542321920395, -0.18707521259784698, -0.4814252257347107, 0.15906216204166412, 0.0667605921626091, 0.18308889865875244, -0.4449889659881592, -0.024024661630392075, 0.21247993409633636, 0.2671315670013428, 0.23200607299804688, 0.14994794130325317, 0.40744948387145996], [0.13772617280483246, -0.18333092331886292, 0.373104453086853, -0.17330460250377655, -0.022173350676894188, -0.1817944347858429, -0.3612295091152191, -0.1910572052001953, -0.32037732005119324, 0.07933145016431808, 0.04660257324576378, 0.08366750925779343, -0.1531309187412262, 0.0986376404762268, -0.09520167112350464, -0.4422855079174042, -0.2739896774291992, 0.1215982586145401, -0.2252076268196106, -0.11097907274961472, -0.212565079331398, -0.020188787952065468, -0.13050751388072968, -0.07510072737932205, 0.5025917291641235, 0.09219305962324142, 0.37985166907310486, 0.0329245962202549, -0.23044255375862122, 0.13424962759017944, 0.23109041154384613, -0.18206916749477386], [-0.18125952780246735, -0.3046939969062805, -0.1896137148141861, 0.171136274933815, -0.15668947994709015, 0.31321775913238525, 0.1811000108718872, 0.0665842667222023, -0.0384359285235405, 0.0006551002152264118, 0.23108457028865814, -0.19027608633041382, -0.08059193938970566, -0.057766031473875046, -0.1374129354953766, 0.2102743238210678, -0.04005161300301552, 0.5180380940437317, -0.0634651780128479, 0.5096648931503296, -0.03506691753864288, 0.16788619756698608, -0.23918035626411438, 0.05747790262103081, -0.09204230457544327, 0.031835928559303284, 0.11245213449001312, -0.02309989742934704, 0.2649783790111542, -0.3215034306049347, 0.050428904592990875, -0.07532959431409836], [-0.11022484302520752, -0.09767483174800873, 0.13336630165576935, -0.06148776412010193, -0.0868600383400917, -0.36597293615341187, -0.20856612920761108, 0.19258758425712585, -0.24882930517196655, -0.382750540971756, 0.3436444103717804, -0.10601767897605896, 0.12340377271175385, 0.22138144075870514, 0.3357345163822174, 0.058055467903614044, -0.3867843449115753, -0.25237777829170227, -0.26531481742858887, -0.17641614377498627, -0.12816378474235535, -0.19924651086330414, -0.19025105237960815, 0.1027691438794136, 0.15745435655117035, -0.09109541773796082, -0.21364088356494904, -0.00980497058480978, -0.014530792832374573, -0.09047980606555939, 0.1260223239660263, -0.06685295701026917], [0.05444617196917534, 0.06939326971769333, 0.5135151147842407, -0.18516568839550018, -0.0133073003962636, 0.11862469464540482, -0.35122019052505493, -0.2918064594268799, 0.258949875831604, -0.25085556507110596, -0.15025092661380768, -0.2525329887866974, -0.30962979793548584, 0.10699763894081116, 0.3082759380340576, -0.09856215864419937, 0.07248179614543915, 0.14666040241718292, -0.07444862276315689, 0.15882043540477753, 0.00816773809492588, -0.19929078221321106, -0.3622994124889374, 0.031037945300340652, -0.15591669082641602, -0.2181064635515213, -0.018290871754288673, 0.43913623690605164, -0.22519448399543762, -0.12119146436452866, -0.17995066940784454, 0.14991267025470734], [0.36296945810317993, 0.22050659358501434, 0.19715066254138947, -0.09704688936471939, -0.3098497688770294, 0.017468765377998352, 0.10204610973596573, -0.2325333058834076, -0.268425315618515, -0.19619214534759521, -0.12516748905181885, 0.032761942595243454, -0.11917836219072342, -0.208628311753273, 0.5438622832298279, 0.23952536284923553, -0.03534696251153946, 0.2063928097486496, 0.1614561527967453, -0.07763414084911346, 0.1346462219953537, 0.23112790286540985, 0.1371336281299591, 0.5326166152954102, -0.026731763035058975, -0.0714392438530922, 0.030379891395568848, 0.1728004813194275, 0.19971689581871033, -0.07644937187433243, 0.35438358783721924, 0.2109060138463974], [-0.02547835186123848, 0.19772005081176758, -0.25410979986190796, 0.09147144854068756, 0.11052629351615906, 0.11206002533435822, -0.048384491354227066, 0.0008570473873987794, -0.2167690545320511, 0.34079211950302124, 0.15282481908798218, 0.1805935949087143, 0.056068141013383865, -0.13803094625473022, 0.42030635476112366, -0.08450716733932495, 0.26126348972320557, 0.31837666034698486, -0.35557690262794495, 0.20722375810146332, 0.18660733103752136, 0.21856185793876648, -0.36896926164627075, 0.2371366024017334, 0.036536213010549545, -0.04993841052055359, 0.03213547542691231, 0.1460900902748108, 0.04073715955018997, 0.08527393639087677, -0.29366984963417053, 0.17617888748645782], [0.24165956676006317, -0.026762260124087334, 0.19517375528812408, 0.06208935007452965, 0.06955630332231522, 0.14783301949501038, -0.09113215655088425, 0.03490256145596504, 0.17546209692955017, 0.18750658631324768, 0.0406448170542717, 0.38998231291770935, -0.2105712592601776, 0.26083189249038696, -0.20529553294181824, 0.027285045012831688, -0.0969448834657669, 0.02501070499420166, -0.22632303833961487, -0.32402023673057556, -0.27544930577278137, 0.4066820740699768, -0.15134203433990479, 0.17697377502918243, 0.16988317668437958, -0.16480720043182373, -0.03890656679868698, 0.2262968271970749, -0.2502242922782898, -0.434467613697052, -0.04485657438635826, 0.030763883143663406], [-0.11484149843454361, -0.14255554974079132, -0.2799179255962372, -0.06160382926464081, 0.20313377678394318, 0.37274378538131714, 0.2608473598957062, 0.06908910721540451, 0.1560891717672348, 0.055477458983659744, 0.10246392339468002, -0.2965727746486664, 0.4645451605319977, -0.15755823254585266, -0.11186268925666809, 0.11399023979902267, 0.12655720114707947, 0.07160510122776031, -0.03558000177145004, -0.304023802280426, -0.008675914257764816, -0.1559162139892578, -0.15173257887363434, 0.13126897811889648, -0.07379230111837387, 0.19567392766475677, 0.0038863064255565405, 0.3293658494949341, -0.030892856419086456, 0.5116927623748779, 0.06805909425020218, -0.1674950271844864], [0.30984604358673096, 0.1223612055182457, 0.03848429024219513, 0.2741532027721405, -0.16460329294204712, 0.10472715646028519, 0.24785731732845306, -0.2013913244009018, -0.24734003841876984, -0.31394800543785095, -0.12054552882909775, -0.05768679827451706, -0.020601915195584297, -0.04879507049918175, -0.07989676296710968, 0.2348693460226059, 0.016762856394052505, 0.13612794876098633, -0.3307769000530243, 0.04043930023908615, -0.14719991385936737, 0.21242251992225647, 0.07681889086961746, -0.25199466943740845, 0.0025545477401465178, -0.19964173436164856, 0.23589956760406494, -0.06625708192586899, -0.034898534417152405, 0.27916547656059265, -0.3098359704017639, 0.008481374010443687], [0.09155809879302979, -0.20171649754047394, -0.11309510469436646, 0.15106765925884247, 0.42578399181365967, -0.06449060887098312, -0.10068237036466599, 0.12386962026357651, 0.04319018870592117, -0.24251189827919006, -0.4087875187397003, -0.06193395331501961, 0.25447314977645874, 0.2529396712779999, 0.25089171528816223, -0.16397574543952942, -0.21739710867404938, 0.18178097903728485, 0.057972222566604614, 0.21489699184894562, 0.22614894807338715, 0.17105397582054138, 0.13972698152065277, 0.20812813937664032, -0.1453350931406021, 0.32274889945983887, 0.3221082091331482, 0.04879787936806679, -0.19590187072753906, -0.271953821182251, 0.13309241831302643, 0.18746063113212585], [-0.027176273986697197, 0.13978178799152374, 0.2350737452507019, -0.12495981901884079, -0.11383911222219467, -0.020519670099020004, -0.05891523137688637, -0.0697864517569542, 0.19148756563663483, 0.14943431317806244, -0.3786455988883972, 0.0736498311161995, 0.11728519946336746, -0.16951927542686462, 0.127767413854599, 0.19035544991493225, 0.06539961695671082, -0.09700120985507965, -0.5570429563522339, 0.14870725572109222, 0.07561525702476501, -0.0173866618424654, 0.16635668277740479, 0.346455842256546, -0.0193428136408329, 0.028490211814641953, 0.4430907070636749, -0.056887436658144, 0.39503213763237, -0.23813313245773315, -0.23734644055366516, -0.0733749270439148], [0.22861936688423157, -0.26073235273361206, 0.05817262828350067, 0.3474883437156677, -0.3209025263786316, -0.027711590752005577, 0.10368627309799194, -0.14987309277057648, -0.07833787053823471, 0.2492414265871048, -0.268563449382782, -0.1458565592765808, 0.027414290234446526, -0.36869627237319946, -0.04678000882267952, -0.11970746517181396, 0.08084999024868011, -0.29861125349998474, -0.42881572246551514, 0.10501132160425186, -0.16827239096164703, 0.035806864500045776, 0.20129826664924622, 0.05513911321759224, -0.38887113332748413, 0.059649936854839325, -0.3105665445327759, 0.03380380943417549, 0.08615772426128387, -0.05264188349246979, 0.13924826681613922, -0.01328353676944971], [0.039205409586429596, 0.01613657921552658, -0.07876402139663696, -0.06373319774866104, 0.09524302929639816, 0.2008591890335083, 0.7312558889389038, -0.09507419168949127, -0.06239708513021469, -0.09184584766626358, 0.009861476719379425, 0.05784246698021889, 0.020388036966323853, -0.06803487986326218, 0.29928961396217346, 0.2770156264305115, 0.12753978371620178, 0.17612774670124054, -0.3865472674369812, 0.3218674659729004, 0.45666030049324036, -0.17756736278533936, 0.6175388693809509, 0.09447677433490753, -0.11793757230043411, 0.11433771252632141, -0.03458424285054207, 0.2724473774433136, -0.2549091875553131, -0.22290882468223572, 0.28866347670555115, 0.3415796160697937], [-0.1749124377965927, -0.13354040682315826, 0.04551810398697853, -0.32733699679374695, 0.22500425577163696, 0.023297997191548347, -0.06636983156204224, -0.3559330701828003, -0.15282279253005981, -0.29088735580444336, -0.1766306757926941, 0.35135510563850403, -0.0733727216720581, 0.23850776255130768, -0.15008150041103363, -0.2789125442504883, -0.23218777775764465, -0.03522135317325592, -0.20327240228652954, -0.2811583876609802, -0.1535225659608841, 0.04949355870485306, -0.038613587617874146, -0.1974579244852066, 0.12538139522075653, 0.0122250746935606, -0.30424630641937256, 0.14232978224754333, 0.3982747197151184, -0.03709033131599426, 0.0680464506149292, -0.19841469824314117], [0.21540991961956024, 0.21160128712654114, 0.0504666306078434, 0.20642124116420746, 0.19917705655097961, -0.062074676156044006, 0.19735099375247955, 0.14620497822761536, 0.23813948035240173, -0.11700256913900375, 0.153447225689888, 0.06629163026809692, 0.22223863005638123, -0.28618067502975464, 0.25496965646743774, 0.03973589465022087, 0.4989185929298401, 0.11807199567556381, -0.12683433294296265, 0.2690254747867584, -0.2044084072113037, 0.02211838588118553, -0.18097731471061707, -0.23131400346755981, -0.20397570729255676, 0.017469948157668114, 0.21513788402080536, -0.06094038113951683, 0.2661607265472412, -0.11915935575962067, 0.2803386449813843, -0.12110771238803864], [0.3156242370605469, 0.24983902275562286, -0.07455658167600632, 0.1302325278520584, -0.24267549812793732, 0.14139068126678467, -0.2618263065814972, 0.057016171514987946, 0.011922111734747887, -0.12562359869480133, 0.20257405936717987, 0.014491919428110123, 0.039064086973667145, -0.15383172035217285, -0.2840753495693207, -0.48631390929222107, -0.20951057970523834, 0.015571224503219128, -0.23878523707389832, -0.05871153250336647, 0.2260875552892685, -0.049037713557481766, -0.306944876909256, -0.24735978245735168, 0.09274739772081375, 0.2212618589401245, -0.012655820697546005, -0.15199103951454163, 0.09041772037744522, -0.28665363788604736, -0.1579873263835907, 0.00983481016010046], [0.1165006011724472, 0.00042546974145807326, -0.15500041842460632, -0.09956088662147522, 0.16986384987831116, -0.07973531633615494, -0.009587554261088371, -0.06541823595762253, -0.2603209614753723, 0.19189786911010742, -0.20751072466373444, 0.0648239478468895, -0.05459936708211899, -0.13883556425571442, 0.013688450679183006, -0.027163272723555565, -0.006469955667853355, 0.11439210921525955, 0.1356220245361328, -0.06063470616936684, -0.23673135042190552, -0.3572997748851776, -0.12160586565732956, 0.12428063154220581, 0.2787047028541565, 0.1316881626844406, -0.15346843004226685, 0.15805284678936005, -0.08160843700170517, -0.34508001804351807, 0.026535892859101295, 0.04979506880044937], [0.3791674077510834, -0.2575828433036804, -0.21298126876354218, -0.15956151485443115, -0.07999499887228012, -0.04521547257900238, -0.07089701294898987, 0.07460770756006241, 0.19425968825817108, 0.024765517562627792, 0.011590692214667797, -0.337009072303772, -0.08996068686246872, 0.1046346053481102, 0.3124494254589081, 0.15665104985237122, 0.2746834456920624, 0.07496549189090729, -0.11243998259305954, -0.07970057427883148, 0.26872482895851135, 0.14302444458007812, -0.025920867919921875, -0.37377220392227173, 0.3608964681625366, 0.058109547942876816, 0.13049204647541046, 0.1845444142818451, 0.5253511071205139, -0.061813995242118835, -0.2737721800804138, 0.29000312089920044], [-0.12620902061462402, 0.07133107632398605, -0.3558672368526459, 0.011230633594095707, 0.29598480463027954, 0.12929843366146088, 0.22297172248363495, 0.1437995880842209, -0.12235765159130096, -0.303658127784729, 0.059684477746486664, -0.3250659108161926, -0.36348673701286316, -0.08321522176265717, 0.03242671862244606, 0.09232373535633087, 0.382771760225296, 0.22194597125053406, -0.04132220894098282, -0.10246338695287704, -0.1568751186132431, -0.11124564707279205, 0.017031533643603325, 0.286210834980011, -0.09907691180706024, 0.4791603088378906, 0.01578455977141857, -0.19099663197994232, -0.03710048273205757, 0.1049666702747345, -0.09226496517658234, 0.1128423735499382], [-0.03424147889018059, 0.24887119233608246, -0.3722795844078064, -0.002148028928786516, -0.15202344954013824, 0.06430824100971222, -0.1268700510263443, 0.21671947836875916, 0.10589196532964706, 0.0011855416232720017, -0.19373071193695068, -0.04434804990887642, -0.09958357363939285, 0.25077587366104126, -0.04960999637842178, 0.07492899149656296, 0.2678895890712738, -0.04375804215669632, -0.3422176241874695, 0.1811090111732483, -0.1442185640335083, 0.11603441089391708, 0.013954510912299156, 0.24944880604743958, 0.3978006839752197, -0.3192459046840668, -0.0635843425989151, -0.08560498058795929, 0.16300751268863678, 0.22836166620254517, 0.5399006605148315, 0.06842248886823654], [0.13130928575992584, 0.06857318431138992, -0.269157737493515, 0.16303466260433197, 0.20494213700294495, -0.212236687541008, 0.41947290301322937, -0.35865598917007446, 0.12069495022296906, 0.16058377921581268, -0.1881444901227951, -0.3072553873062134, -0.2147916853427887, -0.24477416276931763, 0.1341451108455658, 0.5262454152107239, 0.011876331642270088, -0.24757806956768036, -0.04660848528146744, 0.31610342860221863, 0.29576048254966736, 0.4431334137916565, -0.005651155486702919, 0.027860859408974648, -0.2303592413663864, 0.10819192230701447, 0.06984546035528183, 0.19251854717731476, 0.014448011294007301, -0.10239595174789429, 0.10324673354625702, 0.05726755037903786]]}, "hi": {"bias": [0.22392918169498444, 0.005921481642872095, 0.16054105758666992, -0.13165926933288574, 0.007421957328915596, 0.021704457700252533, 0.23790256679058075, -0.044598810374736786, -0.10217612981796265, -0.10659641027450562, 0.010282919742166996, 0.05243249610066414, 0.02502124384045601, 0.05708754062652588, -0.07686900347471237, 0.10884901136159897, 0.2049076408147812, -0.033333051949739456, -0.028669336810708046, 0.0533108152449131, -0.004882528446614742, 0.21869543194770813, 0.2974395155906677, 0.12731792032718658, 0.3847082853317261, 0.019526802003383636, 0.03545501455664635, -0.14267049729824066, 0.006521868985146284, 0.11312241852283478, -0.017709461972117424, 0.26440951228141785], "kernel": [[-0.21110354363918304, 0.1471012681722641, 0.5649768710136414, -0.10671807825565338, 0.07577788084745407, 0.10504716634750366, -0.15974563360214233, -0.2291015088558197, -0.2254675030708313, 0.14258691668510437, -0.1272529810667038, -0.2339099943637848, 0.22188599407672882, -0.20924891531467438, 0.3227100074291229, -0.32881033420562744, -0.0859670415520668, -0.20838740468025208, 0.051293399184942245, -0.03869820758700371, -0.24049662053585052, 0.08136661350727081, -0.37337636947631836, -0.33362266421318054, -0.25566571950912476, 0.4032866954803467, 0.1243864893913269, 0.012547559104859829, -0.2097230702638626, -0.3271344006061554, 0.038030315190553665, 0.03587421402335167], [0.011100697331130505, 0.018874796107411385, 0.28095749020576477, 0.5586008429527283, -0.04024145379662514, -0.43967896699905396, -0.003187785157933831, 0.7785173058509827, -0.6628736257553101, 0.06461724638938904, -0.2492443174123764, -0.19133774936199188, -0.24387603998184204, -0.02455596625804901, 0.019754597917199135, 0.01211742963641882, -0.20472702383995056, -0.05507892742753029, 0.06171185523271561, -0.08711222559213638, 0.02158396877348423, -0.11610723286867142, -0.13784268498420715, 0.05125584825873375, -0.330864280462265, -0.00773447472602129, -0.1528751254081726, 0.09880739450454712, 0.16115958988666534, 0.38624680042266846, -0.48525238037109375, -0.1203119084239006], [0.6863728165626526, 0.1496283859014511, -0.006823561154305935, -0.0886579379439354, 0.19546528160572052, 0.37554073333740234, -0.1966983675956726, 0.08029089868068695, -0.36925625801086426, -0.28466179966926575, 0.0511353500187397, 0.07275151461362839, 0.10562536120414734, 0.060671672224998474, 0.10622021555900574, 0.16964319348335266, 0.000729550898540765, -0.4006155729293823, -0.052809927612543106, -0.18672746419906616, -0.03289297968149185, 0.23555698990821838, 0.23803678154945374, 0.2502543032169342, 0.2637545168399811, -0.017020422965288162, 0.027870023623108864, 0.018461639061570168, -0.19685761630535126, 0.02483624406158924, 0.14583401381969452, -0.06358547508716583], [0.2088477462530136, 0.05257892981171608, -0.2676052451133728, 0.18062639236450195, -0.45630893111228943, -0.0493791326880455, 0.0888415202498436, -0.003007004037499428, -0.0811309665441513, 0.4116334617137909, -0.2897305488586426, 0.12936867773532867, 0.2248189002275467, -0.2587783634662628, -0.008506206795573235, -0.011701579205691814, 0.24396967887878418, -0.20562754571437836, 0.12280142307281494, -0.0665813535451889, 0.10149872303009033, -0.19210994243621826, -0.012614528648555279, 0.13046763837337494, -0.006391632836312056, -0.042494386434555054, 0.18155226111412048, 0.47400668263435364, 0.03598444536328316, 0.09493637084960938, 0.006919425446540117, -0.09631115198135376], [0.004388510715216398, -0.34046870470046997, -0.18247856199741364, 0.03469158336520195, -0.1527523547410965, 0.1616915464401245, -0.10401741415262222, 0.2210494428873062, 0.4543893039226532, 0.13334622979164124, -0.09521880745887756, -0.002517053857445717, 0.437988817691803, 0.17134103178977966, -0.5110334157943726, 0.128104105591774, 0.03240112215280533, -0.0056061893701553345, 0.0434422604739666, 0.31052663922309875, 0.1815723031759262, 0.008304321207106113, 0.25954365730285645, 0.10526114702224731, 0.19010941684246063, 0.19488120079040527, -0.15550276637077332, -0.9688687920570374, 0.26068437099456787, -0.014764626510441303, 0.12208866328001022, 0.07478215545415878], [-0.16665950417518616, -0.18670983612537384, 0.3231312334537506, 0.20673179626464844, -0.5896702408790588, 0.14616602659225464, -0.12948712706565857, 0.16824328899383545, 0.4675135016441345, -0.10768601298332214, 0.12193599343299866, 0.06630810350179672, -0.25964295864105225, 0.09837642312049866, 0.09780764579772949, -0.06859931349754333, -0.05157186836004257, -0.23972751200199127, 0.02040129341185093, 0.08748572319746017, -0.14099732041358948, -0.41117364168167114, 0.21492749452590942, 0.058177780359983444, -0.005320406053215265, 0.23507080972194672, 0.1495743691921234, 0.23071201145648956, 0.15478165447711945, -0.2244834303855896, 0.22291137278079987, 0.21504521369934082], [-0.005217025056481361, 0.12836380302906036, 0.012004751712083817, -0.05954835191369057, -0.010205365717411041, -0.07301920652389526, -0.1969747692346573, 0.25922274589538574, 0.3149700164794922, -0.14462736248970032, 0.03595428168773651, -0.19212426245212555, 0.09347299486398697, 0.03164255991578102, 0.3207036852836609, -0.27280789613723755, -0.22174754738807678, 0.04923250898718834, 0.1482517272233963, 0.523151695728302, 0.0006396691896952689, 0.10768243670463562, -0.23018331825733185, -0.3152928948402405, -0.29094839096069336, 0.08767008781433105, -0.10904088616371155, 0.5263572335243225, 0.1877557635307312, 0.10667941719293594, 0.02665083296597004, -0.11640018969774246], [-0.09914641082286835, -0.029816869646310806, -0.3297165036201477, -0.36029452085494995, -0.031300295144319534, 0.17301365733146667, 0.17571431398391724, 0.03351153805851936, -0.5427361726760864, -0.12416639924049377, 0.23229053616523743, -0.21239040791988373, 0.2829567790031433, -0.27542242407798767, 0.15414640307426453, -0.03170853853225708, 0.005373735912144184, -0.01023799180984497, 0.3012828230857849, -0.077534981071949, 0.47538456320762634, -0.29248636960983276, -0.02749195508658886, 0.3547287881374359, -0.04921147599816322, -0.11064547300338745, -0.1694982945919037, -0.011946349404752254, 0.18283341825008392, -0.05328119918704033, -0.18728236854076385, 0.29566681385040283], [0.13005788624286652, -0.4788582921028137, 0.44403812289237976, -0.0707511380314827, 0.5930440425872803, -0.07372262328863144, 0.017888275906443596, 0.3065813183784485, 0.6119056344032288, 0.2580479681491852, 0.16980372369289398, -0.11435503512620926, 0.2834254801273346, 0.4313511252403259, 0.0811932310461998, -0.39066943526268005, -0.09602486342191696, 0.36256369948387146, 0.10256003588438034, 0.09779255092144012, 0.1989230364561081, -0.11995752900838852, -0.2946128845214844, -0.007096367888152599, -0.11144985258579254, 0.09198285639286041, -0.2593630850315094, -0.5909469723701477, -0.13660140335559845, 0.10275707393884659, 0.2851097583770752, 0.004453602712601423], [-0.11857151985168457, -0.17317137122154236, 0.008443590253591537, 0.4424299895763397, -0.020358972251415253, -0.02615700289607048, 0.016394712030887604, -0.08766509592533112, -0.06049967184662819, -0.07089828699827194, -0.18129023909568787, 0.026803169399499893, 0.052921831607818604, 0.013814045116305351, -0.06970911473035812, -0.20256611704826355, -0.15005220472812653, 0.1557006537914276, 0.1802297979593277, 0.021463975310325623, 0.3809632658958435, 0.33775925636291504, 0.1440977156162262, 0.28159183263778687, -0.13137786090373993, -0.46804895997047424, -0.19494645297527313, -0.0751643180847168, 0.35260945558547974, -0.24899451434612274, -0.16994799673557281, 0.038238368928432465], [0.16802342236042023, -0.020420843735337257, -0.25772222876548767, 0.04248625412583351, 0.0932241678237915, 0.603929877281189, 0.7323634624481201, 0.22186091542243958, 0.2966897785663605, 0.20777902007102966, 0.023007864132523537, 0.1259680837392807, -0.03348259627819061, 0.06115802377462387, 0.1638965755701065, 0.012982438318431377, 0.44925352931022644, -0.21965546905994415, -0.13923749327659607, 0.03587387502193451, -0.3398240804672241, 0.036632463335990906, 0.24571746587753296, 0.10148807615041733, 0.34438177943229675, -0.009801553562283516, -0.11450834572315216, 0.11668728291988373, -0.008543732576072216, -0.00034786315518431365, 0.183170884847641, 0.4380328357219696], [-0.01152873132377863, 0.11700810492038727, 0.1955471932888031, -0.08922422677278519, 0.006709660869091749, -0.07243484258651733, -0.1978447437286377, -0.16100859642028809, -0.4090801179409027, 0.21422861516475677, 0.13060355186462402, -0.06921995431184769, -0.18258601427078247, -0.2859462797641754, 0.4489763379096985, 0.02708158642053604, -0.21211494505405426, -0.14814722537994385, -0.4178803563117981, 0.23942385613918304, -0.19209493696689606, 0.18518775701522827, -0.3311688303947449, 0.4063038229942322, -0.0237925723195076, 0.03290051966905594, 0.0393318235874176, 0.07650058716535568, 0.04994001239538193, 0.1991356611251831, 0.4330846071243286, -0.20752033591270447], [0.058588117361068726, -0.05387091636657715, 0.06539840251207352, 0.228509783744812, -0.08382668346166611, -0.17681114375591278, 0.0698276236653328, 0.2135802060365677, -0.04219553619623184, -0.12487394362688065, -0.14317761361598969, -0.026514647528529167, -0.08856372535228729, -0.11909689009189606, -0.09356090426445007, -0.38653168082237244, -0.4432530701160431, -0.02188151516020298, -0.22977852821350098, 0.029476823285222054, 0.009725543670356274, -0.48312854766845703, -0.4129716455936432, -0.3577955365180969, -0.1866758018732071, -0.07317735999822617, -0.050497960299253464, 0.25288867950439453, 0.21163558959960938, -0.3807086646556854, 0.010036440566182137, -0.5218705534934998], [0.5099260807037354, -0.012118878774344921, 0.28098395466804504, -0.34201303124427795, -0.0013569670263677835, 0.234743133187294, 0.2641763985157013, 0.07330893725156784, -0.020291768014431, 0.22015494108200073, -0.14764778316020966, 0.046434689313173294, -0.09956464171409607, 0.25269609689712524, -0.053510699421167374, 0.42930299043655396, 0.019579919055104256, 0.3682088553905487, -0.14299264550209045, 0.10037299245595932, -0.42191943526268005, 0.04116031527519226, 0.027938924729824066, 0.3434162735939026, 0.20534254610538483, -0.060730136930942535, 0.2853243947029114, -0.14776797592639923, -0.24793143570423126, -0.22423426806926727, 0.10257747769355774, 0.4845435321331024], [-0.2194575071334839, 0.17317476868629456, 0.34647494554519653, 0.5117865204811096, -0.5653444528579712, -0.12462355941534042, 0.30423063039779663, 0.4329095780849457, 0.3984134793281555, 0.09992700070142746, 0.04601695016026497, -0.5301753282546997, 0.3655194640159607, 0.36061757802963257, -0.19906818866729736, 0.24205802381038666, -0.07511485368013382, 0.16719494760036469, -0.24228593707084656, 0.03573135659098625, 0.02783787064254284, -0.052973486483097076, -0.13588039577007294, -0.11871571838855743, 0.13833364844322205, 0.37613677978515625, 0.2276063859462738, 0.03192988783121109, -0.006715875584632158, -0.18788368999958038, -0.2154916375875473, -0.21179696917533875], [-0.006142852827906609, 0.0016674526268616319, -0.1848863661289215, 0.17634546756744385, -0.5800312757492065, 0.16311700642108917, -0.04939042404294014, 0.3969586193561554, 0.3698936998844147, 0.23985323309898376, -0.17249083518981934, 0.22097642719745636, 0.0580514594912529, -0.14477089047431946, -0.14469191431999207, -0.15704011917114258, 0.14765223860740662, 0.42532941699028015, 0.21155650913715363, 0.03576066717505455, 0.23586894571781158, -0.0053870342671871185, -0.21194449067115784, -0.07399431616067886, -0.3532826006412506, 0.471512109041214, -0.06781584769487381, -0.00749988341704011, -0.07304750382900238, -0.0971660166978836, 0.04837760329246521, -0.2650567293167114], [-0.17923498153686523, -0.15148815512657166, -0.2792361080646515, 0.12695293128490448, -0.367389440536499, -0.08859063684940338, 0.17831335961818695, 0.16414226591587067, 0.2794957756996155, 0.11707242578268051, 0.12682774662971497, 0.011066902428865433, -0.29198670387268066, 0.10760261118412018, 0.328951358795166, -0.4504762291908264, -0.0878831222653389, -0.05168960615992546, -0.15830039978027344, -0.1350276917219162, 0.14617866277694702, 0.098755843937397, 0.19301076233386993, 0.0262445081025362, -0.2848632037639618, 0.24445408582687378, 0.4687472879886627, -0.13434919714927673, 0.03141262009739876, -0.1356823891401291, -0.18388932943344116, -0.17242296040058136], [-0.01987387426197529, 0.15441425144672394, -0.06201592832803726, 0.1897217035293579, 0.4156779646873474, 0.13451047241687775, -0.3642372488975525, -0.06512343138456345, 0.01970570534467697, 0.08938808739185333, -0.0626339465379715, -0.04981576278805733, 0.18435285985469818, 0.1455630660057068, 0.15009626746177673, 0.5009849667549133, -0.18372885882854462, -0.05517605319619179, -0.3372949957847595, -0.13804952800273895, 0.06267113238573074, -0.1154775470495224, 0.024626359343528748, -0.05952560529112816, -0.022706281393766403, 0.33040839433670044, 0.20309635996818542, -0.006596270017325878, -0.10068515688180923, 0.08542892336845398, 0.5670950412750244, 0.2607951760292053], [0.33760473132133484, 0.14569899439811707, -0.07577027380466461, 0.2792896032333374, 0.07882177084684372, 0.2567135691642761, -0.06988737732172012, 0.18066135048866272, -0.1258479803800583, -0.10497748851776123, 0.08259320259094238, 0.09282657504081726, -0.05660080909729004, 0.07716719061136246, 0.018979843705892563, 0.057494815438985825, 0.5225696563720703, 0.28142350912094116, 0.19123831391334534, 0.31133779883384705, 0.21392863988876343, 0.16387593746185303, 0.3450241982936859, 0.13900913298130035, 0.4661024510860443, 0.012201258912682533, 0.208110511302948, -0.8744569420814514, -0.012805608101189137, 0.06842297315597534, -0.02397564984858036, 0.3821782171726227], [-0.35305988788604736, -0.057807695120573044, -0.07713590562343597, 0.12048611789941788, -0.4279196560382843, 0.11205894500017166, -0.4326653480529785, -0.013814499601721764, -0.029798628762364388, 0.2666362226009369, -0.24484777450561523, -0.1765706092119217, -0.21696273982524872, 0.07410843670368195, -0.2636524438858032, -0.30774134397506714, -0.09247986972332001, -0.0741497352719307, -0.17944400012493134, -0.02399599365890026, 0.21443058550357819, 0.0346718430519104, -0.3574068248271942, -0.1071019396185875, 0.27916190028190613, 0.06869697570800781, -0.09619604796171188, 0.3957962095737457, -0.06882502138614655, 0.16218674182891846, -0.24590308964252472, -0.03483310341835022], [-0.13399919867515564, 0.0218413844704628, 0.300706684589386, 0.21438516676425934, -0.11874501407146454, -0.26194366812705994, -0.08472711592912674, 0.16704894602298737, 0.8559918999671936, 0.29767242074012756, -0.014547678641974926, 0.08842805027961731, -0.1991809457540512, -0.19466283917427063, 0.14533120393753052, 0.1549566090106964, -0.40377312898635864, -0.18071629106998444, 0.05219688266515732, -0.03400665521621704, -0.11539681255817413, 0.08587133139371872, -0.07236261665821075, -0.3666282594203949, 0.4626845717430115, 0.12429291009902954, 0.007007715292274952, 0.006187816616147757, 0.050279777497053146, -0.37726128101348877, -0.06813232600688934, -0.12847481667995453], [-0.23515774309635162, -0.17099253833293915, 0.3072468042373657, 0.1522376388311386, -0.06466743350028992, -0.11160092055797577, -0.3175143599510193, 0.18418128788471222, -0.04185006394982338, 0.26093044877052307, 0.20922532677650452, -0.27819254994392395, -0.05489080399274826, -0.15714715421199799, -0.22804774343967438, -0.2226429283618927, 0.10006244480609894, -0.03479117900133133, -0.21854449808597565, 0.15591496229171753, 0.2252270132303238, -0.20961980521678925, -0.29889005422592163, -0.22743257880210876, -0.681728184223175, -0.21770097315311432, 0.03726343810558319, 0.27730193734169006, 0.08243723213672638, -0.35092368721961975, -0.4198860228061676, -0.3201659619808197], [-0.28508460521698, -0.26239487528800964, 0.5031858086585999, 0.12068476527929306, 0.08417101949453354, 0.21503135561943054, 0.36682257056236267, 0.3020089268684387, -0.5516728162765503, 0.10719603300094604, -0.10155697911977768, -0.0953349620103836, -0.03995377570390701, -0.28947675228118896, -0.10150802880525589, -0.09633135050535202, -0.2086220532655716, 0.02116326242685318, 0.07067994028329849, -0.013905049301683903, 0.07418801635503769, -0.037153083831071854, -0.04675817862153053, -0.11754733324050903, -0.14932554960250854, 0.038693755865097046, 0.07672519236803055, 0.39068204164505005, -0.305256724357605, 0.16578830778598785, 0.33519113063812256, -0.4428527057170868], [-0.15996938943862915, 0.3370021879673004, -0.08200521022081375, -0.13335931301116943, -0.3692242503166199, 0.05748264864087105, 0.10909818112850189, -0.020698629319667816, 0.35363060235977173, 0.3025326132774353, -0.19884245097637177, -0.22052589058876038, -0.008060011081397533, 0.2834887206554413, 0.06687314808368683, -0.36025720834732056, -0.009587147273123264, 0.02041192539036274, -0.13591986894607544, 0.1623581498861313, 0.3103550672531128, -0.5002301931381226, 0.6197196245193481, -0.26362818479537964, -0.42059841752052307, 0.013926858082413673, -0.055859774351119995, -0.04815872758626938, -0.011440681293606758, -0.00035670067882165313, 0.08565638959407806, -0.35711196064949036], [0.20231391489505768, 0.17620226740837097, -0.08628693222999573, 0.05738178268074989, 0.027788687497377396, -0.17229023575782776, 0.10459903627634048, -0.02669067122042179, -0.39102742075920105, -0.130140021443367, 0.4639252722263336, 0.09321186691522598, -0.003026532707735896, 0.1993957757949829, -0.009464103728532791, 0.2123028039932251, -0.03302040696144104, 0.0810314416885376, -0.22258056700229645, 0.026015300303697586, -0.2752000689506531, 0.2993788421154022, 0.1981101781129837, 0.14249126613140106, 0.1640050709247589, 0.09530235081911087, -0.4487914741039276, -0.40299826860427856, -0.4121318757534027, 0.011622210964560509, 0.19109338521957397, 0.5477775931358337], [-0.4568134546279907, 0.181780606508255, -0.07745323330163956, -0.008244958706200123, -0.023172223940491676, 0.08617855608463287, -0.16214138269424438, 0.18374542891979218, -0.16271109879016876, -0.016064593568444252, 0.16937212646007538, 0.3105158507823944, 0.32591184973716736, -0.08904694020748138, 0.22591841220855713, -0.3877750337123871, -0.2785516679286957, 0.23885565996170044, -0.08458679169416428, -0.019576353952288628, 0.20899598300457, -0.2549598515033722, 0.03540794551372528, 0.18081600964069366, -0.10216683149337769, -0.010333353653550148, 0.0748528391122818, 0.3930256962776184, 0.19930030405521393, 0.01520985271781683, -0.16170699894428253, -0.32128793001174927], [-0.12165500968694687, -0.17673586308956146, 0.28556931018829346, 0.12938567996025085, 0.5913896560668945, -0.8988423347473145, -0.01962052285671234, -0.16254614293575287, -0.10558833181858063, -0.1242627426981926, -0.08324339985847473, -0.1147349551320076, -0.38222065567970276, 0.06317831575870514, 0.7292934060096741, 0.014159303158521652, -0.13139382004737854, -0.05290724337100983, 0.04823920875787735, -0.023409036919474602, -0.3098337948322296, 0.13682867586612701, -0.12527400255203247, 0.18432390689849854, 0.024608926847577095, 0.115792416036129, -0.046937454491853714, 0.5571222305297852, -0.14794516563415527, -0.0793084129691124, -0.15518933534622192, -0.2857498228549957], [-0.2036030888557434, 0.6549355387687683, 0.370194673538208, 0.2940595746040344, -0.11211669445037842, 0.1884048879146576, 0.07393378764390945, 0.34889042377471924, 0.8543689846992493, 0.1652555614709854, 0.10600546002388, -0.04154132679104805, -0.10411188006401062, 0.27185389399528503, -0.1342596411705017, 0.30518168210983276, 0.022300707176327705, -0.2453223019838333, 0.0755191445350647, 0.11310288310050964, 0.23354779183864594, -0.0437275655567646, -0.3447057008743286, 0.10349494218826294, 0.04627986252307892, -0.007977873086929321, -0.014594951644539833, -0.08612029254436493, -0.15345285832881927, -0.24303551018238068, 0.10960827767848969, -0.1125546395778656], [-0.2917111814022064, -0.3192838132381439, -0.4615532159805298, 0.13733139634132385, -0.26764899492263794, 0.08695518970489502, -0.0010129250586032867, 0.10967826098203659, 0.48846685886383057, 0.27152425050735474, -0.02137342281639576, -0.16657626628875732, 0.057946790009737015, 0.09480457007884979, -0.4981920123100281, -0.20115716755390167, -0.6980898380279541, -0.03609241917729378, 0.24043458700180054, 0.3099753260612488, 0.004826557822525501, -0.289313942193985, -0.30656349658966064, -0.10929668694734573, -0.45396924018859863, -0.18182778358459473, 0.08929362893104553, -0.04344569891691208, -0.40462011098861694, -0.11956297606229782, -0.2079826444387436, -0.3645705282688141], [-0.10311675816774368, 0.2746635675430298, -0.4818279445171356, -0.2329188734292984, -0.29761508107185364, -0.05961814895272255, 0.0634070485830307, 0.2759069502353668, -0.614595890045166, 0.13578630983829498, 0.06737630069255829, 0.07960707694292068, 0.2683948874473572, -0.04504445940256119, -0.0780431404709816, -0.28237399458885193, 0.1237812265753746, 0.1088850125670433, 0.3493534028530121, -0.22428284585475922, 0.5386026501655579, 0.22431352734565735, 0.36352211236953735, -0.044304702430963516, 0.2468796670436859, -0.5768141746520996, 0.022176777943968773, -0.14998848736286163, 0.2715212106704712, -0.14807142317295074, 0.35721778869628906, 0.018575001507997513], [0.039348043501377106, -0.2902809679508209, 0.17747636139392853, -0.17491571605205536, 0.09416104853153229, 0.13934491574764252, 0.007839715108275414, 0.38448095321655273, 0.5860665440559387, -0.2356446534395218, -0.20570965111255646, 0.11339543014764786, 0.33071741461753845, 0.2714575529098511, 0.36183518171310425, 0.06738801300525665, 0.23443245887756348, 0.08809514343738556, -0.24814511835575104, 0.2025960087776184, 0.1584181934595108, -0.12927551567554474, 0.12208603322505951, 0.13889499008655548, -0.15880368649959564, -0.16980743408203125, 0.11514381319284439, -0.03453575074672699, -0.4733976125717163, -0.020295850932598114, 0.028160398826003075, 0.18591707944869995], [-0.06855548173189163, 0.07919880002737045, 0.30457791686058044, 0.31868094205856323, 0.08843868970870972, 0.08065379410982132, -0.09516675025224686, -0.0413164459168911, 0.6398510932922363, -0.028567394241690636, -0.10719390958547592, -0.4832753837108612, -0.11094262450933456, -0.3932126462459564, -0.11243131011724472, -0.3479815125465393, -0.1501772254705429, 0.22449766099452972, 0.08728130906820297, 0.0007037496543489397, -0.08009004592895508, -0.32066941261291504, -0.07340449094772339, 0.021433185786008835, -0.31195345520973206, -0.006581478752195835, -0.11099746823310852, 0.21433302760124207, -0.29945051670074463, -0.1844288408756256, -0.06263687461614609, -0.36266085505485535]]}, "ho": {"bias": [0.09355543553829193, 0.08183011412620544, 0.06857713311910629, -0.07152747362852097, 0.14515607059001923, 0.021548999473452568, 0.11395679414272308, 0.019655415788292885, 0.06595429033041, -0.10678023099899292, 0.13424620032310486, 0.03167402371764183, 0.10639403015375137, 0.08374734967947006, 0.11531294137239456, 0.129330113530159, 0.029677804559469223, -0.06004033982753754, 0.037127938121557236, 0.02776975929737091, 0.02610202692449093, 0.08659151196479797, 0.011014421470463276, 0.15378226339817047, 0.06696877628564835, 0.0477985255420208, 0.10023269802331924, 0.06392242759466171, 0.07829079031944275, -0.00388160883449018, 0.07410915195941925, 0.26671478152275085], "kernel": [[-0.24579313397407532, -0.49021533131599426, 0.038124047219753265, 0.010595879517495632, -0.15778233110904694, -0.043989092111587524, -0.10995836555957794, -0.16826774179935455, -0.13670870661735535, 0.23517292737960815, 0.28854501247406006, -0.30060914158821106, 0.1379973143339157, 0.05607928708195686, 0.158989816904068, -0.025106696411967278, 0.030750887468457222, -0.09044543653726578, -0.3760928511619568, 0.08034095168113708, -0.09773563593626022, -0.2038598656654358, 0.08577265590429306, -0.051125418394804, 0.08690004050731659, -0.1629924327135086, 0.21849802136421204, -0.148062601685524, 0.03258489817380905, 0.011396430432796478, 0.39415863156318665, -0.1937204748392105], [-0.4772970676422119, 0.11000143736600876, -0.3068385422229767, -0.1678261011838913, 0.22452671825885773, 0.041792646050453186, -0.4178115725517273, 0.11880431324243546, -0.08519713580608368, -0.10755801945924759, -0.04339976981282234, 0.20348899066448212, 0.23969842493534088, -0.0020421650260686874, -0.34871724247932434, 0.0063971648924052715, 0.20871932804584503, -0.1784064918756485, -0.19769775867462158, -0.29135847091674805, 0.15141227841377258, 0.0039132763631641865, -0.05400434136390686, 0.17927837371826172, -0.0014283813070505857, 0.009723124094307423, 0.02594233863055706, 0.04437391087412834, 0.45211201906204224, 0.18124563992023468, 0.13796032965183258, 0.07234404236078262], [0.11284215748310089, -0.09875732660293579, 0.1603754609823227, -0.45742103457450867, 0.4865207076072693, -0.2534433901309967, 0.11408983916044235, 0.12416312843561172, 0.016903093084692955, -0.07327540218830109, -0.10343409329652786, -0.2120794653892517, -0.029938161373138428, 0.13261006772518158, 0.2032139003276825, 0.2686898112297058, 0.27701613306999207, -0.22728300094604492, -0.15457941591739655, 0.10087309032678604, -0.09878556430339813, -0.017660992220044136, -0.24208152294158936, -0.046453848481178284, -0.0726129561662674, 0.14266090095043182, 0.26087290048599243, 0.2053997665643692, -0.13741904497146606, 0.08076015114784241, -0.2406557947397232, 0.2815726101398468], [-0.009540127590298653, -0.05416092649102211, -0.2164575159549713, 0.08453010767698288, 0.07763472199440002, 0.3486432731151581, -0.2543380856513977, -0.04013948142528534, -0.5181143283843994, -0.06583989411592484, -0.21848727762699127, 0.0030489193741232157, -0.2333182841539383, -0.3536718487739563, -0.09614875912666321, 0.0790388286113739, 0.24228785932064056, 0.014063994400203228, 0.4162513017654419, 0.1934019774198532, 0.04212925210595131, 0.08603255450725555, -0.04577339068055153, -0.3960374891757965, -0.044298771768808365, -0.12236959487199783, 0.029657164588570595, 0.18819019198417664, 0.06055711209774017, -0.07606849074363708, 0.05452556908130646, -0.45284304022789], [0.31633302569389343, -0.2188507616519928, 0.052612364292144775, -0.029144207015633583, 0.19721008837223053, -0.053251735866069794, 0.2681545317173004, -0.05806311219930649, 0.10367625206708908, -0.4291318953037262, 0.0014116179663687944, -0.24151860177516937, 0.25554099678993225, 0.11256736516952515, -0.39453810453414917, -0.1795598566532135, -0.21638163924217224, 0.5772719383239746, 0.0874604657292366, 0.4293014109134674, -0.05088391527533531, 0.18446297943592072, 0.4311041533946991, -0.06605774164199829, 0.12637467682361603, -0.06151476129889488, -0.16525769233703613, -0.12190231680870056, 0.14800551533699036, 0.06353376805782318, -0.06909912079572678, -0.03828577324748039], [0.24486391246318817, 0.34977516531944275, -0.16080927848815918, -0.1109730675816536, 0.09950002282857895, -0.05542118474841118, 0.27065393328666687, 0.14016620814800262, -0.12679046392440796, 0.33946219086647034, 0.07971525937318802, -0.026745164766907692, -0.0408010259270668, 0.2536682188510895, 0.12071167677640915, -0.27265775203704834, -0.01658320613205433, -0.2672003507614136, -0.006475689820945263, 0.092819944024086, -0.2890166938304901, -0.030740084126591682, 0.4197419285774231, -0.00359144015237689, -0.006488827522844076, -0.034364864230155945, -0.1898714154958725, 0.040780652314424515, 0.07553306967020035, 0.3188903331756592, -0.0003841362486127764, -0.146728515625], [-0.25435805320739746, 0.17523230612277985, -0.15813176333904266, 0.295149028301239, -0.09610914438962936, -0.2783454358577728, 0.007038973271846771, -0.3245808482170105, -0.23226068913936615, 0.37098538875579834, -0.32696881890296936, 0.009737519547343254, -0.0016869747778400779, -0.17699892818927765, -0.19455139338970184, -0.4898605942726135, -0.11802681535482407, 0.11585455387830734, -0.04938584566116333, 0.20175032317638397, -0.08482301980257034, -0.13836558163166046, -0.08382844924926758, -0.3391854166984558, -0.1576024442911148, -0.11302994936704636, 0.34993526339530945, 0.14372724294662476, 0.21010573208332062, 0.08507485687732697, -0.056650467216968536, -0.19644410908222198], [-0.07407774031162262, 0.12380954623222351, 0.15652962028980255, 0.05689648166298866, -0.09173045307397842, 0.08603094518184662, 0.20481164753437042, -0.21644780039787292, 0.13238146901130676, -0.09551677107810974, 0.023567644879221916, -0.05178770422935486, 0.07094085216522217, -0.033324871212244034, -0.26410964131355286, 0.04854516312479973, 0.03163199499249458, -0.2519485056400299, -0.11601174622774124, 0.18180632591247559, 0.019595464691519737, 0.19519372284412384, -0.0061005293391644955, 0.0017906129360198975, -0.18856437504291534, 0.17788532376289368, -0.3024504780769348, 0.11275168508291245, 0.2520006597042084, -0.2207011878490448, -0.2979975938796997, -0.4799414873123169], [-0.24293774366378784, -0.16430391371250153, -0.051163449883461, 0.2708149552345276, 0.49787232279777527, -0.30119308829307556, -0.023516777902841568, 0.23025096952915192, 0.010961195454001427, 0.1510917991399765, 0.20547586679458618, -0.24767857789993286, 0.4871923625469208, -0.08102376013994217, 0.12503480911254883, -0.03345002233982086, 0.13028302788734436, 0.10185069590806961, 0.4001108705997467, 0.49508538842201233, 0.1455133557319641, 0.22225259244441986, 0.14510652422904968, 0.5796312689781189, 0.08760179579257965, -0.03146958351135254, 0.03466304764151573, -0.6204293966293335, -0.2493811398744583, 0.042772240936756134, -0.2011072337627411, -0.45074984431266785], [-0.002165589714422822, -0.3528326451778412, 0.10477611422538757, -0.0308227576315403, -0.15532538294792175, -0.2201836258172989, -0.06545715779066086, -0.17096108198165894, 0.24576587975025177, -0.2724916636943817, -0.1638442575931549, 0.011722378432750702, 0.31042906641960144, -0.3487752676010132, 0.15397445857524872, -0.27876925468444824, 0.0034005006309598684, 0.1508895456790924, 0.18997353315353394, 0.006293170619755983, 0.20071037113666534, 0.14333128929138184, -0.21956102550029755, -0.2204478234052658, -0.3838430643081665, 0.00480337580665946, -0.47488945722579956, 0.22717291116714478, -0.16116876900196075, 0.10567576438188553, 0.0735032930970192, -0.054974447935819626], [0.29759785532951355, 0.05274942144751549, -0.18412229418754578, -0.06199109926819801, 0.32685524225234985, 0.09291243553161621, -0.14968213438987732, -0.22975552082061768, -0.08549309521913528, 0.06808050721883774, 0.6650618314743042, 0.27647021412849426, 0.07601815462112427, -0.16683442890644073, -0.0020422805100679398, 0.03254183381795883, 0.15286123752593994, -0.10880988091230392, -0.156306654214859, -0.018927788361907005, -0.303633451461792, -0.25271129608154297, -0.026588458567857742, 0.08704912662506104, -0.0176328644156456, 0.09087789803743362, 0.10435805469751358, -0.1366320252418518, -0.3768698275089264, -0.03925580903887749, 0.03160802274942398, 0.2365037202835083], [-0.10233554244041443, 0.34719204902648926, -0.015797270461916924, -0.10190189629793167, 0.08336159586906433, -0.030119633302092552, 0.1976870745420456, 0.38758978247642517, 0.21159404516220093, -0.12422224879264832, 0.4163365364074707, -0.06968086212873459, 0.09334152191877365, -0.07519637048244476, -0.051480941474437714, 0.10154523700475693, 0.3114434778690338, -0.03399260342121124, -0.28574907779693604, 0.2540404200553894, 0.411746621131897, 0.02094695158302784, -0.2132776826620102, 0.031805407255887985, -0.09445580840110779, -0.10341622680425644, 0.08406312763690948, -0.13089719414710999, 0.1985594779253006, -0.1474008560180664, 0.1926347017288208, 0.5820854306221008], [0.20021919906139374, 0.033353984355926514, 0.43059125542640686, -0.13122466206550598, -0.026725247502326965, 0.19765913486480713, -0.2925959825515747, -0.08050982654094696, -0.3286251127719879, 0.2656003534793854, -0.19142362475395203, 0.050163183361291885, -0.0538860559463501, -0.1024293601512909, -0.30672237277030945, -0.12557950615882874, -0.26247936487197876, -0.07155454158782959, -0.23252680897712708, 0.12990492582321167, 0.2371925562620163, 0.1333654373884201, 0.1822066307067871, -0.12896841764450073, -0.1363038867712021, -0.3123905658721924, -0.18005549907684326, 0.10395268350839615, -0.22970399260520935, 0.06646136939525604, -0.07983266562223434, -0.10934631526470184], [0.011692559346556664, 0.2513282597064972, -0.06788001209497452, 0.05035893991589546, 0.06920865178108215, 0.17556582391262054, -0.17856508493423462, -0.0647064745426178, 0.22487129271030426, 0.16933833062648773, 0.02809147909283638, -0.33375853300094604, 0.24683530628681183, 0.0709216371178627, 0.1421741545200348, 0.1076330840587616, -0.048248786479234695, 0.22375768423080444, -0.04131559282541275, -0.030477771535515785, 0.04335363209247589, -0.20879045128822327, 0.2711162567138672, -0.028820713981986046, -0.0075651733204722404, 0.0029276700224727392, -0.0340905636548996, -0.11623698472976685, -0.019539522007107735, -0.0012345003196969628, -0.43152496218681335, 0.032769858837127686], [0.10557369142770767, 0.010549073107540607, -0.0666917935013771, 0.3683969974517822, -0.10196258872747421, 0.09935148060321808, -0.2709488868713379, 0.260954350233078, -0.04784549027681351, -0.012420324608683586, 0.021662218496203423, 0.05469479784369469, 0.1799950748682022, 0.2683476507663727, 0.20723193883895874, -0.2065884917974472, 0.06200748682022095, -0.2514589726924896, -0.06236365810036659, 0.18928946554660797, -0.06755878031253815, -0.3006703853607178, 0.3429643511772156, -0.030219582840800285, -0.005792754702270031, 0.09928899258375168, 0.3498430550098419, 0.17949514091014862, -0.07146318256855011, -0.36538267135620117, -0.08688133209943771, 0.31023743748664856], [0.5233783721923828, 0.0384710356593132, -0.04018925875425339, 0.19293437898159027, -0.22825099527835846, -0.08147858828306198, -0.2364068329334259, 0.19679050147533417, -0.38676542043685913, 0.303832083940506, -0.10604443401098251, -0.1835661381483078, -0.01605949178338051, 0.01835585944354534, -0.15004883706569672, -0.10995563864707947, 0.03170940652489662, 0.12019312381744385, -0.09630949795246124, -0.31250038743019104, -0.23518988490104675, 0.02809537574648857, 0.013045059517025948, 0.0688248723745346, -0.3546997308731079, 0.005427807103842497, 0.1828862428665161, -0.2289440631866455, 0.17766344547271729, -0.1787853240966797, -0.10089210420846939, -0.15442705154418945], [-0.22605204582214355, -0.11539916694164276, -0.17038263380527496, 0.1459445357322693, -0.027320174500346184, -0.10530462116003036, 0.12169227004051208, -0.06621351093053818, 0.03212513029575348, 0.195062056183815, 0.08288384228944778, -0.09569614380598068, -0.09985602647066116, -0.18127746880054474, -0.10378764569759369, 0.2999265491962433, -0.020787518471479416, 0.13774801790714264, 0.28204473853111267, -0.08069466799497604, -0.03274401277303696, 0.04791327565908432, 0.3120449483394623, 0.09361312538385391, -0.4964592754840851, -0.2917797565460205, 0.09131035953760147, 0.04423126205801964, -0.22403770685195923, -0.02842826582491398, -0.2544902563095093, -0.1631792187690735], [-0.23741556704044342, -0.09625335037708282, -0.3046533763408661, -0.058304864913225174, -0.23162496089935303, 0.17429375648498535, 0.21474646031856537, -0.03965543955564499, -0.0749519094824791, -0.05558222532272339, -0.21807880699634552, 0.24919351935386658, 0.07882634550333023, 0.10726238787174225, -0.1622280329465866, 0.09584907442331314, 0.0937410295009613, -0.33617475628852844, -0.24093325436115265, 0.024218421429395676, -0.08974065631628036, 0.1528761386871338, 0.028129054233431816, 0.015706662088632584, 0.0430498942732811, -0.27518653869628906, -0.030949678272008896, -0.05042240023612976, -0.22371606528759003, -0.13306209444999695, -0.08591023087501526, 0.18971233069896698], [-0.0204023364931345, 0.03177701309323311, -0.06538686156272888, -0.08194628357887268, 0.23956921696662903, 0.0941551998257637, 0.31683146953582764, -0.1706557720899582, -0.26082202792167664, -0.07451700419187546, 0.34313255548477173, 0.3151809275150299, 0.012845616787672043, -0.03710203245282173, 0.4135117828845978, 0.17885054647922516, 0.08560194820165634, 0.11398013681173325, -0.14627878367900848, -0.2578679323196411, 0.38791608810424805, 0.024191422387957573, 0.0897827297449112, 0.13881461322307587, -0.14189791679382324, 0.12652094662189484, -0.007960143499076366, 0.24932017922401428, 0.23598459362983704, -0.2070450335741043, -0.024252310395240784, 0.22699332237243652], [-0.32521167397499084, 0.13805434107780457, -0.06151922047138214, 0.10383328050374985, -0.1363169103860855, 0.08337437361478806, -0.1413983255624771, 0.1122933179140091, -0.025236543267965317, 0.004162416327744722, -0.25916728377342224, -0.11127341538667679, -0.11316517740488052, -0.08883359283208847, 0.20054630935192108, -0.2848609387874603, 0.24249114096164703, 0.1834012120962143, -0.47195202112197876, -0.2211393564939499, -0.30305609107017517, 0.23835289478302002, 0.2164466828107834, -0.32424309849739075, 0.09552795439958572, -0.2970060110092163, -0.007701030932366848, -0.02909109555184841, -0.20169101655483246, -0.12661035358905792, 0.053069453686475754, -0.3462594449520111], [-0.48073744773864746, 0.12000558525323868, 0.21872997283935547, -0.24268968403339386, -0.0522884763777256, -0.292325496673584, -0.09551938623189926, -0.2032260149717331, -0.14391587674617767, 0.07251410186290741, -0.025322094559669495, 0.2764825224876404, 0.2726778984069824, 0.335877925157547, 0.02800048142671585, 0.3591586947441101, -0.032148733735084534, 0.05904969200491905, 0.26124101877212524, 0.1802213191986084, -0.5858549475669861, 0.08575547486543655, 0.1856817752122879, -0.0547599270939827, 0.1771656721830368, -0.12426772713661194, -0.01194662507623434, -0.4252552092075348, 0.2169560045003891, -0.5257877111434937, 0.25443360209465027, -0.057095903903245926], [-0.4545573890209198, -0.02196449227631092, 0.019926419481635094, -0.08837112039327621, -0.2808747887611389, -0.08832378685474396, -0.30910468101501465, 0.025229450315237045, -0.29594460129737854, -0.16452179849147797, -0.12947335839271545, -0.17161411046981812, -0.4562910795211792, -0.4597000181674957, 0.07298248261213303, -0.21403539180755615, -0.3581668436527252, -0.25679105520248413, -0.024392906576395035, -0.05427989363670349, -0.2531009912490845, -0.3537704348564148, -0.10896582156419754, -0.16653621196746826, -0.13674528896808624, -0.23983894288539886, -0.18468432128429413, -0.23654167354106903, 0.09190167486667633, -0.05074435472488403, -0.05717063322663307, -0.25484830141067505], [-0.25500112771987915, -0.01683419942855835, 0.1317758709192276, 0.13251005113124847, 0.17329147458076477, 0.3026994466781616, 0.03903161361813545, 0.41702041029930115, -0.1592019647359848, 0.20207184553146362, -0.3151869773864746, 0.09635752439498901, 0.07772987335920334, -0.06688524782657623, -0.10472281277179718, -0.15114915370941162, -0.17852665483951569, 0.18888744711875916, -0.09699282795190811, -0.11576791852712631, -0.2801109850406647, -0.5582377910614014, -0.4233604073524475, 0.01528400182723999, -0.14434142410755157, -0.16019363701343536, -0.06423021107912064, 0.2452775239944458, -0.04334850236773491, -0.1422426998615265, 0.18169668316841125, -0.49725770950317383], [0.1292947381734848, -0.34357666969299316, -0.040202170610427856, -0.012870020233094692, 0.3320225477218628, -0.08743689954280853, -0.12385763227939606, 0.047182846814394, 0.293442040681839, 0.4651261270046234, 0.04900474101305008, 0.09120561182498932, -0.2963767945766449, 0.22323377430438995, -0.22887730598449707, -0.0770522952079773, -0.19577378034591675, 0.04755358025431633, 0.05281728506088257, 0.0036475802771747112, -0.007777082268148661, 0.23403719067573547, 0.315646767616272, -0.44139835238456726, 0.0005215256242081523, 0.10310033708810806, -0.32478833198547363, -0.3847281336784363, 0.18493232131004333, -0.3321950435638428, -0.23764406144618988, -0.11374281346797943], [0.10971368104219437, -0.008131078444421291, 0.165758416056633, 0.19039177894592285, 0.15444038808345795, 0.1877851039171219, 0.1078408882021904, 0.020057570189237595, 0.20145878195762634, 0.03456244617700577, -0.10002953559160233, 0.1283939927816391, 0.28821054100990295, -0.13755890727043152, 0.2751663029193878, 0.3912549316883087, 0.21570175886154175, -0.2555455267429352, -0.23085099458694458, -0.04932167008519173, -0.2919938862323761, 0.01317684818059206, 0.07272431254386902, 0.18219949305057526, 0.01623249240219593, -0.007712195161730051, 0.003315023146569729, -0.17117150127887726, 0.37187790870666504, 0.3153410851955414, 0.024023812264204025, 0.6336002349853516], [0.08035168796777725, -0.2297675609588623, 0.06086226925253868, 0.0014757709577679634, -0.03573770821094513, -0.28245189785957336, -0.03612736612558365, -0.0056184930726885796, 0.10074859857559204, -0.21675020456314087, -0.22388856112957, 0.26291516423225403, -0.11139200627803802, -0.28358712792396545, -0.04126232489943504, -0.1250290870666504, 0.1035890281200409, 0.12639352679252625, 0.0009888210333883762, -0.039882805198431015, 0.3701592683792114, -0.24827274680137634, 0.16562356054782867, -0.060085929930210114, 0.12680011987686157, -0.4205007255077362, -0.05133546516299248, 0.07667817175388336, 0.32514068484306335, 0.07489880174398422, -0.26329830288887024, -0.6125417351722717], [-0.20132584869861603, 0.18628928065299988, -0.21374163031578064, 0.3255617320537567, 0.19157080352306366, -0.22281713783740997, -0.36307036876678467, 0.04292500019073486, -0.46534234285354614, -0.2899734377861023, -0.035553108900785446, 0.20654141902923584, -0.2775622010231018, 0.39423784613609314, 0.14163446426391602, 0.1666983813047409, 0.011060473509132862, -0.13782525062561035, -0.2187773734331131, 0.03970055654644966, 0.07741202414035797, -0.2627902328968048, -0.05562610924243927, 0.03538491204380989, -0.5858150124549866, -0.06152912601828575, 0.07814642786979675, -0.1277765929698944, -0.06305006891489029, 0.21878978610038757, 0.32468828558921814, -0.1614164263010025], [-0.051850613206624985, -0.024329833686351776, -0.0975307747721672, 0.44293341040611267, -0.021693386137485504, -0.0696743056178093, -0.1521458774805069, 0.2088276743888855, -0.11089085787534714, 0.3176746070384979, 0.028715474531054497, -0.22688542306423187, -0.1553918719291687, -0.17761647701263428, -0.2916998863220215, 0.34296363592147827, 0.10418864339590073, 0.05554373562335968, -0.141030952334404, 0.33631595969200134, -0.2109624743461609, -0.054688263684511185, 0.36856183409690857, 0.1591757982969284, 0.13977862894535065, 0.4297676086425781, -0.08753868192434311, 0.41855326294898987, -0.09040351212024689, 0.011136891320347786, 0.15076535940170288, -0.038626786321401596], [-0.10317610949277878, -0.0002707203384488821, -0.34687262773513794, -0.09785113483667374, 0.010487544350326061, 0.1228126510977745, -0.20749600231647491, -0.26252201199531555, 0.15055638551712036, 0.1520521491765976, -0.5564636588096619, -0.0940411165356636, -0.08485455065965652, -0.07510124146938324, -0.016608811914920807, 0.00613673310726881, 0.02441534213721752, 0.1691451370716095, -0.11415234953165054, 0.17439091205596924, 0.06651119887828827, -0.2615967392921448, -0.3510960638523102, 0.16168755292892456, -0.05143671855330467, -0.220483660697937, -0.1304609477519989, -0.14768533408641815, -0.0913165956735611, -0.06689005345106125, 0.2558997571468353, -0.2519415616989136], [-0.004544554743915796, -0.06321361660957336, -0.23767563700675964, -0.2867792248725891, -0.22107107937335968, 0.10793443769216537, -0.01015537604689598, 0.33301621675491333, 0.04444321244955063, 0.14387713372707367, -0.10191351175308228, 0.297704815864563, 0.1550244688987732, -0.10098396986722946, 0.08152247220277786, -0.13387426733970642, -0.3987578749656677, 0.16753460466861725, -0.04945099353790283, 0.24818424880504608, 0.32320332527160645, 0.09536049515008926, 0.19578461349010468, -0.17940698564052582, -0.22115552425384521, 0.12750008702278137, 0.14117276668548584, -0.15283218026161194, 0.21807362139225006, 0.16757744550704956, -0.10269191116094589, -0.3740391135215759], [0.0573810338973999, -0.27888569235801697, 0.012021150439977646, 0.030055904760956764, -0.044813234359025955, 0.2696370482444763, -0.3032245934009552, -0.029971521347761154, 0.26414647698402405, 0.054517004638910294, 0.28677260875701904, -0.08262239396572113, -0.37213462591171265, 0.3450453579425812, 0.09618272632360458, -0.07297555357217789, 0.029258783906698227, 0.2266840785741806, -0.09416145086288452, 0.2746005356311798, -0.1491674929857254, 0.30960920453071594, -0.1991361379623413, 0.3411324918270111, -0.057921603322029114, -0.05134575068950653, -0.1269790679216385, 0.22410948574543, 0.0490851104259491, 0.3395346999168396, -0.32608747482299805, 0.11529097706079483], [-0.25205403566360474, -0.2729959487915039, 0.3207904100418091, -0.14959242939949036, -0.05553304776549339, 0.2078806608915329, 0.009934584610164165, -0.06568452715873718, 0.13389773666858673, 0.2907862365245819, -0.26987889409065247, -0.059569358825683594, -0.2489422857761383, 0.002577277598902583, -0.24999839067459106, -0.5680609941482544, 0.3251885771751404, 0.335069864988327, 0.27511918544769287, 0.08967521786689758, -0.07478270679712296, -0.2708887755870819, 0.3179192543029785, 0.15780751407146454, -0.3004346191883087, 0.16199931502342224, -0.05371022969484329, -0.17904214560985565, -0.003837618511170149, 0.00040153396548703313, -0.002343167318031192, -0.35087576508522034]]}, "if": {"kernel": [[-0.6267505884170532, -0.339609295129776, 0.3786364793777466, 0.4246159791946411, 0.4843390882015228, -0.16821086406707764, 0.29752999544143677, 0.4094362258911133, 0.07616859674453735, 0.567595362663269, -0.11906865984201431, 0.30616188049316406, -0.5647830963134766, -0.5117816925048828, 0.26220956444740295, -0.0676572397351265, 0.3826386630535126, -0.09115242958068848, -0.7774391174316406, 0.03581684082746506, 0.39273184537887573, 0.31079748272895813, 0.6650391817092896, 0.14568905532360077, 0.3979428708553314, 0.599953293800354, 0.6949260830879211, -0.1226823702454567, 0.3105885982513428, -0.3334631025791168, 0.5281309485435486, -0.3124726414680481], [-0.6888700127601624, 0.3983604609966278, -0.02183498814702034, 0.4536287188529968, -0.09989253431558609, 0.09504722058773041, 0.665896475315094, 0.5130411982536316, -0.11885034292936325, 0.22327807545661926, -0.5744193196296692, 0.8726728558540344, 0.2336059808731079, 0.10822904109954834, 0.3975031077861786, -0.47961100935935974, 0.2217511087656021, -0.4094783365726471, 0.14009776711463928, -0.2332402467727661, 0.3145233988761902, 0.9764784574508667, 0.1571592092514038, 0.46414539217948914, -0.09419503808021545, -0.24333573877811432, -0.11805762350559235, 0.25798147916793823, -0.1133107990026474, 0.23575472831726074, 0.35289308428764343, -0.19709984958171844], [0.2605223059654236, 0.024480823427438736, -0.5403594970703125, -0.11089486628770828, 0.20766405761241913, 0.2652110159397125, 0.24904079735279083, 0.036996401846408844, 0.1598844677209854, -0.04249253496527672, 0.3907589614391327, 0.18731072545051575, -0.060424208641052246, -0.0033364056143909693, 0.2166469693183899, 0.5459930300712585, 0.15812274813652039, 0.049246519804000854, 0.35569533705711365, -0.7085448503494263, 0.06548192352056503, 0.12355177104473114, 0.08166714012622833, 0.024621497839689255, 0.5287694931030273, 0.2088240087032318, 0.21392658352851868, 0.9916554689407349, 0.10967393964529037, 0.024501077830791473, 0.5035549402236938, 0.22741910815238953], [-0.19280296564102173, 0.6109969019889832, 0.32998666167259216, -0.24080289900302887, 0.7672566771507263, -0.47203928232192993, 0.10064303129911423, 0.28391942381858826, 0.1741296947002411, -0.7320875525474548, -0.6434832215309143, 0.07806912809610367, -0.09010860323905945, -0.01654272899031639, -0.10390528291463852, -0.3986189365386963, -0.07308801263570786, 0.046823274344205856, -0.006356695666909218, -0.33462655544281006, -0.31896087527275085, 0.6625505685806274, 0.00842241570353508, 0.9192764759063721, 0.8731881380081177, -0.2620711624622345, 0.6712921261787415, -0.2669612467288971, 0.0008398779900744557, -0.19486366212368011, 0.06814286857843399, 0.12696729600429535], [0.17537151277065277, 0.3945695459842682, 0.6440020799636841, 0.7895870804786682, 0.34283068776130676, 0.2616864740848541, -0.18656045198440552, -0.24782045185565948, 0.7316598892211914, -0.4804903566837311, 0.30330890417099, -0.18435736000537872, -0.2796570360660553, -0.0017249316442757845, 0.4430966079235077, 0.09759014844894409, 0.21236459910869598, -0.15048015117645264, -0.22642956674098969, -0.466905802488327, -0.03413331136107445, 0.4235948920249939, 0.7435937523841858, 0.4741364121437073, -0.38070157170295715, -0.6278321743011475, 0.22301439940929413, 0.5471023917198181, -0.2701420783996582, -0.11671918630599976, 0.19471560418605804, 0.453853964805603], [0.17508596181869507, 0.34181734919548035, 0.18235984444618225, 0.2823156714439392, 0.08763252198696136, 0.5685980319976807, 0.18182168900966644, 0.5919687151908875, 0.7420942783355713, -0.5433585047721863, 0.593663215637207, 0.39566928148269653, -0.3268936574459076, 0.16078618168830872, 0.21269777417182922, 0.01189864706248045, 0.21060436964035034, -0.512945294380188, 0.7356140613555908, 0.3561387062072754, -0.3027620315551758, 0.06333814561367035, 0.11005628854036331, 0.6887624859809875, 0.13468711078166962, 0.5503241419792175, -0.3821330964565277, 0.1965576708316803, 0.01742507517337799, 0.30863088369369507, 0.2274240106344223, -0.1283869445323944], [0.25760820508003235, 0.5925061702728271, -0.5015729069709778, -0.00014874551561661065, 0.3797808289527893, 1.0105012655258179, 0.034679193049669266, 0.7213170528411865, 1.0517008304595947, -0.29686182737350464, 0.034558601677417755, 0.48867374658584595, 0.44994252920150757, -0.05361294001340866, -0.3699551224708557, 0.20773917436599731, 0.020747091621160507, -0.4727907180786133, -0.32170867919921875, -0.14066557586193085, 0.1449761539697647, 0.6250528693199158, -0.694263219833374, 0.287106990814209, -0.2673576772212982, -0.07189100980758667, -0.2210691273212433, 0.16563090682029724, 0.005736680701375008, 0.04189049452543259, 0.015130389481782913, -0.4655420482158661], [0.2632902264595032, 0.20229987800121307, 0.22886933386325836, -0.22446192800998688, 0.3560204803943634, 0.42011868953704834, 0.47387588024139404, 0.16441363096237183, 0.6500434279441833, 0.48111099004745483, 0.13003964722156525, 0.3276454210281372, 0.45143911242485046, 0.08093605935573578, 0.049228351563215256, -0.441897451877594, -0.23701007664203644, 0.28890344500541687, -0.1112309917807579, 0.6041640043258667, -0.18436671793460846, 0.38394975662231445, 0.3252853751182556, 0.6262120008468628, -0.12971486151218414, 0.5780293345451355, 0.3091784417629242, -0.08300015330314636, 0.4053230881690979, -0.17238344252109528, 0.45173999667167664, 0.03875379636883736]]}, "ig": {"kernel": [[0.707849383354187, 0.7051851153373718, 0.24731294810771942, 0.028443075716495514, -0.4140577018260956, 0.1863815188407898, 0.027752019464969635, -0.5280314683914185, -0.2167174518108368, -0.15319430828094482, -0.3017410635948181, 0.23094378411769867, -0.2962980270385742, -0.007794708479195833, -0.19010215997695923, 0.17353244125843048, 0.4884359836578369, -0.19280283153057098, 0.5049706101417542, 0.5768023729324341, 0.5174930691719055, -0.43728652596473694, -0.19840030372142792, -0.26069045066833496, 0.07110545039176941, -0.06279176473617554, -0.07361115515232086, 0.6867877244949341, -0.030186789110302925, -0.049545567482709885, -0.8278264999389648, 0.3595235049724579], [0.33300668001174927, 0.5386695265769958, 0.4286787509918213, 0.5001579523086548, -0.1629706174135208, -0.5151342749595642, -0.16458140313625336, 0.2824915945529938, 0.007073872722685337, 0.5210008025169373, -0.03592241182923317, 0.37165936827659607, -0.7054256200790405, -0.4361530542373657, 0.38014063239097595, -0.5801405310630798, 0.025116346776485443, -0.02260948158800602, -0.17313216626644135, -0.258803129196167, -0.6252187490463257, 0.1374903917312622, -0.5608125329017639, 0.0029332905542105436, 0.3386220932006836, -0.1658177673816681, 0.5308478474617004, -0.12866029143333435, -0.3791334927082062, -0.5098951458930969, -0.22812993824481964, -0.04282073676586151], [0.4374806880950928, -0.3213469684123993, 0.8036048412322998, 0.22302445769309998, -0.46505311131477356, 0.7140665650367737, -0.28444087505340576, 0.15764546394348145, 0.2653672695159912, -0.09450845420360565, 0.28497958183288574, 0.7629944086074829, -0.12633424997329712, 0.8051873445510864, 0.17260506749153137, -0.2079044133424759, -0.3557322323322296, 0.7456173300743103, 0.21985377371311188, -0.1581820696592331, 0.30134499073028564, -0.23812521994113922, -0.7221481204032898, -0.4312411844730377, 0.0806545689702034, -0.15837362408638, 0.022898701950907707, -0.33450716733932495, -0.38499191403388977, -0.5271252989768982, -0.6219688653945923, -0.1668437123298645], [-0.29381152987480164, 0.2825463116168976, 0.2410772293806076, -0.5413459539413452, -0.5943111181259155, 0.22363199293613434, -0.7669156789779663, -0.6979119777679443, 0.27525630593299866, -0.2014065980911255, -0.07794992625713348, 0.16955776512622833, 0.6507436633110046, 0.2219323217868805, -0.3998783528804779, 0.2440311163663864, -0.25792449712753296, 0.4432174563407898, 0.20086818933486938, -0.5183284878730774, -0.3715035617351532, -0.1495322585105896, -0.3726145029067993, 0.28143972158432007, 0.8470005393028259, -0.13958989083766937, -0.5321437120437622, 0.3532049357891083, -0.7337768077850342, 0.33841055631637573, -0.3766826093196869, -0.04502256214618683], [0.28234174847602844, 0.02355150878429413, -0.07649701833724976, 0.008891484700143337, -0.273898184299469, 0.6238680481910706, -0.28192266821861267, -0.27525925636291504, 0.5466062426567078, -0.04531969502568245, -0.22690600156784058, 0.6114333868026733, -0.2947311997413635, -0.23653137683868408, 0.01584477908909321, 0.07042836397886276, 0.21095715463161469, -0.3007621765136719, 0.33597543835639954, 