{"model": "GRU", "benchmark": "EMPS", "meta": {"LR": 0.001, "n_re": 10, "n_hs": [2, 4, 8, 16, 32], "n_look": [2, 4, 8, 16, 32], "n_opt": 10000, "batch_len": 2000}, "nh_xval": 4, "look_xval": 32, "theta": {"params": {"Dense_0": {"bias": [0.027011660858988762], "kernel": [[-1.0034617185592651], [1.0357986688613892], [-0.3893668055534363], [1.0680404901504517]]}, "GRUCell_0": {"hn": {"bias": [-0.13083113729953766, -0.3108963668346405, -0.38794180750846863, -0.23625856637954712], "kernel": [[0.8973060250282288, 1.1350280046463013, -0.2394101917743683, -2.411647319793701], [-0.0211624838411808, -0.48482924699783325, -0.6696605682373047, 0.32173922657966614], [-1.431599736213684, -0.5582707524299622, 0.24710915982723236, 0.04922298341989517], [0.08248873800039291, -0.13701018691062927, -0.2699090242385864, 1.090146780014038]]}, "hr": {"kernel": [[1.127248764038086, -1.4978972673416138, -0.768125593662262, 1.8721661567687988], [-0.9955936074256897, 0.1214962974190712, -0.15342505276203156, -1.8222124576568604], [-1.2065303325653076, -0.25357234477996826, -0.7717314958572388, 0.8121343851089478], [-1.9559059143066406, -0.24214918911457062, -0.11678848415613174, -0.9036316275596619]]}, "hz": {"kernel": [[-2.062844753265381, 2.753004312515259, 3.0181710720062256, 0.24260103702545166], [4.4205803871154785, -0.6072059273719788, 1.3406314849853516, 3.6705944538116455], [-2.7525806427001953, 2.233153820037842, -0.35308966040611267, -0.7369009256362915], [-0.9960920810699463, 0.9875356554985046, -1.2243258953094482, -0.04166707769036293]]}, "in": {"bias": [-0.1982051134109497, -0.19495050609111786, 0.08195268362760544, 0.3813866376876831], "kernel": [[-0.11065071821212769, -0.20998965203762054, -0.4953150451183319, -0.308311402797699], [-0.2913944721221924, 0.1406702995300293, -0.3426029086112976, -0.32210659980773926], [-0.20129023492336273, 0.2616397440433502, 0.02699805051088333, -0.3094678819179535], [0.1258198469877243, 0.35345008969306946, -0.18208470940589905, -0.05098238214850426], [0.01991126872599125, 0.24266265332698822, 0.163145512342453, 0.035418178886175156], [0.028166742995381355, 0.2401350736618042, -0.5888453722000122, 0.042629439383745193], [-0.004871004726737738, 0.2714439928531647, 0.02851768583059311, 0.019829140976071358], [-0.03357364237308502, 0.44603434205055237, -0.3374341130256653, -0.28622913360595703], [-0.1829928308725357, 0.4575011730194092, -0.32393428683280945, -0.055758170783519745], [-0.31673428416252136, 0.14556890726089478, -0.32702574133872986, -0.006785714998841286], [-0.23000939190387726, 0.6508615016937256, -0.1570339798927307, 0.060675762593746185], [-0.04089684784412384, 0.4433990716934204, 0.037411805242300034, 0.30810216069221497], [0.016637951135635376, 0.33627814054489136, 0.0665816217660904, 0.09767623245716095], [-0.03385761007666588, 0.4335855543613434, -0.20296849310398102, 0.26290321350097656], [0.1329854130744934, 0.4227827489376068, -0.08982060849666595, -0.10145261138677597], [0.2696058452129364, 0.32370197772979736, -0.16278532147407532, 0.16074830293655396], [0.2958921492099762, 0.10626789182424545, -0.14452660083770752, 0.14866682887077332], [0.09292317926883698, 0.2921884059906006, 0.02849913388490677, 0.17201808094978333], [0.11032691597938538, 0.4941103756427765, 0.2005816400051117, 0.12571308016777039], [0.246658593416214, 0.16989515721797943, -0.01701711304485798, -0.016822561621665955], [-0.04106120392680168, 0.5836294293403625, -0.07966285943984985, -0.006623477209359407], [0.024595944210886955, 0.08952008187770844, 0.22519294917583466, 0.26539647579193115], [0.3160648047924042, 0.17739786207675934, -0.3017071485519409, 0.002089858753606677], [0.31229454278945923, 0.303140789270401, 0.2754673957824707, -0.017910128459334373], [0.21833902597427368, 0.289058119058609, -0.04389911890029907, 0.09774581342935562], [0.42581483721733093, 0.25208958983421326, 0.13800080120563507, -0.13217534124851227], [0.07565189898014069, 0.34884655475616455, 0.34950679540634155, -0.02940736711025238], [-0.05280613154172897, 0.5141123533248901, 0.33209875226020813, 0.12566126883029938], [-0.22945280373096466, 0.5860542058944702, 0.4175543487071991, -0.1297561675310135], [0.21083198487758636, 0.22514843940734863, 0.3231416344642639, -0.019694186747074127], [-0.2087581306695938, 0.3951410949230194, 0.030588962137699127, -0.017412323504686356], [-0.3859105706214905, 0.380377858877182, 0.02280936762690544, 0.05033309757709503]]}, "ir": {"bias": [0.283943772315979, 0.4558521509170532, 0.06827161461114883, 0.14379259943962097], "kernel": [[0.44074547290802, 0.08702370524406433, -0.07308544963598251, 0.260497123003006], [0.33167892694473267, 0.06698602437973022, 0.04142884165048599, 0.4721068739891052], [0.2908608019351959, 0.4504384994506836, 0.3105730414390564, 0.2172958105802536], [0.370439738035202, 0.30931127071380615, 0.24504536390304565, 0.031985875219106674], [0.5582996010780334, 0.24346943199634552, 0.1799551248550415, 0.016375483945012093], [0.35798758268356323, 0.20362506806850433, -0.1272864043712616, 0.43471917510032654], [0.4695451855659485, 0.020466037094593048, -0.011742493137717247, 0.11409377306699753], [0.07717081159353256, -0.04318630322813988, -0.26421985030174255, -0.05768526345491409], [0.4526541531085968, 0.26553815603256226, -0.27505961060523987, -0.0352182574570179], [0.44775858521461487, 0.4110379219055176, -0.09037595987319946, -0.007689324207603931], [0.33610042929649353, 0.10283056646585464, -0.20730479061603546, 0.1771550327539444], [0.321672648191452, -0.03539157286286354, -0.190944641828537, 0.02181362360715866], [0.1990327090024948, 0.229165181517601, -0.10886845737695694, 0.2218751162290573], [0.19445976614952087, -0.3491104245185852, -0.060422562062740326, 0.03438054770231247], [0.24854566156864166, 0.28741466999053955, -0.36306312680244446, -0.10674125701189041], [0.5266688466072083, -0.055415116250514984, -0.2799642086029053, 0.030805693939328194], [0.319507896900177, -0.14359281957149506, -0.39707958698272705, 0.0595901682972908], [0.20840150117874146, -0.45503729581832886, -0.5091343522071838, -0.37377235293388367], [0.3805367052555084, 0.018673846498131752, -0.6995660066604614, -0.24508905410766602], [0.2610666751861572, -0.10751187801361084, -0.8000235557556152, 0.28998810052871704], [0.29013150930404663, 0.11283831298351288, -0.6772171854972839, 0.0603162907063961], [-0.0073235961608588696, 0.029385508969426155, -0.16046403348445892, -0.17982544004917145], [-0.009625430218875408, 0.031395088881254196, -0.17038919031620026, -0.14304368197917938], [0.23196478188037872, -0.2398570030927658, -0.6622163653373718, -0.25768131017684937], [-0.28738147020339966, -0.005575424991548061, -0.5098732113838196, 0.049805495887994766], [0.003483581356704235, -0.20034357905387878, -0.330804705619812, -0.016775403171777725], [-0.1945323348045349, 0.07786024361848831, -0.5741820931434631, -0.047878824174404144], [-0.062394652515649796, 0.11991912126541138, -0.29289719462394714, 0.18574944138526917], [-0.6284392476081848, -0.16862717270851135, -0.24034303426742554, 0.07758288085460663], [-0.522295355796814, 0.21310992538928986, -0.648125946521759, -0.366627037525177], [-0.272836297750473, -0.06671439856290817, -0.3827166259288788, 0.2230924814939499], [-0.5397149324417114, -0.1296510547399521, -0.6831526756286621, -0.22696863114833832]]}, "iz": {"bias": [-0.2615624666213989, 2.2448413372039795, 0.4894244372844696, -0.4560396075248718], "kernel": [[-2.9494240283966064, 0.21945062279701233, 0.3303926885128021, -0.9949651956558228], [-2.639885663986206, -0.05530679598450661, -0.06078620254993439, -1.0222464799880981], [-2.6520791053771973, 0.20524346828460693, -0.11268837749958038, -0.755085289478302], [-2.481395721435547, 0.02584097720682621, -0.004275212064385414, -0.6532925367355347], [-2.040365695953369, -0.2912859320640564, -0.017864156514406204, -0.6548668742179871], [-1.9442064762115479, 0.02360471524298191, -0.3249720335006714, -0.318954735994339], [-1.6639403104782104, 0.06764828413724899, -0.3459581732749939, -0.4937646985054016], [-1.5366863012313843, -0.2683117985725403, -0.0019114477327093482, -0.07281975448131561], [-0.9178131818771362, 0.08140086382627487, -0.4431088864803314, -0.056315891444683075], [0.004282889887690544, -0.288019061088562, -0.32850173115730286, -0.26419302821159363], [0.5965245366096497, -0.371459424495697, -0.0781155526638031, 0.11480161547660828], [1.1761329174041748, -0.4490451216697693, 0.08342958241701126, -0.06879259645938873], [2.0148653984069824, -0.188216894865036, -0.2783735394477844, 0.05955653265118599], [1.9967443943023682, -0.14859642088413239, -0.4888893663883209, 0.3128848969936371], [2.3805832862854004, -0.3439345955848694, -0.09198585152626038, -0.10722006857395172], [2.258404493331909, -0.1347261518239975, 0.17060042917728424, 0.19094587862491608], [2.134161949157715, -0.10803596675395966, -0.43291744589805603, 0.2723854184150696], [2.4133644104003906, 0.07653077691793442, -0.18800927698612213, 0.5330182313919067], [2.227224588394165, -0.17457999289035797, 0.11764317005872726, 0.4292997717857361], [2.091120719909668, 0.08033861964941025, 0.07328189164400101, 0.17785929143428802], [1.623360514640808, 0.47047871351242065, 0.1507866531610489, 0.5651702880859375], [1.7635835409164429, 0.5444982051849365, 0.332307904958725, 0.11479191482067108], [1.2551511526107788, 0.36570826172828674, 0.19411741197109222, 0.44457995891571045], [0.9662620425224304, 0.23647361993789673, 0.4460020661354065, 0.48587092757225037], [0.501307487487793, 0.7544489502906799, 0.6020647883415222, 0.2802196741104126], [0.4177383780479431, 0.5543003678321838, 0.5580292344093323, 0.8657539486885071], [-0.020098824054002762, 0.7878168225288391, 0.5657086968421936, 0.7921046018600464], [0.2575497627258301, 0.8848799467086792, 0.5971544981002808, 0.8017217516899109], [-0.2823559641838074, 0.7631733417510986, 0.5962953567504883, 0.8523616790771484], [0.013724773190915585, 0.782045841217041, 0.5154748558998108, 0.7884268760681152], [-0.13306854665279388, 1.050233006477356, 0.609835684299469, 1.0657941102981567], [-0.044635407626628876, 1.1608669757843018, 0.7571306228637695, 1.1762343645095825]]}}}}, "test_1": {"yhat": [0.011305158957839012, 0.015577045269310474, 0.01951540634036064, 0.023170892149209976, 0.02658817172050476, 0.029809078201651573, 0.03286265954375267, 0.03577713295817375, 0.03857126459479332, 0.041258569806814194, 0.04384080693125725, 0.04632020741701126, 0.04869337007403374, 0.05094768479466438, 0.05306876450777054, 0.05504608526825905, 0.05687092989683151, 0.058536652475595474, 0.06003908812999725, 0.061380960047245026, 0.06256426870822906, 0.06359635293483734, 0.06448870152235031, 0.06525609642267227, 0.065913625061512, 0.06647855043411255, 0.06696771085262299, 0.06739390641450882, 0.06776885688304901, 0.06810400635004044, 0.06841235607862473, 0.06870347261428833, 0.06898709386587143, 0.06926847249269485, 0.06955856084823608, 0.06986337155103683, 0.07018574327230453, 0.07052874565124512, 0.07089594006538391, 0.07129685580730438, 0.07173844426870346, 0.07222159951925278, 0.07273738831281662, 0.07328428328037262, 0.07380194216966629, 0.07424460351467133, 0.07454407960176468, 0.07464450597763062, 0.07450954616069794, 0.07411351054906845, 0.07348278164863586, 0.07264748215675354, 0.07170459628105164, 0.07071661204099655, 0.06973744928836823, 0.06884144991636276, 0.06806445866823196, 0.06743219494819641, 0.06693068891763687, 0.06655754894018173, 0.0663013905286789, 0.06615088135004044, 0.06609292328357697, 0.06608980894088745, 0.06610780954360962, 0.06613580137491226, 0.06617042422294617, 0.06620171666145325, 0.06621956080198288, 0.06620888411998749, 0.06616814434528351, 0.06609538197517395, 0.06598608195781708, 0.06584096699953079, 0.06565463542938232, 0.06543024629354477, 0.06516686081886292, 0.06486067175865173, 0.06451568007469177, 0.06413044035434723, 0.06370799988508224, 0.0632496178150177, 0.06275005638599396, 0.062215231359004974, 0.06164667010307312, 0.06104549765586853, 0.06041122227907181, 0.059746671468019485, 0.05905758962035179, 0.05835092440247536, 0.057626765221357346, 0.056880515068769455, 0.056119438260793686, 0.055346135050058365, 0.05456987023353577, 0.053803861141204834, 0.0530456081032753, 0.05229625105857849, 0.051562242209911346, 0.05084093287587166, 0.05013880133628845, 0.04946904256939888, 0.04882564768195152, 0.048211757093667984, 0.04762644320726395, 0.04707283154129982, 0.04654865711927414, 0.04604659229516983, 0.04556562379002571, 0.04510292410850525, 0.04465882480144501, 0.04422860965132713, 0.04380780830979347, 0.0433928444981575, 0.04298479110002518, 0.042578261345624924, 0.04216580092906952, 0.04174638167023659, 0.0413140170276165, 0.04087457433342934, 0.04042338207364082, 0.03995814919471741, 0.039473459124565125, 0.03897871449589729, 0.0384763740003109, 0.037958260625600815, 0.0374319851398468, 0.036892976611852646, 0.036348000168800354, 0.03579936549067497, 0.03524705022573471, 0.0346948467195034, 0.03414369001984596, 0.033596571534872055, 0.033049892634153366, 0.03250385820865631, 0.03195797652006149, 0.031419456005096436, 0.030886949971318245, 0.030360236763954163, 0.02983909100294113, 0.029324209317564964, 0.028822576627135277, 0.0283314548432827, 0.02785072661936283, 0.027379430830478668, 0.02692503109574318, 0.026487648487091064, 0.02606995590031147, 0.025668710470199585, 0.025282174348831177, 0.024914078414440155, 0.024564385414123535, 0.024235520511865616, 0.023923663422465324, 0.02363196760416031, 0.02335907146334648, 0.02310607209801674, 0.022871118038892746, 0.02265099808573723, 0.022448832169175148, 0.02226066030561924, 0.02208632230758667, 0.021921789273619652, 0.021770615130662918, 0.021631324663758278, 0.021502185612916946, 0.021382298320531845, 0.02126912958920002, 0.021164963021874428, 0.021066686138510704, 0.02097455784678459, 0.020882850512862206, 0.020792944356799126, 0.02070581167936325, 0.0206180177628994, 0.020529072731733322, 0.020433973520994186, 0.02033362165093422, 0.02022670954465866, 0.0201133843511343, 0.019991153851151466, 0.019862769171595573, 0.01973016746342182, 0.01959039270877838, 0.019445227459073067, 0.019294768571853638, 0.019145626574754715, 0.01899794675409794, 0.018853919580578804, 0.018711967393755913, 0.018574636429548264, 0.01844583824276924, 0.018322644755244255, 0.018208231776952744, 0.018101191148161888, 0.01800462417304516, 0.017917020246386528, 0.01783805713057518, 0.017766354605555534, 0.01770178973674774, 0.017648277804255486, 0.01760193333029747, 0.017562150955200195, 0.017528029158711433, 0.01750272326171398, 0.01748720183968544, 0.01747933030128479, 0.017477603629231453, 0.017481327056884766, 0.017494745552539825, 0.017516205087304115, 0.017545297741889954, 0.017583167180418968, 0.017629573121666908, 0.017686674371361732, 0.017753422260284424, 0.01782851107418537, 0.017909899353981018, 0.018000014126300812, 0.018098941072821617, 0.018205201253294945, 0.01831723377108574, 0.01843525655567646, 0.018560631200671196, 0.018691327422857285, 0.018825581297278404, 0.018961701542139053, 0.019099287688732147, 0.01923915557563305, 0.01938055455684662, 0.019522957503795624, 0.019664183259010315, 0.019805967807769775, 0.019946739077568054, 0.020086992532014847, 0.02022390440106392, 0.020357070490717888, 0.020489491522312164, 0.020620638504624367, 0.020749013870954514, 0.020874110981822014, 0.020997103303670883, 0.02111927792429924, 0.02124168537557125, 0.021364787593483925, 0.021489236503839493, 0.02161586843430996, 0.021744100376963615, 0.02187570370733738, 0.022008949890732765, 0.02214464172720909, 0.02228398062288761, 0.02242707461118698, 0.022572554647922516, 0.02271907590329647, 0.022867590188980103, 0.02301824279129505, 0.02317359857261181, 0.02333206869661808, 0.023494470864534378, 0.023660680279135704, 0.023828687146306038, 0.02400096505880356, 0.024176981300115585, 0.02435833029448986, 0.0245443694293499, 0.024734580889344215, 0.024928202852606773, 0.025124525651335716, 0.02532597817480564, 0.025532005354762077, 0.025744125247001648, 0.02595979906618595, 0.026179596781730652, 0.026402916759252548, 0.026628470048308372, 0.02685784362256527, 0.027090195566415787, 0.027325408533215523, 0.027562256902456284, 0.02780027873814106, 0.028039559721946716, 0.028280144557356834, 0.028522085398435593, 0.028765182942152023, 0.0290101058781147, 0.02925528958439827, 0.029500385746359825, 0.02974480763077736, 0.029988542199134827, 0.030231516808271408, 0.03047357313334942, 0.030714435502886772, 0.030952157452702522, 0.031186750158667564, 0.03141845390200615, 0.03164776414632797, 0.0318753607571125, 0.032100800424814224, 0.03232423588633537, 0.03254589065909386, 0.03276549279689789, 0.032984670251607895, 0.033204302191734314, 0.03342520073056221, 0.03364736586809158, 0.03386995941400528, 0.03409416228532791, 0.03432054445147514, 0.03454985469579697, 0.03478245064616203, 0.03501647338271141, 0.034437693655490875, 0.03174809366464615, 0.02516142465174198, 0.009304085746407509, -0.01530117355287075, -0.04383945092558861, -0.06769317388534546, -0.0829143151640892, -0.08859379589557648, -0.08964382112026215, -0.09027159959077835, -0.09076327085494995, -0.09095612168312073, -0.090828537940979, -0.09060603380203247, -0.09031111001968384, -0.08998667448759079, -0.08968690782785416, -0.08941619843244553, -0.0892246812582016, -0.0891181156039238, -0.08906207233667374, -0.08901850134134293, -0.0889897271990776, -0.08897711336612701, -0.08897842466831207, -0.08898980915546417, -0.08900687843561172, -0.08902952820062637, -0.08905893564224243, -0.08910544961690903, -0.08913581818342209, -0.08911138772964478, -0.08882346749305725, -0.08786211907863617, -0.08569815754890442, -0.08208483457565308, -0.07756398618221283, -0.0730557069182396, -0.06973055750131607, -0.06822201609611511, -0.06887143105268478, -0.07135359197854996, -0.07508757710456848, -0.07936237752437592, -0.08346272259950638, -0.08691099286079407, -0.08943361043930054, -0.09101875126361847, -0.09177807718515396, -0.09190279245376587, -0.09159571677446365, -0.09102775156497955, -0.09034125506877899, -0.08963236212730408, -0.08896411955356598, -0.08837052434682846, -0.0878632441163063, -0.0874437540769577, -0.08710287511348724, -0.08683101832866669, -0.08661556988954544, -0.08644610643386841, -0.08631245791912079, -0.08620601147413254, -0.08612020313739777, -0.08604959398508072, -0.08599067479372025, -0.08593995124101639, -0.08589550852775574, -0.0858553871512413, -0.08581826835870743, -0.08578302711248398, -0.08574920147657394, -0.08571642637252808, -0.08568476885557175, -0.08565544337034225, -0.08562988042831421, -0.08561036735773087, -0.08559886366128922, -0.08559706062078476, -0.08560395240783691, -0.08561844378709793, -0.08563584089279175, -0.08565106242895126, -0.08565311133861542, -0.08563640713691711, -0.08558869361877441, -0.08549971878528595, -0.08535850793123245, -0.08515095710754395, -0.08486941456794739, -0.08450113981962204, -0.08405647426843643, -0.08356175571680069, -0.08306004852056503, -0.08260360360145569, -0.08224323391914368, -0.08203665912151337, -0.08203540742397308, -0.08230659365653992, -0.08292658627033234, -0.08400148898363113, -0.08562631905078888, -0.08789167553186417, -0.09070633351802826, -0.09361922740936279, -0.09566760808229446, -0.0959642231464386, -0.09428220242261887, -0.0910271555185318, -0.0870046615600586, -0.0827532708644867, -0.07901349663734436, -0.07605423033237457, -0.07438661903142929, -0.07399594038724899, -0.0746007040143013, -0.07553455978631973, -0.07621528208255768, -0.0764176994562149, -0.07616186141967773, -0.07560519129037857, -0.07490179687738419, -0.07417086511850357, -0.07348821312189102, -0.0728907510638237, -0.07239246368408203, -0.07199019193649292, -0.07167427241802216, -0.07142995297908783, -0.0712428167462349, -0.07110027223825455, -0.07099168747663498, -0.07090871781110764, -0.0708448514342308, -0.07079537212848663, -0.07075652480125427, -0.07072561979293823, -0.07070065289735794, -0.07068006694316864, -0.07066281884908676, -0.07064800709486008, -0.07063496857881546, -0.07062314450740814, -0.07061219215393066, -0.07060178369283676, -0.07059161365032196, -0.07058149576187134, -0.07057122886180878, -0.07056061923503876, -0.07054956257343292, -0.07053787261247635, -0.07052535563707352, -0.07051195949316025, -0.07049747556447983, -0.0704817995429039, -0.07046481221914291, -0.07044636458158493, -0.0704263374209404, -0.07040468603372574, -0.07038130611181259, -0.07035619020462036, -0.07032940536737442, -0.07030090689659119, -0.07027086615562439, -0.07023929804563522, -0.0702064111828804, -0.07017231732606888, -0.07013724744319916, -0.07010137289762497, -0.07006484270095825, -0.07002796977758408, -0.06999088823795319, -0.06995393335819244, -0.06991712003946304, -0.0698806568980217, -0.06984464824199677, -0.0698092058300972, -0.06977436691522598, -0.06974024325609207, -0.06970684230327606, -0.06967415660619736, -0.06964235007762909, -0.0696113184094429, -0.06958109885454178, -0.06955166906118393, -0.06952298432588577, -0.06949501484632492, -0.06946771591901779, -0.06944112479686737, -0.06941515952348709, -0.06938977539539337, -0.06936486065387726, -0.0693402960896492, -0.06931599974632263, -0.06929196417331696, -0.06926818192005157, -0.06924469023942947, -0.06922151148319244, -0.06919879466295242, -0.06917675584554672, -0.06915551424026489, -0.06913526356220245, -0.06911616772413254, -0.06909826397895813, -0.06908173114061356, -0.0690665915608406, -0.06905286014080048, -0.06904048472642899, -0.06902938336133957, -0.06901945173740387, -0.06901053339242935, -0.06900249421596527, -0.06899519264698029, -0.06898851692676544, -0.0689823105931282, -0.06897638738155365, -0.06897056847810745, -0.06896466016769409, -0.06895837932825089, -0.06895148754119873, -0.06894364953041077, -0.06893450021743774, -0.06892362236976624, -0.06891053915023804, -0.06889484077692032, -0.06887587904930115, -0.06885300576686859, -0.06882543861865997, -0.06879251450300217, -0.0687532052397728, -0.06870655715465546, -0.06865156441926956, -0.0685870572924614, -0.06851210445165634, -0.06842595338821411, -0.06832824647426605, -0.06821908801794052, -0.06809909641742706, -0.06796900182962418, -0.06782983988523483, -0.0676831379532814, -0.06753092259168625, -0.06737535446882248, -0.06721802800893784, -0.06706095486879349, -0.06690586358308792, -0.06675441563129425, -0.06660767644643784, -0.0664665549993515, -0.06633177399635315, -0.06620357185602188, -0.0660821944475174, -0.06596750020980835, -0.06585950404405594, -0.06575751304626465, -0.06566111743450165, -0.06557006388902664, -0.06548382341861725, -0.06540181487798691, -0.06532362848520279, -0.06524877995252609, -0.0651768371462822, -0.06510746479034424, -0.06503996253013611, -0.06497420370578766, -0.06490981578826904, -0.06484633684158325, -0.06478335708379745, -0.06472057849168777, -0.06465756148099899, -0.06459414958953857, -0.0645301416516304, -0.06446509808301926, -0.06439904868602753, -0.06433185189962387, -0.06426364183425903, -0.06419425457715988, -0.06412357836961746, -0.06405172497034073, -0.0639788880944252, -0.0639052465558052, -0.06383074820041656, -0.06375575810670853, -0.06368027627468109, -0.0636044293642044, -0.06352853775024414, -0.06345265358686447, -0.06337696313858032, -0.0633014664053917, -0.06322617083787918, -0.06315141171216965, -0.06307732313871384, -0.06300392746925354, -0.0629313662648201, -0.06285946071147919, -0.06278800219297409, -0.06271684914827347, -0.06264596432447433, -0.06257536262273788, -0.06250482052564621, -0.06243420019745827, -0.062363430857658386, -0.062292538583278656, -0.062221772968769073, -0.06215113028883934, -0.06208062916994095, -0.0620100237429142, -0.06193948909640312, -0.06186932325363159, -0.06179951876401901, -0.06173015385866165, -0.06166134774684906, -0.06159321963787079, -0.061525728553533554, -0.061458759009838104, -0.06139252334833145, -0.061327144503593445, -0.061262186616659164, -0.06119776517152786, -0.06113392114639282, -0.061070822179317474, -0.061008352786302567, -0.0609465055167675, -0.060885313898324966, -0.06082455441355705, -0.06076403334736824, -0.060703713446855545, -0.060643572360277176, -0.06058325618505478, -0.06052262336015701, -0.06046146899461746, -0.06039982661604881, -0.06033772602677345, -0.06027524918317795, -0.06021232530474663, -0.0601489432156086, -0.06008535996079445, -0.06002161279320717, -0.05995781347155571, -0.05989394336938858, -0.059830326586961746, -0.05976713076233864, -0.0597042441368103, -0.05964183434844017, -0.05957987159490585, -0.059518471360206604, -0.05945773795247078, -0.05939765274524689, -0.0593382827937603, -0.05927957966923714, -0.05922158434987068, -0.059164468199014664, -0.05910811573266983, -0.059052322059869766, -0.058997172862291336, -0.05894226208329201, -0.0588875450193882, -0.05883295461535454, -0.05877810716629028, -0.05872312933206558, -0.058667879551649094, -0.05861228331923485, -0.05855627730488777, -0.058499790728092194, -0.05844298377633095, -0.05838591977953911, -0.05832861736416817, -0.05827098339796066, -0.05821319669485092, -0.058155301958322525, -0.05809755623340607, -0.05804001912474632, -0.057982757687568665, -0.05792570859193802, -0.05786909908056259, -0.057812951505184174, -0.05775724723935127, -0.05770203098654747, -0.0576472207903862, -0.05759284272789955, -0.057539019733667374, -0.057485729455947876, -0.057433001697063446, -0.05738081410527229, -0.05732904374599457, -0.05727764964103699, -0.05722639337182045, -0.05717509984970093, -0.0571238212287426, -0.057072389870882034, -0.057020626962184906, -0.05696845427155495, -0.05691589042544365, -0.05686313658952713, -0.05681014060974121, -0.056756842881441116, -0.05670332908630371, -0.056649576872587204, -0.05659579485654831, -0.0565420500934124, -0.056488387286663055, -0.05643497779965401, -0.05638182908296585, -0.05632906034588814, -0.05627667158842087, -0.0562247559428215, -0.056173402816057205, -0.05612265318632126, -0.05607256665825844, -0.05602305009961128, -0.055974144488573074, -0.05592598021030426, -0.05587839335203171, -0.05583132430911064, -0.0557846799492836, -0.05573824793100357, -0.05569205805659294, -0.055645957589149475, -0.055599700659513474, -0.055553410202264786, -0.05550675839185715, -0.05545986443758011, -0.05541269853711128, -0.05536504089832306, -0.05531696975231171, -0.05526842549443245, -0.05521954596042633, -0.055170200765132904, -0.055120546370744705, -0.055070910602808, -0.055021192878484726, -0.05497153475880623, -0.054922036826610565, -0.05487273260951042, -0.054823655635118484, -0.05477488040924072, -0.05472640320658684, -0.054678335785865784, -0.054630592465400696, -0.05458322912454605, -0.05453648045659065, -0.05449032038450241, -0.05444466322660446, -0.05439958721399307, -0.05435485020279884, -0.054310332983732224, -0.05426619201898575, -0.05422212928533554, -0.05417820066213608, -0.05413435399532318, -0.05409035086631775, -0.054046254605054855, -0.054001908749341965, -0.05395729839801788, -0.05391261354088783, -0.053867653012275696, -0.05382243171334267, -0.05377710983157158, -0.05373155698180199, -0.05368608981370926, -0.05364065244793892, -0.05359529331326485, -0.05355016887187958, -0.05350509658455849, -0.053460314869880676, -0.053415752947330475, -0.0533716194331646, -0.05332798510789871, -0.05328472703695297, -0.05324188992381096, -0.05319938063621521, -0.0531572550535202, -0.05311552435159683, -0.05307428911328316, -0.053033482283353806, -0.052992917597293854, -0.052952393889427185, -0.05291200801730156, -0.05287155881524086, -0.05283107981085777, -0.052790578454732895, -0.05274975299835205, -0.05270858854055405, -0.05266699939966202, -0.05262501537799835, -0.052582744508981705, -0.05254017189145088, -0.05249724164605141, -0.05245400592684746, -0.052410613745450974, -0.05236716940999031, -0.05232388153672218, -0.05228079855442047, -0.05223793908953667, -0.0521952286362648, -0.0521528497338295, -0.052110712975263596, -0.05206887423992157, -0.05203772708773613, -0.05201968178153038, -0.05199722945690155, -0.05199082940816879, -0.05198308452963829, -0.051987290382385254, -0.05198216438293457, -0.05197659507393837, -0.051963094621896744, -0.05195141211152077, -0.0519341416656971, -0.05193452909588814, -0.05194321274757385, -0.05210214853286743, -0.0533115491271019, -0.05882146954536438, -0.06823347508907318, -0.0752873420715332, -0.07191289216279984, -0.05085133761167526, -0.045487839728593826, -0.046466026455163956, -0.02739625982940197, 0.0002887762675527483, 0.014377249404788017, 0.021790293976664543, 0.02474595606327057, 0.027672313153743744, 0.0319620817899704, 0.03638685867190361, 0.042197778820991516, 0.04854170233011246, 0.0522976890206337, 0.05438237264752388, 0.055504411458969116, 0.05610780417919159, 0.05643194913864136, 0.05660557001829147, 0.056696027517318726, 0.05673991143703461, 0.05675801262259483, 0.05676154047250748, 0.056757040321826935, 0.05674811080098152, 0.05673687532544136, 0.05672435462474823, 0.05671137943863869, 0.05669834837317467, 0.05668562650680542, 0.05667351558804512, 0.05666234716773033, 0.0566527359187603, 0.05664515495300293, 0.05664052069187164, 0.05663985013961792, 0.05664476379752159, 0.0566568560898304, 0.05667845159769058, 0.05671212449669838, 0.056760523468256, 0.056826941668987274, 0.05691417306661606, 0.057025033980607986, 0.05716153606772423, 0.05732610821723938, 0.05751870945096016, 0.057739656418561935, 0.057987261563539505, 0.05825938284397125, 0.058553535491228104, 0.05886504054069519, 0.05918973311781883, 0.05952227860689163, 0.05985850840806961, 0.060192883014678955, 0.06052297726273537, 0.06084391847252846, 0.06115385890007019, 0.06145092099905014, 0.0617324523627758, 0.06199825182557106, 0.06224723905324936, 0.06248001381754875, 0.06269668787717819, 0.06289781630039215, 0.06308425962924957, 0.06325767189264297, 0.06341974437236786, 0.06357148289680481, 0.06371418386697769, 0.06384870409965515, 0.06397634744644165, 0.06409796327352524, 0.06421471387147903, 0.06432706862688065, 0.06443621963262558, 0.06454311311244965, 0.0646485760807991, 0.06475365161895752, 0.06485839188098907, 0.064964160323143, 0.0650710016489029, 0.06517947465181351, 0.06529026478528976, 0.06540381908416748, 0.06552062183618546, 0.06564111262559891, 0.06576573848724365, 0.06589454412460327, 0.06602772325277328, 0.06616470962762833, 0.0663054883480072, 0.06644926965236664, 0.0665958970785141, 0.06674481183290482, 0.06689593940973282, 0.06704897433519363, 0.06720343977212906, 0.0673598125576973, 0.06751682609319687, 0.06767450273036957, 0.06783262640237808, 0.0679900199174881, 0.06814676523208618, 0.06830251216888428, 0.0684569850564003, 0.06861037760972977, 0.06876246631145477, 0.0689132809638977, 0.06906326860189438, 0.06921177357435226, 0.06935948878526688, 0.06950647383928299, 0.06965270638465881, 0.06979843974113464, 0.06994383782148361, 0.07009003311395645, 0.07023633271455765, 0.0703829824924469, 0.0705302357673645, 0.07067763060331345, 0.07082541286945343, 0.07097283750772476, 0.07111970335245132, 0.07126618921756744, 0.07141245901584625, 0.07155797630548477, 0.0717034786939621, 0.07184822857379913, 0.07199250161647797, 0.07213642448186874, 0.0722794458270073, 0.07242182642221451, 0.07256325334310532, 0.07270392775535583, 0.07284387946128845, 0.0729837641119957, 0.07312338054180145, 0.07326295971870422, 0.07340242713689804, 0.07354189455509186, 0.07368152588605881, 0.07382109016180038, 0.07396113872528076, 0.07410167902708054, 0.07424328476190567, 0.07438577711582184, 0.07452977448701859, 0.07467548549175262, 0.07482235133647919, 0.07497028261423111, 0.07511881738901138, 0.0752677470445633, 0.07541710138320923, 0.07556628435850143, 0.0757146030664444, 0.07586273550987244, 0.07601040601730347, 0.07615778595209122, 0.07630502432584763, 0.07645129412412643, 0.07659696787595749, 0.0767415314912796, 0.07688485085964203, 0.07702718675136566, 0.07716867327690125, 0.07730912417173386, 0.0774490013718605, 0.07758871465921402, 0.07772830128669739, 0.0778680145740509, 0.07800779491662979, 0.0781480073928833, 0.0782882571220398, 0.07842923700809479, 0.07857082039117813, 0.07871358841657639, 0.07885807007551193, 0.07900389283895493, 0.07915140688419342, 0.07930037379264832, 0.07945038378238678, 0.07960128039121628, 0.0797526091337204, 0.07990381866693497, 0.08005503565073013, 0.0802059918642044, 0.08035643398761749, 0.08050636947154999, 0.08065576106309891, 0.08080464601516724, 0.08095262944698334, 0.08109968900680542, 0.08124548196792603, 0.08139016479253769, 0.0815340131521225, 0.08167672902345657, 0.08181864023208618, 0.08195971697568893, 0.0821002647280693, 0.08224044740200043, 0.0823805183172226, 0.08252044767141342, 0.08266034722328186, 0.08280032128095627, 0.08294094353914261, 0.08308231830596924, 0.08322471380233765, 0.08336826413869858, 0.08351251482963562, 0.0836578756570816, 0.08380366861820221, 0.08394981920719147, 0.08409621566534042, 0.08424203097820282, 0.08438773453235626, 0.08453299850225449, 0.08467768132686615, 0.08482198417186737, 0.08496575057506561, 0.08510901033878326, 0.08525170385837555, 0.08539334684610367, 0.08553410321474075, 0.08567381650209427, 0.08581239730119705, 0.08595063537359238, 0.08608797192573547, 0.08622514456510544, 0.08636241406202316, 0.08649949729442596, 0.08663666248321533, 0.08677390217781067, 0.08691158890724182, 0.0870501846075058, 0.08718957006931305, 0.08732984960079193, 0.08747164160013199, 0.08761481195688248, 0.08775969594717026, 0.08790583908557892, 0.08805283159017563, 0.08820061385631561, 0.08834867924451828, 0.08849705010652542, 0.08864524215459824, 0.08879294246435165, 0.08894064277410507, 0.08908803761005402, 0.08923487365245819, 0.0893813744187355, 0.08952703326940536, 0.08967176824808121, 0.08981549739837646, 0.08995788544416428, 0.09009916335344315, 0.09023931622505188, 0.09037850052118301, 0.0905173122882843, 0.09065548330545425, 0.09079327434301376, 0.09093104302883148, 0.09106894582509995, 0.09120688587427139, 0.09134529531002045, 0.09148430079221725, 0.091624416410923, 0.09176598489284515, 0.09190892428159714, 0.09205339848995209, 0.09219899773597717, 0.09234596788883209, 0.09249385446310043, 0.0926419049501419, 0.09279026091098785, 0.09293860197067261, 0.09308682382106781, 0.09323495626449585, 0.09338270127773285, 0.09353034943342209, 0.0936775654554367, 0.09382370859384537, 0.09396933019161224, 0.09411365538835526, 0.0942564308643341, 0.09439826756715775, 0.09453879296779633, 0.09467853605747223, 0.09481753408908844, 0.0949556827545166, 0.0950937271118164, 0.09523146599531174, 0.09536867588758469, 0.09550610184669495, 0.09564316272735596, 0.09578070044517517, 0.09591919928789139, 0.09605836868286133, 0.09619923681020737, 0.09634129703044891, 0.09648475050926208, 0.09662957489490509, 0.09677520394325256, 0.09692158550024033, 0.09706833958625793, 0.0972149446606636, 0.09736169874668121, 0.097508504986763, 0.09765506535768509, 0.09780167788267136, 0.09794773161411285, 0.09809338301420212, 0.0982382670044899, 0.09838173538446426, 0.09852425009012222, 0.09866524487733841, 0.09880491346120834, 0.09894336014986038, 0.09908043593168259, 0.0992167741060257, 0.09935253858566284, 0.09948756545782089, 0.09962240606546402, 0.09975697845220566, 0.09989138692617416, 0.10002639889717102, 0.10016166418790817, 0.10029780864715576, 0.10043501853942871, 0.10057349503040314, 0.10071349889039993, 0.10085437446832657, 0.10099601000547409, 0.10113845765590668, 0.1012813076376915, 0.10142447799444199, 0.10156776010990143, 0.10171109437942505, 0.10185464471578598, 0.10199789702892303, 0.10214103013277054, 0.10228393971920013, 0.10242609679698944, 0.10256732255220413, 0.10270756483078003, 0.10284677892923355, 0.10298509895801544, 0.10312274098396301, 0.10325972735881805, 0.10339590907096863, 0.10353150963783264, 0.10366673767566681, 0.1038014143705368, 0.10393604636192322, 0.10407072305679321, 0.1042054295539856, 0.10434071719646454, 0.10447689145803452, 0.10461457818746567, 0.10475341230630875, 0.10489237308502197, 0.10503096878528595, 0.1051679328083992, 0.10530143976211548, 0.10542932152748108, 0.10554949939250946, 0.10565962642431259, 0.10575725883245468, 0.10584084689617157, 0.10590894520282745, 0.1059601828455925, 0.10599388927221298, 0.10601001232862473, 0.10600930452346802, 0.10599298775196075, 0.10596225410699844, 0.10591906309127808, 0.1058659702539444, 0.1058049276471138, 0.10573837161064148, 0.10566834360361099, 0.10559593886137009, 0.1055220440030098, 0.10544757544994354, 0.10537302494049072, 0.10529859364032745, 0.10522447526454926, 0.10515085607767105, 0.10507835447788239, 0.1050073429942131, 0.10493841767311096, 0.10487280040979385, 0.10481196641921997, 0.1047578677535057, 0.10471361130475998, 0.10468368977308273, 0.10467352718114853, 0.10469028353691101, 0.10474279522895813, 0.1048402339220047, 0.10499343276023865, 0.10521338135004044, 0.10550729185342789, 0.10588247328996658, 0.1063445582985878, 0.10689230263233185, 0.10752381384372711, 0.10823149979114532, 0.10900460183620453, 0.10983078926801682, 0.11069383472204208, 0.11157861351966858, 0.11247022449970245, 0.11335349828004837, 0.11421440541744232, 0.11504390090703964, 0.11583705991506577, 0.11658774316310883, 0.11729248613119125, 0.11795266717672348, 0.11856836825609207, 0.11914162337779999, 0.11967496573925018, 0.12017059326171875, 0.12063285708427429, 0.1210644394159317, 0.12146958708763123, 0.12185186892747879, 0.12221401184797287, 0.12256020307540894, 0.12289275974035263, 0.12321429699659348, 0.12352776527404785, 0.12383446842432022, 0.12413693219423294, 0.12443718314170837, 0.12473583966493607, 0.1250356286764145, 0.1253383308649063, 0.12564390897750854, 0.12595370411872864, 0.12626776099205017, 0.12658683955669403, 0.12691178917884827, 0.1272420436143875, 0.1275782585144043, 0.1279202401638031, 0.12826751172542572, 0.1286204755306244, 0.12897923588752747, 0.12934225797653198, 0.12970878183841705, 0.1300780177116394, 0.1304500252008438, 0.13082385063171387, 0.13119852542877197, 0.1315733641386032, 0.13194982707500458, 0.13233202695846558, 0.13272425532341003, 0.13312992453575134, 0.13355135917663574, 0.1339869201183319, 0.13442426919937134, 0.13483022153377533, 0.13512946665287018, 0.135172039270401, 0.13467305898666382, 0.13315856456756592, 0.1299998015165329, 0.12467368692159653, 0.117591992020607, 0.11058279871940613, 0.10576160997152328, 0.1039896160364151, 0.10485763102769852, 0.10723219066858292, 0.1096704751253128, 0.1110590323805809, 0.11063601076602936, 0.11196006834506989, 0.13514705002307892, 0.1754392832517624, 0.19778583943843842, 0.19904068112373352, 0.15743055939674377, 0.08278319239616394, 0.01681881956756115, -0.009166544303297997, -0.01631860062479973, -0.01863906905055046, -0.01940680481493473, -0.019608259201049805, -0.019518328830599785, -0.019424833357334137, -0.01934240572154522, -0.019273949787020683, -0.01922542415559292, -0.019203150644898415, -0.01919587142765522, -0.019195569679141045, -0.019198652356863022, -0.019200162962079048, -0.019203078001737595, -0.019204623997211456, -0.019206387922167778, -0.019208263605833054, -0.01920999400317669, -0.019211677834391594, -0.0192132405936718, -0.01921478472650051, -0.01921643130481243, -0.019219836220145226, -0.019227677956223488, -0.019245875999331474, -0.019284406676888466, -0.01935695856809616, -0.01947774738073349, -0.019655587151646614, -0.019896449521183968, -0.020196381956338882, -0.020553117617964745, -0.020958097651600838, -0.0214015431702137, -0.021867429837584496, -0.022339124232530594, -0.022800426930189133, -0.02323468029499054, -0.02363196387887001, -0.023979878053069115, -0.02427436038851738, -0.024515481665730476, -0.024706365540623665, -0.024853553622961044, -0.024963274598121643, -0.02504422329366207, -0.02510274201631546, -0.02514493651688099, -0.0251750685274601, -0.025196809321641922, -0.025212721899151802, -0.025224607437849045, -0.02523389644920826, -0.025241298601031303, -0.02524755895137787, -0.025253022089600563, -0.025258054956793785, -0.025262758135795593, -0.025267301127314568, -0.02527177706360817, -0.025276251137256622, -0.025280840694904327, -0.02528553083539009, -0.02529037371277809, -0.025295410305261612, -0.025300730019807816, -0.025306329131126404, -0.02531231753528118, -0.025318685919046402, -0.02532552182674408, -0.025332894176244736, -0.025340799242258072, -0.025349285453557968, -0.025358356535434723, -0.025368060916662216, -0.025378430262207985, -0.025389481335878372, -0.025401216000318527, -0.02541363053023815, -0.025426730513572693, -0.025440393015742302, -0.02545464225113392, -0.02546931430697441, -0.025484418496489525, -0.025499803945422173, -0.025515399873256683, -0.025531085208058357, -0.02554674819111824, -0.025562280789017677, -0.02557753585278988, -0.025592530146241188, -0.025607140734791756, -0.025621360167860985, -0.02563515491783619, -0.025648511946201324, -0.02566143311560154, -0.025673942640423775, -0.02568608708679676, -0.025697870180010796, -0.02570933662354946, -0.025720424950122833, -0.02573120780289173, -0.025741690769791603, -0.025751931592822075, -0.025761999189853668, -0.02577190473675728, -0.025781696662306786, -0.025791361927986145, -0.02580103650689125, -0.025810610502958298, -0.025820234790444374, -0.02582976222038269, -0.02583925426006317, -0.02584870159626007, -0.025858115404844284, -0.02586754411458969, -0.02587679959833622, -0.02588583528995514, -0.025894397869706154, -0.02590237744152546, -0.025909531861543655, -0.025915738195180893, -0.025920985266566277, -0.02592531032860279, -0.02592887543141842, -0.02593183144927025, -0.025934360921382904, -0.025936640799045563, -0.025938861072063446, -0.025941167026758194, -0.025943653658032417, -0.025946473702788353, -0.025949688628315926, -0.025953346863389015, -0.02595737762749195, -0.02596180886030197, -0.02596658281981945, -0.02597166784107685, -0.02597702480852604, -0.025982726365327835, -0.025988733395934105, -0.02599511854350567, -0.026001961901783943, -0.02600928768515587, -0.026017284020781517, -0.02602602355182171, -0.026035752147436142, -0.026046734303236008, -0.026059361174702644, -0.026074158027768135, -0.026091771200299263, -0.026112964376807213, -0.026138532906770706, -0.02616940438747406, -0.02620619721710682, -0.02624957449734211, -0.026299934834241867, -0.02635771594941616, -0.026422768831253052, -0.026494722813367844, -0.026572858914732933, -0.02665603533387184, -0.026742877438664436, -0.026831768453121185, -0.026921143755316734, -0.027009736746549606, -0.027096576988697052, -0.027180617675185204, -0.027260931208729744, -0.02733650803565979, -0.027407081797719002, -0.02747238799929619, -0.027532393112778664, -0.027587201446294785, -0.027637142688035965, -0.027683064341545105, -0.027725297957658768, -0.02776421792805195, -0.02780023217201233, -0.027833890169858932, -0.02786562778055668, -0.02789568528532982, -0.02792440354824066, -0.027951955795288086, -0.027978751808404922, -0.02800501510500908, -0.028030946850776672, -0.02805660478770733, -0.028082188218832016, -0.028107887133955956, -0.02813379466533661, -0.02816002070903778, -0.028186511248350143, -0.028213435783982277, -0.028240833431482315, -0.028268763795495033, -0.02829720452427864, -0.028326254338026047, -0.028356056660413742, -0.028386671096086502, -0.028418079018592834, -0.028450142592191696, -0.028482962399721146, -0.028516536578536034, -0.028550785034894943, -0.02858569659292698, -0.02862129919230938, -0.02865762636065483, -0.028694570064544678, -0.02873210236430168, -0.028769904747605324, -0.028808007016777992, -0.028846191242337227, -0.02888435125350952, -0.028922516852617264, -0.02896072529256344, -0.028999026864767075, -0.029037149623036385, -0.029075007885694504, -0.029112638905644417, -0.02915015257894993, -0.02918754331767559, -0.0292247012257576, -0.02926141768693924, -0.029297806322574615, -0.029333850368857384, -0.029369693249464035, -0.029405349865555763, -0.029440853744745255, -0.02947639487683773, -0.029511708766222, -0.02954680286347866, -0.029581496492028236, -0.029615940526127815, -0.02965022251009941, -0.029684243723750114, -0.029718011617660522, -0.029751533642411232, -0.02978503704071045, -0.029818467795848846, -0.02985190786421299, -0.029885191470384598, -0.029918380081653595, -0.029951440170407295, -0.02998438850045204, -0.030017245560884476, -0.03005010075867176, -0.0300831887871027, -0.030116479843854904, -0.0301499180495739, -0.030183428898453712, -0.030217068269848824, -0.03025089018046856, -0.030284853652119637, -0.030319033190608025, -0.030353285372257233, -0.0303876381367445, -0.03042200393974781, -0.03045646660029888, -0.030491016805171967, -0.030525771901011467, -0.030560608953237534, -0.030595360323786736, -0.030630050227046013, -0.030664648860692978, -0.030699238181114197, -0.030733777210116386, -0.030768338590860367, -0.030802736058831215, -0.03083719126880169, -0.030871616676449776, -0.030905872583389282, -0.030939949676394463, -0.030973780900239944, -0.03100750409066677, -0.031040970236063004, -0.03107414022088051, -0.031107056885957718, -0.031139928847551346, -0.03117270953953266, -0.031205391511321068, -0.031237885355949402, -0.03127030283212662, -0.03130268305540085, -0.03133496269583702, -0.03136718273162842, -0.031399425119161606, -0.03143182769417763, -0.03146437183022499, -0.031497009098529816, -0.03152984008193016, -0.03156288340687752, -0.03159615769982338, -0.031629569828510284, -0.03166315332055092, -0.03169675171375275, -0.03173062950372696, -0.03176462650299072, -0.03179876133799553, -0.03183307126164436, -0.03186754137277603, -0.03190215304493904, -0.03193667158484459, -0.0319712832570076, -0.03200584277510643, -0.03204046189785004, -0.03207508102059364, -0.032109737396240234, -0.032144442200660706, -0.03217913582921028, -0.03221387416124344, -0.03224841505289078, -0.032282955944538116, -0.0323173850774765, -0.032351817935705185, -0.032386232167482376, -0.03242053836584091, -0.0324547179043293, -0.03248878940939903, -0.032522883266210556, -0.03255678713321686, -0.03259068727493286, -0.0326244942843914, -0.03265814483165741, -0.03269165754318237, -0.03272511437535286, -0.03275856375694275, -0.03279201313853264, -0.032825618982315063, -0.03285929560661316, -0.03289301320910454, -0.032926663756370544, -0.032960254698991776, -0.032993778586387634, -0.03302719444036484, -0.03306053578853607, -0.03309374675154686, -0.033126916736364365, -0.03315996006131172, -0.0331929549574852, -0.03322590887546539, -0.033258941024541855, -0.033291831612586975, -0.03332450985908508, -0.03335711732506752, -0.033389631658792496, -0.03342229872941971, -0.033454980701208115, -0.03348763287067413, -0.03352033719420433, -0.03355300799012184, -0.03358578681945801, -0.0336184985935688, -0.033651143312454224, -0.03368372842669487, -0.03371622785925865, -0.03374844416975975, -0.03378031775355339, -0.03381216526031494, -0.03384413942694664, -0.033876191824674606, -0.03390822932124138, -0.033940088003873825, -0.03397190943360329, -0.03400376811623573, -0.03403576463460922, -0.03406790271401405, -0.03410032391548157, -0.034133072942495346, -0.034166183322668076, -0.03419949486851692, -0.03423298895359039, -0.03426668420433998, -0.03430052101612091, -0.034334391355514526, -0.03436820209026337, -0.03440207615494728, -0.03443615138530731, -0.03447040170431137, -0.03450470045208931, -0.03453894704580307, -0.03457313030958176, -0.03460730239748955, -0.03464137762784958, -0.03467544540762901, -0.03470945358276367, -0.034743428230285645, -0.034777529537677765, -0.034811604768037796, -0.03484565392136574, -0.034879717975854874, -0.03491373732686043, -0.034947656095027924, -0.034981366246938705, -0.03501482680439949, -0.03504795581102371, -0.03508072718977928, -0.03511327505111694, -0.03514561057090759, -0.03517782688140869, -0.035209815949201584, -0.03524161875247955, -0.03527326509356499, -0.03530485928058624, -0.03533649817109108, -0.03536810725927353, -0.03539979085326195, -0.03543161600828171, -0.035463739186525345, -0.03549608588218689, -0.035528626292943954, -0.03556135669350624, -0.0355941578745842, -0.03562707081437111, -0.03565998002886772, -0.035693008452653885, -0.035726167261600494, -0.03575940802693367, -0.03579274192452431, -0.03582606092095375, -0.035859376192092896, -0.035892751067876816, -0.035926125943660736, -0.0359593965113163, -0.03599274531006813, -0.036026112735271454, -0.03605957701802254, -0.036093056201934814, -0.036126527935266495, -0.03616011142730713, -0.036193884909152985, -0.03622772917151451, -0.03626136854290962, -0.0362948477268219, -0.036328140646219254, -0.03636113181710243, -0.036393873393535614, -0.03642641380429268, -0.03645877540111542, -0.036491040140390396, -0.0365232452750206, -0.036555226892232895, -0.03658709675073624, -0.03661884367465973, -0.036650534719228745, -0.036682091653347015, -0.03671356290578842, -0.03674514964222908, -0.036776844412088394, -0.036808695644140244, -0.03684062138199806, -0.036872606724500656, -0.03690464049577713, -0.03693666309118271, -0.036968596279621124, -0.037000492215156555, -0.03703243285417557, -0.03706437721848488, -0.03709639981389046, -0.03712848946452141, -0.03716060891747475, -0.03719277307391167, -0.03722500428557396, -0.03725729510188103, -0.03728964924812317, -0.03732216730713844, -0.03735500946640968, -0.037387944757938385, -0.03742094710469246, -0.03745415061712265, -0.03748752921819687, -0.03752105310559273, -0.03755472972989082, -0.03758840635418892, -0.03762196749448776, -0.03765532746911049, -0.03768866881728172, -0.03772202134132385, -0.037755291908979416, -0.03778858855366707, -0.037821922451257706, -0.03785513713955879, -0.037888217717409134, -0.03792130947113037, -0.0379544198513031, -0.037987545132637024, -0.03802068904042244, -0.03805382177233696, -0.038087014108896255, -0.03812025487422943, -0.03813936188817024, -0.03815232962369919, -0.038156818598508835, -0.03817043453454971, -0.03818101808428764, -0.03819897770881653, -0.03821032866835594, -0.038222309201955795, -0.038232121616601944, -0.03824499249458313, -0.038260381668806076, -0.03829404339194298, -0.03834294155240059, -0.038499560207128525, -0.03924904018640518, -0.042469531297683716, -0.04802505671977997, -0.05180683359503746, -0.048725150525569916, -0.03448222950100899, -0.03336087241768837, -0.03605056554079056, -0.02389361523091793, -0.0056952666491270065, 0.003953888546675444, 0.009633549489080906, 0.010181919671595097, 0.010209828615188599, 0.010884549468755722, 0.011649467051029205, 0.013211202807724476, 0.01490834727883339, 0.016091901808977127, 0.01683245413005352, 0.01726689003407955, 0.01751602813601494, 0.017655329778790474, 0.017731869593262672, 0.01777210645377636, 0.01779179461300373, 0.01779964007437229, 0.01780068129301071, 0.017797958105802536, 0.017792994156479836, 0.017786800861358643, 0.017779840156435966, 0.017772523686289787, 0.017764968797564507, 0.01775733008980751, 0.017749616876244545, 0.017741819843649864, 0.017734026536345482, 0.017726100981235504, 0.017718100920319557, 0.017709851264953613, 0.017701398581266403, 0.01769246719777584, 0.01768316701054573, 0.017673490568995476, 0.017663542181253433, 0.017653845250606537, 0.017644725739955902, 0.017637193202972412, 0.017632311210036278, 0.017631977796554565, 0.01763647049665451, 0.01764785684645176, 0.017666084691882133, 0.017692144960165024, 0.01772640272974968, 0.017768071964383125, 0.01781727932393551, 0.017872067168354988, 0.017931945621967316, 0.017994435504078865, 0.018059277907013893, 0.01812402717769146, 0.01818833500146866, 0.0182509683072567, 0.01831093244254589, 0.01836848072707653, 0.01842268370091915, 0.018474267795681953, 0.018522419035434723, 0.01856740564107895, 0.018609024584293365, 0.0186476930975914, 0.01868368312716484, 0.01871716044843197, 0.018748708069324493, 0.018778333440423012, 0.018806718289852142, 0.018833620473742485, 0.018859699368476868, 0.018884601071476936, 0.018908580765128136, 0.01893194392323494, 0.018954535946249962, 0.01897689700126648, 0.018998829647898674, 0.019020864740014076, 0.019042732194066048, 0.019064825028181076, 0.019086964428424835, 0.019109362736344337, 0.019131919369101524, 0.01915452815592289, 0.01917760632932186, 0.019200993701815605, 0.019225211814045906, 0.019250014796853065, 0.01927601546049118, 0.01930258423089981, 0.019330019131302834, 0.019358258694410324, 0.01938672550022602, 0.019415833055973053, 0.019445223733782768, 0.019475052133202553, 0.019505107775330544, 0.019535699859261513, 0.019566398113965988, 0.019597439095377922, 0.019628383219242096, 0.019659044221043587, 0.019689802080392838, 0.019720356911420822, 0.019750861451029778, 0.019781000912189484, 0.019811199977993965, 0.01984122209250927, 0.01987145096063614, 0.019901789724826813, 0.019932052120566368, 0.019962240010499954, 0.019991973415017128, 0.020021535456180573, 0.020050691440701485, 0.02007976733148098, 0.02010856755077839, 0.020137246698141098, 0.02016579918563366, 0.020194105803966522, 0.020222162827849388, 0.020249975845217705, 0.02027769945561886, 0.020305003970861435, 0.02033218741416931, 0.020359132438898087, 0.02038629911839962, 0.020413722842931747, 0.020441317930817604, 0.02046908065676689, 0.02049688994884491, 0.020524922758340836, 0.02055289037525654, 0.020580846816301346, 0.020608702674508095, 0.020636651664972305, 0.020664574578404427, 0.020692557096481323, 0.02072044648230076, 0.020748382434248924, 0.02077624760568142, 0.02080385945737362, 0.020831633359193802, 0.020859258249402046, 0.020887017250061035, 0.020914709195494652, 0.02094252035021782, 0.02097059041261673, 0.02099883370101452, 0.02102755568921566, 0.021056387573480606, 0.021085353568196297, 0.021114224568009377, 0.02114325948059559, 0.021172134205698967, 0.0212009996175766, 0.021229859441518784, 0.021258646622300148, 0.021287431940436363, 0.021315937861800194, 0.021344633772969246, 0.021372927352786064, 0.021401120349764824, 0.021429123356938362, 0.02145688235759735, 0.021484555676579475, 0.021512147039175034, 0.021539954468607903, 0.021567868068814278, 0.02159598283469677, 0.021624116227030754, 0.02165244147181511, 0.021680442616343498, 0.02170836366713047, 0.02173621580004692, 0.021763913333415985, 0.021791638806462288, 0.02181912027299404, 0.021846650168299675, 0.021874023601412773, 0.0219014473259449, 0.02192879281938076, 0.021956006065011024, 0.02198304608464241, 0.022009965032339096, 0.02203676849603653, 0.022063422948122025, 0.022090371698141098, 0.022117318585515022, 0.022144578397274017, 0.022172003984451294, 0.02219950035214424, 0.02222694456577301, 0.02225426957011223, 0.022281469777226448, 0.02230853959918022, 0.022335754707455635, 0.02236277237534523, 0.02238982543349266, 0.02241675741970539, 0.022443657740950584, 0.022470561787486076, 0.022497404366731644, 0.022523950785398483, 0.02255030907690525, 0.022576933726668358, 0.0226035937666893, 0.02263057604432106, 0.022657813504338264, 0.022685309872031212, 0.022713009268045425, 0.022740906104445457, 0.022768843919038773, 0.022796710953116417, 0.022824620828032494, 0.022852199152112007, 0.02287989668548107, 0.02290751226246357, 0.022934988141059875, 0.022962575778365135, 0.022990074008703232, 0.023017270490527153, 0.023044323548674583, 0.023071400821208954, 0.023098226636648178, 0.02312525361776352, 0.02315225638449192, 0.023179486393928528, 0.02320696786046028, 0.023234669119119644, 0.023262755945324898, 0.023290686309337616, 0.023318633437156677, 0.023346642032265663, 0.02337469905614853, 0.023402580991387367, 0.02343033067882061, 0.02345798723399639, 0.02348555065691471, 0.023512959480285645, 0.023540113121271133, 0.02356707863509655, 0.023593707010149956, 0.023620164021849632, 0.023646198213100433, 0.023672109469771385, 0.023698123171925545, 0.023724181577563286, 0.023750538006424904, 0.023777063935995102, 0.023803727701306343, 0.023830654099583626, 0.023857779800891876, 0.023884804919362068, 0.023911863565444946, 0.023938840255141258, 0.023965800181031227, 0.02399289421737194, 0.024019939824938774, 0.024047018960118294, 0.024074049666523933, 0.024100910872220993, 0.02412768453359604, 0.024154411628842354, 0.024180995300412178, 0.024207375943660736, 0.024233832955360413, 0.0242606308311224, 0.02428760752081871, 0.02431480400264263, 0.024342209100723267, 0.02436956577003002, 0.024396972730755806, 0.024424299597740173, 0.024451717734336853, 0.024479027837514877, 0.024506067857146263, 0.024532999843358994, 0.024559777230024338, 0.024586357176303864, 0.0246127862483263, 0.02463911846280098, 0.024665074422955513, 0.024690497666597366, 0.024715863168239594, 0.02474125474691391, 0.024766555055975914, 0.024791982024908066, 0.024817779660224915, 0.024843730032444, 0.024869976565241814, 0.02489633858203888, 0.02492278255522251, 0.024949146434664726, 0.024975446984171867, 0.025001807138323784, 0.025028230622410774, 0.025054678320884705, 0.025081008672714233, 0.02510732226073742, 0.025133507326245308, 0.025159576907753944, 0.025185633450746536, 0.025211524218320847, 0.02523728832602501, 0.025263028219342232, 0.02528894506394863, 0.0253150537610054, 0.025341443717479706, 0.025368181988596916, 0.02539524808526039, 0.025422478094697, 0.025449803099036217, 0.025477122515439987, 0.02550448104739189, 0.02553185634315014, 0.02555915154516697, 0.02558637410402298, 0.025613363832235336, 0.0256403386592865, 0.025667158886790276, 0.025693746283650398, 0.025720153003931046, 0.025746330618858337, 0.025772230699658394, 0.025797713547945023, 0.02582314983010292, 0.02584865875542164, 0.025874242186546326, 0.025900017470121384, 0.02592606097459793, 0.025952162221074104, 0.025978203862905502, 0.026004090905189514, 0.026029806584119797, 0.026055581867694855, 0.026081211864948273, 0.026106933131814003, 0.02613246627151966, 0.026157796382904053, 0.02618316002190113, 0.026208261027932167, 0.026233255863189697, 0.026258204132318497, 0.026283221319317818, 0.026308245956897736, 0.026333194226026535, 0.02635837160050869, 0.02638406492769718, 0.02641012892127037, 0.026436597108840942, 0.02646326646208763, 0.02648983523249626, 0.02651653252542019, 0.026543207466602325, 0.026570087298750877, 0.026596806943416595, 0.026623336598277092, 0.0266499612480402, 0.026676412671804428, 0.026702793315052986, 0.026729049161076546, 0.026755118742585182, 0.02678091637790203, 0.026806337758898735, 0.02683146670460701, 0.02685658074915409, 0.02688181959092617, 0.026907214894890785, 0.0269328560680151, 0.02695857360959053, 0.026984427124261856, 0.027010295540094376, 0.027036158367991447, 0.02706206403672695, 0.027087785303592682, 0.027113545686006546, 0.02713913470506668, 0.027164708822965622, 0.027190249413251877, 0.027215609326958656, 0.027240779250860214, 0.027265818789601326, 0.027290640398859978, 0.02731538936495781, 0.027340147644281387, 0.027364805340766907, 0.02738964930176735, 0.027414651587605476, 0.02743995003402233, 0.027465542778372765, 0.027491243556141853, 0.027517031878232956, 0.027542848140001297, 0.027568696066737175, 0.02759457379579544, 0.027620447799563408, 0.02764630876481533, 0.02767210826277733, 0.027697719633579254, 0.02772328443825245, 0.027748657390475273, 0.02777397446334362, 0.02779918909072876, 0.0278241578489542, 0.027849124744534492, 0.027873974293470383, 0.027898961678147316, 0.027924073860049248, 0.027949435636401176, 0.027974968776106834, 0.028000609949231148, 0.028026392683386803, 0.02805217169225216, 0.028077885508537292, 0.028103532269597054, 0.028129220008850098, 0.028154797852039337, 0.028180299326777458, 0.028205599635839462, 0.028230641037225723, 0.028255492448806763, 0.028280269354581833, 0.02830502577126026, 0.028329551219940186, 0.028353964909911156, 0.02837829664349556, 0.028402825817465782, 0.02842763625085354, 0.028452927246689796, 0.028478559106588364, 0.02850434184074402, 0.02853023074567318, 0.02855611778795719, 0.028582140803337097, 0.028608199208974838, 0.028634289279580116, 0.028660468757152557, 0.0286865234375, 0.028712529689073563, 0.028738442808389664, 0.028763961046934128, 0.028789186850190163, 0.028814250603318214, 0.02883893996477127, 0.02886343188583851, 0.02888781577348709, 0.028912317007780075, 0.02893681637942791, 0.028961380943655968, 0.028986172750592232, 0.029011012986302376, 0.0290358979254961, 0.02906055934727192, 0.029085127636790276, 0.029109789058566093, 0.02913450449705124, 0.02915920875966549, 0.02918393351137638, 0.02920842170715332, 0.029232896864414215, 0.029257338494062424, 0.029281431809067726, 0.02930551767349243, 0.029329637065529823, 0.029353629797697067, 0.029377669095993042, 0.029401717707514763, 0.029426025226712227, 0.029450709000229836, 0.029475590214133263, 0.0295004490762949, 0.029525449499487877, 0.029550621286034584, 0.029575854539871216, 0.029601270332932472, 0.0296267569065094, 0.029600806534290314, 0.029378365725278854, 0.02875707857310772, 0.027165215462446213, 0.02425367757678032, 0.01987960934638977, 0.015107177197933197, 0.010920176282525063, 0.0087962057441473, 0.008258665911853313, 0.008166797459125519, 0.008204779587686062, 0.008258666843175888, 0.00833732821047306, 0.008403336629271507, 0.008461526595056057, 0.008508402854204178, 0.008533990941941738, 0.008529924787580967, 0.008515052497386932, 0.008496484719216824, 0.008477889932692051, 0.008469371125102043, 0.008458921685814857, 0.00845612958073616, 0.008451059460639954, 0.008444402366876602, 0.008437469601631165, 0.008429097011685371, 0.008420178666710854, 0.008407371118664742, 0.008387691341340542, 0.008343840949237347, 0.00825253315269947, 0.008078427985310555, 0.00778982974588871, 0.007366158068180084, 0.0067949616350233555, 0.00609147734940052, 0.0052566067315638065, 0.004307437222450972, 0.003257098374888301, 0.0021568182855844498, 0.0010529314167797565, 7.020591510809027e-06, -0.0009319509263150394, -0.00174263387452811, -0.0024048371706157923, -0.002929129870608449, -0.0033195307478308678, -0.00359424389898777, -0.003773720934987068, -0.003879381576552987, -0.003933258354663849, -0.003949940204620361, -0.003945573698729277, -0.0039281961508095264, -0.0039062341675162315, -0.003882894292473793, -0.0038610876072198153, -0.0038417610339820385, -0.003825369058176875, -0.0038125275168567896, -0.003802277147769928, -0.0037949311081320047, -0.003789973445236683, -0.003787233494222164, -0.00378621369600296, -0.0037866607308387756, -0.0037882826291024685, -0.003790823509916663, -0.0037943876814097166, -0.0037986512761563063, -0.0038037761114537716, -0.003809601068496704, -0.0038162872660905123, -0.003823768114671111, -0.003832003567367792, -0.0038410862907767296, -0.0038509750738739967, -0.003862007288262248, -0.0038739668671041727, -0.0038871048018336296, -0.003901067189872265, -0.0039161392487585545, -0.003932005260139704, -0.003948683850467205, -0.003966138698160648, -0.0039840745739638805, -0.004002443980425596, -0.004020542372018099, -0.004038489423692226, -0.004055891185998917, -0.004073053132742643, -0.004089483059942722, -0.004105246160179377, -0.004120144061744213, -0.004134196322411299, -0.004147534258663654, -0.004159839823842049, -0.004171749576926231, -0.004182979464530945, -0.004193918313831091, -0.0042040408588945866, -0.0042136614210903645, -0.004222572315484285, -0.004231071565300226, -0.004239439032971859, -0.004247164353728294, -0.0042548407800495625, -0.0042619965970516205, -0.0042691281996667385, -0.004275822546333075, -0.004282339476048946, -0.004288941156119108, -0.004295633640140295, -0.004302474670112133, -0.004309138748794794, -0.00431607523933053, -0.004323103930801153, -0.004330703057348728, -0.004338342230767012, -0.004346322268247604, -0.004354375414550304, -0.004362534731626511, -0.004370971117168665, -0.004379352554678917, -0.0043881554156541824, -0.004397064447402954, -0.004406130872666836, -0.0044149975292384624, -0.004423707723617554, -0.004432279150933027, -0.0044408864341676235, -0.004449573345482349, -0.00445815222337842, -0.00446677953004837, -0.004475219175219536, -0.00448381993919611, -0.004492390435189009, -0.004501171875745058, -0.004510107915848494, -0.004519232548773289, -0.004528476856648922, -0.004537642467767, -0.00454699108377099, -0.004556166939437389, -0.0045654671266674995, -0.004574691876769066, -0.004583875648677349, -0.004592903424054384, -0.004601903259754181, -0.004610872361809015, -0.004619574174284935, -0.004628279712051153, -0.004636906087398529, -0.004645644687116146, -0.004654322750866413, -0.004663140047341585, -0.004671928938478231, -0.004680971149355173, -0.004690022673457861, -0.004698772449046373, -0.0047070058062672615, -0.004713577218353748, -0.004718348383903503, -0.0047209253534674644, -0.004721356555819511, -0.004719862248748541, -0.004716804716736078, -0.004712601657956839, -0.004707980901002884, -0.004703698679804802, -0.004700466990470886, -0.004699033685028553, -0.004699760116636753, -0.004702964331954718, -0.004708687774837017, -0.004716921132057905, -0.00472734309732914, -0.004739575088024139, -0.004753387998789549, -0.004768381826579571, -0.004784204065799713, -0.004800737369805574, -0.004818006884306669, -0.004836021922528744, -0.004854879342019558, -0.0048746382817626, -0.0048955464735627174, -0.004917835351079702, -0.004941809922456741, -0.004968154244124889, -0.00499757332727313, -0.005031270440667868, -0.00507046515122056, -0.005117001477628946, -0.005172520410269499, -0.005238931160420179, -0.005318177863955498, -0.005411223974078894, -0.0055191307328641415, -0.005642452742904425, -0.005781723652034998, -0.0059345620684325695, -0.0060990653000772, -0.006271999329328537, -0.006449444219470024, -0.006627186667174101, -0.006799960043281317, -0.006964745000004768, -0.007115618325769901, -0.00725051062181592, -0.0073671783320605755, -0.007466597948223352, -0.007547848392277956, -0.007612268440425396, -0.007661398500204086, -0.007697266060858965, -0.007722712121903896, -0.007738861721009016, -0.0077491882257163525, -0.007754729129374027, -0.007757442072033882, -0.007758596912026405, -0.0077595459297299385, -0.007761027663946152, -0.007763447239995003, -0.007768044248223305, -0.00777407456189394, -0.007782486733049154, -0.007792934309691191, -0.007806280627846718, -0.0078221894800663, -0.007840704172849655, -0.007861425168812275, -0.007884277030825615, -0.007909721694886684, -0.007937147282063961, -0.007966352626681328, -0.00799708440899849, -0.008030042983591557, -0.008064156398177147, -0.00809966679662466, -0.008136436343193054, -0.008174094371497631, -0.008212977088987827, -0.008252168074250221, -0.008292052894830704, -0.008331798948347569, -0.008371955715119839, -0.008411948569118977, -0.008452261798083782, -0.008491639979183674, -0.008530979976058006, -0.008570484817028046, -0.008608781732618809, -0.008646683767437935, -0.008684351108968258, -0.008722526952624321, -0.008760401979088783, -0.008798587135970592, -0.00883726216852665, -0.008876392617821693, -0.008916569873690605, -0.00895712524652481, -0.008997919037938118, -0.009039542637765408, -0.009082618169486523, -0.00912572629749775, -0.009169211611151695, -0.00921275932341814, -0.009256396442651749, -0.00930076465010643, -0.009345308877527714, -0.009390100836753845, -0.009434882551431656, -0.009479857981204987, -0.009524327702820301, -0.009568882174789906, -0.00961363036185503, -0.009658406488597393, -0.009702850133180618, -0.009746707044541836, -0.009790184907615185, -0.009833602234721184, -0.009877246804535389, -0.009920557960867882, -0.009963877499103546, -0.010006705299019814, -0.010049419477581978, -0.010092286393046379, -0.01013465691357851, -0.010176995769143105, -0.010219038464128971, -0.010260962881147861, -0.010302389971911907, -0.010343695990741253, -0.010384886525571346, -0.010426024906337261, -0.010467066429555416, -0.01050854753702879, -0.01055026613175869, -0.010591920465230942, -0.010634263977408409, -0.010676449164748192, -0.01071950700134039, -0.0107626523822546, -0.010806194506585598, -0.010850979015231133, -0.01089912187308073, -0.010957079939544201, -0.01103263907134533, -0.011136632412672043, -0.011284432373940945, -0.011500527150928974, -0.011823645792901516, -0.012320388108491898, -0.013099988922476768, -0.01434415765106678, -0.016309263184666634, -0.019245482981204987, -0.023100700229406357, -0.026995208114385605, -0.029415031895041466, -0.02945120446383953, -0.02751268818974495, -0.024510428309440613, -0.02154805324971676, -0.019443495199084282, -0.018645381554961205, -0.019436035305261612, -0.021913954988121986, -0.025510994717478752, -0.029238659888505936, -0.032404109835624695, -0.034680116921663284, -0.036106210201978683, -0.036892637610435486, -0.03723979368805885, -0.03730663284659386, -0.037213653326034546, -0.03704538941383362, -0.03685597702860832, -0.036676205694675446, -0.03651992604136467, -0.03639081493020058, -0.0362880602478981, -0.03620794042944908, -0.03614618629217148, -0.03609902411699295, -0.03606310859322548, -0.036035701632499695, -0.03601470962166786, -0.035998519510030746, -0.03598592430353165, -0.035976044833660126, -0.035968150943517685, -0.035961780697107315, -0.0359564945101738, -0.03595202788710594, -0.03594811260700226, -0.0359446220099926, -0.03594142198562622, -0.035938408225774765, -0.035935498774051666, -0.035932667553424835, -0.035929832607507706, -0.03592700511217117, -0.03592419624328613, -0.03592142090201378, -0.035918720066547394, -0.03591616824269295, -0.03591381758451462, -0.035911764949560165, -0.035910043865442276, -0.03590873256325722, -0.03590786084532738, -0.03590744361281395, -0.03590734302997589, -0.03590760752558708, -0.03590817004442215, -0.0359090119600296, -0.035910092294216156, -0.0359114371240139, -0.03591301664710045, -0.03591475635766983, -0.03591662272810936, -0.03591848537325859, -0.03592023253440857, -0.035921793431043625, -0.0359230600297451, -0.03592395782470703, -0.03592442348599434, -0.035924360156059265, -0.03592369705438614, -0.035922255367040634, -0.0359196811914444, -0.035915568470954895, -0.035909317433834076, -0.0359002947807312, -0.03588777780532837, -0.035870976746082306, -0.03584907948970795, -0.03582162410020828, -0.035788245499134064, -0.03574889898300171, -0.03570381924510002, -0.03565327450633049, -0.035597868263721466, -0.03553812578320503, -0.03547520935535431, -0.03541012108325958, -0.03534381836652756, -0.03527706116437912, -0.035210710018873215, -0.03514536842703819, -0.0350816585123539, -0.03502028435468674, -0.03496130555868149, -0.034904904663562775, -0.03485112637281418, -0.0347999706864357, -0.03475130349397659, -0.03470513969659805, -0.03466138616204262, -0.03461967408657074, -0.03457997739315033, -0.034541986882686615, -0.03450549393892288, -0.03447037935256958, -0.03443650156259537, -0.03440355509519577, -0.03437139466404915, -0.03433988243341446, -0.034308914095163345, -0.03427836298942566, -0.03424794226884842, -0.03421758487820625, -0.03418712690472603, -0.0341564416885376, -0.03412538766860962, -0.03409399092197418, -0.03406231477856636, -0.034030113369226456, -0.033997416496276855, -0.03396415710449219, -0.033930446952581406, -0.03389602154493332, -0.03386104851961136, -0.0338253527879715, -0.03378904610872269, -0.033752355724573135, -0.033715080469846725, -0.03367750719189644, -0.033639419823884964, -0.03360119089484215, -0.03356265649199486, -0.033523835241794586, -0.03348483517765999, -0.03344573453068733, -0.033406708389520645, -0.03336755931377411, -0.0333285853266716, -0.03328966349363327, -0.03325094282627106, -0.033212170004844666, -0.033173635601997375, -0.033135272562503815, -0.03309705853462219, -0.03305931016802788, -0.033021628856658936, -0.032984137535095215, -0.03294696286320686, -0.03291018679738045, -0.03287380933761597, -0.03283778578042984, -0.03280220925807953, -0.03276699781417847, -0.03273210674524307, -0.03269755095243454, -0.03266342356801033, -0.03262942284345627, -0.03259580209851265, -0.03256223350763321, -0.032528821378946304, -0.03249571472406387, -0.03246266767382622, -0.03242987021803856, -0.032396964728832245, -0.03236398845911026, -0.032330844551324844, -0.03229755908250809, -0.032264139503240585, -0.03223058208823204, -0.03219673037528992, -0.03216245025396347, -0.03212795406579971, -0.03209305927157402, -0.03205787390470505, -0.03203645721077919, -0.03203125670552254, -0.03202265873551369, -0.03203308954834938, -0.03203841671347618, -0.03205803781747818, -0.032065488398075104, -0.03207002580165863, -0.0320640467107296, -0.03205786272883415, -0.03204236179590225, -0.032048214226961136, -0.03206261619925499, -0.03224678710103035, -0.03357791528105736, -0.03969660401344299, -0.051072996109724045, -0.06148158013820648, -0.06089057773351669, -0.042545136064291, -0.03919052705168724, -0.04138698801398277, -0.023844031617045403, 0.0027141571044921875, 0.01691804826259613, 0.02460615709424019, 0.02714899741113186, 0.02950672060251236, 0.03322416543960571, 0.03708486258983612, 0.042372673749923706, 0.04817892983555794, 0.05166763812303543, 0.05362417921423912, 0.05468205735087395, 0.055251121520996094, 0.05555536970496178, 0.05571558326482773, 0.05579672381281853, 0.055833879858255386, 0.055846597999334335, 0.055845923721790314, 0.05583791434764862, 0.055825866758823395, 0.05581201985478401, 0.05579714849591255, 0.055782001465559006, 0.055766843259334564, 0.05575194209814072, 0.05573756620287895, 0.055724065750837326, 0.05571182817220688, 0.05570118874311447, 0.05569298192858696, 0.055688101798295975, 0.05568777397274971, 0.055693335831165314, 0.05570667237043381, 0.05572991073131561, 0.0557657890021801, 0.05581727623939514, 0.0558876134455204, 0.0559806264936924, 0.05609811469912529, 0.05624361336231232, 0.0564180351793766, 0.05662202835083008, 0.05685492604970932, 0.057114336639642715, 0.05739587917923927, 0.0576961450278759, 0.05800909548997879, 0.05832916125655174, 0.05865219607949257, 0.05897122621536255, 0.059283845126628876, 0.05958522483706474, 0.05987360328435898, 0.06014739349484444, 0.060405030846595764, 0.06064619496464729, 0.060870591551065445, 0.061079658567905426, 0.06127342954277992, 0.06145301088690758, 0.06161966919898987, 0.06177496537566185, 0.06191997975111008, 0.062055934220552444, 0.062183912843465805, 0.06230492889881134, 0.0624200701713562, 0.06252969801425934, 0.06263552606105804, 0.06273773312568665, 0.06283728778362274, 0.06293482333421707, 0.06303104758262634, 0.06312666088342667, 0.06322214752435684, 0.06331811845302582, 0.06341451406478882, 0.06351206451654434, 0.06361109018325806, 0.06371219456195831, 0.06381545215845108, 0.06392112374305725, 0.06402957439422607, 0.06414100527763367, 0.06425581872463226, 0.06437381356954575, 0.06449529528617859, 0.06461978703737259, 0.06474758684635162, 0.06487845629453659, 0.06501248478889465, 0.06514959037303925, 0.06528925895690918, 0.06543184071779251, 0.0655767098069191, 0.06572393327951431, 0.06587321311235428, 0.0660237967967987, 0.06617514789104462, 0.06632693111896515, 0.06647870689630508, 0.06663049757480621, 0.0667821392416954, 0.066932812333107, 0.06708302348852158, 0.06723251938819885, 0.06738121807575226, 0.06752900034189224, 0.0676753968000412, 0.06782063841819763, 0.06796450912952423, 0.0681072250008583, 0.06824857741594315, 0.068388931453228, 0.06852828711271286, 0.06866675615310669, 0.06880408525466919, 0.06894043833017349, 0.06907610595226288, 0.06921082735061646, 0.06934477388858795, 0.0694776400923729, 0.06960970908403397, 0.06974123418331146, 0.06987204402685165, 0.07000212371349335, 0.07013140618801117, 0.07025983184576035, 0.07038753479719162, 0.07051467895507812, 0.07064104825258255, 0.0707668885588646, 0.07089196145534515, 0.07101664692163467, 0.07114116102457047, 0.07126522809267044, 0.0713890790939331, 0.07151293009519577, 0.07163669168949127, 0.07176067680120468, 0.07188485562801361, 0.07200933247804642, 0.07213473320007324, 0.07226043939590454, 0.07238677889108658, 0.07251407951116562, 0.07264221459627151, 0.07277144491672516, 0.0729014202952385, 0.07303231209516525, 0.07316429167985916, 0.0732974037528038, 0.07343194633722305, 0.07356750220060349, 0.07370419800281525, 0.07384198158979416, 0.07398053258657455, 0.07412023097276688, 0.07426072657108307, 0.07440163940191269, 0.07454308122396469, 0.07468466460704803, 0.07482658326625824, 0.07496868818998337, 0.07511071860790253, 0.07525263726711273, 0.07539413869380951, 0.07553527504205704, 0.07567571103572845, 0.07581577450037003, 0.0759550929069519, 0.07609347999095917, 0.07623140513896942, 0.0763687938451767, 0.07650567591190338, 0.07664239406585693, 0.07677825540304184, 0.07691343873739243, 0.07704848051071167, 0.07718269526958466, 0.07731646299362183, 0.0774495005607605, 0.07758193463087082, 0.07771408557891846, 0.07784565538167953, 0.07797660678625107, 0.07810670882463455, 0.07823528349399567, 0.07836157083511353, 0.07848484069108963, 0.07860380411148071, 0.07871677726507187, 0.07882180064916611, 0.07891763001680374, 0.07900255173444748, 0.07907495647668839, 0.07913412153720856, 0.07917896658182144, 0.07920907437801361, 0.0792246088385582, 0.07922607660293579, 0.07921436429023743, 0.07919066399335861, 0.07915684580802917, 0.07911461591720581, 0.07906558364629745, 0.07901173084974289, 0.07895465940237045, 0.07889579981565475, 0.07883598655462265, 0.07877571880817413, 0.07871554046869278, 0.07865576446056366, 0.07859654724597931, 0.07853832095861435, 0.0784812942147255, 0.07842589169740677, 0.07837316393852234, 0.0783238336443901, 0.07827907800674438, 0.07824081927537918, 0.07821141928434372, 0.0781942754983902, 0.07819424569606781, 0.0782167986035347, 0.07826938480138779, 0.07835995405912399, 0.07849728316068649, 0.07868970185518265, 0.078947052359581, 0.07927621155977249, 0.0796809270977974, 0.08016575872898102, 0.08072727918624878, 0.08136254549026489, 0.08206582814455032, 0.08282432705163956, 0.08362337946891785, 0.08445169031620026, 0.0852930098772049, 0.08613467961549759, 0.08696579188108444, 0.08777081221342087, 0.08854250609874725, 0.08927422761917114, 0.08995934575796127, 0.09059377014636993, 0.09117546677589417, 0.09170222282409668, 0.09217342734336853, 0.09259092807769775, 0.09295386075973511, 0.09326396137475967, 0.0935240238904953, 0.09373494982719421, 0.09389931708574295, 0.0940207913517952, 0.09410394728183746, 0.09415209293365479, 0.0941690132021904, 0.09415753185749054, 0.09412050247192383, 0.09406015276908875, 0.09397729486227036, 0.09387301653623581, 0.09374518692493439, 0.09359294921159744, 0.09341602027416229, 0.09321077167987823, 0.09297268837690353, 0.09269875288009644, 0.09238262474536896, 0.0920150876045227, 0.09158904105424881, 0.09109809249639511, 0.09053283929824829, 0.08988861739635468, 0.08916932344436646, 0.08837241679430008, 0.0875047817826271, 0.08658499270677567, 0.08563302457332611, 0.08466704934835434, 0.08373469859361649, 0.08290091902017593, 0.08219659328460693, 0.08166295289993286, 0.08134211599826813, 0.0812535434961319, 0.08140146732330322, 0.08179833739995956, 0.08244740962982178, 0.08331775665283203, 0.08436886221170425, 0.08556248992681503, 0.08680716902017593, 0.08800919353961945, 0.08909422904253006, 0.08997450023889542, 0.09057509154081345, 0.09087631106376648, 0.09096088260412216, 0.0908631756901741, 0.0906280130147934, 0.09034983813762665, 0.09007291495800018, 0.08978541195392609, 0.08952481299638748, 0.08937463164329529, 0.08940352499485016, 0.08971287310123444, 0.09032858908176422, 0.09128210693597794, 0.09255143254995346, 0.09408161789178848, 0.09579141438007355, 0.09757838398218155, 0.09935896098613739, 0.10104962438344955, 0.1026051715016365, 0.10399527102708817, 0.10521082580089569, 0.10625455528497696, 0.10713689029216766, 0.10787396878004074, 0.10848358273506165, 0.10898633301258087, 0.10939899832010269, 0.1097382977604866, 0.11001654714345932, 0.11024579405784607, 0.11043600738048553, 0.11059410125017166, 0.11072739213705063, 0.11084020882844925, 0.11093759536743164, 0.11102256178855896, 0.11109839379787445, 0.11116749048233032, 0.11123111844062805, 0.11129163205623627, 0.1113501787185669, 0.11140821874141693, 0.1114664375782013, 0.11152616143226624, 0.11158835887908936, 0.11165475100278854, 0.11172544956207275, 0.11180189996957779, 0.11188512295484543, 0.11197561025619507, 0.11207462102174759, 0.11218085139989853, 0.11229582875967026, 0.1124190092086792, 0.11255147308111191, 0.11269179731607437, 0.11284030228853226, 0.1129949763417244, 0.11315714567899704, 0.11332547664642334, 0.11349773406982422, 0.11367589235305786, 0.1138562560081482, 0.11403955519199371, 0.11422217637300491, 0.11440583318471909, 0.11458883434534073, 0.11477123200893402, 0.11495248228311539, 0.11512937396764755, 0.11530397087335587, 0.1154743954539299, 0.11564282327890396, 0.11580678820610046, 0.11596739292144775, 0.11612404137849808, 0.11627756804227829, 0.11642897129058838, 0.11657632142305374, 0.11672249436378479, 0.11686546355485916, 0.11700701713562012, 0.11714617162942886, 0.11728374660015106, 0.1174202412366867, 0.1175558939576149, 0.11769141256809235, 0.11782519519329071, 0.11795923858880997, 0.11809201538562775, 0.11822470277547836, 0.11835581064224243, 0.11848679184913635, 0.1186174675822258, 0.11874710023403168, 0.11887660622596741, 0.11900464445352554, 0.119132861495018, 0.11925990879535675, 0.11938626319169998, 0.11951074749231339, 0.11963418871164322, 0.11975659430027008, 0.11987781524658203, 0.11999830603599548, 0.12011730670928955, 0.12023604661226273, 0.1203535720705986, 0.12047134339809418, 0.12058870494365692, 0.12070560455322266, 0.12082259356975555, 0.12093847244977951, 0.12105423957109451, 0.12116865068674088, 0.12128206342458725, 0.12139423191547394, 0.12150555849075317, 0.12161508947610855, 0.12172339111566544, 0.12183092534542084, 0.12193632870912552, 0.12204127013683319, 0.12214460968971252, 0.12224777042865753, 0.12235061079263687, 0.12245331704616547, 0.12255598604679108, 0.12265844643115997, 0.12276194989681244, 0.12286560982465744, 0.12296976149082184, 0.123074471950531, 0.12317995727062225, 0.12328609824180603, 0.12339378148317337, 0.12350305169820786, 0.1236128881573677, 0.12372380495071411, 0.1238345205783844, 0.12394599616527557, 0.12405809760093689, 0.1241699680685997, 0.12428203970193863, 0.12439420074224472, 0.1245059072971344, 0.12461728602647781, 0.12472893297672272, 0.12484005093574524, 0.12495143711566925, 0.12506309151649475, 0.12517479062080383, 0.1252865344285965, 0.12539851665496826, 0.12551073729991913, 0.1256222128868103, 0.12573359906673431, 0.12584449350833893, 0.1259545534849167, 0.1260639876127243, 0.12617264688014984, 0.12628036737442017, 0.12638719379901886, 0.1264931559562683, 0.12659768760204315, 0.12670056521892548, 0.1268022358417511, 0.1269025057554245, 0.12700162827968597, 0.12709887325763702, 0.12719447910785675, 0.12728872895240784, 0.1273825317621231, 0.12747538089752197, 0.12732088565826416, 0.12626618146896362, 0.12414196878671646, 0.11788679659366608, 0.1065477728843689, 0.09031638503074646, 0.07363162189722061, 0.06041479483246803, 0.05559908226132393, 0.055786821991205215, 0.05589037016034126, 0.05588854104280472, 0.05593324080109596, 0.056144531816244125, 0.05631967633962631, 0.05648943781852722, 0.05663137137889862, 0.05670125409960747, 0.056668445467948914, 0.056601621210575104, 0.05652623623609543, 0.05645676702260971, 0.0564199723303318, 0.0563802644610405, 0.05636599287390709, 0.05634447932243347, 0.056318752467632294, 0.05629277601838112, 0.056259945034980774, 0.05622076988220215, 0.05617227777838707, 0.05630412697792053, 0.05690737068653107, 0.05875658988952637, 0.0629892572760582, 0.07063274830579758, 0.08170721679925919, 0.09483197331428528, 0.10812390595674515, 0.11987021565437317, 0.1292910873889923, 0.1360214352607727, 0.14038588106632233, 0.1430148035287857, 0.14471592009067535, 0.14615866541862488, 0.14780481159687042, 0.14986710250377655, 0.15231801569461823, 0.15502524375915527, 0.15780258178710938, 0.16048842668533325, 0.162957102060318, 0.16514047980308533, 0.16701103746891022, 0.16856850683689117, 0.16984069347381592, 0.17085643112659454, 0.1716519296169281, 0.17226673662662506, 0.17273463308811188, 0.17308452725410461, 0.1733420491218567, 0.1735258400440216, 0.17365320026874542, 0.17373818159103394, 0.17378942668437958, 0.17381590604782104, 0.1738225817680359, 0.17381462454795837, 0.17379628121852875, 0.173770472407341, 0.1737399846315384, 0.1737067848443985, 0.17367209494113922, 0.17363852262496948, 0.17360766232013702, 0.17357990145683289, 0.17355722188949585, 0.17354004085063934, 0.17353013157844543, 0.17352992296218872, 0.17354002594947815, 0.17356222867965698, 0.17359724640846252, 0.17364615201950073, 0.17371180653572083, 0.17379316687583923, 0.1738920509815216, 0.17400872707366943, 0.1741417795419693, 0.17429298162460327, 0.17446036636829376, 0.17464284598827362, 0.17484082281589508, 0.17505007982254028, 0.17526984214782715, 0.17550033330917358, 0.17573703825473785, 0.1759786456823349, 0.17622198164463043, 0.17646431922912598, 0.1767064779996872, 0.17694427073001862, 0.17717646062374115, 0.177401602268219, 0.17761878669261932, 0.1778278648853302, 0.17802606523036957, 0.17821505665779114, 0.17839476466178894, 0.17856404185295105, 0.17872464656829834, 0.17887777090072632, 0.17902322113513947, 0.17916221916675568, 0.17929470539093018, 0.17942018806934357, 0.17954163253307343, 0.1796586960554123, 0.179771289229393, 0.17987994849681854, 0.1799858659505844, 0.18009114265441895, 0.1801951676607132, 0.18029902875423431, 0.18040159344673157, 0.18050487339496613, 0.18060968816280365, 0.1807156801223755, 0.18082284927368164, 0.18093115091323853, 0.1810416281223297, 0.18115422129631042, 0.18126969039440155, 0.1813865602016449, 0.18150673806667328, 0.18162904679775238, 0.18175454437732697, 0.18188317120075226, 0.1820145547389984, 0.18214909732341766, 0.18228663504123688, 0.18242837488651276, 0.1825738549232483, 0.1827232539653778, 0.1828756183385849, 0.18303148448467255, 0.18318931758403778, 0.18334883451461792, 0.183509960770607, 0.183670774102211, 0.18383286893367767, 0.18399454653263092, 0.18415722250938416, 0.1843196451663971, 0.1844816952943802, 0.18464310467243195, 0.1848035454750061, 0.18496330082416534, 0.18512123823165894, 0.1852782964706421, 0.18543381989002228, 0.1855887770652771, 0.18574313819408417, 0.1858980655670166, 0.18605244159698486, 0.18620416522026062, 0.18635225296020508, 0.18649190664291382, 0.18661758303642273, 0.18671606481075287, 0.18676674365997314, 0.1867445558309555, 0.18661518394947052, 0.18633688986301422, 0.18585672974586487, 0.1851317584514618, 0.18412669003009796, 0.18283821642398834, 0.1813022792339325, 0.1795821338891983, 0.17777135968208313, 0.17597752809524536, 0.174313023686409, 0.17285454273223877, 0.17165978252887726, 0.1707538515329361, 0.17013975977897644, 0.16979435086250305, 0.16967803239822388, 0.169752836227417, 0.16997158527374268, 0.17028920352458954, 0.1706613004207611, 0.17105333507061005, 0.171439066529274, 0.17180153727531433, 0.17213022708892822, 0.1724192351102829, 0.1726684421300888, 0.17287935316562653, 0.17305666208267212, 0.1732044368982315, 0.17332673072814941, 0.17342780530452728, 0.17351101338863373, 0.17357975244522095, 0.17363671958446503, 0.17368438839912415, 0.1737244576215744, 0.17375846207141876, 0.17378781735897064, 0.17381344735622406, 0.1738359034061432, 0.173855721950531, 0.17387345433235168, 0.17388907074928284, 0.17390231788158417, 0.17391198873519897, 0.17391665279865265, 0.17391465604305267, 0.17390364408493042, 0.17388147115707397, 0.1738463044166565, 0.17379653453826904, 0.17373213171958923, 0.1736535280942917, 0.17356207966804504, 0.17345966398715973, 0.17334896326065063, 0.1732332557439804, 0.1731155812740326, 0.17299853265285492, 0.1728842407464981, 0.17277364432811737, 0.17266717553138733, 0.1725647747516632, 0.1724655032157898, 0.17236800491809845, 0.1722707897424698, 0.17217175662517548, 0.17206831276416779, 0.17195776104927063, 0.1718360036611557, 0.17169760167598724, 0.17153635621070862, 0.1713458001613617, 0.1711193323135376, 0.17085440456867218, 0.1705532670021057, 0.17021934688091278, 0.16985271871089935, 0.16942156851291656, 0.16884151101112366, 0.16792601346969604, 0.16642482578754425, 0.16406911611557007, 0.1606265753507614, 0.15605401992797852, 0.15053632855415344, 0.14441826939582825, 0.13819080591201782, 0.13238228857517242, 0.12744250893592834, 0.12368898093700409, 0.12127844989299774, 0.12025582045316696, 0.12050114572048187, 0.12183842062950134, 0.12405118346214294, 0.1268754005432129, 0.13005518913269043, 0.13340049982070923, 0.13673730194568634, 0.13993285596370697, 0.1429263949394226, 0.14565405249595642, 0.1481008380651474, 0.1502654254436493, 0.15216165781021118, 0.15379881858825684, 0.15520121157169342, 0.15639032423496246, 0.1573820561170578, 0.15819965302944183, 0.15886159241199493, 0.15937845408916473, 0.1597631871700287, 0.16003070771694183, 0.16019195318222046, 0.1602497547864914, 0.1602160632610321, 0.16009673476219177, 0.15989236533641815, 0.159605011343956, 0.15924353897571564, 0.15880797803401947, 0.1582975834608078, 0.1577284038066864, 0.1570950597524643, 0.15640930831432343, 0.15567439794540405, 0.15490469336509705, 0.15409912168979645, 0.1532689481973648, 0.15243147313594818, 0.15158207714557648, 0.15072637796401978, 0.14987555146217346, 0.1490538865327835, 0.1482405811548233, 0.14744910597801208, 0.14667801558971405, 0.1459403932094574, 0.14523670077323914, 0.14458239078521729, 0.14400221407413483, 0.14349569380283356, 0.14311470091342926, 0.14286169409751892, 0.14279723167419434, 0.14297747611999512, 0.14353035390377045, 0.14451013505458832, 0.14592775702476501, 0.14765197038650513, 0.14951570332050323, 0.15136665105819702, 0.15292541682720184, 0.1540258228778839, 0.15450148284435272, 0.15451915562152863, 0.15429817140102386, 0.15414632856845856, 0.15437191724777222, 0.15514859557151794, 0.15651921927928925, 0.15839609503746033, 0.16067154705524445, 0.1631740778684616, 0.16574594378471375, 0.168229341506958, 0.17052061855793, 0.1725698709487915, 0.17434780299663544, 0.17585919797420502, 0.177114337682724, 0.1781383752822876, 0.1789596974849701, 0.17960818111896515, 0.1801154613494873, 0.1805061250925064, 0.18080176413059235, 0.18102110922336578, 0.1811794936656952, 0.18129049241542816, 0.1813630759716034, 0.18140403926372528, 0.18142126500606537, 0.1814199686050415, 0.18140394985675812, 0.18137750029563904, 0.18134228885173798, 0.18130093812942505, 0.18125516176223755, 0.18120628595352173, 0.18115508556365967, 0.1811019480228424, 0.18104863166809082, 0.18099576234817505, 0.18094439804553986, 0.18089605867862701, 0.1808532327413559, 0.18081612884998322, 0.1807880401611328, 0.18076977133750916, 0.1807636320590973, 0.1807720810174942, 0.18079374730587006, 0.1808319389820099, 0.18088482320308685, 0.18095265328884125, 0.1810358762741089, 0.18113265931606293, 0.1812409907579422, 0.18135976791381836, 0.18148572742938995, 0.18161532282829285, 0.18174776434898376, 0.18188025057315826, 0.18201085925102234, 0.18213742971420288, 0.18225878477096558, 0.18237341940402985, 0.18248073756694794, 0.18258178234100342, 0.18267497420310974, 0.18276077508926392, 0.1828387975692749, 0.18291108310222626, 0.18297773599624634, 0.18303930759429932, 0.18309620022773743, 0.18314962089061737, 0.18320050835609436, 0.18324925005435944, 0.18329684436321259, 0.18334271013736725, 0.18338899314403534, 0.18343478441238403, 0.18348199129104614, 0.1835300773382187, 0.18358005583286285, 0.18363195657730103, 0.183684840798378, 0.18373912572860718, 0.18379426002502441, 0.18385061621665955, 0.1839059740304947, 0.18396088480949402, 0.18401393294334412, 0.1840660572052002, 0.18411730229854584, 0.18416690826416016, 0.18421423435211182, 0.18425919115543365, 0.1843024641275406, 0.18434299528598785, 0.18438197672367096, 0.18441815674304962, 0.18445326387882233, 0.18448764085769653, 0.1845211237668991, 0.18455615639686584, 0.18459223210811615, 0.18463143706321716, 0.18467296659946442, 0.18471722304821014, 0.18476437032222748, 0.1848141998052597, 0.1848672330379486, 0.18492364883422852, 0.18498368561267853, 0.18504570424556732, 0.1851102113723755, 0.1851751059293747, 0.18524089455604553, 0.18530617654323578, 0.18536825478076935, 0.18542775511741638, 0.18548274040222168, 0.18553531169891357, 0.18558405339717865, 0.18562939763069153, 0.1856708973646164, 0.18570762872695923, 0.18574029207229614, 0.18576961755752563, 0.18579645454883575, 0.1858215481042862, 0.18584449589252472, 0.1858653575181961, 0.1858861744403839, 0.18590816855430603, 0.1859315037727356, 0.1859571635723114, 0.18598482012748718, 0.18601472675800323, 0.18604843318462372, 0.1860860288143158, 0.18612784147262573, 0.18617255985736847, 0.18622176349163055, 0.18627400696277618, 0.18632872402668, 0.1863865852355957, 0.1864452362060547, 0.18650446832180023, 0.18656308948993683, 0.1866207718849182, 0.1866765171289444, 0.18673162162303925, 0.1867852807044983, 0.1868356168270111, 0.18688343465328217, 0.18692809343338013, 0.18697033822536469, 0.18700861930847168, 0.18704357743263245, 0.18707481026649475, 0.18710269033908844, 0.1871298849582672, 0.18715494871139526, 0.1871798038482666, 0.18720461428165436, 0.18723025918006897, 0.18725624680519104, 0.1872832328081131, 0.18731176853179932, 0.18714609742164612, 0.18677131831645966, 0.18644554913043976, 0.1860264539718628, 0.18573831021785736, 0.18530145287513733, 0.18500693142414093, 0.18467460572719574, 0.18440933525562286, 0.18418201804161072, 0.18397483229637146, 0.18365760147571564, 0.18320132791996002, 0.18112827837467194, 0.17277683317661285, 0.17267146706581116, 0.21338923275470734, 0.26651108264923096, 0.3284482955932617, 0.40007930994033813, 0.42750197649002075, 0.4323408305644989, 0.4446871876716614, 0.46419277787208557, 0.4735238552093506, 0.48655983805656433, 0.49953705072402954, 0.5098015666007996, 0.5212994813919067, 0.533455491065979, 0.5446882843971252, 0.5558604001998901, 0.5608322620391846, 0.5615127682685852, 0.559536874294281, 0.5559196472167969, 0.551263153553009, 0.5459904074668884, 0.5404998660087585, 0.5350318551063538, 0.529789924621582, 0.5248398184776306, 0.5202553868293762, 0.5160130262374878, 0.512079656124115, 0.5084015130996704, 0.5049386024475098, 0.5016500353813171, 0.4984980523586273, 0.49548494815826416, 0.49260640144348145, 0.4898911118507385, 0.4873787462711334, 0.4851487874984741, 0.4833090007305145, 0.4819934666156769, 0.48133185505867004, 0.48146602511405945, 0.482467919588089, 0.4843488335609436, 0.487093448638916, 0.4905458986759186, 0.4945782721042633, 0.4989469349384308, 0.5033790469169617, 0.5077455639839172, 0.5118708610534668, 0.5156957507133484, 0.519163966178894, 0.5222780704498291, 0.5250285863876343, 0.5274266004562378, 0.5294632315635681, 0.5311258435249329, 0.5324572324752808, 0.5334246158599854, 0.5341086983680725, 0.534494161605835, 0.5346397161483765, 0.5345701575279236, 0.5343286991119385, 0.5339357256889343, 0.5334221720695496, 0.5328134298324585, 0.5321126580238342, 0.5313609838485718, 0.5305622816085815, 0.5297956466674805, 0.5290201306343079, 0.5282411575317383, 0.5274668335914612, 0.5267385840415955, 0.5260631442070007, 0.5254331827163696, 0.5248435735702515, 0.5243141055107117, 0.5238527059555054, 0.5234454274177551, 0.5231097340583801, 0.5228385925292969, 0.522627055644989, 0.5224834680557251, 0.5224134922027588, 0.5224472880363464, 0.5225381851196289, 0.522698700428009, 0.5229389667510986, 0.5232557058334351, 0.5236481428146362, 0.5240949392318726, 0.5246103405952454, 0.5251716375350952, 0.5257881283760071, 0.5264346599578857, 0.5271051526069641, 0.5277792811393738, 0.5284745693206787, 0.5291570425033569, 0.5298405289649963, 0.5304754972457886, 0.5310702323913574, 0.5316371917724609, 0.5321497917175293, 0.5326050519943237, 0.5329767465591431, 0.5333096981048584, 0.533556342124939, 0.5337602496147156, 0.5338996648788452, 0.5339628458023071, 0.5339828729629517, 0.5339363217353821, 0.5338567495346069, 0.5337562561035156, 0.5336430072784424, 0.5335206985473633, 0.5334032773971558, 0.5332738757133484, 0.5331601500511169, 0.5330568552017212, 0.532964825630188, 0.5329232811927795, 0.5329217314720154, 0.5329858660697937, 0.5330852270126343, 0.5332213640213013, 0.5333812236785889, 0.5335783362388611, 0.5338056087493896, 0.5340355038642883, 0.5342850685119629, 0.5345388650894165, 0.5348159670829773, 0.5350823998451233, 0.5353236794471741, 0.5355499982833862, 0.5357853770256042, 0.5360347628593445, 0.5362622737884521, 0.536443293094635, 0.5366016030311584, 0.5367416739463806, 0.5368486642837524, 0.5369459390640259, 0.5370394587516785, 0.5371599197387695, 0.537264883518219, 0.5373633503913879, 0.5374795794487, 0.5376074910163879, 0.5377670526504517, 0.5379409193992615, 0.5381373763084412, 0.5383835434913635, 0.5386345982551575, 0.5388796925544739, 0.5391406416893005, 0.5394013524055481, 0.5397007465362549, 0.5400174260139465, 0.5403016805648804, 0.5405914783477783, 0.5408534407615662, 0.5410922765731812, 0.5412957072257996, 0.5414758324623108, 0.5416564345359802, 0.5417889356613159, 0.5418752431869507, 0.541896402835846, 0.541898250579834, 0.5418624877929688, 0.5418059825897217, 0.5417471528053284, 0.5416860580444336, 0.5416185855865479, 0.5414953827857971, 0.541366696357727, 0.5412450432777405, 0.5411490201950073, 0.5411021113395691, 0.5410552620887756, 0.5410410165786743, 0.5410658717155457, 0.5411251783370972, 0.5412502884864807, 0.5413995981216431, 0.5415798425674438, 0.541793704032898, 0.5420059561729431, 0.5422202348709106, 0.5424367189407349, 0.5426604151725769, 0.542914092540741, 0.5431673526763916, 0.5433923602104187, 0.5436013340950012, 0.5437965393066406, 0.5439823865890503, 0.5441296100616455, 0.544220507144928, 0.5442699193954468, 0.5442984104156494, 0.544329047203064, 0.5443379878997803, 0.5443071126937866, 0.5442858338356018, 0.5442782640457153, 0.5442731380462646, 0.544277548789978, 0.5442929267883301, 0.5443280339241028, 0.5443893671035767, 0.5444742441177368, 0.5445862412452698, 0.5447347164154053, 0.5448995232582092, 0.5451053380966187, 0.5453198552131653, 0.5455465912818909, 0.5457726120948792, 0.5459932088851929, 0.5462554693222046, 0.5464947819709778, 0.5467050075531006, 0.5468875169754028, 0.5470741391181946, 0.547227144241333, 0.5473607778549194, 0.5474725961685181, 0.5475102066993713, 0.5475524663925171, 0.547563374042511, 0.5475687384605408, 0.5475645661354065, 0.5475316047668457, 0.5474941730499268, 0.5474510192871094, 0.5473924875259399, 0.547321617603302, 0.5472666025161743, 0.5472170114517212, 0.5471839904785156, 0.5471736788749695, 0.5471920967102051, 0.5472267866134644, 0.5472673773765564, 0.5473111867904663, 0.5473721623420715, 0.5474245548248291, 0.5474585890769958, 0.5474908947944641, 0.5475099086761475, 0.5475338697433472, 0.5475567579269409, 0.5475589632987976, 0.5475363731384277, 0.547493577003479, 0.5474364161491394, 0.5473788380622864, 0.5472772717475891, 0.5471236705780029, 0.5469642281532288, 0.5468568205833435, 0.5467768311500549, 0.5466957688331604, 0.5466141104698181, 0.5465521216392517, 0.5465310215950012, 0.5465400815010071, 0.546562910079956, 0.5466250777244568, 0.5467260479927063, 0.5468669533729553, 0.547053873538971, 0.5472748875617981, 0.5475201606750488, 0.5478000044822693, 0.5481309294700623, 0.548457145690918, 0.5487982630729675, 0.5491153001785278, 0.5494376420974731, 0.5497580766677856, 0.550034761428833, 0.5502903461456299, 0.5505002737045288, 0.5506914854049683, 0.5508326888084412, 0.5509523749351501, 0.5510152578353882, 0.551005482673645, 0.5509592890739441, 0.5508777499198914, 0.550803542137146, 0.5507056713104248, 0.5505916476249695, 0.5504593253135681, 0.5503280758857727, 0.5501934289932251, 0.5500591397285461, 0.5499304533004761, 0.549806535243988, 0.5497202277183533, 0.5496783256530762, 0.5496736168861389, 0.5496837496757507, 0.5497178435325623, 0.5497569441795349, 0.549811065196991, 0.5498751401901245, 0.5499329566955566, 0.5500138998031616, 0.5501245856285095, 0.5502256751060486, 0.5503169894218445, 0.5503737330436707, 0.550406813621521, 0.5504462122917175, 0.5504562854766846, 0.5504163503646851, 0.5503599643707275, 0.5502777695655823, 0.5501807928085327, 0.550090491771698, 0.5499783158302307, 0.5498605966567993, 0.5497571229934692, 0.5496711134910583, 0.5495963096618652, 0.5494974255561829, 0.5493979454040527, 0.5493199229240417, 0.5492989420890808, 0.5493040680885315, 0.5493327379226685, 0.549419105052948, 0.5495021343231201, 0.5496094226837158, 0.5497176051139832, 0.5498525500297546, 0.5500361323356628, 0.550209641456604, 0.5503895282745361, 0.5505669713020325, 0.5507194399833679, 0.550861656665802, 0.5509817600250244, 0.5511170029640198, 0.5512164235115051, 0.5512939691543579, 0.5513217449188232, 0.5513142943382263, 0.5513140559196472, 0.5512639880180359, 0.5512403249740601, 