{"model": "GRU", "benchmark": "SB", "meta": {"LR": 0.001, "n_re": 10, "n_hs": [2, 4, 8, 16, 32], "n_look": [2, 4, 8, 16, 32], "n_opt": 10000, "batch_len": 200}, "nh_xval": 4, "look_xval": 2, "theta": {"params": {"Dense_0": {"bias": [0.504950225353241], "kernel": [[-0.035196226090192795], [-0.057200029492378235], [-0.11141183972358704], [-1.154004454612732]]}, "GRUCell_0": {"hn": {"bias": [-0.06789588928222656, -0.4990001320838928, -0.013363645412027836, 0.5467673540115356], "kernel": [[-0.05221324414014816, -0.46971383690834045, 0.10804754495620728, -1.4665066003799438], [0.1520983725786209, 0.749202311038971, 0.1883448213338852, 0.24310366809368134], [0.6151503920555115, -0.43292298913002014, -0.5356645584106445, -0.7932615280151367], [0.906990110874176, -0.10348466038703918, 1.4013105630874634, 1.1027976274490356]]}, "hr": {"kernel": [[0.14740149676799774, 0.2767667770385742, 1.2298717498779297, -1.3665825128555298], [-0.09528797119855881, -0.31853440403938293, 0.5265015363693237, -1.6619205474853516], [-1.3381057977676392, 0.9825056195259094, -1.2907061576843262, -0.04854849725961685], [1.7206534147262573, 1.0504482984542847, -1.9856468439102173, 0.8411981463432312]]}, "hz": {"kernel": [[-0.6156999468803406, -1.8490748405456543, -1.9994332790374756, -0.9017192125320435], [-0.25179368257522583, -0.5251954793930054, 0.8945431709289551, 0.7023729085922241], [0.4720117151737213, 1.161008596420288, 1.6821677684783936, 1.8343188762664795], [-0.9745326638221741, -2.462848424911499, 1.3342838287353516, -0.08263755589723587]]}, "in": {"bias": [0.0053839790634810925, -0.5332179069519043, 0.049220260232686996, -0.22106994688510895], "kernel": [[-0.14438582956790924, -1.0364714860916138, -0.09068518131971359, -0.038099367171525955], [-0.11493312567472458, -0.9701462984085083, 0.37522220611572266, -0.3598531186580658]]}, "ir": {"bias": [-0.2460704892873764, -0.09763255715370178, -0.41780978441238403, 1.1144503355026245], "kernel": [[-0.00750017212703824, -0.02273574471473694, 0.06011386215686798, 1.9826997518539429], [-0.07796779274940491, 0.24531079828739166, 0.44405293464660645, -1.1399463415145874]]}, "iz": {"bias": [-0.5007810592651367, -1.091783046722412, -0.3324975073337555, -1.649811863899231], "kernel": [[-0.5484445691108704, 0.7176924347877502, -0.8512828946113586, 0.08108110725879669], [0.05378439649939537, 0.8234996795654297, -0.6676700711250305, -0.8901616334915161]]}}}}, "test_1": {"yhat": [-0.007178687956184149, -0.011457668617367744, -0.016051270067691803, -0.01586434803903103, -0.012291262857615948, 0.00013412718544714153, 0.027625178918242455, 0.04757876321673393, 0.0333574153482914, 4.124725455767475e-05, -0.03446619585156441, -0.06756845861673355, -0.07257959991693497, -0.035547368228435516, 0.015737367793917656, 0.05982518941164017, 0.08476362377405167, 0.07351729273796082, 0.023919567465782166, -0.029959585517644882, -0.050352588295936584, -0.0321611687541008, 0.00043828372145071626, 0.01836039125919342, 0.018676968291401863, 0.010035851038992405, -0.003525539068505168, -0.014243938960134983, -0.009223963133990765, 0.0024436162784695625, 0.011086471378803253, 0.025414003059267998, 0.03992806002497673, 0.03232383728027344, 0.013044092804193497, 0.00477224588394165, 0.01086337585002184, 0.013080610893666744, -0.0006567896925844252, -0.02861776389181614, -0.049142785370349884, -0.04122377932071686, -0.009278702549636364, 0.024550803005695343, 0.04290233552455902, 0.03606954962015152, 0.0023237373679876328, -0.048240408301353455, -0.08413070440292358, -0.073741614818573, -0.0259147509932518, 0.017627447843551636, 0.04177221655845642, 0.041329268366098404, 0.019616372883319855, -0.001385990995913744, -0.001976734958589077, -0.006009658798575401, -0.0225716233253479, -0.027322888374328613, -0.014728347770869732, -0.005044788587838411, 0.0048356736078858376, 0.0176689475774765, 0.02000151388347149, 0.007203556131571531, -0.01054620835930109, -0.026737432926893234, -0.0327472984790802, -0.015616489574313164, 0.021887658163905144, 0.05797809362411499, 0.07215584814548492, 0.056590378284454346, 0.016987880691885948, -0.031490448862314224, -0.07075823843479156, -0.08225158601999283, -0.05778202414512634, -0.008853299543261528, 0.043280553072690964, 0.07704844325780869, 0.07431195676326752, 0.030823320150375366, -0.030576637014746666, -0.07419537007808685, -0.0872616320848465, -0.07614511996507645, -0.0366705022752285, 0.025840669870376587, 0.08292447775602341, 0.0982084795832634, 0.06082794815301895, -0.010630310513079166, -0.07826545089483261, -0.10991393774747849, -0.09312222898006439, -0.04079355672001839, 0.014991594478487968, 0.046642374247312546, 0.045018427073955536, 0.015148195438086987, -0.03216971457004547, -0.07402313500642776, -0.07468986511230469, -0.023654544726014137, 0.03518516197800636, 0.06005467474460602, 0.04742267355322838, 0.009640437550842762, -0.036284465342760086, -0.07433733344078064, -0.08481723815202713, -0.060059044510126114, -0.015857895836234093, 0.020328184589743614, 0.03585457801818848, 0.03394888713955879, 0.02257830835878849, 0.003658069996163249, -0.02201942913234234, -0.04658334329724312, -0.05546518787741661, -0.03815407678484917, -0.0012103893095627427, 0.03532173112034798, 0.05194701999425888, 0.03766180947422981, -0.00048546845209784806, -0.040178727358579636, -0.06992042064666748, -0.09202193468809128, -0.08512905985116959, -0.0344524085521698, 0.04057743772864342, 0.09782372415065765, 0.11266522109508514, 0.0803680494427681, 0.014109407551586628, -0.05870959535241127, -0.10256268829107285, -0.08710605651140213, -0.016210364177823067, 0.060886263847351074, 0.10216479003429413, 0.09096088260412216, 0.030005738139152527, -0.04608890041708946, -0.08242510259151459, -0.05953838676214218, -0.0054518296383321285, 0.061502113938331604, 0.11355768144130707, 0.11589423567056656, 0.05585186183452606, -0.03930525481700897, -0.12135816365480423, -0.15098236501216888, -0.10920429974794388, -0.020553410053253174, 0.06562034040689468, 0.11405794322490692, 0.11214348673820496, 0.07121115177869797, 0.021239759400486946, -0.018767518922686577, -0.045910220593214035, -0.04630190506577492, -0.025018228217959404, -0.0019455449655652046, 0.021223558112978935, 0.04080395773053169, 0.04175274074077606, 0.019930751994252205, -0.013789352029561996, -0.05097968503832817, -0.07298189401626587, -0.05638836324214935, -0.008348050527274609, 0.0334935188293457, 0.04682578146457672, 0.03148340806365013, 0.0019333197269588709, -0.02678731642663479, -0.04252384230494499, -0.024039698764681816, 0.0279072318226099, 0.061531733721494675, 0.0523691400885582, 0.023289864882826805, 0.002102915896102786, -0.018563859164714813, -0.03798707202076912, -0.041473157703876495, -0.03076918236911297, -0.007751632947474718, 0.021767165511846542, 0.03224842622876167, 0.013027277775108814, -0.015672314912080765, -0.03599189966917038, -0.0507599376142025, -0.04222119227051735, 0.003287751693278551, 0.06262996047735214, 0.0957953929901123, 0.09276650100946426, 0.060712896287441254, 0.013509731739759445, -0.03197234123945236, -0.05985470861196518, -0.0659806951880455, -0.041731659322977066, 0.011216827668249607, 0.05992751196026802, 0.06989210098981857, 0.03904694318771362, -0.01676188036799431, -0.06907057017087936, -0.07906767725944519, -0.03388994187116623, 0.028497936204075813, 0.07772483676671982, 0.09838836640119553, 0.07969824969768524, 0.02651946432888508, -0.03146569803357124, -0.07122405618429184, -0.08598561584949493, -0.06680893152952194, -0.027110589668154716, 0.017354978248476982, 0.059103820472955704, 0.07881353050470352, 0.04921814799308777, -0.01453067921102047, -0.0677223727107048, -0.07438120990991592, -0.028613420203328133, 0.04020576551556587, 0.08200689405202866, 0.08204837143421173, 0.05046814680099487, 0.006882840301841497, -0.03742345795035362, -0.06739071756601334, -0.0700359046459198, -0.04399153217673302, -0.008372276090085506, 0.011786910705268383, 0.019961697980761528, 0.028411585837602615, 0.031128602102398872, 0.011403406038880348, -0.011292262934148312, -0.015706660225987434, -0.009546889923512936, -0.0014289618702605367, 0.018535494804382324, 0.04992816969752312, 0.06719136238098145, 0.050033122301101685, 0.010683774948120117, -0.02361352927982807, -0.0351218655705452, -0.01876252330839634, 0.02096453122794628, 0.06590637564659119, 0.09692306071519852, 0.09837932139635086, 0.06087902933359146, -0.0016437778249382973, -0.05592752993106842, -0.07788435369729996, -0.04736381769180298, 0.031552381813526154, 0.09750886261463165, 0.11018356680870056, 0.07471685111522675, 0.0066884420812129974, -0.08780042082071304, -0.14332018792629242, -0.1089962050318718, -0.012522945180535316, 0.09016358852386475, 0.15699388086795807, 0.1561192274093628, 0.08194898813962936, -0.022200601175427437, -0.09352347999811172, -0.11299943178892136, -0.07566716521978378, -0.0145102608948946, 0.03351419419050217, 0.06057858094573021, 0.060965944081544876, 0.02420174703001976, -0.033791158348321915, -0.07434675097465515, -0.07153355330228806, -0.02348584309220314, 0.03949791565537453, 0.07013043016195297, 0.05960097163915634, 0.026931818574666977, -0.0022710144985467196, -0.0300894808024168, -0.05508536100387573, -0.05397144332528114, -0.010526786558330059, 0.05702754855155945, 0.09903150796890259, 0.08577396720647812, 0.02039927802979946, -0.06197309494018555, -0.11484519392251968, -0.12298517674207687, -0.09514062106609344, -0.03132551535964012, 0.05090465396642685, 0.1150084137916565, 0.13046018779277802, 0.08695157617330551, -0.004347032401710749, -0.10040983557701111, -0.1435084044933319, -0.10955458134412766, -0.01879817247390747, 0.0831567719578743, 0.14458832144737244, 0.13251732289791107, 0.04339910298585892, -0.07679497450590134, -0.1517982929944992, -0.14201048016548157, -0.054901059716939926, 0.0594504252076149, 0.13261862099170685, 0.130787193775177, 0.05926936864852905, -0.037149786949157715, -0.10554759204387665, -0.12494460493326187, -0.0869884341955185, -0.01608915627002716, 0.05319313704967499, 0.10261814296245575, 0.11843136698007584, 0.08422045409679413, 0.008960672654211521, -0.05824087932705879, -0.07769894599914551, -0.05793994292616844, -0.009608669206500053, 0.0528067946434021, 0.10010582208633423, 0.10644414275884628, 0.06942610442638397, 0.008345305919647217, -0.05161871388554573, -0.08430975675582886, -0.06760204583406448, -0.01094056200236082, 0.050649434328079224, 0.08896741271018982, 0.08855006843805313, 0.05016864091157913, -0.006894745398312807, -0.06064842268824577, -0.09843633323907852, -0.09735964238643646, -0.04951890558004379, 0.01722436584532261, 0.06661964952945709, 0.07759468257427216, 0.04510316625237465, -0.01269878912717104, -0.06038699299097061, -0.07636236399412155, -0.05859536677598953, -0.012032785452902317, 0.03930295631289482, 0.06771016120910645, 0.06497221440076828, 0.037008363753557205, -0.007806857582181692, -0.06080576404929161, -0.10023341327905655, -0.10048414021730423, -0.0513591505587101, 0.02899615839123726, 0.0981023758649826, 0.11525837332010269, 0.06505312025547028, -0.025119630619883537, -0.09094805270433426, -0.08775720000267029, -0.030880846083164215, 0.03201211616396904, 0.06443977355957031, 0.0591057650744915, 0.02898959070444107, -0.005801154766231775, -0.031270407140254974, -0.03604207560420036, -0.025745384395122528, -0.011835462413728237, 0.009367329999804497, 0.03428102657198906, 0.04111054167151451, 0.02042258530855179, -0.012294942513108253, -0.03563263267278671, -0.036256369203329086, -0.015611863695085049, 0.009569496847689152, 0.03055328130722046, 0.0449417345225811, 0.039347678422927856, 0.00013497049803845584, -0.049103301018476486, -0.07272873818874359, -0.058672886341810226, -0.020317358896136284, 0.019849129021167755, 0.035795725882053375, 0.018813356757164, -0.014861605130136013, -0.03660961613059044, -0.02826165407896042, 0.0013268593465909362, 0.02628982625901699, 0.0343838594853878, 0.027535071596503258, 0.005339134018868208, -0.03614291548728943, -0.07296167314052582, -0.07668252289295197, -0.05139986053109169, -0.015407870523631573, 0.028503814712166786, 0.06996099650859833, 0.08496009558439255, 0.05722746625542641, 0.0019041358027607203, -0.04242154583334923, -0.04503593221306801, -0.017871316522359848, 0.00504910945892334, 0.017597420141100883, 0.022434741258621216, 0.017602991312742233, 0.00016566214617341757, -0.02536543272435665, -0.057314444333314896, -0.07655145227909088, -0.05274543911218643, 0.01064861100167036, 0.06027143448591232, 0.07494158297777176, 0.06365367025136948, 0.04440847784280777, 0.019070465117692947, -0.014747309498488903, -0.0496956929564476, -0.0754116028547287, -0.0745636597275734, -0.03721005842089653, 0.017087314277887344, 0.053482163697481155, 0.06072564795613289, 0.0424598753452301, 0.004751878324896097, -0.03781772032380104, -0.05800508335232735, -0.0492900088429451, -0.022479841485619545, 0.02132122963666916, 0.06471313536167145, 0.07306589186191559, 0.04128779470920563, -0.009317430667579174, -0.06445896625518799, -0.11483582854270935, -0.11920446902513504, -0.0610896572470665, 0.025298800319433212, 0.0944194570183754, 0.1201346144080162, 0.09205321222543716, 0.02148071862757206, -0.050837405025959015, -0.08814824372529984, -0.09871500730514526, -0.08738469332456589, -0.0409834049642086, 0.032272547483444214, 0.09830492734909058, 0.12149669975042343, 0.08603458106517792, 0.0023993803188204765, -0.08246829360723495, -0.11685536801815033, -0.09291204065084457, -0.03140348568558693, 0.04232029616832733, 0.0944041758775711, 0.10106285661458969, 0.05566012114286423, -0.03255438432097435, -0.12485119700431824, -0.1584586203098297, -0.10739938914775848, -0.018634697422385216, 0.06143873929977417, 0.11044453829526901, 0.1175295040011406, 0.08215007930994034, 0.024119867011904716, -0.022607579827308655, -0.044418033212423325, -0.04271120950579643, -0.017727363854646683, 0.02054394595324993, 0.05449322611093521, 0.07185345143079758, 0.06918787956237793, 0.045062534511089325, -0.00032941639074124396, -0.04613303393125534, -0.06251692026853561, -0.044401779770851135, -0.00921698659658432, 0.03212632238864899, 0.06446731835603714, 0.06490369886159897, 0.027269989252090454, -0.01964937523007393, -0.036896754056215286, -0.015927009284496307, 0.021191077306866646, 0.05419134348630905, 0.06465335935354233, 0.042690206319093704, 0.001460384693928063, -0.03285931795835495, -0.052694980055093765, -0.06456562876701355, -0.059812478721141815, -0.04070872813463211, -0.02244359254837036, -0.00408368743956089, 0.01631593517959118, 0.022966081276535988, 0.008695359341800213, -0.007267172448337078, -0.015592211857438087, -0.0340956375002861, -0.04342781379818916, -0.022117918357253075, 0.00894168484956026, 0.013484278693795204, 0.002453199354931712, -0.00882147066295147, -0.01506232749670744, -0.01024297159165144, 0.011134259402751923, 0.037855133414268494, 0.05212521553039551, 0.041237857192754745, 0.004971779882907867, -0.03338877111673355, -0.04816832020878792, -0.039705537259578705, -0.01037115603685379, 0.0362861268222332, 0.07132114470005035, 0.0613463819026947, 0.012412677519023418, -0.044926758855581284, -0.08106539398431778, -0.08516202867031097, -0.05919680371880531, -0.013938619755208492, 0.030840186402201653, 0.05239599570631981, 0.04651237651705742, 0.0261368528008461, -0.0007855872972868383, -0.03032461367547512, -0.03253277763724327, 0.003959926776587963, 0.036912813782691956, 0.04401211813092232, 0.03173847496509552, 0.009077408351004124, -0.010614287108182907, -0.009433042258024216, 0.005676895380020142, 0.017266813665628433, 0.02719222567975521, 0.028252607211470604, 0.0028672940097749233, -0.034255508333444595, -0.05574488639831543, -0.05235480144619942, -0.03192746639251709, -0.012378622777760029, -0.01276829931885004, -0.02111426740884781, -0.014884655363857746, 0.007500659674406052, 0.024926820769906044, 0.0360615998506546, 0.04218311607837677, 0.0360955111682415, 0.022007128223776817, 0.018120914697647095, 0.026967443525791168, 0.025971844792366028, 0.011153374798595905, -0.007359272800385952, -0.0268110204488039, -0.04369726777076721, -0.042250555008649826, -0.021105054765939713, 0.0026184129528701305, 0.0247225072234869, 0.04446814954280853, 0.04958989843726158, 0.030463198199868202, 0.0011395278852432966, -0.021649634465575218, -0.03980843350291252, -0.05418800935149193, -0.05728110671043396, -0.047127027064561844, -0.024492086842656136, 0.0071206046268343925, 0.032756589353084564, 0.03497673571109772, 0.01935545541346073, 0.006004792638123035, 0.0016802477184683084, -0.011545374058187008, -0.03268197923898697, -0.04485316202044487, -0.03315890207886696, 0.008627076633274555, 0.0684409812092781, 0.11360109597444534, 0.11378900706768036, 0.061977848410606384, -0.0169957485049963, -0.07612060010433197, -0.09129241108894348, -0.08716312050819397, -0.06943012028932571, -0.023289669305086136, 0.04320360720157623, 0.09299971908330917, 0.09675279259681702, 0.05138232931494713, -0.028435377404093742, -0.11107677966356277, -0.1523173302412033, -0.12983399629592896, -0.05869169533252716, 0.029802702367305756, 0.09915471076965332, 0.11859762668609619, 0.07533645629882812, -0.006939556449651718, -0.07410691678524017, -0.09290221333503723, -0.06384427845478058, 0.0061129676178097725, 0.09060981124639511, 0.15031971037387848, 0.15052327513694763, 0.07542968541383743, -0.042155057191848755, -0.12502096593379974, -0.1317720115184784, -0.0859985500574112, -0.0100203612819314, 0.06528426706790924, 0.10222086310386658, 0.0778072252869606, 5.8420268032932654e-05, -0.0830104723572731, -0.112533800303936, -0.07405246794223785, -0.006104289088398218, 0.0627952516078949, 0.11143499612808228, 0.11940726637840271, 0.0706622526049614, -0.021360810846090317, -0.1108681857585907, -0.14422287046909332, -0.09329786896705627, 0.00681747030466795, 0.0858423039317131, 0.11386600136756897, 0.0816236212849617, 0.0019378046272322536, -0.07576647400856018, -0.09604106843471527, -0.061289574950933456, -0.008100165985524654, 0.04050644487142563, 0.05442233756184578, 0.017608152702450752, -0.04086912423372269, -0.07129766047000885, -0.05468561872839928, -0.021241569891572, 0.012237881310284138, 0.038300301879644394, 0.04771021753549576, 0.03146091848611832, 0.0025359466671943665, -0.008670018054544926, 0.009342874400317669, 0.024401023983955383, 0.02460012398660183, 0.02111533097922802, 0.016004929319024086, -0.0036638302262872458, -0.025581922382116318, -0.03305956721305847, -0.029641704633831978, -0.013284320011734962, 0.0214320607483387, 0.05529258772730827, 0.06035724654793739, 0.03881556913256645, 0.003982568625360727, -0.037201039493083954, -0.0701262354850769, -0.07645607739686966, -0.05573313310742378, -0.019383728504180908, 0.011043615639209747, 0.013859325088560581, -0.007968135178089142, -0.036575205624103546, -0.06057627871632576, -0.06788155436515808, -0.04401469975709915, -0.0022164799738675356, 0.025066735222935677, 0.029001779854297638, 0.01737077161669731, 0.0040069990791380405, -0.004362173844128847, -0.017290333285927773, -0.04104877635836601, -0.05836457759141922, -0.05616685375571251, -0.043737031519412994, -0.027681132778525352, -0.007826969027519226, 0.0077770124189555645, 0.013659433461725712, 0.018133079633116722, 0.02644665725529194, 0.025410782545804977, 0.004221942741423845, -0.024793853983283043, -0.04167242348194122, -0.038514427840709686, -0.021717840805649757, -0.0009687149431556463, 0.012729918584227562, 0.014219805598258972, 0.009673327207565308, 0.0049250139854848385, -0.0077944123186171055, -0.03033953718841076, -0.045326605439186096, -0.03781301900744438, -0.008701808750629425, 0.02703503705561161, 0.04496823623776436, 0.029656169936060905, -0.0046918089501559734, -0.028181103989481926, -0.02732517570257187, -0.016524512320756912, -0.00719101820141077, -0.004804634489119053, -0.005137029569596052, 0.005214272066950798, 0.028949111700057983, 0.044873375445604324, 0.04045921936631203, 0.022967256605625153, 0.0018038193229585886, -0.011043242178857327, 0.0029139574617147446, 0.03638773411512375, 0.04374394193291664, 0.01720021665096283, -0.019434034824371338, -0.04443546384572983, -0.052530840039253235, -0.03528958186507225, -0.0034167638514190912, 0.016678255051374435, 0.021072782576084137, 0.017928026616573334, 0.014542208053171635, 0.015263090841472149, 0.01771027036011219, 0.008185790851712227, -0.010749511420726776, -0.023381182923913002, -0.02432563342154026, -0.011773031204938889, 0.01776176504790783, 0.04841093719005585, 0.0579867847263813, 0.04646072909235954, 0.019938724115490913, -0.017066918313503265, -0.04182276129722595, -0.0395348034799099, -0.03237272426486015, -0.019937150180339813, 0.008382820524275303, 0.036098629236221313, 0.03534028306603432, 0.017169347032904625, -0.0028806563932448626, -0.027088088914752007, -0.042575716972351074, -0.029117660596966743, 0.009321101009845734, 0.0509871207177639, 0.0743713453412056, 0.06202809140086174, 0.017293518409132957, -0.03531615808606148, -0.07616861164569855, -0.09380321949720383, -0.07374533265829086, -0.023493662476539612, 0.030837196856737137, 0.06558290123939514, 0.06533808261156082, 0.033352840691804886, -0.004181946627795696, -0.022033484652638435, -0.02446606010198593, -0.019294070079922676, -0.00806023646146059, 0.007600988727062941, 0.02609236165881157, 0.036090195178985596, 0.023118363693356514, -0.0030695467721670866, -0.024042075499892235, -0.04139752686023712, -0.05519064888358116, -0.05039516091346741, -0.030571194365620613, -0.009842140600085258, 0.014634998515248299, 0.04425964504480362, 0.0668291226029396, 0.06386110186576843, 0.026973115280270576, -0.03248567879199982, -0.08254145830869675, -0.09853184223175049, -0.07732916623353958, -0.02043827250599861, 0.049848053604364395, 0.0945509672164917, 0.09353021532297134, 0.04728998988866806, -0.035568322986364365, -0.12299314886331558, -0.154557004570961, -0.10247211903333664, 0.00865935254842043, 0.129774808883667, 0.20566536486148834, 0.19957619905471802, 0.09944581240415573, -0.051485929638147354, -0.17091049253940582, -0.20675891637802124, -0.13819943368434906, -0.0091056814417243, 0.10435488820075989, 0.1612228900194168, 0.14560724794864655, 0.05707613006234169, -0.06837764382362366, -0.15696726739406586, -0.1695750504732132, -0.10295093059539795, 0.013354024849832058, 0.10668735206127167, 0.12800873816013336, 0.07345688343048096, -0.021430013701319695, -0.09013962000608444, -0.09801571816205978, -0.06139525771141052, -0.004806448705494404, 0.05171883851289749, 0.08686961978673935, 0.08488447219133377, 0.04087397828698158, -0.032281648367643356, -0.09634439647197723, -0.10829277336597443, -0.05914391949772835, 0.018164895474910736, 0.07844789326190948, 0.08715588599443436, 0.037675097584724426, -0.04150199517607689, -0.1034097746014595, -0.11218422651290894, -0.04732866957783699, 0.0593755729496479, 0.13060125708580017, 0.13730435073375702, 0.08216403424739838, -0.003664175281301141, -0.07158562541007996, -0.08609146624803543, -0.06391796469688416, -0.02173818275332451, 0.0331905372440815, 0.06817876547574997, 0.05660908296704292, 0.01811271160840988, -0.012969289906322956, -0.021876204758882523, -0.005092819221317768, 0.025246821343898773, 0.029787497594952583, 0.006998502183705568, -0.019419800490140915, -0.027539314702153206, -0.0025315869133919477, 0.05199291557073593, 0.08483635634183884, 0.06640787422657013, 0.022964701056480408, -0.00826870184391737, -0.02275128848850727, -0.018063656985759735, 0.008182238787412643, 0.027306661009788513, 0.023399828001856804, 0.010438037104904652, 0.0024906375911086798, -0.0006151093984954059, 0.004486693535000086, 0.01956183835864067, 0.030357273295521736, 0.02359841577708721, 0.004912159871309996, -0.015972241759300232, -0.040475934743881226, -0.06099381297826767, -0.05426284670829773, -0.01613634265959263, 0.020939895883202553, 0.03613269329071045, 0.036548834294080734, 0.034365713596343994, 0.026067087426781654, 0.002660042140632868, -0.020937733352184296, -0.02331547997891903, -0.005630753468722105, 0.007024568505585194, 0.010472510941326618, 0.011905409395694733, 0.00703507149592042, -0.010265996679663658, -0.019344311207532883, -0.006382072810083628, 0.002015185309574008, -0.011276010423898697, -0.029383163899183273, -0.04206331446766853, -0.05321794003248215, -0.04520271718502045, -0.0037889480590820312, 0.05316556245088577, 0.08966856449842453, 0.0899599939584732, 0.053778041154146194, -0.00468954723328352, -0.05542895197868347, -0.06893342733383179, -0.03685241565108299, 0.019733799621462822, 0.05710577219724655, 0.04915372282266617, 0.0069973524659872055, -0.03649110347032547, -0.05497660115361214, -0.04855813458561897, -0.025781890377402306, 0.005162778776139021, 0.037349551916122437, 0.05832592397928238, 0.05389965698122978, 0.029740680009126663, 0.005401053931564093, -0.016197318211197853, -0.04791182279586792, -0.07146506756544113, -0.06564050167798996, -0.028783539310097694, 0.026086408644914627, 0.07670477777719498, 0.09503231942653656, 0.06606847792863846, 0.004561953246593475, -0.05386687070131302, -0.08412875980138779, -0.0764739140868187, -0.024871977046132088, 0.050527896732091904, 0.09966946393251419, 0.09022489935159683, 0.03244425356388092, -0.0342315137386322, -0.07470621913671494, -0.07992589473724365, -0.040762610733509064, 0.03244415298104286, 0.09766434133052826, 0.10858657956123352, 0.05465365946292877, -0.03202718123793602, -0.09555330872535706, -0.11065676808357239, -0.0750967264175415, 0.0010754357790574431, 0.08016225695610046, 0.1259308159351349, 0.12531165778636932, 0.08390911668539047, 0.022146377712488174, -0.03110647201538086, -0.05657026544213295, -0.05610932782292366, -0.03662266209721565, -0.007275184150785208, 0.025722451508045197, 0.060384027659893036, 0.08370094001293182, 0.06656687706708908, 0.010129280388355255, -0.04781150445342064, -0.07413633912801743, -0.0631050318479538, -0.008397677913308144, 0.0656096562743187, 0.09999030828475952, 0.07176510989665985, 0.002255454193800688, -0.06513702124357224, -0.10933119058609009, -0.1208687424659729, -0.08519339561462402, -0.009685513563454151, 0.06686162948608398, 0.10106272995471954, 0.08104485273361206, 0.02445359155535698, -0.03372707962989807, -0.06737452000379562, -0.052926111966371536, 0.010583240538835526, 0.07651396095752716, 0.09989619255065918, 0.07505808770656586, 0.01974090375006199, -0.03549256548285484, -0.06561338901519775, -0.05583149567246437, -0.007343071047216654, 0.056551456451416016, 0.0947032943367958, 0.08150606602430344, 0.026691578328609467, -0.03652156516909599, -0.08063705265522003, -0.0847298800945282, -0.03717922791838646, 0.034286826848983765, 0.08619619160890579, 0.09732716530561447, 0.0625481829047203, -0.003295134287327528, -0.061854034662246704, -0.08267968147993088, -0.0655725821852684, -0.01419125683605671, 0.049911968410015106, 0.08568189293146133, 0.07152359187602997, 0.018322519958019257, -0.04078872874379158, -0.07117915898561478, -0.05824371427297592, -0.017073243856430054, 0.026256322860717773, 0.05391095206141472, 0.058137379586696625, 0.04283788800239563, 0.016718095168471336, -0.01602272503077984, -0.04172747954726219, -0.04252621904015541, -0.02832932397723198, -0.019584055989980698, -0.010138132609426975, 0.0036003156565129757, 0.014369174838066101, 0.0267257709056139, 0.04998037964105606, 0.07183832675218582, 0.06391144543886185, 0.027675727382302284, -0.016360551118850708, -0.05925269424915314, -0.1048082485795021, -0.11887132376432419, -0.07256641238927841, 0.011685891076922417, 0.07719620317220688, 0.10920779407024384, 0.10523083806037903, 0.061683326959609985, -0.014340447261929512, -0.07661817222833633, -0.09245455265045166, -0.06795123219490051, -0.015854254364967346, 0.03912205249071121, 0.07639093697071075, 0.08784086257219315, 0.069196417927742, 0.022771582007408142, -0.026027781888842583, -0.052276093512773514, -0.057725101709365845, -0.04327206686139107, -0.013245489448308945, 0.015722647309303284, 0.030989455059170723, 0.02682267315685749, 0.005729513708502054, -0.012741644866764545, -0.009207595139741898, 0.006626573391258717, 0.017488453537225723, 0.026891058310866356, 0.03508465737104416, 0.02470952644944191, -0.010133890435099602, -0.040803536772727966, -0.03685085475444794, -0.004232635255903006, 0.0280719343572855, 0.048282500356435776, 0.041675157845020294, -0.0077775586396455765, -0.07045140117406845, -0.09608544409275055, -0.06881534308195114, -0.017356688156723976, 0.03181508928537369, 0.05413330718874931, 0.04571697488427162, 0.023036383092403412, -9.19846752367448e-06, -0.027010809630155563, -0.04325373098254204, -0.03635737672448158, -0.01980161853134632, -0.00798515509814024, 2.7600843168329448e-05, 0.011212636716663837, 0.02831542305648327, 0.03489925339818001, 0.011883738450706005, -0.025423429906368256, -0.04835428297519684, -0.04508770629763603, -0.022823328152298927, 0.005955369211733341, 0.027357975021004677, 0.042155999690294266, 0.05701630562543869, 0.06563715636730194, 0.050537556409835815, 0.010057240724563599, -0.04142621159553528, -0.07807908207178116, -0.07814746350049973, -0.04487207159399986, 0.005685124546289444, 0.05640740320086479, 0.08166972547769547, 0.058353014290332794, -0.004433625843375921, -0.06490346044301987, -0.08178801834583282, -0.05430677533149719, -0.015404624864459038, 0.017181409522891045, 0.04163309186697006, 0.057200148701667786, 0.05654095485806465, 0.03257458657026291, -0.015213153325021267, -0.07306435704231262, -0.1094004437327385, -0.10247882455587387, -0.05282418429851532, 0.01982163079082966, 0.07316417247056961, 0.07533438503742218, 0.03502973914146423, -0.012600632384419441, -0.035576093941926956, -0.03363823890686035, -0.017524495720863342, 0.0024649291299283504, 0.02491547353565693, 0.04222714528441429, 0.0392577238380909, 0.027420533820986748, 0.028035031631588936, 0.029883073642849922, 0.006922910455614328, -0.022530224174261093, -0.044123511761426926, -0.059311430901288986, -0.05030292272567749, -0.0130999144166708, 0.021939687430858612, 0.03599083796143532, 0.030573418363928795, 0.014436972327530384, 0.002225503558292985, 0.0017161526484414935, -0.002329995622858405, -0.014877027831971645, -0.025815917178988457, -0.033993761986494064, -0.03545551002025604, -0.018876217305660248, 0.01122459676116705, 0.0392918661236763, 0.05488979071378708, 0.04729566350579262, 0.01574365422129631, -0.02163129858672619, -0.05309201404452324, -0.07677570730447769, -0.07238642126321793, -0.03775705397129059, 0.0008830698789097369, 0.03206353262066841, 0.051159363240003586, 0.04955613985657692, 0.028878452256321907, 0.006992241367697716, -0.005350145976990461, -0.004564864095300436, 0.016151947900652885, 0.04249897599220276, 0.04309806227684021, 0.01275273971259594, -0.029591528698801994, -0.05778566747903824, -0.05652769282460213, -0.029690591618418694, 0.005872034002095461, 0.03395586088299751, 0.04613610357046127, 0.04173902049660683, 0.020316889509558678, -0.02001660130918026, -0.061317797750234604, -0.07647565007209778, -0.061011675745248795, -0.026482636108994484, 0.01741155795753002, 0.05370480194687843, 0.06996779888868332, 0.06732627004384995, 0.0504617840051651, 0.02514081820845604, 0.010568163357675076, 0.015190080739557743, 0.017217518761754036, 0.014159009791910648, 0.018100114539265633, 0.029542040079832077, 0.036066558212041855, 0.026102252304553986, -0.005147852003574371, -0.03613756224513054, -0.03939104452729225, -0.020157791674137115, 0.0003622829099185765, 0.016076918691396713, 0.013366623781621456, -0.011882202699780464, -0.03539184108376503, -0.03925689309835434, -0.03950903192162514, -0.04150822013616562, -0.03975361958146095, -0.03320597484707832, -0.015359852463006973, 0.011773111298680305, 0.021866727620363235, 0.004367325454950333, -0.017087822780013084, -0.01816992647945881, -0.005862704012542963, 0.0036316204350441694, 0.01372628565877676, 0.02632039040327072, 0.028287338092923164, 0.009090057574212551, -0.01825666055083275, -0.03690200671553612, -0.043319690972566605, -0.0319303534924984, 0.005139600019901991, 0.05634965002536774, 0.08446933329105377, 0.06338746845722198, 0.00947872456163168, -0.03713914379477501, -0.05939796194434166, -0.06827779859304428, -0.04287609085440636, 0.014797656796872616, 0.06084062159061432, 0.07304240763187408, 0.05597243085503578, 0.016606802120804787, -0.036478251218795776, -0.06932007521390915, -0.0607483945786953, -0.020512189716100693, 0.03324507176876068, 0.07407648861408234, 0.08471072465181351, 0.06635367125272751, 0.025642847642302513, -0.028519274666905403, -0.06312928348779678, -0.057134777307510376, -0.03267243504524231, -0.004424911458045244, 0.019289115443825722, 0.021337252110242844, 0.0011769148986786604, -0.017771970480680466, -0.015123454853892326, 0.006270207930356264, 0.034962937235832214, 0.062000591307878494, 0.07616482675075531, 0.05641936510801315, -0.007917523384094238, -0.07504592090845108, -0.09094826132059097, -0.04918939620256424, 0.00785733200609684, 0.04942023754119873, 0.05471483990550041, 0.029844995588064194, 0.0036513234954327345, -0.0044561526738107204, -0.00963014829903841, -0.011471034027636051, -0.007802334148436785, -0.006623887922614813, -0.0030860682018101215, 0.01042584702372551, 0.02369118109345436, 0.020533544942736626, 0.0004013566067442298, -0.023956632241606712, -0.03050641156733036, -0.010684436187148094, 0.007945343852043152, 0.0023615334648638964, -0.017370283603668213, -0.0333305299282074, -0.033548515290021896, -0.01830110140144825, -0.0018474773969501257, 0.0021565305069088936, -0.004562947433441877, -0.016287336125969887, -0.029469234868884087, -0.032773327082395554, -0.017020536586642265, 0.007615427486598492, 0.02563052996993065, 0.033400651067495346, 0.030448708683252335, 0.018093163147568703, 0.008408861234784126, 0.01423825602978468, 0.028378594666719437, 0.029517073184251785, 0.010756785050034523, -0.017177162691950798, -0.03333233296871185, -0.021278664469718933, 0.014386501163244247, 0.04899211227893829, 0.05813060700893402, 0.033212337642908096, -0.01170528493821621, -0.04798516631126404, -0.05870920047163963, -0.04552850499749184, -0.01198677346110344, 0.022267967462539673, 0.025996530428528786, 0.004652111325412989, -0.00890075508505106, 0.009641459211707115, 0.03145338222384453, 0.029701273888349533, 0.0067670755088329315, -0.024236587807536125, -0.04233432561159134, -0.031967077404260635, -0.006941421888768673, 0.005967099219560623, 0.00960524845868349, 0.01404695026576519, 0.01778312772512436, 0.01832517795264721, 0.025170667096972466, 0.033063556998968124, 0.021779559552669525, 0.001129676355049014, -0.011498824693262577, -0.019532907754182816, -0.020705003291368484, -0.0018246695399284363, 0.025671163573861122, 0.03584647923707962, 0.031952012330293655, 0.024112073704600334, 0.009366972371935844, -0.017792031168937683, -0.048448070883750916, -0.07043806463479996, -0.07336963713169098, -0.05747506767511368, -0.03127577528357506, 0.0019651486072689295, 0.036677274852991104, 0.05980893597006798, 0.06028211489319801, 0.037179943174123764, -0.003796244040131569, -0.049154091626405716, -0.07842882722616196, -0.07808370888233185, -0.045602332800626755, 0.009596968069672585, 0.06402409821748734, 0.09152115136384964, 0.07863999158143997, 0.03205014392733574, -0.024859236553311348, -0.07119409739971161, -0.0934816375374794, -0.07548508793115616, -0.01889481022953987, 0.047160554677248, 0.09107120335102081, 0.09442543983459473, 0.05223515257239342, -0.019529098644852638, -0.08229196071624756, -0.09764666855335236, -0.05031728371977806, 0.028417769819498062, 0.07761906087398529, 0.08267304301261902, 0.05657905712723732, 0.02231675200164318, -0.016637083142995834, -0.043337155133485794, -0.03823594003915787, -0.004238500259816647, 0.036456067115068436, 0.054636869579553604, 0.04169447720050812, 0.017238371074199677, 0.0030558903235942125, -0.010866157710552216, -0.02469794638454914, -0.021542469039559364, -0.0018988174851983786, 0.01647588424384594, 0.02420133724808693, 0.02210341952741146, 0.01903088018298149, 0.02185118943452835, 0.02810162864625454, 0.03904671594500542, 0.05449197441339493, 0.056102123111486435, 0.03053516149520874, -0.006758613511919975, -0.036120835691690445, -0.045327819883823395, -0.018827203661203384, 0.037267185747623444, 0.08101791143417358, 0.0808653011918068, 0.04015204682946205, -0.013547498732805252, -0.04999445751309395, -0.06766124814748764, -0.06834927946329117, -0.03589296340942383, 0.02526080049574375, 0.07172547280788422, 0.06885096430778503, 0.024981355294585228, -0.02940070815384388, -0.06501258909702301, -0.06829945743083954, -0.034400418400764465, 0.023065976798534393, 0.07553757727146149, 0.09695858508348465, 0.07395226508378983, 0.011953785084187984, -0.05549438297748566, -0.08489077538251877, -0.06781314313411713, -0.03992868587374687, -0.020212991163134575, -0.010778465308248997, -0.009577466174960136, -0.007390718441456556, 0.0040935794822871685, 0.01850643940269947, 0.027059083804488182, 0.0319969616830349, 0.032266389578580856, 0.020176438614726067, -0.0009129410027526319, -0.01946898177266121, -0.025550156831741333, -0.014751718379557133, 0.001514970324933529, 0.009212440811097622, 0.016335612162947655, 0.030171437188982964, 0.031087355688214302, 0.0008675834978930652, -0.036241304129362106, -0.04771430790424347, -0.021932503208518028, 0.028401797637343407, 0.08069037646055222, 0.10842082649469376, 0.09487934410572052, 0.04764625430107117, -0.0013954719761386514, -0.026107756420969963, -0.038515474647283554, -0.046511225402355194, -0.03592325747013092, -0.0032169611658900976, 0.03520550578832626, 0.06171151250600815, 0.06778610497713089, 0.04908117279410362, 0.009044748730957508, -0.03275042772293091, -0.05322130024433136, -0.04741239920258522, -0.02726638689637184, 1.2561680705402978e-05, 0.030010413378477097, 0.05031711608171463, 0.045634713023900986, 0.022529268637299538, 0.004877302795648575, 0.006486940663307905, 0.01251694280654192, 0.007864614948630333, -0.007048484869301319, -0.023881640285253525, -0.03580223023891449, -0.04213334619998932, -0.04395601153373718, -0.04085766151547432, -0.032036446034908295, -0.01898478902876377, -0.007166076451539993, 0.0008445456041954458, 0.010289536789059639, 0.022223476320505142, 0.0220111645758152, -0.002854922553524375, -0.04255639761686325, -0.07286373525857925, -0.06993309408426285, -0.032406724989414215, 0.006745507009327412, 0.02273232862353325, 0.019677627831697464, 0.010221023112535477, 0.005520422011613846, 0.016660137102007866, 0.04242931306362152, 0.053676407784223557, 0.02705272100865841, -0.027975769713521004, -0.08205714076757431, -0.101766437292099, -0.06983105093240738, 0.00422324612736702, 0.0913214161992073, 0.149214506149292, 0.13773001730442047, 0.05135950818657875, -0.05540388077497482, -0.10579292476177216, -0.0831831693649292, -0.005719276145100594, 0.08794970065355301, 0.14727196097373962, 0.14509165287017822, 0.08026966452598572, -0.020942052826285362, -0.11149024963378906, -0.1424308717250824, -0.09171544760465622, 0.014726025983691216, 0.10775179415941238, 0.13165362179279327, 0.0739380344748497, -0.03127158433198929, -0.10846085101366043, -0.11364287883043289, -0.06406889110803604, 0.009520839899778366, 0.07185923308134079, 0.09388218820095062, 0.06845695525407791, 0.01161196082830429, -0.049645427614450455, -0.0906359925866127, -0.08477195352315903, -0.03381766006350517, 0.018641242757439613, 0.04991922527551651, 0.06121096760034561, 0.05869877338409424, 0.04263569414615631, 0.019430434331297874, -0.0016691157361492515, -0.019689712673425674, -0.027725521475076675, -0.01580776832997799, 0.01217286940664053, 0.03776709735393524, 0.044763948768377304, 0.031178459525108337, 0.006637076381593943, -0.01620352827012539, -0.021913617849349976, 0.00039532562368549407, 0.03452175483107567, 0.048697564750909805, 0.03694404289126396, 0.007221521344035864, -0.03291225805878639, -0.06207684800028801, -0.0510278157889843, -0.000978528056293726, 0.0540643110871315, 0.08892161399126053, 0.08846834301948547, 0.047932520508766174, -0.015700949355959892, -0.06830083578824997, -0.08719293773174286, -0.06929848343133926, -0.023491477593779564, 0.03582038730382919, 0.09169421344995499, 0.1200179010629654, 0.09277161210775375, 0.009050651453435421, -0.08852597326040268, -0.14772233366966248, -0.13904061913490295, -0.054347895085811615, 0.06544089317321777, 0.1458510458469391, 0.14537546038627625, 0.06117178872227669, -0.06073349341750145, -0.1427762359380722, -0.1526636928319931, -0.09313450753688812, 0.011740630492568016, 0.09927698969841003, 0.1245022788643837, 0.08694866299629211, 0.013787899166345596, -0.06288022547960281, -0.10836842656135559, -0.08270911127328873, 9.657399641582742e-05, 0.08107441663742065, 0.1332162618637085, 0.13920079171657562, 0.08706465363502502, -0.007157847750931978, -0.08798885345458984, -0.12221482396125793, -0.10857530683279037, -0.04283794015645981, 0.04609145596623421, 0.10672959685325623, 0.1119438037276268, 0.06453453004360199, -0.007097780704498291, -0.06540969014167786, -0.08296623080968857, -0.053241293877363205, -0.00570032699033618, 0.02626761794090271, 0.04046793654561043, 0.04315464198589325, 0.03329375758767128, 0.008171148598194122, -0.017010735347867012, -0.03075258433818817, -0.02700701542198658, 0.0008390896255150437, 0.034764911979436874, 0.04509992152452469, 0.03971584886312485, 0.03682965785264969, 0.030590973794460297, -0.004297276958823204, -0.046251535415649414, -0.06141044944524765, -0.03429417312145233, 0.020305542275309563, 0.07488730549812317, 0.11054818332195282, 0.11897742748260498, 0.09415531903505325, 0.033046793192625046, -0.03536815196275711, -0.06537562608718872, -0.045811835676431656, -0.0018603827338665724, 0.05024014413356781, 0.0895995944738388, 0.08999648690223694, 0.04460062459111214, -0.02024478279054165, -0.06871267408132553, -0.08140110969543457, -0.048572611063718796, 0.010349079966545105, 0.05579712241888046, 0.07140222936868668, 0.05546091869473457, 0.012423232197761536, -0.03518355265259743, -0.05002342537045479, -0.020330047234892845, 0.028175175189971924, 0.0627095177769661, 0.05189678072929382, -0.006687123794108629, -0.06868375837802887, -0.08122938126325607, -0.03918054699897766, 0.022764425724744797, 0.07758302986621857, 0.1031586304306984, 0.08881479501724243, 0.04109153151512146, -0.017255859449505806, -0.06123809143900871, -0.07480011135339737, -0.05654763802886009, -0.018649647012352943, 0.025953777134418488, 0.06390025466680527, 0.07786398380994797, 0.055843938142061234, 0.009991181083023548, -0.03186504915356636, -0.05544625222682953, -0.057692211121320724, -0.030597183853387833, 0.016307834535837173, 0.055602241307497025, 0.06975990533828735, 0.05630209296941757, 0.021198155358433723, -0.02356887236237526, -0.06268046051263809, -0.08532288670539856, -0.07509639114141464, -0.020699316635727882, 0.053254902362823486, 0.09122160077095032, 0.07372035831212997, 0.02099558152258396, -0.02439713664352894, -0.03808147460222244, -0.026626765727996826, -0.0007472291472367942, 0.02983221784234047, 0.05425042659044266, 0.05418917164206505, 0.014165423810482025, -0.04434600844979286, -0.07755536586046219, -0.06457635015249252, -0.025900861248373985, 0.01781223528087139, 0.049696896225214005, 0.057713065296411514, 0.037985872477293015, -0.003234747564420104, -0.04071126878261566, -0.042295824736356735, -0.009073073044419289, 0.013455759733915329, 0.010093988850712776, -0.008278424851596355, -0.025333475321531296, -0.02999911829829216, -0.024881700053811073, -0.021229522302746773, -0.015806274488568306, -0.004569029435515404, -0.001798897166736424, -0.015697050839662552, -0.0308903269469738, -0.03633910417556763, -0.034267608076334, -0.02336897887289524, -0.00465452391654253, 0.01894700899720192, 0.04591144621372223, 0.06779377162456512, 0.07181558012962341, 0.05492206662893295, 0.023735059425234795, -0.008088167756795883, -0.027102386578917503, -0.03726801648736, -0.032141707837581635, 0.00713011110201478, 0.06424376368522644, 0.07534001022577286, 0.04021059721708298, -0.009966248646378517, -0.04724685475230217, -0.07260799407958984, -0.06698194146156311, -0.033039648085832596, 0.005602581426501274, 0.04063422232866287, 0.06402337551116943, 0.05880666896700859, 0.01599312387406826, -0.04141521081328392, -0.07324475049972534, -0.056720070540905, -0.009748570621013641, 0.03767123818397522, 0.070980004966259, 0.0830405205488205, 0.07099851220846176, 0.038667913526296616, -0.00032447147532366216, -0.02983078733086586, -0.04288365691900253, -0.044288814067840576, -0.03229645639657974, -0.003951388876885176, 0.02793753892183304, 0.0461387075483799, 0.046271469444036484, 0.024184394627809525, -0.023527612909674644, -0.06786619871854782, -0.07561630010604858, -0.05058202147483826, -0.011494659818708897, 0.03230827674269676, 0.06257732212543488, 0.061257194727659225, 0.03165396302938461, -0.006991203408688307, -0.04146410897374153, -0.06608018279075623, -0.06296245753765106, -0.02134721539914608, 0.03923998773097992, 0.08267628401517868, 0.09660446643829346, 0.08396150171756744, 0.04566192626953125, -0.020934833213686943, -0.08054542541503906, -0.0934753268957138, -0.062277328222990036, -0.01245737075805664, 0.0414402037858963, 0.07564966380596161, 0.06424951553344727, 0.016729185357689857, -0.026564911007881165, -0.03895977512001991, -0.04225538671016693, -0.033917173743247986, -0.011201057583093643, 0.014249218627810478, 0.03610903024673462, 0.04884795472025871, 0.03353167325258255, -0.013988183811306953, -0.06468750536441803, -0.08881586790084839, -0.06930836290121078, -0.00481486925855279, 0.06751266866922379, 0.10354164987802505, 0.09482302516698837, 0.05271433666348457, -0.00426777359098196, -0.05624765902757645, -0.07944347709417343, -0.061853472143411636, -0.006718096323311329, 0.05817975103855133, 0.09396718442440033, 0.08317358791828156, 0.03275791555643082, -0.029590889811515808, -0.06824928522109985, -0.06526414304971695, -0.03253691643476486, 0.012957742437720299, 0.05161736160516739, 0.06278245151042938, 0.04384475573897362, 0.0090239979326725, -0.030504494905471802, -0.058304548263549805, -0.04336569085717201, 0.013856718316674232, 0.06058131530880928, 0.07287220656871796, 0.0575469546020031, 0.029012054204940796, -0.008945885114371777, -0.04420420154929161, -0.05264078825712204, -0.021992608904838562, 0.03170269727706909, 0.07154574245214462, 0.07560327649116516, 0.04657163843512535, -0.0017982455901801586, -0.06272315979003906, -0.11295145004987717, -0.11452385783195496, -0.05550537258386612, 0.03493025153875351, 0.10593117773532867, 0.11977479606866837, 0.07202331721782684, -0.0040426841005682945, -0.0590444840490818, -0.08436289429664612, -0.07089166343212128, -0.013636980205774307, 0.04731005057692528, 0.06440223008394241, 0.04243769496679306, 0.007075142115354538, -0.018407180905342102, -0.03869391605257988, -0.04830465465784073, -0.04616160690784454, -0.04952245578169823, -0.05795830115675926, -0.050398536026477814, -0.020839396864175797, 0.011466884054243565, 0.0389435738325119, 0.05806620791554451, 0.05557136982679367, 0.030747191980481148, 0.0033754052128642797, -0.020938334986567497, -0.04067748785018921, -0.029467061161994934, 0.009502977132797241, 0.02502354606986046, 0.013338819146156311, -0.008099603466689587, -0.025527309626340866, -0.028239421546459198, -0.00662169000133872, 0.024921709671616554, 0.04967683553695679, 0.060745786875486374, 0.04640243574976921, 0.006661021616309881, -0.031077414751052856, -0.04465578496456146, -0.03460833430290222, -0.003588200081139803, 0.02839748002588749, 0.0333576425909996, 0.013328648172318935, -0.010380075313150883, -0.015795694664120674, 0.001911418978124857, 0.022031864151358604, 0.016979575157165527, -0.005997111089527607, -0.022496171295642853, -0.020971938967704773, -0.018559258431196213, -0.021417133510112762, -0.01802034117281437, 0.0013548166025429964, 0.02583167515695095, 0.034898996353149414, 0.030545255169272423, 0.02346588857471943, 0.013210303150117397, -0.0033459377009421587, -0.013281112536787987, -0.008951916359364986, 0.0005347796832211316, 0.006778013426810503, 0.005248567089438438, -0.008811580948531628, -0.02769431844353676, -0.034010037779808044, -0.027392564341425896, -0.02848283387720585, -0.030188290402293205, -0.016644276678562164, 0.004859158769249916, 0.011152173392474651, 0.00995054841041565, 0.012158327735960484, 0.007196145597845316, -0.020533312112092972, -0.062243979424238205, -0.09795346856117249, -0.10149364173412323, -0.06077060103416443, 0.0029386435635387897, 0.05525423213839531, 0.07548736035823822, 0.0610746294260025, 0.02838071621954441, -0.0012719770893454552, -0.02641506865620613, -0.041542500257492065, -0.0322040356695652, -0.008953641168773174, 0.00884248036891222, 0.02127806656062603, 0.02360682375729084, 0.007435749750584364, -0.009309278801083565, -0.006366573739796877, 0.009767599403858185, 0.03039604052901268, 0.0478922463953495, 0.0350438691675663, -0.008538729511201382, -0.04384876787662506, -0.045285116881132126, -0.04497949406504631, -0.04498487338423729, -0.02891778014600277, 0.005167199764400721, 0.04254354536533356, 0.06427325308322906, 0.055716622620821, 0.019513564184308052, -0.022023478522896767, -0.045630838721990585, -0.0427706278860569, -0.017227519303560257, 0.017053376883268356, 0.046842675656080246, 0.06106916069984436, 0.04748888686299324, 0.012259679846465588, -0.014807351864874363, -0.018908584490418434, -0.02361236698925495, -0.018226109445095062, 0.00898643210530281, 0.03341813385486603, 0.03309529647231102, 0.02561090514063835, 0.02305501326918602, 0.007012225687503815, -0.016854874789714813, -0.030562007799744606, -0.03262416273355484, -0.01905578188598156, 0.012555505149066448, 0.0431642010807991, 0.05732608214020729, 0.052585769444704056, 0.018594834953546524, -0.04585030674934387, -0.09449467808008194, -0.08405380696058273, -0.017683716490864754, 0.0640747994184494, 0.1227358877658844, 0.12936224043369293, 0.07042055577039719, -0.029596269130706787, -0.1035555899143219, -0.10449399799108505, -0.0556352324783802, 0.014443105086684227, 0.08401281386613846, 0.12214477360248566, 0.10668497532606125, 0.044319696724414825, -0.03607432544231415, -0.11082285642623901, -0.14469970762729645, -0.11235553026199341, -0.026872454211115837, 0.07635293900966644, 0.1515614241361618, 0.1606776863336563, 0.08902718126773834, -0.028001107275485992, -0.11145876348018646, -0.11609911918640137, -0.06502102315425873, -0.001487265806645155, 0.05316196009516716, 0.07866843044757843, 0.061502933502197266, 0.014332094229757786, -0.02776302397251129, -0.05066052824258804, -0.05968343839049339, -0.041370924562215805, -0.005505737848579884, 0.019335268065333366, 0.02764582820236683, 0.022574756294488907, 0.008009972050786018, -0.000986731261946261, 0.011138347908854485, 0.03576452285051346, 0.05006059631705284, 0.04255082830786705, 0.016980290412902832, -0.009177899919450283, -0.021648280322551727, -0.021054226905107498, -0.0058072879910469055, 0.020503466948866844, 0.03972785919904709, 0.0412357896566391, 0.027455264702439308, 0.0004180185205768794, -0.0321478545665741, -0.0488499253988266, -0.037050772458314896, 0.00021044741151854396, 0.050030797719955444, 0.08425497263669968, 0.07489747554063797, 0.023226257413625717, -0.04171957075595856, -0.08501006662845612, -0.0848923996090889, -0.03469661623239517, 0.04367474094033241, 0.10139241814613342, 0.10062550753355026, 0.042382340878248215, -0.03521958738565445, -0.08388940989971161, -0.0912930965423584, -0.06033084914088249, -0.006704092025756836, 0.045089952647686005, 0.07986098527908325, 0.08660852164030075, 0.049986742436885834, -0.027638889849185944, -0.09808121621608734, -0.10765458643436432, -0.04517829790711403, 0.045255038887262344, 0.10834562033414841, 0.11541126668453217, 0.06453195214271545, -0.017217246815562248, -0.08567435294389725, -0.11241307109594345, -0.08651752024888992, -0.013489948585629463, 0.0682569369673729, 0.1140628531575203, 0.1099584773182869, 0.06470654159784317, -0.0011214065598323941, -0.06247065216302872, -0.08552263677120209, -0.061664365231990814, -0.013120320625603199, 0.038730062544345856, 0.07023865729570389, 0.061137061566114426, 0.015217551961541176, -0.0380854606628418, -0.07016191631555557, -0.07183914631605148, -0.044175490736961365, -0.008427207358181477, 0.00840771198272705, 0.005663556046783924, -0.0008595053222961724, 0.00024867779575288296, -0.00040323223220184445, -0.008111397735774517, -0.01376714464277029, -0.008037210442125797, 0.00788125116378069, 0.024480603635311127, 0.03301569074392319, 0.030890224501490593, 0.02360546961426735, 0.019358931109309196, 0.017127972096204758, 0.003226879285648465, -0.025951717048883438, -0.05277147889137268, -0.061048589646816254, -0.05178605020046234, -0.023169828578829765, 0.02463201805949211, 0.06755363196134567, 0.07205158472061157, 0.04020136967301369, -0.003637086832895875, -0.03917425870895386, -0.0578274242579937, -0.050723109394311905, -0.03309846296906471, -0.02147095277905464, -0.006577377673238516, 0.01463681273162365, 0.017998991534113884, -0.00793597474694252, -0.03319043666124344, -0.024614814668893814, 0.017313247546553612, 0.0565313957631588, 0.06536384671926498, 0.03268991410732269, -0.024560779333114624, -0.058848630636930466, -0.03242401406168938, 0.026367053389549255, 0.05871773511171341, 0.057793281972408295, 0.03104102425277233, -0.012711042538285255, -0.06369750201702118, -0.09412892162799835, -0.08497440069913864, -0.0381842702627182, 0.0289372019469738, 0.08885984867811203, 0.11462263762950897, 0.0868188664317131, 0.005247391294687986, -0.08796966075897217, -0.13319805264472961, -0.10961341112852097, -0.03654845058917999, 0.04889431223273277, 0.09743761271238327, 0.0840625986456871, 0.023775052279233932, -0.038488324731588364, -0.06542797386646271, -0.05141659826040268, -0.010250523686408997, 0.025849180296063423, 0.04122842848300934, 0.035874564200639725, 0.009549818933010101, -0.03377290070056915, -0.06337190419435501, -0.05064580589532852, 0.0016746383626013994, 0.06496217101812363, 0.10642416030168533, 0.10373972356319427, 0.05348518118262291, -0.026886191219091415, -0.10335932672023773, -0.13440075516700745, -0.09900876879692078, -0.02064400352537632, 0.058038532733917236, 0.10855895280838013, 0.11541911214590073, 0.07335737347602844, -0.005791890900582075, -0.08592844009399414, -0.1313844621181488, -0.12555918097496033, -0.06819615513086319, 0.015951775014400482, 0.08348929136991501, 0.10614463686943054, 0.08123791962862015, 0.024724476039409637, -0.041988473385572433, -0.08923307061195374, -0.0849008560180664, -0.02946080081164837, 0.04550885409116745, 0.10960055142641068, 0.13314767181873322, 0.08982869237661362, -0.009694279171526432, -0.10237947851419449, -0.1358848512172699, -0.12089788168668747, -0.06075664609670639, 0.029322342947125435, 0.10408306121826172, 0.12443982809782028, 0.08363161236047745, 0.0018222061917185783, -0.08069833368062973, -0.11166667193174362, -0.06075327470898628, 0.0293161328881979, 0.09304653853178024, 0.11716950684785843, 0.09727546572685242, 0.025368794798851013, -0.07613643258810043, -0.13518068194389343, -0.11208365112543106, -0.036581747233867645, 0.05238797143101692, 0.11088763177394867, 0.10567355901002884, 0.036917492747306824, -0.05456005409359932, -0.11547644436359406, -0.11980649828910828, -0.05971372127532959, 0.03273599222302437, 0.1055593490600586, 0.13453792035579681, 0.1125747561454773, 0.03844982385635376, -0.0679587572813034, -0.14039458334445953, -0.13188296556472778, -0.059330545365810394, 0.03120899759232998, 0.10043223202228546, 0.12257836759090424, 0.09189192950725555, 0.02084455080330372, -0.06589843332767487, -0.1219990998506546, -0.09804543852806091, -0.004204716067761183, 0.0650169849395752, 0.08864253014326096, 0.07115403562784195, 0.026833202689886093, -0.03820433095097542, -0.08547768741846085, -0.08661603182554245, -0.049827151000499725, 0.014832462184131145, 0.07704120874404907, 0.09627902507781982, 0.06972228735685349, 0.023428628221154213, -0.01494937390089035, -0.044358644634485245, -0.05793725699186325, -0.05783972889184952, -0.041265521198511124, 0.0010660059051588178, 0.05360444635152817, 0.07377491891384125, 0.045936234295368195, -0.015413160435855389, -0.07778920978307724, -0.10272005200386047, -0.06820109486579895, 0.004396688658744097, 0.06408363580703735, 0.0789223462343216, 0.047660283744335175, -0.0027525871992111206, -0.03567731752991676, -0.04241069406270981, -0.02430550940334797, 0.017824681475758553, 0.056792620569467545, 0.056302908807992935, 0.026214463636279106, 0.0011876864591613412, 0.004561339970678091, 0.010407064110040665, 0.007987688295543194, 0.0034958464093506336, -0.0030718210618942976, -0.020314304158091545, -0.04277457296848297, -0.0502518005669117, -0.03130674734711647, -0.0022245170548558235, 0.017154192551970482, 0.028536755591630936, 0.03611007705330849, 0.03047436662018299, 0.0006395938107743859, -0.043589334934949875, -0.07696155458688736, -0.06734621524810791, -0.0050391536206007, 0.0669674277305603, 0.10309400409460068, 0.09651139378547668, 0.0550231859087944, -0.009214277379214764, -0.06663502007722855, -0.08412066102027893, -0.06783320754766464, -0.033279240131378174, 0.020032435655593872, 0.07956060767173767, 0.11328575015068054, 0.08462978899478912, -0.006374380551278591, -0.10481139272451401, -0.14220650494098663, -0.09921295195817947, -0.005511551629751921, 0.08302656561136246, 0.11805222928524017, 0.09009469300508499, 0.021460529416799545, -0.0484650656580925, -0.09645131230354309, -0.0932159423828125, -0.03475329652428627, 0.037722401320934296, 0.0872318372130394, 0.09397967904806137, 0.049678802490234375, -0.02939310483634472, -0.09737592190504074, -0.117692731320858, -0.08217481523752213, -0.005745278671383858, 0.06926165521144867, 0.10794401913881302, 0.09883227944374084, 0.046372152864933014, -0.028393160551786423, -0.08469831943511963, -0.09649938344955444, -0.07311221957206726, -0.016454797238111496, 0.06059347838163376, 0.11935937404632568, 0.12504535913467407, 0.07855857163667679, 0.007128066848963499, -0.061776500195264816, -0.1063605546951294, -0.1046929582953453, -0.06259091198444366, -0.005172346718609333, 0.03702208772301674, 0.03632545843720436, -0.005216569639742374, -0.05170782655477524, -0.06635033339262009, -0.05246400088071823, -0.020821688696742058, 0.02132071740925312, 0.05592387542128563, 0.0637715607881546, 0.03644275292754173, -0.017475174739956856, -0.06483058631420135, -0.06908009201288223, -0.029895467683672905, 0.016830844804644585, 0.04943889006972313, 0.0619816817343235, 0.056594621390104294, 0.03483830392360687, -0.002959340577945113, -0.041045211255550385, -0.05550191178917885, -0.04376357048749924, -0.02045419253408909, 0.013201461173593998, 0.05339954420924187, 0.08395317196846008, 0.08720140159130096, 0.06005518510937691, 0.011803751811385155, -0.041401512920856476, -0.0821252167224884, -0.0937187522649765, -0.059761419892311096, 0.018183933570981026, 0.1046004444360733, 0.14821811020374298, 0.11689887940883636, 0.015327643603086472, -0.09864290803670883, -0.15550559759140015, -0.1369090974330902, -0.05148002505302429, 0.06113721430301666, 0.13564248383045197, 0.1390068382024765, 0.07452503591775894, -0.02237994782626629, -0.11298656463623047, -0.16209380328655243, -0.13570159673690796, -0.03607771173119545, 0.08316758275032043, 0.15612423419952393, 0.1556529551744461, 0.08678750693798065, -0.011199485510587692, -0.09395337104797363, -0.1303405910730362, -0.09967957437038422, -0.018052974715828896, 0.07286857813596725, 0.13304667174816132, 0.13375204801559448, 0.06778038293123245, -0.026454806327819824, -0.08327767252922058, -0.08423525094985962, -0.05189524590969086, 0.002095249481499195, 0.053741905838251114, 0.07876168191432953, 0.0729224756360054, 0.04794478788971901, 0.0163575392216444, -0.013704701326787472, -0.025957848876714706, -0.01097055058926344, 0.019186383113265038, 0.040294673293828964, 0.040229685604572296, 0.029724886640906334, 0.027941908687353134, 0.034551192075014114, 0.028508849442005157, 0.012492818757891655, -0.000915726472157985, -0.0176328606903553, -0.04736335948109627, -0.06429669260978699, -0.044867150485515594, -0.0009545190841890872, 0.03296317532658577, 0.045162685215473175, 0.03350803628563881, 0.0028677794616669416, -0.022536395117640495, -0.017168588936328888, 0.004578359425067902, 0.011530849151313305, 0.009968053549528122, 0.008950859308242798, 0.006319299340248108, 0.002882243599742651, 0.0035359167959541082, 0.0028016173746436834, -0.0008224504999816418, -0.004759223200380802, -0.013549837283790112, -0.013881299644708633, 0.014272269792854786, 0.057613782584667206, 0.07298191636800766, 0.06177126243710518, 0.04076381027698517, 0.013594421558082104, -0.02296426333487034, -0.04344593361020088, -0.03294473886489868, -0.00930668506771326, 0.009032226167619228, 0.021074596792459488, 0.03013642504811287, 0.0331750251352787, 0.020656106993556023, -0.006881456822156906, -0.036886248737573624, -0.055750664323568344, -0.05868387594819069, -0.0517030730843544, -0.03932495787739754, -0.01938149333000183, 0.003968359902501106, 0.01616648957133293, 0.011028717271983624, -0.004714923445135355, -0.02488061413168907, -0.04322286322712898, -0.04426782205700874, -0.02047337219119072, 0.013112375512719154, 0.03156286105513573, 0.02402332052588463, -0.0004928411217406392, -0.020902186632156372, -0.022710362449288368, -0.008582568727433681, 0.0138248261064291, 0.036205653101205826, 0.04632413759827614, 0.0327669121325016, -0.00038099929224699736, -0.029610322788357735, -0.032329510897397995, -0.011369413696229458, 0.016243793070316315, 0.04382472112774849, 0.0656495988368988, 0.0661744773387909, 0.027865039184689522, -0.037000175565481186, -0.08778050541877747, -0.09237612783908844, -0.0590730682015419, -0.015427790582180023, 0.021112393587827682, 0.04028606042265892, 0.04169020801782608, 0.03368045389652252, 0.02274980954825878, 0.005192703567445278, -0.013167213648557663, -0.016239969059824944, -0.0037020989693701267, 0.004256953485310078, 0.0022639641538262367, -0.0014141782885417342, -0.004681101068854332, -0.011586964130401611, -0.007353765890002251, 0.022658729925751686, 0.06169513240456581, 0.07176414132118225, 0.04966267570853233, 0.015025454573333263, -0.007719177752733231, -0.00425965990871191, 0.021243847906589508, 0.04261660575866699, 0.05088277906179428, 0.05300985649228096, 0.04471511393785477, 0.00746805127710104, -0.03805117681622505, -0.05816316604614258, -0.04353897646069527, -0.0026859778445214033, 0.04997123032808304, 0.08533468097448349, 0.08119018375873566, 0.042862650007009506, -0.00410041306167841, -0.034844592213630676, -0.03963353484869003, -0.022528447210788727, 0.0008217631839215755, 0.016664275899529457, 0.020772485062479973, 0.011798053048551083, -0.016999389976263046, -0.05832436680793762, -0.07659637182950974, -0.04648774117231369, 0.011528472416102886, 0.05931728333234787, 0.0797116681933403, 0.06483347713947296, 0.019872920587658882, -0.028367171064019203, -0.0529407300055027, -0.05333131179213524, -0.035230524837970734, -0.007608128245919943, 0.013076062314212322, 0.017944253981113434, 0.008197035640478134, -0.009101043455302715, -0.020687051117420197, -0.016847286373376846, -0.0025715932715684175, 0.013747112825512886, 0.025001492351293564, 0.021756406873464584, 0.0018661353969946504, -0.02538108453154564, -0.04438355937600136, -0.035415925085544586, 0.004870581906288862, 0.04130685701966286, 0.04136701300740242, 0.01390621904283762, -0.012799042277038097, -0.011341763660311699, 0.015031919814646244, 0.03141576424241066, 0.019807908684015274, -0.007053915411233902, -0.03341231867671013, -0.05409448966383934, -0.053251951932907104, -0.018774917349219322, 0.03665368631482124, 0.08095403015613556, 0.08344723284244537, 0.04101606458425522, -0.013685483485460281, -0.043849918991327286, -0.062330979853868484, -0.06807352602481842, -0.04317191615700722, 0.005357712507247925, 0.05536521598696709, 0.08882714062929153, 0.0904858186841011, 0.05645623803138733, 0.0011681495234370232, -0.05292382463812828, -0.07166682928800583, -0.031497206538915634, 0.03170422837138176, 0.07575497776269913, 0.09969673305749893, 0.09751147031784058, 0.03408128768205643, -0.06012817099690437, -0.11269032955169678, -0.08999262750148773, -0.022413896396756172, 0.058675698935985565, 0.11475874483585358, 0.1255541741847992, 0.08823574334383011, 0.005721438210457563, -0.09308213740587234, -0.13773076236248016, -0.091594398021698, -0.00019831882673315704, 0.07833085209131241, 0.11359859257936478, 0.09189313650131226, 0.02133740484714508, -0.060481470078229904, -0.10769562423229218, -0.10572678595781326, -0.06816556304693222, -0.011180536821484566, 0.042881764471530914, 0.06874790042638779, 0.058876074850559235, 0.029831860214471817, 0.004785176832228899, -0.011605261825025082, -0.01918732561171055, -0.018725277855992317, -0.013733386993408203, 0.003830055706202984, 0.036147236824035645, 0.06090330705046654, 0.055037036538124084, 0.01990039274096489, -0.03284616023302078, -0.08609259128570557, -0.11223790049552917, -0.09750042855739594, -0.05250103026628494, 0.00862756185233593, 0.06773798912763596, 0.10350740700960159, 0.09994538873434067, 0.055256325751543045, -0.014381514862179756, -0.07532510161399841, -0.09191465377807617, -0.05479899421334267, 0.009214945137500763, 0.06348805129528046, 0.08333010971546173, 0.06205055117607117, 0.014821575954556465, -0.028748618438839912, -0.04997963830828667, -0.04989276081323624, -0.036213140934705734, -0.019889911636710167, -0.0035617761313915253, 0.01463635265827179, 0.0236318688839674, 0.005568158812820911, -0.02729562111198902, -0.051525820046663284, -0.06153574585914612, -0.05307263135910034, -0.018455198034644127, 0.01952291838824749, 0.022593539208173752, -0.0028341973666101694, -0.03240635618567467, -0.05272025242447853, -0.06341016292572021, -0.04532156139612198, 0.007952013052999973, 0.06846006959676743, 0.09233257919549942, 0.061058349907398224, -0.012430486269295216, -0.0879623293876648, -0.12334147095680237, -0.09420129656791687, -0.008085165172815323, 0.07747158408164978, 0.10825367271900177, 0.08380359411239624, 0.030876705422997475, -0.018876856192946434, -0.06911685317754745, -0.08617605268955231, -0.049493465572595596, 0.0036890171468257904, 0.0369279682636261, 0.050436921417713165, 0.04785746708512306, 0.028209317475557327, -0.0051427921280264854, -0.03945794701576233, -0.054777808487415314, -0.030188800767064095, 0.026834096759557724, 0.07741262763738632, 0.09777092933654785, 0.08158700168132782, 0.034602049738168716, -0.019813476130366325, -0.05173773691058159, -0.05552757903933525, -0.03573448210954666, 0.004270139615982771, 0.047119103372097015, 0.07250789552927017, 0.06890097260475159, 0.031079867854714394, -0.02947770617902279, -0.07428029179573059, -0.0707971602678299, -0.02265438251197338, 0.04238474369049072, 0.09160944819450378, 0.10218056291341782, 0.07114394009113312, 0.014990955591201782, -0.04047751799225807, -0.07039592415094376, -0.06090402230620384, -0.023152746260166168, 0.02402186393737793, 0.06737636029720306, 0.08814629912376404, 0.0617310106754303, -0.00599129730835557, -0.06771080940961838, -0.07881347090005875, -0.04275251924991608, 0.018385717645287514, 0.07972066104412079, 0.10981480777263641, 0.08489799499511719, 0.0091325044631958, -0.07694103568792343, -0.12206379324197769, -0.10236795246601105, -0.025662165135145187, 0.07360837608575821, 0.14241766929626465, 0.14061298966407776, 0.066019207239151, -0.03502272441983223, -0.09882353991270065, -0.12050075083971024, -0.0957774817943573, -0.021403973922133446, 0.06462977826595306, 0.10532539337873459, 0.08128876984119415, 0.010537446476519108, -0.06001262366771698, -0.09188641607761383, -0.07434765249490738, -0.020137131214141846, 0.03859909251332283, 0.07181522250175476, 0.06005224585533142, 0.002100053709000349, -0.0660463348031044, -0.09220242500305176, -0.06162124127149582, -0.004199490416795015, 0.053421881049871445, 0.08508173376321793, 0.08020929992198944, 0.05238329619169235, 0.021549511700868607, -0.017534717917442322, -0.04878599941730499, -0.04016748443245888, 0.0038076182827353477, 0.03807787224650383, 0.04287233576178551, 0.020000901073217392, -0.011038066819310188, -0.023210475221276283, -0.008210333995521069, 0.015072398819029331, 0.02935970574617386, 0.028623973950743675, 0.016253452748060226, 0.0027827576268464327, -0.0020050627645105124, 0.005607564467936754, 0.022749220952391624, 0.0395672470331192, 0.044569626450538635, 0.028946632519364357, -0.007288498338311911, -0.04345644637942314, -0.054710328578948975, -0.0427972786128521, -0.02241414040327072, 0.0026564134750515223, 0.022151028737425804, 0.026091977953910828, 0.017907708883285522, -0.0014876746572554111, -0.03999583050608635, -0.07399611920118332, -0.07093971967697144, -0.027720820158720016, 0.02823193371295929, 0.07268126308917999, 0.09105492383241653, 0.07752882689237595, 0.03185579553246498, -0.030870839953422546, -0.07385163009166718, -0.07716819643974304, -0.057658642530441284, -0.012808599509298801, 0.049980148673057556, 0.09009957313537598, 0.07725058495998383, 0.028468165546655655, -0.024640601128339767, -0.07071609050035477, -0.08361351490020752, -0.044797297567129135, 0.014450311660766602, 0.052805133163928986, 0.057062841951847076, 0.02515753172338009, -0.027455979958176613, -0.06087984889745712, -0.04110429435968399, 0.020920244976878166, 0.07505662739276886, 0.08875558525323868, 0.06416380405426025, 0.02700161002576351, 0.001946927746757865, -0.020348012447357178, -0.03993910923600197, -0.04112740978598595, -0.026524929329752922, -0.012797010131180286, 0.004008123651146889, 0.028455259278416634, 0.04757237434387207, 0.0456220880150795, 0.02450638823211193, -0.011179731227457523, -0.052279695868492126, -0.07460322976112366, -0.06866520643234253, -0.048851966857910156, -0.021152319386601448, 0.00910426676273346, 0.0317353829741478, 0.038254301995038986, 0.022202905267477036, -0.014785297214984894, -0.04637262597680092, -0.04439705237746239, -0.014517033472657204, 0.013725441880524158, 0.022567959502339363, 0.009698932990431786, -0.007640915457159281, -0.007900325581431389, 0.009080193936824799, 0.03017905168235302, 0.04846726357936859, 0.053106021136045456, 0.03368270397186279, -0.004815048072487116, -0.046151984483003616, -0.06770967692136765, -0.051169633865356445, -0.007774134166538715, 0.031493041664361954, 0.053671833127737045, 0.054871056228876114, 0.03563378378748894, 0.01273395586758852, 0.013186536729335785, 0.03956819325685501, 0.05920933932065964, 0.055687978863716125, 0.03678882122039795, 0.01685466058552265, 0.0018271638546139002, -0.005279716104269028, -0.00277857668697834, 0.00018610621918924153, -0.0033599676098674536, -0.006884012371301651, -0.003648752812296152, 0.005459907464683056, 0.01781325787305832, 0.030818132683634758, 0.04235975071787834, 0.04797220975160599, 0.031768832355737686, -0.01474863849580288, -0.06289350986480713, -0.08136007189750671, -0.07598212361335754, -0.05359644815325737, -0.00833688210695982, 0.04341425746679306, 0.069101482629776, 0.06174258887767792, 0.03712870553135872, 0.014258111827075481, -0.0043580979108810425, -0.01176320482045412, 0.0022573196329176426, 0.0296272411942482, 0.04741988703608513, 0.044994376599788666, 0.02245860919356346, -0.015889417380094528, -0.05008073151111603, -0.0539432056248188, -0.028126033022999763, 0.0033177786972373724, 0.026472263038158417, 0.03068734146654606, 0.009947302751243114, -0.02448160946369171, -0.04939008131623268, -0.04460194334387779, -0.002668868750333786, 0.05493159964680672, 0.08545254170894623, 0.07110167294740677, 0.022377625107765198, -0.034019749611616135, -0.0699637308716774, -0.06704263389110565, -0.03157055005431175, 0.019283927977085114, 0.06767808645963669, 0.08621124178171158, 0.052684132009744644, -0.015555591322481632, -0.07587756216526031, -0.10370726883411407, -0.08688627928495407, -0.01571611501276493, 0.0785873681306839, 0.13967473804950714, 0.14009517431259155, 0.07907353341579437, -0.015502296388149261, -0.0922996774315834, -0.11530327051877975, -0.09337469190359116, -0.04194938763976097, 0.02151414379477501, 0.06327952444553375, 0.060633447021245956, 0.02392958477139473, -0.01734877936542034, -0.044174738228321075, -0.05855051800608635, -0.05712040141224861, -0.030770039185881615, 0.02371208555996418, 0.08743065595626831, 0.1208946481347084, 0.09857374429702759, 0.02872905693948269, -0.048202767968177795, -0.08971502631902695, -0.08404885977506638, -0.038377389311790466, 0.028306400403380394, 0.08405043184757233, 0.10393939167261124, 0.08238828182220459, 0.028964649885892868, -0.039154328405857086, -0.0887783020734787, -0.08338114619255066, -0.01935228332877159, 0.06073847785592079, 0.1066463366150856, 0.0980960950255394, 0.04420321807265282, -0.02165275253355503, -0.06638676673173904, -0.07292206585407257, -0.04430936276912689, -0.0021593899000436068, 0.037356503307819366, 0.05971233919262886, 0.04831290990114212, 0.0065408870577812195, -0.034902602434158325, -0.05071881785988808, -0.042039331048727036, -0.009859926998615265, 0.0335640013217926, 0.06104608625173569, 0.055635564029216766, 0.022232599556446075, -0.017175540328025818, -0.03862224519252777, -0.0372266061604023, -0.02027318626642227, 0.008526568301022053, 0.03755578026175499, 0.05135291442275047, 0.04594433680176735, 0.022871527820825577, -0.016117917373776436, -0.048480793833732605, -0.04695295915007591, -0.0173973198980093, 0.012459596619009972, 0.03235381469130516, 0.035093218088150024, 0.013638503849506378, -0.021431509405374527, -0.04041561111807823, -0.02397647500038147, 0.012546075507998466, 0.0460093729197979, 0.06665463000535965, 0.06552397459745407, 0.03394214063882828, -0.014578531496226788, -0.05077976733446121, -0.059155240654945374, -0.04095424711704254, -0.010665946640074253, 0.010464665479958057, 0.023076249286532402, 0.03262094035744667, 0.021930616348981857, -0.020332716405391693, -0.05576787516474724, -0.051268354058265686, -0.020990874618291855, 0.012588624842464924, 0.04144071415066719, 0.05683977156877518, 0.050113726407289505, 0.01326003298163414, -0.044467419385910034, -0.07963180541992188, -0.05654621869325638, 0.002471675630658865, 0.04646875336766243, 0.057173389941453934, 0.028309442102909088, -0.03145281970500946, -0.08747751265764236, -0.09763199836015701, -0.04742695391178131, 0.032638829201459885, 0.09113197773694992, 0.09725844860076904, 0.04663146287202835, -0.03387611731886864, -0.09041155129671097, -0.0887238085269928, -0.0620974600315094, -0.037567138671875, -0.004255545325577259, 0.031536538153886795, 0.03916943073272705, 0.014864048920571804, -0.013828004710376263, -0.024641647934913635, -0.025247585028409958, -0.018032338470220566, -0.009176009334623814, -0.009703950956463814, -0.012196823954582214, -0.00528854550793767, 0.0027717945631593466, -0.002097150543704629, -0.011905827559530735, -0.018530866131186485, -0.024947287514805794, -0.022733502089977264, -0.0006464270991273224, 0.026172349229454994, 0.025963973253965378, 0.003529144683852792, -0.02017768658697605, -0.035446517169475555, -0.04322144389152527, -0.030803516507148743, -8.839365182211623e-05, 0.02109631896018982, 0.019130544736981392, 0.0033427972812205553, -0.013255877420306206, -0.023425022140145302, -0.02155175805091858, -0.01060860138386488, -0.002555940765887499, -0.005834453273564577, -0.021866802126169205, -0.03682528808712959, -0.028426101431250572, 0.0017586762551218271, 0.016957826912403107, 0.012791634537279606, 0.006954751908779144, 0.010205128230154514, 0.011698029935359955, 0.007351596839725971, -0.0006799170514568686, -0.005258377641439438, 0.003910477738827467, 0.024010416120290756, 0.042811643332242966, 0.056168947368860245, 0.058543119579553604, 0.041244376450777054, 0.008003506809473038, -0.03298113867640495, -0.0739104375243187, -0.08726683259010315, -0.05812796205282211, -0.007454478647559881, 0.04784836992621422, 0.09307579696178436, 0.10274003446102142, 0.062465645372867584, -0.0019592936150729656, -0.054938625544309616, -0.0934506356716156, -0.09730620682239532, -0.04883547127246857, 0.03338565304875374, 0.10288327187299728, 0.12035750597715378, 0.0731516033411026, -0.01374141126871109, -0.08707194030284882, -0.11363708227872849, -0.08533723652362823, -0.0164988674223423, 0.047071825712919235, 0.07850227504968643, 0.08017605543136597, 0.06535623222589493, 0.035696037113666534, -0.004998814780265093, -0.029968682676553726, -0.01942695491015911, 0.014243009500205517, 0.04120701178908348, 0.043598100543022156, 0.02036917395889759, -0.014937388710677624, -0.04355672746896744, -0.05733842775225639, -0.05804871767759323, -0.04367680847644806, -0.018226442858576775, 0.0033182387705892324, 0.011211870238184929, 0.004949853755533695, -0.01413554698228836, -0.03768211230635643, -0.04961910471320152, -0.04379391670227051, -0.023220619186758995, 0.006749672815203667, 0.026628123596310616, 0.017159098759293556, -0.011437722481787205, -0.036554787307977676, -0.046246882528066635, -0.03657221794128418, -0.01023388747125864, 0.015757454559206963, 0.03194242715835571, 0.0370442196726799, 0.02701231837272644, 0.008358697406947613, -0.0013739034766331315, -0.004915160126984119, -0.010128370486199856, 0.0012729637091979384, 0.02794760838150978, 0.02680268883705139, 0.0023649067152291536, -0.01691482774913311, -0.023124149069190025, -0.03552793338894844, -0.03769371286034584, -0.019239189103245735, 0.007271021604537964, 0.022051900625228882, 0.015592061914503574, -0.0009523213375359774, -0.0027356569189578295, 0.016949905082583427, 0.029158279299736023, 0.023159917443990707, 0.009438960812985897, 0.0019259215332567692, 0.0035448099952191114, -0.003068511839956045, -0.02533327043056488, -0.038392528891563416, -0.026464492082595825, -0.014353160746395588, -0.006096047814935446, 0.010661260224878788, 0.022203747183084488, -0.004863564390689135, -0.04674321413040161, -0.0672573521733284, -0.049919888377189636, -0.007032513152807951, 0.032506197690963745, 0.04329000785946846, 0.029681801795959473, 0.00999337900429964, -0.006137830205261707, -0.015782341361045837, -0.010831198655068874, -0.002417381154373288, -0.013513945043087006, -0.03625771030783653, -0.04655543714761734, -0.03274191915988922, -0.015613894909620285, -0.010070232674479485, -0.0030738271307200193, 0.016188951209187508, 0.0309158805757761, 0.0221044160425663, 0.002556493040174246, -0.01363521721214056, -0.03158951178193092, -0.04608742147684097, -0.04279039427638054, -0.025730689987540245, -0.005812526680529118, 0.017351707443594933, 0.03796302527189255, 0.03893064334988594, 0.0179097019135952, -0.007198454812169075, -0.01931687630712986, -0.015621127560734749, 0.0021728603169322014, 0.027458177879452705, 0.045215532183647156, 0.03720023110508919, -0.0012780079850926995, -0.04304203391075134, -0.047541696578264236, -0.003972816746681929, 0.04533178359270096, 0.06932572275400162, 0.06298594176769257, 0.03120056539773941, -0.01655750349164009, -0.05846134200692177, -0.067249596118927, -0.03689113259315491, 0.005922940094023943, 0.03144443780183792, 0.03237563744187355, 0.018353160470724106, 0.007135247811675072, 0.006234711967408657, -0.0029979541432112455, -0.03301755711436272, -0.05660466477274895, -0.048631198704242706, -0.01693600043654442, 0.022937996312975883, 0.058664120733737946, 0.06209065020084381, 0.02360411547124386, -0.019684985280036926, -0.02759901061654091, -0.011082698591053486, 0.0132368803024292, 0.037811536341905594, 0.04313046857714653, 0.022956805303692818, -0.006399948615580797, -0.03010513447225094, -0.043053239583969116, -0.03601372241973877, -0.008097099140286446, 0.033480461686849594, 0.0752096027135849, 0.0912051871418953, 0.06131906434893608, 0.0027172344271093607, -0.04348578676581383, -0.05254159867763519, -0.03522191196680069, -0.009345848113298416, 0.016179624944925308, 0.04103909060359001, 0.06145542487502098, 0.06095293536782265, 0.029310818761587143, -0.02001057006418705, -0.062249716371297836, -0.07427482306957245, -0.041467826813459396, 0.020842019468545914, 0.06723501533269882, 0.0742286965250969, 0.04525396600365639, -0.006493173539638519, -0.06856983155012131, -0.10605872422456741, -0.08947194367647171, -0.027894312515854836, 0.04750056564807892, 0.10021412372589111, 0.09833107143640518, 0.04440050199627876, -0.018596045672893524, -0.04567047581076622, -0.058804139494895935, -0.06354638189077377, -0.047048214823007584, -0.01638384349644184, 0.01825878582894802, 0.05436258763074875, 0.08075883984565735, 0.0735766589641571, 0.02793562225997448, -0.03228209540247917, -0.07942184805870056, -0.10000710189342499, -0.07908104360103607, -0.017690615728497505, 0.05028824135661125, 0.08631080389022827, 0.07576517015695572, 0.023365022614598274, -0.04557771235704422, -0.09043342620134354, -0.089386485517025, -0.057296693325042725, -0.0070775155909359455, 0.04698256403207779, 0.08027788996696472, 0.07282020151615143, 0.02891126461327076, -0.02477167174220085, -0.05592057853937149, -0.05035705864429474, -0.02197694405913353, 0.009535354562103748, 0.031713251024484634, 0.03213118016719818, 0.005075227003544569, -0.03344239667057991, -0.05389958247542381, -0.037451159209012985, 0.003778229933232069, 0.03465389832854271, 0.04087037593126297, 0.031735945492982864, 0.01964123733341694, 0.0023315572179853916, -0.01791953854262829, -0.031140893697738647, -0.03407476842403412, -0.023565499112010002, 0.0020772076677531004, 0.030650082975625992, 0.04234866052865982, 0.03238013759255409, 0.01429204922169447, 0.002578368177637458, -0.010789837688207626, -0.029151175171136856, -0.029190760105848312, -0.0014882752439007163, 0.02101053111255169, 0.01604505069553852, -0.0037420543376356363, -0.022302618250250816, -0.036753732711076736, -0.04676190763711929, -0.04650626704096794, -0.030931763350963593, -0.0016588425496593118, 0.02991427481174469, 0.05053091049194336, 0.050442542880773544, 0.024504702538251877, -0.01726500876247883, -0.04784233868122101, -0.04607309773564339, -0.013835223391652107, 0.03086397983133793, 0.06689970195293427, 0.08109033852815628, 0.06757216155529022, 0.02384382113814354, -0.036017391830682755, -0.07838070392608643, -0.0844883993268013, -0.060049884021282196, -0.011577828787267208, 0.03988129273056984, 0.06463328003883362, 0.0553385354578495, 0.026418929919600487, -0.003856119466945529, -0.03059062920510769, -0.049246639013290405, -0.05116930231451988, -0.028995826840400696, 0.01116988342255354, 0.04419013485312462, 0.05240241065621376, 0.044884949922561646, 0.04366461932659149, 0.05744263902306557, 0.06181396543979645, 0.034035902470350266, -0.016085349023342133, -0.059784404933452606, -0.07580935209989548, -0.06126803159713745, -0.020864108577370644, 0.030547045171260834, 0.06785733252763748, 0.07101491838693619, 0.042855825275182724, 0.005716454703360796, -0.023438554257154465, -0.04710831865668297, -0.05388757213950157, -0.03609427437186241, -0.0067876186221838, 0.021366767585277557, 0.03953476622700691, 0.03693775832653046, 0.01810484193265438, 0.0017128688050433993, -0.006547912489622831, -0.008151850663125515, 0.008564108982682228, 0.03483758866786957, 0.03920750692486763, 0.021022362634539604, -0.004789314232766628, -0.0252159982919693, -0.02490602806210518, -0.0013748235069215298, 0.01365304458886385, 0.008288445882499218, -0.0032410980202257633, -0.011345443315804005, -0.01458327192813158, -0.004292255267500877, 0.01599912904202938, 0.027374790981411934, 0.020503874868154526, -0.00323266489431262, -0.030429746955633163, -0.037925396114587784, -0.017126934602856636, 0.017595374956727028, 0.05018090829253197, 0.06085667014122009, 0.032475557178258896, -0.019590405747294426, -0.05546187981963158, -0.047862183302640915, -0.008118310011923313, 0.03218004107475281, 0.053667183965444565, 0.06100235879421234, 0.06493595242500305, 0.055836860090494156, 0.01651851087808609, -0.029041403904557228, -0.043921101838350296, -0.0147103825584054, 0.03407515212893486, 0.061572927981615067, 0.04466226324439049, -0.002200878458097577, -0.04035329446196556, -0.04217859357595444, -0.02356335148215294, -0.004023147281259298, 0.01521318219602108, 0.03501517325639725, 0.046190328896045685, 0.030004868283867836, -0.010813986882567406, -0.046750038862228394, -0.05237393081188202, -0.03781138360500336, -0.0196295827627182, 0.0021034525707364082, 0.0217120423913002, 0.02573898620903492, 0.014247506856918335, 0.0005116523243486881, -0.008439409546554089, -0.0174483023583889, -0.024483731016516685, -0.01923958584666252, 0.0016499777557328343, 0.018029147759079933, 0.002037648344412446, -0.039042435586452484, -0.07709004729986191, -0.08876343071460724, -0.059742774814367294, 0.005373045802116394, 0.06309664994478226, 0.07972431927919388, 0.0639382004737854, 0.04016035422682762, 0.019637251272797585, -0.006998154334723949, -0.03850758075714111, -0.06385530531406403, -0.057839393615722656, -0.011186950840055943, 0.03972780704498291, 0.059711623936891556, 0.04963592067360878, 0.019411012530326843, -0.02495066076517105, -0.06166163086891174, -0.061797965317964554, -0.0278032086789608, 0.014102456159889698, 0.05327054485678673, 0.08092433214187622, 0.08129843324422836, 0.04574247822165489, -0.003158337902277708, -0.03147410601377487, -0.028256237506866455, -0.004564953502267599, 0.02335045486688614, 0.03698845952749252, 0.021095246076583862, -0.028087139129638672, -0.08459506183862686, -0.10594257712364197, -0.08221312612295151, -0.0476313941180706, -0.005782014224678278, 0.03434683009982109, 0.03848585858941078, -0.0012695620534941554, -0.042776260524988174, -0.047519270330667496, -0.029258225113153458, 0.0071398732252418995, 0.05026835948228836, 0.0648910254240036, 0.039929360151290894, -0.0023265457712113857, -0.0343630313873291, -0.041808757930994034, -0.018413415178656578, 0.013090858235955238, 0.018821226432919502, -0.00020544868311844766, -0.027061639353632927, -0.0486905612051487, -0.06087116152048111, -0.051765285432338715, -0.0151392612606287, 0.03135811164975166, 0.05435594543814659, 0.04128582403063774, 0.006025620270520449, -0.02375613898038864, -0.032611116766929626, -0.03440053388476372, -0.03787878528237343, -0.028902767226099968, -0.00304580619558692, 0.020885413512587547, 0.034447286278009415, 0.039450179785490036, 0.025715962052345276, -0.012322797439992428, -0.05014588683843613, -0.06796959042549133, -0.06290769577026367, -0.029897652566432953, 0.017125263810157776, 0.04966965317726135, 0.05493747442960739, 0.030166836455464363, -0.021106921136379242, -0.07398778945207596, -0.09514930099248886, -0.06501596421003342, 0.012314597144722939, 0.09057065844535828, 0.12037856131792068, 0.09866898506879807, 0.047647763043642044, -0.002699215430766344, -0.03344344347715378, -0.03517252579331398, -0.034185755997896194, -0.03483916074037552, -0.02004462108016014, 0.013120374642312527, 0.054751280695199966, 0.08792831748723984, 0.08193889260292053, 0.03354848921298981, -0.017618244513869286, -0.040350932627916336, -0.0599343366920948, -0.05315256863832474, -0.009250796400010586, 0.03255659341812134, 0.04809737950563431, 0.04641828313469887, 0.03400564193725586, 0.0023995593655854464, -0.03376726433634758, -0.05176340788602829, -0.04626362398266792, -0.022313006222248077, 0.015221001580357552, 0.05606159195303917, 0.07975457608699799, 0.06610488891601562, 0.02008870802819729, -0.030282344669103622, -0.05823078379034996, -0.04825691878795624, 0.0007278994307853281, 0.055853597819805145, 0.07678668200969696, 0.05396178364753723, 0.0010816456051543355, -0.04988769069314003, -0.06413699686527252, -0.03308545798063278, 0.011138527654111385, 0.04274090752005577, 0.05920601636171341, 0.06237822026014328, 0.04493026062846184, 0.0018818262033164501, -0.04649269953370094, -0.0767887532711029, -0.08362902700901031, -0.06004529818892479, -0.0036054879892617464, 0.06382793188095093, 0.10911930352449417, 0.11384653300046921, 0.07612302154302597, 0.011576796881854534, -0.046342357993125916, -0.06810783594846725, -0.05024252086877823, -0.0076584592461586, 0.03529993072152138, 0.0581110343337059, 0.054802875965833664, 0.029329651966691017, -0.011679179966449738, -0.05436673015356064, -0.07710763067007065, -0.06790708750486374, -0.03246791660785675, 0.01143606472760439, 0.04377959296107292, 0.05186033621430397, 0.034707002341747284, 0.001441307831555605, -0.0386880487203598, -0.0793546736240387, -0.09555545449256897, -0.06377511471509933, -0.0016803855542093515, 0.038427796214818954, 0.04427293315529823, 0.027390532195568085, 0.0078791044652462, -0.0020164346788078547, 0.0030201643239706755, 0.013746780343353748, 0.01582108624279499, 0.010039199143648148, 0.004479103721678257, 0.002674966352060437, 0.004244303330779076, 0.013779593631625175, 0.033803146332502365, 0.05173895135521889, 0.04894069582223892, 0.028063857927918434, 0.006420574150979519, -0.0037705355789512396, 5.0587637815624475e-05, 0.014836602844297886, 0.023716455325484276, 0.009785283356904984, -0.023565804585814476, -0.05717073380947113, -0.0664219781756401, -0.038541387766599655, 0.011496630497276783, 0.056504666805267334, 0.0811048299074173, 0.07967003434896469, 0.0511578805744648, -0.003634927561506629, -0.07246921956539154, -0.1185610443353653, -0.1094084307551384, -0.050933148711919785, 0.025399180129170418, 0.08692961931228638, 0.10316182672977448, 0.06471610069274902, -0.001984452595934272, -0.055945854634046555, -0.08780611306428909, -0.08146011829376221, -0.027084970846772194, 0.04637356102466583, 0.09991778433322906, 0.11083358526229858, 0.06736616045236588, -0.018335267901420593, -0.0969722718000412, -0.12264107912778854, -0.08515749126672745, -0.0030858637765049934, 0.07845208048820496, 0.12029747664928436, 0.10759598761796951, 0.046872369945049286, -0.033056195825338364, -0.09315992146730423, -0.10994668304920197, -0.08026164770126343, -0.021813135594129562, 0.03404809162020683, 0.0688575804233551, 0.07354287803173065, 0.04099508374929428, -0.012825210578739643, -0.04651546850800514, -0.04480116814374924, -0.03105062060058117, 0.003070840146392584, 0.05247601121664047, 0.08451847732067108, 0.07988651096820831, 0.04448350518941879, -0.009001877158880234, -0.05526399239897728, -0.059043027460575104, -0.020278260111808777, 0.024667078629136086, 0.054299671202898026, 0.05451614782214165, 0.021853363141417503, -0.024803003296256065, -0.0581829696893692, -0.06841526180505753, -0.05224161967635155, -0.009384142234921455, 0.03937218338251114, 0.06019323691725731, 0.04400445148348808, 0.01201427448540926, -0.0056821322068572044, -0.0059503838419914246, -0.004160007461905479, -0.007364409510046244, -0.017597723752260208, -0.02078423649072647, -0.0009710149024613202, 0.027498604729771614, 0.0311671644449234, 0.013900111429393291, -0.009675917215645313, -0.03738139197230339, -0.060399796813726425, -0.05646241083741188, -0.025768345221877098, 0.012683970853686333, 0.04965414106845856, 0.07486772537231445, 0.07244125008583069, 0.037773508578538895, -0.00878152810037136, -0.038116101175546646, -0.03836168721318245, -0.019614478573203087, 0.006207725498825312, 0.03284551948308945, 0.0503426231443882, 0.045771509408950806, 0.020497359335422516, -0.009973570704460144, -0.03397011011838913, -0.0444459542632103, -0.033338580280542374, -0.008893025107681751, 0.016002092510461807, 0.043288398534059525, 0.06878025084733963, 0.06592702865600586, 0.021621372550725937, -0.04089993238449097, -0.09447266161441803, -0.1260860711336136, -0.11195982247591019, -0.04539933800697327, 0.041130196303129196, 0.09940361976623535, 0.10423526167869568, 0.05798869952559471, -0.010393491014838219, -0.06456637382507324, -0.09013908356428146, -0.08683627098798752, -0.060864388942718506, -0.02527664043009281, 0.0036097965203225613, 0.013900903053581715, 0.009878278709948063, 0.006402225233614445, 0.008093384094536304, 0.004483780357986689, -0.0010208600433543324, 0.0005627496866509318, 0.007568585220724344, 0.011715943925082684, 0.0100838178768754, 0.005620981100946665, 8.014208287931979e-05, -0.01641681045293808, -0.041425369679927826, -0.0464278906583786, -0.018945446237921715, 0.008925252594053745, 0.024736588820815086, 0.03497103601694107, 0.03475062549114227, 0.006747449282556772, -0.03766808286309242, -0.07352127879858017, -0.07897640764713287, -0.04944313317537308, -0.009794875979423523, 0.025760145857930183, 0.05637257173657417, 0.07045329362154007, 0.04750978946685791, 0.004141418728977442, -0.028305353596806526, -0.03838874772191048, -0.024135209619998932, 0.008921675384044647, 0.04054007679224014, 0.05640482157468796, 0.04321160539984703, -0.0052764578722417355, -0.054477546364068985, -0.06365032494068146, -0.036623939871788025, 0.011051077395677567, 0.0664219781756401, 0.09408647567033768, 0.07105652242898941, 0.014533136039972305, -0.04585634917020798, -0.09290017932653427, -0.09587077796459198, -0.046634986996650696, 0.015614422038197517, 0.0526619479060173, 0.052419330924749374, 0.025808701291680336, -0.0003986450901720673, -0.012782750651240349, -0.018788181245326996, -0.01384322252124548, -0.0024781255051493645, 0.0012263640528544784, 0.002690478228032589, 0.005225133150815964, -0.006690560840070248, -0.025173168629407883, -0.02782992646098137, -0.017906224355101585, -0.018067937344312668, -0.022208433598279953, -0.01756654679775238, 0.00472660455852747, 0.0394257977604866, 0.06173239275813103, 0.05055161193013191, 0.012220810167491436, -0.029298564419150352, -0.051167793571949005, -0.04246889799833298, -0.0024924108292907476, 0.054229240864515305, 0.09312473237514496, 0.08331066370010376, 0.03346413001418114, -0.019196078181266785, -0.04608200117945671, -0.04632073640823364, -0.02134610339999199, 0.001960229128599167, 0.007866685278713703, 0.013482770882546902, 0.028927363455295563, 0.030518244951963425, 0.01580117829144001, 0.0027825022116303444, -0.006551145110279322, -0.018422232940793037, -0.01865626499056816, -0.0032522273249924183, 0.015782037749886513, 0.03140096738934517, 0.035531409084796906, 0.016355928033590317, -0.02222611755132675, -0.05874814838171005, -0.07215416431427002, -0.054648421704769135, -0.01324244774878025, 0.03598370775580406, 0.07399202883243561, 0.08375624567270279, 0.058393314480781555, 0.00862590130418539, -0.04324137791991234, -0.07629117369651794, -0.07191222161054611, -0.0264554712921381, 0.03434785082936287, 0.07736685872077942, 0.09047725796699524, 0.07582701742649078, 0.036666516214609146, -0.02551961876451969, -0.08257432281970978, -0.09705041348934174, -0.05726155638694763, 0.014785313047468662, 0.08195994794368744, 0.1129639595746994, 0.09551306068897247, 0.041364636272192, -0.01611052080988884, -0.046150464564561844, -0.0425710529088974, -0.0120567437261343, 0.03578805923461914, 0.07668236643075943, 0.0755482092499733, 0.026189828291535378, -0.03474796935915947, -0.0604613833129406, -0.04486062377691269, -0.006771046202629805, 0.04025743901729584, 0.0777466893196106, 0.08707405626773834, 0.061664823442697525, 0.01646885648369789, -0.020310599356889725, -0.033795759081840515, -0.03200707212090492, -0.021237609907984734, -0.0018075603293254972, 0.02381916157901287, 0.04792861267924309, 0.05690445005893707, 0.04007042571902275, 0.003140068845823407, -0.03407910093665123, -0.0508846715092659, -0.0358593575656414, 0.002721272176131606, 0.04262733832001686, 0.07423853874206543, 0.09388336539268494, 0.08754123002290726, 0.036593273282051086, -0.039512112736701965, -0.09773926436901093, -0.11180567741394043, -0.07934261113405228, -0.011899055913090706, 0.0618070624768734, 0.10477828234434128, 0.08968808501958847, 0.02043311297893524, -0.05979038402438164, -0.10164667665958405, -0.08987065404653549, -0.026957502588629723, 0.049156200140714645, 0.08313262462615967, 0.06388267129659653, 0.008389311842620373, -0.05762505158782005, -0.11182110756635666, -0.1148192435503006, -0.05344490706920624, 0.04203251749277115, 0.12387193739414215, 0.15288369357585907, 0.11272864788770676, 0.022280797362327576, -0.0655130073428154, -0.11247187107801437, -0.1096334457397461, -0.07041020691394806, -0.02277194894850254, 0.020293300971388817, 0.04781210795044899, 0.04888276383280754, 0.027759088203310966, 0.0027559760492295027, -0.02014649659395218, -0.040250372141599655, -0.04063935950398445, -0.01805655099451542, 0.016423573717474937, 0.05372435227036476, 0.07527249306440353, 0.05831991881132126, 0.01066210400313139, -0.03344310075044632, -0.0456252321600914, -0.028919212520122528, -6.816680979682133e-05, 0.028792304918169975, 0.04461309686303139, 0.02588457427918911, -0.024360530078411102, -0.0612468458712101, -0.04942750558257103, -0.022135857492685318, -0.0011843231040984392, 0.021089879795908928, 0.0409042127430439, 0.044867418706417084, 0.03320001810789108, 0.009555313736200333, -0.020508382469415665, -0.03214959055185318, -0.011802559718489647, 0.016870658844709396, 0.039097823202610016, 0.053278643637895584, 0.04578947275876999, -0.0007013194262981415, -0.060435701161623, -0.09410528093576431, -0.09072090685367584, -0.060098618268966675, -0.011770743876695633, 0.03450419753789902, 0.06257573515176773, 0.06670241802930832, 0.042354997247457504, -0.01031552255153656, -0.06002657860517502, -0.07161577045917511, -0.04657301679253578, -0.004649425856769085, 0.03816130757331848, 0.061827123165130615, 0.05505988374352455, 0.023475240916013718, -0.016285546123981476, -0.045762691646814346, -0.051576025784015656, -0.03266694024205208, 0.00018374236242379993, 0.031104708090424538, 0.046235255897045135, 0.03953824192285538, 0.01525516901165247, -0.014071646146476269, -0.03434820845723152, -0.03698314353823662, -0.02215101197361946, 0.002163864905014634, 0.02429402619600296, 0.03416727855801582, 0.027927597984671593, 0.009498708881437778, -0.011621285229921341, -0.02543514594435692, -0.026292020455002785, -0.014634573832154274, 0.003496638499200344, 0.01927347481250763, 0.02545798197388649, 0.019780615344643593, 0.005760179832577705, -0.009586908854544163, -0.019252222031354904, -0.019148239865899086, -0.009814566932618618, 0.003922105301171541, 0.015306917950510979, 0.019270459190011024, 0.014622936956584454, 0.004047682508826256, -0.007352104876190424, -0.014388682320713997, -0.013973847031593323, -0.006754614412784576, 0.0033354118932038546, 0.011480939574539661, 0.014227829873561859, 0.010787962935864925, 0.003018349874764681, -0.005302996840327978, -0.010154282674193382, -0.009510883130133152, -0.004186431411653757, 0.0029202185105532408, 0.008539806120097637, 0.010301828384399414, 0.007504953071475029, 0.0016800432931631804, -0.004161770921200514, -0.007182099856436253, -0.006278638727962971, -0.002257636282593012, 0.0029756473377346992, 0.007013349793851376, 0.007964586839079857, 0.005435118917375803, 0.0008702284540049732, -0.00334895309060812, -0.005434120073914528, -0.004669371526688337, -0.001487240195274353, 0.0026590456254780293, 0.005784252658486366, 0.006364378146827221, 0.004389482084661722, 0.0010546721750870347, -0.0021088803187012672, -0.003840083722025156, -0.0034449894446879625, -0.0010681113926693797, 0.0019953802693635225, 0.004159844014793634, 0.004572379402816296, 0.003333623055368662, 0.0011481654364615679, -0.0010919797932729125, -0.00231342320330441, -0.001883612247183919, -0.0001650716585572809, 0.001802234910428524, 0.0030424995347857475, 0.00320712523534894, 0.002282925881445408, 0.0006110871327109635, -0.0009871912188827991, -0.001812914153560996, -0.0024218533653765917, -0.004824784584343433, -0.006831841543316841, 0.00376496696844697, 0.03534158691763878, 0.06767972558736801, 0.061032772064208984, 0.01599043980240822, -0.03642035648226738, -0.06562481075525284, -0.05998000502586365, -0.014602374285459518, 0.050061386078596115, 0.0935785174369812, 0.09309536963701248, 0.05275680869817734, -0.0010081081418320537, -0.037986088544130325, -0.04511047527194023, -0.019235791638493538, 0.03087964467704296, 0.07582162320613861, 0.08786064386367798, 0.06155805662274361, 0.010003268718719482, -0.03632494434714317, -0.040225494652986526, 0.0026944903656840324, 0.04585057497024536, 0.06835437566041946, 0.07013937085866928, 0.04999402537941933, 0.005671733524650335, -0.041190147399902344, -0.06822221726179123, -0.06981471925973892, -0.03859808295965195, 0.021979322656989098, 0.0837307870388031, 0.10411091148853302, 0.06023923307657242, -0.02466927282512188, -0.09564067423343658, -0.12684087455272675, 