{"model": "LSTM", "benchmark": "SB", "meta": {"LR": 0.001, "n_re": 10, "n_hs": [2, 4, 8, 16, 32], "n_look": [2, 4, 8, 16, 32], "n_opt": 10000, "batch_len": 200}, "nh_xval": 16, "look_xval": 2, "theta": {"params": {"Dense_0": {"bias": [0.20709219574928284], "kernel": [[0.1324682980775833], [-0.0915704295039177], [-0.20436032116413116], [-0.23821067810058594], [-1.142610788345337], [-0.318134605884552], [-0.38709917664527893], [0.31160736083984375], [-0.3496469259262085], [-0.03504133224487305], [-0.022992733865976334], [0.6085487008094788], [-0.2591289281845093], [0.28441521525382996], [0.014995550736784935], [-0.02755381539463997]]}, "LSTMCell_0": {"hf": {"bias": [-0.0722426101565361, -0.10512196272611618, 0.09354723989963531, -0.11800629645586014, -0.26154986023902893, 0.001822505728341639, 0.015268241055309772, -0.03442012891173363, -0.06393446773290634, -0.05610489472746849, -0.0663604810833931, -0.013352185487747192, 0.016585756093263626, 0.02931814268231392, -0.2326015681028366, -0.03153258189558983], "kernel": [[-0.17115376889705658, -0.03375745564699173, -0.1266341656446457, -0.24321526288986206, 1.0383660793304443, 0.1818094551563263, 0.1269439458847046, -0.15299221873283386, -0.18654127418994904, -0.03284107893705368, 0.2069019228219986, -0.21242046356201172, -0.5581129789352417, 0.2308293581008911, 0.3048279583454132, -0.28322160243988037], [-0.4224662482738495, -0.05028834193944931, 0.5625101923942566, 0.03834790363907814, 0.9048512578010559, 0.0011364439269527793, 0.13381034135818481, -0.29137372970581055, 0.178664892911911, -0.22971497476100922, -0.48476463556289673, 0.24819253385066986, -0.17985159158706665, 0.26106759905815125, -0.4352506995201111, -0.3818344175815582], [-0.25843346118927, -0.06414495408535004, 0.08798325061798096, -0.021554289385676384, 0.48743295669555664, -0.19212086498737335, -0.12968038022518158, 0.4359504282474518, -0.03308730944991112, -0.028902307152748108, 0.42253464460372925, -0.1310308575630188, -0.2852516174316406, 0.33598119020462036, -0.6017083525657654, 0.19620509445667267], [-0.254641056060791, 0.3597692549228668, -0.05875493958592415, 0.3168245851993561, -0.7597101330757141, 0.01632567308843136, 0.3424435257911682, 0.18305982649326324, -0.02809421345591545, -0.2586192488670349, 0.19218768179416656, 0.04136025533080101, 0.36752238869667053, 0.38831427693367004, 0.03876249119639397, -0.06573549658060074], [0.20313745737075806, 1.4744172096252441, -1.1372891664505005, 0.16637778282165527, 0.7934467792510986, -0.8034155964851379, 0.3530566990375519, -0.8148370981216431, -0.36513930559158325, 0.4981158971786499, 0.30709707736968994, -0.8710483908653259, -1.1110174655914307, 0.47904178500175476, -0.8723343014717102, -0.9858608245849609], [0.2228563129901886, 0.14215722680091858, 0.12283282727003098, 0.2543923258781433, -0.47928109765052795, -0.05833572894334793, 0.3099781572818756, -0.16531524062156677, 0.0015472470549866557, 1.0419560670852661, 0.6441594362258911, 0.06256340444087982, -0.08278018236160278, -0.19835570454597473, 0.4491644501686096, -0.02976779080927372], [0.5980745553970337, 0.2665545344352722, -0.2573798894882202, 0.06739914417266846, 0.32316288352012634, 0.2428739368915558, 0.2940223515033722, 0.29528898000717163, 0.32125547528266907, 0.25696033239364624, -0.11482253670692444, 0.1635667234659195, -0.09273120015859604, 0.318820059299469, -0.05564703792333603, 0.1141132339835167], [-0.035165444016456604, 0.5259460806846619, -0.26858457922935486, -0.5224418640136719, 0.8883812427520752, -0.4567887485027313, -0.2035079300403595, 0.020051322877407074, -0.007091697305440903, -0.11163482815027237, -0.22850272059440613, -0.23367546498775482, -0.1417156457901001, 0.07116193324327469, -0.06060950458049774, -0.12174177914857864], [-0.2538103759288788, 0.3479841649532318, 0.010977223515510559, -0.25568339228630066, 0.2221204787492752, 0.23210757970809937, 0.15099018812179565, 0.1986166089773178, 0.588950514793396, -0.11598056554794312, 0.22502727806568146, 0.0019403944024816155, 0.24106362462043762, -0.4317004084587097, 0.21894074976444244, 0.003181167645379901], [0.1529584527015686, -0.13795500993728638, 0.014407951384782791, -0.17656604945659637, -0.44201502203941345, -0.3693449795246124, 0.24031347036361694, 0.25766095519065857, 0.12573927640914917, -0.13101772964000702, 0.07236040383577347, 0.5164291858673096, -0.12277761101722717, -0.15480896830558777, -0.17735163867473602, -0.4702954888343811], [-0.13826365768909454, -0.21663972735404968, -0.017958112061023712, 0.18697096407413483, -1.1158376932144165, 0.03492074832320213, 0.5333243608474731, 0.1405520886182785, 0.08843071013689041, 0.06755438446998596, -0.12835966050624847, -0.5036551356315613, 0.07822929322719574, -0.1494167000055313, -0.4662918448448181, -0.42510658502578735], [-0.38828665018081665, -0.27218201756477356, -0.4409586489200592, 0.009847702458500862, 0.9459337592124939, 0.1391879916191101, -0.3768466114997864, 0.09724003076553345, -0.17691543698310852, 0.027202533558011055, -0.15832889080047607, 0.29763343930244446, 0.2226284295320511, 0.02974487654864788, -0.09100867807865143, -0.386741578578949], [0.28146892786026, -0.3386697769165039, 0.17384614050388336, 0.019369887188076973, 0.18314842879772186, -0.11684482544660568, 0.022097362205386162, 0.15925072133541107, 0.039560720324516296, -0.18627816438674927, 0.018948569893836975, -0.32521218061447144, 0.19254939258098602, 0.0797843411564827, 0.8815698623657227, -0.3951793313026428], [0.08291029185056686, -0.41263312101364136, -0.07242976874113083, -0.2271830439567566, 0.2747763395309448, -0.264414519071579, 0.2727130353450775, -0.5336190462112427, 0.05735085904598236, -0.4593783915042877, 0.20174658298492432, 0.05783186852931976, 0.2593232989311218, 0.16481278836727142, -0.32001474499702454, -0.08732342720031738], [0.04222135618329048, -0.11594989150762558, 0.10166086256504059, 0.05841489136219025, 0.14476275444030762, -0.08440978080034256, -0.3471214473247528, -0.2095382958650589, 0.6157675385475159, 0.2291220724582672, 0.12478465586900711, -0.18223634362220764, 0.17513205111026764, 0.3497318625450134, -0.09450957924127579, -0.11505966633558273], [0.20345547795295715, 0.19604477286338806, 0.5224571824073792, -0.16020630300045013, -1.8834857940673828, 0.19069230556488037, -0.14066621661186218, 0.07102066278457642, -0.4776189625263214, 0.11666356772184372, 0.2929377257823944, 0.05827707052230835, 0.429982990026474, 0.1351676732301712, 0.13549640774726868, -0.4716583490371704]]}, "hg": {"bias": [0.14012569189071655, -0.15867865085601807, -0.040987350046634674, -0.07169892638921738, 0.18763019144535065, -0.2230488657951355, -0.18724729120731354, 0.2567629814147949, -0.2412116825580597, -0.13245466351509094, -0.09922395646572113, 0.16900019347667694, -0.10270976275205612, 0.11371219158172607, -0.20902688801288605, -0.20169465243816376], "kernel": [[0.07235206663608551, -0.39553454518318176, 0.25438985228538513, 0.07804518938064575, -0.07983037829399109, -0.15503256022930145, 0.523535966873169, -0.05418483540415764, 0.5987266302108765, -0.11906903982162476, 0.11382563412189484, -0.1755792647600174, 0.0560164712369442, 0.18548741936683655, -0.011713851243257523, -0.26857295632362366], [0.5680588483810425, 0.09737451374530792, -0.01794390380382538, -0.3784465789794922, 0.4518072009086609, -0.31599161028862, 0.16643553972244263, 0.13851124048233032, 0.17142517864704132, -0.012487758882343769, 0.008247158490121365, 0.1490013748407364, 0.2827092707157135, -0.13551874458789825, -0.05327289178967476, 0.2978907525539398], [-0.06060895323753357, 0.5166403651237488, 0.03181762620806694, -0.04705723002552986, -0.18269123136997223, -0.3859912157058716, -0.410680890083313, -0.11302301287651062, 0.275214284658432, 0.20031630992889404, -0.2386135458946228, -0.25603601336479187, 0.45851650834083557, -0.02674994245171547, -0.3782082796096802, -0.42420637607574463], [-0.3417991101741791, 0.01995074190199375, 0.14588993787765503, -0.47934481501579285, 0.5339346528053284, 0.04927612841129303, 0.08748812228441238, 0.02213975600898266, 0.07177366316318512, 0.11307687312364578, -0.3247688412666321, -0.15726205706596375, 0.09687139838933945, 0.4250637888908386, -0.535944938659668, 0.06697499006986618], [-0.7258882522583008, -1.333898901939392, 0.7338263392448425, 0.6468433737754822, 0.4861738681793213, 0.850354790687561, 0.01855921559035778, -0.2747965157032013, 0.9057980179786682, 2.081543445587158, 0.3596205413341522, -0.7486547231674194, 0.2710125148296356, -0.23703263700008392, -0.6383367776870728, -0.8867241144180298], [-0.45472440123558044, 0.24500446021556854, -0.17511165142059326, 0.014837506227195263, 0.011302657425403595, -0.3348345458507538, -0.2663990557193756, -0.19572687149047852, 0.08824438601732254, -0.5072949528694153, 0.35031887888908386, 0.15309661626815796, -0.08166582137346268, -0.009046383202075958, -0.5357392430305481, 0.6177907586097717], [0.13501720130443573, -0.12668947875499725, 0.0020280044991523027, 0.11718154698610306, 0.5088819861412048, 0.21535460650920868, -0.2595553994178772, -0.3270584046840668, 0.212937131524086, 0.05555183067917824, 0.34606003761291504, 0.43919241428375244, 0.11058925837278366, -0.052729155868291855, -0.13473646342754364, -0.24267394840717316], [-0.13508065044879913, 0.31311818957328796, -0.13081061840057373, 0.28503453731536865, 0.2510841190814972, -0.31668615341186523, 0.6214858889579773, -0.1199464350938797, -0.05543908104300499, 0.2432747781276703, -0.13012580573558807, 0.10602327436208725, -0.20636442303657532, -0.02023085579276085, 0.11046874523162842, -0.6587951183319092], [0.017914097756147385, 0.24009719491004944, -0.16846626996994019, 0.224559485912323, -0.24260346591472626, 0.35975682735443115, -0.06574133038520813, 0.5841188430786133, -0.0888654887676239, -0.19224666059017181, 0.44020411372184753, 0.06089026480913162, 0.28065070509910583, 0.39567533135414124, 0.03203115239739418, -0.02116156369447708], [-0.38425061106681824, -0.32532230019569397, -0.2761286199092865, -0.060671042650938034, -0.23060859739780426, -0.21058325469493866, 0.087288036942482, -0.14823883771896362, -0.04596634954214096, 0.23211950063705444, 0.4037522077560425, 0.12964187562465668, 0.26281222701072693, 0.10055142641067505, 0.17079688608646393, -0.07803419977426529], [-0.2352643758058548, -0.277859091758728, -0.1980866640806198, 0.04776138439774513, -0.26064273715019226, -0.00046490333625115454, -0.048557348549366, 0.2360309511423111, 0.2518840730190277, -0.1388481706380844, -0.6680884957313538, 0.5557515025138855, 0.1708354651927948, -0.048765216022729874, 0.12166889756917953, -0.0050083850510418415], [0.15695969760417938, -0.13711464405059814, -0.6548682451248169, 0.22243984043598175, 0.23270808160305023, 0.02941186912357807, -0.017412040382623672, -0.0907905325293541, 0.04052911698818207, 0.30828046798706055, -0.18742336332798004, -0.05228279158473015, 0.005969707388430834, 0.006084101274609566, -0.5000133514404297, -0.22121508419513702], [-0.21622097492218018, 0.31390315294265747, -0.233968585729599, -0.45438241958618164, -0.4844452738761902, 0.34176743030548096, -0.20908203721046448, -0.010388406924903393, 0.5161247253417969, 0.4147493243217468, 0.30345097184181213, -0.0935816615819931, -0.17711614072322845, -0.32923266291618347, 0.023573437705636024, 0.43200597167015076], [0.1338016837835312, 0.06751563400030136, -0.1655024141073227, -0.37236687541007996, -0.0867639034986496, -0.2022782266139984, -0.2896144688129425, 0.11383557319641113, 0.18863371014595032, 0.07923021167516708, 0.009616498835384846, 0.3093893527984619, -0.5680681467056274, 0.43568453192710876, -0.0004919436178170145, -0.30154165625572205], [0.09361474961042404, -0.34368255734443665, -0.1468016654253006, 0.36729568243026733, 0.7905158400535583, -0.14458507299423218, -0.15034209191799164, 0.11864417791366577, 0.25267043709754944, -0.10869771242141724, -0.0630912035703659, -0.466825008392334, -0.17017656564712524, 0.16146302223205566, -0.016605323180556297, 0.05991745740175247], [-0.14163078367710114, -0.47394558787345886, -0.36558306217193604, -0.4797757565975189, 0.2741076648235321, -0.22768758237361908, -0.04089142754673958, 0.44509318470954895, -0.1332446038722992, -0.33935296535491943, 0.18932367861270905, -0.1324586719274521, -0.08001602441072464, -0.41129860281944275, -0.12384077906608582, -0.3827628791332245]]}, "hi": {"bias": [-0.027559170499444008, -0.18126589059829712, 0.03825337067246437, -0.15626351535320282, 1.090514898300171, 0.14411799609661102, 0.2518893778324127, 0.14067266881465912, 0.22282198071479797, -0.06585994362831116, -0.09437274932861328, 0.13969936966896057, 0.08117363601922989, 0.08572598546743393, 0.03859405219554901, 0.12455981969833374], "kernel": [[0.10825951397418976, 0.5885420441627502, -0.33716627955436707, -0.09613052755594254, -0.3935202360153198, 0.1453852653503418, -0.4225062429904938, -0.07121376693248749, -0.1312306970357895, 0.11214789003133774, 0.4030941128730774, -0.06076154112815857, -0.42980635166168213, -0.4485808312892914, -0.4578840136528015, -0.2006743848323822], [-0.5021156668663025, 0.28929370641708374, 0.0567082017660141, 0.0341000072658062, -0.2870960831642151, -0.34934115409851074, -0.11612935364246368, 0.08271368592977524, -0.0351874902844429, -0.0003338260285090655, -0.03422608971595764, -0.02219327725470066, 0.3778758943080902, 0.0558653250336647, -0.6138181090354919, 0.21597793698310852], [0.04732682928442955, -0.12004180252552032, -0.10224398225545883, -0.042176876217126846, -0.5489957928657532, -0.3134703040122986, 0.4032730460166931, 0.2672410011291504, -0.20779471099376678, -0.13544805347919464, 0.37335559725761414, 0.12947304546833038, 0.07699819654226303, -0.4772290587425232, -0.7725457549095154, -0.214386448264122], [-0.293995201587677, -0.08835811913013458, 0.12100506573915482, -0.00046694392221979797, -0.15494182705879211, 0.22167493402957916, -0.4280443787574768, 0.18268923461437225, -0.16976875066757202, -0.5211474299430847, 0.15486904978752136, -0.1936129480600357, 0.0003639252972789109, -0.23732882738113403, 0.2844177484512329, 0.2125413566827774], [-0.6224601864814758, 0.9210692644119263, -1.6103322505950928, 0.07276271283626556, 0.4563450813293457, -0.9625619053840637, -0.0011231943499296904, -0.8826192021369934, -0.6065335273742676, 0.6801261901855469, 1.7687050104141235, -1.013753890991211, -0.22283011674880981, 0.6648561358451843, -0.2832234501838684, -0.7491172552108765], [0.2838301956653595, 0.09801829606294632, -0.04442964866757393, 0.10781559348106384, -0.7686285376548767, -0.07014163583517075, -0.10352262854576111, -0.28383368253707886, 0.3260424733161926, -0.2485012263059616, 0.33814799785614014, 0.35436081886291504, 0.3461747169494629, 0.30928099155426025, 0.15999038517475128, -0.31894993782043457], [-0.13596804440021515, 0.3830651342868805, -0.14227113127708435, -0.056497722864151, -0.23245908319950104, 0.04044618830084801, 0.10476534813642502, 0.6008837819099426, -0.0729762390255928, 0.3130636215209961, 0.239626944065094, 0.3002399504184723, 0.18232709169387817, 0.36355775594711304, 0.38999757170677185, -0.17947857081890106], [-0.16248303651809692, 0.37695902585983276, 0.12796437740325928, 0.1781565397977829, 0.17539918422698975, -0.08890146017074585, 0.3827502131462097, -0.36857959628105164, -0.1439807415008545, -0.12022565305233002, -0.12111607193946838, 0.17266449332237244, -0.478049635887146, -0.1649363487958908, 0.15713797509670258, 0.24691548943519592], [0.06314094364643097, 0.08082416653633118, 0.19643381237983704, -0.24437515437602997, -0.20674140751361847, -0.04871275648474693, 0.10702980309724808, 0.06970518082380295, 0.7897046804428101, 0.19388337433338165, 0.5118461847305298, -0.1676054447889328, 0.009083544835448265, 0.12701012194156647, 0.14316688477993011, 0.17702774703502655], [-0.279288113117218, -0.014354798011481762, 0.2747579514980316, 0.005925171077251434, 0.18260663747787476, 0.6083225607872009, 0.42460358142852783, -0.15444426238536835, -0.07412732392549515, -0.0967506617307663, 0.023298298940062523, -0.4478296637535095, 0.2330164760351181, 0.08574788272380829, -0.40944474935531616, -0.1375034749507904], [-0.43304553627967834, -0.12400630116462708, 0.23937062919139862, -0.47560933232307434, 1.1525665521621704, -0.06960190087556839, 0.07701870054006577, -0.0523730106651783, -0.2948111295700073, -0.14876088500022888, -0.015002884902060032, -0.09334729611873627, -0.340309202671051, 0.3283323645591736, 0.07254364341497421, -0.25498417019844055], [-0.3348662555217743, -0.4003445506095886, -0.8003466725349426, 0.2691171169281006, 0.7127748131752014, 0.24898377060890198, 0.13407330214977264, -0.027806630358099937, 0.02191934362053871, -0.30778244137763977, 0.18917271494865417, 0.08922010660171509, -0.19575367867946625, 0.2420210838317871, -0.12171409279108047, 0.3146137595176697], [-0.4048490524291992, -0.04115619882941246, -0.057912882417440414, 0.18438537418842316, -0.15937688946723938, 0.2443191409111023, -0.17093129456043243, -0.3701545298099518, 0.16156525909900665, 0.3693855404853821, 0.09404440224170685, 0.3172866702079773, 0.569301187992096, -0.1589524745941162, 0.846513032913208, -0.19958509504795074], [0.11332712322473526, 0.0407743901014328, 0.4060836434364319, 0.15778088569641113, 1.064932107925415, 0.055088501423597336, 0.2193024754524231, 0.14109499752521515, -0.0718078538775444, -0.3459789454936981, 0.02465459331870079, -0.19029328227043152, -0.08940502256155014, -0.07045653462409973, 0.027395715937018394, 0.11914018541574478], [0.05425364524126053, -0.3923165500164032, 0.6579101085662842, 0.274192214012146, 0.246782124042511, 0.1112554594874382, -0.12523247301578522, 0.2386157065629959, 0.02433468960225582, 0.3292548358440399, 0.23576219379901886, 0.34852349758148193, -0.2687663435935974, 0.19832228124141693, -0.27762362360954285, -0.19528533518314362], [-0.12418855726718903, -0.09030799567699432, -0.25453981757164, 0.3260168135166168, 0.3319804072380066, -0.4285080134868622, -0.07601956278085709, 0.19514092803001404, 0.24169082939624786, 0.27835342288017273, 0.08673736453056335, -0.32470256090164185, -0.06172596290707588, 0.01381710171699524, 0.8807926177978516, -0.661445677280426]]}, "ho": {"bias": [-0.013550463132560253, -0.09643208980560303, 0.004578448832035065, -0.08457376807928085, 1.242156744003296, 0.04101051390171051, 0.2545337677001953, 0.1105438619852066, 0.20408602058887482, -0.027879275381565094, -0.04848124459385872, 0.11241625994443893, 0.11353476345539093, 0.06786082684993744, 0.2526134252548218, 0.11711577326059341], "kernel": [[0.024347202852368355, 0.3833574652671814, -0.24277083575725555, 0.008139744400978088, 0.2854937016963959, -0.25183799862861633, -0.23609493672847748, 0.0554775595664978, 0.0026806402020156384, 0.24705708026885986, -0.13736747205257416, 0.0034518500324338675, 0.6572732329368591, -0.11936475336551666, 0.2112729549407959, 0.3167749047279358], [0.1381508857011795, -0.2486373484134674, -0.21525274217128754, -0.3655511438846588, -0.1666247844696045, 0.5713620781898499, 0.228114515542984, -0.046707820147275925, -0.049974776804447174, -0.36352261900901794, -0.20393462479114532, -0.24365800619125366, -0.0918070524930954, -0.21666008234024048, 0.2312808483839035, 0.45325618982315063], [-0.053729716688394547, 0.3290199041366577, -0.2822989821434021, -0.041722189635038376, -0.7133375406265259, -0.24208904802799225, -0.387841135263443, -0.1156187504529953, 0.44374486804008484, -0.39560645818710327, -0.2976808547973633, -0.4456953704357147, -0.17099134624004364, 0.21045862138271332, -0.6512248516082764, -0.11030735075473785], [0.213474303483963, -0.23667877912521362, 0.21071305871009827, -0.6189601421356201, 0.589657187461853, -0.36812081933021545, -0.06265764683485031, -0.12806421518325806, -0.3303838074207306, -0.2586599588394165, -0.07063578069210052, 0.09732348471879959, 0.0014248163206502795, 0.4196501076221466, 0.06015074998140335, 0.0642165094614029], [0.13618871569633484, 0.9399537444114685, -0.9799922704696655, 0.6370028853416443, 0.9132696390151978, -0.8303896188735962, -1.2362407445907593, -0.9439254403114319, -1.0028315782546997, 0.6750099062919617, 1.5689196586608887, -1.0371978282928467, -0.665860116481781, -0.46187373995780945, 0.0027671013958752155, -1.4309121370315552], [-0.4293169379234314, 0.00676618842408061, -0.19699926674365997, -0.01332878228276968, -1.0063573122024536, 0.3024461567401886, -0.33062440156936646, -0.3358553349971771, -0.09222343564033508, -0.17773528397083282, 0.35321909189224243, 0.44168326258659363, 0.20734690129756927, 0.017502058297395706, -0.0063024419359862804, -0.12394698709249496], [0.03852230682969093, 0.0045914920046925545, -0.29153579473495483, -0.016692286357283592, 0.17580680549144745, 0.39605551958084106, -0.049709394574165344, -0.21890327334403992, 0.24513673782348633, 0.3497437536716461, 0.17108063399791718, 0.15820549428462982, -0.15121914446353912, 0.2836953401565552, -0.04020874202251434, -0.3457431495189667], [-0.3624066710472107, -0.46624505519866943, -0.04682181775569916, -0.3005143702030182, 0.5028772950172424, -0.17369091510772705, -0.006128354929387569, -0.09263042360544205, 0.015261214226484299, 0.33652928471565247, -0.5365787148475647, -0.027372317388653755, -0.1981569230556488, -0.025652620941400528, 0.4033375680446625, 0.25742387771606445], [-0.25175121426582336, 0.05015750229358673, 0.1678292453289032, 0.34217381477355957, -0.04163718596100807, 0.16632142663002014, 0.11220438033342361, 0.29045310616493225, 0.2547591030597687, -0.17516487836837769, -0.4421442151069641, 0.5383670330047607, 0.056214094161987305, -0.02879648096859455, -0.481533944606781, 0.031143203377723694], [-0.02060479298233986, -0.6564768552780151, -0.2173881083726883, -0.10397877544164658, 0.8789529800415039, -0.3359490633010864, -0.2790985703468323, 0.009840842336416245, -0.10382362455129623, 0.06306206434965134, 0.2708534002304077, -0.4598224461078644, -0.005698051303625107, -0.31898343563079834, -0.28975582122802734, 0.2521043121814728], [-0.11979710310697556, 0.21160587668418884, -0.4410518407821655, -0.4180908799171448, 0.42092806100845337, -0.10744597762823105, 0.20729190111160278, 0.2636537551879883, 0.08017478883266449, 0.12711310386657715, 0.2923045754432678, 0.3474407196044922, -0.3098895847797394, 0.018283074721693993, -0.10902660340070724, 0.11294008791446686], [-0.295768678188324, -0.2566443979740143, -0.4215148091316223, 0.052204009145498276, 1.0101068019866943, -0.10602068901062012, 0.3526083528995514, 0.3928501307964325, -0.5489650368690491, -0.2558326721191406, 0.09380940347909927, -0.388427734375, -0.09793264418840408, 0.27672889828681946, 0.3935035467147827, 0.27098730206489563], [-0.2910814583301544, 0.39125049114227295, 0.1781199872493744, 0.24303892254829407, -0.6632846593856812, -0.01780262403190136, -0.10045064985752106, -0.13246384263038635, 0.33692464232444763, 0.11809171736240387, 0.17306669056415558, -0.13617905974388123, -0.18529880046844482, 0.2575274705886841, 0.521923303604126, 0.3629452884197235], [-0.3733861446380615, 0.06516362726688385, 0.12140299379825592, -0.31555938720703125, 1.013323426246643, -0.29427090287208557, 0.43550437688827515, -0.3952944576740265, 0.0236818790435791, -0.1943020522594452, 0.17427560687065125, -0.2547021806240082, -0.10492803901433945, -0.4543193280696869, 0.1993679255247116, -0.13130725920200348], [0.17972849309444427, -0.010594232939183712, 0.168012335896492, 0.16978399455547333, 0.6802577972412109, -0.07000304758548737, -0.39159664511680603, 0.2906818091869354, 0.3150339126586914, -0.309726357460022, -0.015138722956180573, 0.5053310394287109, -0.15408185124397278, -0.22453859448432922, 0.46073830127716064, -0.12125426530838013], [0.07834329456090927, -0.40645089745521545, -0.31800904870033264, 0.2845272123813629, -0.10543782263994217, -0.18883928656578064, 0.41902968287467957, -0.4589994251728058, 0.13444067537784576, -0.12488819658756256, 0.23708707094192505, 0.3420669734477997, 0.0911780446767807, 0.2009696662425995, 0.3345814049243927, 0.1806383728981018]]}, "if": {"kernel": [[0.6638429164886475, -0.3574628531932831, 0.18871241807937622, 0.5562784671783447, -0.2731856405735016, 0.4465041756629944, 0.8964328765869141, -0.542946457862854, -0.40010762214660645, 0.28592073917388916, -0.3294403553009033, 0.5750823616981506, -0.4265335202217102, 0.10546834021806717, -0.372273713350296, 0.5275618433952332], [-0.417807936668396, -1.0102717876434326, -0.2534538805484772, 0.04587499424815178, -0.687697172164917, 0.21458791196346283, -0.9502938389778137, 0.47613734006881714, -0.6537929773330688, -0.3571663498878479, 1.388501524925232, -0.49453702569007874, 0.6115874648094177, -0.7893532514572144, 0.26034775376319885, 1.2478134632110596]]}, "ig": {"kernel": [[0.14182330667972565, 0.9520787000656128, 0.6728063225746155, 0.8164267539978027, 0.13053056597709656, -0.2502972483634949, -0.631339967250824, 0.5939878821372986, -0.1593659371137619, 0.7228372693061829, 0.32051989436149597, 0.4632374048233032, -0.8589069247245789, 0.3857812285423279, 0.48033469915390015, -0.38056328892707825], [-0.30287328362464905, 0.7276255488395691, -0.7170981764793396, 1.100907802581787, -0.42837098240852356, 0.25440549850463867, -0.6159419417381287, 0.3875487148761749, -1.2541065216064453, 1.223211646080017, 0.8027741312980652, 0.6756251454353333, 0.6432117819786072, 0.9393008947372437, -0.29310041666030884, 0.7427306175231934]]}, "ii": {"kernel": [[-0.3390040099620819, 0.7762837409973145, -0.5336605906486511, -0.2638229429721832, 0.7479464411735535, 0.2992948293685913, -0.23481738567352295, -0.191762775182724, 0.07559441775083542, 0.20466400682926178, -0.2736557424068451, -0.42217838764190674, 0.5670275092124939, 0.3286977708339691, 0.6855167746543884, -1.059884786605835], [0.5817922949790955, 1.0926971435546875, -1.0400832891464233, 0.5086687803268433, 0.08580740541219711, 0.048585325479507446, 0.6431843042373657, -0.21078196167945862, 0.1276445984840393, -0.9992843866348267, -0.2855749726295471, -0.5738364458084106, -0.038359638303518295, 0.8773028254508972, 0.9491956830024719, 0.4416128993034363]]}, "io": {"kernel": [[0.5635220408439636, -0.7546239495277405, 0.1747708022594452, -0.32255956530570984, 0.5809720158576965, 1.1961328983306885, 0.020664753392338753, 0.23384322226047516, 0.979577898979187, 0.442423939704895, 0.2822779715061188, -0.8293398022651672, -1.1471763849258423, -0.6670942306518555, 0.8021780848503113, -0.02061283588409424], [0.4265848398208618, 1.3639137744903564, 1.25761079788208, -0.010970361530780792, 1.7807790040969849, 0.17447222769260406, 0.4948195219039917, -1.459434986114502, 0.42626890540122986, 1.5391769409179688, -0.5930208563804626, -1.32987642288208, 0.9720171689987183, 0.8375297784805298, 1.3316214084625244, 0.3295724093914032]]}}}}, "test_1": {"yhat": [-0.01173009816557169, -0.00961623340845108, -0.017823681235313416, -0.017372045665979385, -0.012824545614421368, -0.0007443030481226742, 0.028538262471556664, 0.0470399335026741, 0.03228146955370903, -0.0021670053247362375, -0.03827553987503052, -0.06900053471326828, -0.07220225781202316, -0.03381180763244629, 0.01793004386126995, 0.060613103210926056, 0.0858663022518158, 0.07247329503297806, 0.020675836130976677, -0.03193941339850426, -0.05089813843369484, -0.032694488763809204, 0.0014607168268412352, 0.02184467390179634, 0.02109772525727749, 0.011256336234509945, -0.004522889852523804, -0.016884813085198402, -0.011733165010809898, 0.0005649857921525836, 0.009921083226799965, 0.027177199721336365, 0.041726112365722656, 0.03407109156250954, 0.012465755455195904, 0.004668364301323891, 0.00866811815649271, 0.010717813856899738, -0.0013163534458726645, -0.027139300480484962, -0.04644126817584038, -0.03832966461777687, -0.00816369615495205, 0.02432471700012684, 0.041391342878341675, 0.033616311848163605, -0.00010892716090893373, -0.048386890441179276, -0.08234739303588867, -0.07066319137811661, -0.024623937904834747, 0.019428109750151634, 0.04138541221618652, 0.03911770507693291, 0.015908995643258095, -0.0031542107462882996, -0.002553628059104085, -0.004589409567415714, -0.020056938752532005, -0.024623990058898926, -0.0153994495049119, -0.006743957754224539, 0.0020492246840149164, 0.015288161113858223, 0.018835000693798065, 0.007855415344238281, -0.008468043990433216, -0.02440684847533703, -0.03139900043606758, -0.015552716329693794, 0.02045166678726673, 0.05620032921433449, 0.07118227332830429, 0.05663637816905975, 0.01804422400891781, -0.030017798766493797, -0.0691925585269928, -0.08137251436710358, -0.05818969011306763, -0.010512449778616428, 0.04130031540989876, 0.07637833803892136, 0.07472814619541168, 0.031966935843229294, -0.028685688972473145, -0.07315398007631302, -0.0878332108259201, -0.07648620754480362, -0.039110831916332245, 0.023892350494861603, 0.08253481239080429, 0.09981198608875275, 0.06230781599879265, -0.00920699443668127, -0.07762554287910461, -0.1106300801038742, -0.09444938600063324, -0.041630178689956665, 0.015249215066432953, 0.04750467836856842, 0.046209804713726044, 0.016381559893488884, -0.03105359710752964, -0.07338513433933258, -0.07459978014230728, -0.025682199746370316, 0.0334564633667469, 0.06054737791419029, 0.0473455972969532, 0.009686896577477455, -0.03663693368434906, -0.07422385364770889, -0.08445369452238083, -0.05966273695230484, -0.015197616070508957, 0.021447470411658287, 0.03609413281083107, 0.03416459634900093, 0.023102672770619392, 0.00382530246861279, -0.022027619183063507, -0.0464688278734684, -0.05545367673039436, -0.03824656084179878, -0.001411060569807887, 0.035546332597732544, 0.05253427475690842, 0.03803463280200958, -0.00033968951902352273, -0.04053487628698349, -0.07172448188066483, -0.09190486371517181, -0.08575952053070068, -0.034294966608285904, 0.04018879681825638, 0.09856254607439041, 0.11348247528076172, 0.0808567926287651, 0.014227292500436306, -0.05886156111955643, -0.10305298119783401, -0.08807332813739777, -0.01837823912501335, 0.06019144505262375, 0.10324183851480484, 0.09171260893344879, 0.030107982456684113, -0.04612411558628082, -0.08094849437475204, -0.06099621579051018, -0.007358008064329624, 0.05966537073254585, 0.11416096240282059, 0.11637530475854874, 0.05506739765405655, -0.03988586738705635, -0.12167287617921829, -0.15101808309555054, -0.10824661701917648, -0.018675431609153748, 0.06743810325860977, 0.11466985940933228, 0.11014962941408157, 0.07026076316833496, 0.024890251457691193, -0.016858605667948723, -0.04547975957393646, -0.04704265668988228, -0.02673190087080002, -0.0031450747046619654, 0.020416349172592163, 0.0413142666220665, 0.042768608778715134, 0.021012524142861366, -0.013552431017160416, -0.050984691828489304, -0.07352545857429504, -0.05680470913648605, -0.00974260363727808, 0.033645596355199814, 0.047518324106931686, 0.03173995763063431, 0.0024705256801098585, -0.026522807776927948, -0.04314863681793213, -0.02490806020796299, 0.02590632066130638, 0.06118651106953621, 0.0513322688639164, 0.022791361436247826, 0.0013848821399733424, -0.019967470318078995, -0.03882044926285744, -0.0417037159204483, -0.030408766120672226, -0.006928542163223028, 0.0228059533983469, 0.032939229160547256, 0.01267873216420412, -0.016139281913638115, -0.03811916708946228, -0.05178970471024513, -0.043927811086177826, 0.0038574764039367437, 0.06344230473041534, 0.0974593386054039, 0.09330198168754578, 0.06142115592956543, 0.012820716015994549, -0.03388750180602074, -0.0619826540350914, -0.06629838049411774, -0.04146391898393631, 0.01257073599845171, 0.06116565689444542, 0.07104898244142532, 0.038359131664037704, -0.018455198034644127, -0.07081097364425659, -0.07964077591896057, -0.03487594798207283, 0.028984760865569115, 0.07876630872488022, 0.10042250156402588, 0.08018206059932709, 0.02515794150531292, -0.03296639397740364, -0.07342392951250076, -0.08646410703659058, -0.06600558757781982, -0.025621967390179634, 0.017201315611600876, 0.06041581928730011, 0.0789797455072403, 0.04904851317405701, -0.016322333365678787, -0.06856456398963928, -0.07569808512926102, -0.03008054941892624, 0.0393991693854332, 0.08438755571842194, 0.08267644047737122, 0.051509056240320206, 0.006776249967515469, -0.039104774594306946, -0.06933469325304031, -0.0712897852063179, -0.04407273605465889, -0.0071836840361356735, 0.013752837665379047, 0.020136801525950432, 0.03033256158232689, 0.030963387340307236, 0.010468166321516037, -0.013167533092200756, -0.017497573047876358, -0.010965835303068161, -0.0021290176082402468, 0.019033614546060562, 0.051761284470558167, 0.0684477835893631, 0.05046968162059784, 0.009905954822897911, -0.02431841567158699, -0.03643641620874405, -0.02019818313419819, 0.02012435719370842, 0.06574441492557526, 0.09802824258804321, 0.09995366632938385, 0.060963183641433716, -0.002326021669432521, -0.05650592967867851, -0.07859749346971512, -0.04883049055933952, 0.03039230965077877, 0.0981084331870079, 0.11001178622245789, 0.0745147317647934, 0.0012370332842692733, -0.09046924114227295, -0.1465788334608078, -0.10998104512691498, -0.013400046154856682, 0.09050707519054413, 0.16117672622203827, 0.15754422545433044, 0.0767868384718895, -0.024075105786323547, -0.09493254870176315, -0.11299899220466614, -0.0735962986946106, -0.01045251078903675, 0.035733602941036224, 0.060837939381599426, 0.05896127596497536, 0.02105635032057762, -0.036626800894737244, -0.07514308393001556, -0.07119156420230865, -0.02224777638912201, 0.04086725786328316, 0.07279925048351288, 0.05806976184248924, 0.0253865048289299, -0.0047509814612567425, -0.032940175384283066, -0.05578751489520073, -0.0542118139564991, -0.009132144041359425, 0.05855679139494896, 0.10161852836608887, 0.0872524306178093, 0.019420314580202103, -0.06370799243450165, -0.1179143637418747, -0.12494900822639465, -0.09410858154296875, -0.030675075948238373, 0.05268415808677673, 0.117311030626297, 0.13241080939769745, 0.08703327178955078, -0.005581291858106852, -0.10157334804534912, -0.14476744830608368, -0.11068684607744217, -0.019487878307700157, 0.08360221982002258, 0.14716841280460358, 0.13339494168758392, 0.04202597588300705, -0.07721702009439468, -0.1525339037179947, -0.14330902695655823, -0.055598560720682144, 0.06004570424556732, 0.13538388907909393, 0.13052137196063995, 0.05570647865533829, -0.03803892433643341, -0.10696069896221161, -0.12536726891994476, -0.08610792458057404, -0.014462140388786793, 0.052462875843048096, 0.10175862163305283, 0.12032080441713333, 0.08532287180423737, 0.008395240642130375, -0.05697280913591385, -0.07847431302070618, -0.05891254171729088, -0.011048110201954842, 0.051894862204790115, 0.1002926304936409, 0.10667961090803146, 0.06956300139427185, 0.00932639092206955, -0.050931308418512344, -0.08419404178857803, -0.0683160200715065, -0.012887334451079369, 0.04925813898444176, 0.0887860432267189, 0.08901184797286987, 0.05097012594342232, -0.005656002089381218, -0.060864221304655075, -0.09826623648405075, -0.09808450192213058, -0.05087953433394432, 0.01593153551220894, 0.0666281059384346, 0.0782749354839325, 0.04568597674369812, -0.011680482886731625, -0.059189893305301666, -0.07642842829227448, -0.059498775750398636, -0.013656695373356342, 0.03772952780127525, 0.06685478240251541, 0.06490017473697662, 0.03850177675485611, -0.006741606630384922, -0.05981028079986572, -0.09957008063793182, -0.10100202262401581, -0.053075890988111496, 0.026963993906974792, 0.09818806499242783, 0.11674779653549194, 0.06567490100860596, -0.025131884962320328, -0.08922279626131058, -0.08849968761205673, -0.03400794416666031, 0.03160993009805679, 0.06597905606031418, 0.05941661447286606, 0.029902495443820953, -0.005173202604055405, -0.03155754506587982, -0.03734050318598747, -0.027272749692201614, -0.012772209011018276, 0.009165368974208832, 0.03505879268050194, 0.04236355796456337, 0.021470317617058754, -0.011798406951129436, -0.0359477773308754, -0.03736140951514244, -0.01705237850546837, 0.008821627125144005, 0.029999783262610435, 0.04596979171037674, 0.03961329534649849, 0.001206443877890706, -0.04852726683020592, -0.07251638919115067, -0.059832703322172165, -0.021292246878147125, 0.019532551988959312, 0.03607149049639702, 0.019285844638943672, -0.013896926306188107, -0.03502122685313225, -0.027366166934370995, 0.0008357929182238877, 0.025964204221963882, 0.033600058406591415, 0.027011090889573097, 0.003915435168892145, -0.035809218883514404, -0.07177206128835678, -0.07535603642463684, -0.050547368824481964, -0.015231553465127945, 0.02739998884499073, 0.06978145241737366, 0.0849907323718071, 0.0571369007229805, 0.001670869067311287, -0.04139987751841545, -0.04455140605568886, -0.019343748688697815, 0.005915375426411629, 0.018089277669787407, 0.022947119548916817, 0.01732817105948925, -0.0003647846169769764, -0.026628658175468445, -0.05737956985831261, -0.07674466818571091, -0.051080331206321716, 0.01038782112300396, 0.061555832624435425, 0.07295797020196915, 0.06111004948616028, 0.043559614568948746, 0.01733560860157013, -0.01608971878886223, -0.04932265356183052, -0.07278496026992798, -0.0715702548623085, -0.03497397527098656, 0.017135512083768845, 0.05224655196070671, 0.057668596506118774, 0.040087804198265076, 0.0035965845454484224, -0.0370752178132534, -0.055857814848423004, -0.04757256433367729, -0.02198898047208786, 0.020596563816070557, 0.06301535665988922, 0.0716213658452034, 0.039301395416259766, -0.010666419751942158, -0.066339410841465, -0.11394986510276794, -0.11844661086797714, -0.06113147735595703, 0.024120405316352844, 0.09354133158922195, 0.11997448652982712, 0.09178442507982254, 0.0216894019395113, -0.048873867839574814, -0.08915623277425766, -0.09866367280483246, -0.08795561641454697, -0.044287703931331635, 0.02900034934282303, 0.09698038548231125, 0.12329710274934769, 0.08857488632202148, 0.005093192216008902, -0.08009711652994156, -0.11706332862377167, -0.09528793394565582, -0.03395632281899452, 0.03998846933245659, 0.09358201920986176, 0.10180635750293732, 0.05654529854655266, -0.03137583285570145, -0.1228095144033432, -0.15776309370994568, -0.10970508307218552, -0.018738042563199997, 0.06027892231941223, 0.10979738086462021, 0.11884750425815582, 0.08387307822704315, 0.02737632393836975, -0.01958100125193596, -0.044899825006723404, -0.044848278164863586, -0.020367778837680817, 0.01849297247827053, 0.05389326810836792, 0.0727369412779808, 0.0718943402171135, 0.04725099354982376, 0.0004698570119217038, -0.04674394428730011, -0.06401868909597397, -0.046875741332769394, -0.010797734372317791, 0.031547628343105316, 0.0655994638800621, 0.06649516522884369, 0.027923841029405594, -0.019703513011336327, -0.036288198083639145, -0.0175867211073637, 0.01933317258954048, 0.05381085351109505, 0.0655977725982666, 0.044020090252161026, 0.002769545651972294, -0.03209612891077995, -0.053963035345077515, -0.06501995027065277, -0.060348570346832275, -0.04127463325858116, -0.02190360054373741, -0.002586249029263854, 0.018872924149036407, 0.024751972407102585, 0.008606938645243645, -0.007856421172618866, -0.019568786025047302, -0.036000628024339676, -0.0456295870244503, -0.021716665476560593, 0.008766479790210724, 0.015930870547890663, 0.0036933105438947678, -0.008789527229964733, -0.01677030138671398, -0.012653607875108719, 0.009587896056473255, 0.03735721856355667, 0.05332520604133606, 0.0433841273188591, 0.007104734890162945, -0.03192533180117607, -0.04836956411600113, -0.04138735681772232, -0.01365840807557106, 0.03443348780274391, 0.07017438113689423, 0.06252478063106537, 0.013867655768990517, -0.04302385076880455, -0.08055862784385681, -0.0855184867978096, -0.05988495051860809, -0.014918490312993526, 0.03038300760090351, 0.052512504160404205, 0.0463375523686409, 0.028036821633577347, 0.000560513639356941, -0.03033994697034359, -0.03296838700771332, 0.0013525804970413446, 0.035312045365571976, 0.04351256787776947, 0.03253885731101036, 0.009943444281816483, -0.010336056351661682, -0.008827399462461472, 0.0048952167853713036, 0.01613927260041237, 0.026808541268110275, 0.026956453919410706, 0.0030703290831297636, -0.03359627723693848, -0.054641980677843094, -0.051948439329862595, -0.03167601674795151, -0.012676607817411423, -0.01277903188019991, -0.021618302911520004, -0.013031107373535633, 0.008239303715527058, 0.025381138548254967, 0.03565535321831703, 0.04165946692228317, 0.034876178950071335, 0.01993335783481598, 0.018472885712981224, 0.026917865499854088, 0.02652771770954132, 0.012320244684815407, -0.006179842632263899, -0.026294000446796417, -0.04343031719326973, -0.042407259345054626, -0.02220594324171543, 0.0016387846553698182, 0.02349266968667507, 0.044986456632614136, 0.050541773438453674, 0.03135601803660393, 0.0020859218202531338, -0.022021843120455742, -0.040866825729608536, -0.054585736244916916, -0.05726753547787666, -0.04645916819572449, -0.02324105054140091, 0.008965604938566685, 0.034204743802547455, 0.03555241599678993, 0.017814356833696365, 0.005402434151619673, -0.0003583830548450351, -0.01221583690494299, -0.03182888776063919, -0.043332379311323166, -0.032244451344013214, 0.008485245518386364, 0.06849934905767441, 0.11396331340074539, 0.11354983597993851, 0.06080865114927292, -0.01704597659409046, -0.07487815618515015, -0.0928751602768898, -0.08521253615617752, -0.07011287659406662, -0.02597000077366829, 0.04023372381925583, 0.09099400043487549, 0.09652897715568542, 0.05201300233602524, -0.02754654735326767, -0.10939975082874298, -0.15176528692245483, -0.13029582798480988, -0.05869980901479721, 0.029695037752389908, 0.10091463476419449, 0.12082884460687637, 0.07589258998632431, -0.006970503833144903, -0.07329128682613373, -0.09419352561235428, -0.06611038744449615, 0.002488644327968359, 0.0880037248134613, 0.1515854001045227, 0.15280432999134064, 0.0759507492184639, -0.04113340377807617, -0.12277504056692123, -0.13277551531791687, -0.08399983495473862, -0.00881167035549879, 0.06534948199987411, 0.10084384679794312, 0.07491832971572876, -0.0021567833609879017, -0.0824502483010292, -0.11014474928379059, -0.07366762310266495, -0.004863973241299391, 0.06135619431734085, 0.11062883585691452, 0.11853986978530884, 0.06874795258045197, -0.02253113128244877, -0.10996124893426895, -0.14285406470298767, -0.09219538420438766, 0.006285566370934248, 0.08672840148210526, 0.1128491684794426, 0.07858557999134064, -0.0006119533209130168, -0.07571003586053848, -0.09424743056297302, -0.06059148535132408, -0.00543134706094861, 0.04247794300317764, 0.05301588773727417, 0.01472630724310875, -0.04368014261126518, -0.07091024518013, -0.056034911423921585, -0.0197831429541111, 0.014360511675477028, 0.03980575129389763, 0.047790590673685074, 0.03020087629556656, -0.000607097870670259, -0.009210904128849506, 0.008254789747297764, 0.024976346641778946, 0.025838421657681465, 0.02350105158984661, 0.016363928094506264, -0.0039949859492480755, -0.026948979124426842, -0.03502145782113075, -0.031047644093632698, -0.014682464301586151, 0.02249857783317566, 0.056693825870752335, 0.061968494206666946, 0.03951345384120941, 0.0032520510721951723, -0.03882884606719017, -0.07147536426782608, -0.07718987762928009, -0.05529046803712845, -0.017609886825084686, 0.013093721121549606, 0.015646928921341896, -0.006744929123669863, -0.0361081101000309, -0.06075463071465492, -0.06803837418556213, -0.043685778975486755, -0.0024208438117057085, 0.026071636006236076, 0.029441174119710922, 0.017529290169477463, 0.0042358445934951305, -0.004847605247050524, -0.01816200464963913, -0.040524922311306, -0.05740773305296898, -0.05557103827595711, -0.042617715895175934, -0.02622569166123867, -0.006266844924539328, 0.008575046434998512, 0.013265987858176231, 0.017691563814878464, 0.026340041309595108, 0.025042328983545303, 0.004626530688256025, -0.024159731343388557, -0.04100725054740906, -0.03837573900818825, -0.02165878377854824, -0.0009914973052218556, 0.01257050596177578, 0.013844375498592854, 0.009781782515347004, 0.005165538284927607, -0.007487175986170769, -0.02944827824831009, -0.04463861137628555, -0.03768894821405411, -0.009232907555997372, 0.02658427134156227, 0.04482676088809967, 0.029803596436977386, -0.0050139944069087505, -0.0271425973623991, -0.027481254190206528, -0.016533033922314644, -0.006801507901400328, -0.004550514742732048, -0.005788032431155443, 0.005190710071474314, 0.029536137357354164, 0.045654285699129105, 0.04088596627116203, 0.023383190855383873, 0.0016085912939161062, -0.012680133804678917, 0.0025909156538546085, 0.03401205688714981, 0.043921370059251785, 0.0180952325463295, -0.017604239284992218, -0.04394795000553131, -0.05278945714235306, -0.03617481142282486, -0.005202233325690031, 0.01591298170387745, 0.02047067880630493, 0.018660152330994606, 0.015793001279234886, 0.016874875873327255, 0.01838548667728901, 0.008361252024769783, -0.011370308697223663, -0.024182269349694252, -0.02532453089952469, -0.012915381230413914, 0.018042538315057755, 0.04916230961680412, 0.05883094668388367, 0.04743003100156784, 0.020116740837693214, -0.017592255026102066, -0.042532987892627716, -0.04202605411410332, -0.03265960514545441, -0.02108381874859333, 0.009487822651863098, 0.03601718693971634, 0.03543256223201752, 0.01666880026459694, -0.004387805704027414, -0.02828153595328331, -0.0437438003718853, -0.02908901311457157, 0.009288543835282326, 0.051801662892103195, 0.0760713741183281, 0.06317336857318878, 0.01727026328444481, -0.036242518573999405, -0.07784397155046463, -0.094483882188797, -0.07368066906929016, -0.02295629121363163, 0.031898245215415955, 0.06709489226341248, 0.06609494984149933, 0.03240213915705681, -0.0040763020515441895, -0.02228423021733761, -0.025295602157711983, -0.019388290122151375, -0.007765087764710188, 0.007714555598795414, 0.026712659746408463, 0.036473240703344345, 0.02351638488471508, -0.0031756258103996515, -0.024982718750834465, -0.042486660182476044, -0.0551995187997818, -0.049778133630752563, -0.03001304529607296, -0.0091541213914752, 0.014695155434310436, 0.045182157307863235, 0.0677468553185463, 0.064290352165699, 0.0266288910061121, -0.03269285336136818, -0.08252891153097153, -0.09855939447879791, -0.07689741253852844, -0.02038826048374176, 0.05002440884709358, 0.09499296545982361, 0.09336382895708084, 0.04584359750151634, -0.037467360496520996, -0.12311740219593048, -0.1544097661972046, -0.10322952270507812, 0.005107528530061245, 0.12632988393306732, 0.2084481567144394, 0.20116986334323883, 0.09715697169303894, -0.05174332112073898, -0.17096038162708282, -0.20618629455566406, -0.13363009691238403, -0.0018117513973265886, 0.10794264078140259, 0.1612062156200409, 0.1456189602613449, 0.05671664699912071, -0.06734819710254669, -0.15712083876132965, -0.1706366091966629, -0.10306218266487122, 0.013939772732555866, 0.10838346928358078, 0.12809543311595917, 0.06981301307678223, -0.02272529900074005, -0.088587686419487, -0.09825322777032852, -0.060715582221746445, -0.00376888713799417, 0.05153852328658104, 0.08618661016225815, 0.08409377187490463, 0.03987608104944229, -0.032170072197914124, -0.09527478367090225, -0.10704293847084045, -0.05946230888366699, 0.017370592802762985, 0.07837572693824768, 0.08646421134471893, 0.03606213629245758, -0.04172578081488609, -0.10269705206155777, -0.11218103021383286, -0.047717347741127014, 0.05701906606554985, 0.13200080394744873, 0.13655400276184082, 0.08091776072978973, -0.0035657116677612066, -0.0706472173333168, -0.08724186569452286, -0.06355265527963638, -0.021232498809695244, 0.03428342565894127, 0.06737763434648514, 0.05379738658666611, 0.014332758262753487, -0.013704611919820309, -0.022268131375312805, -0.0043628765270113945, 0.025111328810453415, 0.03214423730969429, 0.008229592815041542, -0.01849491149187088, -0.029030324891209602, -0.0056488593108952045, 0.04936749115586281, 0.08341549336910248, 0.06541183590888977, 0.022757986560463905, -0.006667050067335367, -0.02313706837594509, -0.01958746649324894, 0.006302535068243742, 0.02642429620027542, 0.023357100784778595, 0.01156514324247837, 0.003854920854791999, -0.00010490223212400451, 0.004079038742929697, 0.018653610721230507, 0.029004335403442383, 0.022935006767511368, 0.00517673185095191, -0.01568395458161831, -0.039510272443294525, -0.05977628007531166, -0.05332965403795242, -0.016911888495087624, 0.020200511440634727, 0.03453200310468674, 0.03464768826961517, 0.034622084349393845, 0.02647346444427967, 0.00384193891659379, -0.020092051476240158, -0.022502943873405457, -0.00677310349419713, 0.006594476290047169, 0.00959671288728714, 0.011683259159326553, 0.00648198276758194, -0.010427044704556465, -0.018985772505402565, -0.006900469772517681, 0.001501438906416297, -0.010673421435058117, -0.028844373300671577, -0.04306459799408913, -0.053279757499694824, -0.045765336602926254, -0.0027844798751175404, 0.05387141928076744, 0.09094749391078949, 0.0908283069729805, 0.053713489323854446, -0.0054540145210921764, -0.05616529658436775, -0.06964434683322906, -0.03788226097822189, 0.018867813050746918, 0.05807919055223465, 0.050785236060619354, 0.007451517041772604, -0.0357293076813221, -0.05604284629225731, -0.050260309129953384, -0.026934271678328514, 0.004163728561252356, 0.0374431349337101, 0.05968760326504707, 0.05542895197868347, 0.030409660190343857, 0.006223927717655897, -0.018604950979351997, -0.0488361120223999, -0.07207867503166199, -0.06559338420629501, -0.02872524969279766, 0.026346201077103615, 0.07821165770292282, 0.0966457650065422, 0.06618911772966385, 0.0037803510203957558, -0.05479526147246361, -0.08546392619609833, -0.07755208015441895, -0.026153026148676872, 0.04998244717717171, 0.10074888914823532, 0.09119057655334473, 0.03128931671380997, -0.03421235829591751, -0.07614724338054657, -0.08133397996425629, -0.04268670454621315, 0.031179329380393028, 0.09807122498750687, 0.11066936701536179, 0.055183134973049164, -0.031705353409051895, -0.09638062119483948, -0.1127079501748085, -0.0768858790397644, -0.0003439699939917773, 0.07982393354177475, 0.12613147497177124, 0.12597538530826569, 0.08643528074026108, 0.02461673505604267, -0.030476998537778854, -0.05877511948347092, -0.058306094259023666, -0.03707161545753479, -0.00658458424732089, 0.025611286982893944, 0.061960265040397644, 0.08560384809970856, 0.06725834310054779, 0.008569321595132351, -0.049099188297986984, -0.07628036290407181, -0.06515108793973923, -0.009462596848607063, 0.06525883823633194, 0.10204207897186279, 0.07253781706094742, 0.0016421835171058774, -0.0681181475520134, -0.11315540224313736, -0.12255318462848663, -0.08574511855840683, -0.008385654538869858, 0.0697522684931755, 0.1043461263179779, 0.0805792361497879, 0.023059843108057976, -0.035365134477615356, -0.06950055062770844, -0.05502019822597504, 0.009059110656380653, 0.07696902006864548, 0.10335387289524078, 0.07701713591814041, 0.020983800292015076, -0.03601705655455589, -0.06797847151756287, -0.05912666767835617, -0.010469824075698853, 0.055703360587358475, 0.09695717692375183, 0.08447975665330887, 0.02856524847447872, -0.03574678674340248, -0.08188831806182861, -0.08765832334756851, -0.04049067944288254, 0.03166487440466881, 0.08661284297704697, 0.0996631532907486, 0.06503122299909592, -0.0014426849083974957, -0.06080637872219086, -0.0842236876487732, -0.06819964200258255, -0.017422862350940704, 0.04791872203350067, 0.08601740747690201, 0.07277307659387589, 0.0199505053460598, -0.03868889436125755, -0.07025839388370514, -0.05956951156258583, -0.01945711113512516, 0.024380402639508247, 0.052812620997428894, 0.057943109422922134, 0.0443902313709259, 0.01906670816242695, -0.014140032231807709, -0.04114575684070587, -0.04377489164471626, -0.031098779290914536, -0.021052539348602295, -0.010826650075614452, 0.004202060867100954, 0.015311901457607746, 0.026547063142061234, 0.05230601876974106, 0.07249797880649567, 0.06300082057714462, 0.025757411494851112, -0.018466826528310776, -0.06276123970746994, -0.10415968298912048, -0.1191820502281189, -0.07170457392930984, 0.009613757953047752, 0.07480767369270325, 0.10441435128450394, 0.10549850016832352, 0.062486495822668076, -0.013314935378730297, -0.07454486191272736, -0.09219302237033844, -0.0679159015417099, -0.016435004770755768, 0.037452332675457, 0.07362925261259079, 0.08749988675117493, 0.07078389823436737, 0.024873001500964165, -0.023475978523492813, -0.05183720961213112, -0.05833788588643074, -0.04463895782828331, -0.015117807313799858, 0.014201660640537739, 0.03075864166021347, 0.027930742129683495, 0.007335573900490999, -0.011011643335223198, -0.007650332525372505, 0.006238621659576893, 0.01607293076813221, 0.025154082104563713, 0.0335654579102993, 0.023687705397605896, -0.009505337104201317, -0.03967107832431793, -0.0347718745470047, -0.00411326764151454, 0.02802690491080284, 0.047920383512973785, 0.03867381438612938, -0.00925662275403738, -0.07098525017499924, -0.09411490708589554, -0.06868533790111542, -0.016182931140065193, 0.033071450889110565, 0.053968530148267746, 0.043050989508628845, 0.022241365164518356, -0.0006745377322658896, -0.02635880932211876, -0.042119573801755905, -0.035877615213394165, -0.01966920495033264, -0.007759286556392908, -0.0005501483683474362, 0.01042973157018423, 0.02848459593951702, 0.03479629382491112, 0.013072561472654343, -0.02467290125787258, -0.04769778624176979, -0.04572154954075813, -0.02366488240659237, 0.005329244304448366, 0.026379523798823357, 0.04045288264751434, 0.05836446210741997, 0.06739404052495956, 0.05137499421834946, 0.010017273016273975, -0.041517049074172974, -0.07799873501062393, -0.07810698449611664, -0.04482655972242355, 0.00514322891831398, 0.056446656584739685, 0.08170005679130554, 0.05823763087391853, -0.004974218085408211, -0.06438878923654556, -0.0816747322678566, -0.05569891631603241, -0.01456912700086832, 0.017237041145563126, 0.041142769157886505, 0.05742917209863663, 0.05706077069044113, 0.03258766978979111, -0.0157137643545866, -0.07261960953474045, -0.10860032588243484, -0.10168624669313431, -0.052300140261650085, 0.020525213330984116, 0.07374642044305801, 0.07470913231372833, 0.031686291098594666, -0.012899051420390606, -0.03557036817073822, -0.03366882726550102, -0.016548892483115196, 0.0034812032245099545, 0.025704512372612953, 0.042418044060468674, 0.038185253739356995, 0.024243349209427834, 0.02842019870877266, 0.028094498440623283, 0.00705405930057168, -0.021573506295681, -0.04399748891592026, -0.058313045650720596, -0.0495903454720974, -0.013523988425731659, 0.021361758932471275, 0.03503865748643875, 0.029685430228710175, 0.01371956430375576, 0.0027826300356537104, 0.0023308927193284035, -0.0013086101971566677, -0.013653015717864037, -0.025351913645863533, -0.03425820544362068, -0.036199647933244705, -0.019184693694114685, 0.010884203016757965, 0.03931363672018051, 0.05590105429291725, 0.04828277975320816, 0.016202623024582863, -0.021749349310994148, -0.05464354157447815, -0.07712326943874359, -0.07234282046556473, -0.03790826350450516, 0.0015081343008205295, 0.03234167397022247, 0.05235607922077179, 0.05019358545541763, 0.028484545648097992, 0.007344262674450874, -0.005714254919439554, -0.005913673900067806, 0.015634816139936447, 0.04153848811984062, 0.04380461201071739, 0.014351720921695232, -0.027668189257383347, -0.056449953466653824, -0.05655604600906372, -0.030847368761897087, 0.004379668738692999, 0.03254711255431175, 0.04529058560729027, 0.042477790266275406, 0.02141253650188446, -0.018288860097527504, -0.05981670692563057, -0.07608052343130112, -0.06186949461698532, -0.02768891304731369, 0.016386620700359344, 0.053158920258283615, 0.06943660974502563, 0.06895969808101654, 0.05302851274609566, 0.025842050090432167, 0.010870940051972866, 0.012910082004964352, 0.014517419971525669, 0.011994417756795883, 0.018776530399918556, 0.031327906996011734, 0.03815054893493652, 0.027474762871861458, -0.004364818800240755, -0.03689267858862877, -0.040458645671606064, -0.022348156198859215, -0.0004522340896073729, 0.01625240407884121, 0.013775862753391266, -0.01094706542789936, -0.033551402390003204, -0.03955324366688728, -0.03959684073925018, -0.041475314646959305, -0.03984351083636284, -0.0330495648086071, -0.014237243682146072, 0.013046929612755775, 0.02312508597970009, 0.004522317089140415, -0.01781216822564602, -0.019276922568678856, -0.007737322244793177, 0.0029119898099452257, 0.01369503140449524, 0.02724512480199337, 0.029166406020522118, 0.010175356641411781, -0.017659233883023262, -0.03733079507946968, -0.044112857431173325, -0.03351810202002525, 0.0038865578826516867, 0.056311190128326416, 0.08550165593624115, 0.06491655111312866, 0.009239171631634235, -0.036647092550992966, -0.062116023153066635, -0.0697588175535202, -0.044732846319675446, 0.013257094658911228, 0.06112471595406532, 0.07275718450546265, 0.05706820636987686, 0.016573529690504074, -0.036924876272678375, -0.06982283294200897, -0.062088143080472946, -0.021928146481513977, 0.03284117579460144, 0.07472921907901764, 0.0848277136683464, 0.06773581355810165, 0.026367105543613434, -0.028492825105786324, -0.06344669312238693, -0.059418097138404846, -0.03357667475938797, -0.0042735617607831955, 0.019921602681279182, 0.021926041692495346, 0.0012054727412760258, -0.017002366483211517, -0.014444073662161827, 0.006053475197404623, 0.034164875745773315, 0.061294250190258026, 0.07617264986038208, 0.0548785962164402, -0.00745501508936286, -0.07457508146762848, -0.08887191116809845, -0.05052099749445915, 0.007920938543975353, 0.05011178180575371, 0.05418531224131584, 0.02678421512246132, 0.004039479419589043, -0.004378350451588631, -0.008868121542036533, -0.01041825395077467, -0.007305467035621405, -0.0065908576361835, -0.0038962664548307657, 0.010080572217702866, 0.023065490648150444, 0.020626667886972427, 0.0009678233182057738, -0.023455074056982994, -0.029743900522589684, -0.011105596087872982, 0.007221342530101538, 0.0029329448007047176, -0.017056696116924286, -0.03295215964317322, -0.03343648090958595, -0.018288757652044296, -0.0016645925352349877, 0.0026894304901361465, -0.004056483972817659, -0.015983792021870613, -0.02898658812046051, -0.03226613625884056, -0.016549760475754738, 0.007655216846615076, 0.025512415915727615, 0.03322194516658783, 0.030319349840283394, 0.017761150375008583, 0.008189317770302296, 0.01492175180464983, 0.028231550008058548, 0.029676614329218864, 0.011479891836643219, -0.016364868730306625, -0.03274013102054596, -0.0211153794080019, 0.013699912466108799, 0.048403553664684296, 0.05820149928331375, 0.03347961604595184, -0.011185199953615665, -0.04707976058125496, -0.05860396474599838, -0.045696746557950974, -0.012541958130896091, 0.020687181502580643, 0.025509348139166832, 0.0018550188979133964, -0.008155453950166702, 0.011158102191984653, 0.03226963430643082, 0.03156592696905136, 0.007839929312467575, -0.02431640960276127, -0.04326217994093895, -0.03328739106655121, -0.008638598956167698, 0.00636233389377594, 0.009741916321218014, 0.01536040473729372, 0.01857597567141056, 0.017775947228074074, 0.025358393788337708, 0.03181237727403641, 0.020938413217663765, 0.00044057087507098913, -0.011527331545948982, -0.019117586314678192, -0.02078203856945038, -0.0010513983434066176, 0.025123773142695427, 0.03531235083937645, 0.030818874016404152, 0.02381231263279915, 0.00861736573278904, -0.017775867134332657, -0.04772486165165901, -0.0691165030002594, -0.07176186889410019, -0.055832259356975555, -0.029966266825795174, 0.00249091861769557, 0.03704971447587013, 0.05996605008840561, 0.06044349446892738, 0.03734753280878067, -0.00393877737224102, -0.04914102330803871, -0.07824196666479111, -0.07777629047632217, -0.04562047868967056, 0.009173699654638767, 0.06394175440073013, 0.09212364256381989, 0.07910177111625671, 0.032640669494867325, -0.024397175759077072, -0.07162962108850479, -0.093685582280159, -0.07630451023578644, -0.020234687253832817, 0.0460282601416111, 0.0912269651889801, 0.09566005319356918, 0.05341137573122978, -0.018327295780181885, -0.08137941360473633, -0.09810957312583923, -0.05252833291888237, 0.024747321382164955, 0.0777069702744484, 0.07990759611129761, 0.05681030452251434, 0.023802397772669792, -0.015813518315553665, -0.04336782172322273, -0.03898962587118149, -0.00587431900203228, 0.03546292334794998, 0.05530881509184837, 0.041436318308115005, 0.01822075992822647, 0.0038125759456306696, -0.011004219762980938, -0.025599809363484383, -0.022431645542383194, -0.0033566837664693594, 0.015990005806088448, 0.024705104529857635, 0.022804701700806618, 0.020039821043610573, 0.022899791598320007, 0.027856888249516487, 0.0376972034573555, 0.05357646197080612, 0.05447661504149437, 0.02967040427029133, -0.00594400754198432, -0.03435160964727402, -0.04398985952138901, -0.018354536965489388, 0.036497391760349274, 0.07992645353078842, 0.08015047013759613, 0.03877020999789238, -0.0132753886282444, -0.05021149665117264, -0.06756913661956787, -0.06757120043039322, -0.03642389550805092, 0.024367572739720345, 0.07075821608304977, 0.06849168241024017, 0.023507364094257355, -0.029843870550394058, -0.06544703990221024, -0.06836804747581482, -0.03454263135790825, 0.022670282050967216, 0.0757235661149025, 0.09785794466733932, 0.07443226873874664, 0.012078315019607544, -0.055164940655231476, -0.08468909561634064, -0.07024121284484863, -0.039440084248781204, -0.0194358229637146, -0.010033177211880684, -0.00877418089658022, -0.006616655737161636, 0.005165691953152418, 0.019038010388612747, 0.026696279644966125, 0.03160691633820534, 0.031670548021793365, 0.019713379442691803, -0.0008118195692077279, -0.018800804391503334, -0.024792538955807686, -0.014264996163547039, 0.0015027421759441495, 0.008617774583399296, 0.014950859360396862, 0.02978159300982952, 0.029938578605651855, 0.0014080606633797288, -0.03588847815990448, -0.04680528864264488, -0.02235858328640461, 0.027152538299560547, 0.08018095791339874, 0.10883492231369019, 0.09469172358512878, 0.04676879569888115, 0.00012414793309289962, -0.026555007323622704, -0.0395340621471405, -0.04547790437936783, -0.03485184907913208, -0.0025277023669332266, 0.035055674612522125, 0.0610482320189476, 0.0674174502491951, 0.04865649715065956, 0.00878431648015976, -0.03239462524652481, -0.052722539752721786, -0.04735992103815079, -0.02681904472410679, -0.0003836059186141938, 0.02953452803194523, 0.04991963505744934, 0.045435383915901184, 0.02164248190820217, 0.005942617077380419, 0.007175343576818705, 0.012268495745956898, 0.008207947947084904, -0.0064198048785328865, -0.0232623890042305, -0.035429444164037704, -0.04175689443945885, -0.043358828872442245, -0.040038250386714935, -0.030926691368222237, -0.017642751336097717, -0.005822659470140934, 0.001574986381456256, 0.01061965711414814, 0.022167842835187912, 0.021161790937185287, -0.0032226345501840115, -0.04228658601641655, -0.07182032614946365, -0.06848841160535812, -0.03187146410346031, 0.007586396764963865, 0.022995036095380783, 0.018842564895749092, 0.009442896582186222, 0.004388689529150724, 0.016611889004707336, 0.04303862154483795, 0.053817346692085266, 0.028318054974079132, -0.026379674673080444, -0.08029374480247498, -0.10070943087339401, -0.07025960832834244, 0.0012340816901996732, 0.08863388746976852, 0.15018467605113983, 0.13887199759483337, 0.049897655844688416, -0.053889013826847076, -0.10304723680019379, -0.08360401540994644, -0.008054652251303196, 0.08640175312757492, 0.14760591089725494, 0.14454308152198792, 0.07968536764383316, -0.020789271220564842, -0.11060640215873718, -0.1415548175573349, -0.091583751142025, 0.013094870373606682, 0.10740041732788086, 0.13150155544281006, 0.0707026869058609, -0.03330712020397186, -0.10741923749446869, -0.11487209051847458, -0.06395351141691208, 0.011204101145267487, 0.0737157016992569, 0.09423208981752396, 0.06675644218921661, 0.010199684649705887, -0.050738368183374405, -0.09081654995679855, -0.08442924916744232, -0.034395091235637665, 0.019653836265206337, 0.04886799305677414, 0.060152117162942886, 0.058924783021211624, 0.0429140143096447, 0.020000286400318146, -0.0014918146189302206, -0.019655609503388405, -0.02771882526576519, -0.01577242650091648, 0.011968964710831642, 0.037808723747730255, 0.04508783295750618, 0.03137487545609474, 0.00692214397713542, -0.0161348357796669, -0.0224410742521286, 7.066115358611569e-05, 0.0334756039083004, 0.049102433025836945, 0.037725672125816345, 0.007800727616995573, -0.032345712184906006, -0.06233688443899155, -0.05107707530260086, -0.0025144009850919247, 0.05302999168634415, 0.08920752257108688, 0.0895402804017067, 0.04860147833824158, -0.015137842856347561, -0.06804785877466202, -0.08777273446321487, -0.06988121569156647, -0.02450859546661377, 0.0332590788602829, 0.09115791320800781, 0.12206509709358215, 0.09421741962432861, 0.009744471870362759, -0.08819771558046341, -0.14858843386173248, -0.14064420759677887, -0.05608147382736206, 0.06406258046627045, 0.14797917008399963, 0.14676080644130707, 0.05943169444799423, -0.06101961061358452, -0.1443038433790207, -0.15433093905448914, -0.09240438789129257, 0.013849511742591858, 0.10209589451551437, 0.12440624833106995, 0.08280161023139954, 0.011975456029176712, -0.06363829225301743, -0.10903850942850113, -0.08183945715427399, -0.0013906676322221756, 0.08043213933706284, 0.13268548250198364, 0.14087648689746857, 0.08602870255708694, -0.009425286203622818, -0.08910933881998062, -0.12296880781650543, -0.10660348832607269, -0.04107632488012314, 0.046545084565877914, 0.1065899133682251, 0.10951392352581024, 0.061625391244888306, -0.00716183427721262, -0.06373284012079239, -0.08110099285840988, -0.05282723903656006, -0.005783342756330967, 0.02578355371952057, 0.03784148767590523, 0.04227309301495552, 0.03298673778772354, 0.008766147308051586, -0.01560694444924593, -0.02965420112013817, -0.027098311111330986, 0.0004345782217569649, 0.033156704157590866, 0.04379929602146149, 0.03667929396033287, 0.038088373839855194, 0.029527397826313972, -0.0034638107754290104, -0.04571996256709099, -0.060691725462675095, -0.03485638648271561, 0.019037218764424324, 0.07361486554145813, 0.10874558240175247, 0.11949507147073746, 0.09423500299453735, 0.031189806759357452, -0.03677591681480408, -0.06421998888254166, -0.04532310739159584, -0.0002654392446856946, 0.051861003041267395, 0.0912029966711998, 0.0894712284207344, 0.04149223491549492, -0.022908605635166168, -0.07042709738016129, -0.08163279294967651, -0.04748108983039856, 0.011671964079141617, 0.057603586465120316, 0.0715935081243515, 0.05464824289083481, 0.010734297335147858, -0.03719006106257439, -0.050034236162900925, -0.020725805312395096, 0.028510969132184982, 0.06426817178726196, 0.0534820631146431, -0.005474675912410021, -0.0679730474948883, -0.08113718032836914, -0.04303419962525368, 0.01947372406721115, 0.07624141126871109, 0.10384146124124527, 0.09030631929636002, 0.04314562305808067, -0.015443941578269005, -0.06094539910554886, -0.07592317461967468, -0.0581815131008625, -0.02022874541580677, 0.024339335039258003, 0.06410906463861465, 0.07958703488111496, 0.05771329253911972, 0.011456943117082119, -0.031124256551265717, -0.05657251551747322, -0.05943141132593155, -0.03271413967013359, 0.014551970176398754, 0.05535261705517769, 0.07076777517795563, 0.05839252099394798, 0.02314080111682415, -0.0228573027998209, -0.06362287700176239, -0.08642834424972534, -0.07740713655948639, -0.02217448502779007, 0.05221744254231453, 0.09317538142204285, 0.07403003424406052, 0.01982663944363594, -0.02384703792631626, -0.03951524198055267, -0.02861817367374897, -0.001692434772849083, 0.02994167059659958, 0.05588503181934357, 0.05528129264712334, 0.015411310829222202, -0.04425933584570885, -0.07738204300403595, -0.06672459095716476, -0.027318505570292473, 0.017433611676096916, 0.04997217655181885, 0.058453164994716644, 0.038925837725400925, -0.002343054162338376, -0.04068024829030037, -0.041872479021549225, -0.012086770497262478, 0.013050404377281666, 0.010843467898666859, -0.00714085390791297, -0.024312332272529602, -0.029577191919088364, -0.025219960138201714, -0.021291812881827354, -0.016149669885635376, -0.005003734026104212, -0.0020714804995805025, -0.014980039559304714, -0.02948005683720112, -0.03543759509921074, -0.03339347243309021, -0.02276007831096649, -0.00478366669267416, 0.017714308574795723, 0.045341748744249344, 0.06827523559331894, 0.07254047691822052, 0.05582510679960251, 0.02444751001894474, -0.007810818497091532, -0.027938498184084892, -0.037580620497465134, -0.03459155932068825, 0.007598382420837879, 0.061911456286907196, 0.07644598186016083, 0.037421565502882004, -0.011199344880878925, -0.05112270265817642, -0.07453455030918121, -0.06700237095355988, -0.03186821565032005, 0.007710415869951248, 0.04226880148053169, 0.06575340777635574, 0.05860360711812973, 0.014501959085464478, -0.04343843087553978, -0.07434453815221786, -0.05764998123049736, -0.009679584763944149, 0.03908770531415939, 0.07196871191263199, 0.08397535234689713, 0.07110568881034851, 0.03779564052820206, -0.0016308726044371724, -0.031201740726828575, -0.04382340610027313, -0.04314161092042923, -0.03053094446659088, -0.002173521788790822, 0.02860710769891739, 0.04550054669380188, 0.045265696942806244, 0.02187211997807026, -0.024381445720791817, -0.06762498617172241, -0.07467243820428848, -0.04958159103989601, -0.010513574816286564, 0.032692547887563705, 0.062048815190792084, 0.059924498200416565, 0.030230673030018806, -0.007275222335010767, -0.04163219779729843, -0.06492151319980621, -0.06235095113515854, -0.02130621299147606, 0.03835110738873482, 0.08174727857112885, 0.09439073503017426, 0.08510884642601013, 0.04552426189184189, -0.020831206813454628, -0.08027224242687225, -0.0933803841471672, -0.06252168864011765, -0.012244113720953465, 0.041428908705711365, 0.07507937401533127, 0.0632261112332344, 0.01335742324590683, -0.025741921737790108, -0.04023139551281929, -0.04110461473464966, -0.03237152472138405, -0.010299652814865112, 0.013662601821124554, 0.03486074134707451, 0.04793824627995491, 0.03254261612892151, -0.013788623735308647, -0.06357730180025101, -0.08763489127159119, -0.0691545158624649, -0.005186913069337606, 0.06673410534858704, 0.10306954383850098, 0.09291917085647583, 0.05298754572868347, -0.0036298164632171392, -0.05562005192041397, -0.07896241545677185, -0.062229640781879425, -0.00800460297614336, 0.05705665424466133, 0.0940481424331665, 0.0831354558467865, 0.0330604650080204, -0.028470132499933243, -0.06715751439332962, -0.06572915613651276, -0.033501364290714264, 0.011730153113603592, 0.05079274997115135, 0.06226682662963867, 0.043618571013212204, 0.010014563798904419, -0.029360586777329445, -0.05836627632379532, -0.043235525488853455, 0.01135117094963789, 0.05990655720233917, 0.07172136008739471, 0.05737762898206711, 0.029445186257362366, -0.009099816903471947, -0.044428180903196335, -0.053040165454149246, -0.022697813808918, 0.030946189537644386, 0.07232072949409485, 0.07644940912723541, 0.04731165990233421, -0.0029961143154650927, -0.06408368796110153, -0.11366437375545502, -0.11512589454650879, -0.05631440877914429, 0.034335024654865265, 0.1076018363237381, 0.12142611294984818, 0.0697779506444931, -0.004366160370409489, -0.0599566325545311, -0.08514610677957535, -0.0718831717967987, -0.01429372001439333, 0.04596523940563202, 0.06477081030607224, 0.03976956754922867, 0.007030701730400324, -0.019504502415657043, -0.039085786789655685, -0.04791399464011192, -0.04642755910754204, -0.04889969155192375, -0.057067543268203735, -0.047749776393175125, -0.01957867667078972, 0.01110982894897461, 0.03687923401594162, 0.05687756463885307, 0.054530177265405655, 0.029726216569542885, 0.004441052209585905, -0.02012118510901928, -0.040513549000024796, -0.028559012338519096, 0.0061995480209589005, 0.024423742666840553, 0.011755376122891903, -0.008692021481692791, -0.02622036449611187, -0.02852967567741871, -0.005853069946169853, 0.025627387687563896, 0.050002023577690125, 0.06155828386545181, 0.04627737030386925, 0.005610912572592497, -0.031468715518713, -0.045382458716630936, -0.03516104072332382, -0.0035570610780268908, 0.028331521898508072, 0.03422035649418831, 0.013259956613183022, -0.01018356904387474, -0.01573704555630684, 0.0014103350695222616, 0.020732618868350983, 0.01779373362660408, -0.005717116873711348, -0.021169492974877357, -0.021433386951684952, -0.01878908835351467, -0.021527787670493126, -0.018774202093482018, 0.0011832525487989187, 0.025726336985826492, 0.035450708121061325, 0.0306478850543499, 0.02424909919500351, 0.013102281838655472, -0.003858930431306362, -0.013748131692409515, -0.009593860246241093, 0.00023560639237985015, 0.0072301337495446205, 0.005930478684604168, -0.007920373231172562, -0.02699376456439495, -0.03342600166797638, -0.02874620445072651, -0.02846555784344673, -0.030929425731301308, -0.01601751148700714, 0.004436963237822056, 0.011567852459847927, 0.009729471057653427, 0.012081663124263287, 0.005692893173545599, -0.02114916406571865, -0.06235598772764206, -0.09668445587158203, -0.09899798035621643, -0.05822191759943962, 0.004316879902034998, 0.055618416517972946, 0.07412108778953552, 0.058004237711429596, 0.02711806446313858, -0.0007994637126103044, -0.025139998644590378, -0.0398186556994915, -0.030929923057556152, -0.009231642819941044, 0.007789227645844221, 0.020068595185875893, 0.022003574296832085, 0.006378612481057644, -0.009523161686956882, -0.004850735887885094, 0.01086191926151514, 0.031031467020511627, 0.047515157610177994, 0.03422503545880318, -0.010687962174415588, -0.043882884085178375, -0.048862650990486145, -0.04485604912042618, -0.04428555816411972, -0.027767470106482506, 0.005337984301149845, 0.04233463108539581, 0.06444181501865387, 0.05569533631205559, 0.019086668267846107, -0.021920595318078995, -0.04553208127617836, -0.042931340634822845, -0.01748662255704403, 0.01667753979563713, 0.04648270457983017, 0.061420951038599014, 0.04790857806801796, 0.011467830277979374, -0.013663186691701412, -0.020518822595477104, -0.0236931461840868, -0.019802628085017204, 0.008635100908577442, 0.03255097195506096, 0.031233172863721848, 0.025362176820635796, 0.022208016365766525, 0.006673748139292002, -0.017118258401751518, -0.03060293383896351, -0.03259148821234703, -0.019287962466478348, 0.012879135087132454, 0.04322351515293121, 0.05695780739188194, 0.052541252225637436, 0.01677812449634075, -0.04587602987885475, -0.09434238076210022, -0.08339551836252213, -0.019321259111166, 0.06272835284471512, 0.1235303208231926, 0.13056476414203644, 0.07003651559352875, -0.030265172943472862, -0.10210895538330078, -0.10539910197257996, -0.05558258667588234, 0.01404766645282507, 0.08417276293039322, 0.12230132520198822, 0.10491319000720978, 0.04276232048869133, -0.03810115158557892, -0.11091822385787964, -0.14422690868377686, -0.1118493378162384, -0.027837656438350677, 0.07416534423828125, 0.15317849814891815, 0.1631099283695221, 0.08861229568719864, -0.027525655925273895, -0.10857480764389038, -0.1166633740067482, -0.06556611508131027, 0.0004255445091985166, 0.053651392459869385, 0.07817301899194717, 0.05938278138637543, 0.01170431636273861, -0.02761930227279663, -0.050839755684137344, -0.05827159434556961, -0.040035542100667953, -0.005895465612411499, 0.01871090568602085, 0.026361405849456787, 0.02170056849718094, 0.007364450953900814, -0.0009576368029229343, 0.012890582904219627, 0.03682457283139229, 0.05084569752216339, 0.04297284409403801, 0.016682853922247887, -0.009419293142855167, -0.022223958745598793, -0.021598242223262787, -0.006192377302795649, 0.020569806918501854, 0.04011118784546852, 0.04164163023233414, 0.028016453608870506, 0.0004541789530776441, -0.032231226563453674, -0.048992980271577835, -0.03771883621811867, -0.001153401448391378, 0.04967241361737251, 0.08490678668022156, 0.07608368992805481, 0.02382657304406166, -0.0410466305911541, -0.08501635491847992, -0.08584138751029968, -0.03675902262330055, 0.04165460914373398, 0.1014006957411766, 0.10193965584039688, 0.042087361216545105, -0.03405049443244934, -0.08409528434276581, -0.09242077171802521, -0.061140332370996475, -0.00737352017313242, 0.043881915509700775, 0.0795176774263382, 0.08821624517440796, 0.05072083696722984, -0.026419488713145256, -0.09759348630905151, -0.10773910582065582, -0.04833465814590454, 0.04235752671957016, 0.10906420648097992, 0.1167420744895935, 0.06502802670001984, -0.01613994687795639, -0.08541344106197357, -0.11318883299827576, -0.08804734796285629, -0.01557630393654108, 0.06693890690803528, 0.11402398347854614, 0.10918421298265457, 0.06688457727432251, 0.0014886102871969342, -0.06085135415196419, -0.08558289706707001, -0.06403952836990356, -0.01563885062932968, 0.036904226988554, 0.06982839107513428, 0.06174534931778908, 0.016346370801329613, -0.03596014529466629, -0.06914900243282318, -0.07194140553474426, -0.045384231954813004, -0.01018502563238144, 0.007499024271965027, 0.005147573072463274, 0.0010602815309539437, 0.0026368892285972834, 0.0016770916990935802, -0.007002345286309719, -0.014467264525592327, -0.010004977695643902, 0.005613008048385382, 0.023231957107782364, 0.033339548856019974, 0.03236636146903038, 0.025586014613509178, 0.021325215697288513, 0.017239470034837723, 0.0019895024597644806, -0.02685661055147648, -0.05321342870593071, -0.061058543622493744, -0.05067571997642517, -0.02262563444674015, 0.026046644896268845, 0.068166084587574, 0.0723041445016861, 0.0382017120718956, -0.004862337838858366, -0.04072416201233864, -0.05842561647295952, -0.05073476582765579, -0.032103605568408966, -0.019977744668722153, -0.005282335449010134, 0.014863026328384876, 0.01687370054423809, -0.009516645222902298, -0.035579096525907516, -0.024731652811169624, 0.016708562150597572, 0.05774015188217163, 0.06806028634309769, 0.035024985671043396, -0.0242935623973608, -0.05927092581987381, -0.03314070776104927, 0.021953947842121124, 0.05944212153553963, 0.058925602585077286, 0.03250811621546745, -0.013069887645542622, -0.06423773616552353, -0.09490100294351578, -0.08565549552440643, -0.03847430646419525, 0.02904527448117733, 0.09007657319307327, 0.11699414998292923, 0.08754560351371765, 0.004931734874844551, -0.08845697343349457, -0.13417840003967285, -0.11104977875947952, -0.036514513194561005, 0.05034773424267769, 0.09919871389865875, 0.08326167613267899, 0.020996296778321266, -0.03852061182260513, -0.0657951757311821, -0.052116554230451584, -0.010647968389093876, 0.027132682502269745, 0.04223281890153885, 0.03677024319767952, 0.009002633392810822, -0.03434578329324722, -0.06417451053857803, -0.05116789788007736, 0.00047188863391056657, 0.06485780328512192, 0.10822860151529312, 0.1055605486035347, 0.05401508882641792, -0.027562851086258888, -0.10402017831802368, -0.1352662444114685, -0.09952802956104279, -0.020083721727132797, 0.05873255804181099, 0.10897930711507797, 0.1167348176240921, 0.07433086633682251, -0.005370998755097389, -0.08634287863969803, -0.1326722949743271, -0.12647391855716705, -0.06867492944002151, 0.016205664724111557, 0.08478069305419922, 0.10672663152217865, 0.08181132376194, 0.02634548582136631, -0.04079810529947281, -0.08918587863445282, -0.0862312912940979, -0.03271094709634781, 0.041806891560554504, 0.10872901976108551, 0.13531248271465302, 0.0915805920958519, -0.008659681305289268, -0.10090387612581253, -0.13886688649654388, -0.12102556228637695, -0.062239520251750946, 0.028284704312682152, 0.10400859266519547, 0.1248217225074768, 0.08350562304258347, 0.0027380362153053284, -0.07925204932689667, -0.11113164573907852, -0.06206769868731499, 0.02557714655995369, 0.09216294437646866, 0.1157640814781189, 0.09706231206655502, 0.023796314373612404, -0.07746493816375732, -0.1348257064819336, -0.11343083530664444, -0.03601754456758499, 0.054302942007780075, 0.11314499378204346, 0.10522368550300598, 0.03345736116170883, -0.057005878537893295, -0.11758507043123245, -0.12052670121192932, -0.05893748253583908, 0.03406017646193504, 0.106753870844841, 0.13409142196178436, 0.11342538148164749, 0.036943428218364716, -0.0688130110502243, -0.14091309905052185, -0.13276049494743347, -0.058564443141222, 0.03356264531612396, 0.10225745290517807, 0.12242163717746735, 0.09082314372062683, 0.019616246223449707, -0.06606706976890564, -0.12288159132003784, -0.09700322896242142, -0.0091349296271801, 0.06662851572036743, 0.0857444778084755, 0.06912945955991745, 0.022733351215720177, -0.041249845176935196, -0.0865364596247673, -0.08634085953235626, -0.04786606505513191, 0.017262086272239685, 0.07895270735025406, 0.09652090072631836, 0.06446609646081924, 0.021324526518583298, -0.01698225550353527, -0.045184966176748276, -0.05692098289728165, -0.0547463484108448, -0.039432674646377563, 0.0026558768004179, 0.05311043933033943, 0.07277972251176834, 0.04369983449578285, -0.01772654615342617, -0.07850008457899094, -0.10188842564821243, -0.06660503894090652, 0.005357789341360331, 0.06606001406908035, 0.07957461476325989, 0.04487869143486023, -0.005084948148578405, -0.03681207820773125, -0.043139439076185226, -0.024401124566793442, 0.01900489069521427, 0.057332396507263184, 0.057656023651361465, 0.02287561632692814, 0.0012218663468956947, 0.0027822465635836124, 0.008577244356274605, 0.007828096859157085, 0.00488203065469861, -0.0017265124479308724, -0.01853269338607788, -0.041299715638160706, -0.04972367733716965, -0.032155364751815796, -0.003683852730318904, 0.01587347500026226, 0.027388539165258408, 0.036684248596429825, 0.03118116781115532, 0.0018719108775258064, -0.042220987379550934, -0.07630489021539688, -0.06779290735721588, -0.00629826495423913, 0.06570025533437729, 0.10297892987728119, 0.09619645774364471, 0.05556224659085274, -0.009117730893194675, -0.0667906105518341, -0.08528030663728714, -0.06827456504106522, -0.033570390194654465, 0.018317995592951775, 0.07992369681596756, 0.11418738216161728, 0.08441116660833359, -0.0063631366938352585, -0.10412424057722092, -0.14224845170974731, -0.10134965181350708, -0.007176068611443043, 0.08367206156253815, 0.1193101555109024, 0.08777375519275665, 0.0212062057107687, -0.04869646579027176, -0.09640821814537048, -0.09359420835971832, -0.03635885566473007, 0.03665123134851456, 0.08725657314062119, 0.09452106058597565, 0.04962421581149101, -0.028991278260946274, -0.09665768593549728, -0.11779698729515076, -0.08268877863883972, -0.006536093074828386, 0.0688318982720375, 0.10734736174345016, 0.09886083006858826, 0.04725109413266182, -0.026763664558529854, -0.08329504728317261, -0.09732969850301743, -0.07384166866540909, -0.020252538844943047, 0.058424465358257294, 0.11936571449041367, 0.12545563280582428, 0.07924152910709381, 0.009835295379161835, -0.06068224459886551, -0.10632890462875366, -0.10581497848033905, -0.06391806900501251, -0.005804911255836487, 0.03698950633406639, 0.03632095828652382, -0.0042888689786195755, -0.04809829965233803, -0.0645168200135231, -0.052583545446395874, -0.02257411554455757, 0.01852179877460003, 0.05339885503053665, 0.06291743367910385, 0.037276361137628555, -0.014971798285841942, -0.06196890398859978, -0.06687396764755249, -0.031231947243213654, 0.01517980732023716, 0.04689677432179451, 0.059395406395196915, 0.056168925017118454, 0.036021146923303604, -0.0007580900564789772, -0.038755182176828384, -0.05427227541804314, -0.04459806904196739, -0.02218121849000454, 0.009891771711409092, 0.05166560783982277, 0.08411040902137756, 0.08881083130836487, 0.06251179426908493, 0.013728355057537556, -0.041075173765420914, -0.08271840214729309, -0.0948474183678627, -0.06245506554841995, 0.015414096415042877, 0.10434234142303467, 0.1512559950351715, 0.1190977394580841, 0.016218826174736023, -0.09774739295244217, -0.15732811391353607, -0.13863630592823029, -0.0522121787071228, 0.061723627150058746, 0.13809528946876526, 0.13853242993354797, 0.07272953540086746, -0.02360457181930542, -0.11461605876684189, -0.1636289358139038, -0.1376933604478836, -0.03784759342670441, 0.08289150893688202, 0.15893933176994324, 0.15558087825775146, 0.08704952895641327, -0.008064810186624527, -0.09263941645622253, -0.13077470660209656, -0.10157075524330139, -0.021272914484143257, 0.06954444944858551, 0.13321538269519806, 0.13577835261821747, 0.06887920200824738, -0.023919077590107918, -0.07959692180156708, -0.08520369231700897, -0.052915122359991074, 0.00013549438153859228, 0.051543351262807846, 0.07662566006183624, 0.07157199084758759, 0.05034737288951874, 0.019701624289155006, -0.011439971625804901, -0.025454401969909668, -0.012515763752162457, 0.016301598399877548, 0.0384652353823185, 0.03937116265296936, 0.0294454675167799, 0.030984599143266678, 0.03621802479028702, 0.028893785551190376, 0.011458885855972767, -0.0027819371316581964, -0.020607944577932358, -0.04741881415247917, -0.06357549875974655, -0.04281989485025406, -0.00017954861687030643, 0.03409874066710472, 0.04498778656125069, 0.03196489065885544, 0.0005517354584299028, -0.024324242025613785, -0.016782695427536964, 0.004439518786966801, 0.014025280252099037, 0.011792276985943317, 0.009791672229766846, 0.005332464352250099, 0.0009111037943512201, 0.0015939610311761498, 0.0015885689062997699, -0.0006280402303673327, -0.003569813212379813, -0.01172447670251131, -0.014670095406472683, 0.015804067254066467, 0.05660402402281761, 0.0718931183218956, 0.058534301817417145, 0.04058433696627617, 0.012355638667941093, -0.023428497835993767, -0.0426272377371788, -0.032282210886478424, -0.00836840458214283, 0.010152050293982029, 0.020821422338485718, 0.029474498704075813, 0.0321233831346035, 0.01979980804026127, -0.007014164701104164, -0.03625694289803505, -0.05473950132727623, -0.057649482041597366, -0.05041642487049103, -0.038290590047836304, -0.018503012135624886, 0.004457202740013599, 0.016425540670752525, 0.011151764541864395, -0.004665218759328127, -0.02503330446779728, -0.04286980628967285, -0.043703705072402954, -0.020038463175296783, 0.01319785788655281, 0.03204641118645668, 0.024187205359339714, -0.0008111934876069427, -0.020789794623851776, -0.022659379988908768, -0.008636247366666794, 0.013755213469266891, 0.036355867981910706, 0.04656105861067772, 0.033038049936294556, -0.000242669673752971, -0.029308263212442398, -0.032092589884996414, -0.011974175460636616, 0.01556701771914959, 0.04282493144273758, 0.06603328883647919, 0.06607995182275772, 0.02784699760377407, -0.03635863959789276, -0.08658751845359802, -0.09226541966199875, -0.05911289528012276, -0.014495668932795525, 0.02140047587454319, 0.03986958786845207, 0.04092797636985779, 0.03437473624944687, 0.0242086723446846, 0.006452850066125393, -0.012750819325447083, -0.016301032155752182, -0.005315685179084539, 0.00332797528244555, 0.0018606410594657063, -0.0009201219654642045, -0.004126274958252907, -0.010979903861880302, -0.008334058336913586, 0.023390959948301315, 0.06106369197368622, 0.07175826281309128, 0.0486602783203125, 0.015148271806538105, -0.00745916785672307, -0.004414306487888098, 0.020085742697119713, 0.04199347272515297, 0.04961690679192543, 0.054485101252794266, 0.04440239444375038, 0.007400100585073233, -0.03870348632335663, -0.05827248841524124, -0.044316988438367844, -0.0036987513303756714, 0.049982551485300064, 0.0860913097858429, 0.08148674666881561, 0.04249320179224014, -0.0034829003270715475, -0.03471865504980087, -0.04036484658718109, -0.023438183590769768, 0.0006994438008405268, 0.01719561778008938, 0.021622881293296814, 0.011987517587840557, -0.01724618673324585, -0.057981520891189575, -0.07615122944116592, -0.04622636362910271, 0.010637187398970127, 0.05928385630249977, 0.0798979103565216, 0.06456471234560013, 0.01916547864675522, -0.028192758560180664, -0.05316687747836113, -0.053435321897268295, -0.03479237109422684, -0.007234142627567053, 0.013257656246423721, 0.01800147071480751, 0.008367794565856457, -0.008779048919677734, -0.020115332677960396, -0.016376662999391556, -0.0024887565523386, 0.01361432857811451, 0.024782486259937286, 0.02149873413145542, 0.0018756929785013199, -0.024946367368102074, -0.04391440749168396, -0.0350896380841732, 0.004619349725544453, 0.04068730026483536, 0.04202142730355263, 0.01284080184996128, -0.013380905613303185, -0.011302114464342594, 0.013650437816977501, 0.03130766749382019, 0.021499067544937134, -0.005077077075839043, -0.032696496695280075, -0.0538434237241745, -0.0542135126888752, -0.020263347774744034, 0.035033341497182846, 0.08103427290916443, 0.08496648073196411, 0.041010674089193344, -0.01218592468649149, -0.04529932513833046, -0.0633440613746643, -0.06894654035568237, -0.04402834549546242, 0.0038780737668275833, 0.05426384508609772, 0.09000057727098465, 0.09251197427511215, 0.057945411652326584, 0.001870952546596527, -0.053059305995702744, -0.07329752296209335, -0.033304374665021896, 0.02952433004975319, 0.07300100475549698, 0.10066721588373184, 0.09600581228733063, 0.031981270760297775, -0.06563858687877655, -0.11394243687391281, -0.09284848719835281, -0.022072365507483482, 0.061984799802303314, 0.1181185245513916, 0.12620364129543304, 0.08711857348680496, 0.0015526384813711047, -0.0967426598072052, -0.13880306482315063, -0.09238850325345993, 0.001649262267164886, 0.08323542773723602, 0.11698862910270691, 0.0908830463886261, 0.017280127853155136, -0.0644930973649025, -0.11103560030460358, -0.10662896931171417, -0.0646291971206665, -0.006630570162087679, 0.04678918793797493, 0.07005161792039871, 0.05604659020900726, 0.0270258616656065, 0.0033609922975301743, -0.012456131167709827, -0.01865718513727188, -0.01693272963166237, -0.011832408607006073, 0.00453565688803792, 0.03679393231868744, 0.06020614132285118, 0.05388874560594559, 0.018441196531057358, -0.03422444686293602, -0.0855732187628746, -0.11049626022577286, -0.09532464295625687, -0.05032115429639816, 0.009209681302309036, 0.06769370287656784, 0.10360461473464966, 0.10029160231351852, 0.055690329521894455, -0.013682442717254162, -0.07447703182697296, -0.09164989739656448, -0.056131165474653244, 0.0075339325703680515, 0.06280107796192169, 0.08314849436283112, 0.061732519418001175, 0.01551000401377678, -0.02688753232359886, -0.049293942749500275, -0.05005328729748726, -0.03668241202831268, -0.020503615960478783, -0.004577666986733675, 0.014855513349175453, 0.023676462471485138, 0.006881460081785917, -0.026058267802000046, -0.05114931985735893, -0.061665985733270645, -0.05364837497472763, -0.01857472024857998, 0.017861608415842056, 0.022784793749451637, -0.003054328728467226, -0.03175380825996399, -0.05330928415060043, -0.06322222948074341, -0.0458315871655941, 0.007894003763794899, 0.06845061480998993, 0.09371362626552582, 0.061763595789670944, -0.012462685815989971, -0.08808992803096771, -0.12393029779195786, -0.09528560936450958, -0.009482298977673054, 0.0772523507475853, 0.10932532697916031, 0.07883141934871674, 0.030937066301703453, -0.021053243428468704, -0.06949681788682938, -0.08659633249044418, -0.05021584406495094, 0.003885101294144988, 0.037640366703271866, 0.05019327625632286, 0.047570738941431046, 0.027231937274336815, -0.006172508466988802, -0.03983910009264946, -0.055138133466243744, -0.029731327667832375, 0.026952236890792847, 0.07827112823724747, 0.09858232736587524, 0.0822354108095169, 0.03421782702207565, -0.020427513867616653, -0.05270078033208847, -0.05649130046367645, -0.03588463366031647, 0.004605013411492109, 0.04754311218857765, 0.07303190231323242, 0.06949962675571442, 0.03087269328534603, -0.029736757278442383, -0.07427208870649338, -0.07110720872879028, -0.0240173377096653, 0.04151860624551773, 0.09218543022871017, 0.10286219418048859, 0.07151985913515091, 0.015876157209277153, -0.03994647040963173, -0.07061909139156342, -0.062016818672418594, -0.02438294142484665, 0.022329505532979965, 0.06700325757265091, 0.08888581395149231, 0.06256170570850372, -0.005918554961681366, -0.06681300699710846, -0.0790775716304779, -0.04462982341647148, 0.01627407595515251, 0.07915832102298737, 0.11065449565649033, 0.08549856394529343, 0.009522117674350739, -0.07593733817338943, -0.12164171040058136, -0.1030794307589531, -0.028048934414982796, 0.07131735980510712, 0.14314016699790955, 0.1417015641927719, 0.06395331025123596, -0.03328675404191017, -0.09942465275526047, -0.12022633850574493, -0.09578517079353333, -0.022546540945768356, 0.06241008639335632, 0.1043887510895729, 0.07890425622463226, 0.008971712552011013, -0.05893786624073982, -0.09067656099796295, -0.07362273335456848, -0.020144209265708923, 0.038224149495363235, 0.0712427943944931, 0.05844884365797043, 0.0011845431290566921, -0.06552960723638535, -0.08978623151779175, -0.06143137812614441, -0.004025307018309832, 0.05332525819540024, 0.08419471979141235, 0.07665745168924332, 0.05150052160024643, 0.022109756246209145, -0.016419213265180588, -0.04860888794064522, -0.03883468359708786, 0.002152569591999054, 0.03794145956635475, 0.043292537331581116, 0.01981411874294281, -0.011493484489619732, -0.022728033363819122, -0.008421060629189014, 0.014909434132277966, 0.02984555810689926, 0.02914539910852909, 0.016498424112796783, 0.002964275423437357, -0.002043152693659067, 0.005184602458029985, 0.022239193320274353, 0.03930436074733734, 0.04479946941137314, 0.02938978374004364, -0.006314824800938368, -0.04241180792450905, -0.05427261069417, -0.043378569185733795, -0.022830048575997353, 0.0021011782810091972, 0.021494517102837563, 0.02564302645623684, 0.01850462518632412, -0.0020331223495304585, -0.03892582654953003, -0.07320227473974228, -0.06994310766458511, -0.028590139001607895, 0.027104316279292107, 0.07161758095026016, 0.09056342393159866, 0.07820072025060654, 0.03263065218925476, -0.029839808121323586, -0.07285726070404053, -0.07844026386737823, -0.05802199989557266, -0.01580382138490677, 0.049018051475286484, 0.08953332901000977, 0.07607070356607437, 0.02771528623998165, -0.025815904140472412, -0.07104692608118057, -0.08423525840044022, -0.04547879844903946, 0.01365416869521141, 0.05375131219625473, 0.05773314833641052, 0.024848775938153267, -0.028069939464330673, -0.061083242297172546, -0.040486156940460205, 0.01969354972243309, 0.0757974237203598, 0.09059902280569077, 0.06295716762542725, 0.027828393504023552, 0.0009267563000321388, -0.022914187982678413, -0.0413518100976944, -0.04100913926959038, -0.02559383027255535, -0.01059675682336092, 0.005101906135678291, 0.029671629890799522, 0.047317974269390106, 0.044372085481882095, 0.0229344442486763, -0.01280290074646473, -0.05227760225534439, -0.07336833328008652, -0.06745744496583939, -0.046660441905260086, -0.01961803063750267, 0.009746593423187733, 0.03127393499016762, 0.03756265342235565, 0.021317727863788605, -0.014985688030719757, -0.04606730863451958, -0.04334038868546486, -0.014626587741076946, 0.01452181488275528, 0.023403942584991455, 0.009420842863619328, -0.008448852226138115, -0.00766008161008358, 0.008984209038317204, 0.030039213597774506, 0.04901048541069031, 0.053619805723428726, 0.033940911293029785, -0.004709020256996155, -0.04583483189344406, -0.06748680770397186, -0.05115491524338722, -0.008564054034650326, 0.031223947182297707, 0.053097713738679886, 0.0548165999352932, 0.03530539944767952, 0.011624328792095184, 0.014753344468772411, 0.039195623248815536, 0.057579971849918365, 0.05418155714869499, 0.03657446429133415, 0.01803906261920929, 0.0029098941013216972, -0.00452897185459733, -0.0026369248516857624, -8.255431748693809e-05, -0.0035895672626793385, -0.00712796114385128, -0.0037793265655636787, 0.005360217299312353, 0.017897386103868484, 0.030906246975064278, 0.042520929127931595, 0.04822354391217232, 0.030838219448924065, -0.014391404576599598, -0.06206854432821274, -0.08173378556966782, -0.07558955252170563, -0.05359657481312752, -0.00809481181204319, 0.04309029504656792, 0.06891339272260666, 0.05972447991371155, 0.03713225573301315, 0.015259564854204655, -0.0038380520418286324, -0.011859752237796783, 0.002157476032152772, 0.028975944966077805, 0.04729004204273224, 0.045506324619054794, 0.023081591352820396, -0.015099777840077877, -0.0495712049305439, -0.053685761988162994, -0.02931181527674198, 0.0026734585408121347, 0.026166139170527458, 0.030400512740015984, 0.010059489868581295, -0.023663681000471115, -0.0481020025908947, -0.04410278797149658, -0.002814315492287278, 0.05408935248851776, 0.08578848838806152, 0.07102618366479874, 0.022367991507053375, -0.03371173515915871, -0.06978004425764084, -0.0673968642950058, -0.03231338784098625, 0.017842236906290054, 0.06750454008579254, 0.08618003875017166, 0.05294453725218773, -0.015481123700737953, -0.07592638581991196, -0.10412944108247757, -0.08838840574026108, -0.017424728721380234, 0.07720174640417099, 0.1408195048570633, 0.1411736011505127, 0.08007396012544632, -0.013864650391042233, -0.09109917283058167, -0.11673296242952347, -0.09338940680027008, -0.041890766471624374, 0.02134900726377964, 0.06258253008127213, 0.05929786339402199, 0.022784026339650154, -0.016024591401219368, -0.04340416193008423, -0.057322848588228226, -0.05632307007908821, -0.032499223947525024, 0.021274104714393616, 0.0867544636130333, 0.12213332206010818, 0.09980508685112, 0.029586276039481163, -0.04639948531985283, -0.08927375078201294, -0.08493620157241821, -0.04004824534058571, 0.026246152818202972, 0.08287078887224197, 0.10350694507360458, 0.08343887329101562, 0.030973048880696297, -0.03714381903409958, -0.08790907263755798, -0.08402035385370255, -0.022676488384604454, 0.057623110711574554, 0.10682690888643265, 0.09842562675476074, 0.04511783644556999, -0.019231535494327545, -0.06503710150718689, -0.07348864525556564, -0.04620775952935219, -0.004055947531014681, 0.03574681282043457, 0.05951247364282608, 0.04909911006689072, 0.007495139725506306, -0.03284769132733345, -0.05011249706149101, -0.04264882951974869, -0.011637052521109581, 0.0315510518848896, 0.059932906180620193, 0.05566921830177307, 0.023205533623695374, -0.015173492021858692, -0.03690047189593315, -0.036994438618421555, -0.021169479936361313, 0.006747449282556772, 0.0357680507004261, 0.05024208873510361, 0.04642375186085701, 0.02414327673614025, -0.014194515533745289, -0.047294870018959045, -0.04653077572584152, -0.019287986680865288, 0.010991636663675308, 0.031187353655695915, 0.03437279164791107, 0.013825898990035057, -0.02063499577343464, -0.03868938982486725, -0.022819316014647484, 0.012407592497766018, 0.04513730853796005, 0.06593707203865051, 0.06486797332763672, 0.033377476036548615, -0.014537758193910122, -0.04987657442688942, -0.05850497633218765, -0.04052801430225372, -0.010614210739731789, 0.01002445351332426, 0.0213922206312418, 0.03208796679973602, 0.02056720107793808, -0.020382510498166084, -0.05532706156373024, -0.051443468779325485, -0.02182045765221119, 0.012352801859378815, 0.04120709002017975, 0.05664818361401558, 0.04983203113079071, 0.012708784081041813, -0.04413823038339615, -0.07917250692844391, -0.05583610758185387, 0.0009741737158037722, 0.04768729582428932, 0.05811887979507446, 0.027395950630307198, -0.03230410814285278, -0.08738574385643005, -0.09684385359287262, -0.047495659440755844, 0.03219335526227951, 0.09248468279838562, 0.09811441600322723, 0.04562906548380852, -0.03497793897986412, -0.0902930274605751, -0.09169252961874008, -0.06180788204073906, -0.036619916558265686, -0.003826437285169959, 0.030215952545404434, 0.0370543897151947, 0.011057338677346706, -0.015084278769791126, -0.025426188483834267, -0.024215849116444588, -0.015721136704087257, -0.007214720826596022, -0.008372199721634388, -0.012413671240210533, -0.006093811709433794, 0.0009312412003055215, -0.002986147766932845, -0.011950230225920677, -0.018184902146458626, -0.023750057443976402, -0.022026417776942253, 0.0004932527081109583, 0.025245364755392075, 0.025919277220964432, 0.002338431542739272, -0.020955966785550117, -0.03662293031811714, -0.04322890564799309, -0.030015729367733, 0.0002748973201960325, 0.02193186804652214, 0.01956797204911709, 0.003320308867841959, -0.0137894032523036, -0.024064308032393456, -0.02187773957848549, -0.010714808478951454, -0.0020734609570354223, -0.004985820036381483, -0.020683856680989265, -0.03620230779051781, -0.02711060270667076, 0.0006339461542665958, 0.017166536301374435, 0.011091249994933605, 0.006207827944308519, 0.00926467590034008, 0.01136039663106203, 0.007961392402648926, 0.00035568969906307757, -0.00467018922790885, 0.004547974560409784, 0.023936765268445015, 0.0417611226439476, 0.055540088564157486, 0.05833885818719864, 0.041025035083293915, 0.008001590147614479, -0.03316774219274521, -0.07240825891494751, -0.08573336154222488, -0.05763591453433037, -0.008259578607976437, 0.044678594917058945, 0.09280774742364883, 0.10305267572402954, 0.06163295730948448, -0.00103306258097291, 