{"model": "OLSTM", "benchmark": "SB", "meta": {"LR": 0.001, "n_re": 10, "n_hs": [2, 4, 8, 16, 32], "n_look": [2, 4, 8, 16, 32], "n_opt": 10000, "batch_len": 200}, "nh_xval": 16, "look_xval": 2, "theta": {"params": {"Dense_0": {"bias": [0.10973650217056274], "kernel": [[0.22588317096233368], [-0.27299049496650696], [-0.1117413267493248], [-0.7605579495429993], [0.2932931184768677], [-0.1921229213476181], [-0.3881089985370636], [0.2152162343263626], [-0.22920043766498566], [-0.6398775577545166], [-0.1043468490242958], [0.4645293653011322], [-0.23849661648273468], [0.1068781241774559], [0.052440326660871506], [-0.1510317474603653]]}, "OptimizedLSTMCell_0": {"hf": {"bias": [0.018987897783517838, 0.018863065168261528, 0.03903939202427864, 0.08960019797086716, 0.03129636123776436, -0.05790460482239723, 0.05314242094755173, -0.00594519916921854, 0.03695864602923393, -0.022324087098240852, -0.037846408784389496, -0.008507201448082924, 0.0017446610145270824, 0.05365849286317825, 0.057062648236751556, 0.0646834522485733], "kernel": [[-0.26550206542015076, 0.05702267959713936, 0.2928776443004608, 0.5727437734603882, -0.24271833896636963, -0.06893936544656754, -0.2813355624675751, 0.2125815749168396, 0.08739173412322998, 0.841052770614624, 0.7091810703277588, -0.3090769350528717, 0.24984967708587646, 0.2832452952861786, -0.009381193667650223, -0.16769804060459137], [-0.3625663220882416, -0.3401966691017151, -0.26183268427848816, -0.16167713701725006, 0.15020351111888885, 0.1174575462937355, -0.15001021325588226, -0.48878851532936096, -0.6923328042030334, -0.3865290880203247, 0.5156834721565247, -0.09133843332529068, -0.3484383523464203, -0.45986607670783997, 0.14772015810012817, -0.07195672392845154], [-0.12981891632080078, -0.32462263107299805, 0.3957705497741699, -0.6712300777435303, 0.07616958767175674, -0.011165518313646317, -0.36486759781837463, -0.08131323754787445, 0.0666835680603981, -0.7941328287124634, -0.6884070634841919, 0.1413727104663849, -0.5407124757766724, 0.024239003658294678, -0.5838972330093384, 0.03605104237794876], [-0.0823897048830986, 0.04101797565817833, -0.1081467941403389, 0.44856083393096924, 0.27952125668525696, -0.3446330726146698, 0.22843918204307556, -0.0725252702832222, 0.3013594448566437, -0.4812631905078888, 0.23255644738674164, -0.29532259702682495, -0.18002407252788544, -0.5638630986213684, 0.26194044947624207, 0.10907909274101257], [-0.16940529644489288, -0.5255770087242126, 0.22331662476062775, 0.2830708622932434, 0.30548757314682007, -0.30614566802978516, 0.21835197508335114, 0.07394879311323166, -0.5413777232170105, 0.4108482301235199, -0.43608877062797546, -0.10894902050495148, -0.10889306664466858, 0.41637271642684937, 0.07018762826919556, 0.0865902379155159], [0.3902888596057892, 0.08414433151483536, 0.06183592975139618, -0.6769216656684875, -0.33045920729637146, 0.09537763148546219, 0.11437639594078064, 0.3664330244064331, -0.16957078874111176, -0.3870526850223541, 0.010844237171113491, -0.5393161177635193, 0.09181275963783264, -0.4609053432941437, 0.09002161026000977, 0.17677025496959686], [-0.34553447365760803, -0.5788936018943787, -0.5114454030990601, 0.0074279336258769035, 0.08909531682729721, 0.22871766984462738, -0.3215089738368988, 0.13922694325447083, -0.06825217604637146, -0.6831678748130798, -0.4013921618461609, 0.03547536954283714, 0.1727134883403778, -0.15748116374015808, 0.0007387877558358014, -0.12021352350711823], [-0.0757547914981842, 0.24407783150672913, -0.5116406679153442, 0.3792763948440552, -0.5680791735649109, -0.3600170314311981, -0.25285962224006653, 0.21270836889743805, -0.23698298633098602, 0.4010208547115326, 0.025652730837464333, 0.05686793476343155, -0.03985980525612831, 0.010708742775022984, 0.12161057442426682, 0.2179090678691864], [-0.20562998950481415, 0.11019816249608994, 0.051672037690877914, 0.08644630014896393, -0.21274909377098083, 0.3767087757587433, 0.0019378981087356806, 0.16016238927841187, -0.20666639506816864, -1.1396567821502686, 0.3297646641731262, 0.08607391268014908, 0.12314610183238983, 0.0914168730378151, -0.036085374653339386, 0.1969882845878601], [0.4601910710334778, -0.283925324678421, 0.269180566072464, -0.13364174962043762, -0.24399669468402863, 0.0637449324131012, -0.29991963505744934, 0.27575162053108215, 0.08443442732095718, 0.014664114452898502, -0.028333010151982307, 0.2739034593105316, 0.17539726197719574, -0.9611668586730957, -0.03795904293656349, -0.818835973739624], [0.059366218745708466, -0.09643589705228806, -0.10201919078826904, 0.2612825632095337, -0.134181410074234, 0.21955044567584991, 0.17264634370803833, 0.24728426337242126, -0.1246141642332077, 0.4972676932811737, -0.05465862154960632, -0.29436683654785156, -0.6276592016220093, 0.37419211864471436, 0.11427473276853561, -0.44918763637542725], [0.19516701996326447, 0.05852486565709114, -0.14128805696964264, 0.42577746510505676, -0.28169694542884827, -0.43801137804985046, 0.4602225422859192, 0.35225149989128113, -0.031181475147604942, 0.4062138795852661, 0.26821044087409973, 0.23997683823108673, 0.3660409152507782, -0.09470005333423615, -0.358001172542572, -0.11766806989908218], [0.5247681736946106, -0.21595749258995056, 0.09517987072467804, 0.20891344547271729, -0.1354886293411255, -0.3814300000667572, -0.26193156838417053, -0.3712384104728699, 0.006040820386260748, -0.22210991382598877, -0.44393905997276306, -0.2566010057926178, 0.07056402415037155, 0.29953712224960327, -0.2177814096212387, -0.08302495628595352], [0.2715756893157959, -0.5900822281837463, -0.03551660105586052, 0.1644435077905655, -0.49782875180244446, -0.2620481550693512, 0.13768213987350464, -0.19998005032539368, 0.25968948006629944, 0.5899819135665894, 0.306048721075058, 0.3073640763759613, -0.16144660115242004, 0.20250160992145538, 0.10856558382511139, 0.2083810418844223], [0.09211059659719467, 0.08673741668462753, 0.17756785452365875, 0.48610720038414, -0.20642751455307007, 0.340790718793869, 0.10946276783943176, 0.024571480229496956, 0.20395180583000183, 0.3850801885128021, 0.044057805091142654, 0.07448121905326843, 0.14892083406448364, -0.272477924823761, -0.1108362153172493, 0.4090372920036316], [0.0737684816122055, 0.28887078166007996, 0.3304889500141144, 0.37055933475494385, -0.1870972067117691, -0.09541144967079163, -0.08980478346347809, -0.05029534175992012, -0.33146077394485474, -0.1665947586297989, -0.17119716107845306, 0.43600937724113464, 0.07885859906673431, -0.26026254892349243, 0.4990934431552887, -0.15660293400287628]]}, "hg": {"bias": [-0.017813188955187798, -0.14052747189998627, -0.005141641944646835, 0.07451862096786499, 0.05525470897555351, -0.14080947637557983, -0.0024166435468941927, 0.07842228561639786, -0.22952301800251007, -0.3394196331501007, -0.0228510033339262, 0.03616106137633324, -0.02361716516315937, -0.10298946499824524, 0.08593368530273438, 0.12912175059318542], "kernel": [[0.19837449491024017, 0.3077771067619324, 0.24279402196407318, -0.20857647061347961, -0.16902780532836914, -0.08316981792449951, -0.33377355337142944, -0.033517900854349136, -0.2859848439693451, -0.5556814074516296, -0.7454110383987427, -0.10494036972522736, -0.2420506626367569, -0.03743714466691017, 0.15528929233551025, 0.03215582296252251], [-0.2507820725440979, 0.09203273057937622, -0.3508748412132263, -0.4736035168170929, 0.1669931709766388, -0.10767442733049393, -0.11635000258684158, -0.011409389786422253, -0.08243276178836823, -0.09903459995985031, 0.031571123749017715, -0.3360227942466736, -0.1381312906742096, -0.5254247188568115, -0.7984714508056641, -0.090791255235672], [-0.7032222151756287, -0.03211928904056549, 0.021707680076360703, 0.3001077175140381, 0.06251372396945953, 0.1209481805562973, 0.20679426193237305, -0.2386978417634964, 0.1206154078245163, 0.39715322852134705, 0.2589612901210785, -0.26856523752212524, 0.44251906871795654, -0.047399137169122696, 0.5754726529121399, 0.16321946680545807], [0.4467373490333557, 0.16781511902809143, -0.7859359383583069, 0.028168313205242157, 0.045856017619371414, 0.0598679780960083, -0.24906857311725616, 0.5087693929672241, -0.28673458099365234, 0.5422483086585999, -0.21682417392730713, 0.020863991230726242, -0.1061582863330841, 0.6123690605163574, 0.5244923233985901, 0.09032854437828064], [-0.0877915620803833, 0.07133932411670685, 0.2649487257003784, -0.18342049419879913, 0.1881375014781952, -0.485838383436203, 0.3710283041000366, 0.534717857837677, 0.1133192852139473, -0.4603956639766693, -0.04002656787633896, 0.2996402084827423, 0.006856411695480347, -0.021419070661067963, 0.3081473708152771, -0.1119033470749855], [0.1205853521823883, 0.1444888859987259, 0.09209335595369339, -0.581074595451355, -0.03285469114780426, -0.36749911308288574, -0.24514871835708618, -0.02491002529859543, 0.307920902967453, 0.0510859489440918, 0.05821977183222771, 0.06148502975702286, 0.07556383311748505, 0.44033083319664, -0.21822044253349304, -0.42719680070877075], [0.4145078659057617, 0.3416062593460083, 0.2800390124320984, 0.1726488322019577, 0.3195555806159973, 0.10403639823198318, 0.2919468581676483, 0.22426262497901917, 0.19183708727359772, 0.22775621712207794, 0.048375289887189865, -0.2790462374687195, 0.0030518723651766777, -0.18706293404102325, -0.08077096194028854, 0.06473875790834427], [0.4685707688331604, 0.058277677744627, -0.0585489347577095, -0.029809601604938507, 0.42367473244667053, -0.19305066764354706, 0.43269452452659607, -0.42528659105300903, 0.1102614477276802, 0.1677253395318985, -0.24611327052116394, 0.21366681158542633, 0.10107789933681488, -0.001969184260815382, 0.05514397472143173, 0.14750295877456665], [-0.36356088519096375, 0.29255449771881104, -0.04361749440431595, -0.10657548904418945, 0.17461974918842316, -0.0539417639374733, 0.1934133917093277, -0.11204829812049866, 0.6066327095031738, -0.18898631632328033, -0.11308124661445618, -0.12387740612030029, -0.38081446290016174, -0.03745292127132416, -0.2556341886520386, 0.09793161600828171], [0.6520465612411499, -0.3253040015697479, -0.4207499325275421, -0.18375147879123688, 0.4918137192726135, 0.20513609051704407, -0.28675463795661926, 0.6037062406539917, 0.3625187873840332, 0.1040564775466919, -0.4501621723175049, -0.29703208804130554, -0.2033759206533432, 0.4654969573020935, -0.7414726614952087, -0.9556640982627869], [-0.02070166915655136, -0.3337288200855255, -0.21596583724021912, 0.15645599365234375, -0.02865501120686531, 0.05240006744861603, -0.18355056643486023, 0.21684530377388, 0.5419402718544006, -0.02520359307527542, -0.4193256199359894, -0.05570701137185097, 0.23885011672973633, -0.3979014456272125, -0.08238349854946136, -0.3056613504886627], [0.3489607870578766, -0.029517924413084984, -0.0005615412956103683, 0.026825733482837677, -0.1960124671459198, -0.28839465975761414, -0.24988611042499542, -0.11020146310329437, 0.19906336069107056, -0.013548286631703377, 0.3455426096916199, -0.10669232904911041, 0.06653331965208054, -0.23798823356628418, 0.4465683102607727, 0.3929000496864319], [0.1212368905544281, 0.0171407088637352, -0.09338195621967316, 0.08819251507520676, 0.627668023109436, -0.03765307739377022, -0.529522180557251, -0.10521119832992554, 0.09224833548069, -0.3065141439437866, 0.17657126486301422, 0.08989625424146652, -0.30501797795295715, -0.046420320868492126, 0.24131722748279572, -0.8358543515205383], [0.07407420873641968, -0.7552110552787781, 0.3063659965991974, -0.6862093210220337, 0.317902147769928, 0.13534726202487946, -0.012150270864367485, 0.290590763092041, 0.09499820321798325, -0.3176555931568146, -0.1993117481470108, -0.006021261680871248, -0.6990138292312622, 0.17340490221977234, -0.23459047079086304, -0.1341022402048111], [0.3348199129104614, 0.14803901314735413, -0.23487268388271332, -0.5887721180915833, -0.037382300943136215, 0.51094651222229, 0.12476617097854614, 0.18566931784152985, 0.10742492228746414, -0.34341514110565186, 0.023846035823225975, 0.31800785660743713, -0.1280910223722458, -0.011584008112549782, 0.38358932733535767, -0.49146977066993713], [-0.04757019132375717, 0.002805567579343915, -0.3009260892868042, 0.48427194356918335, -0.4492122232913971, -0.33406150341033936, 0.4122873544692993, -0.22919447720050812, -0.23193156719207764, 0.2872830629348755, 0.06788022071123123, -0.41690632700920105, -0.20793341100215912, -0.12462373822927475, 0.26535993814468384, -0.2459573894739151]]}, "hi": {"bias": [0.0600261427462101, 0.3506639897823334, 0.07168596237897873, 0.6313705444335938, 0.0737946406006813, -0.08386684209108353, 0.08893860131502151, -0.025211123749613762, 0.0843447744846344, 1.1655943393707275, 0.05201621726155281, 0.05720415711402893, 0.06898346543312073, 0.16060766577720642, 0.3524508774280548, 0.14239060878753662], "kernel": [[0.009337805211544037, -0.0075120762921869755, -0.12030474096536636, 0.486966073513031, -0.39524057507514954, 0.10476662963628769, -0.45970484614372253, -0.09452204406261444, 0.19468846917152405, -0.12930673360824585, -0.28067129850387573, -0.0542302168905735, 0.2202632874250412, 0.1954922378063202, -0.0306293573230505, 0.16344214975833893], [-0.23250770568847656, -0.2474285215139389, -0.38287925720214844, -1.3405638933181763, 0.04288054257631302, 0.6770807504653931, 0.04713234305381775, -0.2396763265132904, 0.0068533760495483875, 0.29415833950042725, 0.10651609301567078, 0.3293095529079437, -0.2613024413585663, -0.11229794472455978, 0.334002822637558, 0.4198940396308899], [0.20763902366161346, -0.540144145488739, -0.35283002257347107, -0.4710969626903534, 0.35171929001808167, 0.35712701082229614, -0.3305162191390991, 0.08834715932607651, -0.189665287733078, 0.5651473999023438, -0.09319761395454407, -0.3934367001056671, 0.33959630131721497, 0.31841325759887695, 0.30482614040374756, -0.05915621668100357], [-0.26096221804618835, 0.29152005910873413, -0.9314625859260559, 0.24135340750217438, -0.016975054517388344, 0.4624449610710144, 0.43433016538619995, 0.38712483644485474, -0.1410239338874817, -0.4191633462905884, -0.024275338277220726, 0.2071159929037094, 0.3401753306388855, 0.12466540187597275, -0.3736981153488159, -0.01182808168232441], [-0.044413842260837555, 0.18546009063720703, -0.10297340154647827, -0.5626603364944458, -0.4413739740848541, 0.15679608285427094, -0.25493744015693665, 0.05237319692969322, -0.1781756430864334, -1.073296308517456, 0.08395212888717651, -0.3214731812477112, -0.39048081636428833, -0.05169859528541565, -0.07206184417009354, 0.15318262577056885], [0.4414140582084656, -0.24209213256835938, 0.12221576273441315, 0.4913889467716217, -0.09960611164569855, -0.07430712878704071, -0.10860013216733932, 0.07457253336906433, -0.3508966267108917, 0.5786669254302979, -0.1864074468612671, 0.4542964696884155, 0.017604045569896698, 0.3534942865371704, -0.2736046016216278, -0.08375397324562073], [0.02990810014307499, -0.4314132034778595, -0.02432580292224884, -0.2078496813774109, 0.15365278720855713, 0.33709385991096497, 0.21591658890247345, 0.21333375573158264, 0.2891989052295685, 0.1889810562133789, -0.04624711349606514, -0.2593619227409363, -0.37415212392807007, -0.2348320186138153, -0.04522161930799484, 0.1608685702085495], [-0.28975966572761536, -0.30983293056488037, -0.26578569412231445, 0.6764678955078125, -0.455843448638916, -0.18411673605442047, 0.23866607248783112, -0.7066547870635986, -0.30906426906585693, -1.0265960693359375, 0.7663544416427612, -0.1268693208694458, 0.2207425832748413, -0.19139158725738525, -0.2591320276260376, -0.04189997538924217], [-0.272026926279068, -0.07819034904241562, -0.12811124324798584, -0.5977416634559631, 0.19973301887512207, 0.4203115999698639, 0.1236506775021553, -0.012800652533769608, -0.16299442946910858, 0.543846607208252, 0.17386920750141144, -0.01781296730041504, -0.3266375660896301, 0.5578627586364746, 1.0606001615524292, -0.29089027643203735], [-0.3167800009250641, 0.5807967782020569, 0.14401206374168396, 0.20387256145477295, -0.43525177240371704, 0.8768041729927063, 0.12084867060184479, 0.07049212604761124, 0.3609519600868225, -0.3686699867248535, 1.0365912914276123, 0.2868681848049164, 0.5970636010169983, -0.16400779783725739, -0.358785480260849, -0.8720789551734924], [-0.27524933218955994, -0.05501926690340042, -0.36768534779548645, -0.8498743772506714, 0.08293376863002777, 0.27626341581344604, -0.17160964012145996, -0.11050659418106079, 0.22084061801433563, -0.16242806613445282, -0.31645917892456055, 0.3666273355484009, -0.16337427496910095, -0.1798195093870163, -0.17958450317382812, -0.5557594299316406], [0.3655851483345032, -0.03383322432637215, -0.12189866602420807, 0.6057397723197937, -0.18920017778873444, -0.4031394422054291, 0.011533286422491074, -0.011253917589783669, 0.515959620475769, 0.04429473727941513, 0.26304957270622253, -0.07090932875871658, -0.07111354917287827, 0.6321038007736206, -0.3396933376789093, -0.242812380194664], [-0.5960264205932617, -0.33007702231407166, -0.033661115914583206, -0.6008780002593994, -0.1855926364660263, 0.035239845514297485, 0.0164200346916914, 0.3132486343383789, -0.09487590193748474, 0.5026159882545471, -0.20295263826847076, -0.22910381853580475, 0.036806583404541016, -0.020658621564507484, -0.22721944749355316, -0.515764594078064], [0.26954808831214905, 0.23469293117523193, 0.5259959101676941, -0.6117824912071228, -0.11494169384241104, 0.08882725238800049, 0.37060070037841797, 0.027743782848119736, 0.29316461086273193, -0.6044840812683105, -0.12354864180088043, 0.1353098750114441, 0.46644070744514465, 0.3319581151008606, -0.06780283898115158, 0.08454718440771103], [0.18375779688358307, 0.1060267761349678, 0.20955245196819305, 0.12848371267318726, -0.06638035178184509, 0.050846248865127563, 0.27447888255119324, 0.7330511212348938, 0.31718549132347107, 0.24518610537052155, -0.0291993897408247, -0.030564183369278908, 0.285340815782547, -0.27710387110710144, -0.10001707077026367, -0.2642654776573181], [0.4854717552661896, 0.05300315096974373, 0.2742249071598053, 0.4516702890396118, -0.4756941497325897, -0.03455211594700813, 0.28451600670814514, -0.20591199398040771, -0.20966120064258575, 0.17527151107788086, -0.28288939595222473, -0.11444474011659622, -0.03367431461811066, -0.20830607414245605, -0.3018558621406555, -0.33560481667518616]]}, "ho": {"bias": [0.07496283948421478, 0.28488051891326904, 0.11954312771558762, 0.7158358097076416, 0.07095209509134293, -0.08489938080310822, 0.0995330959558487, 0.08106572926044464, 0.06858459115028381, 0.540546715259552, 0.09984530508518219, 0.05756015330553055, 0.09824003279209137, 0.13505783677101135, 0.19749173521995544, 0.1423180103302002], "kernel": [[-0.3762960433959961, 0.2914506793022156, 0.3242831528186798, 0.2626039683818817, -0.30283311009407043, -0.24561691284179688, -0.001057832851074636, 0.5070770978927612, -0.3345123827457428, -0.09862517565488815, -0.04850534722208977, -0.23719772696495056, -0.1564599573612213, -0.26569369435310364, -0.22090010344982147, 0.24883806705474854], [-0.44660553336143494, -0.44860923290252686, -0.7873440980911255, -1.1905667781829834, 0.4218633770942688, 0.2638489603996277, 0.03968130052089691, 0.1837058663368225, -0.20179606974124908, -0.02679978497326374, 0.20151862502098083, 0.1769159883260727, -0.126392662525177, -0.024111581966280937, 0.15630647540092468, 0.2188774198293686], [-0.2037392407655716, -0.4082403779029846, 0.08321033418178558, -0.18238653242588043, 0.3181799352169037, -0.40715667605400085, -0.04510757327079773, -0.49274858832359314, -0.3821306526660919, 0.6222798824310303, -0.4165739119052887, -0.14337266981601715, -0.07494426518678665, 0.5273393988609314, -0.12584644556045532, 0.8569075465202332], [0.01759452186524868, -0.27002567052841187, 0.07012420147657394, -0.4374055564403534, -0.3401874005794525, -0.08071120828390121, -0.3090483248233795, 0.03287246823310852, -0.2780475914478302, -0.5887023210525513, 0.0740596354007721, 0.4330917000770569, 0.12488427013158798, -0.04473516717553139, 0.18297776579856873, 0.14368216693401337], [-0.04836748540401459, 0.29315462708473206, -0.015466288663446903, -0.28648537397384644, 0.13974806666374207, 0.16376051306724548, 0.20689594745635986, -0.2335846871137619, 0.1459958702325821, -1.2666798830032349, 0.22329238057136536, 0.006873487960547209, -0.7544848918914795, -0.3881187438964844, 0.21474166214466095, 0.11537586897611618], [-0.017508776858448982, 0.4423481822013855, 0.16043205559253693, -0.1125732809305191, 0.3461287021636963, -0.5144544243812561, 0.1326371729373932, 0.18856963515281677, 0.3199442923069, -0.1076984778046608, 0.17862971127033234, 0.17789490520954132, 0.1586480587720871, -0.0805639699101448, -0.4366128742694855, -0.2386263906955719], [-0.1252218782901764, 0.2865999639034271, -0.24869832396507263, -1.0370423793792725, 0.02861878089606762, -0.025301571935415268, -0.010283485986292362, -0.09650836139917374, -0.15079092979431152, 0.22837424278259277, -0.6706488132476807, 0.14951500296592712, -0.1507079303264618, 0.2796822190284729, 0.14771313965320587, -0.1427282989025116], [-0.2589535117149353, -0.05621868371963501, 0.007197092287242413, 0.4805450439453125, -0.24611151218414307, -0.0025963974185287952, -0.12711280584335327, -0.3628394901752472, 0.07705982774496078, -1.4724397659301758, 0.03384469822049141, 0.09684648364782333, -0.029184987768530846, -0.5241597890853882, 0.3510294258594513, 0.27584749460220337], [0.3161207437515259, 0.5250783562660217, -0.5018270015716553, -0.7246564626693726, -0.231107696890831, -0.1706651747226715, -0.6494709253311157, 0.22475820779800415, 0.09773541986942291, -0.1583690047264099, 0.25503361225128174, -0.3017733693122864, -0.18386325240135193, 0.2643173038959503, -0.04255599528551102, 0.0811806172132492], [-0.3693881034851074, 0.9983086585998535, -0.6336436867713928, -0.3333645761013031, -0.3422299325466156, 0.30420953035354614, 0.4713135361671448, 0.23063629865646362, 0.4266398549079895, -0.16609472036361694, -0.002707622479647398, 0.15309655666351318, 0.23848849534988403, -0.2945323586463928, 0.5076466202735901, -0.47229522466659546], [-0.6426708102226257, -0.4050082266330719, -0.4905054569244385, -0.5395657420158386, -0.2527886927127838, -0.1343715637922287, -0.16623371839523315, -0.2559281587600708, 0.3157849907875061, 0.04457036405801773, 0.029518403112888336, -0.2032969743013382, -0.13445159792900085, 0.86607426404953, 0.26415202021598816, -0.18568117916584015], [-0.25105756521224976, 0.11728872358798981, 0.05127136409282684, 0.6721284985542297, 0.3659995198249817, 0.29664260149002075, -0.5216835737228394, -0.15534132719039917, -0.12726753950119019, -0.19139979779720306, 0.05843086913228035, 0.15411905944347382, 0.1622510701417923, 0.1644420474767685, -0.1392362415790558, 0.10512930154800415], [0.008299571461975574, 0.04418915510177612, -0.22304667532444, -0.4348715841770172, -0.08912603557109833, 0.15631085634231567, 0.3650044798851013, 0.5504077672958374, 0.25290870666503906, -0.8941879868507385, -0.011806581169366837, -0.07199566066265106, 0.23660142719745636, 0.30030491948127747, 0.34745362401008606, -0.11039598286151886], [0.24712412059307098, 0.8732870221138, 0.15536732971668243, -0.3226948380470276, -0.08240354806184769, 0.05251729115843773, 0.3700849413871765, -0.21905501186847687, -0.04932017624378204, -0.26838603615760803, 0.6001992225646973, -0.3534170091152191, 0.44462206959724426, -0.30530738830566406, 0.049844905734062195, -0.2053697258234024], [0.25540921092033386, 0.210542693734169, 0.5656630992889404, 0.23106658458709717, 0.39223888516426086, -0.10390114039182663, -0.10572509467601776, 0.22139179706573486, 0.5286474227905273, 0.7357317209243774, -0.15969839692115784, -0.09303808957338333, 0.05530547350645065, -0.17353545129299164, 0.10608028620481491, 0.141447514295578], [0.05759544298052788, -0.40917274355888367, 0.1571723073720932, 1.1217188835144043, 0.3362414538860321, -0.16760824620723724, -0.2780253291130066, 0.14971235394477844, -0.35431933403015137, 0.24945315718650818, 0.025967953726649284, -0.03175153210759163, 0.012194215320050716, -0.012526731938123703, 0.4605802595615387, -0.2857101559638977]]}, "if": {"kernel": [[-1.2845960855484009, -0.8158934712409973, 0.9190568327903748, -0.4170832931995392, 0.2567126154899597, -0.7004392147064209, -0.7336574792861938, -0.19876711070537567, 0.055390287190675735, -0.2097749561071396, 0.09910942614078522, 0.7604816555976868, -0.07151111215353012, -0.5951156616210938, 1.7016866207122803, -0.9839775562286377], [-0.7748898863792419, -0.10084270685911179, -0.16185015439987183, 0.5138108134269714, -0.6504586935043335, -0.7625203728675842, -0.33443009853363037, -0.31741246581077576, -1.3856741189956665, 0.17416609823703766, -0.004292073659598827, -0.37322428822517395, 0.2874740660190582, 0.41509783267974854, 0.22169750928878784, -0.03189142420887947]]}, "ig": {"kernel": [[0.18093498051166534, 0.059754569083452225, 0.043082062155008316, -0.037001121789216995, -0.35918089747428894, -0.024527300149202347, -0.27808502316474915, 0.7559276223182678, -1.0614486932754517, 0.27792802453041077, -0.3043210804462433, 0.36697620153427124, -1.308097004890442, -0.37514856457710266, -0.4557092487812042, 1.2193881273269653], [0.4961164593696594, -0.5340235829353333, -0.040265560150146484, -0.02579626627266407, 0.3918963372707367, 0.39822545647621155, -0.5626341700553894, 0.22829174995422363, -0.8542135953903198, -0.5464314222335815, -0.31620267033576965, 1.2680946588516235, 0.6013250350952148, -0.0864972248673439, 1.17751145362854, 0.196895569562912]]}, "ii": {"kernel": [[0.29436302185058594, 1.152491569519043, -0.34804069995880127, 1.158729076385498, 1.0016629695892334, 0.08578842133283615, 0.09187498688697815, 0.5796767473220825, -0.44759103655815125, -0.16917502880096436, 1.124361276626587, -0.7582747936248779, 0.5802878141403198, 1.3328779935836792, 0.8449985980987549, -0.3854179084300995], [1.0207551717758179, 0.693438708782196, 0.14035554230213165, -0.02912568859755993, 0.6670346260070801, -0.5868699550628662, -0.059278447180986404, 1.5718268156051636, 0.6330610513687134, 1.831725835800171, 0.35848796367645264, 0.3881056606769562, -0.6449919939041138, -0.9480156898498535, 1.7425382137298584, 0.22536198794841766]]}, "io": {"kernel": [[-0.6856338381767273, 0.5653389692306519, -0.20927448570728302, 0.2380862981081009, -0.4440068006515503, 0.07536446303129196, -0.10161904990673065, -0.31359153985977173, -0.4195786118507385, 0.03780754283070564, 1.1274219751358032, -0.9404179453849792, 0.6869257688522339, 0.20782768726348877, 0.16819629073143005, -0.16537490487098694], [-0.8690778613090515, 0.572298526763916, -0.5213740468025208, 0.14896877110004425, 0.9687803387641907, 0.8253675103187561, 0.9385904669761658, -0.7067505717277527, -1.1485307216644287, -0.47453728318214417, 0.9265629053115845, 0.049995917826890945, 0.11814326792955399, 0.841515839099884, 1.6097286939620972, -0.30136194825172424]]}}}}, "test_1": {"yhat": [-0.010207539424300194, -0.008789846673607826, -0.012881533242762089, -0.014838234521448612, -0.01243076752871275, -0.0016439184546470642, 0.02774406224489212, 0.04794419929385185, 0.03383629024028778, -0.001829256652854383, -0.03729571774601936, -0.07022835314273834, -0.07415987551212311, -0.034138262271881104, 0.019357705488801003, 0.0637756958603859, 0.08796552568674088, 0.07324766367673874, 0.020105140283703804, -0.03424308821558952, -0.053624045103788376, -0.03461894020438194, 0.0007873149588704109, 0.02327016182243824, 0.023849010467529297, 0.012672035954892635, -0.003996110055595636, -0.017673686146736145, -0.013944944366812706, -0.001607745187357068, 0.00972655788064003, 0.026979172602295876, 0.04268258810043335, 0.03558359295129776, 0.014327673241496086, 0.004560138564556837, 0.007229494862258434, 0.008480390533804893, -0.0029582928400486708, -0.027594270184636116, -0.045897968113422394, -0.03728258237242699, -0.007038940209895372, 0.02474338561296463, 0.04110594466328621, 0.03264496475458145, -0.001017218455672264, -0.049456704407930374, -0.083150714635849, -0.0705694630742073, -0.024124516174197197, 0.01929284632205963, 0.041380200535058975, 0.038937799632549286, 0.017042415216565132, -0.0032424014061689377, -0.002988894935697317, -0.00540262321010232, -0.0192611925303936, -0.024258948862552643, -0.013943449594080448, -0.005415528547018766, 0.002715368987992406, 0.01499591302126646, 0.018244806677103043, 0.007019917480647564, -0.009314530529081821, -0.02450224570930004, -0.030856963247060776, -0.015342832542955875, 0.020391663536429405, 0.055730320513248444, 0.07023824751377106, 0.055423226207494736, 0.01698785461485386, -0.03022732585668564, -0.06897372752428055, -0.08078981190919876, -0.05759450048208237, -0.010491776280105114, 0.04119086265563965, 0.07592777907848358, 0.07381243258714676, 0.03116711415350437, -0.029012219980359077, -0.07211996614933014, -0.08618875592947006, -0.07611329108476639, -0.03876661881804466, 0.022748224437236786, 0.08217877894639969, 0.09868421405553818, 0.061048589646816254, -0.009455900639295578, -0.07682056725025177, -0.10968805104494095, -0.09369175136089325, -0.043183762580156326, 0.01213108655065298, 0.04520237073302269, 0.044628966599702835, 0.015647975727915764, -0.030381856486201286, -0.07210108637809753, -0.07391677051782608, -0.024879667907953262, 0.032575249671936035, 0.05942055210471153, 0.04619291052222252, 0.008954999037086964, -0.03597767651081085, -0.07337620854377747, -0.08348772674798965, -0.059518299996852875, -0.017076630145311356, 0.01902635768055916, 0.0348639115691185, 0.03354894742369652, 0.022989286109805107, 0.00427887961268425, -0.020800936967134476, -0.0449383482336998, -0.05440104752779007, -0.038566332310438156, -0.002972079673781991, 0.03366926312446594, 0.051138944923877716, 0.03782510384917259, 0.0004007049719803035, -0.039051853120326996, -0.06900069117546082, -0.09189385175704956, -0.08571353554725647, -0.035883162170648575, 0.03972699120640755, 0.09882558882236481, 0.11365179717540741, 0.08073098212480545, 0.014591068960726261, -0.05828933045268059, -0.1036815345287323, -0.08830614387989044, -0.01810479909181595, 0.060519881546497345, 0.10373178124427795, 0.09116591513156891, 0.02963746339082718, -0.04662470147013664, -0.08176026493310928, -0.06023557856678963, -0.008007438853383064, 0.05937715992331505, 0.11550234258174896, 0.11744849383831024, 0.055528972297906876, -0.0393633171916008, -0.12333012372255325, -0.15452991425991058, -0.1090095043182373, -0.020420946180820465, 0.06668227910995483, 0.11563367396593094, 0.1127130314707756, 0.07204984873533249, 0.02316395379602909, -0.01937643252313137, -0.04713066667318344, -0.04652059078216553, -0.024567946791648865, 1.3366665370995179e-05, 0.022830896079540253, 0.041708506643772125, 0.0414867140352726, 0.01839708909392357, -0.015559245832264423, -0.05155147984623909, -0.07260531187057495, -0.055221620947122574, -0.008167081512510777, 0.03393692523241043, 0.047226641327142715, 0.03088708035647869, 0.0009114743443205953, -0.027741441503167152, -0.043231066316366196, -0.025250395759940147, 0.027047174051404, 0.061883166432380676, 0.05366649478673935, 0.023429471999406815, 0.0017889718292281032, -0.020285530015826225, -0.03909037634730339, -0.04154248908162117, -0.029935652390122414, -0.006855045910924673, 0.022058263421058655, 0.032766733318567276, 0.01351435761898756, -0.01616019941866398, -0.03705887496471405, -0.05129148066043854, -0.04368079453706741, 0.002641335828229785, 0.06303613632917404, 0.09683216363191605, 0.0933489054441452, 0.06174371391534805, 0.013716165907680988, -0.03258172795176506, -0.06049409508705139, -0.06613108515739441, -0.042217232286930084, 0.010699593462049961, 0.06018490344285965, 0.07089761644601822, 0.03833894059062004, -0.017365388572216034, -0.06968224793672562, -0.07962211221456528, -0.03481089696288109, 0.02727435901761055, 0.07773559540510178, 0.09961064159870148, 0.08047717064619064, 0.02642347849905491, -0.031261105090379715, -0.07144689559936523, -0.0864461287856102, -0.06730298697948456, -0.027542751282453537, 0.017194287851452827, 0.05998976528644562, 0.07996124029159546, 0.05024242028594017, -0.014978046528995037, -0.06763290613889694, -0.07562758028507233, -0.03148174658417702, 0.03781687840819359, 0.08316177874803543, 0.08308549970388412, 0.05143037438392639, 0.007220115978270769, -0.03811835125088692, -0.06809541583061218, -0.07031554728746414, -0.04452866315841675, -0.009184467606246471, 0.013040387071669102, 0.021180445328354836, 0.03008434548974037, 0.031278353184461594, 0.01134628988802433, -0.01207832433283329, -0.016909576952457428, -0.011342108249664307, -0.002277543768286705, 0.01845029555261135, 0.051263242959976196, 0.06780307739973068, 0.050210218876600266, 0.010162834078073502, -0.02424376830458641, -0.03683047741651535, -0.02123168110847473, 0.01896185614168644, 0.06551116704940796, 0.09835915267467499, 0.09985517710447311, 0.061114877462387085, -0.0018417403334751725, -0.05614430084824562, -0.07960975170135498, -0.05154769495129585, 0.029620008543133736, 0.09827786684036255, 0.11101970076560974, 0.07353398203849792, 0.0073929703794419765, -0.08871689438819885, -0.14957743883132935, -0.10527042299509048, -0.008888705633580685, 0.09295101463794708, 0.16257160902023315, 0.158092200756073, 0.07866664230823517, -0.02276545763015747, -0.09451282024383545, -0.11489298194646835, -0.07534661889076233, -0.013257857412099838, 0.0369563102722168, 0.06253574043512344, 0.061138030141592026, 0.023026442155241966, -0.035816092044115067, -0.0752485990524292, -0.07219382375478745, -0.02460438944399357, 0.038904424756765366, 0.07235034555196762, 0.06055460870265961, 0.0272896159440279, -0.003051185514777899, -0.03188333287835121, -0.05566220358014107, -0.05432786047458649, -0.010871754959225655, 0.05788803845643997, 0.10065563768148422, 0.0862123966217041, 0.01883939653635025, -0.06388438493013382, -0.11678323894739151, -0.12403633445501328, -0.09443503618240356, -0.031017079949378967, 0.05133415758609772, 0.11785415560007095, 0.13106019794940948, 0.08468609303236008, -0.005466395989060402, -0.10201579332351685, -0.14509162306785583, -0.10786808282136917, -0.018432926386594772, 0.08424932509660721, 0.14800870418548584, 0.13272440433502197, 0.04088650271296501, -0.07906553149223328, -0.15631888806819916, -0.14264346659183502, -0.05466470122337341, 0.05995442345738411, 0.13571135699748993, 0.13029219210147858, 0.05526171997189522, -0.03791719302535057, -0.1058715283870697, -0.12497704476118088, -0.0861177146434784, -0.016776051372289658, 0.051831819117069244, 0.10215926915407181, 0.12058570981025696, 0.08484570682048798, 0.009537041187286377, -0.05600745230913162, -0.0766567587852478, -0.059054501354694366, -0.012042943388223648, 0.051009584218263626, 0.10079749673604965, 0.10703045129776001, 0.06945362687110901, 0.009284097701311111, -0.050761979073286057, -0.08456110209226608, -0.06832912564277649, -0.013149772770702839, 0.049156125634908676, 0.08908271044492722, 0.08910249173641205, 0.05063226446509361, -0.006050636060535908, -0.05947360396385193, -0.09791431576013565, -0.09738308191299438, -0.050663746893405914, 0.015175488777458668, 0.06582948565483093, 0.07734426856040955, 0.04529311880469322, -0.011645766906440258, -0.05868779867887497, -0.0755065530538559, -0.05926292762160301, -0.014592560939490795, 0.03665534779429436, 0.06677211076021194, 0.06501266360282898, 0.03799767792224884, -0.006184596102684736, -0.05873848497867584, -0.09923820197582245, -0.10039062798023224, -0.053116828203201294, 0.02617166005074978, 0.09796862304210663, 0.11611740291118622, 0.06491556018590927, -0.025256924331188202, -0.09012671560049057, -0.08708484470844269, -0.03283408284187317, 0.030893264338374138, 0.06551293283700943, 0.05910579115152359, 0.028585080057382584, -0.006355853285640478, -0.03211534768342972, -0.03673931956291199, -0.02598079852759838, -0.010862413793802261, 0.010008583776652813, 0.034384191036224365, 0.0408039316534996, 0.019896967336535454, -0.012798096053302288, -0.03582825884222984, -0.03675295412540436, -0.01649821549654007, 0.009375891648232937, 0.030762217938899994, 0.04507766291499138, 0.03891155496239662, 0.0004959998768754303, -0.048909734934568405, -0.0719195157289505, -0.058685027062892914, -0.021368246525526047, 0.018479377031326294, 0.035227302461862564, 0.018809344619512558, -0.014320744201540947, -0.03539113700389862, -0.027765030041337013, 0.00029678523424081504, 0.025660865008831024, 0.03428391367197037, 0.026954563334584236, 0.004494973458349705, -0.03591952845454216, -0.07244803011417389, -0.07550369203090668, -0.05098181962966919, -0.015247691422700882, 0.027354653924703598, 0.07016027718782425, 0.08496446162462234, 0.056566715240478516, 0.0017762198112905025, -0.041631266474723816, -0.04473010078072548, -0.01944034732878208, 0.0054151094518601894, 0.018545538187026978, 0.022815050557255745, 0.017304686829447746, -0.0006445743492804468, -0.026174863800406456, -0.056915055960416794, -0.07556377351284027, -0.05159306898713112, 0.010913233272731304, 0.06082633510231972, 0.07426506280899048, 0.06256648153066635, 0.04434913769364357, 0.01754559390246868, -0.015276082791388035, -0.04814497381448746, -0.07277900725603104, -0.07216516137123108, -0.03629268333315849, 0.016140831634402275, 0.05257432162761688, 0.05896909534931183, 0.0406363420188427, 0.003998847212642431, -0.037089668214321136, -0.05617638677358627, -0.04798915237188339, -0.0222206749022007, 0.01986660808324814, 0.0631917417049408, 0.07211892306804657, 0.03986304625868797, -0.009875553660094738, -0.06339447945356369, -0.11525465548038483, -0.11933165788650513, -0.06021631136536598, 0.025284744799137115, 0.0950613021850586, 0.1206001490354538, 0.0912826731801033, 0.020718436688184738, -0.05017343536019325, -0.08696887642145157, -0.09745623171329498, -0.0858445018529892, -0.0412527434527874, 0.03130955621600151, 0.09937489032745361, 0.12182837724685669, 0.0844830572605133, 0.0015413558576256037, -0.08276084810495377, -0.11611361056566238, -0.09185932576656342, -0.031378697603940964, 0.04137478396296501, 0.0944695696234703, 0.10054212063550949, 0.05418600142002106, -0.03207678347826004, -0.12700656056404114, -0.160730242729187, -0.10481112450361252, -0.01771380752325058, 0.06130319461226463, 0.10955769568681717, 0.1183154508471489, 0.08205902576446533, 0.024956975132226944, -0.02123330347239971, -0.04442872852087021, -0.04254724830389023, -0.01710198074579239, 0.021274028345942497, 0.05525890737771988, 0.07200310379266739, 0.06851202249526978, 0.04317531734704971, -0.001815431285649538, -0.04646207019686699, -0.06146620959043503, -0.04358180984854698, -0.008609632030129433, 0.03207329660654068, 0.06407896429300308, 0.0639273151755333, 0.026065044105052948, -0.020110247656702995, -0.03605223447084427, -0.01682806760072708, 0.019648879766464233, 0.05391184985637665, 0.06511340290307999, 0.042974963784217834, 0.001113257254473865, -0.033426590263843536, -0.053566355258226395, -0.0645047202706337, -0.05927044153213501, -0.04038318246603012, -0.021126624196767807, -0.0030495370738208294, 0.016360195353627205, 0.02252965234220028, 0.008147407323122025, -0.008217527531087399, -0.017125478014349937, -0.03353220969438553, -0.04283849895000458, -0.02111124061048031, 0.008861033245921135, 0.015091897919774055, 0.002453378401696682, -0.009490936994552612, -0.016110558062791824, -0.011496257036924362, 0.010559397749602795, 0.037975650280714035, 0.05274873599410057, 0.04193689301609993, 0.005620674230158329, -0.03346832096576691, -0.048933207988739014, -0.04126283898949623, -0.012632640078663826, 0.035128891468048096, 0.07143250852823257, 0.06278656423091888, 0.012796157039701939, -0.04433991387486458, -0.08120007067918777, -0.08598776161670685, -0.06029026582837105, -0.015453447587788105, 0.02961658500134945, 0.05278358981013298, 0.04744983837008476, 0.027297716587781906, -0.00024017805117182434, -0.030179793015122414, -0.03347809612751007, 0.002024129731580615, 0.03497045114636421, 0.04388664290308952, 0.03210917487740517, 0.010039710439741611, -0.010221071541309357, -0.009535428136587143, 0.004143488593399525, 0.015963837504386902, 0.026085691526532173, 0.027141038328409195, 0.0034645926207304, -0.0333201140165329, -0.05417919158935547, -0.05147227272391319, -0.032391227781772614, -0.01393174473196268, -0.012997719459235668, -0.020807107910513878, -0.013756961561739445, 0.00824127160012722, 0.025469942018389702, 0.03603757917881012, 0.0418066643178463, 0.035010699182748795, 0.020483406260609627, 0.01771959848701954, 0.025957712903618813, 0.02528361976146698, 0.01159765012562275, -0.006641699466854334, -0.02620651386678219, -0.04317035898566246, -0.04215642437338829, -0.021813377737998962, 0.0022826192434877157, 0.024309972301125526, 0.04455488175153732, 0.049511492252349854, 0.030430002138018608, 0.001202917192131281, -0.021933283656835556, -0.040102601051330566, -0.05396711081266403, -0.056793808937072754, -0.04636548459529877, -0.023760521784424782, 0.007343905046582222, 0.032540492713451385, 0.03495381399989128, 0.01887236349284649, 0.005847092252224684, 0.00041343140765093267, -0.011782065033912659, -0.03142084926366806, -0.042988114058971405, -0.03215222433209419, 0.0076525588519871235, 0.06804705411195755, 0.1139337494969368, 0.11274687200784683, 0.06068386882543564, -0.01659363880753517, -0.07446838170289993, -0.08927830308675766, -0.08546042442321777, -0.06729218363761902, -0.02319575473666191, 0.04350952431559563, 0.09336007386445999, 0.09478463977575302, 0.04793453961610794, -0.029874460771679878, -0.11266393959522247, -0.1545792818069458, -0.1287352293729782, -0.057058073580265045, 0.0298526119440794, 0.09975162893533707, 0.1184808686375618, 0.07250557094812393, -0.009356492199003696, -0.07389267534017563, -0.09230030328035355, -0.06355873495340347, 0.004538595676422119, 0.09073717147111893, 0.15406955778598785, 0.1515415757894516, 0.07443932443857193, -0.042654477059841156, -0.1251450926065445, -0.12967854738235474, -0.08340827375650406, -0.008859279565513134, 0.06479723751544952, 0.10122610628604889, 0.07498978078365326, -0.0027077123522758484, -0.08353898674249649, -0.1103898361325264, -0.07173213362693787, -0.005473295692354441, 0.06172991171479225, 0.1115415096282959, 0.119408518075943, 0.06914954632520676, -0.02140849642455578, -0.11134936660528183, -0.14610527455806732, -0.09159254282712936, 0.006766947917640209, 0.08733806759119034, 0.11312983930110931, 0.07859575003385544, -0.00013362614845391363, -0.07660158723592758, -0.09362819790840149, -0.06009252369403839, -0.007018879521638155, 0.040492698550224304, 0.053354594856500626, 0.016289612278342247, -0.04274509847164154, -0.0704534724354744, -0.0538424514234066, -0.020183194428682327, 0.013806247152388096, 0.03888558968901634, 0.04696546867489815, 0.02991655096411705, 0.0006400793790817261, -0.00912120658904314, 0.008453276008367538, 0.023936612531542778, 0.025968855246901512, 0.022844849154353142, 0.016308268532156944, -0.0039727273397147655, -0.026760688051581383, -0.034480124711990356, -0.030532043427228928, -0.013963024131953716, 0.021771304309368134, 0.05607074126601219, 0.06135190278291702, 0.03864529728889465, 0.003095628460869193, -0.03819693252444267, -0.07087236642837524, -0.07633206993341446, -0.05517737567424774, -0.01921999827027321, 0.010684515349566936, 0.014128318056464195, -0.008207778446376324, -0.03736938163638115, -0.06133439764380455, -0.0685596838593483, -0.044756945222616196, -0.0033818811643868685, 0.025523914024233818, 0.02995089627802372, 0.018509455025196075, 0.004955066833645105, -0.004742369521409273, -0.01780877076089382, -0.040452320128679276, -0.05780749022960663, -0.05624014511704445, -0.04413039982318878, -0.02801148220896721, -0.00845299195498228, 0.007574334740638733, 0.014103555120527744, 0.01879390887916088, 0.02701607346534729, 0.025228267535567284, 0.0045873550698161125, -0.024278549477458, -0.04139907285571098, -0.03895213454961777, -0.022418228909373283, -0.0014774270821362734, 0.012801268137991428, 0.014920627698302269, 0.010348159819841385, 0.004870173055678606, -0.008025046437978745, -0.02997063659131527, -0.044870756566524506, -0.037697382271289825, -0.009380743838846684, 0.026077616959810257, 0.04458649456501007, 0.030263537541031837, -0.004179237876087427, -0.027325252071022987, -0.027876565232872963, -0.01766325905919075, -0.007746879477053881, -0.0045330096036195755, -0.004422688391059637, 0.005835081450641155, 0.029227176681160927, 0.04436025395989418, 0.03982517495751381, 0.02227882854640484, 0.0011469132732599974, -0.012349220924079418, 0.002064276719465852, 0.034699950367212296, 0.04389612376689911, 0.01814018376171589, -0.018702009692788124, -0.04419790208339691, -0.052965953946113586, -0.03628037869930267, -0.0049777827225625515, 0.01666177250444889, 0.02155436761677265, 0.018859483301639557, 0.015430247411131859, 0.015219571068882942, 0.016447747126221657, 0.007291057147085667, -0.011070930399000645, -0.02342006377875805, -0.024224767461419106, -0.012029322795569897, 0.0174222644418478, 0.0480366088449955, 0.05776611715555191, 0.0458650141954422, 0.019175803288817406, -0.01749822497367859, -0.04203639179468155, -0.040097784250974655, -0.03191829100251198, -0.019450901076197624, 0.008559918031096458, 0.03563255816698074, 0.035678889602422714, 0.0165130402892828, -0.003834372153505683, -0.027500484138727188, -0.04275547340512276, -0.028960036113858223, 0.008864994160830975, 0.050674427300691605, 0.07457384467124939, 0.06216859072446823, 0.01686812937259674, -0.03565813601016998, -0.07645057141780853, -0.0940822958946228, -0.07366194576025009, -0.023983847349882126, 0.030580241233110428, 0.06582595407962799, 0.06561601907014847, 0.033402133733034134, -0.0036002364940941334, -0.022180821746587753, -0.02575775422155857, -0.019888224080204964, -0.007844972424209118, 0.008118223398923874, 0.02644238993525505, 0.035887211561203, 0.02319418638944626, -0.0033746107947081327, -0.02472122758626938, -0.041841138154268265, -0.054805316030979156, -0.04989399015903473, -0.030391886830329895, -0.009080471470952034, 0.014654625207185745, 0.04486764967441559, 0.06712392717599869, 0.06291738152503967, 0.026156913489103317, -0.032373081892728806, -0.08211278170347214, -0.09790759533643723, -0.07680948078632355, -0.021484676748514175, 0.04894836246967316, 0.09510770440101624, 0.09304945170879364, 0.04609536752104759, -0.03478168696165085, -0.12546823918819427, -0.15747472643852234, -0.10092800110578537, 0.007075372152030468, 0.12928016483783722, 0.21377207338809967, 0.20298297703266144, 0.10106301307678223, -0.04413045197725296, -0.17486858367919922, -0.21874408423900604, -0.13690803945064545, -0.004616229794919491, 0.11087723076343536, 0.16644226014614105, 0.14844772219657898, 0.05629051476716995, -0.07039152830839157, -0.16266478598117828, -0.1735999584197998, -0.1023591160774231, 0.013570859096944332, 0.10963086038827896, 0.12963563203811646, 0.06968237459659576, -0.023978928104043007, -0.09077057242393494, -0.09789764136075974, -0.06076716259121895, -0.003283877158537507, 0.053007759153842926, 0.08818184584379196, 0.08440853655338287, 0.03868947923183441, -0.033775445073843, -0.09763901680707932, -0.10773642361164093, -0.058118660002946854, 0.0184550229460001, 0.07957983016967773, 0.08755845576524734, 0.035579096525907516, -0.04409145191311836, -0.10564791411161423, -0.11495551466941833, -0.049528129398822784, 0.0597984604537487, 0.13419751822948456, 0.13720934092998505, 0.08050208538770676, -0.0035494074691087008, -0.07166460156440735, -0.08550991117954254, -0.06334307789802551, -0.020760037004947662, 0.03315054625272751, 0.06801751255989075, 0.0562715008854866, 0.01628256030380726, -0.012954122386872768, -0.02289273589849472, -0.006354792974889278, 0.024105684831738472, 0.03173944354057312, 0.00893757026642561, -0.018217241391539574, -0.027903985232114792, -0.00589657761156559, 0.04980555549263954, 0.08325421065092087, 0.06618965417146683, 0.023003162816166878, -0.006324688903987408, -0.023213323205709457, -0.019489552825689316, 0.006715096533298492, 0.026718946173787117, 0.024009009823203087, 0.010893121361732483, 0.002693110378459096, -0.001260272809304297, 0.0033401139080524445, 0.018303148448467255, 0.02915276028215885, 0.02340889908373356, 0.005195923615247011, -0.01574437879025936, -0.03981944918632507, -0.05994230881333351, -0.05349809676408768, -0.01679522916674614, 0.020025458186864853, 0.035955727100372314, 0.03615155443549156, 0.03472862392663956, 0.025454429909586906, 0.0026924461126327515, -0.020311199128627777, -0.0227638091892004, -0.006655844394117594, 0.006552974693477154, 0.010368654504418373, 0.011506187729537487, 0.006471811793744564, -0.00989606138318777, -0.018986616283655167, -0.006844031624495983, 0.001526099513284862, -0.010269101709127426, -0.02897566370666027, -0.04225865751504898, -0.05301301181316376, -0.04588876664638519, -0.004112091846764088, 0.053602706640958786, 0.09058524668216705, 0.09036343544721603, 0.05367492511868477, -0.004930684808641672, -0.05595530942082405, -0.06983301788568497, -0.03844660520553589, 0.018111536279320717, 0.05772584304213524, 0.05103117600083351, 0.007493146695196629, -0.03590832278132439, -0.05538816377520561, -0.04991724342107773, -0.027025070041418076, 0.00429648719727993, 0.03706363961100578, 0.05882928520441055, 0.054677147418260574, 0.03021896816790104, 0.005578022915869951, -0.017198758199810982, -0.04782266169786453, -0.07105567306280136, -0.06460794806480408, -0.028201498091220856, 0.02608390338718891, 0.07766419649124146, 0.09563242644071579, 0.06504473835229874, 0.0031030906829982996, -0.05445687472820282, -0.0846119299530983, -0.07690134644508362, -0.026508893817663193, 0.04979972913861275, 0.10085931420326233, 0.09076109528541565, 0.030876602977514267, -0.034262560307979584, -0.07514676451683044, -0.08084523677825928, -0.04294104129076004, 0.03033067099750042, 0.09822949022054672, 0.1100243553519249, 0.05414838716387749, -0.03259151428937912, -0.09548017382621765, -0.11136481165885925, -0.0764424279332161, -0.0018885188037529588, 0.07889418303966522, 0.1266045719385147, 0.12672044336795807, 0.08708420395851135, 0.02570241689682007, -0.028994765132665634, -0.05678365007042885, -0.057454101741313934, -0.03784792497754097, -0.007811291143298149, 0.025636689737439156, 0.06196042150259018, 0.08560129255056381, 0.06704381108283997, 0.00949398148804903, -0.04805435612797737, -0.0748843401670456, -0.06530289351940155, -0.01163597870618105, 0.06478510051965714, 0.10197139531373978, 0.07255366444587708, 0.001230746740475297, -0.06545186042785645, -0.11072083562612534, -0.1227632611989975, -0.08574274182319641, -0.010666163638234138, 0.0673208236694336, 0.10259462893009186, 0.0802832543849945, 0.023448562249541283, -0.03395012393593788, -0.06843309849500656, -0.05519970878958702, 0.009003630839288235, 0.07688121497631073, 0.10201606154441833, 0.07509874552488327, 0.019297802820801735, -0.036553818732500076, -0.06742195039987564, -0.05775720998644829, -0.009500980377197266, 0.05631709098815918, 0.09662153571844101, 0.08293255418539047, 0.026201942935585976, -0.03699316084384918, -0.08215874433517456, -0.08698304742574692, -0.03943827003240585, 0.03258352726697922, 0.08720847964286804, 0.09874976426362991, 0.06339533627033234, -0.002624300541356206, -0.061375923454761505, -0.08306485414505005, -0.06724279373884201, -0.017360981553792953, 0.04757648706436157, 0.08588181436061859, 0.07226879894733429, 0.019038980826735497, -0.03909069672226906, -0.0703687071800232, -0.0591665580868721, -0.019699998199939728, 0.024057947099208832, 0.05289161205291748, 0.05836576595902443, 0.043909795582294464, 0.017735417932271957, -0.015133408829569817, -0.041296329349279404, -0.04313476011157036, -0.030076907947659492, -0.019969962537288666, -0.010229107923805714, 0.004016019869595766, 0.015658274292945862, 0.02711290307343006, 0.05132094770669937, 0.07121381163597107, 0.061625368893146515, 0.02560640685260296, -0.01706622913479805, -0.058141354471445084, -0.1042896956205368, -0.11829454451799393, -0.06957805901765823, 0.01348172314465046, 0.07838357239961624, 0.10679345577955246, 0.10394470393657684, 0.05936918780207634, -0.015247716568410397, -0.07464806735515594, -0.0894605964422226, -0.06564848870038986, -0.015360107645392418, 0.03829531744122505, 0.07482520490884781, 0.08655641227960587, 0.0680738091468811, 0.022575166076421738, -0.024476729333400726, -0.05032983049750328, -0.05628172308206558, -0.04277517646551132, -0.014335183426737785, 0.01408727653324604, 0.029474472627043724, 0.026078997179865837, 0.006589978467673063, -0.01108020730316639, -0.00777088850736618, 0.006193466018885374, 0.016734885051846504, 0.02564105950295925, 0.03336750715970993, 0.02335275523364544, -0.00976529624313116, -0.03966877609491348, -0.034970972687006, -0.00429142452776432, 0.027722442522644997, 0.047321807593107224, 0.040117114782333374, -0.008046180941164494, -0.07118871808052063, -0.09419390559196472, -0.06683103740215302, -0.016633760184049606, 0.03131338953971863, 0.053120456635951996, 0.04373545944690704, 0.021458638831973076, -0.0011961424024775624, -0.026554688811302185, -0.04147914797067642, -0.03470218554139137, -0.018962593749165535, -0.007584272883832455, -0.00036463126889429986, 0.010317059233784676, 0.027296898886561394, 0.03371382877230644, 0.012706484645605087, -0.024022845551371574, -0.04669782891869545, -0.0447140634059906, -0.023833775892853737, 0.0043655624613165855, 0.026406459510326385, 0.04136062413454056, 0.0581439733505249, 0.06629957258701324, 0.05003388971090317, 0.009857374243438244, -0.04092121869325638, -0.07771162688732147, -0.07775731384754181, -0.045003898441791534, 0.004981081932783127, 0.056093793362379074, 0.08180161565542221, 0.05839397758245468, -0.00479883374646306, -0.06438147276639938, -0.08103165030479431, -0.055201586335897446, -0.01619657687842846, 0.017178265377879143, 0.04141802340745926, 0.057919420301914215, 0.05669551342725754, 0.03191002458333969, -0.014945732429623604, -0.07240117341279984, -0.10930906981229782, -0.10199413448572159, -0.05295778810977936, 0.018619315698742867, 0.0726635530591011, 0.0750332698225975, 0.03301453962922096, -0.01245210599154234, -0.03538037836551666, -0.0340527668595314, -0.016965005546808243, 0.004127133637666702, 0.026040716096758842, 0.042230647057294846, 0.038517240434885025, 0.025173451751470566, 0.027370600029826164, 0.02743985503911972, 0.0068653603084385395, -0.021487345919013023, -0.04245986416935921, -0.05732567608356476, -0.04949064180254936, -0.013890231028199196, 0.02083897963166237, 0.03502516448497772, 0.029686912894248962, 0.014511746354401112, 0.0027199687901884317, 0.0016374557744711637, -0.0021350232418626547, -0.014021520502865314, -0.02553960308432579, -0.033954918384552, -0.03559814766049385, -0.019360128790140152, 0.010741963982582092, 0.0391944982111454, 0.05506517365574837, 0.04749220982193947, 0.015847714617848396, -0.021835559979081154, -0.05327674001455307, -0.07667532563209534, -0.07229269295930862, -0.03840722516179085, 0.0008931130287237465, 0.03211091458797455, 0.05163021385669708, 0.05019314959645271, 0.028934672474861145, 0.007020888850092888, -0.006200350821018219, -0.006384743377566338, 0.014756257645785809, 0.041321832686662674, 0.04359153285622597, 0.013802950270473957, -0.028584223240613937, -0.05718677118420601, -0.056829776614904404, -0.030921248719096184, 0.004568852949887514, 0.033325955271720886, 0.04620903730392456, 0.04205896705389023, 0.020342852920293808, -0.01918240636587143, -0.060296401381492615, -0.07566007226705551, -0.06126478686928749, -0.02760034054517746, 0.01571953110396862, 0.0531175434589386, 0.07039827108383179, 0.06871703267097473, 0.05180010572075844, 0.025225048884749413, 0.010216244496405125, 0.013264428824186325, 0.014857890084385872, 0.012851509265601635, 0.01844758540391922, 0.03023281879723072, 0.03623412176966667, 0.025959782302379608, -0.004802040755748749, -0.036346349865198135, -0.03956671059131622, -0.021427905187010765, -0.00013127506827004254, 0.015533667989075184, 0.013540244661271572, -0.010450529865920544, -0.03403670713305473, -0.038878075778484344, -0.03959666192531586, -0.04210398346185684, -0.04077737033367157, -0.033592838793992996, -0.01564965955913067, 0.01132380124181509, 0.02236911468207836, 0.0058256774209439754, -0.016223423182964325, -0.0178491473197937, -0.0071339793503284454, 0.0029462845996022224, 0.013507124967873096, 0.026422150433063507, 0.028338268399238586, 0.009738109074532986, -0.017760612070560455, -0.036834679543972015, -0.0435958132147789, -0.032795343548059464, 0.0036203251220285892, 0.05600713565945625, 0.08467870205640793, 0.0640246570110321, 0.00936114601790905, -0.03623311221599579, -0.05984702706336975, -0.06869219988584518, -0.044548965990543365, 0.012929427437484264, 0.06067546084523201, 0.07334531098604202, 0.05624973028898239, 0.01704573631286621, -0.035944558680057526, -0.06883294880390167, -0.06095651537179947, -0.022368958219885826, 0.03124140202999115, 0.073808953166008, 0.08522430807352066, 0.0671200156211853, 0.026174189522862434, -0.028085503727197647, -0.06297587603330612, -0.05772881954908371, -0.03373556584119797, -0.004993946757167578, 0.018489496782422066, 0.02172607183456421, 0.0024298676289618015, -0.01611308753490448, -0.013935808092355728, 0.0054746526293456554, 0.0330704040825367, 0.06047239899635315, 0.07529766857624054, 0.056024666875600815, -0.006610828917473555, -0.07496197521686554, -0.08832638710737228, -0.048273541033267975, 0.0077194878831505775, 0.04906962066888809, 0.05398174002766609, 0.028129177168011665, 0.003378855297341943, -0.005184050649404526, -0.010084645822644234, -0.010717376135289669, -0.00672268308699131, -0.0052871908992528915, -0.002805192256346345, 0.009699265472590923, 0.021955659613013268, 0.019114011898636818, -2.933586983999703e-05, -0.023091144859790802, -0.029299918562173843, -0.010592564940452576, 0.007506588473916054, 0.0031513129360973835, -0.01717398129403591, -0.03325751796364784, -0.03387768939137459, -0.019194340333342552, -0.0025063767097890377, 0.002556774066761136, -0.004117701202630997, -0.015995139256119728, -0.028967050835490227, -0.03256463259458542, -0.01743031106889248, 0.006791148334741592, 0.02531740441918373, 0.03341677784919739, 0.030707325786352158, 0.018350886180996895, 0.008295192383229733, 0.013783324509859085, 0.026599962264299393, 0.028130505234003067, 0.010645774193108082, -0.016395024955272675, -0.03239186480641365, -0.021052079275250435, 0.013401429168879986, 0.04771336168050766, 0.05730068311095238, 0.03266218677163124, -0.011858461424708366, -0.04753565043210983, -0.0583934411406517, -0.045505695044994354, -0.012860093265771866, 0.020455652847886086, 0.02603938616812229, 0.005032141227275133, -0.007235446013510227, 0.011595656163990498, 0.03052409738302231, 0.029419196769595146, 0.006454894319176674, -0.024426180869340897, -0.04274484142661095, -0.0325544998049736, -0.007866643369197845, 0.007149941753596067, 0.010789802297949791, 0.014851526357233524, 0.017717069014906883, 0.017203565686941147, 0.023965004831552505, 0.031109435483813286, 0.021061411127448082, 0.0012290090089663863, -0.010892006568610668, -0.018922677263617516, -0.020586542785167694, -0.0022296919487416744, 0.024169929325580597, 0.03504052385687828, 0.03113987110555172, 0.023785019293427467, 0.008870871737599373, -0.017407452687621117, -0.04725777730345726, -0.06901279091835022, -0.0725865513086319, -0.057674065232276917, -0.03175477683544159, 0.000995576148852706, 0.036196913570165634, 0.06018398329615593, 0.06065455451607704, 0.03726956248283386, -0.0035211946815252304, -0.048589058220386505, -0.07796581834554672, -0.07782179117202759, -0.04609094560146332, 0.008328285999596119, 0.06393051147460938, 0.09249334782361984, 0.07904981821775436, 0.03213769569993019, -0.02453182451426983, -0.07096914947032928, -0.09354463964700699, -0.07580917328596115, -0.020368007943034172, 0.046151053160429, 0.09168107807636261, 0.0951508954167366, 0.052549608051776886, -0.01883011683821678, -0.08186308294534683, -0.09844163805246353, -0.05227980017662048, 0.025211453437805176, 0.07783903926610947, 0.08230405300855637, 0.05724223703145981, 0.023610273376107216, -0.016337692737579346, -0.04329643398523331, -0.038651954382658005, -0.005954165942966938, 0.03477293625473976, 0.054550621658563614, 0.04221733286976814, 0.01806694269180298, 0.0033152999822050333, -0.011719007976353168, -0.025267377495765686, -0.02196388505399227, -0.0028370595537126064, 0.01591707207262516, 0.024363765493035316, 0.022748760879039764, 0.019562503322958946, 0.02168745920062065, 0.026795867830514908, 0.03712533041834831, 0.0531831718981266, 0.05449432507157326, 0.03007335588335991, -0.006152652204036713, -0.03502315655350685, -0.04518302530050278, -0.02035399153828621, 0.03561776131391525, 0.07977557927370071, 0.08021923899650574, 0.039255909621715546, -0.01302474457770586, -0.04923940822482109, -0.0668862983584404, -0.06710600852966309, -0.03653385862708092, 0.023757725954055786, 0.07063253223896027, 0.06848644465208054, 0.023617122322320938, -0.02917693555355072, -0.06439068168401718, -0.06794944405555725, -0.03510764241218567, 0.021400321274995804, 0.0748758316040039, 0.0970127135515213, 0.07355358451604843, 0.012016651220619678, -0.054947417229413986, -0.08379342406988144, -0.06794296205043793, -0.040302541106939316, -0.020159440115094185, -0.010760858654975891, -0.009044425562024117, -0.006846932228654623, 0.004294008016586304, 0.01815720461308956, 0.026525137946009636, 0.03153830021619797, 0.03173147141933441, 0.01980813778936863, -0.0008381285006180406, -0.01901778019964695, -0.025305505841970444, -0.015219848603010178, 0.0006953038973733783, 0.009320436976850033, 0.016097184270620346, 0.02990088425576687, 0.03027871623635292, 0.0016061635687947273, -0.035408616065979004, -0.04654134064912796, -0.022471051663160324, 0.026317143812775612, 0.07984404265880585, 0.10884775221347809, 0.09481553733348846, 0.04789664223790169, 0.00047512134187854826, -0.025693226605653763, -0.03909533470869064, -0.04597938433289528, -0.03550414368510246, -0.0032525593414902687, 0.03519773855805397, 0.06190473586320877, 0.06790749728679657, 0.04857809469103813, 0.008427185006439686, -0.032945796847343445, -0.0531962551176548, -0.04776054993271828, -0.027348993346095085, 5.0536527851363644e-05, 0.02994018793106079, 0.05021939426660538, 0.045597732067108154, 0.022287901490926743, 0.005247314926236868, 0.00562851969152689, 0.010458506643772125, 0.007205447647720575, -0.006403258070349693, -0.022771118208765984, -0.034845754504203796, -0.041506633162498474, -0.04365384951233864, -0.04080018773674965, -0.03219173103570938, -0.019428526982665062, -0.007505716290324926, 0.0009623289806768298, 0.010534200817346573, 0.022237608209252357, 0.02179701440036297, -0.002269711112603545, -0.041751373559236526, -0.07206658273935318, -0.0696740373969078, -0.033659156411886215, 0.005259939003735781, 0.02268732711672783, 0.019491586834192276, 0.010780117474496365, 0.006137346848845482, 0.016804803162813187, 0.042134176939725876, 0.05251965671777725, 0.02711297944188118, -0.028021538630127907, -0.08225160837173462, -0.10188561677932739, -0.06952303647994995, 0.0028915456496179104, 0.0916396751999855, 0.15341979265213013, 0.1385359764099121, 0.04893095791339874, -0.05613996833562851, -0.10499338060617447, -0.08434741199016571, -0.008482839912176132, 0.08886194229125977, 0.15124787390232086, 0.14598610997200012, 0.0795159637928009, -0.020438795909285545, -0.11351577937602997, -0.1453464776277542, -0.09150101989507675, 0.014866041950881481, 0.11105039715766907, 0.13446412980556488, 0.07113699615001678, -0.03501390665769577, -0.11013461649417877, -0.11358948051929474, -0.06384365260601044, 0.00990976206958294, 0.07280415296554565, 0.09441723674535751, 0.06691355258226395, 0.009715007618069649, -0.050449173897504807, -0.09089305996894836, -0.08408472687005997, -0.03424340859055519, 0.018705079331994057, 0.05038005858659744, 0.061352718621492386, 0.059595219790935516, 0.042360033839941025, 0.01860101893544197, -0.002570315496996045, -0.020078061148524284, -0.02748882956802845, -0.015473329462110996, 0.012090147472918034, 0.03751921281218529, 0.044551532715559006, 0.030619416385889053, 0.005893398076295853, -0.016876213252544403, -0.022908182814717293, -0.0006759049138054252, 0.033051747828722, 0.04874185100197792, 0.03726644441485405, 0.007251395378261805, -0.032654739916324615, -0.06238000839948654, -0.05131093040108681, -0.002384376712143421, 0.05290523171424866, 0.08906025439500809, 0.08897195756435394, 0.048134610056877136, -0.015376386232674122, -0.06783118844032288, -0.08724045753479004, -0.06991754472255707, -0.024952717125415802, 0.0334903784096241, 0.09194064140319824, 0.12229171395301819, 0.09367616474628448, 0.009913570247590542, -0.08789896219968796, -0.15042422711849213, -0.14149773120880127, -0.05670030415058136, 0.06464911997318268, 0.14954419434070587, 0.14603430032730103, 0.058224957436323166, -0.061683736741542816, -0.1446705162525177, -0.15373191237449646, -0.09314883500337601, 0.009172294288873672, 0.0982881635427475, 0.12373501807451248, 0.08391851931810379, 0.014350238256156445, -0.06043853983283043, -0.10810977220535278, -0.08164161443710327, -0.0018009799532592297, 0.0787103921175003, 0.1321047842502594, 0.14160287380218506, 0.08895064145326614, -0.004606735892593861, -0.08458147943019867, -0.12121275812387466, -0.10954581201076508, -0.04627911001443863, 0.04215957969427109, 0.10609554499387741, 0.11186140775680542, 0.06525056064128876, -0.003706507384777069, -0.06213649362325668, -0.08181643486022949, -0.054954495280981064, -0.009556728415191174, 0.0241827592253685, 0.039012011140584946, 0.04394444823265076, 0.0351327508687973, 0.010377471335232258, -0.015224474482238293, -0.030352724716067314, -0.028735214844346046, -0.00227401708252728, 0.03144142031669617, 0.044420741498470306, 0.039729367941617966, 0.03952372446656227, 0.03135019168257713, -0.0028042467311024666, -0.04570072144269943, -0.06133874133229256, -0.03580794110894203, 0.017835745587944984, 0.0738135576248169, 0.11121903359889984, 0.12216685712337494, 0.09620632231235504, 0.033396437764167786, -0.03576209396123886, -0.06515108793973923, -0.04696688428521156, -0.0032388234976679087, 0.05004439502954483, 0.09128410369157791, 0.09080811589956284, 0.04351721704006195, -0.021307528018951416, -0.0694679543375969, -0.08245163410902023, -0.04963672533631325, 0.008972861804068089, 0.05641849339008331, 0.0721295028924942, 0.05554031953215599, 0.012471914291381836, -0.03538430109620094, -0.05000447481870651, -0.022075867280364037, 0.025521179661154747, 0.06158128380775452, 0.053165536373853683, -0.0049832770600914955, -0.06761696189641953, -0.0786302238702774, -0.039171602576971054, 0.020905805751681328, 0.07625459879636765, 0.10279030352830887, 0.08813395351171494, 0.04069777578115463, -0.016608843579888344, -0.06036481261253357, -0.07401835173368454, -0.05625488981604576, -0.019072648137807846, 0.024843867868185043, 0.06338299065828323, 0.07776395976543427, 0.05566009506583214, 0.01029250118881464, -0.030897635966539383, -0.05502615123987198, -0.05774356424808502, -0.0317566804587841, 0.014347478747367859, 0.0545753613114357, 0.0696132704615593, 0.05667419731616974, 0.021872375160455704, -0.022720161825418472, -0.06173688918352127, -0.08462776243686676, -0.07544931024312973, -0.022602200508117676, 0.05168692022562027, 0.09158291667699814, 0.07323583215475082, 0.020389849320054054, -0.022768665105104446, -0.03807196766138077, -0.027795415371656418, -0.0014329740079119802, 0.02970889024436474, 0.05444370210170746, 0.05387372151017189, 0.014309911988675594, -0.044656552374362946, -0.07678773254156113, -0.06415651738643646, -0.02630629390478134, 0.017405755817890167, 0.04942246153950691, 0.05731780454516411, 0.037123337388038635, -0.0034770993515849113, -0.040509793907403946, -0.041654061526060104, -0.01059726718813181, 0.013282905332744122, 0.011209365911781788, -0.007598788011819124, -0.02483203262090683, -0.030265938490629196, -0.025745371356606483, -0.02123262546956539, -0.01565907709300518, -0.005113889463245869, -0.002062395680695772, -0.015057778917253017, -0.030393701046705246, -0.0361124686896801, -0.03417687490582466, -0.023637181147933006, -0.004943705163896084, 0.018660306930541992, 0.046176452189683914, 0.06870634853839874, 0.07215487957000732, 0.05466952919960022, 0.02324843965470791, -0.008781771175563335, -0.02793397381901741, -0.03737425059080124, -0.03295444697141647, 0.007069443352520466, 0.06425268203020096, 0.07671712338924408, 0.03844655305147171, -0.011335349641740322, -0.04874742403626442, -0.07352059334516525, -0.06666252762079239, -0.0324840322136879, 0.006980665028095245, 0.0414954274892807, 0.06481985747814178, 0.05831337720155716, 0.014978689141571522, -0.042119648307561874, -0.07325102388858795, -0.05686807259917259, -0.010796801187098026, 0.03775326907634735, 0.0716739296913147, 0.08433061838150024, 0.07136811316013336, 0.03780714049935341, -0.0015246401308104396, -0.03095480240881443, -0.04345942661166191, -0.043485719710588455, -0.03076053224503994, -0.002901010913774371, 0.028400776907801628, 0.04606526345014572, 0.045027777552604675, 0.02242947556078434, -0.02378069795668125, -0.06738065183162689, -0.07389673590660095, -0.04968862980604172, -0.011317767202854156, 0.03136276453733444, 0.061614736914634705, 0.06031574681401253, 0.030704975128173828, -0.007000671233981848, -0.04082418605685234, -0.064718097448349, -0.06207803636789322, -0.02201307937502861, 0.03776400163769722, 0.0819530263543129, 0.09593280404806137, 0.08523432165384293, 0.04631120711565018, -0.019647585228085518, -0.07990941405296326, -0.0921759381890297, -0.06238573417067528, -0.013165412470698357, 0.04021016135811806, 0.07496266812086105, 0.06432952731847763, 0.016254806891083717, -0.02467709220945835, -0.03856026008725166, -0.04206058010458946, -0.03374415263533592, -0.01180498767644167, 0.013593041338026524, 0.03548765927553177, 0.04838520288467407, 0.033804140985012054, -0.01293174922466278, -0.06361360102891922, -0.08795293420553207, -0.07016970962285995, -0.007137557025998831, 0.06614000350236893, 0.10371777415275574, 0.09424739331007004, 0.05353192239999771, -0.0031210784800350666, -0.05529867112636566, -0.0788053572177887, -0.06245416775345802, -0.009150172583758831, 0.05638862028717995, 0.09399956464767456, 0.08297351747751236, 0.03280008211731911, -0.02849651873111725, -0.06727056205272675, -0.0653369352221489, -0.03394681587815285, 0.010997667908668518, 0.050133608281612396, 0.062499940395355225, 0.04392451420426369, 0.009599498473107815, -0.02937944605946541, -0.057903923094272614, -0.04406287148594856, 0.011589727364480495, 0.05881975218653679, 0.07204218208789825, 0.05738087370991707, 0.02967587299644947, -0.008434387855231762, -0.04341672360897064, -0.05225647985935211, -0.02315215766429901, 0.02955159731209278, 0.07049548625946045, 0.0753018856048584, 0.046169526875019073, -0.0016811777604743838, -0.06165033578872681, -0.11320332437753677, -0.11385279148817062, -0.05491039901971817, 0.034497860819101334, 0.10702615976333618, 0.119796521961689, 0.06934085488319397, -0.0047005233354866505, -0.05823433771729469, -0.08412811905145645, -0.0710219144821167, -0.014562278054654598, 0.04604088515043259, 0.06534393876791, 0.04119456931948662, 0.0071196844801306725, -0.018624883145093918, -0.03856872022151947, -0.047370973974466324, -0.04570874571800232, -0.04946518689393997, -0.0573589988052845, -0.049959756433963776, -0.021233713254332542, 0.011004030704498291, 0.037951476871967316, 0.057898133993148804, 0.05560308322310448, 0.030697563663125038, 0.003788911970332265, -0.020873066037893295, -0.04084574058651924, -0.029620150104165077, 0.007785981986671686, 0.025643998757004738, 0.013767173513770103, -0.00791072566062212, -0.02519933693110943, -0.02856418862938881, -0.007248427718877792, 0.024115165695548058, 0.04915602132678032, 0.06056153401732445, 0.04619671776890755, 0.006537258625030518, -0.030890734866261482, -0.04489077627658844, -0.035718243569135666, -0.005136799532920122, 0.027068180963397026, 0.03401798754930496, 0.014132739044725895, -0.009086936712265015, -0.015034446492791176, 0.0008552020881325006, 0.019738169386982918, 0.016833731904625893, -0.005623074248433113, -0.021597284823656082, -0.020953616127371788, -0.01855313777923584, -0.02065533772110939, -0.017529964447021484, 0.0012301844544708729, 0.024896716699004173, 0.034474197775125504, 0.03020588494837284, 0.02341769076883793, 0.012630585581064224, -0.0036551288794726133, -0.013344042003154755, -0.009353667497634888, -8.711589907761663e-05, 0.006370767019689083, 0.004933702759444714, -0.008470126427710056, -0.02688014693558216, -0.03338940814137459, -0.027830233797430992, -0.028015954419970512, -0.029669100418686867, -0.01662430539727211, 0.003976256120949984, 0.011337626725435257, 0.00977457594126463, 0.01181931421160698, 0.006556117907166481, -0.020146803930401802, -0.06206522136926651, -0.09806074947118759, -0.10191785544157028, -0.061689458787441254, 0.0012557139853015542, 0.054343320429325104, 0.07511553168296814, 0.061055514961481094, 0.029274197295308113, -0.000525053299497813, -0.02618574909865856, -0.041031450033187866, -0.03192963823676109, -0.009350856766104698, 0.009094120934605598, 0.021037695929408073, 0.02308741770684719, 0.0076995547860860825, -0.009267035871744156, -0.006124400999397039, 0.008888530544936657, 0.029142946004867554, 0.046639639884233475, 0.03531930223107338, -0.007842889986932278, -0.04252681881189346, -0.045196533203125, -0.04485020786523819, -0.04459364712238312, -0.028776435181498528, 0.005176118109375238, 0.04271212965250015, 0.06453698128461838, 0.05574202537536621, 0.019152062013745308, -0.022358812391757965, -0.04623217508196831, -0.04383692517876625, -0.01833393983542919, 0.016647640615701675, 0.04726645350456238, 0.06170341372489929, 0.047791868448257446, 0.011948009952902794, -0.014773568138480186, -0.02065790630877018, -0.02453318051993847, -0.019269907847046852, 0.00866512767970562, 0.03337946906685829, 0.03404676169157028, 0.02628706581890583, 0.022626301273703575, 0.0059504881501197815, -0.017901765182614326, -0.031033281236886978, -0.032529186457395554, -0.01907712034881115, 0.012581443414092064, 0.04341333732008934, 0.05732789635658264, 0.051681578159332275, 0.018087463453412056, -0.045578617602586746, -0.09490180015563965, -0.082273930311203, -0.01734844595193863, 0.06397280842065811, 0.12450363487005234, 0.13011552393436432, 0.06922215223312378, -0.03129322826862335, -0.10473054647445679, -0.10320232808589935, -0.05509433150291443, 0.014479342848062515, 0.0847056433558464, 0.12398786097764969, 0.10555516183376312, 0.04212551563978195, -0.035877425223588943, -0.11095456033945084, -0.14614298939704895, -0.11061188578605652, -0.02630620449781418, 0.07579264044761658, 0.15588097274303436, 0.1627030372619629, 0.08706212788820267, -0.028402244672179222, -0.11122451722621918, -0.11476655304431915, -0.06427706778049469, 0.0006490747909992933, 0.05430854111909866, 0.07832124084234238, 0.05993722379207611, 0.011887955479323864, -0.028429653495550156, -0.050853315740823746, -0.05826921761035919, -0.03979792073369026, -0.005283472593873739, 0.019861344248056412, 0.027096623554825783, 0.0215785950422287, 0.007395525928586721, -0.0015464385505765676, 0.011221377179026604, 0.03513387590646744, 0.04956025257706642, 0.04270195960998535, 0.017350763082504272, -0.009116734378039837, -0.02243547886610031, -0.02238111011683941, -0.007248913403600454, 0.019391998648643494, 0.039497047662734985, 0.041561566293239594, 0.027652114629745483, 0.0005417562206275761, -0.03195676580071449, -0.04879997670650482, -0.0377206988632679, -0.0017789003904908895, 0.048555657267570496, 0.08405306190252304, 0.07529161125421524, 0.023325080052018166, -0.04099094495177269, -0.08470873534679413, -0.08569188416004181, -0.03743807226419449, 0.04093628376722336, 0.10128848254680634, 0.1013503298163414, 0.04173383116722107, -0.034236840903759, -0.08273204416036606, -0.09134402871131897, -0.06136656925082207, -0.008953730575740337, 0.04314245283603668, 0.07934515923261642, 0.08740749955177307, 0.05138304457068443, -0.02537737973034382, -0.09737398475408554, -0.10704624652862549, -0.04641992971301079, 0.04270011931657791, 0.10838860273361206, 0.11507874727249146, 0.06321821361780167, -0.0170393455773592, -0.08481389284133911, -0.11195022612810135, -0.08668270707130432, -0.0160305704921484, 0.06619193404912949, 0.11384440958499908, 0.10927855968475342, 0.06591897457838058, 0.001411203877069056, -0.06029755249619484, -0.08414557576179504, -0.062330521643161774, -0.015590078197419643, 0.036027535796165466, 0.06869707256555557, 0.06106121465563774, 0.016047248616814613, -0.03579049929976463, -0.06792327761650085, -0.0710112601518631, -0.045601312071084976, -0.011750478297472, 0.006200621370226145, 0.00502766901627183, 0.00042433064663782716, 0.0024735156912356615, 0.001654143212363124, -0.006377396173775196, -0.013398743234574795, -0.00944631826132536, 0.005223446525633335, 0.022072676569223404, 0.03210802748799324, 0.031669680029153824, 0.02536018379032612, 0.02090475708246231, 0.01692100241780281, 0.0022765372414141893, -0.02658653073012829, -0.05331932753324509, -0.06118905171751976, -0.05105016380548477, -0.022498982027173042, 0.025360388681292534, 0.06828013807535172, 0.0723189115524292, 0.03859950229525566, -0.004931081086397171, -0.040498487651348114, -0.058535005897283554, -0.05066397786140442, -0.03239290043711662, -0.019040154293179512, -0.004941315855830908, 0.01464376412332058, 0.017291678115725517, -0.0084328418597579, -0.03430898115038872, -0.02445669285953045, 0.016868818551301956, 0.05655759200453758, 0.06666426360607147, 0.034055985510349274, -0.024351725354790688, -0.06045739725232124, -0.03252735733985901, 0.023616356775164604, 0.05939752608537674, 0.05865683779120445, 0.031133687123656273, -0.013088402338325977, -0.0644063949584961, -0.09456970542669296, -0.08436934649944305, -0.03791183978319168, 0.028636982664465904, 0.09005061537027359, 0.11612343788146973, 0.08639104664325714, 0.0047142356634140015, -0.08936823904514313, -0.1342361718416214, -0.10893663018941879, -0.03681046515703201, 0.04818945378065109, 0.09791835397481918, 0.08324562758207321, 0.021447930485010147, -0.038115616887807846, -0.06519349664449692, -0.05194530636072159, -0.01105071697384119, 0.02666584402322769, 0.042376235127449036, 0.03565606847405434, 0.00855409074574709, -0.03444821760058403, -0.06380130350589752, -0.05052570998668671, 0.0007917104521766305, 0.06482765078544617, 0.10801079869270325, 0.1045914739370346, 0.05301491543650627, -0.027075069025158882, -0.10508813709020615, -0.1367165595293045, -0.09835165739059448, -0.020173802971839905, 0.05915996804833412, 0.11017247289419174, 0.11683999747037888, 0.0728440210223198, -0.006198446732014418, -0.08566610515117645, -0.13187658786773682, -0.1255614161491394, -0.06833303719758987, 0.014384635724127293, 0.0833304226398468, 0.10626270622015, 0.08075671643018723, 0.025128500536084175, -0.04067737236618996, -0.08842934668064117, -0.08436376601457596, -0.03108927235007286, 0.04263142868876457, 0.109449602663517, 0.1352921426296234, 0.09128392487764359, -0.009140883572399616, -0.10169089585542679, -0.13529644906520844, -0.1212305948138237, -0.06227458268404007, 0.02598709985613823, 0.10388201475143433, 0.12461988627910614, 0.08224550634622574, 0.0027148579247295856, -0.07927895337343216, -0.11290223151445389, -0.06057362258434296, 0.02704806998372078, 0.0930209532380104, 0.11624704301357269, 0.09747975319623947, 0.02701926790177822, -0.07626106590032578, -0.13546325266361237, -0.1091557964682579, -0.035821255296468735, 0.05199110135436058, 0.1112300232052803, 0.10473070293664932, 0.03353987634181976, -0.05602923780679703, -0.11611922085285187, -0.11995089799165726, -0.06014353036880493, 0.031136473640799522, 0.10546962916851044, 0.13459986448287964, 0.1137317344546318, 0.040692564100027084, -0.06583363562822342, -0.14199088513851166, -0.13041014969348907, -0.05921914055943489, 0.03015495277941227, 0.10005223006010056, 0.12278594821691513, 0.09155204892158508, 0.021493827924132347, -0.0639527216553688, -0.12408921867609024, -0.09761889278888702, -0.005754644516855478, 0.06563209742307663, 0.08733847737312317, 0.06841379404067993, 0.025408074259757996, -0.03802626207470894, -0.08390986919403076, -0.08401647210121155, -0.04881179705262184, 0.013275315053761005, 0.07577038556337357, 0.09562752395868301, 0.06721605360507965, 0.023752769455313683, -0.01427402999252081, -0.043540626764297485, -0.056273289024829865, -0.05571898818016052, -0.040130890905857086, 0.0003395772073417902, 0.05248674377799034, 0.07293108850717545, 0.04439214617013931, -0.016614172607660294, -0.07784714549779892, -0.10261573642492294, -0.06754034757614136, 0.0035716171842068434, 0.06414711475372314, 0.07893658429384232, 0.046084124594926834, -0.003599623218178749, -0.035662200301885605, -0.04301720857620239, -0.025094356387853622, 0.0174820888787508, 0.056799061596393585, 0.057715874165296555, 0.025394529104232788, 0.001917245564982295, 0.00349086313508451, 0.007690738420933485, 0.0071999020874500275, 0.004157952964305878, -0.0020608878694474697, -0.018774189054965973, -0.04114497825503349, -0.049131643027067184, -0.031545430421829224, -0.0036328064743429422, 0.016384270042181015, 0.02776818536221981, 0.03592217341065407, 0.030175473541021347, 0.001282751327380538, -0.042163003236055374, -0.0755009576678276, -0.06768537312746048, -0.0060482085682451725, 0.06588322669267654, 0.10289625823497772, 0.09555722028017044, 0.054979462176561356, -0.008707277476787567, -0.06606408208608627, -0.08287070691585541, -0.06729334592819214, -0.03310936316847801, 0.017797209322452545, 0.07974539697170258, 0.11410131305456161, 0.08494217693805695, -0.006316422019153833, -0.10614132136106491, -0.1427410989999771, -0.09805472195148468, -0.006222251337021589, 0.0832228809595108, 0.11850187182426453, 0.08694503456354141, 0.019169209524989128, -0.04866848140954971, -0.09644290804862976, -0.0924367681145668, -0.03481856361031532, 0.037146005779504776, 0.08737793564796448, 0.09337571263313293, 0.04869812726974487, -0.02986229583621025, -0.09711959213018417, -0.11697426438331604, -0.08192197978496552, -0.00774364685639739, 0.06773433089256287, 0.10742946714162827, 0.0981689989566803, 0.04665039852261543, -0.026577765122056007, -0.08245681971311569, -0.09486705809831619, -0.07303769141435623, -0.020360251888632774, 0.057154227048158646, 0.1196967288851738, 0.1249670535326004, 0.0790075957775116, 0.010722082108259201, -0.05831629037857056, -0.10505849868059158, -0.10452766716480255, -0.06430049985647202, -0.008259757421910763, 0.033976636826992035, 0.035332538187503815, -0.004126159939914942, -0.04907658323645592, -0.06359229236841202, -0.0516713447868824, -0.02193664386868477, 0.018678246065974236, 0.05373919755220413, 0.06256520748138428, 0.036369770765304565, -0.01571609079837799, -0.06261560320854187, -0.06706338375806808, -0.030621793121099472, 0.015164167620241642, 0.04803343862295151, 0.060873843729496, 0.05640313774347305, 0.03467009961605072, -0.0023643288295716047, -0.039705678820610046, -0.0542864091694355, -0.04389438405632973, -0.02107727713882923, 0.011374042369425297, 0.05249001458287239, 0.08425793796777725, 0.08733484894037247, 0.0602663978934288, 0.012486455030739307, -0.040378108620643616, -0.08132754266262054, -0.09341897815465927, -0.061129625886678696, 0.015353121794760227, 0.10563156753778458, 0.15059325098991394, 0.11694400757551193, 0.01492755301296711, -0.09917083382606506, -0.15762284398078918, -0.13705405592918396, -0.05256643891334534, 0.059465501457452774, 0.13711880147457123, 0.1378295123577118, 0.07205122709274292, -0.020468439906835556, -0.11074517667293549, -0.1645447313785553, -0.13627558946609497, -0.03816712275147438, 0.08182501792907715, 0.15808196365833282, 0.15513794124126434, 0.08779151737689972, -0.005721129011362791, -0.09010913223028183, -0.13030074536800385, -0.10062377154827118, -0.022112641483545303, 0.06888428330421448, 0.13358499109745026, 0.13578331470489502, 0.06975456327199936, -0.022588975727558136, -0.07856954634189606, -0.08390995860099792, -0.054228004068136215, -0.001842890284024179, 0.050422556698322296, 0.07771742343902588, 0.07358085364103317, 0.050941988825798035, 0.019152292981743813, -0.012357066385447979, -0.026400770992040634, -0.013416273519396782, 0.015565739944577217, 0.03793599084019661, 0.039931073784828186, 0.03062278963625431, 0.0304966252297163, 0.034952204674482346, 0.027507830411195755, 0.011080210097134113, -0.002652423921972513, -0.018923673778772354, -0.046564724296331406, -0.06242961063981056, -0.04206446185708046, 0.0003967694938182831, 0.03390027955174446, 0.04427924379706383, 0.031071843579411507, 0.0006176931201480329, -0.02416420355439186, -0.017196213826537132, 0.004100658465176821, 0.013876830227673054, 0.012166122905910015, 0.009920725598931313, 0.0055841305293142796, 0.0007631781627424061, 0.001028427155688405, 0.001124258735217154, -0.0011518298415467143, -0.004064214415848255, -0.011361057870090008, -0.013068187981843948, 0.015188291668891907, 0.05636940151453018, 0.07073135673999786, 0.058885350823402405, 0.04038199409842491, 0.013213727623224258, -0.0220772847533226, -0.04161827266216278, -0.031825821846723557, -0.009513898752629757, 0.008760576136410236, 0.020187171176075935, 0.029120100662112236, 0.03197020664811134, 0.01995646022260189, -0.00635126605629921, -0.03542257100343704, -0.054259128868579865, -0.05806564539670944, -0.05199316143989563, -0.0398058146238327, -0.020188676193356514, 0.0029872239101678133, 0.0158943273127079, 0.011346213519573212, -0.0043683964759111404, -0.024371888488531113, -0.04246022179722786, -0.04391733556985855, -0.021020250394940376, 0.011908936314284801, 0.031139718368649483, 0.0244145430624485, 0.00028287048917263746, -0.019972875714302063, -0.022535180673003197, -0.009371071122586727, 0.012738351710140705, 0.035382602363824844, 0.04576775059103966, 0.03259778767824173, -5.311486893333495e-05, -0.0290555227547884, -0.0322301909327507, -0.012667804025113583, 0.014890983700752258, 0.04278823360800743, 0.06574844568967819, 0.06579569727182388, 0.028073517605662346, -0.03638865426182747, -0.08698403090238571, -0.091311976313591, -0.05930532515048981, -0.01611357368528843, 0.020192282274365425, 0.03959977626800537, 0.04167870804667473, 0.03428575396537781, 0.023024601861834526, 0.0052475701086223125, -0.0129183204844594, -0.016221506521105766, -0.004826688673347235, 0.0035860813222825527, 0.0023479124065488577, -0.001254842383787036, -0.004665576387196779, -0.011031844653189182, -0.007856421172618866, 0.02277314104139805, 0.060694318264722824, 0.07063984125852585, 0.048571858555078506, 0.015310853719711304, -0.007367501966655254, -0.004971649497747421, 0.01961616799235344, 0.04143575578927994, 0.05014610290527344, 0.05356038734316826, 0.044091157615184784, 0.007250475697219372, -0.03843938559293747, -0.057569775730371475, -0.043710581958293915, -0.003953037317842245, 0.049311090260744095, 0.08570310473442078, 0.08108717203140259, 0.04216913506388664, -0.00399501109495759, -0.035262033343315125, -0.040791310369968414, -0.02376970835030079, 0.00037192995660007, 0.017208829522132874, 0.021385550498962402, 0.011711140163242817, -0.016727598384022713, -0.05732642859220505, -0.0755799189209938, -0.04540681093931198, 0.010824097320437431, 0.05882959067821503, 0.07900737226009369, 0.06386202573776245, 0.019115135073661804, -0.02825641632080078, -0.052495650947093964, -0.05309506878256798, -0.03501312807202339, -0.00788611639291048, 0.01284821331501007, 0.017705773934721947, 0.008035731501877308, -0.0087020518258214, -0.02011258527636528, -0.016684167087078094, -0.002956107724457979, 0.013119403272867203, 0.024233000352978706, 0.02124786004424095, 0.0017383344238623977, -0.02498181164264679, -0.043543145060539246, -0.035329919308423996, 0.003926193807274103, 0.03999209776520729, 0.04185353219509125, 0.013757437467575073, -0.012279941700398922, -0.010992949828505516, 0.013383336365222931, 0.030281374230980873, 0.020796429365873337, -0.006410758476704359, -0.033234454691410065, -0.0540846511721611, -0.053746264427900314, -0.019679566845297813, 0.03592130169272423, 0.08126022666692734, 0.08413882553577423, 0.040989410132169724, -0.013171877712011337, -0.04391748830676079, -0.06281930953264236, -0.06806658953428268, -0.04324808344244957, 0.004953022580593824, 0.05549541860818863, 0.09018342196941376, 0.0916353315114975, 0.05630725249648094, 0.000727337202988565, -0.05363849923014641, -0.07410988211631775, -0.03251270204782486, 0.03037191554903984, 0.07572635263204575, 0.1013951525092125, 0.09956750273704529, 0.03583025187253952, -0.0634005144238472, -0.11258544027805328, -0.08884099125862122, -0.02259453386068344, 0.05955550819635391, 0.1174122542142868, 0.12661518156528473, 0.08738171309232712, 0.005399188492447138, -0.09596501290798187, -0.14080829918384552, -0.08807733654975891, 0.0025908390525728464, 0.08262522518634796, 0.11575087159872055, 0.09009372442960739, 0.017336810007691383, -0.06379172205924988, -0.1091175526380539, -0.10471329838037491, -0.06571926176548004, -0.009259548969566822, 0.04338596761226654, 0.06851606070995331, 0.057127878069877625, 0.02825692668557167, 0.003977201879024506, -0.012455121614038944, -0.018760887905955315, -0.01693754643201828, -0.011316323652863503, 0.004665885586291552, 0.03601445257663727, 0.059116754680871964, 0.05269422382116318, 0.017689520493149757, -0.03328409418463707, -0.08539614826440811, -0.11091863363981247, -0.09556110203266144, -0.051239974796772, 0.007821938022971153, 0.06658867746591568, 0.1034582108259201, 0.09905271977186203, 0.05419464036822319, -0.013640391640365124, -0.07382015138864517, -0.0904165580868721, -0.05448921397328377, 0.007986538112163544, 0.06288791447877884, 0.08281006664037704, 0.06096305698156357, 0.014286964200437069, -0.028182484209537506, -0.049509525299072266, -0.04944078251719475, -0.03576843440532684, -0.019299691542983055, -0.0032848098780959845, 0.014176157303154469, 0.02261490374803543, 0.005745025351643562, -0.026914263144135475, -0.05094471201300621, -0.061006639152765274, -0.05300159007310867, -0.01961389183998108, 0.01729157753288746, 0.022522803395986557, -0.003191546769812703, -0.03241119906306267, -0.05268310755491257, -0.06310579925775528, -0.046067025512456894, 0.007252801209688187, 0.06890858709812164, 0.09347591549158096, 0.06115392595529556, -0.013396481052041054, -0.08967094123363495, -0.12611564993858337, -0.09587641805410385, -0.00925059150904417, 0.07870400696992874, 0.11113291233778, 0.08207786083221436, 0.030831217765808105, -0.019735801964998245, -0.06987025588750839, -0.086765356361866, -0.049110740423202515, 0.0037635869812220335, 0.03899872303009033, 0.05131647363305092, 0.04837610572576523, 0.02733052894473076, -0.00659490842372179, -0.04001514986157417, -0.055017437785863876, -0.030699480324983597, 0.026332605630159378, 0.07784857600927353, 0.09844110906124115, 0.08184106647968292, 0.03435010090470314, -0.020261239260435104, -0.05220014229416847, -0.05642819404602051, -0.036413826048374176, 0.0036078542470932007, 0.047158073633909225, 0.07307199388742447, 0.06880772113800049, 0.03069659322500229, -0.029396235942840576, -0.07403101772069931, -0.07049400359392166, -0.024309342727065086, 0.04048485308885574, 0.09165304154157639, 0.1027330607175827, 0.07123180478811264, 0.015548516064882278, -0.03996383398771286, -0.07057115435600281, -0.061675723642110825, -0.024691607803106308, 0.022490553557872772, 0.06702558696269989, 0.08874845504760742, 0.06250134110450745, -0.005407887510955334, -0.06654886901378632, -0.07770410180091858, -0.04449080303311348, 0.015096292831003666, 0.07834170758724213, 0.11045350879430771, 0.08527789264917374, 0.009471365250647068, -0.0763687789440155, -0.12234148383140564, -0.10268105566501617, -0.02883732132613659, 0.07085371762514114, 0.1443435698747635, 0.14142127335071564, 0.06478364020586014, -0.032395265996456146, -0.09564493596553802, -0.11968023329973221, -0.09658750146627426, -0.02538389526307583, 0.060653991997241974, 0.10426503419876099, 0.07996540516614914, 0.010699721053242683, -0.05671292915940285, -0.08909749984741211, -0.07353560626506805, -0.022386373952031136, 0.03521762043237686, 0.06891390681266785, 0.05795133858919144, 0.002128573367372155, -0.06422840803861618, -0.08822611719369888, -0.059292931109666824, -0.004815904423594475, 0.05132388696074486, 0.0829199030995369, 0.07779787480831146, 0.05192678049206734, 0.022306913509964943, -0.01620693877339363, -0.04755651578307152, -0.03851941227912903, 0.002909383038058877, 0.037124358117580414, 0.042054906487464905, 0.018961293622851372, -0.0114761833101511, -0.02285914309322834, -0.008385858498513699, 0.014666584320366383, 0.02973342314362526, 0.029088003560900688, 0.01618657447397709, 0.0020059854723513126, -0.0034039607271552086, 0.0038318445440381765, 0.02124090865254402, 0.03889920935034752, 0.04464363306760788, 0.02941158227622509, -0.006329812575131655, -0.04281289502978325, -0.05462599918246269, -0.043801914900541306, -0.02320648729801178, 0.0017335045849904418, 0.021749045699834824, 0.02667100541293621, 0.018315518274903297, -0.001334535889327526, -0.03875693306326866, -0.07323522120714188, -0.07017149776220322, -0.0285184308886528, 0.026736682280898094, 0.07210870087146759, 0.0916968435049057, 0.07821331918239594, 0.03215962275862694, -0.03037186525762081, -0.07331650704145432, -0.07715307921171188, -0.05770900100469589, -0.015021017752587795, 0.049068085849285126, 0.09075450152158737, 0.07753493636846542, 0.027574580162763596, -0.02462165057659149, -0.07102291285991669, -0.08470781147480011, -0.04560518264770508, 0.013015802949666977, 0.05342065542936325, 0.05726860836148262, 0.02521124854683876, -0.027057766914367676, -0.06095528602600098, -0.041269827634096146, 0.01894703507423401, 0.07404763996601105, 0.08936083316802979, 0.06411642581224442, 0.02872537635266781, 0.002179223345592618, -0.02166919596493244, -0.040358878672122955, -0.040953852236270905, -0.02647026814520359, -0.011531177908182144, 0.00495194923132658, 0.029442554339766502, 0.04770832881331444, 0.044790882617235184, 0.02293866127729416, -0.012242822907865047, -0.05226369947195053, -0.07380148023366928, -0.06775746494531631, -0.04788713529706001, -0.020702295005321503, 0.008809386752545834, 0.03129616752266884, 0.037324968725442886, 0.021212263032794, -0.014472554437816143, -0.04550452157855034, -0.04331304505467415, -0.015065214596688747, 0.013312753289937973, 0.02267942950129509, 0.010133880190551281, -0.007395395077764988, -0.007600014563649893, 0.008322357200086117, 0.029066894203424454, 0.04797535389661789, 0.05290868505835533, 0.033541079610586166, -0.004895827732980251, -0.04592117294669151, -0.06766273081302643, -0.05141269043087959, -0.009006745181977749, 0.03123391419649124, 0.05370444431900978, 0.055035173892974854, 0.03579840809106827, 0.012273275293409824, 0.013357474468648434, 0.03777657821774483, 0.055955588817596436, 0.05403878167271614, 0.037264298647642136, 0.018566366285085678, 0.002868648385629058, -0.005205465946346521, -0.003747408278286457, -0.0013098751660436392, -0.004421845078468323, -0.007507786154747009, -0.0036967708729207516, 0.0058031887747347355, 0.01825753226876259, 0.03108365088701248, 0.042068399488925934, 0.04662404954433441, 0.03012852929532528, -0.014727977104485035, -0.062296584248542786, -0.07989903539419174, -0.07480800151824951, -0.052532896399497986, -0.008892091922461987, 0.04237935319542885, 0.06848800182342529, 0.06035039946436882, 0.03711395710706711, 0.014679822139441967, -0.004513907246291637, -0.01182325929403305, 0.0023125186562538147, 0.029187386855483055, 0.04700890928506851, 0.04442329704761505, 0.02146259881556034, -0.016542617231607437, -0.050408873707056046, -0.053528062999248505, -0.028301749378442764, 0.00354672665707767, 0.026696713641285896, 0.0304558128118515, 0.00974577572196722, -0.024566631764173508, -0.048941805958747864, -0.044761624187231064, -0.003966095857322216, 0.053781621158123016, 0.08552072197198868, 0.07089827954769135, 0.02187631092965603, -0.034042224287986755, -0.07033795118331909, -0.0675087496638298, -0.03257926180958748, 0.01798662357032299, 0.0675419270992279, 0.08668436855077744, 0.05322975665330887, -0.015814222395420074, -0.07531734555959702, -0.10398799180984497, -0.08878486603498459, -0.01977676711976528, 0.07724393904209137, 0.14126043021678925, 0.14054535329341888, 0.08032095432281494, -0.012012827210128307, -0.08975747972726822, -0.11396794021129608, -0.0936191976070404, -0.04368384927511215, 0.018142560496926308, 0.06110662594437599, 0.06036476045846939, 0.024594681337475777, -0.014656703919172287, -0.04191528633236885, -0.0569438673555851, -0.056381821632385254, -0.03259492665529251, 0.019985081627964973, 0.08673399686813354, 0.121580109000206, 0.09884048253297806, 0.02983725257217884, -0.045721571892499924, -0.08841856569051743, -0.08446488529443741, -0.040580134838819504, 0.025247178971767426, 0.08293186128139496, 0.10417845845222473, 0.08301953971385956, 0.03041558898985386, -0.03702174499630928, -0.08810912817716599, -0.08399426192045212, -0.022281726822257042, 0.05785151943564415, 0.10646658390760422, 0.09777902811765671, 0.04428775608539581, -0.019775284454226494, -0.06506053358316422, -0.07273975759744644, -0.045576561242341995, -0.003911957144737244, 0.035670939832925797, 0.05862530320882797, 0.048433758318424225, 0.0075940634123981, -0.0328013077378273, -0.04930605739355087, -0.04238627851009369, -0.012053792364895344, 0.03079293668270111, 0.0593344047665596, 0.0550687275826931, 0.022799666970968246, -0.015420558862388134, -0.037115491926670074, -0.037147242575883865, -0.02124730870127678, 0.006550368387252092, 0.035592153668403625, 0.05028409883379936, 0.045606959611177444, 0.023158716037869453, -0.014669494703412056, -0.0471600703895092, -0.04619988799095154, -0.01900869607925415, 0.010791847482323647, 0.030841082334518433, 0.03392849117517471, 0.013728738762438297, -0.02014019712805748, -0.0385144017636776, -0.023072566837072372, 0.011300597339868546, 0.04437847435474396, 0.065409816801548, 0.06448901444673538, 0.033345531672239304, -0.014372749254107475, -0.04965857416391373, -0.05845717713236809, -0.04122913256287575, -0.011820882558822632, 0.010324368253350258, 0.022695351392030716, 0.03208574280142784, 0.021928034722805023, -0.01866067387163639, -0.054369665682315826, -0.04998987168073654, -0.021925706416368484, 0.011331059038639069, 0.040339238941669464, 0.0564621165394783, 0.04957783594727516, 0.013461688533425331, -0.043188631534576416, -0.07909070700407028, -0.055086053907871246, 0.0011576208053156734, 0.04633788391947746, 0.05636066198348999, 0.0265341829508543, -0.03281034156680107, -0.0884905755519867, -0.0971074178814888, -0.04644046351313591, 0.03305070102214813, 0.09283049404621124, 0.09738492220640182, 0.04400378838181496, -0.03673555329442024, -0.09225328266620636, -0.08840739727020264, -0.06092024967074394, -0.0336233526468277, -0.0022766494657844305, 0.03077162243425846, 0.037329260259866714, 0.011222807690501213, -0.01667853258550167, -0.026135841384530067, -0.024783095344901085, -0.015463273972272873, -0.005877385381609201, -0.00635274825617671, -0.011072834953665733, -0.006767609156668186, -0.0005271743284538388, -0.0045846691355109215, -0.013158014044165611, -0.018224436789751053, -0.022675644606351852, -0.020179016515612602, 0.0010024887742474675, 0.02549544721841812, 0.025375720113515854, 0.001840541954152286, -0.02186887152493, -0.03665575757622719, -0.04293812811374664, -0.029754914343357086, 0.0005342047079466283, 0.022043542936444283, 0.01996476575732231, 0.003046077210456133, -0.014181992970407009, -0.024672556668519974, -0.022645963355898857, -0.011189122684299946, -0.002159722149372101, -0.004837140440940857, -0.020265022292733192, -0.035336729139089584, -0.027834808453917503, 0.0001292461674893275, 0.016053790226578712, 0.012199880555272102, 0.006809446029365063, 0.010194242000579834, 0.011599847115576267, 0.007711846847087145, 0.00013739823771174997, -0.004838098771870136, 0.0034762455616146326, 0.022669080644845963, 0.041102826595306396, 0.05514395982027054, 0.058125805109739304, 0.04095859080553055, 0.008021880872547626, -0.03219838812947273, -0.0728800818324089, -0.08651943504810333, -0.057669248431921005, -0.007702005095779896, 0.04636548459529877, 0.09389473497867584, 0.10333076864480972, 0.06162638962268829, 