{"model": "FIR_MLP", "benchmark": "WH", "meta": {"LR": 0.001, "n_re": 10, "n_hs": [2, 4, 8, 16, 32], "n_look": [2, 4, 8, 16, 32], "n_opt": 10000, "batch_len": 200}, "nh_xval": 32, "look_xval": 32, "theta": {"params": {"Dense_0": {"bias": [0.03682935982942581, 0.16375765204429626, 0.07174903154373169, -0.04119252786040306, -0.009285595268011093, -0.046880610287189484, -0.17247547209262848, -0.032768119126558304, 0.18516510725021362, 0.014001473784446716, -0.012303623370826244, 0.029945380985736847, 0.026058228686451912, -0.21352264285087585, 0.04079433158040047, 0.18341010808944702, -0.07809136807918549, 0.10045163333415985, 0.06857992708683014, -0.09937745332717896, -0.07825882732868195, -0.1868390291929245, 0.9305019974708557, 0.04591881111264229, 0.7086385488510132, -0.1772502362728119, -0.11228375136852264, 0.048155441880226135, -0.012867174111306667, -1.3054082955932245e-05, 0.13882341980934143, 0.06574437767267227], "kernel": [[-0.16549190878868103, 0.06967131048440933, -0.09031188488006592, 0.08068278431892395, -0.2155391126871109, 0.09443730860948563, -0.29353293776512146, 0.09150008112192154, 0.008924363180994987, 0.271287739276886, 0.04944221302866936, 0.02237142249941826, 0.16969087719917297, 0.15112115442752838, 0.021515220403671265, 0.1761626899242401, -0.041066061705350876, 0.0015899582067504525, 0.18598534166812897, 0.08826074004173279, 0.20696409046649933, 0.01358652301132679, 0.1889074444770813, 0.15143753588199615, 0.033024419099092484, -0.13637909293174744, -0.006536736618727446, 0.0021827751770615578, -0.14759203791618347, -0.004901140928268433, -0.1820167452096939, 0.27412497997283936], [0.05738243833184242, 0.22909890115261078, 0.03799910470843315, -0.1184539794921875, 0.037680771201848984, -0.0580400675535202, -0.30339938402175903, -0.14503784477710724, 0.01928744651377201, -0.27088454365730286, 0.039224009960889816, 0.06315193325281143, -0.004198838956654072, 0.07989678531885147, 0.30773964524269104, 0.10323784500360489, 0.120642751455307, -0.02087743766605854, -0.1397082805633545, 0.1995624452829361, -0.1551607847213745, -0.08071928471326828, 0.02708003669977188, -0.02073391154408455, -0.2185320109128952, -0.055449478328228, 0.18467029929161072, 0.20012855529785156, -0.2753067910671234, -0.2482716292142868, -0.12557342648506165, -0.15459762513637543], [0.028845101594924927, 0.02088257297873497, 0.08383751660585403, -0.3429897427558899, 0.2724422514438629, 0.012351206503808498, -0.46964937448501587, 0.40810680389404297, 0.2797938585281372, -0.05682867392897606, 0.15024562180042267, 0.15574811398983002, 0.28570273518562317, -0.014787099324166775, 0.2434541881084442, 0.007281107362359762, -0.13005822896957397, -0.09154165536165237, 0.048352379351854324, 0.1758461594581604, -0.12861208617687225, 0.09206000715494156, 0.005095168016850948, -0.23875290155410767, 0.260038286447525, 0.07904360443353653, -0.318450003862381, -0.3504108786582947, 0.12143820524215698, 0.3240011930465698, 0.2444016933441162, 0.09515047073364258], [0.01560474094003439, 0.06050274893641472, 0.11817015707492828, 0.3239610195159912, 0.32094934582710266, 0.1270342916250229, 0.13986046612262726, 0.04924963414669037, -0.033154454082250595, -0.08745492994785309, -0.3331410884857178, -0.28926002979278564, -0.03532157838344574, -0.23689819872379303, 0.09505604952573776, -0.01103134360164404, 0.18719489872455597, -0.12555620074272156, -0.01678055338561535, 0.11287551373243332, 0.16104580461978912, 0.04927526414394379, -0.16358812153339386, 0.2558737099170685, 0.13801100850105286, 0.1283237189054489, 0.012719047255814075, 0.2636009156703949, 0.03321060538291931, 0.10567489266395569, 0.0692584365606308, -0.2770163118839264], [0.3125639855861664, 0.3637199103832245, 0.3471738398075104, -0.007007765118032694, 0.03226913884282112, -0.1472603976726532, -0.15508604049682617, 0.3530055284500122, 0.22143375873565674, 0.04955582320690155, 0.31533220410346985, 0.006983238738030195, -0.22031927108764648, -0.00464891642332077, 0.0986478328704834, -0.04451795667409897, 0.18438127636909485, 0.20997324585914612, -0.23644369840621948, -0.11049722135066986, 0.10173489153385162, -0.25927016139030457, 0.33504733443260193, -0.11285202950239182, -6.828643381595612e-05, 0.04551041126251221, 0.1794370412826538, 0.24123428761959076, 0.24878448247909546, -0.29292768239974976, 0.26892030239105225, -0.11667148023843765], [0.08576442301273346, 0.19943346083164215, 0.06917977333068848, -0.05559050291776657, 0.17345061898231506, 0.35369014739990234, 0.06675532460212708, -0.10732773691415787, 0.36342567205429077, -0.21417579054832458, -0.09494691342115402, -0.31287944316864014, 0.17749297618865967, -0.026090489700436592, -0.22215032577514648, -0.17820750176906586, 0.13572514057159424, -0.05772871524095535, -0.02804366685450077, 0.06161870062351227, 0.025617212057113647, -0.26259851455688477, 0.17049217224121094, 0.03439866378903389, -0.004539483226835728, -0.02190399169921875, 0.2642132341861725, 0.20811715722084045, -0.19230037927627563, 0.23398709297180176, -0.017453564330935478, 0.26399195194244385], [0.2595473825931549, 0.09696056693792343, -0.12809835374355316, 0.2054925113916397, 0.2468552440404892, 0.12647631764411926, 0.10897289961576462, 0.02304682508111, 0.23161838948726654, 0.17099478840827942, -0.14534911513328552, 0.2756601870059967, 0.24926695227622986, 0.09132155030965805, 0.12133727222681046, -0.2287708967924118, -0.029538070783019066, 0.03142250329256058, 0.06909576058387756, 0.25398215651512146, 0.21931691467761993, -0.07873581349849701, 0.004825098440051079, -0.44531163573265076, 0.056641802191734314, -0.02062690444290638, 0.2526455819606781, -0.026140345260500908, 0.09151965379714966, -0.23956429958343506, 0.024815794080495834, -0.1371179074048996], [-0.03559214621782303, 0.082957424223423, 0.021770264953374863, 0.01527092419564724, -0.03506023809313774, -0.059701088815927505, -0.21280695497989655, 0.2160417139530182, 0.17500784993171692, -0.04334518685936928, -0.31821900606155396, -0.10018136352300644, 0.054681479930877686, 0.19891606271266937, 0.14102962613105774, 0.05110415816307068, 0.06982918828725815, -0.11233093589544296, 0.03564994037151337, -0.04136982560157776, 0.1556287705898285, -0.1653294861316681, -0.053643498569726944, -0.33551445603370667, 0.08670102804899216, -0.0520266555249691, 0.3027198910713196, -0.011560219340026379, 0.28622615337371826, 0.09944618493318558, 0.17121735215187073, -0.06920389831066132], [-0.23172616958618164, 0.234800323843956, -0.06312750279903412, -0.25685083866119385, 0.024697471410036087, 0.19675599038600922, -0.15719947218894958, 0.18479861319065094, 0.010370318777859211, 0.002555005019530654, 0.18042506277561188, 0.3165445327758789, 0.17080557346343994, 0.5228959918022156, 0.07867807149887085, -0.09168395400047302, -0.15941165387630463, -0.44894179701805115, 0.007333308923989534, 0.044816337525844574, 0.035462141036987305, -0.1434231996536255, 0.019501876085996628, -0.0027015337254852057, -0.1360107809305191, -0.24215906858444214, 0.20243796706199646, -0.03282296285033226, -0.0969318300485611, 0.17927716672420502, 0.3244144022464752, -0.36630260944366455], [-0.141105055809021, 0.16618263721466064, -0.1783435046672821, 0.05361222103238106, 0.04781179130077362, 0.3996674120426178, -0.2818106412887573, -0.2670402526855469, 0.4192661941051483, -0.1701541244983673, -0.3082667291164398, 0.1477329283952713, 0.02037879265844822, 0.2607331871986389, -0.02931145578622818, -0.04655516520142555, -0.3557920753955841, -0.24182511866092682, -0.31398096680641174, -0.2831072211265564, 0.22908815741539001, -0.2108815461397171, 0.25212550163269043, -0.2764389216899872, -0.3910982012748718, 0.12400636076927185, 0.14605405926704407, -0.19165347516536713, 0.02172737941145897, 0.18493124842643738, 0.22020621597766876, -0.10697987675666809], [0.2817586660385132, -0.23234570026397705, 0.17002935707569122, -0.29164355993270874, 0.0945206955075264, -0.11811179667711258, -0.27812281250953674, -0.047507282346487045, 0.35225364565849304, 0.14868400990962982, -0.034066490828990936, -0.21492359042167664, -0.29203155636787415, -0.16651231050491333, 0.2625665068626404, -0.12117369472980499, 0.14912989735603333, -0.37489253282546997, 0.031435802578926086, 0.22510217130184174, 0.016751514747738838, -0.2724633514881134, 0.05859047546982765, -0.2865650951862335, -0.3362492620944977, 0.2652239501476288, 0.4322522282600403, -0.059736449271440506, -0.24246519804000854, -0.02207588404417038, -0.11500855535268784, -0.19623203575611115], [0.0010924468515440822, 0.063797228038311, -0.22420749068260193, -0.28721413016319275, 0.0024958958383649588, 0.28523457050323486, -0.3610469400882721, 0.02794489450752735, 0.19720816612243652, -0.04478565230965614, 0.09810582548379898, -0.08048161119222641, -0.04703349620103836, 0.4115055799484253, -0.04624496400356293, -0.3448323607444763, -0.01227204967290163, 0.05925629660487175, -0.025838956236839294, -0.13625288009643555, -0.04409543424844742, -0.33190250396728516, 0.07206432521343231, -0.037083934992551804, -0.6776502132415771, 0.18267865478992462, -0.07669083029031754, 0.27558186650276184, -0.06779411435127258, 0.13338309526443481, 0.20596110820770264, -0.15727649629116058], [-0.013591594994068146, -0.03702903911471367, 0.030072961002588272, 0.3360757529735565, -0.19815313816070557, 0.28922566771507263, -0.44496139883995056, -0.11981262266635895, 0.2746180295944214, 0.057384707033634186, -0.0012265831464901567, -0.10255171358585358, 0.12487576901912689, -0.03984585776925087, 0.014762215316295624, -0.060817670077085495, 0.15051451325416565, -0.2194584608078003, -0.07206105440855026, -0.16309668123722076, -0.14153486490249634, -0.19294171035289764, -0.30706480145454407, 0.021226221695542336, -0.6959977746009827, -0.28559643030166626, -0.2651877701282501, 0.15084682404994965, -0.13976028561592102, 0.2684016525745392, -0.0818321481347084, -0.12672509253025055], [0.2502029538154602, -0.11508320271968842, -0.004399723373353481, -0.25733116269111633, 0.08194722980260849, 0.28550833463668823, -0.19022314250469208, 0.06337340176105499, 0.027483748272061348, -0.06027118116617203, -0.2263900339603424, -0.1047973781824112, -0.055066559463739395, 0.4127448797225952, 0.0004219737893436104, 0.22849662601947784, -0.127666175365448, 0.11330477893352509, -0.0384114533662796, -0.0588725283741951, -0.17163114249706268, -0.3011817932128906, -0.3647218644618988, 0.24291086196899414, -0.5779113173484802, -0.1283218413591385, 0.11710371822118759, 0.1995881199836731, 0.11584418267011642, -0.20400802791118622, 0.2807648777961731, -0.12167254835367203], [-0.017471451312303543, -0.13612636923789978, 0.017081886529922485, -0.05599118024110794, 0.14733368158340454, 0.2881554663181305, -0.26526734232902527, -0.1660749763250351, 0.19556528329849243, 0.18769703805446625, -0.26361870765686035, -0.15792563557624817, -0.1735541820526123, 0.1683444082736969, -0.20252886414527893, -0.009041735902428627, 0.3243401050567627, -0.08276733011007309, -0.2283569574356079, -0.11833605170249939, -0.2951485812664032, 0.2671227753162384, -0.757207453250885, 0.08635785430669785, -0.2551686763763428, -0.0030604342464357615, 0.11812969297170639, -0.06620616465806961, -0.21115146577358246, 0.3532995879650116, 0.04819324240088463, -0.015006146393716335], [-0.07749311625957489, 0.26122963428497314, -0.06867659837007523, -0.30201810598373413, 0.21259434521198273, -0.05239153653383255, 0.024279456585645676, 0.2956767976284027, -0.05713622272014618, 0.09199881553649902, 0.06755232065916061, -0.36915215849876404, 0.21535052359104156, 0.21974746882915497, 0.02791757509112358, -0.13472430408000946, 0.415025919675827, -0.13516125082969666, -0.2120443433523178, 0.07895974069833755, -0.23240244388580322, 0.16075360774993896, -0.835637092590332, -0.22212450206279755, -0.39337316155433655, 0.12526561319828033, 0.0989360511302948, 0.0792752206325531, -0.37212130427360535, -0.2687952220439911, -0.14619557559490204, 0.014683389104902744], [0.1654960811138153, 0.3621567189693451, 0.14455392956733704, -0.10784339159727097, -0.3936787545681, 0.1525135338306427, -0.3257167935371399, -0.33198466897010803, -0.191700741648674, 0.07822129875421524, -0.19654294848442078, -0.10947266221046448, -0.1492820382118225, -0.07858359068632126, 0.01773925870656967, 0.16906940937042236, -0.19759532809257507, -0.018129466101527214, -0.10893914848566055, -0.2898099720478058, 0.004043898545205593, 0.08593297749757767, -0.9993513822555542, -0.11948398500680923, -0.01396291796118021, 0.3469516336917877, -0.3914415240287781, 0.01780875213444233, 0.21656757593154907, -0.09168371558189392, -0.23213811218738556, -0.07844002544879913], [0.08098497986793518, -0.01599508337676525, 0.1312752664089203, -0.1744946390390396, -0.13665184378623962, -0.03408518433570862, -0.33660805225372314, 0.1337176263332367, 0.2278781235218048, -0.30894026160240173, 0.2935447692871094, -0.2936316728591919, -0.20209941267967224, 0.4472099244594574, 0.04878578335046768, -0.2707322835922241, 0.27953967452049255, -0.3129088878631592, -0.09159417450428009, -0.3338700234889984, -0.2196352779865265, -0.2346128672361374, -0.6140592694282532, 0.106612928211689, 0.12279614061117172, 0.042274631559848785, 0.20008538663387299, 0.19693084061145782, -0.28861433267593384, 0.24941575527191162, -0.22862334549427032, 0.2876594662666321], [0.15376192331314087, 0.1030060350894928, -0.3062945306301117, 0.23588505387306213, 0.23495082557201385, 0.14850105345249176, -0.12114576250314713, 0.06945666670799255, 0.18576902151107788, 0.05599157139658928, 0.20486629009246826, 0.09793965518474579, -0.01917548105120659, 0.276231974363327, -0.2667774260044098, -0.32053709030151367, 0.3674202561378479, -0.21141020953655243, -0.054330866783857346, 0.3486710786819458, -0.01682255230844021, -0.41331422328948975, -0.43314647674560547, -0.47641509771347046, 0.16815052926540375, 0.37877821922302246, 0.21987351775169373, -0.20041564106941223, 0.05227763205766678, 0.12454564869403839, -0.396087110042572, 0.031056541949510574], [-0.03944134712219238, 0.08052072674036026, 0.26263439655303955, 0.06176634877920151, -0.08638415485620499, -0.1868540644645691, -0.16290687024593353, -0.14888419210910797, 0.24969486892223358, 0.009040464647114277, 0.11015836894512177, -0.08637852966785431, -0.20218497514724731, -0.137448251247406, 0.05741380155086517, -0.20166146755218506, 0.15740562975406647, -0.2934372127056122, -0.20411740243434906, -0.13386312127113342, -0.16382312774658203, -0.11716806143522263, -0.23484306037425995, -0.24130171537399292, 0.46173039078712463, 0.2027042955160141, 0.2111336588859558, 0.3066920042037964, 0.32716405391693115, -0.03164075314998627, -0.214314267039299, 0.04643538221716881], [0.2647690773010254, 0.017935125157237053, 0.1574576050043106, -0.06949467957019806, 0.13800224661827087, 0.08640339225530624, -0.34710898995399475, 0.14911136031150818, -0.27704304456710815, 0.08851785212755203, -0.06777603924274445, 0.26994889974594116, -0.08531860262155533, -0.21370548009872437, -0.10501790046691895, -0.37564319372177124, -0.0525747649371624, -0.039968252182006836, -0.2722948491573334, -0.07233060896396637, 0.2557086646556854, -0.16145925223827362, 0.14197175204753876, -0.0772467851638794, -0.1322454810142517, 0.27580398321151733, 0.30464428663253784, -0.09824559837579727, -0.12527963519096375, -0.23186388611793518, -0.6260348558425903, 0.14000454545021057], [0.07211818546056747, 0.0552055798470974, 0.00685577979311347, -0.3026069104671478, -0.08528216928243637, 0.04055292531847954, 0.26239386200904846, -0.21522890031337738, 0.27730709314346313, -0.2693338394165039, -0.08545100688934326, 0.2406863570213318, 0.2385740876197815, 0.08760618418455124, -0.10465355962514877, -0.3622303903102875, 0.15876765549182892, -0.051673516631126404, -0.29012757539749146, 0.26856064796447754, 0.020653601735830307, -0.15747542679309845, 0.1388075351715088, 0.25298359990119934, -0.00581907294690609, 0.40927034616470337, 0.21671193838119507, -0.06895359605550766, -0.02577165886759758, -0.2678225636482239, -0.3074149191379547, -0.27821147441864014], [-0.07566369324922562, 0.2247326523065567, -0.1633577048778534, 0.05921723693609238, -0.3394883871078491, 0.09144880622625351, -0.12666890025138855, -0.05693945288658142, 0.15521900355815887, 0.12850846350193024, -0.06359007209539413, -0.08197067677974701, 0.05262843146920204, -0.012053726240992546, -0.07768581807613373, -0.25917723774909973, 0.029284244403243065, 0.0021018991246819496, 0.09433482587337494, 0.14966383576393127, 0.41875573992729187, -0.12254975736141205, 0.12689855694770813, 0.3251214027404785, 0.17368356883525848, 0.16956807672977448, 0.0844261646270752, 0.10442840307950974, 0.1595286875963211, -0.14490975439548492, -0.2380836009979248, -0.181558296084404], [-0.08365868777036667, 0.04987521842122078, 0.11176927387714386, -0.006831176578998566, -0.40687841176986694, 0.03345446288585663, 0.08792739361524582, -0.1856936812400818, 0.3456760048866272, 0.2854926586151123, 0.016881300136446953, 0.11700727045536041, -0.2437671273946762, 0.12769269943237305, 0.35750898718833923, 0.22685149312019348, 0.46173545718193054, -0.07585009187459946, -0.19908295571804047, 0.3406890332698822, 0.10756649076938629, -0.17988789081573486, 0.46234777569770813, 0.022084422409534454, 0.1645345389842987, -0.1804727166891098, 0.007570463232696056, -0.02703540213406086, -0.13514520227909088, -0.20992885529994965, -0.042867261916399, -0.1882975548505783], [-0.033957820385694504, 0.17779672145843506, 0.016892777755856514, 0.2333824336528778, -0.1762118935585022, 0.31104299426078796, -0.17157867550849915, -0.14925970137119293, 0.18288138508796692, 0.13457240164279938, -0.218036487698555, 0.13724346458911896, 0.013327719643712044, 0.1543608158826828, -0.012965736910700798, -0.24887242913246155, 0.220530703663826, -0.12200147658586502, 0.2506844401359558, -0.2831380367279053, 0.318423867225647, -0.27287426590919495, 0.32375457882881165, -0.10185232758522034, -0.1644943654537201, -0.31042367219924927, -0.161454439163208, -0.22100956737995148, 0.21492916345596313, 0.08038018643856049, -0.166087344288826, -0.04251474514603615], [-0.14455905556678772, 0.2201775461435318, 0.1511377990245819, 0.12699063122272491, -0.03582564368844032, 0.1760270893573761, -0.08775416016578674, 0.3518436551094055, 0.2544315457344055, 0.1902439445257187, 0.09823018312454224, -0.09183438122272491, 0.28542229533195496, 0.3084656000137329, 0.09773962944746017, 0.3985929787158966, 0.04709826037287712, 0.0729190856218338, 0.3035583794116974, -0.016784390434622765, -0.24233955144882202, -0.4320314824581146, 0.10154744237661362, 0.1915997862815857, -0.020981959998607635, 0.02877497673034668, -0.17549243569374084, 0.2736336886882782, 0.16357016563415527, -0.11449457705020905, 0.05605877563357353, -0.03376542404294014], [-0.29637056589126587, 0.1137610450387001, -0.03300231695175171, 0.03559362515807152, -0.04639629274606705, -0.2314458191394806, -0.043786585330963135, -0.21660661697387695, 0.5114921927452087, -0.1041528508067131, 0.15054522454738617, -0.19132989645004272, 0.07805892080068588, 0.07888276129961014, 0.05947180837392807, -0.07884668558835983, 0.022798165678977966, 0.36435171961784363, -0.24778716266155243, -0.15437252819538116, -0.003883367870002985, -0.0571112334728241, -0.17707909643650055, -0.186253160238266, -0.15478767454624176, 0.06295125186443329, -0.10553532838821411, 0.00038179109105840325, -0.05568648874759674, -0.054768647998571396, -0.06968234479427338, -0.31187358498573303], [0.03951448202133179, -0.11247669160366058, 0.019911155104637146, 0.2725067436695099, -0.2523843050003052, -0.1883848011493683, -0.2038327306509018, 0.048438239842653275, 0.18007929623126984, -0.2962549030780792, 0.1559414565563202, 0.06587444990873337, 0.015059204772114754, -0.02796836383640766, -0.33666858077049255, -0.06521579623222351, 0.07136291265487671, 0.003609943436458707, 0.27546510100364685, 0.0750240832567215, 0.05675403028726578, -0.019964637234807014, -0.10878638178110123, -0.0312604084610939, 0.03353076055645943, -0.03905799612402916, -0.024446967989206314, 0.13645589351654053, -0.1365305483341217, 0.3185270130634308, -0.03815117105841637, -0.28392493724823], [-0.03850403428077698, 0.025581492111086845, -0.026477713137865067, 0.17220036685466766, -0.10994680225849152, 0.07156958431005478, 0.00043048991938121617, -0.11677581816911697, -0.0799436941742897, -0.021084679290652275, 0.20502561330795288, -0.12237381190061569, -0.13043178617954254, 0.1056331917643547, -0.12854494154453278, 0.17572161555290222, 0.02045297622680664, 0.06913185119628906, -0.03109494037926197, -0.26738297939300537, -0.22038617730140686, -0.11574401706457138, 0.14679205417633057, -0.16352435946464539, 0.2997663617134094, -0.04296601191163063, -0.14162513613700867, -0.14359569549560547, -0.08895980566740036, -0.052351340651512146, 0.13358011841773987, -0.045967843383550644], [-0.025999095290899277, 0.44070595502853394, 0.37476232647895813, -0.041729241609573364, -0.28581494092941284, 0.2426845133304596, -0.23998776078224182, 0.14132928848266602, 0.11043540388345718, 0.32909175753593445, -0.14105114340782166, -0.20604445040225983, -0.2847195565700531, -0.10796187072992325, 0.2829250991344452, 0.30346745252609253, 0.057020172476768494, 0.0070855882950127125, -0.03649717941880226, 0.002840088913217187, -0.12464605271816254, -0.4978090226650238, -0.07421522587537766, -0.04705936461687088, 0.3214559555053711, 0.06540792435407639, -0.12998341023921967, -0.1150718554854393, 0.05480004847049713, 0.2803994119167328, 0.20578992366790771, 0.16130399703979492], [-0.17159588634967804, 0.17563790082931519, 0.24181249737739563, 0.39345237612724304, -0.2800469696521759, 0.09375490993261337, -0.031060567125678062, -0.0059579205699265, -0.12488649785518646, 0.21517354249954224, -0.15649159252643585, -0.13761430978775024, 0.24258027970790863, -0.09094958007335663, -0.007324521895498037, -0.09143310785293579, -0.08240613341331482, -0.13088899850845337, -0.2496860772371292, 0.16729068756103516, 0.24937863647937775, 0.030538929626345634, -0.21717889606952667, 0.0242704376578331, -0.4911231994628906, 0.11904310435056686, 0.11686038970947266, -0.1504306197166443, -0.06180604547262192, 0.14931729435920715, -0.1580737829208374, -0.04120604693889618], [-0.10608886927366257, 0.14908750355243683, 0.05488071218132973, -0.05061449110507965, 0.22896352410316467, -0.25144341588020325, 0.01955913007259369, -0.10877950489521027, 0.21380604803562164, 0.0005194418481551111, -0.1462487131357193, -0.050674919039011, 0.15627825260162354, -0.020712200552225113, 0.13525384664535522, 0.020658794790506363, -0.016976062208414078, -0.12951432168483734, -0.0927487164735794, -0.27368465065956116, 0.08651424944400787, -0.4624672830104828, 0.31322595477104187, -0.05934181064367294, 0.39975470304489136, -0.151103213429451, -0.03355212137103081, -0.08331097662448883, 0.17679108679294586, 0.12518809735774994, 0.06816491484642029, 0.13258220255374908]]}, "Dense_1": {"bias": [-0.04021067172288895], "kernel": [[-0.12237580865621567], [-0.14901070296764374], [-0.30477049946784973], [0.17778469622135162], [-0.08138453960418701], [0.14083509147167206], [0.16308282315731049], [0.3677956163883209], [-0.1719689667224884], [-0.0571177639067173], [0.038457635790109634], [-0.25005391240119934], [-0.019586734473705292], [0.07440418004989624], [-0.06343943625688553], [-0.1616940200328827], [0.36631298065185547], [-0.1700180321931839], [-0.21789687871932983], [0.26695817708969116], [0.2275201827287674], [0.14619086682796478], [-0.21509437263011932], [-0.1183699443936348], [-0.3828512728214264], [0.11057587713003159], [0.05417533591389656], [-0.17532795667648315], [0.12206888198852539], [0.01622273586690426], [-0.23271767795085907], [-0.3116457760334015]]}}}, "test_1": {"yhat": [-0.06649735569953918, -0.0731009840965271, -0.0647655725479126, -0.050944387912750244, -0.02782968245446682, 0.00011857409117510542, 0.021061358973383904, 0.031762853264808655, 0.037339355796575546, 0.042527128010988235, 0.043637715280056, 0.03963344916701317, 0.03705886751413345, 0.03445807099342346, 0.030769212171435356, 0.03005472756922245, 0.03417665883898735, 0.04177884757518768, 0.049445755779743195, 0.05645348131656647, 0.0679725855588913, 0.08663623034954071, 0.10624722391366959, 0.12363294512033463, 0.14430886507034302, 0.16926021873950958, 0.19043074548244476, 0.19673627614974976, 0.18969997763633728, 0.17970170080661774, 0.15875564515590668, 0.1160414069890976, 0.0666983500123024, 0.024034297093749046, -0.02345992624759674, -0.08804730325937271, -0.1578546017408371, -0.21164678037166595, -0.24679598212242126, -0.27663883566856384, -0.3065415024757385, -0.33180099725723267, -0.34602484107017517, -0.3477071225643158, -0.3431384861469269, -0.3406999111175537, -0.342193067073822, -0.34011608362197876, -0.32320743799209595, -0.2908405661582947, -0.25727126002311707, -0.23681962490081787, -0.23082458972930908, -0.23312799632549286, -0.24324926733970642, -0.26708880066871643, -0.3040800988674164, -0.3433670997619629, -0.3716251850128174, -0.38478749990463257, -0.39394283294677734, -0.4068900942802429, -0.4081672430038452, -0.3886492848396301, -0.36024096608161926, -0.32443752884864807, -0.27512088418006897, -0.21830211579799652, -0.16270965337753296, -0.10682430863380432, -0.05679646506905556, -0.025352589786052704, -0.009722511284053326, -0.0026970705948770046, -0.01499230694025755, -0.048692282289266586, -0.08754070103168488, -0.12652316689491272, -0.16468465328216553, -0.18988925218582153, -0.2128325253725052, -0.24110940098762512, -0.23533913493156433, -0.18774016201496124, -0.1485813558101654, -0.13116860389709473, -0.09494545310735703, -0.015540382824838161, 0.06724171340465546, 0.12569795548915863, 0.18030036985874176, 0.24200329184532166, 0.31141427159309387, 0.3820349872112274, 0.43518006801605225, 0.46155864000320435, 0.4739489257335663, 0.48642387986183167, 0.4924265742301941, 0.4829343855381012, 0.46359896659851074, 0.4380655586719513, 0.40290167927742004, 0.3619782328605652, 0.3215470314025879, 0.27780410647392273, 0.23669366538524628, 0.21233338117599487, 0.20369842648506165, 0.2040751874446869, 0.21195796132087708, 0.2200198620557785, 0.22438101470470428, 0.23259691894054413, 0.24554182589054108, 0.25046610832214355, 0.2463720291852951, 0.24529461562633514, 0.24546481668949127, 0.23634138703346252, 0.20953258872032166, 0.16996517777442932, 0.14051616191864014, 0.12934298813343048, 0.11838393658399582, 0.09369126707315445, 0.06589825451374054, 0.0540340431034565, 0.05194271728396416, 0.030096815899014473, -0.018116192892193794, -0.0739784985780716, -0.1283218264579773, -0.18431346118450165, -0.24083289504051208, -0.291238009929657, -0.33554086089134216, -0.38075393438339233, -0.4239387810230255, -0.4522040784358978, -0.4530077278614044, -0.4221450984477997, -0.38065657019615173, -0.3593940734863281, -0.3446963429450989, -0.3000294268131256, -0.24369943141937256, -0.20477955043315887, -0.1771344244480133, -0.14909574389457703, -0.11361268162727356, -0.07359478622674942, -0.039026517421007156, -0.012802567332983017, -0.0035416102036833763, -0.024751057848334312, -0.07097525149583817, -0.12100831419229507, -0.1728491485118866, -0.24844184517860413, -0.3303366005420685, -0.3690575361251831, -0.38610437512397766, -0.43439969420433044, -0.49234306812286377, -0.49727877974510193, -0.43668410181999207, -0.3661482334136963, -0.33654534816741943, -0.32263824343681335, -0.2684711813926697, -0.19708213210105896, -0.14827147126197815, -0.11306183785200119, -0.07343575358390808, -0.024197861552238464, 0.016647672280669212, 0.0351451076567173, 0.03909694403409958, 0.040052901953458786, 0.03792286291718483, 0.023599278181791306, -0.01972641982138157, -0.09390828758478165, -0.17621010541915894, -0.2500740885734558, -0.32164204120635986, -0.3938422203063965, -0.4554087817668915, -0.4963231384754181, -0.5168715715408325, -0.5247714519500732, -0.5274959802627563, -0.527908980846405, -0.5264246463775635, -0.5263181924819946, -0.531201958656311, -0.5434259176254272, -0.5608407855033875, -0.5727139115333557, -0.5697807669639587, -0.5560342669487, -0.5415716767311096, -0.530391275882721, -0.5093974471092224, -0.46236687898635864, -0.40511319041252136, -0.3649158179759979, -0.33121684193611145, -0.27772802114486694, -0.21127699315547943, -0.1567932665348053, -0.11666887253522873, -0.07757345587015152, -0.03407468646764755, 0.008953625336289406, 0.05288812518119812, 0.09929398447275162, 0.13828863203525543, 0.17546026408672333, 0.21191895008087158, 0.2364516705274582, 0.25351810455322266, 0.27027463912963867, 0.27923256158828735, 0.2765342891216278, 0.2673206329345703, 0.255342960357666, 0.23988524079322815, 0.22274242341518402, 0.20835891366004944, 0.19611753523349762, 0.1809568852186203, 0.1640440821647644, 0.15092796087265015, 0.1443856656551361, 0.13838909566402435, 0.12592099606990814, 0.11516021192073822, 0.11864343285560608, 0.1285763829946518, 0.12118452787399292, 0.09694284945726395, 0.07866107672452927, 0.07196047157049179, 0.06604735553264618, 0.05716192349791527, 0.05561273172497749, 0.07155033200979233, 0.09434010833501816, 0.10224562138319016, 0.09254022687673569, 0.08293037116527557, 0.07909640669822693, 0.06363488733768463, 0.02561626210808754, -0.022494344040751457, -0.05862471088767052, -0.08352342993021011, -0.10761559754610062, -0.12749847769737244, -0.13591530919075012, -0.13418228924274445, -0.13087429106235504, -0.1305176019668579, -0.134145125746727, -0.1444772481918335, -0.1654704064130783, -0.1955244392156601, -0.22432632744312286, -0.24379058182239532, -0.26212191581726074, -0.28820762038230896, -0.3133769929409027, -0.3209157884120941, -0.3112390637397766, -0.3030604422092438, -0.30387476086616516, -0.30801820755004883, -0.3152068853378296, -0.3232738971710205, -0.3246820569038391, -0.32193994522094727, -0.3216341733932495, -0.3229530453681946, -0.31761759519577026, -0.30220237374305725, -0.28093016147613525, -0.25590968132019043, -0.22575683891773224, -0.19497236609458923, -0.16701550781726837, -0.13915808498859406, -0.1102619618177414, -0.08552300184965134, -0.06520550698041916, -0.044572602957487106, -0.019199030473828316, 0.011855700053274632, 0.03264927864074707, 0.03250058367848396, 0.028222279623150826, 0.03233909234404564, 0.03413805365562439, 0.03033542074263096, 0.02681819722056389, 0.0296076238155365, 0.04038664326071739, 0.05416492000222206, 0.0743120089173317, 0.10142125189304352, 0.12416740506887436, 0.1403629630804062, 0.16198879480361938, 0.18301822245121002, 0.18625997006893158, 0.1822987198829651, 0.18887141346931458, 0.19859422743320465, 0.20089343190193176, 0.19401341676712036, 0.1753026694059372, 0.14873851835727692, 0.12167444080114365, 0.09445193409919739, 0.06360969692468643, 0.03547270596027374, 0.019260963425040245, 0.013400694355368614, 0.007990703918039799, 0.0001711082149995491, -0.0013448032550513744, 0.01608567126095295, 0.04825221747159958, 0.08286319673061371, 0.11507049947977066, 0.14253643155097961, 0.16532272100448608, 0.18730461597442627, 0.21150122582912445, 0.2369852066040039, 0.2547987699508667, 0.26121899485588074, 0.2583081126213074, 0.24778306484222412, 0.2315530925989151, 0.21747784316539764, 0.21075008809566498, 0.20316152274608612, 0.184440016746521, 0.15846112370491028, 0.1379459798336029, 0.1264258623123169, 0.11535150557756424, 0.10593529790639877, 0.10602285712957382, 0.11434485763311386, 0.12643589079380035, 0.13448907434940338, 0.1336747407913208, 0.12917791306972504, 0.13652193546295166, 0.16546320915222168, 0.2008204162120819, 0.2275208681821823, 0.24964143335819244, 0.27580955624580383, 0.3006247282028198, 0.3215216100215912, 0.341526061296463, 0.35527557134628296, 0.3601797819137573, 0.36051833629608154, 0.35119059681892395, 0.33017879724502563, 0.31112930178642273, 0.29376843571662903, 0.2660939395427704, 0.22864969074726105, 0.19052301347255707, 0.15207408368587494, 0.10762212425470352, 0.05841301381587982, 0.009629502892494202, -0.03636970371007919, -0.0800752267241478, -0.10726793110370636, -0.11813368648290634, -0.1327003836631775, -0.14551809430122375, -0.13313192129135132, -0.09573735296726227, -0.03959353640675545, 0.023368557915091515, 0.0692315623164177, 0.09129824489355087, 0.10714921355247498, 0.12298738211393356, 0.12218421697616577, 0.08795275539159775, 0.025214318186044693, -0.03242841362953186, -0.07759864628314972, -0.14433622360229492, -0.24013838171958923, -0.32736867666244507, -0.3844492435455322, -0.4253339171409607, -0.4706023931503296, -0.5285362005233765, -0.585200309753418, -0.6157757043838501, -0.6092970967292786, -0.5749787092208862, -0.5280701518058777, -0.4738253057003021, -0.41192179918289185, -0.34577175974845886, -0.27240458130836487, -0.1911478191614151, -0.11782155185937881, -0.06366921961307526, -0.02547219954431057, 0.0005829838919453323, 0.019276324659585953, 0.03483942896127701, 0.04683379828929901, 0.05943850427865982, 0.0795862078666687, 0.10215898603200912, 0.12130864709615707, 0.13894976675510406, 0.1497400552034378, 0.14893831312656403, 0.13698256015777588, 0.11456175148487091, 0.08128798753023148, 0.03584464266896248, -0.02034914866089821, -0.0841156393289566, -0.15074345469474792, -0.20646463334560394, -0.24959984421730042, -0.2929173707962036, -0.3392210602760315, -0.3771854639053345, -0.3952665627002716, -0.38875362277030945, -0.37243005633354187, -0.3643862307071686, -0.356585294008255, -0.3418268859386444, -0.33098000288009644, -0.3237980902194977, -0.3191010653972626, -0.32922232151031494, -0.3540358543395996, -0.3703821301460266, -0.3663497269153595, -0.35123100876808167, -0.332868367433548, -0.310634970664978, -0.28359362483024597, -0.24941572546958923, -0.2114669531583786, -0.1760278195142746, -0.1392701119184494, -0.10158615559339523, -0.06768577545881271, -0.03727845102548599, -0.016201410442590714, -0.012892171740531921, -0.020279821008443832, -0.01710759848356247, -0.011966117657721043, -0.029081592336297035, -0.0510147400200367, -0.06945350021123886, -0.09527427703142166, -0.11842994391918182, -0.13592401146888733, -0.15570878982543945, -0.17693974077701569, -0.1940532773733139, -0.20883451402187347, -0.22024250030517578, -0.21956875920295715, -0.206640362739563, -0.1928020864725113, -0.17873184382915497, -0.15638621151447296, -0.1319800615310669, -0.11755365878343582, -0.11105520278215408, -0.10543548315763474, -0.09877511858940125, -0.08940520137548447, -0.06858468800783157, -0.029238682240247726, 0.02080206759274006, 0.06706435233354568, 0.11063090711832047, 0.15091997385025024, 0.1748662143945694, 0.18251293897628784, 0.18712683022022247, 0.19438545405864716, 0.19650104641914368, 0.18607482314109802, 0.16706955432891846, 0.14587444067001343, 0.1239040195941925, 0.10349804162979126, 0.08415145426988602, 0.06195768341422081, 0.03789910674095154, 0.015499807894229889, -0.0037070978432893753, -0.01860302872955799, -0.028639404103159904, -0.034653179347515106, -0.035472117364406586, -0.030144870281219482, -0.02168298326432705, -0.011167865246534348, 0.002690083347260952, 0.01288457028567791, 0.017128262668848038, 0.027356542646884918, 0.04934437572956085, 0.07600191235542297, 0.10083692520856857, 0.12027527391910553, 0.13347208499908447, 0.14452268183231354, 0.16588112711906433, 0.19535687565803528, 0.2109094262123108, 0.20625488460063934, 0.19928525388240814, 0.20288963615894318, 0.2018691599369049, 0.19384649395942688, 0.19158577919006348, 0.18902923166751862, 0.18321186304092407, 0.17316986620426178, 0.15251176059246063, 0.12274426966905594, 0.09288010746240616, 0.06229449808597565, 0.022848645225167274, -0.01893298141658306, -0.05313136428594589, -0.08034577965736389, -0.1019260361790657, -0.1175866350531578, -0.1271575689315796, -0.13367405533790588, -0.13725990056991577, -0.13618217408657074, -0.12618984282016754, -0.11339885741472244, -0.11024384200572968, -0.11177367717027664, -0.10868604481220245, -0.10088006407022476, -0.09325145930051804, -0.09501467645168304, -0.10900943726301193, -0.12471888214349747, -0.1301279515028, -0.11832457035779953, -0.08942855149507523, -0.05147075280547142, -0.023172473534941673, -0.012383932247757912, 0.00792465265840292, 0.04551481083035469, 0.06813234090805054, 0.06812824308872223, 0.06038319692015648, 0.062206633388996124, 0.07194142043590546, 0.06967794895172119, 0.05050176382064819, 0.030604850500822067, 0.017546385526657104, 0.00823463499546051, 0.00487910769879818, -0.0035810363478958607, -0.02672482468187809, -0.04590776935219765, -0.040092047303915024, -0.0113118477165699, 0.02811833843588829, 0.06707233935594559, 0.10846000909805298, 0.15627270936965942, 0.1975255161523819, 0.23092249035835266, 0.2595449686050415, 0.27219393849372864, 0.27027472853660583, 0.2493896186351776, 0.1989564299583435, 0.1454980969429016, 0.10220476239919662, 0.04619775712490082, -0.03324182331562042, -0.11656114459037781, -0.18289002776145935, -0.2331969141960144, -0.2748975455760956, -0.3105233609676361, -0.3402310311794281, -0.35654518008232117, -0.3525002598762512, -0.32764866948127747, -0.29384341835975647, -0.26471543312072754, -0.2325519621372223, -0.1830829679965973, -0.12009403854608536, -0.056807421147823334, -0.00422455370426178, 0.036030713468790054, 0.06929126381874084, 0.09404599666595459, 0.1104130893945694, 0.12086973339319229, 0.1213342472910881, 0.1111719161272049, 0.0940520390868187, 0.0681358203291893, 0.02776237577199936, -0.01869427226483822, -0.05226675420999527, -0.06664010882377625, -0.07285551726818085, -0.08347631990909576, -0.09305904060602188, -0.08587537705898285, -0.0662541389465332, -0.0563194565474987, -0.04727549850940704, -0.026341212913393974, -0.00835611205548048, 0.0020907027646899223, 0.006158769130706787, 0.002274008933454752, -0.009726914577186108, -0.029185328632593155, -0.05167054757475853, -0.07503420114517212, -0.09745797514915466, -0.11369705945253372, -0.1247744932770729, -0.13817428052425385, -0.1526435911655426, -0.1565040796995163, -0.144584059715271, -0.12178188562393188, -0.09593930095434189, -0.06665270775556564, -0.023540111258625984, 0.03419775515794754, 0.09054648876190186, 0.13737517595291138, 0.1773199588060379, 0.2109772264957428, 0.2364400029182434, 0.25097721815109253, 0.25393661856651306, 0.25296634435653687, 0.24829499423503876, 0.2323366105556488, 0.20817479491233826, 0.18018178641796112, 0.15607129037380219, 0.14697837829589844, 0.14366012811660767, 0.13186268508434296, 0.1201077327132225, 0.12807540595531464, 0.15555259585380554, 0.18424852192401886, 0.20242808759212494, 0.20954866707324982, 0.2086474895477295, 0.20718687772750854, 0.20524455606937408, 0.190471813082695, 0.1570412665605545, 0.11651288717985153, 0.07899809628725052, 0.04008116573095322, -0.006880445871502161, -0.05734351649880409, -0.10198236256837845, -0.14004091918468475, -0.17433372139930725, -0.20329508185386658, -0.2306915670633316, -0.26521098613739014, -0.3036455810070038, -0.328731894493103, -0.3307185173034668, -0.3200971484184265, -0.314431369304657, -0.3161853551864624, -0.30696824193000793, -0.2783482074737549, -0.24568048119544983, -0.22238564491271973, -0.20881526172161102, -0.19889716804027557, -0.19032509624958038, -0.1913713663816452, -0.2077033370733261, -0.23078402876853943, -0.24385550618171692, -0.24080760776996613, -0.23208151757717133, -0.2280002385377884, -0.22305384278297424, -0.20176759362220764, -0.16023726761341095, -0.10982674360275269, -0.057779353111982346, -0.0017970269545912743, 0.06147811934351921, 0.12897340953350067, 0.19150754809379578, 0.2444620579481125, 0.29582998156547546, 0.3527759313583374, 0.4080338478088379, 0.4525652825832367, 0.48492392897605896, 0.507446825504303, 0.5204004645347595, 0.5225409269332886, 0.515975296497345, 0.5012686848640442, 0.4731895625591278, 0.4294224977493286, 0.372795432806015, 0.30740582942962646, 0.23353219032287598, 0.15137147903442383, 0.06835804134607315, -0.005464277230203152, -0.07074903696775436, -0.13354000449180603, -0.18807154893875122, -0.22297191619873047, -0.2390965074300766, -0.240461066365242, -0.229040265083313, -0.2024662047624588, -0.154619500041008, -0.08513426780700684, -0.0021120267920196056, 0.08594601601362228, 0.17651472985744476, 0.2704675793647766, 0.3608482778072357, 0.4302743077278137, 0.4712865650653839, 0.501835823059082, 0.5352530479431152, 0.5614738464355469, 0.5756655931472778, 0.5783635973930359, 0.5559070706367493, 0.5006355047225952, 0.4267720580101013, 0.3437528610229492, 0.2485848069190979, 0.14780724048614502, 0.039457209408283234, -0.0771075040102005, -0.17582198977470398, -0.2527821958065033, -0.3338058590888977, -0.4132920801639557, -0.4551871716976166, -0.4543895423412323, -0.4404458701610565, -0.4110122621059418, -0.34632694721221924, -0.27069810032844543, -0.20192930102348328, -0.12109147012233734, -0.030218498781323433, 0.04712657630443573, 0.1053883507847786, 0.15332373976707458, 0.18978579342365265, 0.21226415038108826, 0.22512878477573395, 0.22251436114311218, 0.20014044642448425, 0.16478180885314941, 0.12250812351703644, 0.0766974464058876, 0.03090285137295723, -0.00836911704391241, -0.040306996554136276, -0.06599577516317368, -0.08440575748682022, -0.09840144217014313, -0.1061713695526123, -0.09704282134771347, -0.06416147947311401, -0.014046693220734596, 0.03690863773226738, 0.07607267051935196, 0.10411401093006134, 0.12622585892677307, 0.14408408105373383, 0.15979178249835968, 0.17330124974250793, 0.17671042680740356, 0.17137551307678223, 0.1710481196641922, 0.17536000907421112, 0.16930373013019562, 0.15592320263385773, 0.15547066926956177, 0.1688280701637268, 0.18860986828804016, 0.21548287570476532, 0.24535728991031647, 0.26995062828063965, 0.2861553132534027, 0.29298484325408936, 0.28826281428337097, 0.2720048725605011, 0.2500802278518677, 0.22889147698879242, 0.20609277486801147, 0.17846709489822388, 0.14935961365699768, 0.12018013745546341, 0.09185605496168137, 0.07103431224822998, 0.04968436434864998, 0.014805291779339314, -0.020724056288599968, -0.05119958147406578, -0.09169366210699081, -0.1344064623117447, -0.16203849017620087, -0.1787203699350357, -0.198049858212471, -0.21970465779304504, -0.22526773810386658, -0.20219267904758453, -0.16355398297309875, -0.12646141648292542, -0.09114404767751694, -0.04865254834294319, 0.001359014306217432, 0.048734959214925766, 0.08492042124271393, 0.11054877936840057, 0.13427740335464478, 0.1616653949022293, 0.1887776106595993, 0.2102441042661667, 0.2238205522298813, 0.22962521016597748, 0.22613318264484406, 0.20866480469703674, 0.17443375289440155, 0.127069890499115, 0.07393699884414673, 0.022006459534168243, -0.02622907981276512, -0.07562405616044998, -0.1255742758512497, -0.16624684631824493, -0.19178713858127594, -0.20372937619686127, -0.2030612826347351, -0.1878323256969452, -0.15905654430389404, -0.12659414112567902, -0.10269366949796677, -0.09031210839748383, -0.08649677783250809, -0.09235530346632004, -0.11416034400463104, -0.15611544251441956, -0.20507745444774628, -0.24216622114181519, -0.27108436822891235, -0.3062557876110077, -0.35462042689323425, -0.39907974004745483, -0.416369765996933, -0.41401568055152893, -0.4168684780597687, -0.42305153608322144, -0.4145255982875824, -0.3961653411388397, -0.3876792788505554, -0.38653987646102905, -0.3786664605140686, -0.3661833107471466, -0.35547032952308655, -0.3474627733230591, -0.34073036909103394, -0.32817327976226807, -0.3081459105014801, -0.28881263732910156, -0.27349528670310974, -0.257201224565506, -0.2339935302734375, -0.21318255364894867, -0.21191129088401794, -0.22752517461776733, -0.24808496236801147, -0.28085172176361084, -0.330956369638443, -0.37442952394485474, -0.3863660395145416, -0.3886319100856781, -0.42244985699653625, -0.4632668197154999, -0.45232537388801575, -0.39871129393577576, -0.360305517911911, -0.35756468772888184, -0.35137176513671875, -0.31320834159851074, -0.2633700370788574, -0.2307889461517334, -0.2290094494819641, -0.2511909306049347, -0.2682391107082367, -0.2569993734359741, -0.23667164146900177, -0.2399103194475174, -0.24447721242904663, -0.20666494965553284, -0.15970946848392487, -0.14937326312065125, -0.15334884822368622, -0.13766439259052277, -0.11619401723146439, -0.10595785081386566, -0.10300467908382416, -0.10999827086925507, -0.12848076224327087, -0.14949317276477814, -0.17270752787590027, -0.2035892903804779, -0.23372256755828857, -0.25409752130508423, -0.27211764454841614, -0.2931942641735077, -0.3098401129245758, -0.3161154091358185, -0.31746286153793335, -0.319362998008728, -0.31765857338905334, -0.3052632808685303, -0.2836534380912781, -0.260547012090683, -0.24295228719711304, -0.23425671458244324, -0.23519116640090942, -0.24101732671260834, -0.24521853029727936, -0.24504750967025757, -0.24297307431697845, -0.24129915237426758, -0.23258554935455322, -0.2052680253982544, -0.16422444581985474, -0.12837231159210205, -0.09812524914741516, -0.05897197127342224, -0.013189762830734253, 0.024442076683044434, 0.047713976353406906, 0.05906083434820175, 0.06728646904230118, 0.07674619555473328, 0.0822567492723465, 0.07875058054924011, 0.06984302401542664, 0.06616993993520737, 0.07398799806833267, 0.08901951462030411, 0.10505256056785583, 0.12337754666805267, 0.14559046924114227, 0.17241840064525604, 0.202896386384964, 0.23211131989955902, 0.2559136748313904, 0.2796517312526703, 0.3095829486846924, 0.34428906440734863, 0.3743140995502472, 0.39269500970840454, 0.39996734261512756, 0.39807119965553284, 0.3882058560848236, 0.3758009374141693, 0.3621808886528015, 0.34092995524406433, 0.3093087077140808, 0.27331310510635376, 0.2383369654417038, 0.204055517911911, 0.1684563308954239, 0.13080666959285736, 0.09462510049343109, 0.06511618196964264, 0.041739318519830704, 0.021153317764401436, 0.0014322343049570918, -0.017793819308280945, -0.035419173538684845, -0.04748717322945595, -0.050538964569568634, -0.049973685294389725, -0.05214304476976395, -0.056340862065553665, -0.06311295181512833, -0.07417850196361542, -0.08853372931480408, -0.10294057428836823, -0.11856061220169067, -0.13771621882915497, -0.15881608426570892, -0.18025554716587067, -0.1989995688199997, -0.2104441225528717, -0.20868121087551117, -0.19071310758590698, -0.16948789358139038, -0.1489274948835373, -0.11286163330078125, -0.06896256655454636, -0.0366496779024601, 0.0021844040602445602, 0.05858311057090759, 0.10773292928934097, 0.14679865539073944, 0.18610318005084991, 0.213978111743927, 0.2260383516550064, 0.23120778799057007, 0.23431293666362762, 0.24258454144001007, 0.2536214292049408, 0.2616614103317261, 0.2675894498825073, 0.2740979492664337, 0.28085723519325256, 0.28353607654571533, 0.2745615541934967, 0.253367155790329, 0.22737248241901398, 0.20121929049491882, 0.1769370585680008, 0.15832450985908508, 0.14069302380084991, 0.11531750112771988, 0.08523368090391159, 0.06367769092321396, 0.059148285537958145, 0.06564971804618835, 0.07204392552375793, 0.07845503836870193, 0.0950484499335289, 0.12311221659183502, 0.15238478779792786, 0.17257867753505707, 0.1812639981508255, 0.18205928802490234, 0.1795448213815689, 0.1739858239889145, 0.16161379218101501, 0.13594333827495575, 0.09698278456926346, 0.04514563828706741, -0.02097628079354763, -0.09703247994184494, -0.1689608097076416, -0.23185253143310547, -0.2904481589794159, -0.34593939781188965, -0.39179179072380066, -0.415093332529068, -0.41047602891921997, -0.39684614539146423, -0.3934590518474579, -0.38378867506980896, -0.3468792736530304, -0.2931198179721832, -0.24200861155986786, -0.19904933869838715, -0.16203664243221283, -0.12599895894527435, -0.08888129144906998, -0.05123542621731758, -0.013980845920741558, 0.017568709328770638, 0.042385295033454895, 0.06997758895158768, 0.10137906670570374, 0.12529857456684113, 0.1398189812898636, 0.151436910033226, 0.1559983640909195, 0.14481136202812195, 0.12616175413131714, 0.1038653701543808, 0.06984692066907883, 0.03344230726361275, 0.01322035863995552, -0.009348730556666851, -0.056113723665475845, -0.09307961910963058, -0.09916374832391739, -0.10158717632293701, -0.10650674998760223, -0.10257416218519211, -0.09091199934482574, -0.08271053433418274, -0.08840643614530563, -0.10776735842227936, -0.130250945687294, -0.14918801188468933, -0.17155607044696808, -0.20563986897468567, -0.24648579955101013, -0.28807520866394043, -0.330037385225296, -0.37074050307273865, -0.4086802303791046, -0.4451383054256439, -0.4730324447154999, -0.4877917468547821, -0.500819206237793, -0.5077168941497803, -0.4887387156486511, -0.44873321056365967, -0.40078404545783997, -0.3437918424606323, -0.2803134620189667, -0.21848654747009277, -0.162470743060112, -0.10647951066493988, -0.0423550084233284, 0.020958850160241127, 0.07274837791919708, 0.1124495267868042, 0.1406756043434143, 0.16022014617919922, 0.17545320093631744, 0.17906935513019562, 0.15997283160686493, 0.12933725118637085, 0.10569833219051361, 0.086680568754673, 0.054980479180812836, 0.008928535506129265, -0.035979125648736954, -0.0674096867442131, -0.09162525832653046, -0.11951810866594315, -0.1454450786113739, -0.15386374294757843, -0.13648571074008942, -0.10562636703252792, -0.08174003660678864, -0.06746038049459457, -0.06021711975336075, -0.057567987591028214, -0.05776563286781311, -0.06262744218111038, -0.07903795689344406, -0.11012259125709534, -0.14474543929100037, -0.1677190363407135, -0.1838371753692627, -0.1998487114906311, -0.21035954356193542, -0.19877324998378754, -0.16104812920093536, -0.12687063217163086, -0.11112207174301147, -0.07535974681377411, -0.006085982080549002, 0.05089008808135986, 0.09287816286087036, 0.1376899778842926, 0.18890132009983063, 0.23409563302993774, 0.268399178981781, 0.2999492585659027, 0.3349820375442505, 0.37012091279029846, 0.39987489581108093, 0.4198654890060425, 0.42893946170806885, 0.42858409881591797, 0.4256884753704071, 0.4267514646053314, 0.426618754863739, 0.41654714941978455, 0.3966471552848816, 0.37081021070480347, 0.3371517062187195, 0.29867541790008545, 0.264395534992218, 0.23044681549072266, 0.1806761920452118, 0.11750335246324539, 0.057666681706905365, 0.0065652173943817616, -0.039516422897577286, -0.08837909996509552, -0.1424654871225357, -0.19631387293338776, -0.2487080991268158, -0.30348172783851624, -0.3609415590763092, -0.4116309583187103, -0.4493243396282196, -0.4787767231464386, -0.5071304440498352, -0.5366305112838745, -0.5593578219413757, -0.5621786713600159, -0.5555551052093506, -0.5555172562599182, -0.5552352666854858, -0.546245276927948, -0.5313647389411926, -0.5118845105171204, -0.48159584403038025, -0.4384221136569977, -0.389789342880249, -0.33455216884613037, -0.2703384459018707, -0.2087639570236206, -0.15126663446426392, -0.08102452754974365, -0.00338789913803339, 0.059907931834459305, 0.10273849964141846, 0.12937790155410767, 0.1476980745792389, 0.16110503673553467, 0.16693806648254395, 0.1689179688692093, 0.17753449082374573, 0.1951807290315628, 0.20911414921283722, 0.20825405418872833, 0.19317962229251862, 0.17088764905929565, 0.14340749382972717, 0.10777798295021057, 0.059864819049835205, 0.0002234375278931111, -0.06475819647312164, -0.12658359110355377, -0.18134349584579468, -0.23319773375988007, -0.2823043465614319, -0.31983068585395813, -0.34882062673568726, -0.3838665187358856, -0.41979166865348816, -0.435571551322937, -0.4354330003261566, -0.43768230080604553, -0.4458085894584656, -0.4512953460216522, -0.44620248675346375, -0.4308910667896271, -0.4109388291835785, -0.3946176767349243, -0.3883471190929413, -0.38271617889404297, -0.3627232313156128, -0.3350730836391449, -0.3171544373035431, -0.3045189082622528, -0.2821177542209625, -0.24655450880527496, -0.19734418392181396, -0.13471736013889313, -0.06678573042154312, 0.004006098955869675, 0.07980259507894516, 0.1540929079055786, 0.21573203802108765, 0.2627648115158081, 0.30287960171699524, 0.34106430411338806, 0.3742375075817108, 0.39948123693466187, 0.4142216145992279, 0.4122365713119507, 0.39110925793647766, 0.3539208471775055, 0.3070412576198578, 0.2580549716949463, 0.21022126078605652, 0.16005507111549377, 0.10657799988985062, 0.05483301356434822, 0.011758721433579922, -0.019692420959472656, -0.04064616560935974, -0.05019887536764145, -0.04565452039241791, -0.02956228330731392, -0.009616111405193806, 0.00635630963370204, 0.01902543008327484, 0.03420102968811989, 0.050121840089559555, 0.0632900819182396, 0.07135780900716782, 0.07278360426425934, 0.06971727311611176, 0.07054870575666428, 0.07788842916488647, 0.08539148420095444, 0.09086199849843979, 0.10118480026721954, 0.11888490617275238, 0.13869395852088928, 0.1541404277086258, 0.16099566221237183, 0.15581035614013672, 0.14295126497745514, 0.12334048002958298, 0.0887460932135582, 0.04514932632446289, 0.005908079911023378, -0.03500627353787422, -0.08021634072065353, -0.11527503281831741, -0.1318807303905487, -0.12759003043174744, -0.10315623879432678, -0.07678820937871933, -0.05567163974046707, -0.0232099536806345, 0.01642012782394886, 0.05264132842421532, 0.09799230098724365, 0.15283598005771637, 0.20133009552955627, 0.2339894324541092, 0.2580571174621582, 0.28283172845840454, 0.2994691729545593, 0.2983691394329071, 0.2917121350765228, 0.2889939844608307, 0.2911803424358368, 0.29234737157821655, 0.2889668643474579, 0.2873762845993042, 0.2903147041797638, 0.29545465111732483, 0.317111611366272, 0.3425716161727905, 0.3493817150592804, 0.3591992259025574, 0.38582268357276917, 0.4134563207626343, 0.42309045791625977, 0.41233232617378235, 0.3969554901123047, 0.3910087049007416, 0.38673070073127747, 0.367815762758255, 0.3343818187713623, 0.2991655468940735, 0.26357340812683105, 0.2232297658920288, 0.1833668053150177, 0.15242359042167664, 0.135097473859787, 0.12427964061498642, 0.10971058905124664, 0.09566984325647354, 0.090520478785038, 0.09608817100524902, 0.10373224318027496, 0.0994197353720665, 0.07731219381093979, 0.04639283940196037, 0.022183315828442574, 0.012922869995236397, 0.011286426335573196, 0.0026456392370164394, -0.015994450077414513, -0.03670753911137581, -0.05922849476337433, -0.0880252867937088, -0.1200951635837555, -0.15484079718589783, -0.2011348307132721, -0.2576354146003723, -0.3021050989627838, -0.32894420623779297, -0.3605078160762787, -0.4017111659049988, -0.42345553636550903, -0.4100768566131592, -0.3819732367992401, -0.3610844612121582, -0.3370353579521179, -0.29742464423179626, -0.25783950090408325, -0.22208774089813232, -0.17632940411567688, -0.11758868396282196, -0.05392490699887276, 0.00885398406535387, 0.07585331797599792, 0.1529419720172882, 0.23225703835487366, 0.29527607560157776, 0.33163294196128845, 0.348091185092926, 0.35571610927581787, 0.361804336309433, 0.36597225069999695, 0.35218310356140137, 0.3068934679031372, 0.24640202522277832, 0.19557756185531616, 0.15028628706932068, 0.08274859935045242, -0.003464498557150364, -0.06954801827669144, -0.1189483255147934, -0.17154604196548462, -0.22731360793113708, -0.25957098603248596, -0.2578173875808716, -0.2458132952451706, -0.24214030802249908, -0.23936942219734192, -0.22292982041835785, -0.19026456773281097, -0.14637809991836548, -0.10075492411851883, -0.05558336526155472, -0.007640091236680746, 0.03541802242398262, 0.06619236618280411, 0.08076336234807968, 0.07224669307470322, 0.04887166991829872, 0.020708980038762093, -0.019716383889317513, -0.07550055533647537, -0.12360276281833649, -0.16275666654109955, -0.21012461185455322, -0.2542884945869446, -0.2771969437599182, -0.27686548233032227, -0.25779610872268677, -0.22682809829711914, -0.19074875116348267, -0.1554054617881775, -0.12602640688419342, -0.10229674726724625, -0.07779475301504135, -0.04977737367153168, -0.024938562884926796, -0.012303544208407402, -0.01059173047542572, -0.013234412297606468, -0.02615729346871376, -0.055416446179151535, -0.08887770771980286, -0.11183655261993408, -0.12504996359348297, -0.13872644305229187, -0.15303702652454376, -0.15449528396129608, -0.14102904498577118, -0.13087961077690125, -0.13338609039783478, -0.13960067927837372, -0.14789585769176483, -0.17260891199111938, -0.22303417325019836, -0.2896433472633362, -0.3560445308685303, -0.4199941158294678, -0.4867539703845978, -0.5514217615127563, -0.6034922003746033, -0.639773428440094, -0.6653451323509216, -0.6830841898918152, -0.6935657858848572, -0.6914211511611938, -0.6639310121536255, -0.6014183759689331, -0.5116156339645386, -0.4193587303161621, -0.34118470549583435, -0.2655312120914459, -0.18268224596977234, -0.10837002098560333, -0.05435357615351677, -0.01944756880402565, -0.008195744827389717, -0.024497399106621742, -0.04913876950740814, -0.06661563366651535, -0.09236851334571838, -0.1309625655412674, -0.15415601432323456, -0.15058359503746033, -0.15031099319458008, -0.17560365796089172, -0.20133933424949646, -0.20432958006858826, -0.21468423306941986, -0.24280738830566406, -0.2509327530860901, -0.2294975072145462, -0.21427173912525177, -0.21863022446632385, -0.19882066547870636, -0.14771100878715515, -0.10946576297283173, -0.09142883867025375, -0.06792960315942764, -0.03488574177026749, -0.008024726994335651, 0.010754428803920746, 0.029739828780293465, 0.0500740148127079, 0.07254274934530258, 0.10784844309091568, 0.14978982508182526, 0.1915358155965805, 0.2452409565448761, 0.29932498931884766, 0.3349004089832306, 0.35885104537010193, 0.37846603989601135, 0.3939301371574402, 0.4030875563621521, 0.40635254979133606, 0.40476587414741516, 0.3991558849811554, 0.39193013310432434, 0.3912813067436218, 0.40062469244003296, 0.4083438217639923, 0.4068235158920288, 0.401875376701355, 0.3978906571865082, 0.38948890566825867, 0.376166433095932, 0.364643931388855, 0.3542250990867615, 0.33755743503570557, 0.3181704878807068, 0.3055253326892853, 0.2946593761444092, 0.2734890580177307, 0.24644431471824646, 0.22055462002754211, 0.19570495188236237, 0.1702515035867691, 0.14108338952064514, 0.10077323019504547, 0.05005886033177376, -5.182898894418031e-05, -0.04284071922302246, -0.07878439873456955, -0.10888184607028961, -0.1352119892835617, -0.1571294665336609, -0.16922225058078766, -0.16800914704799652, -0.16049380600452423, -0.15308330953121185, -0.14570990204811096, -0.13517840206623077, -0.12265131622552872, -0.1147109791636467, -0.113393634557724, -0.11534251272678375, -0.11912087351083755, -0.12088696658611298, -0.12028256803750992, -0.12508897483348846, -0.14010800421237946, -0.1567641794681549, -0.16457784175872803, -0.15962007641792297, -0.14648756384849548, -0.1326109766960144, -0.12144333869218826, -0.10950395464897156, -0.09596899896860123, -0.08460421860218048, -0.07890748977661133, -0.08045699447393417, -0.0947619378566742, -0.11948031932115555, -0.13924646377563477, -0.15228864550590515, -0.1769750714302063, -0.22162742912769318, -0.26930832862854004, -0.3057183623313904, -0.3364374339580536, -0.3711836338043213, -0.4072577655315399, -0.4342612326145172, -0.449025422334671, -0.4550633728504181, -0.4565371870994568, -0.45249143242836, -0.4357491731643677, -0.4114561378955841, -0.39184442162513733, -0.3729729652404785, -0.3496910631656647, -0.3315465748310089, -0.33248379826545715, -0.34760046005249023, -0.35495486855506897, -0.3540302515029907, -0.368602991104126, -0.3883475363254547, -0.3780989348888397, -0.3523957133293152, -0.348369836807251, -0.36170434951782227, -0.3705332577228546, -0.38701707124710083, -0.42689958214759827, -0.4637630879878998, -0.4797602891921997, -0.49870410561561584, -0.5322394967079163, -0.5558058023452759, -0.5464311242103577, -0.5072952508926392, -0.46078968048095703, -0.42570820450782776, -0.3962845802307129, -0.35409626364707947, -0.293949693441391, -0.2296077013015747, -0.1726602166891098, -0.12537233531475067, -0.08175651729106903, -0.02852552942931652, 0.03976002335548401, 0.11057263612747192, 0.1712496429681778, 0.21870958805084229, 0.2614481747150421, 0.30871906876564026, 0.3520863354206085, 0.37796375155448914, 0.3898299038410187, 0.4044201672077179, 0.4292101263999939, 0.45366716384887695, 0.4664452373981476, 0.4643518626689911, 0.4515848457813263, 0.4409450888633728, 0.43548062443733215, 0.42129579186439514, 0.3882220387458801, 0.3424695134162903, 0.29918980598449707, 0.2636274993419647, 0.22477936744689941, 0.17746004462242126, 0.13511252403259277, 0.11136423051357269, 0.09982229024171829, 0.08732295781373978, 0.07045674324035645, 0.05537719652056694, 0.048613302409648895, 0.05080365762114525, 0.054606903344392776, 0.05276820808649063, 0.04920848459005356, 0.04940776526927948, 0.047970399260520935, 0.042134810239076614, 0.032399408519268036, 0.017330514267086983, -0.005947017576545477, -0.04190462827682495, -0.09214434772729874, -0.15243999660015106, -0.21741732954978943, -0.28426694869995117, -0.3479149341583252, -0.40544867515563965, -0.4580443799495697, -0.4944200813770294, -0.5071126222610474, -0.5157471299171448, -0.5321192145347595, -0.5387356877326965, -0.5164498090744019, -0.47588780522346497, -0.4329651892185211, -0.38839444518089294, -0.3385688364505768, -0.28308507800102234, -0.22643178701400757, -0.17362292110919952, -0.12442845851182938, -0.07958613336086273, -0.048335809260606766, -0.038571834564208984, -0.0488981157541275, -0.07217554748058319, -0.10168364644050598, -0.13660746812820435, -0.18394818902015686, -0.2408350557088852, -0.28470492362976074, -0.3037586510181427, -0.3123754560947418, -0.32464081048965454, -0.33475643396377563, -0.32665398716926575, -0.29863834381103516, -0.2645482122898102, -0.23431764543056488, -0.1999097466468811, -0.1457003802061081, -0.08529976010322571, -0.041505347937345505, -0.005024546757340431, 0.037882108241319656, 0.07004497200250626, 0.07692253589630127, 0.07389993220567703, 0.08049485832452774, 0.08365151286125183, 0.07508906722068787, 0.06333473324775696, 0.043624404817819595, 0.018613656982779503, -0.011527616530656815, -0.05695990473031998, -0.11622095108032227, -0.18116438388824463, -0.2457929253578186, -0.29990798234939575, -0.34178853034973145, -0.3944240212440491, -0.44748568534851074, -0.4678071439266205, -0.45515578985214233, -0.430955171585083, -0.4037870764732361, -0.38429611921310425, -0.3752637207508087, -0.3598770499229431, -0.3472760319709778, -0.353167861700058, -0.35176679491996765, -0.3214166462421417, -0.28365251421928406, -0.25601863861083984, -0.2231243997812271, -0.16798396408557892, -0.0962657704949379, -0.033245302736759186, 0.014296336099505424, 0.06930611282587051, 0.12708882987499237, 0.17131099104881287, 0.20393764972686768, 0.22504255175590515, 0.23717814683914185, 0.24254624545574188, 0.23058997094631195, 0.19764144718647003, 0.15300054848194122, 0.10578220337629318, 0.0633552148938179, 0.02288561314344406, -0.02533835545182228, -0.07479918003082275, -0.10649251192808151, -0.10757064074277878, -0.08238416165113449, -0.05025847628712654, -0.024935796856880188, 0.00194119056686759, 0.038600482046604156, 0.07633575052022934, 0.10506628453731537, 0.12152718007564545, 0.12664900720119476, 0.12514179944992065, 0.12024752050638199, 0.11259361356496811, 0.10415098071098328, 0.08949703723192215, 0.06412018835544586, 0.04002904146909714, 0.026136482134461403, 0.019497008994221687, 0.017175573855638504, 0.010475988499820232, 4.750453445012681e-05, -0.0008102455758489668, 0.006371465977281332, 0.010139585472643375, 0.010883153416216373, 0.01245805062353611, 0.011358929798007011, -0.0015240132343024015, -0.02341824769973755, -0.03891981020569801, -0.046294860541820526, -0.05613451451063156, -0.07397204637527466, -0.08719631284475327, -0.07079563289880753, -0.026868911460042, -0.007709419820457697, -0.015233063139021397, -0.0038511825259774923, 0.019894137978553772, 0.028433747589588165, 0.021190287545323372, 0.007848872803151608, -0.0055345273576676846, -0.02393805980682373, -0.04969923570752144, -0.08249957859516144, -0.10263345390558243, -0.11504338681697845, -0.14023099839687347, -0.1733100712299347, -0.20879027247428894, -0.2368970364332199, -0.2452741265296936, -0.24607780575752258, -0.2514004409313202, -0.2536720037460327, -0.2415076494216919, -0.2108784317970276, -0.16052943468093872, -0.10551843047142029, -0.06399578601121902, -0.03132540360093117, 0.00139342260081321, 0.031067825853824615, 0.051122959703207016, 0.06093393638730049, 0.06803085654973984, 0.07443612813949585, 0.07693912833929062, 0.07469131797552109, 0.06801948696374893, 0.05583279952406883, 0.03638247773051262, 0.009462683461606503, -0.020816631615161896, -0.04619307070970535, -0.061200421303510666, -0.0689532458782196, -0.07175322622060776, -0.07202818244695663, -0.06987469643354416, -0.06285304576158524, -0.05377703160047531, -0.04818793386220932, -0.0432492159307003, -0.033155083656311035, -0.01727103814482689, 0.0034609937574714422, 0.01904970034956932, 0.019168900325894356, 0.015626277774572372, 0.02275105193257332, 0.033335600048303604, 0.0336652435362339, 0.025500236079096794, 0.020568273961544037, 0.020482150837779045, 0.015055571682751179, 0.0028485050424933434, -0.011571855284273624, -0.035220708698034286, -0.07464403659105301, -0.1255730539560318, -0.17902319133281708, -0.23960812389850616, -0.31177863478660583, -0.37366783618927, -0.4129606783390045, -0.4422490894794464, -0.465253084897995, -0.4764009714126587, -0.475661963224411, -0.4661387503147125, -0.44776609539985657, -0.416121244430542, -0.3639940321445465, -0.29323020577430725, -0.22458869218826294, -0.17383664846420288, -0.1287437379360199, -0.07170171290636063, -0.010584869422018528, 0.03544587641954422, 0.06307564675807953, 0.08322058618068695, 0.10195499658584595, 0.11684027314186096, 0.1280505210161209, 0.13920465111732483, 0.15187960863113403, 0.16325820982456207, 0.17220960557460785, 0.1768389493227005, 0.16893476247787476, 0.14022031426429749, 0.10094814002513885, 0.07011911273002625, 0.045352909713983536, 0.003083423711359501, -0.058903664350509644, -0.11512941122055054, -0.15206550061702728, -0.17388027906417847, -0.18941695988178253, -0.2022930383682251, -0.20291770994663239, -0.18241670727729797, -0.15159545838832855, -0.1212640255689621, -0.07990379631519318, -0.022641193121671677, 0.03791876882314682, 0.09454020857810974, 0.15303844213485718, 0.21339921653270721, 0.26532670855522156, 0.305325448513031, 0.3375161588191986, 0.35749757289886475, 0.36118313670158386, 0.3538638949394226, 0.34224146604537964, 0.32303139567375183, 0.2948581576347351, 0.2651790380477905, 0.2374534010887146, 0.20967155694961548, 0.18400806188583374, 0.1684599071741104, 0.16933681070804596, 0.17816050350666046, 0.18316732347011566, 0.18440990149974823, 0.179085835814476, 0.15827280282974243, 0.12775979936122894, 0.09687280654907227, 0.06926750391721725, 0.04871857538819313, 0.026663564145565033, -0.011671086773276329, -0.05955977737903595, -0.09945335239171982, -0.13390569388866425, -0.16624419391155243, -0.19487108290195465, -0.23091726005077362, -0.27530205249786377, -0.3180239498615265, -0.3535706102848053, -0.37448850274086, -0.37979185581207275, -0.3699391782283783, -0.3395567536354065, -0.29402896761894226, -0.24255095422267914, -0.18416108191013336, -0.12468130141496658, -0.07463011145591736, -0.031023306772112846, 0.007416310720145702, 0.03811231628060341, 0.060209721326828, 0.07099222391843796, 0.07110148668289185, 0.06728780269622803, 0.06461132317781448, 0.06294979155063629, 0.06013384088873863, 0.05196790769696236, 0.0413937009871006, 0.04017394408583641, 0.05050309747457504, 0.06771964579820633, 0.09267304092645645, 0.1131831631064415, 0.11545626074075699, 0.10946327447891235, 0.10896456241607666, 0.10958974808454514, 0.09529832005500793, 0.06213320791721344, 0.0204410869628191, -0.02224826253950596, -0.06429246068000793, -0.10493584722280502, -0.1465417444705963, -0.19165626168251038, -0.2357693463563919, -0.26841720938682556, -0.2869320511817932, -0.29569849371910095, -0.2981571555137634, -0.29850155115127563, -0.2967831790447235, -0.29287290573120117, -0.29429706931114197, -0.3048451542854309, -0.3225962817668915, -0.34106379747390747, -0.3557589054107666, -0.3670314848423004, -0.3724178075790405, -0.36329105496406555, -0.339765340089798, -0.31449249386787415, -0.29508066177368164, -0.2766476571559906, -0.25078561902046204, -0.21735568344593048, -0.18945054709911346, -0.17647379636764526, -0.17151500284671783, -0.16262444853782654, -0.1527257114648819, -0.14891499280929565, -0.1475384533405304, -0.14021511375904083, -0.13348020613193512, -0.1438198983669281, -0.17909559607505798, -0.2344106286764145, -0.3018781542778015, -0.3774908483028412, -0.45715925097465515, -0.5304526090621948, -0.59243243932724, -0.6477901339530945, -0.6978015899658203, -0.7377938628196716, -0.7624988555908203, -0.7711496353149414, -0.7694633603096008, -0.759080171585083, -0.7362657785415649, -0.7033615112304688, -0.6701227426528931, -0.6407336592674255, -0.6142609715461731, -0.5838360786437988, -0.5443791747093201, -0.5025222301483154, -0.46479886770248413, -0.42525219917297363, -0.3870970606803894, -0.35530582070350647, -0.32080140709877014, -0.28426316380500793, -0.2591957747936249, -0.24163299798965454, -0.21828593313694, -0.1853754222393036, -0.15012092888355255, -0.11666477471590042, -0.08304672688245773, -0.04556829482316971, 4.8323781811632216e-05, 0.05422154814004898, 0.10783963650465012, 0.14891649782657623, 0.17809312045574188, 0.20377349853515625, 0.23000594973564148, 0.2538027763366699, 0.271152138710022, 0.2869201600551605, 0.31495434045791626, 0.3536619544029236, 0.3797451853752136, 0.374057799577713, 0.34562739729881287, 0.3179911971092224, 0.2897709310054779, 0.24533997476100922, 0.17230883240699768, 0.08123965561389923, 0.015745682641863823, -0.017881479114294052, -0.06132228299975395, -0.12870031595230103, -0.17508159577846527, -0.17086073756217957, -0.13941635191440582, -0.12577468156814575, -0.13142061233520508, -0.111594058573246, -0.05259076505899429, 0.005864660255610943, 0.04336603358387947, 0.06409120559692383, 0.07802052795886993, 0.09496795386075974, 0.11578406393527985, 0.13457223773002625, 0.14700162410736084, 0.14981624484062195, 0.14398996531963348, 0.13114318251609802, 0.11104114353656769, 0.08604442328214645, 0.06087300553917885, 0.03586430475115776, 0.006428096443414688, -0.03401283547282219, -0.0879039317369461, -0.15021994709968567, -0.2103179544210434, -0.26042690873146057, -0.3013980984687805, -0.3376072943210602, -0.3711121380329132, -0.3994384706020355, -0.4141683578491211, -0.4136854112148285, -0.41266879439353943, -0.4221438765525818, -0.43457090854644775, -0.4392731189727783, -0.44334322214126587, -0.4569132626056671, -0.4766051173210144, -0.49012795090675354, -0.494444340467453, -0.49349719285964966, -0.4870142340660095, -0.4677148759365082, -0.431271493434906, -0.38441622257232666, -0.340204119682312, -0.2973129153251648, -0.2452847808599472, -0.18919432163238525, -0.14112049341201782, -0.10064678639173508, -0.06479690968990326, -0.03575475513935089, -0.01491888239979744, 0.0018796446966007352, 0.016307685524225235, 0.024069013074040413, 0.022194067016243935, 0.012993734329938889, 0.001329828635789454, -0.009993169456720352, -0.016123685985803604, -0.013763951137661934, -0.009859222918748856, -0.0092989606782794, -0.007133285515010357, -0.002641361905261874, -0.0025669129099696875, -0.00830767396837473, -0.014358928427100182, -0.018207743763923645, -0.025657963007688522, -0.04164339229464531, -0.05676676705479622, -0.060792434960603714, -0.06083134934306145, -0.060581889003515244, -0.05103296786546707, -0.032608237117528915, -0.014570600353181362, -0.0013758322456851602, 0.004157352261245251, 0.00972719769924879, 0.016000058501958847, 0.019107457250356674, 0.026667967438697815, 0.03782946988940239, 0.04163025692105293, 0.030966855585575104, 0.02255883626639843, 0.02835100330412388, 0.03524649143218994, 0.05289437249302864, 0.09235630184412003, 0.12665586173534393, 0.15531009435653687, 0.19388346374034882, 0.23241063952445984, 0.2597801983356476, 0.29029157757759094, 0.3199195861816406, 0.32784733176231384, 0.32233738899230957, 0.316509485244751, 0.29729723930358887, 0.2625217139720917, 0.2283073514699936, 0.19996143877506256, 0.17343908548355103, 0.15035274624824524, 0.13210538029670715, 0.11475017666816711, 0.09544496238231659, 0.07679156213998795, 0.06462125480175018, 0.061221592128276825, 0.06031182035803795, 0.052418287843465805, 0.033074259757995605, 0.004239788744598627, -0.028412267565727234, -0.056942492723464966, -0.0833183079957962, -0.12167231738567352, -0.16569764912128448, -0.19757018983364105, -0.2304624766111374, -0.2762070894241333, -0.32218509912490845, -0.3542535603046417, -0.37331074476242065, -0.3886718451976776, -0.40756064653396606, -0.4285062849521637, -0.43842417001724243, -0.4274030029773712, -0.4152534008026123, -0.41989436745643616, -0.42213574051856995, -0.4123181998729706, -0.4126330316066742, -0.4258672297000885, -0.4392162263393402, -0.4575580656528473, -0.48050954937934875, -0.4849030375480652, -0.46916821599006653, -0.4638530910015106, -0.4707508981227875, -0.4612075984477997, -0.4430389404296875, -0.4384632408618927, -0.437680184841156, -0.4237654507160187, -0.3959132730960846, -0.3646904230117798, -0.3282683193683624, -0.27270975708961487, -0.19684669375419617, -0.12466256320476532, -0.06737159192562103, -0.002747556660324335, 0.06986401975154877, 0.12592223286628723, 0.16453562676906586, 0.1954050064086914, 0.23357489705085754, 0.27803894877433777, 0.30977118015289307, 0.32719317078590393, 0.3373928666114807, 0.3398909568786621, 0.3357579708099365, 0.32417330145835876, 0.2961825728416443, 0.2501225173473358, 0.2072180062532425, 0.19044743478298187, 0.18435460329055786, 0.16798700392246246, 0.1513199657201767, 0.14309044182300568, 0.14021949470043182, 0.14249351620674133, 0.1544761061668396, 0.17174990475177765, 0.17297795414924622, 0.1506274938583374, 0.12489663809537888, 0.11119229346513748, 0.10296860337257385, 0.09463360160589218, 0.09536611288785934, 0.09872081875801086, 0.09342695772647858, 0.08486481755971909, 0.0636177808046341, 0.019366543740034103, -0.029448306187987328, -0.06943168491125107, -0.1101791188120842, -0.1561909168958664, -0.19970013201236725, -0.23602423071861267, -0.2584616243839264, -0.26818084716796875, -0.2754862606525421, -0.2854948937892914, -0.29247578978538513, -0.29052025079727173, -0.2838391959667206, -0.2865316569805145, -0.30213049054145813, -0.3153192102909088, -0.3063240945339203, -0.27067095041275024, -0.2231426239013672, -0.1749916821718216, -0.11711833626031876, -0.049466878175735474, 0.004841320216655731, 0.0547809898853302, 0.12831524014472961, 0.20583082735538483, 0.2663957178592682, 0.3280784487724304, 0.3999299705028534, 0.47242164611816406, 0.5358054637908936, 0.5864493250846863, 0.6186955571174622, 0.6306569576263428, 0.6367074847221375, 0.6493488550186157, 0.6569039821624756, 0.6516304612159729, 0.6434826850891113, 0.6340189576148987, 0.620424211025238, 0.603811502456665, 0.5794234871864319, 0.5416984558105469, 0.4958949685096741, 0.4458673298358917, 0.38563424348831177, 0.3186802864074707, 0.2584635615348816, 0.1978941708803177, 0.12544675171375275, 0.05134968459606171, -0.006886385381221771, -0.04866248369216919, -0.0830349549651146, -0.11792539060115814, -0.15326529741287231, -0.1819506585597992, -0.19775636494159698, -0.20282144844532013, -0.20624415576457977, -0.2163076549768448, -0.23048542439937592, -0.2309422492980957, -0.20629659295082092, -0.1710510104894638, -0.141773521900177, -0.12040586024522781, -0.10519452393054962, -0.09420648962259293, -0.08874519914388657, -0.091915063560009, -0.09749514609575272, -0.0945543646812439, -0.08622253686189651, -0.08071617782115936, -0.07025574892759323, -0.05792057141661644, -0.05127802491188049, -0.048013024032115936, -0.0486593060195446, -0.054690081626176834, -0.06809938699007034, -0.09381448477506638, -0.1305142194032669, -0.1682615727186203, -0.20489250123500824, -0.23754198849201202, -0.26356562972068787, -0.29692593216896057, -0.343667209148407, -0.3911668062210083, -0.4334322512149811, -0.47686246037483215, -0.521458625793457, -0.5618776679039001, -0.5945577025413513, -0.6144959926605225, -0.6175777912139893, -0.5958062410354614, -0.5469783544540405, -0.4930662214756012, -0.45363858342170715, -0.412016361951828, -0.3624664545059204, -0.3258340358734131, -0.3041665256023407, -0.2934742271900177, -0.29350587725639343, -0.298583984375, -0.30140411853790283, -0.2988302707672119, -0.2914256155490875, -0.2788504958152771, -0.262347936630249, -0.24320973455905914, -0.21573121845722198, -0.176118865609169, -0.12894660234451294, -0.08160290867090225, -0.03696621581912041, 0.0074865613132715225, 0.04819599911570549, 0.08342130482196808, 0.11414331942796707, 0.13736525177955627, 0.14886243641376495, 0.14887984097003937, 0.13738244771957397, 0.11454597860574722, 0.08508027344942093, 0.05466466024518013, 0.03082195110619068, 0.01826486364006996, 0.006554772146046162, -0.009945141151547432, -0.024197351187467575, -0.025522377341985703, -0.011481123976409435, 0.0075223008170723915, 0.01929567940533161, 0.02415257692337036, 0.03446708247065544, 0.0558595284819603, 0.0832943245768547, 0.10830967873334885, 0.126469686627388, 0.1329304575920105, 0.12922470271587372, 0.12021669745445251, 0.10181388258934021, 0.06912096589803696, 0.02543541230261326, -0.021198604255914688, -0.05798918381333351, -0.08438814431428909, -0.1084173321723938, -0.1257493942975998, -0.1235763430595398, -0.10420005768537521, -0.07903334498405457, -0.051699936389923096, -0.022613748908042908, 0.007152923382818699, 0.03437184542417526, 0.055475711822509766, 0.07029739767313004, 0.07880997657775879, 0.08432523906230927, 0.08360594511032104, 0.06999889016151428, 0.044391218572854996, 0.010870249941945076, -0.029929818585515022, -0.07364445179700851, -0.11269225925207138, -0.15002240240573883, -0.19511276483535767, -0.2508552372455597, -0.3073244094848633, -0.3461880683898926, -0.355335533618927, -0.34883832931518555, -0.3454554080963135, -0.3404375910758972, -0.3155977725982666, -0.27032920718193054, -0.2195800244808197, -0.1721421480178833, -0.1258828341960907, -0.08145862072706223, -0.046986304223537445, -0.026193851605057716, -0.012784850783646107, -0.011588240042328835, -0.03511830419301987, -0.08715330064296722, -0.15751390159130096, -0.20871961116790771, -0.23628301918506622, -0.29649078845977783, -0.3911398947238922, -0.44644060730934143, -0.46820491552352905, -0.4966617226600647, -0.5324109196662903, -0.5504168272018433, -0.5427278280258179, -0.5207847952842712, -0.4930149018764496, -0.46033188700675964, -0.4234386384487152, -0.38084790110588074, -0.32447317242622375, -0.2577822804450989, -0.19425490498542786, -0.1373642534017563, -0.08710476011037827, -0.05112236738204956, -0.0380081944167614, -0.03409137949347496, -0.018574867397546768, 0.0009749929304234684, 0.010868611745536327, 0.024212483316659927, 0.04494461789727211, 0.05824476107954979, 0.06897974759340286, 0.0818793848156929, 0.07846200466156006, 0.053558167070150375, 0.017597177997231483, -0.01759013533592224, -0.048646505922079086, -0.0916404128074646, -0.15259073674678802, -0.2137347310781479, -0.262613981962204, -0.3058209717273712, -0.35508933663368225, -0.4162452518939972, -0.489046186208725, -0.564359188079834, -0.6264815330505371, -0.6751475930213928, -0.7234070301055908, -0.7680032253265381, -0.7884263396263123, -0.7712371349334717, -0.7386816143989563, -0.7141201496124268, -0.6859960556030273, -0.6429784297943115, -0.5935670137405396, -0.5393721461296082, -0.47794559597969055, -0.41555172204971313, -0.36028632521629333, -0.310419499874115, -0.2588711380958557, -0.21000869572162628, -0.16978025436401367, -0.12979759275913239, -0.08299552649259567, -0.03586023300886154, 0.0022305890452116728, 0.03137955069541931, 0.056244879961013794, 0.07798827439546585, 0.09960129857063293, 0.11896294355392456, 0.1276843249797821, 0.119606152176857, 0.09392178058624268, 0.04814274609088898, -0.0223443191498518, -0.10908296704292297, -0.19842998683452606, -0.2778131365776062, -0.3396829068660736, -0.38955432176589966, -0.4327183961868286, -0.46374207735061646, -0.47898250818252563, -0.47198933362960815, -0.4414513409137726, -0.39669713377952576, -0.34472236037254333, -0.27979251742362976, -0.19326525926589966, -0.09295529872179031, 0.00487808370962739, 0.09222737699747086, 0.16866442561149597, 0.24394060671329498, 0.32862016558647156, 0.4102320969104767, 0.46754127740859985, 0.4893491864204407, 0.486772358417511, 0.476881206035614, 0.4717419743537903, 0.4576282203197479, 0.4225059151649475, 0.37162238359451294, 0.32702314853668213, 0.30368858575820923, 0.28126245737075806, 0.23772263526916504, 0.18788237869739532, 0.16689720749855042, 0.1659727841615677, 0.16285821795463562, 0.16596059501171112, 0.16888192296028137, 0.14983724057674408, 0.12152933329343796, 0.10219831019639969, 0.07943874597549438, 0.029551813378930092, -0.03984494134783745, -0.10594648867845535, -0.16154888272285461, -0.21520863473415375, -0.27771103382110596, -0.3511463701725006, -0.4248332381248474, -0.4850841462612152, -0.5286348462104797, -0.558523952960968, -0.5663061141967773, -0.5469664931297302, -0.5160364508628845, -0.48672571778297424, -0.4450669288635254, -0.37845057249069214, -0.2988344728946686, -0.22420549392700195, -0.15883247554302216, -0.09519122540950775, -0.024774201214313507, 0.052301034331321716, 0.12885890901088715, 0.19929805397987366, 0.26217496395111084, 0.31279173493385315, 0.34336793422698975, 0.35564011335372925, 0.36106669902801514, 0.36610302329063416, 0.3646292984485626, 0.35189923644065857, 0.32950249314308167, 0.30447444319725037, 0.2845633029937744, 0.26482102274894714, 0.23347657918930054, 0.18942461907863617, 0.1362324357032776, 0.08253580331802368, 0.028167083859443665, -0.04419093579053879, -0.11717844754457474, -0.15264645218849182, -0.17241105437278748, -0.22125457227230072, -0.2666631042957306, -0.24323523044586182, -0.20081041753292084, -0.2046087384223938, -0.2141534686088562, -0.1765134334564209, -0.1328628957271576, -0.10664714872837067, -0.07681401073932648, -0.038181670010089874, -0.013092990033328533, -0.004507808014750481, 0.020242521539330482, 0.05265197902917862, 0.07417263835668564, 0.08333364129066467, 0.08379580080509186, 0.07472296804189682, 0.047405119985342026, 0.0045532528311014175, -0.042924895882606506, -0.09033801406621933, -0.13366974890232086, -0.1672229766845703, -0.20591144263744354, -0.2502562701702118, -0.28966811299324036, -0.33722999691963196, -0.3882865011692047, -0.44436508417129517, -0.5125653743743896, -0.5677247047424316, -0.6020792722702026, -0.6270619034767151, -0.6375484466552734, -0.6316928267478943, -0.6141011714935303, -0.5867404341697693, -0.5559700131416321, -0.5262600779533386, -0.49262386560440063, -0.45656856894493103, -0.4342879056930542, -0.4208022952079773, -0.39882999658584595, -0.3653116822242737, -0.3321947157382965, -0.30810749530792236, -0.29774999618530273, -0.29144710302352905, -0.27498313784599304, -0.2560572326183319, -0.24345479905605316, -0.22749373316764832, -0.1924782693386078, -0.1437012106180191, -0.10016732662916183, -0.07099255919456482, -0.04123878479003906, 0.004507272504270077, 0.06227565556764603, 0.12012135237455368, 0.16903246939182281, 0.2077401727437973, 0.2500588297843933, 0.3015454411506653, 0.34288978576660156, 0.36455464363098145, 0.37439849972724915, 0.37507981061935425, 0.3678770959377289, 0.35753729939460754, 0.34596502780914307, 0.32716161012649536, 0.2957732379436493, 0.25605252385139465, 0.2193690687417984, 0.19177134335041046, 0.1790274679660797, 0.18580949306488037, 0.18640077114105225, 0.17228548228740692, 0.15992173552513123, 0.1419258862733841, 0.11942294985055923, 0.10159196704626083, 0.08021252602338791, 0.038874417543411255, -0.010559984482824802, -0.055306460708379745, -0.09901914745569229, -0.12090304493904114, -0.12315177172422409, -0.1265926957130432, -0.12472472339868546, -0.09678629785776138, -0.050292372703552246, -0.01766284368932247, -0.006619413383305073, 0.004446443635970354, 0.022322893142700195, 0.039656080305576324, 0.053133077919483185, 0.06470594555139542, 0.0753588005900383, 0.08104344457387924, 0.07773502171039581, 0.06880339980125427, 0.062382772564888, 0.06443149596452713, 0.07072832435369492, 0.07759738713502884, 0.0837659016251564, 0.08547218143939972, 0.09074331074953079, 0.10864310711622238, 0.12698857486248016, 0.12943033874034882, 0.12076548486948013, 0.11697237938642502, 0.11705799400806427, 0.1043635755777359, 0.07392000406980515, 0.03698841109871864, -0.00123666285071522, -0.05057736486196518, -0.1080869734287262, -0.1541248857975006, -0.18596383929252625, -0.21507520973682404, -0.24281249940395355, -0.26316624879837036, -0.2750577926635742, -0.2793339490890503, -0.27791696786880493, -0.2759622633457184, -0.27590614557266235, -0.2785146236419678, -0.2782391309738159, -0.26611265540122986, -0.24244210124015808, -0.21325771510601044, -0.17928637564182281, -0.1428450047969818, -0.09860881417989731, -0.05373258888721466, -0.013044449500739574, 0.03849828243255615, 0.09906745702028275, 0.15206988155841827, 0.19148306548595428, 0.231658473610878, 0.26907771825790405, 0.28470954298973083, 0.2867959439754486, 0.28908276557922363, 0.2811107039451599, 0.2641541659832001, 0.23834720253944397, 0.19254082441329956, 0.12470626085996628, 0.053465694189071655, -0.011557518504559994, -0.07545775175094604, -0.14180824160575867, -0.21305987238883972, -0.2831703722476959, -0.33593517541885376, -0.3711481988430023, -0.3935421109199524, -0.40417730808258057, -0.4147934019565582, -0.43010878562927246, -0.437641441822052, -0.42080599069595337, -0.383550226688385, -0.3480135202407837, -0.3255334794521332, -0.3119865357875824, -0.29958149790763855, -0.28489744663238525, -0.270591676235199, -0.2626262605190277, -0.27195870876312256, -0.3030019700527191, -0.34606561064720154, -0.38956519961357117, -0.4260127544403076, -0.4521404504776001, -0.4715172350406647, -0.4842070937156677, -0.47383299469947815, -0.43151921033859253, -0.39265885949134827, -0.38457056879997253, -0.37508195638656616, -0.33582594990730286, -0.29085174202919006, -0.2643603980541229, -0.2504143714904785, -0.23973223567008972, -0.23465374112129211, -0.23371540009975433, -0.23445270955562592, -0.24001221358776093, -0.24569204449653625, -0.2497382014989853, -0.2650212347507477, -0.29845669865608215, -0.34175652265548706, -0.38146647810935974, -0.40186789631843567, -0.40497922897338867, -0.41520389914512634, -0.43545418977737427, -0.42034122347831726, -0.35026541352272034, -0.2662365734577179, -0.19665294885635376, -0.1307283639907837, -0.053121328353881836, 0.03233468905091286, 0.11545288562774658, 0.19308510422706604, 0.26052427291870117, 0.31831592321395874, 0.3632620871067047, 0.39175543189048767, 0.4081759750843048, 0.41980087757110596, 0.42331963777542114, 0.41714876890182495, 0.40964263677597046, 0.3991624414920807, 0.3757927417755127, 0.3428678810596466, 0.3104490041732788, 0.28432929515838623, 0.26594194769859314, 0.24899934232234955, 0.22430165112018585, 0.18707481026649475, 0.14668221771717072, 0.11845070868730545, 0.10129693150520325, 0.08178957551717758, 0.05738772824406624, 0.04266291484236717, 0.05097692832350731, 0.08161763101816177, 0.122353695333004, 0.15886306762695312, 0.18891187012195587, 0.21480198204517365, 0.23399578034877777, 0.24812725186347961, 0.2615785598754883, 0.2721746861934662, 0.2743626832962036, 0.2661045789718628, 0.26158058643341064, 0.26531052589416504, 0.2564840614795685, 0.22993427515029907, 0.2085454910993576, 0.19702762365341187, 0.18509018421173096, 0.16605399549007416, 0.1355660855770111, 0.09747658669948578, 0.059964869171381, 0.024609409272670746, -0.009437822736799717, -0.04065527766942978, -0.07020587474107742, -0.09204839169979095, -0.0948621928691864, -0.07583890855312347, -0.04335612431168556, -0.010615693405270576, 0.015937795862555504, 0.03842373192310333, 0.05610847845673561, 0.06475070118904114, 0.06760259717702866, 0.07179590314626694, 0.07858048379421234, 0.08299601078033447, 0.08287599682807922, 0.08136499673128128, 0.07643293589353561, 0.06253965944051743, 0.04736323654651642, 0.04428686574101448, 0.051159415394067764, 0.055213961750268936, 0.04790854454040527, 0.035938240587711334, 0.02876840904355049, 0.02368120290338993, 0.010067491792142391, -0.015378991141915321, -0.05346151813864708, -0.10875189304351807, -0.18025410175323486, -0.25259941816329956, -0.3132709860801697, -0.3652496337890625, -0.4117334485054016, -0.44649580121040344, -0.4609633684158325, -0.44578513503074646, -0.3993034064769745, -0.3493620455265045, -0.3192117512226105, -0.2771795392036438, -0.1935303956270218, -0.0980972945690155, -0.020894765853881836, 0.03813064470887184, 0.0884774848818779, 0.13564564287662506, 0.17924733459949493, 0.21645717322826385, 0.2403995245695114, 0.24008974432945251, 0.21451698243618011, 0.1756889373064041, 0.1270042508840561, 0.06382033973932266, -0.009471924044191837, -0.07840099185705185, -0.13562560081481934, -0.1827600747346878, -0.2237708866596222, -0.25842711329460144, -0.2814383804798126, -0.2823192775249481, -0.2604498267173767, -0.233805313706398, -0.21858453750610352, -0.2122020274400711, -0.21377424895763397, -0.23194879293441772, -0.26652249693870544, -0.30824944376945496, -0.3472391366958618, -0.3700639307498932, -0.3758968412876129, -0.38598862290382385, -0.4027112126350403, -0.3881692588329315, -0.3352353870868683, -0.2939448058605194, -0.28499749302864075, -0.26971858739852905, -0.2246650904417038, -0.17903342843055725, -0.15870405733585358, -0.16533605754375458, -0.18267907202243805, -0.17281217873096466, -0.12943190336227417, -0.10517823696136475, -0.1232294961810112, -0.11204013973474503, -0.04562359303236008, -0.0038040759973227978, -0.01587914116680622, -0.026384428143501282, -0.012696782127022743, -0.005474107805639505, -0.017949169501662254, -0.059005558490753174, -0.12727390229701996, -0.1776011884212494, -0.18881040811538696, -0.21363221108913422, -0.2765946090221405, -0.31832441687583923, -0.3205298185348511, -0.314004123210907, -0.3140503168106079, -0.3198167681694031, -0.3258224427700043, -0.31664955615997314, -0.28548741340637207, -0.24915407598018646, -0.21777114272117615, -0.18535032868385315, -0.14731009304523468, -0.104611836373806, -0.05753276124596596, -0.010044167749583721, 0.027217065915465355, 0.04797060415148735, 0.05718936771154404, 0.06265629827976227, 0.06223500147461891, 0.04966900125145912, 0.01741950400173664, -0.02671263925731182, -0.07167447358369827, -0.11963638663291931, -0.1663268357515335, -0.20689915120601654, -0.24162766337394714, -0.2601737380027771, -0.2593209147453308, -0.24311326444149017, -0.20888008177280426, -0.1697695106267929, -0.14343833923339844, -0.1124815046787262, -0.06747082620859146, -0.0350816436111927, -0.023797763511538506, -0.0204060859978199, -0.02997446618974209, -0.06194962188601494, -0.08166670799255371, -0.07800068706274033, -0.10537014901638031, -0.1515318751335144, -0.16942551732063293, -0.18276888132095337, -0.21357037127017975, -0.24578820168972015, -0.2586323320865631, -0.2605857253074646, -0.2772461175918579, -0.30940210819244385, -0.3296334743499756, -0.3271270990371704, -0.31302890181541443, -0.2941652834415436, -0.27586260437965393, -0.2571691572666168, -0.2263004034757614, -0.19438260793685913, -0.18103556334972382, -0.18192516267299652, -0.18272680044174194, -0.17837035655975342, -0.16876162588596344, -0.153781920671463, -0.13397841155529022, -0.10891932249069214, -0.07266104966402054, -0.024761298671364784, 0.025551028549671173, 0.07066319137811661, 0.11306171119213104, 0.1531486213207245, 0.18474426865577698, 0.20220986008644104, 0.20213346183300018, 0.18803752958774567, 0.16738978028297424, 0.1347704827785492, 0.0811789259314537, 0.014370067976415157, -0.046181805431842804, -0.10097520053386688, -0.163278728723526, -0.21819858253002167, -0.2402154952287674, -0.23452511429786682, -0.22134356200695038, -0.20841987431049347, -0.18832367658615112, -0.1574057638645172, -0.11548711359500885, -0.06438308954238892, -0.013099851086735725, 0.029722727835178375, 0.06711043417453766, 0.10402829945087433, 0.13615696132183075, 0.1616501361131668, 0.17975454032421112, 0.18463581800460815, 0.17828983068466187, 0.170993834733963, 0.16564591228961945, 0.15507210791110992, 0.13545383512973785, 0.11320517957210541, 0.09802568703889847, 0.0910545215010643, 0.08515718579292297, 0.0795954242348671, 0.07515460252761841, 0.06687448918819427, 0.05704640969634056, 0.05674175173044205, 0.06808533519506454, 0.08432022482156754, 0.10617800056934357, 0.13200010359287262, 0.15311717987060547, 0.16982263326644897, 0.19222407042980194, 0.22424010932445526, 0.24846406280994415, 0.2505858242511749, 0.23791536688804626, 0.23027005791664124, 0.23595501482486725, 0.24347178637981415, 0.24107016623020172, 0.23415133357048035, 0.23320254683494568, 0.23367883265018463, 0.22658918797969818, 0.21552251279354095, 0.19912785291671753, 0.16670140624046326, 0.12433934211730957, 0.09195149689912796, 0.07474692910909653, 0.05867312476038933, 0.04393940418958664, 0.04244264215230942, 0.04926152899861336, 0.05319984629750252, 0.0619058683514595, 0.08954854309558868, 0.11883626878261566, 0.12163921445608139, 0.11575590074062347, 0.13187885284423828, 0.16326968371868134, 0.18952405452728271, 0.20564740896224976, 0.21944086253643036, 0.24103228747844696, 0.265819787979126, 0.2848406136035919, 0.2956228256225586, 0.2987546920776367, 0.2961582839488983, 0.2930413782596588, 0.29380571842193604, 0.2980930507183075, 0.3049241304397583, 0.3118082284927368, 0.3231704533100128, 0.34297192096710205, 0.36264529824256897, 0.37697431445121765, 0.3887996971607208, 0.39701929688453674, 0.39174869656562805, 0.37383589148521423, 0.3514251112937927, 0.32082125544548035, 0.27948683500289917, 0.229822039604187, 0.16366006433963776, 0.07834095507860184, -0.008240188471972942, -0.08170777559280396, -0.15002025663852692, -0.2169002741575241, -0.27379095554351807, -0.31949305534362793, -0.35223180055618286, -0.3606047034263611, -0.3459950387477875, -0.32545411586761475, -0.3059723377227783, -0.27907508611679077, -0.23785248398780823, -0.18857651948928833, -0.14250439405441284, -0.10428536683320999, -0.06965390592813492, -0.030573129653930664, 0.01261022500693798, 0.04502736032009125, 0.058692991733551025, 0.06336832046508789, 0.07098853588104248, 0.07930582761764526, 0.07906199991703033, 0.07042776048183441, 0.06376657634973526, 0.05987546965479851, 0.0521436370909214, 0.04118223115801811, 0.03482130169868469, 0.03309546038508415, 0.03125574067234993, 0.027336880564689636, 0.0251281950622797, 0.029904805123806, 0.0322079099714756, 0.02286554127931595, 0.012273822911083698, 0.006172491703182459, -0.011672315187752247, -0.03816794604063034, -0.05162937939167023, -0.06114153563976288, -0.08385870605707169, -0.09772791713476181, -0.09794890880584717, -0.1008758693933487, -0.10500752925872803, -0.10836940258741379, -0.11393075436353683, -0.12755440175533295, -0.15469148755073547, -0.18935981392860413, -0.21612118184566498, -0.23923373222351074, -0.2690325677394867, -0.2906017601490021, -0.2987823486328125, -0.2999298870563507, -0.29470473527908325, -0.2883065342903137, -0.2912636995315552, -0.30574437975883484, -0.3237011134624481, -0.340738445520401, -0.3577907979488373, -0.37128812074661255, -0.37419629096984863, -0.3661271929740906, -0.3510463237762451, -0.33808475732803345, -0.331059992313385, -0.3181016743183136, -0.2860619127750397, -0.2414872646331787, -0.20399819314479828, -0.17555737495422363, -0.14095920324325562, -0.09810200333595276, -0.056869376450777054, -0.021956508979201317, 0.008234942331910133, 0.03238814324140549, 0.04941821098327637, 0.061142534017562866, 0.06524716317653656, 0.05999251827597618, 0.054666295647621155, 0.05564580857753754, 0.05595353618264198, 0.0495884083211422, 0.041755907237529755, 0.037613801658153534, 0.03522232174873352, 0.031557224690914154, 0.03271717205643654, 0.04728550836443901, 0.07445220649242401, 0.1079016923904419, 0.1435098946094513, 0.17896561324596405, 0.21036483347415924, 0.23405271768569946, 0.25307416915893555, 0.2659408152103424, 0.26560258865356445, 0.24943231046199799, 0.213749960064888, 0.15303945541381836, 0.07392901182174683, -0.003925426863133907, -0.06622413545846939, -0.1260572224855423, -0.20614881813526154, -0.28851771354675293, -0.34227511286735535, -0.37309154868125916, -0.39617547392845154, -0.4131101369857788, -0.4172317683696747, -0.4112519919872284, -0.4024297595024109, -0.39327821135520935, -0.3870050311088562, -0.3873502016067505, -0.38941824436187744, -0.38621988892555237, -0.38304558396339417, -0.3880334496498108, -0.39332228899002075, -0.38908645510673523, -0.37674620747566223, -0.36183276772499084, -0.3477462828159332, -0.33179137110710144, -0.31113481521606445, -0.2902228534221649, -0.2693096697330475, -0.23923158645629883, -0.19367243349552155, -0.1425004005432129, -0.09569280594587326, -0.05074254795908928, 0.00227831001393497, 0.06668155640363693, 0.1329810470342636, 0.19217891991138458, 0.24427905678749084, 0.2925708293914795, 0.3373827338218689, 0.37792709469795227, 0.4130297005176544, 0.4441964626312256, 0.47422972321510315, 0.49632537364959717, 0.5048888325691223, 0.5094293355941772, 0.5133423209190369, 0.5068040490150452, 0.4887344539165497, 0.4652262032032013, 0.4358111023902893, 0.39642053842544556, 0.3489060401916504, 0.3012486696243286, 0.25838491320610046, 0.21613213419914246, 0.1658415049314499, 0.10820593684911728, 0.05764712393283844, 0.028250133618712425, 0.014389832504093647, -0.0026645055040717125, -0.03172888234257698, -0.06149422377347946, -0.07965710014104843, -0.08530426025390625, -0.08732544630765915, -0.09698987752199173, -0.11733471602201462, -0.14060713350772858, -0.16235871613025665, -0.18369534611701965, -0.20547252893447876, -0.2258114218711853, -0.24279694259166718, -0.25613659620285034, -0.2649286389350891, -0.2663053870201111, -0.2586410343647003, -0.24603766202926636, -0.23510892689228058, -0.22492478787899017, -0.20915555953979492, -0.1908106952905655, -0.18036623299121857, -0.1804019808769226, -0.18321311473846436, -0.18610945343971252, -0.1942409873008728, -0.20882980525493622, -0.22550809383392334, -0.2425745129585266, -0.26230573654174805, -0.2888423204421997, -0.324640691280365, -0.36779317259788513, -0.4125231206417084, -0.45239031314849854, -0.4846097528934479, -0.5084197521209717, -0.5247005820274353, -0.533751904964447, -0.5362035036087036, -0.5310084223747253, -0.5143268704414368, -0.48451370000839233, -0.443666011095047, -0.39501118659973145, -0.3415481746196747, -0.28349265456199646, -0.22085683047771454, -0.15351484715938568, -0.08386259526014328, -0.016257939860224724, 0.046164270490407944, 0.10366639494895935, 0.1577860713005066, 0.20796465873718262, 0.2512129545211792, 0.28550082445144653, 0.3094048798084259, 0.32299667596817017, 0.32457485795021057, 0.31447407603263855, 0.29398053884506226, 0.25833660364151, 0.2055763453245163, 0.14096438884735107, 0.069815993309021, -0.0035738679580390453, -0.07169966399669647, -0.1306774616241455, -0.18139633536338806, -0.22145907580852509, -0.2456316351890564, -0.2520604431629181, -0.23689888417720795, -0.20145075023174286, -0.15853703022003174, -0.11408691853284836, -0.06522823870182037, -0.017844511196017265, 0.022876909002661705, 0.05842478945851326, 0.08603520691394806, 0.10069714486598969, 0.11361213773488998, 0.13742013275623322, 0.15903060138225555, 0.16725879907608032, 0.16988611221313477, 0.17268435657024384, 0.17822952568531036, 0.19318392872810364, 0.21948939561843872, 0.2491527497768402, 0.2676544785499573, 0.2738468647003174, 0.28124547004699707, 0.2935040295124054, 0.29816901683807373, 0.28846538066864014, 0.27261459827423096, 0.25470271706581116, 0.23066124320030212, 0.19378186762332916, 0.14328818023204803, 0.0890851616859436, 0.03579169884324074, -0.014972645789384842, -0.06064855679869652, -0.10764355212450027, -0.15694472193717957, -0.1958707720041275, -0.22374261915683746, -0.2537651062011719, -0.2896272540092468, -0.3196862041950226, -0.3357149064540863, -0.34162330627441406, -0.3460131287574768, -0.35841459035873413, -0.3766898810863495, -0.3824847638607025, -0.37349987030029297, -0.37015900015830994, -0.3836352825164795, -0.4087451696395874, -0.4370499849319458, -0.4595661759376526, -0.4752088189125061, -0.48706477880477905, -0.49096038937568665, -0.4796047806739807, -0.4528633654117584, -0.42290008068084717, -0.4020700454711914, -0.38485226035118103, -0.35672879219055176, -0.3171270787715912, -0.27990588545799255, -0.24963220953941345, 