{"model": "GRU", "benchmark": "WH", "meta": {"LR": 0.001, "n_re": 10, "n_hs": [2, 4, 8, 16, 32], "n_look": [2, 4, 8, 16, 32], "n_opt": 10000, "batch_len": 200}, "nh_xval": 32, "look_xval": 32, "theta": {"params": {"Dense_0": {"bias": [-0.019514355808496475], "kernel": [[0.17115862667560577], [-0.06330087780952454], [-0.05498635768890381], [-0.2414524406194687], [0.13831466436386108], [-0.005259007681161165], [-0.12765948474407196], [0.05735495686531067], [0.09798417240381241], [0.3180285096168518], [0.07603729516267776], [0.0846402645111084], [0.14118172228336334], [0.20531406998634338], [0.30454275012016296], [0.2111508697271347], [0.08411116898059845], [0.02651101164519787], [0.09847988933324814], [0.11723991483449936], [0.024777855724096298], [-0.18102343380451202], [-0.25941094756126404], [-0.062492046505212784], [-0.18274348974227905], [0.038223545998334885], [0.09094876050949097], [0.1670566201210022], [0.1102089062333107], [0.3303271234035492], [-0.15273068845272064], [-0.11248543858528137]]}, "GRUCell_0": {"hn": {"bias": [-0.10939892381429672, 0.035056326538324356, -0.006464201025664806, 0.053313255310058594, -0.06148166209459305, -0.019044077023863792, 0.0837995857000351, -0.04598712921142578, -0.026177620515227318, -0.00614136504009366, -0.08383768051862717, -0.009739062748849392, 0.002573165809735656, -0.06640863418579102, -0.05803323909640312, -0.014034457504749298, 0.036782823503017426, 0.0966142863035202, -0.021170878782868385, 0.1013084128499031, -0.0414997935295105, 0.06209343671798706, 0.03375304490327835, 0.03732389584183693, 0.12714552879333496, -0.0559905469417572, -0.05697533115744591, -0.05591106042265892, -0.014754455536603928, -0.1329510360956192, 0.12364795804023743, 0.18615932762622833], "kernel": [[-0.06056107580661774, 0.06343429535627365, 0.11558060348033905, -0.1261691153049469, 0.14854681491851807, -0.07715523988008499, 0.18887099623680115, -0.13330546021461487, -0.028878474608063698, -0.11102529615163803, -0.033310066908597946, 0.16514615714550018, -0.08731409907341003, -0.07868258655071259, -0.1543816477060318, 0.0919477567076683, -0.021958917379379272, -0.3090200126171112, 0.10348929464817047, 0.22233757376670837, -0.1121067926287651, -0.27187711000442505, 0.0016690525226294994, 0.16003328561782837, -0.05839751288294792, 0.47197800874710083, -0.03942488133907318, 0.3266950845718384, -0.31559017300605774, 0.11760587245225906, -0.14386767148971558, -0.08625572919845581], [-0.12602649629116058, 0.02506178431212902, 0.32624074816703796, -0.18549849092960358, 0.07773462682962418, 0.1649007797241211, 0.07155118137598038, -0.2599659860134125, 0.18457166850566864, -0.10235445201396942, -0.1712556630373001, 0.3319813311100006, -0.31731387972831726, -0.15208475291728973, 0.14056448638439178, 0.01013189647346735, -0.11794903874397278, -0.09720611572265625, -0.13897906243801117, 0.19325953722000122, -0.12713217735290527, -0.07072363793849945, 0.018568743020296097, -0.25611546635627747, 0.2913914918899536, -0.0957452803850174, -0.10665248334407806, -0.2505176067352295, 0.19374823570251465, 0.16411927342414856, -0.13314712047576904, -0.18512777984142303], [0.13322138786315918, -0.18551649153232574, 0.23017123341560364, 0.5498499274253845, -0.26600173115730286, -0.29948216676712036, 0.4885687828063965, 0.3038671910762787, -0.019146695733070374, 0.027965199202299118, 0.2204733043909073, 0.2595914304256439, -0.19935432076454163, -0.16569530963897705, 0.050642985850572586, -0.04988858848810196, -0.020347706973552704, 0.06139156222343445, 0.07796129584312439, 0.15510417520999908, -0.15885639190673828, -0.33432501554489136, -0.23544228076934814, -0.1223863810300827, -0.11950532346963882, -0.07278646528720856, 0.06776317954063416, -0.2137695699930191, -0.11756816506385803, 0.0690273642539978, -0.02313082106411457, -0.05602407827973366], [0.065974161028862, -0.13416245579719543, -0.07460375875234604, -0.15476323664188385, 0.2543758749961853, -0.19008664786815643, 0.3191031217575073, 0.36476483941078186, -0.09225675463676453, 0.1345730721950531, -0.2327117919921875, 0.09711835533380508, 0.06933046877384186, 0.2835952043533325, -0.08646252751350403, -0.12180662155151367, -0.05347052961587906, -0.46950724720954895, -0.2757580876350403, 0.1845550835132599, -0.04026516154408455, -0.22658978402614594, -0.13732796907424927, 0.22714737057685852, -0.03788675740361214, -0.3315167725086212, 0.19379326701164246, 0.016510242596268654, 0.22221015393733978, -0.02560577355325222, -0.35841795802116394, -0.21363703906536102], [-0.04443923011422157, -0.3154606521129608, -0.006636394653469324, 0.03410894051194191, -0.12175488471984863, 0.08934759348630905, -0.0314386710524559, 0.08880548924207687, -0.17571961879730225, 0.14608485996723175, -0.031313493847846985, 0.21263746917247772, 0.2424451857805252, -0.10359815508127213, -0.3787792921066284, -0.14447817206382751, 0.016003357246518135, 0.3922079801559448, 0.1775868982076645, 0.09629026800394058, -0.15676641464233398, 0.336760014295578, -0.1857984960079193, -0.0659698098897934, 0.05625758320093155, 0.06823509931564331, -0.11176023632287979, 0.22389711439609528, 0.13864615559577942, -0.13163703680038452, -0.30596956610679626, -0.06598717719316483], [-0.15855415165424347, -0.08210950344800949, 0.19254373013973236, 0.014249762520194054, 0.18926183879375458, 0.1065330058336258, 0.001377980224788189, 0.05338698625564575, -0.12086739391088486, -0.3718474805355072, -0.22832898795604706, -0.30542129278182983, -0.021658435463905334, -0.04394776374101639, -0.14932407438755035, 0.2588575780391693, -0.18850629031658173, 0.1694427728652954, 0.052314430475234985, -0.4162313938140869, 0.2622964382171631, -0.1555820256471634, -0.3610474467277527, 0.1505398005247116, 0.02130129374563694, 0.07118820399045944, -0.14991576969623566, -0.23679934442043304, -0.05274609103798866, 0.2419440597295761, -0.20878051221370697, -0.011699961498379707], [-0.10752210021018982, -0.0350644551217556, 0.6859220266342163, -0.17111632227897644, 0.12478476762771606, 0.18174533545970917, 0.2334529608488083, -0.05293410271406174, -0.1440175473690033, 0.10413438081741333, 0.4760768711566925, 0.11555904150009155, -0.1656012237071991, -0.14495232701301575, -0.10211392492055893, -0.25398504734039307, -0.14458966255187988, -0.30018988251686096, 0.08175788074731827, 0.38721245527267456, 0.10730888694524765, -0.043074753135442734, -0.1782054454088211, 0.28411081433296204, -0.22719639539718628, -0.4492749273777008, 0.22854489088058472, -0.0686517134308815, -0.16368171572685242, -0.11328071355819702, 0.3823432922363281, -0.005965623538941145], [0.23345093429088593, -0.2376028299331665, 0.06136002764105797, -0.2520979940891266, 0.11539661884307861, -0.3472515940666199, -0.12137172371149063, 0.33503732085227966, 0.253655344247818, -0.12536108493804932, 0.04211458936333656, 0.24966394901275635, -0.1854383796453476, 0.34901028871536255, 0.22235234081745148, 0.14835576713085175, -0.014103898778557777, 0.0909671038389206, 0.20462295413017273, 0.02175617776811123, -0.05313950404524803, 0.2266332507133484, -0.31725531816482544, 0.06821433454751968, 0.02940576896071434, -0.014061716385185719, 0.14563597738742828, 0.05457213148474693, 0.061819836497306824, -0.22166061401367188, -0.17859742045402527, 0.3424933850765228], [-0.06873508542776108, 0.2066504955291748, 0.03147329017519951, 0.39377573132514954, 0.08232849836349487, -0.043497227132320404, -0.004029891919344664, -0.04321757331490517, 0.13402576744556427, 0.19366119801998138, 0.00027415627846494317, 0.16525989770889282, -0.06586112827062607, -0.01495419256389141, -0.2889000475406647, 0.1432042419910431, -0.059214457869529724, -0.00843656063079834, 0.12579722702503204, 0.2408425658941269, 0.0010501734213903546, -0.05890053138136864, -0.2210511565208435, 0.35703229904174805, 0.14688865840435028, -0.14587384462356567, -0.3084845542907715, -0.0392451137304306, 0.3800378739833832, -0.02472129464149475, 0.3811149299144745, 0.0925222858786583], [-0.24870513379573822, -0.34076768159866333, 0.12473513931035995, 0.11131846159696579, -0.20511437952518463, -0.2681056261062622, 0.2795586884021759, -0.22563709318637848, 0.28893497586250305, -0.19176927208900452, -0.01754763163626194, -0.20317921042442322, 0.022666502743959427, 0.12900693714618683, 0.17904075980186462, -0.3185630440711975, 0.17062817513942719, 0.1249723732471466, -0.04926609992980957, -0.07612620294094086, -0.09511276334524155, 0.10197289288043976, 0.16556714475154877, 0.3119233250617981, -0.05065816640853882, 0.2040453404188156, -0.12000350654125214, 0.0038132916670292616, 0.31032615900039673, 0.011380687355995178, 0.09452646970748901, -0.05750223249197006], [-0.1498846560716629, -0.05837114900350571, 0.4511313736438751, 0.1039351150393486, -0.0737777054309845, 0.29926663637161255, -0.16123278439044952, -0.12057249993085861, 0.004093148745596409, 0.018589813262224197, 0.1370343714952469, 0.043826743960380554, 0.12215200811624527, 0.31749022006988525, 0.012894144281744957, 0.09828939288854599, -0.19951550662517548, -0.13455531001091003, -0.4182254374027252, 0.1924334615468979, 0.17824119329452515, 0.21146152913570404, -0.1994992047548294, -0.14990025758743286, 0.025479255244135857, -0.012924976646900177, -0.04118824005126953, 0.1046469435095787, -0.36977168917655945, 0.1918870210647583, -0.05097472667694092, 0.36634066700935364], [-0.12814471125602722, -0.2654528021812439, -0.10361930727958679, -0.055900219827890396, 0.06323092430830002, 0.1132916733622551, 0.18654610216617584, 0.3179459571838379, 0.05118105933070183, 0.3361387252807617, -0.281432181596756, -0.02525695413351059, -0.15797322988510132, -0.055122457444667816, 0.054959606379270554, -0.08253106474876404, 0.23957745730876923, 0.10406952351331711, -0.1370120495557785, 0.22286836802959442, 0.2359929233789444, -0.05354250967502594, -0.03219222649931908, -0.172312393784523, 0.20029620826244354, 0.26385176181793213, 0.12232998758554459, 0.2026105523109436, 0.21301695704460144, 0.21413777768611908, 0.30087926983833313, -0.21956726908683777], [0.22166985273361206, 0.05026404559612274, 0.06862080842256546, 0.21217885613441467, 0.2060886025428772, -0.29423537850379944, -0.043412644416093826, -0.3306278586387634, -0.15889659523963928, 0.307526171207428, -0.22910061478614807, -0.3908901512622833, -0.3021565079689026, 0.010281742550432682, -0.04357720911502838, -0.12943921983242035, 0.32807397842407227, 0.15929670631885529, -0.04762031137943268, 0.30259326100349426, -0.06518638134002686, 0.12607543170452118, -0.0889798104763031, -0.020683931186795235, 0.03985362872481346, -0.06398864835500717, 0.05355723574757576, -0.30388182401657104, -0.05200110003352165, -0.14244598150253296, -0.07687456905841827, 0.07231882959604263], [-0.1839524507522583, 0.04703157767653465, -0.3586755692958832, -0.18507200479507446, -0.16044840216636658, -0.3127985894680023, 0.02708546444773674, -0.09635547548532486, -0.34621763229370117, -0.053806155920028687, -0.11653883755207062, 0.1435454785823822, -0.19704796373844147, 0.37087389826774597, -0.07376259565353394, 0.1955036073923111, -0.08165965974330902, 0.42858460545539856, -0.09293735772371292, 0.20911648869514465, 0.0002140923752449453, 0.2069977968931198, 0.016712527722120285, -0.07547197490930557, -0.1134980097413063, 0.13810738921165466, 0.0008497936651110649, 0.0739254280924797, 0.09708081185817719, 0.0017270647222176194, 0.3209242522716522, -0.05044678971171379], [-0.2076694220304489, -0.1330476999282837, -0.0814027413725853, 0.20541051030158997, 0.2226126790046692, 0.07982463389635086, 0.07959533482789993, 0.12442798912525177, -0.027844997122883797, -0.05071511119604111, 0.17346294224262238, -0.07947525382041931, 0.134148970246315, 0.1301240622997284, 0.16036982834339142, 0.13447502255439758, 0.023284494876861572, 0.35145479440689087, 0.024437546730041504, 0.46010181307792664, 0.08193442225456238, -0.08950455486774445, 0.24097055196762085, 0.15521204471588135, 0.15551388263702393, -0.3550659716129303, 0.10090773552656174, 0.1261749416589737, -0.09088463336229324, -0.08567879348993301, -0.1483338326215744, 0.1028502807021141], [0.013467369601130486, 0.1522453874349594, 0.32452771067619324, 0.036585595458745956, -0.004589071962982416, -0.3792031705379486, -0.05241885781288147, 0.16540898382663727, 0.03906886652112007, -0.2540785074234009, -0.428511381149292, -0.1096157655119896, -0.11148446798324585, -0.38650721311569214, -0.2008339911699295, 0.0016388359945267439, -0.39086711406707764, 0.06322329491376877, -0.001223402563482523, 0.1351214051246643, -0.1361154466867447, 0.26083916425704956, 0.28827908635139465, -0.01393158733844757, 0.2705051898956299, -0.388715922832489, -0.03472169116139412, 0.17400231957435608, -0.05199083313345909, 0.07426712661981583, 0.21759773790836334, 0.43745458126068115], [-0.3791813552379608, 0.2373460829257965, -0.12893036007881165, 0.1074516549706459, 0.06925938278436661, -0.03139261528849602, 0.5147384405136108, -0.009090745821595192, 0.20086026191711426, 0.040396589785814285, -0.20081669092178345, -0.07900799065828323, -0.08995362371206284, -0.21447433531284332, -0.019660860300064087, 0.193082794547081, 0.22951620817184448, 0.08613022416830063, -0.015482043847441673, -0.006564415991306305, 0.12464337050914764, 0.3173001706600189, 0.018256599083542824, -0.10554544627666473, -0.022091099992394447, -0.043028756976127625, -0.023977532982826233, -0.04753890633583069, -0.06878510862588882, -0.5798210501670837, 0.07064300775527954, 0.13500817120075226], [-0.06487981975078583, 0.07675503194332123, -0.1898830384016037, -0.3264737129211426, -0.29812192916870117, -0.09673510491847992, -0.19690875709056854, -0.10773985087871552, -0.08294761180877686, -0.1578008085489273, 0.15304742753505707, -0.14375552535057068, 0.07847992330789566, -0.11094611138105392, 0.12709444761276245, -0.3035847246646881, 0.0776352733373642, -0.04913828521966934, 0.02322755567729473, 0.474029541015625, 0.3826279044151306, -0.14588713645935059, -0.32138025760650635, -0.1283504217863083, 0.275482714176178, -0.13022327423095703, -0.2507002651691437, 0.11251666396856308, -0.03916991874575615, -0.2312878519296646, -0.06118025258183479, -0.04909427464008331], [0.2142629474401474, 0.048926349729299545, 0.2993050813674927, 0.08922825753688812, -0.026397455483675003, -0.05772560462355614, 0.2143743336200714, 0.05477398261427879, -0.33984261751174927, 0.10401054471731186, 0.19943924248218536, -0.11232537776231766, -0.028197739273309708, 0.13400612771511078, 0.15446117520332336, 0.11514823138713837, -0.13304650783538818, 0.11608418822288513, 0.022090377286076546, -0.16927184164524078, 0.10703547298908234, -0.04066901654005051, 0.15950365364551544, 0.04783117398619652, 0.3857738673686981, 0.25406351685523987, -0.15751244127750397, 0.2170293629169464, 0.05651658773422241, -0.3278782367706299, 0.1204632818698883, -0.03215164318680763], [0.054991163313388824, 0.22793462872505188, -0.1922888606786728, -0.07452959567308426, -0.2785719335079193, 0.40199726819992065, 0.31159481406211853, -0.10429028421640396, 0.014910198748111725, 0.006975325755774975, -0.09849677234888077, -0.30426618456840515, -0.15985767543315887, -0.06147293746471405, 0.07643861323595047, -0.044393640011548996, -0.13133470714092255, -0.1114698126912117, 0.27794474363327026, 0.45235154032707214, -0.41510170698165894, 0.1039712056517601, -0.1831027865409851, 0.11733439564704895, 0.14392904937267303, -0.22816598415374756, 0.32577601075172424, 0.018238607794046402, 0.024294625967741013, 0.2081736922264099, 0.043015170842409134, 0.4335446357727051], [-0.06598325818777084, -0.08810364454984665, 0.15262436866760254, -0.23042508959770203, -0.2106272131204605, -0.1331423670053482, -0.09042522311210632, 0.2954613268375397, 0.06678497791290283, 0.15475262701511383, -0.056882310658693314, -0.24885150790214539, 0.47342920303344727, -0.036352019757032394, 0.20861926674842834, 0.17320236563682556, 0.09704085439443588, -0.020088965073227882, -0.05737645551562309, 0.06983883678913116, -0.07206492125988007, 0.17078155279159546, -0.23868465423583984, -0.058184392750263214, 0.012834659777581692, 0.039448533207178116, -0.22440136969089508, 0.10714197903871536, -0.29871612787246704, 0.012408127076923847, 0.4427264928817749, -0.13005700707435608], [-0.17474474012851715, 0.09003844112157822, 0.45123711228370667, -0.28191494941711426, -0.34275469183921814, 0.11915440112352371, -0.028198571875691414, 0.04707647114992142, 0.058053966611623764, 0.12783180177211761, 0.06293582916259766, -0.26271194219589233, -0.11130335927009583, 0.3869146406650543, -0.16424700617790222, 0.2700571119785309, 0.32978370785713196, 0.001058138208463788, 0.10824298858642578, 0.1383046805858612, -0.32601845264434814, -0.23017416894435883, 0.07864861190319061, -0.1433771848678589, 0.010379355400800705, -0.15962067246437073, -0.360592782497406, 0.029133738949894905, 0.044739075005054474, -0.009686256758868694, -0.08231047540903091, 0.35260528326034546], [0.3840070068836212, 0.06486375629901886, 0.07593239098787308, -0.2707338333129883, -0.41186392307281494, 0.12546172738075256, 0.008501133881509304, -0.019318988546729088, 0.34994664788246155, 0.14387080073356628, -0.14748460054397583, 0.012412012554705143, 0.029530882835388184, -0.0031109494157135487, -0.18548700213432312, 0.13596811890602112, 0.12218111008405685, 0.06064564362168312, -0.13143281638622284, 0.12668849527835846, 0.40538489818573, 0.009111445397138596, 0.23769603669643402, 0.2952696979045868, -0.058495067059993744, 0.024037884548306465, -0.14895498752593994, -0.08881397545337677, -0.24034054577350616, 0.08859908580780029, -0.2016182243824005, -0.3252277374267578], [0.1647142469882965, -0.08391954749822617, -0.05338532105088234, 0.057839859277009964, 0.10922834277153015, 0.26932770013809204, -0.1959790289402008, 0.1857130527496338, 0.06486783921718597, -0.2080489844083786, -0.4589916467666626, 0.08782721310853958, -0.08041514456272125, 0.07883837074041367, 0.06342087686061859, -0.15067389607429504, 0.08889725804328918, 0.10585667937994003, -0.2599974274635315, 0.32367241382598877, -0.32475316524505615, -0.18528833985328674, -0.1090029776096344, 0.23753571510314941, 0.19129379093647003, 0.03277589753270149, -0.006637996062636375, -0.07456132024526596, -0.2369665503501892, -0.33764392137527466, 0.18658100068569183, -0.07653011381626129], [0.021355444565415382, 0.11789324134588242, 0.1802150160074234, -0.11767618358135223, -0.21707534790039062, 0.12783430516719818, -0.11704105883836746, -0.09327586740255356, -0.22089393436908722, 0.07295143604278564, -0.22624650597572327, 0.08540613204240799, 0.057260915637016296, -0.37741655111312866, 0.3568006455898285, 0.2896932363510132, -0.08486776798963547, 0.009610956534743309, -0.25685936212539673, 0.346762090921402, -0.12550392746925354, -0.1348738819360733, -0.08961386233568192, 0.20955632627010345, -0.24624288082122803, -0.10795943439006805, 0.041565731167793274, 0.08013397455215454, 0.27902770042419434, -0.15991412103176117, -0.1689273715019226, 0.3779597878456116], [-0.036244992166757584, -0.44646748900413513, -0.6011214256286621, 0.1660533994436264, 0.1753993034362793, -0.09144110977649689, -0.22257959842681885, 0.10641307383775711, -0.21513806283473969, 0.2519591748714447, 0.14314056932926178, -0.005732790566980839, -0.3001176714897156, -0.08996538072824478, 0.24827881157398224, 0.231437087059021, -0.25465887784957886, 0.31654244661331177, 0.05978633835911751, -0.5637034177780151, -0.02055460400879383, 0.2280086725950241, 0.10375543683767319, 0.30987435579299927, -0.07287474721670151, -0.052117589861154556, -0.6230878829956055, 0.136408731341362, -0.37782156467437744, 0.1488637775182724, -0.027963055297732353, -0.32322773337364197], [0.22287090122699738, 0.14560122787952423, -0.20617519319057465, 0.02533339336514473, 0.1821279674768448, 0.13873937726020813, -0.011496012099087238, 0.0416133850812912, 0.2046920210123062, -0.07738546282052994, 0.07281329482793808, -0.021593917161226273, -0.2280529886484146, 0.15592722594738007, 0.10548195242881775, -0.3041955530643463, -0.2951529920101166, 0.250898152589798, -0.038666244596242905, 0.21511685848236084, 0.14566852152347565, -0.11972706764936447, -0.13946999609470367, -0.2833325266838074, -0.44735634326934814, -0.018671441823244095, -0.2238699197769165, 0.5539878606796265, 0.08218201249837875, 0.08752196282148361, -0.14921657741069794, 0.2853408455848694], [-0.04926767572760582, -0.17166480422019958, -0.3833152949810028, -0.08814544975757599, 0.17658907175064087, 0.05976061150431633, -0.3194648027420044, 0.5022410750389099, -0.07484474778175354, 0.004413148853927851, 0.325941264629364, -0.18337321281433105, -0.13692563772201538, -0.06223495677113533, -0.11520307511091232, 0.0036111464723944664, -0.5073276162147522, 0.24241939187049866, -0.05056031048297882, 0.14374269545078278, 0.10903391242027283, -0.0704822689294815, 0.22622349858283997, -0.10354071855545044, -0.3972685933113098, 0.3126675486564636, -0.17841900885105133, -0.16410252451896667, 0.06180057302117348, -0.17012996971607208, 0.05303385853767395, -0.004460854921489954], [-0.10326362401247025, -0.49405381083488464, -0.12979714572429657, 0.43579575419425964, -0.15600119531154633, -0.041512880474328995, -0.14260515570640564, -0.057949498295784, -0.058554016053676605, -0.040585242211818695, -0.273418128490448, 0.10806173831224442, -0.2853628993034363, 0.15414071083068848, -0.014729422517120838, 0.12210962176322937, 0.10384633392095566, -0.12597288191318512, 0.3337402045726776, -0.03409770876169205, 0.19196468591690063, -0.027243569493293762, 0.1033271923661232, -0.1017206683754921, -0.19197192788124084, -0.04288880154490471, 0.1573655754327774, 0.1492268294095993, 0.026906462386250496, -0.2722688317298889, 0.09122814238071442, -0.1451670080423355], [0.013944529928267002, 0.07080305367708206, 0.06052452325820923, 0.14462634921073914, -0.11711950600147247, 0.06462591886520386, -0.14822670817375183, 0.25714319944381714, -0.03841501101851463, -0.15890970826148987, 0.33027783036231995, -0.11989197880029678, -0.2616979777812958, -0.01436589565128088, 0.04105955362319946, 0.05002162978053093, 0.21977387368679047, -0.21930444240570068, -0.3265659213066101, -0.2491607517004013, 0.0718054249882698, 0.17683781683444977, -0.1706494688987732, 0.21115189790725708, -0.1966111809015274, 0.1440041959285736, 0.22328661382198334, 0.17543424665927887, 0.08126671612262726, 0.20575697720050812, -0.16975697875022888, -0.546762228012085], [0.4797791540622711, -0.2028590738773346, -0.02374015562236309, -0.2269045114517212, 0.04836582764983177, 0.30243048071861267, 0.258562833070755, -0.20725539326667786, -0.07916443794965744, -0.36444294452667236, 0.08381131291389465, -0.11197198182344437, 0.17973391711711884, -0.055413488298654556, -0.09202338755130768, 0.24142082035541534, 0.3455217182636261, -0.13729678094387054, -0.17135043442249298, 0.4366365969181061, -0.05547569319605827, 0.0825924426317215, -0.010667731985449791, -0.2000824213027954, -0.08809947222471237, -0.20495527982711792, -0.23500220477581024, -0.06831435114145279, 0.13433514535427094, -0.006473679561167955, 0.17841441929340363, 0.5220236778259277], [0.07379317283630371, -0.24366676807403564, -0.14219827950000763, -0.3462389409542084, -0.09900519996881485, 0.1473964899778366, -0.0406399741768837, -0.45432400703430176, 0.3130333423614502, 0.07945293188095093, -0.15117767453193665, -0.03003891371190548, 0.0954359695315361, -0.18761615455150604, -0.3474986255168915, 0.0714126005768776, -0.03833739459514618, 0.12198130786418915, -0.2631247043609619, 0.22985173761844635, -0.4741230905056, -0.22859837114810944, 0.003895167028531432, -0.471344918012619, 0.07944966852664948, -0.16633595526218414, 0.42323559522628784, 0.22115182876586914, 0.37109488248825073, -0.23001880943775177, -0.00019722596334759146, 0.2498745322227478]]}, "hr": {"kernel": [[0.01749636046588421, -0.22380422055721283, 0.0906948670744896, -0.05904741957783699, -0.23061567544937134, 0.14972609281539917, 0.2232823520898819, 0.15282802283763885, -0.02117762342095375, 0.2932719886302948, 0.3834249973297119, -0.39684227108955383, -0.20786571502685547, -0.0047065881080925465, 0.09478256106376648, -0.07714399695396423, 0.13805969059467316, -0.2231583595275879, -0.04738132655620575, 0.11882800608873367, 0.03368242457509041, 0.15270432829856873, 0.3631822466850281, 0.10708773136138916, 0.07817129790782928, 0.08186767995357513, -0.12706446647644043, 0.12652401626110077, 0.15039454400539398, -0.2632170617580414, -0.0930120199918747, 0.00416526198387146], [-0.21437634527683258, 0.11316581815481186, 0.01887008361518383, 0.06320395320653915, 0.2074047476053238, 0.21193386614322662, 0.16050583124160767, -0.2674049735069275, 0.06572561711072922, 0.10986430197954178, 0.018222911283373833, 0.19136860966682434, -0.039200346916913986, -0.00642459886148572, -0.4219941198825836, -0.1377495676279068, -0.37916043400764465, -0.38227003812789917, -0.40851423144340515, -0.32066869735717773, 0.03109976090490818, -0.15976564586162567, 0.10339850187301636, -0.19540823996067047, 0.039353396743535995, -0.1552180051803589, 0.31228381395339966, 0.06834082305431366, -0.05197818577289581, -0.06267848610877991, 0.2487870752811432, -0.2814446687698364], [-0.06532827764749527, 0.31562960147857666, -0.41036736965179443, 0.11843759566545486, -0.05958910286426544, 0.23638856410980225, 0.2866755425930023, -0.1124689131975174, -0.1611693948507309, -0.055661726742982864, -0.2573204040527344, 0.217673197388649, -0.1940234899520874, 0.35058265924453735, -0.11266298592090607, -0.14319893717765808, 0.02395634353160858, -0.36859509348869324, 0.1736980825662613, -0.10298236459493637, 0.5255560278892517, 0.19666166603565216, 0.004138265270739794, -0.02388155832886696, -0.09082767367362976, -0.29296037554740906, -0.24121686816215515, -0.30886876583099365, 0.13290496170520782, 0.12266924977302551, -0.1941479742527008, 0.13439397513866425], [-0.20079120993614197, 0.31007686257362366, 0.0038374634459614754, -0.3059118092060089, 0.0012260401854291558, -0.20186884701251984, -0.12841369211673737, -0.14286738634109497, -0.043031636625528336, 0.18954120576381683, -0.019716549664735794, -0.18732497096061707, 0.16771942377090454, -0.08558140695095062, -0.12042350322008133, 0.013074868358671665, 0.25232821702957153, 0.03627626970410347, -0.21575003862380981, 0.5155051350593567, 0.09540179371833801, -0.21333587169647217, -0.0423135906457901, -0.10827651619911194, 0.1537860631942749, -0.33912143111228943, 0.5578871965408325, -0.02410043776035309, 0.5580374002456665, -0.08577582985162735, -0.24281209707260132, 0.13453184068202972], [-0.19061057269573212, -0.2612629234790802, 0.262504518032074, 0.008766911923885345, 0.019436687231063843, 0.03627330809831619, -0.14293640851974487, -0.0003358591056894511, -0.12591467797756195, 0.2708408236503601, -0.09177565574645996, 0.07466340810060501, -0.1783171147108078, 0.21058814227581024, 0.1089070662856102, -0.0007475772290490568, -0.09885785728693008, -0.03388093784451485, -0.28554457426071167, 0.1332743912935257, -0.020175496116280556, -0.02671956457197666, -0.19810578227043152, 0.6089937686920166, -0.2797119617462158, -0.17215460538864136, -0.06050623580813408, -0.13356688618659973, 0.045697107911109924, 0.30544793605804443, -0.016185162588953972, -0.015029644593596458], [-0.2761240005493164, -0.0072987754829227924, -0.18392139673233032, 0.41996636986732483, -0.14084918797016144, -0.3675767779350281, 0.13187341392040253, -0.16419290006160736, 0.3525293171405792, -0.1164391040802002, -0.01763594150543213, -0.13898082077503204, -0.014446250163018703, -0.0897304117679596, 0.1303449422121048, 0.22279733419418335, -0.09067229181528091, 0.06413187086582184, -0.17321649193763733, -0.280161052942276, -0.10306945443153381, 0.2783984839916229, 0.36600324511528015, 0.05717398226261139, -0.16220159828662872, 0.08983542025089264, -0.020465107634663582, -0.19779714941978455, 0.02623041719198227, -0.2540638744831085, -0.1094922199845314, 0.01618332602083683], [0.16263024508953094, 0.6835042238235474, -0.012609885074198246, 0.100066177546978, -0.20656602084636688, -0.20093153417110443, 0.35441911220550537, -0.1686493307352066, -0.19429853558540344, -0.13159498572349548, -0.2672445476055145, 0.03802524879574776, -0.20999376475811005, 0.14354240894317627, 0.22715900838375092, -0.3439752459526062, -0.39198166131973267, -0.18007218837738037, -0.05383837968111038, 0.10530529171228409, 0.19796133041381836, -0.18042287230491638, -0.17953422665596008, 0.053537677973508835, 0.12592628598213196, -0.1606798619031906, 0.44392937421798706, -0.11316760629415512, -0.05957725644111633, 0.34412670135498047, -0.2780178189277649, -0.47725704312324524], [0.028802957385778427, -0.005699703935533762, 0.3593190014362335, 0.13672858476638794, -0.3382123112678528, 0.09217741340398788, -0.17056451737880707, 0.47033047676086426, 0.010866436176002026, -0.16460300981998444, 0.1781044900417328, 0.09784933924674988, -0.09033863991498947, 0.14341431856155396, 0.06620699912309647, -0.016707830131053925, -0.03328723832964897, -0.024498293176293373, 0.06184244900941849, -0.2607395648956299, 0.26732924580574036, -0.39616644382476807, 0.12605883181095123, 0.21690475940704346, -0.26558417081832886, 0.15235012769699097, 0.025101488456130028, 0.4456717371940613, 0.28970539569854736, -0.2177407592535019, -0.1499982327222824, 0.16058233380317688], [-0.051871318370103836, 0.16201584041118622, 0.36513516306877136, 0.042601440101861954, -0.33124813437461853, 0.2975877821445465, 0.07392033189535141, -0.0007806472713127732, 0.14354638755321503, -0.017416398972272873, 0.007898280397057533, -0.10193464905023575, -0.04541854187846184, 0.014267153106629848, -0.18566307425498962, 0.2626502513885498, 0.24046151340007782, 0.08548451960086823, -0.23778842389583588, -0.11202560365200043, -0.0021867891773581505, 0.05141546204686165, -0.18172232806682587, -0.1332932859659195, -0.004821602255105972, 0.16789713501930237, -0.21697992086410522, 0.2896665632724762, -0.19874389469623566, 0.39380183815956116, -0.17001937329769135, 0.055378273129463196], [-0.05385172739624977, 0.09693517535924911, -0.19758589565753937, 0.06187644973397255, -0.2223779410123825, 0.2643917202949524, -0.2176215946674347, 0.0632522776722908, 0.16548623144626617, 0.30581218004226685, -0.0013082997174933553, 0.10460063070058823, 0.016242263838648796, 0.19460687041282654, 0.3112948536872864, -0.08833971619606018, -0.04217158257961273, 0.06876534968614578, 0.13657326996326447, -0.04690101742744446, 0.19299186766147614, -0.177494615316391, 0.34548312425613403, -0.18636177480220795, -0.018093332648277283, 0.06474237889051437, -0.007913630455732346, 0.01531231589615345, -0.02324840798974037, 0.337359756231308, 0.28259360790252686, -0.2195959985256195], [-0.08474110811948776, 0.11152539402246475, -0.07195869833230972, -0.43354183435440063, -0.1732954978942871, -0.442940890789032, -0.2284146249294281, 0.02290467917919159, 0.3752608299255371, 0.11678613722324371, -0.4589099586009979, 0.37910574674606323, -0.23634208738803864, 0.006101545877754688, 0.09827009588479996, -0.13629652559757233, 0.31635022163391113, -0.10584621876478195, 0.15044546127319336, -0.09480052441358566, -0.5234609842300415, 0.12052253633737564, -0.23744921386241913, -0.07335275411605835, -0.11246782541275024, 0.7402450442314148, -0.11930841207504272, -0.12856362760066986, 0.20781417191028595, -0.26438450813293457, 0.032536815851926804, 0.09522663056850433], [-0.040212325751781464, 0.1701691448688507, 0.3017871379852295, 0.25673285126686096, -0.143962100148201, 0.1626710295677185, 0.1919441521167755, -0.37844374775886536, -0.48101434111595154, 0.10194157063961029, 0.2541047930717468, 0.36551153659820557, -0.18396885693073273, 0.20236864686012268, 0.05675753951072693, 0.3274011015892029, 0.03874297812581062, 0.09777425229549408, 0.22932760417461395, 0.27082452178001404, -0.16298337280750275, -0.09764643758535385, 0.115537129342556, 0.08561429381370544, 0.11672989279031754, 0.07628624886274338, 0.17291060090065002, -0.18284010887145996, 0.027827143669128418, -0.16919445991516113, 0.05467265471816063, -0.23012524843215942], [0.014743301086127758, -0.018134204670786858, 0.04044802114367485, -0.29812803864479065, 0.038558900356292725, -0.13498683273792267, -0.009742368012666702, -0.020237229764461517, -0.3589583933353424, -0.16751065850257874, 0.3387756049633026, -0.1781102567911148, -0.07706769555807114, -0.06785425543785095, -0.44405823945999146, 0.05434660241007805, 0.24744081497192383, 0.09888017177581787, -0.0046138097532093525, -0.17109103500843048, 0.1200820580124855, -0.13771328330039978, 0.194478839635849, 0.23667612671852112, -0.43022486567497253, 0.31365159153938293, -0.1523313969373703, 0.23092825710773468, 0.007475659251213074, 0.15943323075771332, 0.39377886056900024, -0.07159276306629181], [0.13916178047657013, 0.4020528495311737, 0.10654112696647644, -0.05223144590854645, -0.12708786129951477, -0.06432105600833893, 0.04095016047358513, 0.24402929842472076, 0.05730897933244705, 0.24453625082969666, -0.18558375537395477, -0.015047609806060791, 0.22775030136108398, -0.31956881284713745, -0.18707723915576935, -0.15006528794765472, -0.1049673929810524, -0.017866849899291992, -0.010987075977027416, 0.037426821887493134, -0.16917961835861206, 0.1791222244501114, 0.062380410730838776, 0.2766844630241394, 0.14326854050159454, -0.2544279992580414, -0.2227986603975296, -0.01920027658343315, -0.13846628367900848, -0.06500561535358429, 0.3219132721424103, -0.10472547262907028], [-0.015935339033603668, 0.09485850483179092, -0.021755622699856758, 0.2614251971244812, 0.20196130871772766, 0.19267377257347107, 0.0765378326177597, -0.3620729148387909, 0.10267578810453415, 0.23586364090442657, 0.03256867080926895, -0.10622947663068771, 0.0906892716884613, -0.04146594926714897, 0.09567586332559586, -0.0008376572513952851, 0.06704595685005188, -0.10382992774248123, 0.09075737744569778, 0.057778630405664444, -0.05937683954834938, -0.1807606816291809, -0.09025038778781891, 0.3010779321193695, 0.04602738842368126, 0.13077999651432037, -0.09485838562250137, 0.4094332754611969, 0.22710394859313965, -0.020240411162376404, 0.09922011941671371, 0.6102152466773987], [0.0905739888548851, -0.2151002436876297, 0.09101787209510803, -0.21901006996631622, 0.4223215878009796, 0.15139353275299072, 0.37837255001068115, -0.08048853278160095, 0.17553864419460297, -0.0036874397192150354, 0.6450248956680298, -0.01163701992481947, -0.20448993146419525, -0.348758727312088, -0.008527778089046478, -0.14225348830223083, -0.08965959399938583, 0.4249839186668396, -0.0882396250963211, -0.5218508243560791, -0.3827304542064667, -0.18121014535427094, 0.1094050258398056, 0.002803367329761386, -0.11244316399097443, 0.07798900455236435, -0.3059079349040985, 0.22828945517539978, 0.03978639841079712, -0.18687763810157776, -0.0773928090929985, -0.3371596038341522], [0.07215247303247452, 0.1209755539894104, 0.21266362071037292, 0.17605863511562347, 0.07006021589040756, -0.11588549613952637, 0.24921779334545135, 0.2070619761943817, -0.14520779252052307, 0.009117170237004757, 0.09125271439552307, 0.16270478069782257, 0.29182887077331543, 0.13354536890983582, 0.0629921406507492, -0.11653182655572891, 0.028186623007059097, -0.028766827657818794, -0.3119116723537445, 0.5101326107978821, 0.02290184050798416, 0.010289191268384457, 0.08285326510667801, -0.258163720369339, -0.26542261242866516, 0.07674458622932434, 0.10435347259044647, 0.14383040368556976, 0.019729558378458023, 0.05374990031123161, 0.10259118676185608, -0.025535574182868004], [0.42766815423965454, -0.14150559902191162, 0.0044897813349962234, -0.04269180819392204, 0.07596730440855026, -0.19738444685935974, 0.008759110234677792, -0.15538077056407928, 0.10465673357248306, -0.15452919900417328, -0.6007753014564514, 0.06873678416013718, -0.2622719407081604, 0.012524016201496124, -0.11008583754301071, -0.03343024104833603, 0.013173192739486694, -0.056890781968832016, 0.002281652996316552, -0.09508483111858368, -0.03647218644618988, 0.012754072435200214, 0.16978347301483154, -0.12817944586277008, 0.00042131441296078265, -0.00933770090341568, -0.205577552318573, 0.08149505406618118, 0.1799517571926117, 0.06366263329982758, 0.08865509182214737, -0.378409206867218], [0.05552804097533226, 0.03922337293624878, 0.015779506415128708, 0.002993751550093293, -0.10838677734136581, 0.21230757236480713, 0.3518795967102051, 0.27641889452934265, -0.1411607563495636, 0.12296291440725327, -0.23589710891246796, -0.06387195736169815, 0.11944552510976791, -0.13813473284244537, -0.03978779539465904, 0.37660497426986694, -0.3963848054409027, -0.17989882826805115, 0.1941748410463333, 0.13415279984474182, 0.18886145949363708, -0.15589238703250885, -0.1606493443250656, -0.03613204136490822, -0.07684364914894104, 0.26940810680389404, 0.11910063028335571, -0.20978383719921112, 0.23012709617614746, 0.2577917277812958, 0.05199097841978073, 0.10272101312875748], [-0.0021954141557216644, -0.16683293879032135, 0.5601706504821777, 0.10621155798435211, 0.11816304922103882, 0.13589255511760712, 0.21546854078769684, -0.12084932625293732, 0.163008913397789, 0.07330929487943649, -1.0716392993927002, 0.33553358912467957, 0.032340679317712784, 0.1013270765542984, -0.2416641116142273, -0.267893522977829, 0.2575688362121582, 0.015548705123364925, 0.22745639085769653, -0.16778022050857544, 0.41547632217407227, 0.20438264310359955, -0.07593300193548203, 0.1277928203344345, 0.12193258106708527, -0.08247474581003189, 0.16982877254486084, -0.19201473891735077, 0.0010449900291860104, 0.1151825413107872, 0.38865286111831665, -0.17077051103115082], [-0.23352409899234772, 0.3273337483406067, 0.06924702227115631, -0.13937701284885406, -0.15217851102352142, 0.24895119667053223, -0.30644845962524414, 0.6159585118293762, 0.19276106357574463, -0.3298107087612152, -0.2806646227836609, 0.053390346467494965, -0.2799261808395386, -0.20607629418373108, -0.018919499590992928, -0.2799248695373535, 0.33074042201042175, -0.03185444697737694, -0.05371056869626045, 0.2522384226322174, 0.6068393588066101, -0.18986691534519196, 0.027165653184056282, 0.2558734714984894, 0.1247575432062149, 0.653682291507721, 0.2525925934314728, 0.00636113528162241, -0.1405859738588333, -0.1544983834028244, 0.14494672417640686, 1.1662843227386475], [-0.46241432428359985, -0.20077234506607056, -0.19858711957931519, -0.363604873418808, -0.020291311666369438, -0.34102800488471985, 0.4038877785205841, -0.3283674716949463, -0.09785685688257217, -0.0038016377948224545, -0.6757400035858154, 0.06069614365696907, 0.12527385354042053, -0.2172299027442932, 0.05096321180462837, -0.2883243262767792, 0.19376599788665771, -0.09812343120574951, 0.06487620621919632, -0.8272207379341125, 0.12944239377975464, -0.025327662006020546, -0.07089034467935562, -0.18399225175380707, 0.34737685322761536, -0.11909542232751846, -0.17214824259281158, 0.04537937417626381, -0.17074115574359894, 0.031468357890844345, 0.11780964583158493, -0.1718648225069046], [0.19572371244430542, 0.13663069903850555, -0.29311949014663696, -0.24902543425559998, -0.03285187482833862, -0.13143649697303772, 0.07940181344747543, 0.26998358964920044, 0.07565871626138687, 0.016957074403762817, -0.15226782858371735, 0.2135510891675949, -0.16808989644050598, 0.06143634766340256, 0.02768862061202526, 0.24773164093494415, 0.10913754999637604, 0.2817082107067108, -0.4171958863735199, 0.23677773773670197, -0.10520094633102417, -0.08926264941692352, 0.16076570749282837, -0.0008224917692132294, 0.25478196144104004, 0.02288210019469261, 0.09946715086698532, -0.1663231998682022, 0.052320774644613266, 0.05424421280622482, 0.1306891292333603, 0.3440840244293213], [0.06204216554760933, -0.24909497797489166, -0.47758913040161133, -0.3097558319568634, -0.09463223069906235, 0.25295859575271606, 0.018769869580864906, -0.07493875920772552, -0.09254509210586548, 0.0015443871961906552, 0.4990682899951935, -0.079854317009449, 0.4902806282043457, 0.20344506204128265, -0.09210909157991409, -0.17272529006004333, 0.1935041844844818, -0.04577023163437843, -0.19210854172706604, -0.10848821699619293, -0.05368940159678459, 0.3309550881385803, -0.13380691409111023, 0.16195979714393616, -0.19104933738708496, 0.10516872256994247, 0.311910480260849, 0.30781614780426025, 0.1834506243467331, -0.0657641664147377, -0.050761204212903976, -0.13775119185447693], [0.18252579867839813, 0.044661857187747955, -0.09500956535339355, 0.06395111978054047, -0.20825859904289246, -0.1672917604446411, 0.3509485721588135, -0.2874892055988312, 0.09735467284917831, 0.03559928759932518, 0.1817430555820465, 0.030690088868141174, -0.2711727023124695, -0.1288134753704071, 0.11079323291778564, -0.201972097158432, 0.11050860583782196, 0.12742938101291656, -0.23505733907222748, -0.3121293783187866, 0.3701365292072296, -0.05200177803635597, -0.48891618847846985, -0.13045042753219604, -0.0034811259247362614, -0.11248880624771118, 0.05796291306614876, -0.00023797590984031558, -0.0344306081533432, -0.24213527143001556, 0.30988770723342896, -0.36092227697372437], [-0.012080750428140163, 0.12163110822439194, 0.39995840191841125, -0.19995492696762085, 0.08017146587371826, -0.04663708060979843, -0.1188320443034172, 0.15296100080013275, 0.7501835823059082, -0.14154575765132904, 0.22220532596111298, -0.18334592878818512, 0.189480260014534, 0.24245288968086243, 0.33818772435188293, 0.288204163312912, -0.04093010723590851, 0.2706538140773773, 0.16596518456935883, 0.3252740800380707, 0.13687381148338318, 0.13835154473781586, 0.2145102173089981, 0.2625584304332733, -0.013760631904006004, 0.40374070405960083, 0.5074522495269775, 0.8068752884864807, -0.20320643484592438, -0.18999847769737244, -0.2098654955625534, 0.33731013536453247], [-0.03743359073996544, 0.19553494453430176, 0.15008805692195892, -0.024787787348031998, 0.17566005885601044, 0.06111568585038185, -0.1571977138519287, -0.07811767607927322, -0.26251405477523804, -0.28591638803482056, -0.333087295293808, 0.29257383942604065, -0.15224947035312653, -0.16991578042507172, 0.44724759459495544, 0.09061633050441742, -0.2056656926870346, 0.06414984166622162, -0.3817177712917328, 0.12876392900943756, 0.22901135683059692, 0.24874569475650787, 0.09291931241750717, -0.05126632750034332, 0.3592900037765503, 0.23042166233062744, -0.20688088238239288, 0.19268646836280823, 0.05306720733642578, -0.2461496889591217, 0.029081154614686966, -0.1081978902220726], [0.1413632333278656, -0.01745430752635002, 0.43604105710983276, 0.01661672443151474, -0.07311437278985977, 0.014731750823557377, -0.21355335414409637, 0.1979488581418991, 0.029515651986002922, 0.2184145301580429, -0.524816632270813, -0.09305503964424133, 0.3396055996417999, 0.47970670461654663, -0.15839837491512299, -0.07407458871603012, -0.06643444299697876, 0.3096466660499573, 0.0005768080591224134, -0.023209938779473305, 0.18511173129081726, -0.3766656517982483, 0.13654553890228271, 0.18439388275146484, 0.12147766351699829, 0.49642324447631836, -0.30831700563430786, -0.009998596273362637, -0.3901969790458679, -0.27958470582962036, -0.07597829401493073, 0.18496401607990265], [0.32516029477119446, 0.17674823105335236, 0.07637248933315277, 0.19497786462306976, 0.09038567543029785, 0.02023201808333397, 0.017219437286257744, 0.07680338621139526, -0.03967733681201935, 0.040441129356622696, 0.3250443935394287, 0.3476255536079407, 0.03817841038107872, -0.28477591276168823, -0.08938829600811005, 0.05811506137251854, 0.28938665986061096, -0.14459961652755737, -0.09412731230258942, -0.0751117691397667, 0.06885677576065063, -0.2065722793340683, 0.1564265489578247, 0.1964140087366104, -0.045829564332962036, 0.09650927782058716, 0.058886416256427765, -0.2601785957813263, -0.04126966372132301, 0.34767258167266846, -0.25816455483436584, -0.1561049073934555], [-0.1604001373052597, -0.2784324288368225, -0.07840760052204132, -0.037018291652202606, -0.07939209789037704, -0.042523451149463654, 0.16100625693798065, -0.18895407021045685, 0.28045812249183655, -0.42191919684410095, 0.48540353775024414, -0.05447227880358696, 0.2746948003768921, 0.0164801012724638, -0.020136000588536263, 0.051616691052913666, -0.0927586555480957, 0.05896621197462082, -0.04278889670968056, 0.14376534521579742, -0.13710518181324005, -0.11431736499071121, 0.06727775931358337, 0.167915940284729, 0.2221912294626236, -0.11370299756526947, -0.20988109707832336, -0.11087445914745331, 0.1920362263917923, 0.13771694898605347, 0.23593398928642273, -0.12403824180364609], [-0.03457168862223625, 0.29666903614997864, 0.04372924938797951, -0.13573698699474335, 0.22983673214912415, 0.028109900653362274, -0.017939623445272446, 0.06857021152973175, 0.1847938746213913, -0.26802873611450195, -0.43524307012557983, -0.3222717344760895, 0.049637068063020706, 0.27038782835006714, 0.2737237215042114, 0.16302257776260376, 0.37303924560546875, -0.15893441438674927, -0.08702877908945084, -0.34207138419151306, -0.20814310014247894, -0.15233437716960907, -0.12017316371202469, 0.04746479541063309, -0.03502634912729263, -0.21654745936393738, -0.12359243631362915, -0.29045552015304565, 0.051820363849401474, -0.22132325172424316, 0.16277682781219482, -0.6803522109985352], [0.14211982488632202, -0.026664981618523598, 0.07886511087417603, -0.6041404604911804, -0.15065346658229828, -0.12258700281381607, -0.09967602789402008, -0.6850059032440186, -0.47056031227111816, -0.08151579648256302, 0.16462180018424988, 0.28006672859191895, 0.13628876209259033, -0.3657759130001068, 0.23622994124889374, -0.022844210267066956, -0.15441906452178955, -0.11723919212818146, -0.08747021853923798, -1.1457701921463013, -0.21652871370315552, -0.004023619461804628, 0.2675442695617676, -0.2322009801864624, -0.28744783997535706, -0.6063524484634399, -0.25169074535369873, -0.6190038919448853, -0.20267397165298462, 0.0968979224562645, 0.22379766404628754, -0.35463061928749084]]}, "hz": {"kernel": [[0.07914821058511734, -0.287063330411911, 0.0015205199597403407, -0.14358769357204437, -0.16425450146198273, -0.3555731177330017, 0.6804807782173157, -0.058866970241069794, -0.07712222635746002, -0.18546061217784882, 0.2797657251358032, -0.13968029618263245, -0.4261017441749573, -0.34540224075317383, 0.08819654583930969, -0.3080034554004669, -0.15311221778392792, -0.11801766604185104, 0.4288162887096405, -0.060411807149648666, 0.004414721857756376, -0.19832096993923187, -0.23774707317352295, -0.1662358045578003, -0.11849505454301834, -0.3076247274875641, -0.3382849097251892, -0.34055060148239136, -0.03949686139822006, 0.22633659839630127, 0.012179824523627758, 0.04755023866891861], [0.5706368684768677, -0.016307102516293526, 0.40480029582977295, 0.08371040225028992, -0.6651628613471985, -0.12184296548366547, -0.2669949233531952, -0.5338218212127686, -0.09488656371831894, 0.15039533376693726, -0.07789115607738495, -0.09051527082920074, -0.036704521626234055, -0.10093594342470169, 0.2659994065761566, 0.18905676901340485, 0.14776445925235748, 0.5994425415992737, 0.4035217761993408, 0.064927838742733, -0.16247758269309998, -0.287146657705307, -0.13006040453910828, -0.0407826229929924, -0.1335093379020691, 0.03884952515363693, -0.12467315793037415, -0.31543877720832825, 0.01502256654202938, 0.17728914320468903, -0.2976875603199005, -0.2780764400959015], [-0.07009287923574448, -0.3590167164802551, 0.029446955770254135, 0.15152661502361298, -0.028072265908122063, 0.32567909359931946, -0.12794208526611328, -0.13663391768932343, 0.2965148389339447, 0.10055649280548096, -0.25566989183425903, 0.37216806411743164, -0.12533526122570038, 0.06340878456830978, -0.06000440940260887, -0.20786963403224945, 0.9922535419464111, -0.07550369203090668, -0.5272712707519531, 0.10732447355985641, -0.14623625576496124, 0.21308192610740662, 0.18056711554527283, 0.592900276184082, -0.2100774496793747, -0.07356469333171844, -0.16036704182624817, 0.21153652667999268, 0.19997991621494293, -0.209069162607193, 0.2173009216785431, 0.6521261930465698], [0.054244086146354675, -0.3275988698005676, 0.32457250356674194, 0.056523505598306656, -0.11618873476982117, 0.17732110619544983, 0.349837064743042, -0.03216902166604996, -0.00916348397731781, -0.049185577780008316, -0.1694134622812271, 0.004809974692761898, -0.12744088470935822, 0.00872444175183773, 0.3245374858379364, 0.13721729815006256, -0.07012302428483963, -0.19307391345500946, -0.4254814386367798, 0.8924455046653748, 0.2716551423072815, -0.11124751716852188, 0.1044367104768753, 0.08726940304040909, 0.1188243106007576, 0.4801520109176636, -0.013926131650805473, 0.5597316026687622, -0.26701679825782776, 0.08532798290252686, 0.2562679052352905, 0.19686953723430634], [0.3135316073894501, 0.13601459562778473, 0.16611918807029724, 0.3994298279285431, 0.36402174830436707, 0.088472381234169, 0.35614335536956787, 0.4280705153942108, -0.011963601224124432, 0.14103610813617706, -0.11438991129398346, -0.26250410079956055, -0.050865646451711655, 0.09265514463186264, 0.09783103317022324, -0.23057401180267334, -0.201898992061615, -0.16268254816532135, 0.25269004702568054, -0.36669921875, -0.3512061536312103, -0.06649558246135712, 0.7643206715583801, -0.002923187566921115, -0.0134514719247818, -0.11489640921354294, 0.21507854759693146, 0.03676469624042511, -0.039918672293424606, 0.32644084095954895, -0.19506533443927765, -0.012821457348763943], [-0.1288750171661377, -0.529250979423523, 0.24769826233386993, -0.3448762595653534, -0.3599594831466675, 0.08753819018602371, -0.19652359187602997, 0.31267157196998596, -0.10470641404390335, -0.003574481699615717, 0.2542925477027893, 0.019353659823536873, -0.03385123610496521, 0.06401940435171127, -0.22004035115242004, -0.10072468966245651, -0.23686806857585907, -0.07870742678642273, 0.36708733439445496, 0.16249309480190277, 0.11117927730083466, -0.5608158111572266, -0.3034948706626892, 0.028038257732987404, -0.2159532755613327, -0.1143641322851181, -0.2544928789138794, -0.24590973556041718, -3.102668051724322e-05, -0.07821275293827057, 0.3192859888076782, -0.5876409411430359], [-1.000132441520691, 0.4306483566761017, 0.3599408268928528, 0.010125880129635334, -0.31051644682884216, 0.05255817994475365, -0.3792855441570282, -0.11948958784341812, 0.0443788580596447, 0.15065421164035797, -0.8056603074073792, -0.1991576999425888, 0.057605575770139694, 0.052870139479637146, 0.02474614791572094, 0.1836947649717331, 0.6349665522575378, 0.7173032760620117, -0.39773261547088623, 0.8430390357971191, -3.508972076815553e-05, 0.07303483039140701, 0.07300484925508499, -0.36625853180885315, 0.09966117888689041, -0.15888386964797974, -0.19762229919433594, 0.15519464015960693, 0.020330529659986496, -0.6198640465736389, 0.13365180790424347, 0.10003909468650818], [0.04159773886203766, 0.22356729209423065, 0.06012827530503273, -0.5668452978134155, 0.08083589375019073, 0.18560749292373657, 0.383637934923172, -0.19093813002109528, -0.3686771094799042, -0.14993181824684143, 0.10246195644140244, 0.21232235431671143, 0.029136372730135918, -0.12592850625514984, -0.2531254291534424, 0.13317081332206726, -0.8848049640655518, -0.015781525522470474, -0.06168016791343689, -0.4125342071056366, -0.20364822447299957, 0.2822382152080536, -0.11070211976766586, 0.007590542547404766, -0.10060130059719086, 0.09050888568162918, 0.13044597208499908, 0.31403031945228577, 0.11269776523113251, -0.2019263356924057, -0.18453240394592285, -0.33899256587028503], [-0.14847902953624725, -0.2563025951385498, -0.27125298976898193, 0.29681476950645447, 0.3062359392642975, 0.04996922239661217, 0.41131705045700073, -0.42680490016937256, -0.028567751869559288, 0.2670730948448181, -0.12270621210336685, 0.41489848494529724, -0.11589031666517258, -0.21757346391677856, -0.03254091367125511, 0.44889602065086365, 0.1615155041217804, 0.061968788504600525, 0.232701376080513, 0.132048100233078, -0.17974327504634857, -0.24767354130744934, 0.14623165130615234, 0.2156798392534256, 0.1253483146429062, 0.009438433684408665, 0.13121187686920166, 0.2029174566268921, 0.17207393050193787, -0.18855874240398407, -0.0002026794827543199, 0.3491017520427704], [-0.28953537344932556, 0.06816056370735168, -0.1736966073513031, 0.0019286517053842545, 0.2467130422592163, 0.03879944607615471, -0.47183194756507874, -0.09873048216104507, 0.29703935980796814, 0.16077202558517456, 0.14393700659275055, -0.21348761022090912, 0.29973652958869934, 0.4050294756889343, 0.07303521782159805, -0.3144109845161438, -0.0890263020992279, -0.12678828835487366, -0.34233558177948, 0.10828986763954163, -0.13186077773571014, -0.09878134727478027, 0.16316023468971252, 0.2896174192428589, 0.12783661484718323, 0.025485407561063766, -0.06681760400533676, 0.22050462663173676, 0.43266475200653076, 0.12715919315814972, -0.09672216325998306, 0.19599649310112], [-0.2987481951713562, -0.27698954939842224, -0.5944080352783203, 0.5201746225357056, 0.2106676548719406, -0.15088003873825073, 0.5528796315193176, -0.38959866762161255, -0.4499494731426239, 0.7113538980484009, -0.4215189814567566, 0.22873836755752563, 0.27176758646965027, 0.8361400961875916, 0.18131570518016815, 0.4723452627658844, 0.3485433757305145, -0.1618354618549347, 0.0396505706012249, 0.34300222992897034, 0.32399988174438477, -0.03180314972996712, 0.37606537342071533, -0.4239039421081543, 0.3406144380569458, 0.3455558717250824, -0.38828766345977783, 0.1494949758052826, -0.17163626849651337, -0.19215954840183258, 0.27129924297332764, 0.4403601288795471], [0.11337648332118988, 0.8501116633415222, -0.1833581030368805, -0.23045553267002106, -0.09898366034030914, -0.2206723690032959, -1.052854061126709, 0.048800718039274216, 0.3764130175113678, 0.15608733892440796, 0.25574588775634766, 0.07380904257297516, -0.16048693656921387, -0.2484045773744583, -0.061678070574998856, -0.2984914779663086, 0.4145492911338806, -0.3224804401397705, 0.07441078126430511, -0.36886245012283325, -0.15052515268325806, -0.1751571148633957, -0.19235047698020935, 0.45597654581069946, -0.33131808042526245, -0.07289507240056992, 0.2775718569755554, -0.00792249571532011, 0.4018333852291107, 0.12365342676639557, -0.7554600238800049, -0.2409796416759491], [-0.2191603183746338, -0.30719444155693054, -0.2803424894809723, 0.8410836458206177, 0.5032902359962463, -0.4321891963481903, 0.1368088275194168, 0.06374611705541611, 0.13481207191944122, 0.21561770141124725, 0.33306896686553955, 0.3250701129436493, 0.1714266687631607, 1.1565008163452148, 0.6433928608894348, 0.35614779591560364, -0.13493318855762482, -0.20084848999977112, -0.22383630275726318, 0.09650205820798874, -0.31655269861221313, 0.18045222759246826, 0.38215121626853943, -0.1720191389322281, -0.06037285178899765, -0.056978825479745865, 0.19819945096969604, 0.060717374086380005, 0.14857551455497742, 0.2647874355316162, -0.14352929592132568, -0.2063804715871811], [-0.16275282204151154, 0.18855175375938416, -0.12365303933620453, -0.06686027348041534, 0.24851307272911072, 0.2579050064086914, -0.05805256590247154, -0.07978744804859161, 0.2424813061952591, 0.0697982981801033, 0.00577642023563385, 0.04658585786819458, -0.23291939496994019, 0.19617213308811188, 0.2438168227672577, -0.21909722685813904, 0.5148601531982422, 0.17276087403297424, -0.12094926834106445, -0.03394702076911926, -0.1044333353638649, -0.2031576782464981, 0.05465410277247429, 0.07538843899965286, 0.154262974858284, -0.13507981598377228, 0.10149824619293213, 0.16058649122714996, 0.008922162465751171, -0.3043622672557831, 0.10997722297906876, 0.00036898363032378256], [-0.12114966660737991, -0.07710812240839005, 0.1145223006606102, 0.06938771903514862, 0.11037487536668777, -0.24657520651817322, 0.0500560961663723, -0.5016701221466064, 0.18182671070098877, -0.11824718117713928, -0.3031487464904785, 0.23584423959255219, 0.08388690650463104, 0.30343562364578247, -0.051856331527233124, -0.12849722802639008, 0.5483430624008179, 0.37783947587013245, 0.24188345670700073, 0.24848218262195587, -0.003040005685761571, 0.03607136383652687, 0.186470165848732, 0.0841144472360611, -0.008316517807543278, 0.3553692400455475, -0.5492978096008301, 0.19873261451721191, -0.1956632286310196, -0.07517469674348831, 0.1650519073009491, 0.49355390667915344], [0.11339256912469864, -0.23782838881015778, -0.3604714274406433, 0.21835783123970032, 0.05496416613459587, -0.1908622831106186, 0.7397408485412598, -0.15160320699214935, -0.12273742258548737, -0.15361948311328888, -0.5313011407852173, 0.15697717666625977, 0.05138193443417549, -0.5840757489204407, -0.04022161290049553, 0.10264157503843307, -0.7557874917984009, -0.1382559835910797, 0.256695419549942, 0.5525402426719666, -0.10655196011066437, -0.15858186781406403, 0.04092833027243614, 0.20026229321956635, -0.7074881196022034, -0.1228703036904335, 0.22802795469760895, -0.4355439245700836, -0.4740782678127289, 0.15034227073192596, 0.2963855564594269, 0.1595940738916397], [-0.17655394971370697, 0.6809549331665039, -0.029225150123238564, 0.6034141778945923, 0.37987229228019714, -0.1762407422065735, 0.08976680040359497, 0.23677901923656464, 0.5765165090560913, -0.12358063459396362, -0.07060268521308899, 0.07860569655895233, -0.12301331013441086, 0.11557517945766449, 0.31050798296928406, 0.21383558213710785, 0.1803864985704422, -0.10603206604719162, 0.3992364704608917, 0.19356495141983032, -0.5609303712844849, -0.055485762655735016, 0.570068895816803, 0.11477691680192947, 0.6355025768280029, -0.09017545729875565, -0.004223059397190809, 0.48856520652770996, -0.24049386382102966, -0.20437777042388916, -0.2679246664047241, -0.25152915716171265], [0.17873315513134003, 0.15209680795669556, 0.1873500645160675, 0.3037869334220886, -0.001739701023325324, 0.1830672174692154, -0.8218107223510742, -0.2697124183177948, -0.4496464431285858, -0.0007067666738294065, -0.21361447870731354, 0.3882787823677063, 0.2706916034221649, 0.05564913526177406, 0.20646320283412933, 0.14458397030830383, -0.5785149335861206, -0.008619741536676884, -0.7297877669334412, -0.01741941273212433, 0.23913785815238953, 0.04621240496635437, -0.26905158162117004, -0.3531390130519867, 0.03328210860490799, -0.12437861412763596, -0.05768822878599167, 0.31415852904319763, 0.269255131483078, 0.21315400302410126, 0.3441891372203827, 0.30918559432029724], [0.2584129273891449, 0.2567470073699951, -0.01156696118414402, 0.15898190438747406, 0.1968403458595276, -0.14203330874443054, 0.006407688371837139, 0.054426904767751694, 0.025250758975744247, 0.39655768871307373, -0.3257886469364166, 0.0612887479364872, -0.06482449918985367, 0.25490671396255493, 0.14556868374347687, -0.0021568748634308577, -0.4086466133594513, -0.2179650515317917, -0.4671860635280609, 0.21749365329742432, -0.13357165455818176, 0.25972819328308105, -0.05676696076989174, 0.10789328068494797, 0.6078056693077087, 0.07908784598112106, -0.06590835750102997, -0.13572731614112854, -0.09075374156236649, 0.30708709359169006, 0.014797667041420937, 0.09852726012468338], [-0.06513115018606186, -0.09212840348482132, -0.23782140016555786, 0.210919588804245, 0.008668312802910805, -0.1302051842212677, 0.2708066403865814, -0.16362830996513367, 0.03999648243188858, -0.13405483961105347, -0.24131573736667633, 0.3393504023551941, -0.028374187648296356, 0.20992504060268402, 0.13697108626365662, 0.4039386510848999, 0.16861221194267273, 0.12044858187437057, 0.8468658328056335, -0.007180145010352135, 0.19711850583553314, 0.17528054118156433, 0.06709197163581848, 0.13836494088172913, 0.40899282693862915, 0.38914740085601807, 0.4418875575065613, 0.28254327178001404, 0.36704838275909424, 0.4403032064437866, 1.0013173818588257, 0.620823323726654], [-0.07568120211362839, -0.21786169707775116, -0.03149956464767456, -0.022064151242375374, 0.15345850586891174, 0.06996158510446548, 0.5203474164009094, -0.37227708101272583, -0.025293545797467232, 0.1054244190454483, -0.5358151793479919, 0.1401076316833496, -0.11009041219949722, -0.008811547420918941, 0.024679873138666153, -0.1454661339521408, 0.10719265043735504, 0.2962118685245514, 0.15351584553718567, 0.13919945061206818, 0.25067079067230225, 0.24481578171253204, 0.19205349683761597, 0.16638171672821045, 0.0891319215297699, 0.26970645785331726, -0.2009442001581192, 0.33577054738998413, -0.14940108358860016, -0.6978352069854736, 0.09730309993028641, -0.274330735206604], [-0.09156809747219086, 0.34191906452178955, 0.021491076797246933, 0.26928451657295227, 0.1190425381064415, -0.14633193612098694, -0.2554325461387634, -0.7163688540458679, -1.0441311597824097, 0.029206231236457825, -0.9851942658424377, 0.34690144658088684, 0.32278627157211304, -0.06723635643720627, -0.024123521521687508, 0.4038868844509125, 0.054544076323509216, 0.0972166508436203, 0.35614487528800964, 0.26413771510124207, -0.5706637501716614, 0.3291977345943451, 0.553888738155365, 0.2955693006515503, 0.38441359996795654, 0.4800804555416107, 0.36861172318458557, -0.19880029559135437, 0.9997250437736511, -0.5783913135528564, 1.0434421300888062, 0.9721860885620117], [0.022918781265616417, -0.22287602722644806, 0.17016609013080597, 0.41370683908462524, -0.4240511357784271, 0.19201071560382843, -1.2588924169540405, -0.473990797996521, -0.1576390415430069, 0.02063034102320671, 0.1384362280368805, -0.4038025736808777, 0.008953552693128586, 0.23669040203094482, -0.06197701022028923, 0.013532428070902824, -0.3488128185272217, 0.10524126142263412, -0.1486918330192566, -0.17087243497371674, -0.02516430988907814, 0.050383664667606354, -0.4838727116584778, 0.161105215549469, 0.5170072913169861, 0.05958017334342003, 0.12208596616983414, 0.49251577258110046, -0.4025460481643677, 0.0059733083471655846, 0.4321586489677429, 0.3732997179031372], [-0.21139174699783325, -0.7492871880531311, 0.05185142159461975, -0.22952182590961456, 0.009881340898573399, 0.043483223766088486, -0.3732471466064453, -0.8660653233528137, -0.6980939507484436, -0.2286183387041092, 0.19641607999801636, 0.20155030488967896, -0.14528964459896088, 0.022200170904397964, -0.005764220375567675, -0.2596490681171417, -0.15022245049476624, 0.10842417925596237, 0.07561817765235901, 0.027814572677016258, -0.042550016194581985, -0.16048747301101685, 0.2437959462404251, 0.05158628150820732, -0.24371445178985596, 0.16284498572349548, -0.14027279615402222, 0.06755737960338593, 0.1315547376871109, -0.13488295674324036, 0.4413030445575714, -0.03355865553021431], [0.059995926916599274, -0.19682443141937256, -0.0990138053894043, -0.07922626286745071, 0.1297331303358078, 0.3018256723880768, 0.11368949711322784, 0.2034594714641571, -0.1203325092792511, 0.13088825345039368, -0.21863578259944916, -0.2404719442129135, 0.026812497526407242, 0.17665031552314758, -0.11188182979822159, 0.08248753845691681, -0.16401556134223938, 0.07179109007120132, 0.25842395424842834, 0.002482788870111108, -0.2804303467273712, -0.15078268945217133, -0.1859574317932129, -0.06196372210979462, -0.09293637424707413, 0.5500082969665527, -0.33062151074409485, -0.05167527124285698, 0.0030423689167946577, -0.2636781334877014, 0.1252152919769287, -0.16080713272094727], [-0.04199647903442383, -1.2005947828292847, -0.10749948024749756, 0.2621717154979706, -0.2361404001712799, 0.3809710443019867, 0.015318971127271652, 0.1717347800731659, -0.29883572459220886, -0.3155909776687622, 0.7977202534675598, 0.05775430426001549, -0.3899191617965698, -0.1722755879163742, -0.10099867731332779, -0.45892012119293213, 0.45480841398239136, 0.7021275758743286, 0.44768473505973816, -0.369536817073822, 0.23844453692436218, -0.059804126620292664, 0.0932529866695404, 0.11298643052577972, 0.023560864850878716, -0.21956320106983185, 0.17352008819580078, 0.043643705546855927, -0.16110879182815552, -0.13623575866222382, 0.0707869753241539, -0.5953688621520996], [0.16344572603702545, -0.21151868999004364, 0.2347189337015152, -0.4715358316898346, 0.24053165316581726, -0.25461846590042114, 0.3269824683666229, -0.3096056282520294, 0.6150869727134705, 0.1596076488494873, -0.4082762897014618, -0.4672373831272125, -0.0861259251832962, -0.6033040285110474, -0.11052056401968002, 0.11287466436624527, 0.33450326323509216, -0.3439023494720459, 0.3130296766757965, 0.35495439171791077, 0.279075026512146, 0.2764201760292053, 0.006672924384474754, -0.42201122641563416, -0.4434511363506317, 0.022628333419561386, 0.3172340989112854, -0.1579216867685318, -0.20217910408973694, 0.3576301038265228, 0.44037720561027527, -0.12210915982723236], [0.22758321464061737, 0.33242368698120117, -0.37743932008743286, 0.5536952614784241, -0.21156691014766693, -0.005454982165247202, 1.077247977256775, 0.4018608629703522, -0.4419768452644348, -0.1798534244298935, 0.22646456956863403, 0.17450633645057678, -0.1233711987733841, -0.5488302111625671, -0.062008120119571686, -0.011429842561483383, 1.2063422203063965, 0.09725560247898102, 0.9100179076194763, 0.8682293891906738, -0.2952525019645691, 0.7164261341094971, 0.3372199833393097, 0.6996757984161377, 0.3043329417705536, -0.21447274088859558, 0.13984619081020355, -0.040836676955223083, 0.4583037495613098, 0.43565142154693604, 0.13932782411575317, 0.16483934223651886], [0.5928417444229126, 0.3978881239891052, 0.1687968373298645, 0.3107423782348633, 0.5338303446769714, -0.23113971948623657, 0.06536354869604111, 0.6145395040512085, 0.3084137439727783, 0.1270488053560257, 0.3479301929473877, -0.10259374976158142, 0.03543287143111229, 0.18129214644432068, 0.06693796068429947, 0.05939439684152603, 0.3653934597969055, -0.15486042201519012, -0.9466193318367004, -0.16141678392887115, -0.08358466625213623, 0.06374914199113846, -0.3588719367980957, -0.04995044693350792, 0.08045212924480438, -0.2623651325702667, 0.2591581642627716, 0.16235704720020294, 0.17108766734600067, 0.5161928534507751, -0.7438417673110962, -0.004921013489365578], [0.17684663832187653, -0.3425314724445343, -0.03570684418082237, -0.27809464931488037, -0.3126104474067688, 0.14846576750278473, 0.4172942340373993, -0.26581135392189026, 0.07257039099931717, -0.4213894307613373, -0.015269375406205654, -0.2963089942932129, 0.029885677620768547, -0.15783998370170593, 0.04135074093937874, 0.039104487746953964, -0.37353307008743286, 0.07306841015815735, -0.001271455897949636, -0.3362469971179962, 0.3169999122619629, -0.2317122220993042, -0.44437211751937866, 0.027504829689860344, -0.05916760861873627, 0.1859833300113678, 0.03656202182173729, -0.10613168776035309, 0.017298469319939613, 0.4356689751148224, 0.3081217408180237, -0.20145444571971893], [-0.1543375849723816, -0.29504624009132385, 0.3618893325328827, 0.06324388831853867, -0.1425839513540268, 0.4110407531261444, -0.22476992011070251, 0.10075467824935913, -0.29770421981811523, 0.24757495522499084, -0.29608872532844543, 0.5373972058296204, 0.018550964072346687, -0.045958731323480606, 0.20953905582427979, 0.057077035307884216, 0.04827173054218292, -0.072022944688797, -0.18731848895549774, -0.4315096437931061, 0.2246377021074295, 0.335354208946228, 0.07306873053312302, -0.22707492113113403, 0.5666475296020508, 0.3305051326751709, -0.0938270092010498, -0.005526463035494089, 0.027620116248726845, -0.021490689367055893, 0.22403597831726074, 0.7098414301872253], [-0.6911057233810425, -0.270429790019989, 0.23658347129821777, -0.09832941740751266, -0.33939889073371887, 0.4193727970123291, -0.15534722805023193, 0.7395816445350647, -0.31168895959854126, -0.15847639739513397, 0.7606679201126099, 0.03489813581109047, 0.31639283895492554, 0.3340809941291809, 0.5685206651687622, -0.4256995618343353, -0.5592315196990967, 0.44418951869010925, -0.12598033249378204, -0.5992966294288635, -0.03217637166380882, -0.10359811037778854, -0.4734881520271301, 0.3606657087802887, -0.22887057065963745, 0.28257280588150024, 0.034763678908348083, 0.1203356683254242, -0.052884459495544434, 0.4797697365283966, -0.283674418926239, 0.4623844027519226]]}, "in": {"bias": [-0.09991472214460373, 0.026522021740674973, 0.0079067163169384, 0.05102935805916786, -0.0317467525601387, 0.0007747879717499018, 0.053808920085430145, -0.05606532096862793, -0.008332988247275352, -0.018225451931357384, -0.030508140102028847, -0.015515729784965515, -0.013070307672023773, -0.09442398697137833, -0.03750065714120865, -0.012839768081903458, 0.02469683438539505, 0.04267148673534393, -0.04281529411673546, 0.04787700995802879, -0.041416235268116, 0.025799334049224854, 0.015473419800400734, 0.04298959672451019, 0.06858570873737335, -0.06932484358549118, -0.03980127349495888, -0.07405395805835724, -0.02387816831469536, -0.11694352328777313, 0.058993466198444366, 0.1770193874835968], "kernel": [[0.1089838519692421, 0.19572767615318298, 0.1576436161994934, -0.07838023453950882, -0.0033931746147572994, 0.06131719425320625, -0.128803089261055, 0.35477742552757263, 0.008475169539451599, -0.10393932461738586, -0.020256441086530685, 0.12558914721012115, -0.2463083118200302, 0.1363188475370407, 0.21035648882389069, -0.11065268516540527, 0.09419243782758713, -0.1635652333498001, -0.22674188017845154, -0.2247023731470108, 0.2691146731376648, -0.11355039477348328, -0.08045315742492676, 0.03718697279691696, 0.34384092688560486, 0.06770173460245132, -0.057102054357528687, -0.3987462818622589, 0.10948240011930466, -0.062230005860328674, -0.043487440794706345, 0.10348536819219589], [-0.17150218784809113, 0.15437251329421997, 0.3273526132106781, 0.04367884248495102, -0.0357474759221077, 0.1095970943570137, 0.2193293571472168, -0.34255245327949524, 0.08639010787010193, 0.28148582577705383, -0.40239661931991577, -0.05444633960723877, 0.1084146499633789, -0.028537698090076447, -0.1214350238442421, 0.31921449303627014, 0.0659150704741478, -0.29552122950553894, 0.026674320921301842, 0.10957374423742294, -0.1620589643716812, -0.08466975390911102, 0.2167559713125229, 0.024706022813916206, -0.09400445967912674, 0.034815989434719086, -0.08115794509649277, 0.19094917178153992, 0.27804848551750183, -0.14263233542442322, -0.02648368664085865, 0.013633474707603455], [0.01000854279845953, -0.09529617428779602, -0.2346070408821106, -0.02224261499941349, -0.1079242154955864, 0.06850993633270264, -0.09722521901130676, -0.19004960358142853, 0.15744228661060333, 0.14448705315589905, -0.18795427680015564, 0.2553061246871948, 0.3389500379562378, -0.06271596252918243, 0.24187520146369934, 0.12188400328159332, 0.08806511014699936, -0.31920692324638367, 0.2677967846393585, 0.03571495786309242, 0.01720602996647358, -0.16953982412815094, -0.035286806523799896, 0.1476188600063324, 0.02620282769203186, -0.22956275939941406, 0.1998426765203476, -0.38585537672042847, -0.12135136872529984, -0.2768373191356659, -0.11454703658819199, 0.38346603512763977], [0.10327939689159393, 0.1304517388343811, -0.059646014124155045, -0.08124499768018723, -0.005758911836892366, 0.15654538571834564, 0.2906093895435333, -0.21093164384365082, -0.17841358482837677, 0.14618228375911713, -0.3902740776538849, 0.05632990226149559, 0.03983977809548378, -0.05974721536040306, -0.13313692808151245, 0.050439655780792236, -0.17322266101837158, -0.15477700531482697, -0.32635730504989624, -0.28394076228141785, 0.14310547709465027, -0.1637182980775833, -0.1430426836013794, 0.051757171750068665, 0.1848991960287094, -0.10329705476760864, -0.09134925901889801, -0.03526487201452255, 0.11789935827255249, -0.048264991492033005, -0.0016110064461827278, -0.10964951664209366], [-0.07597050815820694, 0.14935100078582764, -0.17223908007144928, 0.2667335867881775, 0.09707971662282944, -0.08988160640001297, -0.33253204822540283, 0.25287070870399475, -0.029952745884656906, -0.19786247611045837, -0.09775134921073914, -0.04887772351503372, 0.25861799716949463, 0.2070837765932083, 0.2749002277851105, 0.281859815120697, -0.03965568169951439, 0.10595408827066422, 0.26112523674964905, -0.04125687852501869, -0.30313512682914734, -0.34470710158348083, -0.04974373057484627, -0.21506516635417938, -0.1549450010061264, -0.009938952513039112, 0.0048776064068078995, -0.06794868409633636, -0.13251951336860657, -0.39097869396209717, -0.23632808029651642, 0.28624165058135986], [-0.1144166886806488, 0.19402392208576202, -0.02750418335199356, 0.10317593067884445, 0.08781330287456512, 0.17804019153118134, 0.10150551050901413, 0.2068261206150055, 0.16733117401599884, 0.08229438960552216, 0.0682523101568222, 0.06797918677330017, 0.22246330976486206, -0.1753053367137909, -0.2774905562400818, -0.34060031175613403, 0.052131421864032745, 0.3844103217124939, -0.08220574259757996, 0.05245551839470863, -0.17949000000953674, -0.17932873964309692, -0.31325003504753113, 0.29884767532348633, -0.28478676080703735, -0.13892516493797302, -0.11955790966749191, -0.19511497020721436, 0.1581157147884369, -0.2930169701576233, 0.026145681738853455, 0.053594354540109634], [-0.2633296251296997, -0.12231039255857468, -0.1666901707649231, -0.28891313076019287, 0.20136956870555878, -0.2655209004878998, -0.168045774102211, -0.03833456709980965, 0.009372745640575886, -0.17152762413024902, 0.03362828865647316, 0.11729346215724945, -0.0324096754193306, 0.3109830617904663, -0.27982014417648315, -0.08605340868234634, -0.067408487200737, -0.37487828731536865, -0.004183477722108364, -0.07331255078315735, 0.10691586136817932, -0.3773602247238159, 0.11585124582052231, 0.09390439093112946, -0.044515397399663925, -0.21219173073768616, 0.1784764677286148, -0.03509007766842842, 0.36116549372673035, -0.0904790535569191, 0.24757036566734314, 0.09391618520021439], [-0.2090682089328766, -0.13991816341876984, -0.174900621175766, -0.028773019090294838, 0.12871238589286804, -0.3778623640537262, 0.02694603055715561, -0.05153214931488037, -0.12933622300624847, -0.14837199449539185, 0.09560241550207138, -0.025184519588947296, 0.14071764051914215, -0.09112590551376343, -0.08339689671993256, -0.04993809014558792, 0.19250205159187317, -0.2293839007616043, 0.10917557030916214, 0.19429244101047516, -0.23553979396820068, -0.3567167818546295, -0.10180103778839111, -0.28017863631248474, 0.13675647974014282, 0.11611107736825943, -0.08941596746444702, -0.14965981245040894, -0.28617003560066223, 0.06978943943977356, -0.047956433147192, -0.03167710080742836], [-0.09032458811998367, -0.2777036428451538, 0.016023892909288406, 0.08684656769037247, -0.0926264300942421, -0.29810506105422974, -0.010146216489374638, 0.2271367609500885, -0.11305415630340576, -0.03928292915225029, 0.007855766452848911, -0.22095677256584167, 0.2507205605506897, 0.2427426427602768, 0.10497191548347473, -0.33704349398612976, -0.06384602934122086, 0.09876018762588501, 0.029029473662376404, -0.12183328717947006, -0.011247972957789898, 0.12742063403129578, 0.08839690685272217, -0.2864615023136139, -0.3299944996833801, 0.04209600016474724, -0.0504189170897007, 0.07004019618034363, 0.025497818365693092, -0.2690962255001068, -0.27488642930984497, -0.12090128660202026], [-0.05795037001371384, 0.23847314715385437, 0.011531027965247631, -0.25723975896835327, -0.15560579299926758, -0.25446003675460815, -0.1917867511510849, -0.12944509088993073, -0.04295853152871132, 0.050734683871269226, 0.25993776321411133, 0.2503306567668915, -0.16483543813228607, -0.3159899115562439, -0.29341819882392883, 0.24403588473796844, -0.02716992422938347, 0.13561667501926422, -0.07065337151288986, -0.3442555367946625, -0.2381199449300766, 0.03029385581612587, 0.1644223928451538, 0.015223737806081772, -0.24164921045303345, -0.0900987982749939, 0.22639691829681396, 0.299218088388443, 0.07508399337530136, 0.15525342524051666, -0.2612435221672058, -0.38260549306869507], [-0.23336617648601532, -0.0753859132528305, -0.05334191396832466, -0.011091155000030994, -0.10017558932304382, -0.16223572194576263, 0.23636390268802643, 0.21861405670642853, -0.22547906637191772, 0.06114215403795242, 0.04837394505739212, 0.010780283249914646, -0.16012318432331085, 0.3037089407444, 0.3391600251197815, -0.2654603123664856, -0.05281941592693329, -0.06584180146455765, 0.2527906596660614, -0.18235518038272858, -0.17316530644893646, -0.11060024052858353, 0.0659678727388382, 0.05906624346971512, -0.07612919062376022, -0.22177021205425262, 0.1586674451828003, -0.1865597367286682, -0.09828851372003555, -0.05467900261282921, 0.07471269369125366, -0.3367120325565338], [-0.17676378786563873, -0.20528936386108398, 0.18325506150722504, -0.1633065938949585, 0.18171058595180511, -0.46705910563468933, 0.06667884439229965, 0.19450552761554718, 0.20018866658210754, -0.2810834050178528, 0.07249593734741211, 0.15604430437088013, -0.08224654942750931, -0.17264841496944427, -8.752982830628753e-05, 0.0031909733079373837, 0.294727087020874, -0.1925932914018631, 0.007784106303006411, -0.15916359424591064, 0.23522695899009705, -0.06627068668603897, -0.03984908014535904, -0.04380544275045395, -0.19538810849189758, 0.03769932687282562, -0.19501003623008728, -0.08294365555047989, 0.06134974956512451, 0.01624629646539688, -0.17716749012470245, -0.6673305034637451], [-0.3752058744430542, -0.06198834627866745, 0.22810432314872742, 0.16917231678962708, 0.23070909082889557, -0.20623350143432617, -0.10143087059259415, 0.17674335837364197, 0.09726443886756897, -0.041661038994789124, 0.132370725274086, -0.3872520327568054, -0.0747014507651329, 0.227431058883667, 0.05850004777312279, -0.1725267469882965, 0.006386089604347944, 0.22473877668380737, 0.1014736071228981, 0.11130853742361069, 0.3096076548099518, -0.34239059686660767, 0.015281223691999912, -0.027847949415445328, -0.09273528307676315, 0.044716883450746536, -0.06192842870950699, 0.3269111216068268, -0.049654558300971985, -0.1436031460762024, 0.04865241423249245, -0.30619603395462036], [-0.023736167699098587, -0.21494871377944946, -0.050643742084503174, 0.06826020032167435, 0.1837189942598343, 0.08270656317472458, -0.04672066867351532, -0.11278264969587326, 0.10162989795207977, -0.21092258393764496, -0.24032577872276306, -0.2229982167482376, 0.14450570940971375, 0.07963083684444427, 0.16806720197200775, 0.08855456113815308, -0.07878101617097855, 0.16002492606639862, 0.16775615513324738, 0.04906399920582771, 0.3335171341896057, -0.16679954528808594, -0.20721417665481567, -0.1450183391571045, -0.19507849216461182, 0.12996570765972137, -0.011055056937038898, 0.014215141534805298, -0.12700475752353668, -0.05624418705701828, -0.023512285202741623, -0.40994793176651], [-0.240282341837883, -0.10015115141868591, 0.21508008241653442, 0.24291285872459412, 0.018883228302001953, 0.0062412600964307785, 0.04460907354950905, 0.10358944535255432, 0.14054261147975922, 0.05073464289307594, 0.11730844527482986, -0.3150250017642975, -0.002870654920116067, -0.06528694182634354, 0.005631561391055584, 0.1974974423646927, -0.2092234194278717, -0.06360253691673279, 0.00024645973462611437, 0.03687582537531853, 0.14093153178691864, 0.3284318149089813, -0.09421450644731522, 0.05523192882537842, -0.18335925042629242, -0.09468944370746613, 0.2536088526248932, -0.03643592819571495, 0.12898816168308258, -0.15256543457508087, -0.32335734367370605, 0.10404233634471893], [-0.39675694704055786, -0.3354683220386505, 0.009473782032728195, 0.07459181547164917, -0.016456762328743935, -0.10245762020349503, -0.19705262780189514, 0.20439252257347107, 0.08524879068136215, 0.15755420923233032, 0.3127739429473877, 0.2742469906806946, -0.010122003965079784, 0.14401133358478546, 0.38357552886009216, 0.1286313235759735, -0.10541470348834991, -0.3130287230014801, 0.017610803246498108, 0.036474768072366714, 0.0669533759355545, -0.27178555727005005, -0.10717706382274628, 0.09550396353006363, 0.05388824641704559, 0.1588573157787323, -0.2666493058204651, 0.19968566298484802, -0.06382401287555695, 0.14736300706863403, 0.19834889471530914, -0.002244045026600361], [0.1872786581516266, 0.11387471109628677, -0.22930674254894257, -0.061194948852062225, 0.3240942656993866, -0.22291874885559082, -0.243804469704628, 0.03536602482199669, 0.2704196274280548, -0.04283256456255913, 0.1565151810646057, 0.16636359691619873, -0.24781200289726257, 0.009430384263396263, 0.34666717052459717, 0.3554319441318512, 0.11982917040586472, -0.10205698013305664, 0.3869231343269348, 0.22100336849689484, 0.13955499231815338, -0.04089227691292763, -0.057272642850875854, 0.16761478781700134, 0.23378989100456238, 0.15930822491645813, 0.22789372503757477, 0.2002406269311905, 0.10125276446342468, -0.06883640587329865, 0.2407139241695404, -0.2561478912830353], [-0.33117347955703735, -0.055773623287677765, 0.15992078185081482, -0.1993437111377716, 0.3568933606147766, -0.07303602993488312, -0.2987103760242462, -0.1989816576242447, -0.0467245988547802, 0.214292511343956, 0.25343310832977295, -0.04568031430244446, 0.003520501544699073, 0.005510229617357254, -0.25728440284729004, -0.36156877875328064, -0.3677281439304352, -0.20399044454097748, 0.1453751176595688, -0.035513054579496384, -0.08721337467432022, 0.26593437790870667, 0.011824103072285652, -0.03960908204317093, -0.004541417118161917, -0.05815578252077103, -0.08675060421228409, -0.05520540475845337, -0.05856369435787201, 0.27287665009498596, -0.28209617733955383, 0.14994487166404724], [-0.09331496804952621, 0.07875876873731613, 0.14853592216968536, -0.35226404666900635, 0.04412926360964775, -0.27381640672683716, -0.0865553542971611, -0.05424445495009422, 0.14261138439178467, -0.06555356085300446, -0.035637397319078445, -0.3130963146686554, 0.2673843801021576, -0.20010438561439514, 0.03717140480875969, 0.11647554486989975, 0.1206810250878334, 0.021734077483415604, 0.27369099855422974, 0.35233551263809204, -0.12756702303886414, 0.06817556172609329, -0.17960280179977417, -0.15120138227939606, -0.09842688590288162, -0.18637558817863464, 0.2164572775363922, -0.05595565214753151, 0.06649760901927948, -0.3635444641113281, 0.08226504176855087, -0.1999967396259308], [-0.06961242854595184, -0.07009799778461456, 0.32426881790161133, -0.29387208819389343, 0.38567686080932617, 0.00702571589499712, -0.057928163558244705, -0.007340444251894951, -0.03541851043701172, 0.3073851466178894, 0.06406635791063309, 0.3602354824542999, -0.04575257748365402, -0.03659369796514511, 0.15093226730823517, 9.312368638347834e-05, 0.022097870707511902, 0.006688517984002829, -0.23397034406661987, 0.05926087498664856, -0.20482507348060608, 0.23593950271606445, 0.12430695444345474, -0.08276822417974472, -0.2282004952430725, 0.0989958643913269, -0.020184248685836792, -0.022605471312999725, -0.27251338958740234, 0.13735315203666687, 0.18375235795974731, -0.11978507786989212], [-0.33417436480522156, -0.14976175129413605, -0.17430728673934937, -0.07927170395851135, -0.008334430865943432, -0.23335936665534973, -0.14241275191307068, -0.01519252173602581, -0.2915414869785309, 0.13043127954006195, 0.009223242290318012, 0.056794434785842896, -0.1889321655035019, 0.28686395287513733, -0.30826735496520996, -0.03789054974913597, 0.33029448986053467, -0.04477081075310707, 0.22523193061351776, 0.161692276597023, 0.2488137036561966, -0.14248409867286682, -0.22933435440063477, -0.3012096583843231, -0.09410659968852997, -0.20865900814533234, -0.049020424485206604, 0.13488861918449402, -0.09017359465360641, -0.418123722076416, -0.30262166261672974, -0.08055490255355835], [0.03322354331612587, 0.13904136419296265, 0.1818312704563141, 0.004906774498522282, -0.004058003891259432, 0.1693485826253891, 0.12346396595239639, 0.22690148651599884, -0.05019448325037956, 0.12045548856258392, 0.07818824797868729, -0.06736189126968384, -0.11251736432313919, 0.26030054688453674, 0.059805963188409805, 0.34759321808815, 0.2676730751991272, 0.16336898505687714, -0.139618381857872, 0.1037406325340271, 0.09212461858987808, 0.20245426893234253, -0.13434800505638123, 0.06670168787240982, -0.07663834095001221, 0.2537555694580078, -0.17224587500095367, 0.41552940011024475, -0.12947940826416016, -0.3598906099796295, -0.11006844788789749, -0.013014712370932102], [0.32601407170295715, -0.007306499406695366, 0.057032130658626556, 0.2060220092535019, 0.18043500185012817, -0.06275328248739243, 0.14107884466648102, -0.3175806701183319, 0.05058484151959419, -0.3506890833377838, -0.05505135655403137, -0.033028677105903625, 0.13394691050052643, 0.234427809715271, -0.10642178356647491, -0.3201267123222351, 0.23350360989570618, -0.13735169172286987, 0.162543386220932, 0.16919642686843872, 0.03572382405400276, -0.027694519609212875, 0.021242739632725716, 0.23486903309822083, 0.05919850617647171, -0.19982486963272095, -0.16296811401844025, 0.05476260185241699, -0.02574482187628746, -0.18816006183624268, 0.058772582560777664, -0.21372748911380768], [0.1212715432047844, 0.13732780516147614, -0.0764327123761177, 0.10526451468467712, 0.10696446895599365, -0.0514192208647728, 0.06914083659648895, -0.21300096809864044, 0.03601507097482681, -0.33932724595069885, -0.1633281707763672, 0.14488831162452698, -0.12551523745059967, -0.06046741083264351, 0.029981935396790504, -0.14226698875427246, 0.40775424242019653, -0.10640544444322586, 0.18411168456077576, 0.05664755031466484, 0.09130290895700455, 0.30337104201316833, -0.19249393045902252, -0.12617678940296173, 0.18848355114459991, 0.23749423027038574, -0.16816793382167816, 0.1210654154419899, 0.17210270464420319, -0.27058419585227966, -0.3748484253883362, -0.00664497772231698], [0.08358984440565109, -0.0932861939072609, 0.21185414493083954, -0.23019686341285706, -0.20008842647075653, -0.2358832210302353, 0.22957107424736023, 0.08052501082420349, -0.06376475840806961, 0.16825906932353973, 0.28217777609825134, 0.009883323684334755, 0.17518112063407898, 0.3979974091053009, 0.1281300187110901, -0.09520667791366577, 0.11939466744661331, 0.17437595129013062, 0.006708977278321981, -0.03530673682689667, -0.252208948135376, -0.10634664446115494, 0.2994750440120697, 0.14500047266483307, 0.18238277733325958, 0.0051599410362541676, 0.01079923752695322, 0.3423463702201843, -0.1297936588525772, -0.3290950655937195, -0.18806007504463196, -0.025890382006764412], [0.04087192192673683, -0.07308448106050491, 0.17921341955661774, -0.2860942780971527, -0.2169957309961319, 0.023864438757300377, -0.11590281873941422, -0.11895335465669632, -0.17802082002162933, -0.20221401751041412, -0.36875706911087036, -0.2408706694841385, -0.045734480023384094, 0.026243414729833603, 0.21014367043972015, -0.0763978585600853, 0.016994785517454147, 0.022345958277583122, 0.2626933753490448, 0.009935111738741398, -0.08481398224830627, 0.05290084332227707, -0.10695628076791763, -0.238057479262352, -0.3658587634563446, 0.28251007199287415, -0.3085693120956421, 0.13409587740898132, 0.1525334268808365, -0.42922937870025635, 0.10553015023469925, 0.29360198974609375], [-0.3650265336036682, -0.31115707755088806, 0.021997155621647835, 0.2377406358718872, -0.08528594672679901, 0.08342275023460388, 0.2917086184024811, -0.09856683015823364, 0.3416740596294403, -0.1213831678032875, -0.22326411306858063, 0.2319582849740982, -0.19302470982074738, 0.08549590408802032, -0.08429273962974548, -0.19746243953704834, 0.2808319926261902, 0.0014110170304775238, -0.05539172887802124, 0.2530275285243988, 0.30045828223228455, -0.06825530529022217, -0.038421329110860825, -0.03897207975387573, 0.16057299077510834, -0.028218407183885574, 0.12289594113826752, 0.010162015445530415, 0.13552263379096985, -0.12669521570205688, -0.13054990768432617, 0.24659322202205658], [-0.20163147151470184, 0.038552410900592804, 0.06398063153028488, 0.3665722906589508, 0.03121914155781269, -0.38028374314308167, -0.1333817094564438, -0.04478803649544716, 0.25849178433418274, 0.07304688543081284, 0.03178827092051506, 0.14566826820373535, 0.1882963627576828, 0.058791618794202805, 0.2202507108449936, -0.0840194821357727, -0.05877066031098366, -0.2351088523864746, -0.05995112285017967, -0.22391390800476074, 0.13414601981639862, 0.26818233728408813, 0.04756873473525047, 0.3079717457294464, 0.0673924908041954, 0.14825081825256348, -0.009714641608297825, 0.1256551593542099, 0.10522990673780441, -0.3680991530418396, -0.15452006459236145, 0.022769974544644356], [-0.4761136770248413, 0.15866141021251678, 0.019867321476340294, -0.22442249953746796, -0.0013085819082334638, -0.14893001317977905, 0.028037941083312035, -0.04770742356777191, 0.10275778919458389, 0.09424202889204025, 0.06068345531821251, -0.0261837188154459, 0.04304329305887222, -0.15234406292438507, 0.270327627658844, 0.20229803025722504, 0.06932786852121353, -0.03527259826660156, 0.18312303721904755, -0.102100670337677, -0.02943052537739277, 0.10318517684936523, -0.1397615373134613, -0.003066888079047203, -0.017210636287927628, 0.11902536451816559, -0.04946426302194595, -0.2505384683609009, 0.013783260248601437, 0.18459542095661163, 0.20753508806228638, 0.053025323897600174], [-0.3112066686153412, -0.2642818093299866, -0.1544318050146103, -0.1440637856721878, 0.10329489409923553, 0.1450852006673813, -0.12549357116222382, -0.0960628017783165, -0.08807423710823059, 0.22186899185180664, -0.05380775406956673, -0.2407049983739853, -0.15675419569015503, -0.22046251595020294, -0.06362482160329819, 0.08626042306423187, -0.27258434891700745, 0.2622155547142029, -0.2578534781932831, -0.15212683379650116, -0.39947640895843506, 0.24169892072677612, 0.05821298062801361, -0.011689648032188416, -0.33850422501564026, 0.19787278771400452, 0.011780926957726479, -0.2576225697994232, -0.2687336802482605, -0.09432358294725418, 0.08922617882490158, 0.34606853127479553], [-0.04902211204171181, 0.13029760122299194, 0.2846512198448181, -0.310843825340271, 0.03291943669319153, -0.18973633646965027, -0.23130901157855988, 0.31620052456855774, 0.16379687190055847, 0.012193356640636921, 0.21047258377075195, 0.13849790394306183, 0.009275433607399464, 0.19399665296077728, 0.017136240378022194, 0.03390977904200554, -0.18045157194137573, 0.2746694087982178, -0.3904215395450592, -0.12035533785820007, 0.07878386229276657, 0.12141778320074081, 0.1713198721408844, -0.1306411474943161, 0.08533157408237457, 0.021857410669326782, 0.2966006100177765, 0.28341594338417053, 0.10655595362186432, -0.2992156445980072, 0.10180454701185226, -0.015158651396632195], [-0.21992608904838562, 0.18660658597946167, 0.37111303210258484, -0.004233285319060087, -0.2457558661699295, 0.17110328376293182, 0.12139356881380081, 0.1621590256690979, -0.1421768218278885, 0.003728595096617937, 0.0918641984462738, 0.03487061709165573, -0.17788948118686676, -0.036956291645765305, -0.05440683290362358, -0.035198062658309937, 0.17938484251499176, -0.20301589369773865, 0.13245083391666412, -0.04726624861359596, 0.07299663126468658, 0.020072253420948982, 0.0424688346683979, 0.041124917566776276, 0.08401467651128769, -0.1065448597073555, -0.3074447810649872, -0.03103262558579445, -0.13612638413906097, -0.1407206803560257, 0.15062947571277618, -0.08876080811023712]]}, "ir": {"bias": [0.09222432971000671, 0.012121481820940971, 0.182599738240242, 0.027547631412744522, -0.01549950335174799, 0.08567275106906891, 0.04579328000545502, 0.022778477519750595, -0.05436526611447334, -1.8894532331614755e-05, -0.08606575429439545, 0.0670156478881836, 0.002235658233985305, 0.014214876107871532, -0.03905521705746651, -0.05147900804877281, 0.006669480353593826, 0.05889752134680748, -0.01491670310497284, -0.05302707105875015, 0.05582646280527115, -0.0002463610435370356, 0.020759686827659607, 0.020871836692094803, 0.05074211582541466, 0.026854878291487694, 0.06784644722938538, 0.02432282641530037, -0.004941814113408327, 0.12479377537965775, 0.08533977717161179, -0.030167339369654655], "kernel": [[0.2405112385749817, 0.0936114564538002, 0.12653908133506775, -0.19747887551784515, -0.23848024010658264, 0.03920872509479523, -0.2798280119895935, 0.31009501218795776, -0.049077101051807404, -0.28010010719299316, 0.04949861019849777, 0.23816800117492676, 0.18432506918907166, 0.20320673286914825, 0.22922955453395844, 0.018609536811709404, 0.15652945637702942, -0.08889393508434296, 0.003111338708549738, 0.04951631650328636, -0.10877259820699692, -0.18946680426597595, -0.09531289339065552, 0.058403704315423965, 0.19220981001853943, -0.26214995980262756, 0.1626465767621994, 0.11622954905033112, 0.0378388948738575, 0.1920061558485031, -0.1450088620185852, 0.08001800626516342], [0.3813484013080597, 0.11344596743583679, 0.14608751237392426, 0.06521119177341461, 0.03262607753276825, 0.3233458995819092, -0.09110763669013977, -0.11008568853139877, 0.07712230831384659, 0.21094393730163574, 0.2355184406042099, -0.2160637378692627, -0.13126420974731445, 0.2020096778869629, -0.275716632604599, -0.015003647655248642, 0.10925018042325974, 0.31056633591651917, -0.08774589747190475, 0.16376526653766632, -0.07079564034938812, 0.11202289909124374, -0.09118013828992844, -0.06540334224700928, 0.1122172623872757, -0.1364275962114334, 0.04113244637846947, -0.1830786168575287, -0.012754661031067371, -0.026594601571559906, -0.1614932268857956, 0.1277875453233719], [-0.21660293638706207, -0.07237217575311661, 0.11332195997238159, -0.0389222726225853, -0.1533656120300293, -0.0878993421792984, -0.2382487803697586, 0.2839849889278412, 0.05405215919017792, -0.3484581410884857, 0.5307800769805908, 0.03632630407810211, 0.3098542094230652, 0.22807052731513977, -0.3164612948894501, -0.016942916437983513, -0.4084646999835968, 0.08078470081090927, -0.09099169820547104, -0.18161989748477936, -0.05401640012860298, -0.12725645303726196, -0.07799824327230453, 0.07724322378635406, -0.3941044211387634, 0.056459248065948486, -0.03222838416695595, -0.0526290200650692, 0.28056809306144714, 0.1696898341178894, 0.09086478501558304, -0.24160094559192657], [-0.00044161101686768234, 0.33110499382019043, 0.17037349939346313, -0.2290879189968109, -0.051720984280109406, -0.07105303555727005, -0.18683868646621704, 0.07437380403280258, 0.16182167828083038, -0.17378661036491394, 0.2545280158519745, 0.09381476789712906, 0.20064471662044525, 0.30937686562538147, -0.0893700048327446, -0.051134757697582245, 0.2659536898136139, 0.1317376345396042, -0.007072904147207737, -0.14914438128471375, 0.1712799221277237, -0.26798877120018005, -0.18921136856079102, 0.06075948476791382, 0.16497479379177094, 0.04286874830722809, -0.0723617747426033, -0.027311310172080994, 0.3022198975086212, 0.354829877614975, 0.011167291551828384, 0.27424997091293335], [0.02374458499252796, -0.09521004557609558, 0.26682087779045105, -0.09142206609249115, 0.13688622415065765, 0.2118002325296402, -0.20680725574493408, -0.22099927067756653, -0.07873322814702988, 0.30712059140205383, 0.6481228470802307, -0.002051272429525852, -0.346371054649353, 0.2378845065832138, 0.2852242887020111, -0.10028432309627533, -0.006085589062422514, -0.22924764454364777, -0.13761292397975922, 0.2466023564338684, -0.04876665771007538, 0.08197468519210815, -0.09024198353290558, 0.20719294250011444, -0.1164485514163971, -0.18305492401123047, -0.07968349754810333, 0.2447531670331955, 0.10936588793992996, -0.21188373863697052, -0.06361666321754456, 0.30813050270080566], [0.2581958770751953, 0.18993864953517914, -0.09733723104000092, 0.036782778799533844, 0.08135358989238739, -0.1548343151807785, 0.19189418852329254, 0.09183897078037262, 0.1511680781841278, 0.16199511289596558, 0.3703489303588867, 0.13376478850841522, 0.2933332324028015, 0.1488279104232788, -0.2528047263622284, -0.05415640026330948, -0.2689785063266754, -0.05979738384485245, -0.06561710685491562, 0.08059217035770416, -0.07917828112840652, 0.09704936295747757, -0.05952228605747223, -0.062148772180080414, -0.04793540760874748, 0.14251641929149628, -0.008399598300457, 0.15135575830936432, -0.21362470090389252, 0.15008501708507538, -0.0506444089114666, 0.15546227991580963], [0.2925041615962982, 0.08224263787269592, -0.012373347766697407, 0.02996278740465641, -0.038168665021657944, -0.11115504056215286, -0.07905689626932144, -0.22906805574893951, 0.03186175227165222, 0.10906520485877991, 0.3912503123283386, -0.10944236069917679, 0.3521687686443329, -0.008925125934183598, -0.2916681468486786, -0.14187192916870117, -0.3283587098121643, -0.03042115457355976, 0.2577071189880371, -0.17549356818199158, -0.09305625408887863, 0.09046362340450287, -0.09275010228157043, 0.16414879262447357, 0.1198384016752243, -0.20380279421806335, -0.037061907351017, -0.07805632799863815, 0.12702074646949768, 0.19438882172107697, 0.04068915918469429, 0.09579981118440628], [0.27558398246765137, 0.04436289519071579, -0.09202869981527328, 0.0877162367105484, 0.01342371478676796, -0.20531821250915527, 0.28743210434913635, -0.08060720562934875, 0.03813907876610756, 0.223471537232399, 0.36621037125587463, 0.11829866468906403, 0.045286551117897034, 0.11050350219011307, 0.25534144043922424, 0.13470502197742462, -0.09972088038921356, -0.024016279727220535, 0.020350292325019836, -0.13442224264144897, -0.0006197062903083861, 0.003369520651176572, -0.04161500930786133, 0.1449148952960968, 0.04596780240535736, -0.1542862504720688, -0.37725088000297546, -0.050517164170742035, 0.1372276097536087, 0.3070623576641083, -0.30897149443626404, 0.17461428046226501], [-0.11047308892011642, -0.016875747591257095, -0.05603249371051788, -0.017878733575344086, -0.26984837651252747, 0.04410013183951378, -0.08425382524728775, 0.05249279364943504, 0.14431384205818176, -0.014837459661066532, -0.06307701021432877, -0.14657644927501678, 0.3097974956035614, 0.1184496358036995, -0.26178523898124695, 0.0678512454032898, 0.14511613547801971, -0.029283881187438965, -0.2791958749294281, 0.1591203361749649, -0.14333216845989227, 0.07987028360366821, 0.08274928480386734, 0.3224928379058838, -0.0052177817560732365, 0.117109015583992, 0.261309415102005, -0.09630933403968811, 0.12432175129652023, 0.07896806299686432, -0.301289439201355, -0.36102020740509033], [0.1626400649547577, -0.23651321232318878, -0.17214331030845642, -0.19158977270126343, -0.22622516751289368, 0.34297335147857666, -0.08157853782176971, -0.19660872220993042, 0.18623042106628418, 0.276352196931839, -0.5684465765953064, -0.3683929443359375, 0.17806243896484375, 0.23987270891666412, -0.1385345757007599, -0.10343147814273834, 0.01617138646543026, -0.2419242262840271, 0.1255083978176117, 0.11617632210254669, -0.4176627993583679, -0.05948677659034729, -0.19596537947654724, 0.09420013427734375, 0.21865180134773254, 0.32303696870803833, -0.2809910178184509, -0.23732487857341766, 0.32478711009025574, 0.14976100623607635, -0.29330143332481384, -0.19819414615631104], [-0.1518467664718628, -0.09057653695344925, -0.2315860092639923, 0.156823068857193, -0.019292745739221573, 0.507331907749176, 0.032646406441926956, 0.08711391687393188, 0.053698644042015076, -0.006891951896250248, -0.12101395428180695, -0.02377457171678543, -0.3172401189804077, 0.09697073698043823, -0.01539152767509222, 0.16370615363121033, -0.2308913916349411, 0.02119291014969349, 0.1044774129986763, 0.32093942165374756, 0.006780814379453659, -0.0349225252866745, 0.032887402921915054, 0.43485158681869507, -0.3179367780685425, 0.10642541944980621, 0.2793242931365967, -0.22211723029613495, 0.33462613821029663, -0.08520433306694031, -0.4466598629951477, 0.1387157440185547], [-0.1312074065208435, 0.32375621795654297, -0.28157109022140503, 0.011248928494751453, -0.12172338366508484, 0.381037175655365, -0.29696619510650635, 0.31937211751937866, -0.17611007392406464, 0.26599088311195374, -0.4888201355934143, 0.17955423891544342, -0.03968159854412079, 0.025602595880627632, -0.059675466269254684, 0.1094932109117508, 0.2673701047897339, -0.02378096431493759, 0.13669787347316742, 0.07084999978542328, -0.060415297746658325, 0.11652614176273346, 0.1416795551776886, 0.06558579206466675, -0.006198597606271505, 0.16429999470710754, 0.19301779568195343, -0.10072863101959229, 0.23388716578483582, -0.06244231015443802, -0.11059984564781189, 0.24248062074184418], [-0.044707998633384705, -0.23026596009731293, -0.04522761330008507, -0.1585872620344162, -0.24806183576583862, 0.16599014401435852, -0.18563266098499298, 0.3073011636734009, 0.17599420249462128, 0.15963822603225708, -0.006906059104949236, 0.01803497038781643, -0.1976703703403473, 0.029799338430166245, -0.10749197751283646, -0.024926772341132164, 0.1592402458190918, -0.09771643579006195, -0.11019569635391235, 0.5877894759178162, 0.33924663066864014, -0.16660499572753906, -0.009656427428126335, 0.23646681010723114, 0.30195924639701843, 0.15692298114299774, -0.18229526281356812, -0.16559654474258423, 0.13051673769950867, -0.10325568169355392, -0.21150483191013336, 0.48563772439956665], [-0.040961895138025284, -0.05578137934207916, -0.27110740542411804, -0.03384849801659584, -0.10014041513204575, -0.09077722579240799, -0.32412466406822205, 0.061983589082956314, -0.3353946805000305, -0.12670645117759705, -0.38476431369781494, -0.15024016797542572, 