{"model": "RNN", "benchmark": "WH", "meta": {"LR": 0.001, "n_re": 10, "n_hs": [2, 4, 8, 16, 32], "n_look": [2, 4, 8, 16, 32], "n_opt": 10000, "batch_len": 200}, "nh_xval": 32, "look_xval": 32, "theta": {"params": {"Dense_0": {"bias": [-0.03411053866147995], "kernel": [[-0.08781293034553528], [-0.2882070243358612], [-0.04101121053099632], [-0.24605539441108704], [0.060427624732255936], [-0.011952079832553864], [0.33188730478286743], [-0.17772813141345978], [-0.014895081520080566], [-0.10215448588132858], [0.09630274027585983], [-0.062331490218639374], [-0.01352738682180643], [-0.15478235483169556], [0.09947076439857483], [0.19019655883312225], [0.19159212708473206], [0.16807256639003754], [0.1474260836839676], [0.14315664768218994], [0.18890243768692017], [0.06455287337303162], [0.02422134019434452], [0.18604230880737305], [0.2062246948480606], [0.16077767312526703], [-0.037811558693647385], [0.09043481945991516], [-0.13260960578918457], [0.05531756952404976], [-0.05936850979924202], [0.1916607916355133]]}, "RNNCell_0": {"Dense_0": {"bias": [0.03711804002523422, 0.05084136500954628, 0.004304978530853987, 0.005616105627268553, -0.056913383305072784, 0.089522585272789, -0.09344109147787094, -0.04922385513782501, -0.03811381757259369, 0.1323537826538086, -0.05678420513868332, -0.026189083233475685, 0.15836116671562195, 0.06516660004854202, -0.057916104793548584, -0.03987365961074829, -0.03693927079439163, -0.019215693697333336, 0.001982253510504961, -0.03638483211398125, -0.11441095918416977, -0.01794026419520378, 0.025028837844729424, -0.05793954059481621, -0.05526035279035568, -0.18730486929416656, 0.050272922962903976, -0.045744288712739944, 0.006906378082931042, -0.24941134452819824, 0.06508034467697144, -0.1174708679318428], "kernel": [[0.07427071779966354, -0.1838361918926239, -0.06750264018774033, -0.0997828021645546, 0.040553461760282516, 0.09478511661291122, 0.023965170606970787, 0.05403675138950348, -0.22868651151657104, -0.261060893535614, -0.19058050215244293, -0.3708271086215973, 0.17862720787525177, 0.06882643699645996, -0.06936021149158478, -0.11875235289335251, -0.16865403950214386, -0.23748967051506042, -0.36713916063308716, -0.04077065363526344, -0.3151479661464691, 0.20159806311130524, -0.10518678277730942, 0.0471796914935112, -0.10341432690620422, -0.14312811195850372, 0.14461059868335724, 0.007143719121813774, 0.11983943730592728, 0.4483937621116638, -0.16515018045902252, 0.06015070527791977], [-0.277523934841156, 0.10757603496313095, -0.34368500113487244, 0.28728505969047546, -0.04988779127597809, 0.13875538110733032, 0.24462595582008362, -0.1804279386997223, -0.039305757731199265, -0.23902395367622375, 0.17001165449619293, 0.14883960783481598, 0.3843076229095459, 0.12526443600654602, 0.13328132033348083, -0.08812597393989563, 0.2672898471355438, 0.10209393501281738, 0.01512918807566166, -0.2916027903556824, -0.013415946625173092, -0.47436580061912537, -0.1445007175207138, -0.1436382383108139, -0.2041172832250595, -0.037522878497838974, 0.2183476984500885, -0.060223519802093506, -0.2378453016281128, -0.10216815024614334, -0.3432992696762085, 0.029860258102416992], [-0.1353074461221695, 0.284353107213974, 0.058304619044065475, -0.07759620249271393, 0.23268753290176392, 0.04838866740465164, -0.04447386413812637, 0.022737734019756317, -0.03841531649231911, -0.020900221541523933, 0.052919548004865646, -0.027771329507231712, 0.03816027566790581, -0.273989200592041, 0.2210286557674408, -0.20976440608501434, -0.31268686056137085, -0.09241994470357895, 0.3254134953022003, 0.2159125655889511, -0.016963046044111252, 0.23211410641670227, 0.1677982211112976, 0.4562285542488098, 0.028264740481972694, -0.06254195421934128, -0.180780827999115, 0.21529856324195862, 0.22484330832958221, -0.3638465106487274, 0.1814216673374176, -0.2191990464925766], [0.054229285567998886, -0.1395152509212494, 0.1592399775981903, 0.04376591369509697, -0.20155911147594452, 0.23969119787216187, -0.20579713582992554, 0.25547826290130615, 0.22277046740055084, 0.14373336732387543, 0.15391965210437775, -0.01731237955391407, 0.08278408646583557, -0.06511010229587555, -0.06910862773656845, 0.10683588683605194, 0.03597816824913025, 0.15332074463367462, 0.1617073118686676, 0.26717522740364075, -0.12787872552871704, 0.3074655830860138, 0.14319564402103424, -0.02618364803493023, 0.19022321701049805, 0.12997031211853027, -0.03620574623346329, 0.10768662393093109, -0.032686181366443634, 0.12412962317466736, 0.09789212793111801, 0.002939204452559352], [-0.1387864202260971, 0.09946802258491516, -0.016659855842590332, 0.31468096375465393, -0.18840186297893524, -0.04045751318335533, 0.15507100522518158, -0.2077869325876236, 0.24938863515853882, -0.03800260275602341, 0.1253601759672165, -0.1525958627462387, 0.07649412751197815, -0.10262269526720047, 0.20735827088356018, 0.057797640562057495, -0.07747665792703629, -0.017010677605867386, 0.05870550870895386, 0.2959279417991638, 0.17826828360557556, -0.1936550736427307, -0.19112500548362732, 0.17570509016513824, -0.08884353190660477, -0.04305625706911087, -0.08886479586362839, 0.038479920476675034, -0.00965641625225544, 0.25544750690460205, -0.10411381721496582, -0.15599305927753448], [-0.24975188076496124, 0.41597437858581543, -0.2298521250486374, -0.2791115343570709, 0.15332381427288055, 0.0899461954832077, -0.19816279411315918, 0.04293494299054146, 0.06914219260215759, -0.18525125086307526, 0.2123740315437317, -0.01728242263197899, -0.0017587378388270736, 0.11046846210956573, -0.006708963308483362, 0.08726676553487778, 0.40111204981803894, -0.003099756082519889, 0.10360419750213623, 0.034765731543302536, 0.09583339840173721, -0.12019432336091995, -0.4262233376502991, -0.11559983342885971, -0.41999682784080505, -0.136179581284523, 0.21067386865615845, -0.01203059684485197, -0.06123043969273567, 0.011390674859285355, -0.35376080870628357, -0.06714269518852234], [-0.04298149421811104, 0.1607390195131302, -0.00477164052426815, -0.15485933423042297, 0.04824342951178551, -0.058977559208869934, -0.04818744957447052, 0.16624636948108673, 0.10583890229463577, -0.11679413169622421, -0.002702307654544711, -0.07458525896072388, -0.048798009753227234, 0.2401266098022461, 0.032810259610414505, 0.39266732335090637, -0.1667986959218979, -0.1881481409072876, -0.014145787805318832, -0.15994130074977875, -0.1490962952375412, -0.38632041215896606, -0.1488797813653946, 0.32333290576934814, 0.08234772086143494, -0.21600714325904846, 0.14925330877304077, -0.012330672703683376, 0.09097430109977722, -0.102882020175457, -0.4803306758403778, -0.11901477724313736], [-0.07016827911138535, -0.2197389453649521, 0.07919371873140335, 0.01442639622837305, -0.21323083341121674, -0.020935455337166786, -0.19811491668224335, 0.13472983241081238, 0.32115545868873596, 0.03335977718234062, -0.030190110206604004, -0.1422414481639862, -0.18166707456111908, 0.13725516200065613, 0.014104161411523819, 0.12497428059577942, 0.01016035582870245, -0.001956999534741044, 0.18788552284240723, 0.25486263632774353, 0.39978644251823425, -0.07490774244070053, -0.11067266762256622, 0.15059247612953186, -0.04591314494609833, 0.011720949783921242, -0.2567979395389557, 0.2187601774930954, 0.10856718569993973, 0.23678161203861237, 0.058024827390909195, -0.28890925645828247], [-0.024484438821673393, -0.14788350462913513, 0.1108272448182106, -0.1558874547481537, 0.20263531804084778, -0.22578097879886627, -0.07260653376579285, -0.01739560253918171, -0.13314758241176605, 0.19327150285243988, 0.33471250534057617, 0.2588026821613312, -0.11246418952941895, -0.16243325173854828, 0.4211488962173462, 0.12101046741008759, 0.1137082651257515, 0.251993328332901, 0.3515552878379822, 0.2427297979593277, -0.39513519406318665, -0.10680042952299118, -0.24225731194019318, -0.24998778104782104, 0.010972397401928902, 0.24348688125610352, 0.05030412599444389, -0.12782256305217743, -0.0849233865737915, -0.2185610681772232, 0.15106479823589325, -0.20228888094425201], [0.05644302815198898, -0.008240388706326485, -0.43955814838409424, -0.028351696208119392, -0.0856921598315239, 0.09904031455516815, 0.07774239778518677, -0.4589112401008606, 0.3279544413089752, -0.19733978807926178, 0.1110067069530487, 0.008953815326094627, 0.0471377857029438, -0.009601831436157227, 0.07678826153278351, -0.4025908410549164, 0.2597200274467468, 0.07013039290904999, 0.12314233928918839, -0.22779791057109833, 0.17058226466178894, 0.02887430414557457, -0.08533188700675964, -0.15199877321720123, -0.0035471818409860134, -0.03959379345178604, 0.21793846786022186, 0.1289622038602829, -0.2213480919599533, -0.3703869581222534, 0.28407973051071167, 0.04540569335222244], [0.3878212571144104, -0.055500578135252, 0.17841047048568726, -0.08265307545661926, 0.27606770396232605, 0.1343349814414978, 0.05937584862112999, 0.1387794315814972, -0.2440735101699829, -0.14306816458702087, -0.25797632336616516, 0.0847088024020195, 0.004884565249085426, 0.19660864770412445, 0.1366010457277298, 0.32293248176574707, -0.16030830144882202, -0.3255009651184082, -0.26960423588752747, 0.23499777913093567, 0.15926885604858398, 0.22150760889053345, -0.284349650144577, 0.12158256024122238, 0.18252189457416534, -0.12827949225902557, -0.044453371316194534, 0.12969428300857544, -0.050960034132003784, -0.05568573623895645, -0.08367190510034561, 0.03694992512464523], [-0.10110025107860565, -0.13618203997612, -0.004887870978564024, -0.2512356638908386, -0.1942039579153061, 0.2795255780220032, -0.09549449384212494, 0.3030087649822235, 0.2378302365541458, 0.1301843822002411, 0.2270670086145401, 0.29742884635925293, 0.21198636293411255, -0.1716821938753128, -0.11409944295883179, 0.15644977986812592, 0.03472645580768585, 0.32295891642570496, 0.14656998217105865, 0.05681699886918068, -0.16414861381053925, 0.007222568616271019, 0.03140801191329956, 0.20208477973937988, 0.06448207795619965, 0.0353589728474617, 0.05845876410603523, -0.3428727090358734, 0.1500917375087738, 0.12613019347190857, -0.2871979773044586, -0.04292391240596771], [0.19573253393173218, 0.1606103777885437, -0.1340021789073944, -0.1282108575105667, -0.19487641751766205, -0.09423471987247467, -0.14690573513507843, -0.036963243037462234, 0.2438468337059021, 0.21753118932247162, -0.2427065670490265, -0.09607107937335968, 0.05676873400807381, 0.07244188338518143, -0.27944260835647583, -0.0828276202082634, -0.2738483250141144, -0.056583765894174576, 0.10864405333995819, -0.17177926003932953, 0.021787289530038834, 0.21129156649112701, -0.10297618061304092, -0.11423898488283157, -0.36595767736434937, 0.06063447520136833, -0.16244089603424072, 0.1613488495349884, -0.05541784688830376, -0.09088743478059769, -0.07752294093370438, 0.10921359062194824], [0.3003273010253906, 0.295158714056015, 0.1515248566865921, 0.22327309846878052, 0.12229447066783905, 0.09951918572187424, 0.18128353357315063, -0.013176622800529003, 0.031318195164203644, 0.0425545871257782, -0.15713593363761902, -0.10121650993824005, 0.369244247674942, -0.19835813343524933, 0.1222570389509201, -0.0547785721719265, -0.08897455036640167, 0.16456954181194305, 0.46049436926841736, 0.1312914490699768, -0.22359000146389008, 0.1743255853652954, 0.019232776015996933, -0.28597891330718994, 0.1723136454820633, 0.26284730434417725, -0.10033009946346283, -0.1758853942155838, -0.302886962890625, -0.09387803822755814, -0.1848299652338028, -0.1535637229681015], [0.05742212012410164, -0.3443343937397003, -0.07843539863824844, 0.08638967573642731, -0.14311273396015167, -0.4969088137149811, 0.014898160472512245, -0.299603134393692, 0.04047162085771561, -0.3141534626483917, -0.38289162516593933, -0.05616385117173195, 0.09523595124483109, -0.02853241004049778, 0.12086150795221329, -0.16874714195728302, -0.09295352548360825, 0.23648643493652344, -0.23825639486312866, -0.13182584941387177, -0.2600472569465637, -0.10074952989816666, 0.07764945179224014, 0.10470297187566757, -0.048197027295827866, 0.10595619678497314, 0.11015395075082779, -0.2506066858768463, -0.13705717027187347, 0.07136949896812439, 0.2360723465681076, -0.19352351129055023], [0.13054673373699188, -0.046230074018239975, -0.11803623288869858, 0.03097226843237877, 0.02903970703482628, -0.1943538933992386, -0.13960067927837372, 0.24710503220558167, 0.2598433494567871, -0.07399224489927292, 0.07889319211244583, -0.20167800784111023, -0.18353798985481262, -0.08821336925029755, 0.0861315205693245, 0.05800521746277809, -0.14117585122585297, -0.29751792550086975, 0.22315335273742676, 0.019547514617443085, 0.2334238588809967, -0.1560095101594925, 0.0348520502448082, -0.042393215000629425, 0.23623192310333252, -0.07511762529611588, 0.04471341893076897, -0.12394900619983673, -0.04146166145801544, -0.14858920872211456, 0.10060391575098038, 0.021319685503840446], [-0.24041876196861267, -0.04817023128271103, 0.3120204508304596, 0.10129497200250626, 0.2278081774711609, 0.07031405717134476, 0.03616398572921753, -0.06520917266607285, -0.2566884160041809, 0.07762949913740158, 0.1468764692544937, 0.10803257673978806, -0.16908791661262512, 0.27302995324134827, -0.22596397995948792, -0.2968972623348236, 0.0009158294415101409, 0.12643645703792572, -0.17511335015296936, -0.03054872527718544, -0.1135595440864563, 0.2417731136083603, 0.012498962692916393, 0.1401691883802414, 0.1426648050546646, 0.020263515412807465, 0.04795645922422409, 0.3080584704875946, 0.02238794043660164, 0.022212687879800797, -0.25566595792770386, 0.2861054837703705], [-0.3084208071231842, 0.051926951855421066, 0.22198575735092163, -0.2543758451938629, -0.3038453161716461, -0.20193436741828918, -0.273696631193161, -0.2095125913619995, 0.020734068006277084, -0.17579777538776398, -0.08641325682401657, -0.033569615334272385, -0.2902964651584625, -0.1604178249835968, 0.16610153019428253, 0.004311603028327227, 0.17884525656700134, 0.07232003659009933, -0.12816643714904785, 0.17093023657798767, 0.12154921889305115, 0.2404291033744812, 0.05997171998023987, -0.13977088034152985, 0.3300033509731293, -0.30149269104003906, 0.1337350755929947, 0.0499960333108902, 0.16189680993556976, 0.19272756576538086, 0.2913183569908142, -0.05469709262251854], [-0.0708668977022171, -0.010163826867938042, -0.1750214844942093, -0.12664766609668732, -0.12578636407852173, -0.13476240634918213, -0.024160854518413544, -0.01974727399647236, -0.35697275400161743, 0.3134993016719818, 0.031521208584308624, -0.27988341450691223, 0.0874105766415596, 0.1424100399017334, 0.06640584021806717, -0.3819303810596466, -0.044759731739759445, 0.03277246281504631, 0.08453938364982605, -0.16790154576301575, -0.15583433210849762, -0.05351109430193901, -0.09322613477706909, -0.22901296615600586, 0.16101716458797455, 0.1500302255153656, -0.1309286504983902, -0.12472034990787506, -0.3773919939994812, -0.37207135558128357, -0.07274888455867767, -0.07687447220087051], [-0.009523866698145866, -0.17246267199516296, 0.2525020241737366, 0.28026437759399414, -0.2711617052555084, 0.044497523456811905, -0.124994657933712, -0.15338024497032166, 0.334119975566864, 0.37728363275527954, -0.043150633573532104, -0.14798228442668915, -0.22932080924510956, -0.31160175800323486, -0.34059908986091614, 0.1928374320268631, -0.04170439764857292, 0.16639722883701324, -0.09970942884683609, -0.16257327795028687, -0.06832444667816162, 0.07570528239011765, 0.2666388154029846, 0.14378130435943604, 0.06704184412956238, 0.11439377069473267, -0.07135410606861115, 0.12551723420619965, 0.22686287760734558, -0.12950222194194794, 0.43641597032546997, -0.32965824007987976], [0.14317536354064941, -0.14640627801418304, -0.05885491147637367, 0.14699481427669525, 0.23428721725940704, -0.026732027530670166, -0.0945763811469078, 0.09478634595870972, -0.012609424069523811, -0.09839321672916412, 0.06605853140354156, 0.20240411162376404, -0.29446762800216675, -0.12203850597143173, 0.06238172948360443, 0.20106522738933563, -0.24497151374816895, -0.0029981674160808325, 0.21507883071899414, 0.03380845859646797, 0.014500986784696579, 0.1758178174495697, -0.277793288230896, -0.015162314288318157, 0.05847408249974251, 0.09662127494812012, -0.3124346137046814, -0.25939443707466125, -0.2136019617319107, -0.285826176404953, 0.0939478725194931, -0.16735127568244934], [-0.21874567866325378, -0.13371902704238892, -0.06673174351453781, 0.2167176902294159, -0.16108760237693787, 0.2486710250377655, 0.2806294858455658, 0.05702903866767883, 0.03499436005949974, 0.16469033062458038, 0.03592086583375931, 0.08713482320308685, -0.05107199773192406, 0.10096599161624908, -0.23454849421977997, -0.060331955552101135, 0.06775683909654617, 0.14216801524162292, -0.1628865897655487, -0.05930164083838463, -0.1396102011203766, 0.1423269510269165, -0.20106513798236847, -0.07699041813611984, 0.11303123086690903, -0.018627382814884186, 0.1704573780298233, 0.20413126051425934, -0.21146425604820251, 0.06813932210206985, -0.0864114910364151, 0.12336532771587372], [0.2989107072353363, -0.18184106051921844, 0.07651466876268387, -0.006690728943794966, -0.10932920128107071, -0.287156343460083, -0.04405419901013374, -0.4095432162284851, -0.03571351617574692, 0.022029349580407143, 0.10230901837348938, -0.04332224652171135, -0.12131137400865555, -0.059030309319496155, 0.3592664897441864, -0.3167862296104431, -0.05099243298172951, -0.23214854300022125, -0.07227899879217148, -0.296159565448761, -0.09625405818223953, -0.0845499113202095, 0.07702933251857758, -0.11525633186101913, 0.23785319924354553, 0.022451285272836685, 0.2854607403278351, -0.07296842336654663, 0.06408852338790894, -0.31900084018707275, 0.05230172723531723, 0.24027122557163239], [-0.2865287661552429, -4.049880226375535e-05, 0.27090877294540405, -0.39868587255477905, 0.1067555770277977, -0.1652720421552658, -0.1123119667172432, -0.04194917529821396, -0.06402814388275146, -0.0029335294384509325, -0.212391197681427, 0.26371148228645325, 0.359235554933548, -0.3243522644042969, -0.14460356533527374, -0.05763603374361992, -0.2202310860157013, 0.04222662001848221, -0.02999383769929409, 0.058985039591789246, 0.056860096752643585, -0.027740173041820526, -0.03542095422744751, 0.10722974687814713, 0.1226305365562439, -0.06466735899448395, -0.2402554750442505, -0.241803377866745, -0.24456682801246643, 0.08458015322685242, 0.17241455614566803, 0.2987038493156433], [-0.1506112664937973, -0.13712117075920105, 0.19573473930358887, -0.023503286764025688, -0.17366710305213928, 0.18220485746860504, -0.17405450344085693, 0.046108271926641464, 0.21098120510578156, 0.1666216403245926, 0.004106021020561457, -0.055421072989702225, -0.047700099647045135, -0.17464704811573029, 0.1025850772857666, 0.15880288183689117, 0.03582806885242462, 0.2508188486099243, -0.05352924019098282, -0.03286037966609001, -0.2163214087486267, -0.0907835066318512, -0.12496205419301987, -0.0040658582001924515, 0.24737031757831573, 0.30761581659317017, -0.16804979741573334, -0.12436068058013916, 0.03167334944009781, 0.0008430399466305971, 0.14339597523212433, -0.2456454485654831], [0.0669211894273758, -0.1237451359629631, 0.18318650126457214, -0.04217299446463585, 0.126494899392128, -0.17395491898059845, 0.32122573256492615, 0.1865830272436142, 0.00976649671792984, -0.09731077402830124, -0.03167782351374626, 0.06727433204650879, 0.22239693999290466, -0.14442110061645508, 0.014913618564605713, 0.06433577090501785, -0.2506420314311981, -0.17758184671401978, 0.3298244774341583, -0.2060660719871521, -0.2866780161857605, -0.08574097603559494, 0.15855617821216583, 0.0646519809961319, 0.00044616585364565253, 0.045320697128772736, -0.2575429677963257, -0.3003940284252167, 0.15950000286102295, 0.14970482885837555, 0.12918314337730408, 0.019323857501149178], [0.040787018835544586, 0.053360238671302795, 0.17963829636573792, -0.08451590687036514, -0.006208749022334814, -0.04319984093308449, 0.189895898103714, -0.08580336719751358, -0.07081155478954315, 0.010512045584619045, -0.14231336116790771, -0.554448664188385, -0.1686757653951645, 0.18522018194198608, 0.004049248062074184, -0.13357263803482056, -0.1659259796142578, 0.38014665246009827, 0.1342085748910904, -0.4032452702522278, -0.1871597170829773, 0.24992690980434418, 0.2619468867778778, -0.14580319821834564, -0.2687153220176697, 0.17742010951042175, -0.12235931307077408, 0.12376158684492111, -0.046413905918598175, -0.2569117844104767, 0.0401352122426033, 0.28686392307281494], [-0.038912225514650345, -0.13927510380744934, -0.011563069187104702, -0.17617255449295044, -0.4070848524570465, 0.1310940384864807, -0.11952797323465347, 0.06842882186174393, 0.304026335477829, -0.20823614299297333, 0.2547665536403656, 0.08848973363637924, 0.19659577310085297, -0.01831386238336563, 0.20792968571186066, -0.007400503847748041, 0.26747044920921326, 0.13147132098674774, 0.10610595345497131, -0.0519925020635128, 0.03879890218377113, -0.10175709426403046, 0.2203643023967743, 0.2815764546394348, 0.04685712605714798, -0.018055826425552368, -0.017223594710230827, -0.2016511708498001, 0.2726854085922241, -0.14127042889595032, -0.06035584211349487, 0.3153854012489319], [0.12072449922561646, 0.06735081225633621, 0.32528194785118103, 0.018280617892742157, 0.045656491070985794, 0.1961050033569336, 0.20577318966388702, 0.1541101336479187, 0.1007705107331276, -0.12327444553375244, -0.16162195801734924, 0.007554314564913511, -0.3035607635974884, -0.009620578028261662, 0.15877319872379303, 0.14489027857780457, -0.24975471198558807, -0.3992655873298645, -0.12977196276187897, -0.006768211722373962, 0.10685856640338898, 0.059989556670188904, -0.08030958473682404, 0.476152241230011, 0.2916395366191864, 0.017301829531788826, 0.0665518045425415, -0.2960793375968933, 0.1239205002784729, 0.12011149525642395, 0.1292106658220291, -0.053988270461559296], [0.39063525199890137, -0.07223019003868103, -0.36904972791671753, -0.07891042530536652, -0.2724672853946686, -0.18467867374420166, 0.020271988585591316, -0.11775311827659607, -0.21443286538124084, -0.052038416266441345, 0.016678128391504288, 0.3392520546913147, 0.306522935628891, 0.04344072937965393, -0.07548152655363083, 0.12733273208141327, 0.14949335157871246, 0.14625386893749237, -0.2295466810464859, -0.33840054273605347, 0.03305970877408981, -0.028955522924661636, -0.2241310328245163, -0.019132263958454132, 0.16905711591243744, -0.0399797186255455, -0.15374527871608734, -0.03420362249016762, 0.13295648992061615, 0.27646881341934204, 0.10994283854961395, -0.024537652730941772], [-0.1999855488538742, -0.30500394105911255, 0.08062376081943512, -0.0195598341524601, 0.14469851553440094, -0.09408321231603622, -0.17697696387767792, -0.06401730328798294, -0.1527937650680542, 0.03181581199169159, 0.14983704686164856, -0.12099093943834305, 0.024203868582844734, 0.014749706722795963, -0.03625217080116272, -0.009509610943496227, -0.13922321796417236, 0.2923423945903778, -0.18709535896778107, -0.2690773010253906, -0.0949137955904007, 0.2910420000553131, 0.19274690747261047, -0.28040266036987305, -0.2411971241235733, 0.11451809108257294, 0.06202805042266846, -0.05140211805701256, 0.054425425827503204, -0.011425324715673923, 0.18329878151416779, -0.10416816174983978], [0.1259741634130478, 0.23285795748233795, 0.07394575327634811, 0.25147178769111633, -0.11769034713506699, -0.06603727489709854, -0.08098544180393219, 0.15259107947349548, -0.10425037145614624, -0.236986443400383, -0.3248392641544342, 0.15136238932609558, 0.19389817118644714, -0.05554664507508278, 0.06368229538202286, -0.20169591903686523, 0.26121601462364197, 0.32983365654945374, -0.23892122507095337, 0.23018549382686615, -0.07747799903154373, -0.048854947090148926, 0.1648108959197998, 0.1014263778924942, 0.2297583818435669, 0.2092507779598236, 0.2990218698978424, -0.06637442111968994, 0.18101979792118073, 0.29097747802734375, -0.1006816178560257, 0.28205615282058716]]}, "Dense_1": {"bias": [0.03711804002523422, 0.05084136500954628, 0.004304978530853987, 0.005616105627268553, -0.056913383305072784, 0.089522585272789, -0.09344109147787094, -0.04922385513782501, -0.03811381757259369, 0.1323537826538086, -0.05678420513868332, -0.026189083233475685, 0.15836116671562195, 0.06516660004854202, -0.057916104793548584, -0.03987365961074829, -0.03693927079439163, -0.019215693697333336, 0.001982253510504961, -0.03638483211398125, -0.11441095918416977, -0.01794026419520378, 0.025028837844729424, -0.05793954059481621, -0.05526035279035568, -0.18730486929416656, 0.050272922962903976, -0.045744288712739944, 0.006906378082931042, -0.24941134452819824, 0.06508034467697144, -0.1174708679318428], "kernel": [[0.057265281677246094, 0.06049830839037895, -0.3230850398540497, 0.03106195107102394, 0.3610556125640869, 0.1087556853890419, -0.09702809900045395, -0.0012257818598300219, 0.33767279982566833, 0.1646946370601654, -0.0036582776810973883, 0.041234083473682404, 0.3514013886451721, 0.05803191289305687, -0.04426635056734085, 0.1225409209728241, -0.039490293711423874, -0.15669919550418854, 0.05147213488817215, 0.22844384610652924, -0.1505420058965683, 0.07830784469842911, -0.2749501168727875, 0.13690058887004852, -0.3122889995574951, 0.0128049086779356, -0.09746534377336502, -0.009675673209130764, -0.1417093724012375, 0.2299182415008545, -0.03327342867851257, -0.13832609355449677], [-0.17467615008354187, 0.1816108077764511, 0.24844253063201904, -0.18555277585983276, -0.07927942276000977, 0.05498610809445381, 0.22368347644805908, -0.010184599086642265, -0.3449498414993286, 0.14566484093666077, 0.29857122898101807, 0.11613273620605469, 0.535617470741272, -0.04886241257190704, 0.16268205642700195, -0.22473812103271484, -0.20011520385742188, 0.11085975915193558, -0.2537026107311249, -0.14962565898895264, 0.10641497373580933, 0.0809364765882492, -0.03743460401892662, 0.12445524334907532, 0.1811448335647583, -0.18472130596637726, 0.11479169130325317, -0.037116214632987976, 0.06701996922492981, -0.029521331191062927, 0.025250721722841263, 0.03718608617782593], [0.1137426495552063, -0.21877892315387726, -0.1402941197156906, -0.11502373963594437, -0.26950255036354065, -0.1213102862238884, -0.09836634993553162, 0.03215176612138748, -0.0627208724617958, 0.1983916014432907, -0.09555540978908539, 0.08401477336883545, -0.08601408451795578, -0.19973540306091309, 0.3357188403606415, -0.2054503858089447, 0.014044038951396942, -0.31741005182266235, -0.09163057059049606, 0.12499557435512543, -0.3950425684452057, -0.08523763716220856, 0.055064938962459564, 0.11867059767246246, 0.16172170639038086, 0.25799107551574707, -0.1415380984544754, -0.08959073573350906, 0.07514723390340805, -0.1220851019024849, 0.08116968721151352, -0.006111621856689453], [-0.009552731178700924, 0.20969057083129883, -0.1749560534954071, -0.17104461789131165, -0.19923053681850433, 0.14942598342895508, -0.11927083879709244, -0.172481968998909, -0.10754813253879547, 0.09397698193788528, 0.1538386344909668, 0.22877581417560577, 0.2501491606235504, -0.11886527389287949, -0.21764908730983734, -0.19038692116737366, -0.3053648769855499, -0.03892666473984718, 0.18418638408184052, -0.04371287301182747, 0.12902623414993286, 0.26731163263320923, -0.01769135519862175, -0.015319183468818665, 0.20114892721176147, -0.030044009909033775, -0.3381093740463257, 0.18439266085624695, 0.026841962710022926, 0.05326271429657936, -0.011909691616892815, 0.01898612454533577], [-0.1623612642288208, -0.043235842138528824, 0.22823868691921234, 0.1807389259338379, -0.005601587705314159, -0.03829381614923477, 0.23642224073410034, -0.09872488677501678, -0.05625111982226372, -0.02239069901406765, -0.008288812823593616, 0.10569805651903152, 0.07219105958938599, -0.05945455655455589, 0.18507733941078186, 0.11677046865224838, 0.37827321887016296, -0.01791265979409218, -0.20520231127738953, -0.07907627522945404, -0.10084334015846252, 0.002036640653386712, -0.220796138048172, 0.003047969890758395, 0.08738645911216736, 0.18468649685382843, -0.0889563336968422, 0.023166678845882416, 0.17294980585575104, -0.1579257994890213, -0.05281686782836914, -0.2396496832370758], [0.03333837911486626, -0.2948010265827179, -0.1370190531015396, 0.08950807899236679, -0.212966188788414, -0.3296232521533966, -0.14843423664569855, -0.3465457558631897, 0.05496539548039436, -0.27068379521369934, -0.10787419229745865, 0.02118694968521595, 0.25449031591415405, 0.04856659844517708, -0.09448172152042389, 0.16939379274845123, -0.13475652039051056, 0.031016003340482712, -0.2055843025445938, -0.16305650770664215, 0.016904085874557495, 0.07994506508111954, 0.004369241185486317, -0.3699488937854767, -0.04003092274069786, -0.20997460186481476, -0.20090045034885406, 0.013291072100400925, 0.2836809456348419, 0.1083594411611557, 0.014436651021242142, -0.013639455661177635], [0.02980630286037922, -0.1365402489900589, -0.23245956003665924, -0.17431843280792236, 0.1644335687160492, 0.0825386717915535, 0.07201850414276123, -0.12972164154052734, 0.052639950066804886, 0.15454302728176117, 0.15905660390853882, 0.20135177671909332, 0.290107786655426, -0.006307435221970081, -0.10825876891613007, 0.13154268264770508, 0.0030265909153968096, 0.36114612221717834, 0.06898940354585648, -0.24155345559120178, 0.013747434131801128, 0.047263506799936295, -0.30664724111557007, -0.0645008459687233, -0.248978853225708, 0.04986190050840378, -0.1109202578663826, 0.20966677367687225, 0.08381493389606476, -0.12654420733451843, -0.1565123349428177, 0.2328602522611618], [0.14047394692897797, -0.11159485578536987, -0.02810419164597988, -0.18804284930229187, 0.10584216564893723, -0.04239882901310921, -0.02404346503317356, -0.0016488379333168268, 0.20735310018062592, -0.0191939827054739, 0.2416847050189972, 0.13056834042072296, -0.06230129301548004, 0.12789443135261536, -0.10045398771762848, -0.008265110664069653, 0.14998622238636017, -0.16989591717720032, -0.2956770360469818, -0.12873148918151855, -0.06565508991479874, 0.22224204242229462, -0.2452245056629181, 0.06803210824728012, 0.0986405685544014, 0.38301578164100647, 0.12102071940898895, -0.3665177524089813, 0.006555185187608004, 0.02873626910150051, 0.10078316926956177, 0.14401082694530487], [-0.04350399598479271, -0.08475891500711441, -0.2513279616832733, -0.23734179139137268, -0.25699320435523987, -0.03840000182390213, -0.17417015135288239, 0.4389171004295349, 0.2541743814945221, -0.38933688402175903, 0.13231994211673737, 0.16210851073265076, 0.11815895140171051, -0.12582790851593018, 0.09433939307928085, 0.23267562687397003, 0.08812399953603745, -0.19489023089408875, -0.14580175280570984, 0.05854005366563797, -0.26105761528015137, -0.23103779554367065, -0.017459671944379807, 0.04166889190673828, -0.1848052740097046, -0.027938181534409523, -0.10094662755727768, 0.20424793660640717, 0.1345057636499405, -0.17470024526119232, -0.1896621733903885, 0.2555153965950012], [-0.19763454794883728, 0.0983085110783577, 0.10553231090307236, 0.12956589460372925, 0.13974149525165558, 0.050161294639110565, 0.06074356287717819, -0.23709985613822937, 0.2285902500152588, -0.29922983050346375, 0.25078272819519043, 0.09364250302314758, 0.06323904544115067, 0.17834123969078064, 0.057093776762485504, 0.20060618221759796, 0.11275623738765717, 0.28022459149360657, 0.026729699224233627, 0.2582826018333435, 0.2153816819190979, -0.06298862397670746, 0.2235213816165924, 0.3021925985813141, -0.19109489023685455, -0.17719462513923645, -0.06926127523183823, -0.06277304887771606, 0.29804277420043945, 0.08902474492788315, 0.10280371457338333, 0.08038155734539032], [0.09722846001386642, 0.08778856694698334, 0.07603763043880463, 0.22409659624099731, -0.1736956238746643, -0.3076939284801483, 0.31451505422592163, -0.02179013192653656, 0.3096054792404175, 0.04416893422603607, -0.24040232598781586, -0.08212687075138092, 0.20638343691825867, -0.14102086424827576, -0.0298260860145092, 0.059798769652843475, -0.00532056950032711, 0.11103607714176178, 0.3761565387248993, 0.07633483409881592, 0.026740698143839836, -0.3178674876689911, -0.14634470641613007, -0.2628013789653778, 0.13234980404376984, 0.054847437888383865, -0.36392050981521606, 0.041450053453445435, -0.16391010582447052, -0.004267452284693718, -0.22148476541042328, -0.11195102334022522], [0.23589558899402618, -0.18439024686813354, 0.13487783074378967, -0.11497209966182709, 0.31086239218711853, 0.09100088477134705, -0.048133861273527145, 0.21808424592018127, -0.14601851999759674, 0.21684303879737854, -0.3213895857334137, -0.01445328164845705, 0.2459849864244461, -0.05045289918780327, 0.1573255956172943, 0.11437100917100906, 0.38804906606674194, 0.36419931054115295, -0.23180077970027924, 0.024271545931696892, -0.21516026556491852, -0.11851299554109573, -0.16841986775398254, 0.2546556293964386, -0.009960183873772621, 0.40518781542778015, -0.04250415414571762, 0.18931342661380768, 0.05433960631489754, -0.036342717707157135, -0.18466418981552124, 0.1438269317150116], [-0.04307237267494202, -0.06375851482152939, -0.3016551434993744, -0.09692291170358658, -0.08957090973854065, -0.1254359483718872, -0.05305824428796768, 0.19178292155265808, 0.0359523631632328, -0.14105913043022156, -0.08612550795078278, -0.11079899966716766, 0.3501315414905548, 0.2982090711593628, 0.05949540063738823, -0.06680743396282196, -0.07380368560552597, 0.1331184357404709, 0.1128220409154892, 0.06862280517816544, -0.17151281237602234, -0.0016467967070639133, 0.0030974131077528, 0.02804998867213726, -0.18279096484184265, 0.319489449262619, 0.10268370807170868, -0.14355306327342987, -0.2711549401283264, 0.23112693428993225, -0.11424233764410019, -0.11353439837694168], [-0.18182146549224854, -0.34615230560302734, 0.2989489436149597, 0.09140176326036453, 0.14121897518634796, 0.06835336983203888, -0.13935913145542145, -0.14072410762310028, 0.12873345613479614, 0.10505811870098114, -0.14560581743717194, 0.08053907752037048, 0.11147517710924149, -0.18330390751361847, 0.011257403530180454, -0.14208552241325378, -0.031938958913087845, 0.1693975329399109, 0.3145662844181061, 0.1393413245677948, 0.34510672092437744, 0.16226856410503387, -0.14183782041072845, -0.2937793731689453, 0.3579765558242798, 0.017296556383371353, -0.2182958722114563, 0.11810190230607986, 0.175490140914917, 0.2589871287345886, 0.09642261266708374, 0.12010312080383301], [0.05795612931251526, 0.044822584837675095, -0.15243813395500183, -0.32460081577301025, -0.03717983886599541, 0.09466259926557541, 0.06366042047739029, -0.050164610147476196, -0.09172875434160233, 0.040645748376846313, -0.10900571942329407, 0.2538634240627289, -0.014501507394015789, 0.2691177427768707, 0.11023826152086258, 0.1859329640865326, 0.03250015899538994, 0.3164336383342743, 0.020345386117696762, 0.35330167412757874, -0.14054733514785767, 0.07763655483722687, 0.34898310899734497, 0.3113459050655365, 0.18534737825393677, 0.054735712707042694, 0.37358972430229187, 0.0022696219384670258, -0.15091383457183838, -0.019316013902425766, 0.030933639034628868, 0.13101404905319214], [-0.17323559522628784, -0.13698910176753998, 0.010412224568426609, -0.12606197595596313, 0.1820465624332428, 0.11170762777328491, -0.23963995277881622, -0.1768028736114502, -0.06844969838857651, -0.3598192632198334, 0.22418078780174255, -0.17917387187480927, 0.07901844382286072, 0.09593740850687027, -0.08454643189907074, 0.029211239889264107, -0.06303233653306961, -0.28117313981056213, 0.4083847105503082, 0.023951660841703415, -0.2634961009025574, 0.3918081223964691, 0.08250259608030319, 0.21463273465633392, -0.20628026127815247, -0.073050856590271, 0.3658129572868347, 0.25829577445983887, -0.042219094932079315, 0.2363549917936325, 0.23777565360069275, 0.09841236472129822], [0.03043331205844879, -0.20708002150058746, 0.03153495863080025, 0.09039991348981857, -0.03430153429508209, -0.17855338752269745, 0.018620207905769348, 0.03873677924275398, -0.23881536722183228, 0.2012927234172821, 0.35086753964424133, -0.05039552226662636, 0.3508874773979187, -0.26006224751472473, -0.17516368627548218, -0.20918650925159454, -0.11717094480991364, 0.07761453092098236, 0.17549210786819458, -0.1071341261267662, 0.30538854002952576, 0.07132750004529953, 0.0568070188164711, 0.19699744880199432, 0.28701290488243103, 0.24719327688217163, -0.03915282338857651, 0.08257745951414108, -0.08524695783853531, 0.17609566450119019, -0.036848414689302444, 0.08481691032648087], [0.2225874960422516, -0.23744571208953857, 0.12975859642028809, 0.030349556356668472, -0.01980052888393402, -0.1318686157464981, -0.12469590455293655, -0.24385084211826324, 0.26636144518852234, 0.009972739033401012, 0.2824218273162842, 0.008842394687235355, -0.17012803256511688, 0.11413416266441345, -0.04119659587740898, 0.21146254241466522, -0.06417997181415558, 0.4174812138080597, 0.20234420895576477, -0.16731736063957214, -0.1954505294561386, 0.09821640700101852, -0.03732741251587868, 0.32239457964897156, 0.29274487495422363, -0.26923418045043945, 0.08379917591810226, 0.13781122863292694, 0.24044351279735565, 0.13421188294887543, 0.16235756874084473, -0.18148614466190338], [0.041704848408699036, 0.04683509096503258, 0.24539195001125336, 0.028893716633319855, -0.2363932877779007, -0.11416837573051453, 0.14814242720603943, -0.20316961407661438, 0.09548956900835037, -0.15306492149829865, 0.2598345875740051, -0.14026416838169098, 0.07977866381406784, -0.28523415327072144, -0.11296956986188889, 0.07231656461954117, 0.21521592140197754, -0.3442026972770691, -0.025231244042515755, 0.1156575009226799, -0.18710261583328247, 0.16776889562606812, 0.004939652979373932, -0.06974972039461136, 0.06252128630876541, 0.11054795235395432, -0.2729502022266388, 0.11085733026266098, -0.23384425044059753, 0.011102043092250824, -0.10945816338062286, -0.05469118803739548], [-0.006506693549454212, -0.07776325941085815, 0.014199293218553066, 0.25358903408050537, -0.17573322355747223, 0.038398727774620056, 0.500678539276123, 0.1366746723651886, -0.1647629588842392, 0.017721328884363174, 0.21232502162456512, 0.1369665414094925, -0.00901996809989214, 0.246989443898201, 0.02545221522450447, 0.012034313753247261, 0.21412970125675201, -0.11469881236553192, 0.29360827803611755, -0.01606333628296852, -0.06636615842580795, -0.10557109117507935, 0.27745676040649414, -0.11177010834217072, -0.10818957537412643, -0.15374575555324554, 0.3309299647808075, 0.08070921897888184, -0.2604956030845642, 0.16360247135162354, -0.24683693051338196, 0.10999725013971329], [-0.11682117730379105, 0.08899585157632828, -0.14428134262561798, 0.13890257477760315, 0.24250687658786774, -0.02304765209555626, 0.1659584790468216, -0.07652509957551956, -0.24129050970077515, 0.06432359665632248, 0.021232713013887405, -0.05526495352387428, 0.1978081464767456, -0.10599005222320557, 0.09753672033548355, -0.08843879401683807, -0.04335041344165802, 0.02881067618727684, 0.21999172866344452, 0.06425637006759644, -0.060623545199632645, -0.2686096131801605, 0.020592892542481422, -0.06005968526005745, 0.09936055541038513, -0.023141993209719658, 0.05698172375559807, -0.0664994940161705, 0.19550342857837677, 0.18503668904304504, 0.20971083641052246, 0.10141206532716751], [-0.13338102400302887, 0.12938421964645386, -0.1409524828195572, 0.15726535022258759, 0.0902082696557045, -0.03433771803975105, 0.40847745537757874, 0.056611064821481705, 0.2504810094833374, 0.018831845372915268, 0.1536775529384613, -0.21867896616458893, 0.17901423573493958, -0.27237266302108765, 0.284585565328598, 0.1451760232448578, 0.12302315980195999, -0.2497052699327469, -0.08099308609962463, 0.12690627574920654, -0.2897520065307617, -0.1397271603345871, -0.19204005599021912, 0.3493227958679199, -0.14075878262519836, 0.1918187141418457, -0.27961266040802, -0.09699873626232147, -0.27430933713912964, 0.015421251766383648, -0.24285411834716797, -0.08122094720602036], [-0.3088722825050354, 0.008826452307403088, -0.38355422019958496, 0.14978159964084625, -0.10881955921649933, -0.07268866151571274, -0.031996190547943115, -0.023247703909873962, -0.025547148659825325, -0.1202671006321907, 0.1279728263616562, 0.061888452619314194, -0.18495546281337738, 0.08606958389282227, -0.28220778703689575, -0.2407129406929016, -0.02575266920030117, 0.07303915172815323, -0.008050390519201756, -0.14148259162902832, 0.23106077313423157, 0.19696103036403656, 0.12209384888410568, 0.03983762115240097, 0.23973006010055542, -0.07169324904680252, -0.011408224701881409, 0.1562587171792984, -0.16742078959941864, -0.1968546062707901, 0.12580934166908264, -0.04913872852921486], [0.13803140819072723, 0.09483794867992401, -0.08358263969421387, -0.01021584589034319, -0.33534660935401917, 0.02538876049220562, 0.2405013144016266, -0.03639191389083862, -0.1408805102109909, -0.0396558903157711, 0.04934591427445412, -0.19014756381511688, 0.3133294880390167, 0.05557052046060562, 0.0024757375940680504, -0.26912254095077515, 0.3177640736103058, -0.29508206248283386, -0.08624374866485596, -0.015104173682630062, -0.18669243156909943, 0.14302755892276764, 0.05680593475699425, 0.08432669937610626, -0.0776260495185852, 0.21612334251403809, -0.19704079627990723, -0.18927226960659027, 0.014990960247814655, -0.1117590069770813, 0.07259339094161987, -0.040682438760995865], [-0.13150373101234436, -0.07002246379852295, 0.08058421313762665, -0.165775865316391, 0.15935808420181274, -0.15073588490486145, 0.12604136765003204, 0.005987703334540129, 0.1209230050444603, -0.05865776538848877, 0.25483429431915283, -0.027086427435278893, 0.05639548599720001, 0.0002816934138536453, 0.11118913441896439, 0.08949106186628342, -0.3786327838897705, -0.08447704464197159, 0.13138869404792786, 0.11871524155139923, 0.13730114698410034, 0.03281127288937569, 0.18603400886058807, -0.2052145153284073, -0.045029252767562866, 0.14628085494041443, -0.20247676968574524, 0.3169073164463043, -0.28945639729499817, 0.1408243030309677, -0.3687724471092224, -0.05304763466119766], [-0.2988291084766388, 0.18353691697120667, 0.25941231846809387, -0.09552109241485596, -0.1055411621928215, -0.02023807168006897, -0.1490458995103836, 0.01886010356247425, 0.006963835097849369, 0.015273532830178738, -0.06110365316271782, 0.015287519432604313, 0.0690702348947525, 0.13341611623764038, 0.05635638162493706, -0.07919562608003616, 0.08908148854970932, 0.16752047836780548, -0.16469316184520721, -0.05283524468541145, -0.286053866147995, -0.028071284294128418, -0.11390534043312073, -0.02564181573688984, 0.06498392671346664, 0.05214199423789978, 0.20754565298557281, 0.2059006690979004, -0.07527855038642883, 0.11994955688714981, 0.354947030544281, 0.10418132692575455], [0.026835335418581963, 0.23922522366046906, 0.034837719053030014, -0.2878571152687073, 0.3651108145713806, -0.07691250741481781, 0.07473327964544296, -0.045266564935445786, -0.07913744449615479, -0.09814836084842682, -0.24616721272468567, -0.21884141862392426, -0.1308288276195526, -0.08121124655008316, -0.16630253195762634, 0.18939414620399475, 0.185146763920784, 0.01474562007933855, -0.16231930255889893, 0.12451329827308655, -0.10553088039159775, 0.26648667454719543, -0.07114384323358536, -0.3160834312438965, -0.3451964557170868, 0.0850258320569992, 0.17945174872875214, -0.11055779457092285, -0.2546398937702179, 0.12029948830604553, 0.25572317838668823, 0.1468764841556549], [0.33482611179351807, -0.27684757113456726, 0.2429085373878479, 0.16591671109199524, 0.06025780737400055, 0.3161006271839142, -0.06093839928507805, 0.06578139960765839, -0.22385652363300323, -0.09166611731052399, -0.017184501513838768, 0.1742933839559555, 0.29844680428504944, 0.05117515102028847, 0.13353779911994934, -0.07914862781763077, -0.04365584999322891, 0.18966487050056458, -0.10649460554122925, -0.22729283571243286, -0.367841511964798, 0.03784211724996567, -0.052386946976184845, -0.02598884515464306, 0.28760194778442383, 0.013776269741356373, 0.10744470357894897, 0.2053733617067337, -0.2166169285774231, -0.33219051361083984, -0.1851346492767334, -0.2731975018978119], [-0.09680606424808502, -0.22774673998355865, -0.05627945438027382, 0.013936001807451248, -0.20539358258247375, 0.3062357008457184, -0.03185863420367241, 0.12192206084728241, 0.3287736177444458, 0.16723981499671936, 0.1417907476425171, 0.20928721129894257, 0.1257210075855255, 0.25480467081069946, 0.033225689083337784, 0.30529776215553284, -0.17798011004924774, -0.19292394816875458, 0.1796378493309021, -0.24823033809661865, -0.002340786624699831, -0.04869457334280014, 0.1865430474281311, 0.05776802450418472, 0.2667689919471741, -0.10703828930854797, 0.24403823912143707, -0.14031359553337097, 0.009134389460086823, 0.18904782831668854, -0.28451183438301086, 0.04120434820652008], [0.30572032928466797, 0.1822240650653839, -0.30090397596359253, -0.056018147617578506, -0.01664130575954914, 0.053088121116161346, -0.031092599034309387, 0.03297398239374161, 0.12288980931043625, -0.028635254129767418, 0.2845752239227295, 0.07544729113578796, 0.5511250495910645, 0.22785334289073944, 0.0181385837495327, -0.04240277782082558, -0.025940120220184326, -0.12470172345638275, -0.09491059929132462, 0.04355685040354729, -0.2477312535047531, 0.3107510507106781, 0.04527595266699791, 0.11472804844379425, -0.03032868541777134, -0.020722761750221252, -0.175322026014328, 0.14428497850894928, -0.07137127220630646, -0.2648531496524811, 0.0431852824985981, 0.3507440388202667], [0.36273080110549927, 0.2062278687953949, 0.24860119819641113, -0.27178657054901123, -0.04462803527712822, 0.12869326770305634, -0.053557008504867554, -0.006853259168565273, 0.162045419216156, -0.03588235005736351, -0.09037277102470398, 0.250689834356308, 0.5637877583503723, 0.33439579606056213, 0.3327972888946533, 0.16903045773506165, -0.03437015786767006, -0.06103483960032463, -0.104987733066082, 0.06009446084499359, -0.2852432429790497, 0.08686811476945877, 0.1476944535970688, 0.24157507717609406, -0.0409306138753891, -0.2497662901878357, -0.22930055856704712, 0.1555054634809494, -0.08450731635093689, 0.16231122612953186, 0.17127537727355957, 0.0897531732916832], [0.03493742644786835, -0.10042726993560791, 0.08390604704618454, -0.041354887187480927, 0.1663653403520584, 0.08195054531097412, -0.10599136352539062, -0.08220220357179642, 0.005501630716025829, -0.07503721863031387, -0.23874987661838531, -0.07500430196523666, 0.582240641117096, 0.22281816601753235, 0.11363071948289871, 0.11539362370967865, -0.11922115832567215, -0.23448380827903748, -0.053796734660863876, -0.013843709602952003, -0.2885075807571411, -0.1717996895313263, -0.09317578375339508, 0.050339359790086746, 0.08583471179008484, 0.1227864921092987, 0.15946081280708313, 0.056308578699827194, 0.13378772139549255, -0.21392707526683807, -0.09355057775974274, -0.020321546122431755]]}}}}, "test_1": {"yhat": [-0.07810197025537491, -0.05614414066076279, -0.05049779638648033, -0.043179064989089966, -0.024253878742456436, 0.001180623541586101, 0.01630563847720623, 0.03158149495720863, 0.036226820200681686, 0.039879120886325836, 0.03819352388381958, 0.030641818419098854, 0.026796793565154076, 0.026246260851621628, 0.026148462668061256, 0.02966015785932541, 0.03524556756019592, 0.03844871744513512, 0.046524226665496826, 0.06422853469848633, 0.08416159451007843, 0.10104819387197495, 0.1167525127530098, 0.13804112374782562, 0.16373901069164276, 0.18198995292186737, 0.19147169589996338, 0.20139184594154358, 0.20051996409893036, 0.18194480240345, 0.15550774335861206, 0.11885572224855423, 0.07190537452697754, 0.02098516933619976, -0.03364048898220062, -0.09141644835472107, -0.14673620462417603, -0.19652318954467773, -0.24085430800914764, -0.2814032733440399, -0.3167653977870941, -0.3439076542854309, -0.3627645969390869, -0.37327903509140015, -0.37672916054725647, -0.37721768021583557, -0.3727720379829407, -0.3604514002799988, -0.3439590036869049, -0.32806360721588135, -0.3146929144859314, -0.3035100996494293, -0.2959868609905243, -0.2936328649520874, -0.2985752820968628, -0.3136044442653656, -0.33471786975860596, -0.3548656404018402, -0.3719780743122101, -0.385004460811615, -0.3915558457374573, -0.3922257423400879, -0.3867465853691101, -0.36805081367492676, -0.33493271470069885, -0.2957664728164673, -0.24964439868927002, -0.1965852528810501, -0.14219748973846436, -0.09054436534643173, -0.04851511865854263, -0.020731328055262566, -0.002265430521219969, 0.003787872614338994, -0.005832118447870016, -0.029164334759116173, -0.06639095395803452, -0.11309491842985153, -0.15654504299163818, -0.18495002388954163, -0.20416799187660217, -0.21896785497665405, -0.21898874640464783, -0.20153185725212097, -0.15898823738098145, -0.10942735522985458, -0.059411391615867615, -0.00991400983184576, 0.04080435633659363, 0.0965786948800087, 0.16779151558876038, 0.2278980314731598, 0.275646835565567, 0.3255397081375122, 0.37446433305740356, 0.4127253592014313, 0.44284307956695557, 0.4691973030567169, 0.4854103624820709, 0.4856683313846588, 0.4766384959220886, 0.46565312147140503, 0.44900330901145935, 0.41786715388298035, 0.37221142649650574, 0.32407665252685547, 0.28625914454460144, 0.259482204914093, 0.23737077414989471, 0.21941526234149933, 0.2093513309955597, 0.208696648478508, 0.2125777155160904, 0.2174500972032547, 0.21778465807437897, 0.21892309188842773, 0.2225465178489685, 0.2190035879611969, 0.2079264521598816, 0.19560572504997253, 0.18056149780750275, 0.15802691876888275, 0.13043206930160522, 0.10354043543338776, 0.08162377774715424, 0.06705749034881592, 0.056654300540685654, 0.043665263801813126, 0.026305656880140305, 0.006414578761905432, -0.020908694714307785, -0.05618162080645561, -0.10173218697309494, -0.1580153852701187, -0.2186276614665985, -0.28083717823028564, -0.3377629220485687, -0.3838549554347992, -0.41940149664878845, -0.4424452483654022, -0.444630891084671, -0.4283716082572937, -0.40150824189186096, -0.36755165457725525, -0.32442471385002136, -0.2783726751804352, -0.23338565230369568, -0.1962222307920456, -0.1597011834383011, -0.12839320302009583, -0.09869176149368286, -0.07638759166002274, -0.059427060186862946, -0.04661016911268234, -0.04470030218362808, -0.054979171603918076, -0.07730453461408615, -0.1161113753914833, -0.16925522685050964, -0.22373022139072418, -0.27763432264328003, -0.33399438858032227, -0.383131742477417, -0.418872207403183, -0.4396951198577881, -0.42968395352363586, -0.4057063162326813, -0.3741406798362732, -0.32779309153556824, -0.28319352865219116, -0.23621542751789093, -0.19044643640518188, -0.137114480137825, -0.08965804427862167, -0.05671904608607292, -0.020703984424471855, 0.01140951830893755, 0.031359169632196426, 0.03716393560171127, 0.031815797090530396, 0.01945061981678009, -0.00689293909817934, -0.048268016427755356, -0.10033711045980453, -0.15853263437747955, -0.22351045906543732, -0.29095709323883057, -0.353662371635437, -0.40818893909454346, -0.4542315602302551, -0.49131375551223755, -0.5184850096702576, -0.5365416407585144, -0.5489059090614319, -0.5594651699066162, -0.569753110408783, -0.5793284773826599, -0.5862995386123657, -0.5899567604064941, -0.5927734375, -0.5925791263580322, -0.5827312469482422, -0.5645651817321777, -0.5401056408882141, -0.5011765956878662, -0.45830342173576355, -0.4128398895263672, -0.3546355366706848, -0.2939472496509552, -0.23303337395191193, -0.17257890105247498, -0.12485241889953613, -0.0815504789352417, -0.0332203172147274, 0.011165793053805828, 0.048686522990465164, 0.08348387479782104, 0.12705913186073303, 0.16854307055473328, 0.20463493466377258, 0.24024836719036102, 0.2687140703201294, 0.2895238399505615, 0.3080579340457916, 0.31957098841667175, 0.32231393456459045, 0.31880345940589905, 0.3088023364543915, 0.29212453961372375, 0.269217312335968, 0.24289238452911377, 0.21797707676887512, 0.1957983374595642, 0.1785382777452469, 0.16557975113391876, 0.1536892205476761, 0.14566552639007568, 0.1410982459783554, 0.13380132615566254, 0.12523283064365387, 0.11611022800207138, 0.09950432181358337, 0.07765371352434158, 0.06131775304675102, 0.05270000547170639, 0.046936407685279846, 0.04508890584111214, 0.05289580672979355, 0.0631549134850502, 0.06926064193248749, 0.07396218925714493, 0.07685822248458862, 0.07719575613737106, 0.0683361291885376, 0.044973086565732956, 0.018412020057439804, -0.01270343828946352, -0.046780675649642944, -0.07290098816156387, -0.09559890627861023, -0.11518296599388123, -0.12649346888065338, -0.13167662918567657, -0.13635605573654175, -0.1429564207792282, -0.15150094032287598, -0.16319310665130615, -0.1771714836359024, -0.19642683863639832, -0.22059783339500427, -0.24588990211486816, -0.2699602544307709, -0.28945666551589966, -0.30255547165870667, -0.3132159113883972, -0.3201592266559601, -0.32242244482040405, -0.3275987207889557, -0.33326423168182373, -0.33653491735458374, -0.3402840495109558, -0.34167400002479553, -0.33790889382362366, -0.3312762677669525, -0.32504692673683167, -0.31750771403312683, -0.30251994729042053, -0.28602638840675354, -0.2719142436981201, -0.25200432538986206, -0.22437313199043274, -0.19207069277763367, -0.15775024890899658, -0.12465518712997437, -0.0931800827383995, -0.05974595248699188, -0.0236835815012455, 0.003981316927820444, 0.02281741052865982, 0.03422529995441437, 0.03919576480984688, 0.04176502302289009, 0.044233616441488266, 0.0422891341149807, 0.04289660602807999, 0.04532229155302048, 0.048092570155858994, 0.05977756902575493, 0.0758383646607399, 0.09220618009567261, 0.11397916078567505, 0.1378801465034485, 0.1587255299091339, 0.17400877177715302, 0.18852375447750092, 0.20542611181735992, 0.2156171351671219, 0.21748296916484833, 0.21338723599910736, 0.20611673593521118, 0.19352975487709045, 0.1750047653913498, 0.15403565764427185, 0.12813644111156464, 0.09678299725055695, 0.0668543130159378, 0.0425073616206646, 0.023877104744315147, 0.008801654912531376, -0.0011599609861150384, 0.0012501570163294673, 0.010474554263055325, 0.023973776027560234, 0.04997509345412254, 0.08042716979980469, 0.11005426198244095, 0.13720528781414032, 0.16672393679618835, 0.19707104563713074, 0.2198711633682251, 0.23912107944488525, 0.25962474942207336, 0.27402564883232117, 0.27604907751083374, 0.27047792077064514, 0.2620950937271118, 0.24959339201450348, 0.23142069578170776, 0.2122674286365509, 0.19806703925132751, 0.18566827476024628, 0.16840092837810516, 0.15150971710681915, 0.1399487406015396, 0.1298685371875763, 0.12401697039604187, 0.12402454763650894, 0.12299588322639465, 0.11855198442935944, 0.11989206820726395, 0.1298408806324005, 0.14250755310058594, 0.16077283024787903, 0.18708536028862, 0.21572794020175934, 0.24177247285842896, 0.26859578490257263, 0.29972609877586365, 0.32727867364883423, 0.34757229685783386, 0.36402326822280884, 0.37721753120422363, 0.37678852677345276, 0.364250510931015, 0.3483625650405884, 0.32926544547080994, 0.30753085017204285, 0.2766258418560028, 0.23831771314144135, 0.19303369522094727, 0.1452120840549469, 0.09989059716463089, 0.05122464522719383, 0.0009886128827929497, -0.04451177269220352, -0.08510702848434448, -0.11692007631063461, -0.13731591403484344, -0.15078973770141602, -0.15445299446582794, -0.13505572080612183, -0.09320670366287231, -0.04926483333110809, -0.012432780116796494, 0.02296385169029236, 0.055702436715364456, 0.07238616794347763, 0.07952097803354263, 0.09019718319177628, 0.08077442646026611, 0.035698406398296356, -0.024672819301486015, -0.08653466403484344, -0.15978647768497467, -0.2387056201696396, -0.31653130054473877, -0.38330692052841187, -0.43391790986061096, -0.47646552324295044, -0.5169780254364014, -0.5501365661621094, -0.5645871162414551, -0.5575108528137207, -0.534750759601593, -0.5004597902297974, -0.45455676317214966, -0.39682379364967346, -0.33454516530036926, -0.27485576272010803, -0.2169288545846939, -0.1587429642677307, -0.10344092547893524, -0.056305836886167526, -0.018126023933291435, 0.013192298822104931, 0.04275805130600929, 0.07140962779521942, 0.09433683007955551, 0.11715066432952881, 0.1463676244020462, 0.1720212697982788, 0.18983013927936554, 0.19821511209011078, 0.19856125116348267, 0.18694321811199188, 0.1580098271369934, 0.1159551814198494, 0.061815034598112106, -0.0008483404526486993, -0.06541738659143448, -0.13177616894245148, -0.1994427889585495, -0.2605167031288147, -0.31023672223091125, -0.34899625182151794, -0.3717230558395386, -0.38185957074165344, -0.3843145966529846, -0.3805141746997833, -0.3749639689922333, -0.3686397671699524, -0.3602302074432373, -0.35603782534599304, -0.3555299937725067, -0.358420193195343, -0.36570093035697937, -0.371497243642807, -0.37269410490989685, -0.36974677443504333, -0.3613516390323639, -0.34611818194389343, -0.3243362009525299, -0.2961669862270355, -0.25720685720443726, -0.21011283993721008, -0.16341635584831238, -0.11772365123033524, -0.06580140441656113, -0.022131111472845078, -0.0063091241754591465, -0.001182899926789105, 0.012539360672235489, 0.01690819300711155, 0.007408937439322472, -0.001803171238861978, -0.013009835965931416, -0.03217219561338425, -0.04889064282178879, -0.07378976792097092, -0.10556615144014359, -0.12956103682518005, -0.15264491736888885, -0.17695531249046326, -0.19427795708179474, -0.1999686360359192, -0.20033873617649078, -0.20105864107608795, -0.19879885017871857, -0.19238272309303284, -0.18716219067573547, -0.18224139511585236, -0.17376066744327545, -0.16482608020305634, -0.15439759194850922, -0.1380755603313446, -0.11932589113712311, -0.09562809020280838, -0.06012065336108208, -0.019553354009985924, 0.023596718907356262, 0.06892137229442596, 0.11182219535112381, 0.15057168900966644, 0.1799067258834839, 0.19945278763771057, 0.21158050000667572, 0.21486814320087433, 0.21140559017658234, 0.2024078071117401, 0.18704552948474884, 0.16522501409053802, 0.13821347057819366, 0.10987064987421036, 0.08336242288351059, 0.05803001672029495, 0.03443943336606026, 0.015294176526367664, -0.00044178985990583897, -0.013887451961636543, -0.02180054411292076, -0.02522294409573078, -0.02934405766427517, -0.03198970854282379, -0.0295878853648901, -0.026534350588917732, -0.02333693765103817, -0.016703711822628975, -0.006385211367160082, 0.005477669183164835, 0.02421821840107441, 0.05362134799361229, 0.08125542104244232, 0.10452117770910263, 0.13222990930080414, 0.1621926873922348, 0.18377549946308136, 0.19920025765895844, 0.20913463830947876, 0.21228474378585815, 0.2150953710079193, 0.2214229255914688, 0.22345905005931854, 0.21920840442180634, 0.2147880643606186, 0.2043088674545288, 0.18923136591911316, 0.17387953400611877, 0.15207336843013763, 0.12133629620075226, 0.08973359316587448, 0.0591072216629982, 0.025217801332473755, -0.013842803426086903, -0.0540183000266552, -0.08778821676969528, -0.11582218110561371, -0.13918942213058472, -0.15517649054527283, -0.1646757423877716, -0.16858671605587006, -0.16306377947330475, -0.15075615048408508, -0.1396700143814087, -0.13182030618190765, -0.12642015516757965, -0.11914975196123123, -0.11842789500951767, -0.1260560005903244, -0.13115271925926208, -0.132322296500206, -0.12980465590953827, -0.12363450974225998, -0.10581663250923157, -0.07932428270578384, -0.05452264845371246, -0.025283362716436386, 0.00682737585157156, 0.03382602334022522, 0.05353809520602226, 0.06408946216106415, 0.0788578987121582, 0.08344598114490509, 0.0814773365855217, 0.08264527469873428, 0.07407842576503754, 0.055107664316892624, 0.030298452824354172, 0.011364152655005455, -0.0040502590127289295, -0.022380366921424866, -0.035631563514471054, -0.03735228627920151, -0.03674071654677391, -0.0326087512075901, -0.013015263713896275, 0.018196353688836098, 0.052461910992860794, 0.08981930464506149, 0.12611885368824005, 0.15281559526920319, 0.1681639552116394, 0.18571680784225464, 0.21448276937007904, 0.2421451210975647, 0.23890358209609985, 0.18187689781188965, 0.11303354799747467, 0.052782852202653885, -0.010501204058527946, -0.07556261122226715, -0.1412547379732132, -0.19885866343975067, -0.24611324071884155, -0.2850847542285919, -0.31589341163635254, -0.3346143960952759, -0.3355596363544464, -0.31855204701423645, -0.2953667938709259, -0.27415233850479126, -0.2552044093608856, -0.22404523193836212, -0.17376035451889038, -0.12877455353736877, -0.09097364544868469, -0.043971482664346695, 0.0006875401013530791, 0.03738318756222725, 0.06977584958076477, 0.09822548180818558, 0.11833027750253677, 0.12637321650981903, 0.12320417910814285, 0.10949881374835968, 0.08709285408258438, 0.057559769600629807, 0.022666260600090027, -0.008335220627486706, -0.031170565634965897, -0.04934214800596237, -0.061871178448200226, -0.06685792654752731, -0.06659156829118729, -0.05690716579556465, -0.04080335795879364, -0.03192161023616791, -0.024286136031150818, -0.01372954249382019, -0.008572699502110481, -0.01093991007655859, -0.016915077343583107, -0.02898348681628704, -0.04781384766101837, -0.07186075299978256, -0.09735720604658127, -0.11908083409070969, -0.13696424663066864, -0.15330563485622406, -0.16299700736999512, -0.16302987933158875, -0.15833744406700134, -0.14753180742263794, -0.12493536621332169, -0.09229888021945953, -0.05120859295129776, -0.0031924068462103605, 0.04634644836187363, 0.09405931085348129, 0.14093387126922607, 0.1853124052286148, 0.22146828472614288, 0.24905627965927124, 0.2684498727321625, 0.2758055627346039, 0.27504777908325195, 0.2693547308444977, 0.252117395401001, 0.22821857035160065, 0.20712625980377197, 0.18696902692317963, 0.16900184750556946, 0.15747332572937012, 0.15254975855350494, 0.15435291826725006, 0.1651877462863922, 0.18178237974643707, 0.1985994428396225, 0.212656170129776, 0.22025755047798157, 0.22099241614341736, 0.21605747938156128, 0.20315834879875183, 0.17952843010425568, 0.14769746363162994, 0.10856814682483673, 0.06521643698215485, 0.024227537214756012, -0.01634785160422325, -0.06006033718585968, -0.10536011308431625, -0.14509710669517517, -0.18017801642417908, -0.21641753613948822, -0.25280728936195374, -0.2856077551841736, -0.31149396300315857, -0.3293215036392212, -0.3407317101955414, -0.347297340631485, -0.347935289144516, -0.3396676480770111, -0.3235650360584259, -0.3045399785041809, -0.28719380497932434, -0.2717035114765167, -0.2564457654953003, -0.24293580651283264, -0.2339080274105072, -0.2311902791261673, -0.2323913872241974, -0.23383019864559174, -0.23582760989665985, -0.23890531063079834, -0.23983177542686462, -0.2326856106519699, -0.21388986706733704, -0.18633854389190674, -0.15354229509830475, -0.11271201819181442, -0.059472836554050446, 0.0017380176577717066, 0.06349848210811615, 0.12685544788837433, 0.1927005648612976, 0.2535204589366913, 0.3061683475971222, 0.3569345474243164, 0.4040895998477936, 0.4415430426597595, 0.47001346945762634, 0.4956074059009552, 0.5165989398956299, 0.5244721174240112, 0.519830584526062, 0.50783771276474, 0.4849126636981964, 0.4428699016571045, 0.3835247755050659, 0.31364405155181885, 0.2375621646642685, 0.1604156345129013, 0.08212044835090637, 0.000762808311264962, -0.07915971428155899, -0.14700861275196075, -0.19933505356311798, -0.2377597987651825, -0.2625749707221985, -0.2712046802043915, -0.2618430554866791, -0.23575593531131744, -0.19405275583267212, -0.1349695920944214, -0.058244891464710236, 0.02782115712761879, 0.10659325867891312, 0.178993359208107, 0.24915377795696259, 0.3217923939228058, 0.3984238803386688, 0.4684146046638489, 0.532253623008728, 0.5974004864692688, 0.6427823901176453, 0.6441593766212463, 0.6031010150909424, 0.5365552306175232, 0.45884570479393005, 0.3739583492279053, 0.27099609375, 0.15149804949760437, 0.028896108269691467, -0.07882966101169586, -0.1746753454208374, -0.26293623447418213, -0.3364076316356659, -0.39042195677757263, -0.42399054765701294, -0.4444271922111511, -0.4502256512641907, -0.4269391596317291, -0.37477555871009827, -0.3002796173095703, -0.2266371101140976, -0.1665891855955124, -0.10638457536697388, -0.03452322632074356, 0.03841400146484375, 0.10038767755031586, 0.14637069404125214, 0.17440681159496307, 0.19113530218601227, 0.20248880982398987, 0.19736617803573608, 0.1684930920600891, 0.13074563443660736, 0.09512913972139359, 0.05921843647956848, 0.022411884739995003, -0.009952821768820286, -0.0363505519926548, -0.05432889610528946, -0.06241464614868164, -0.06043534725904465, -0.04875690117478371, -0.028147445991635323, -0.003371616592630744, 0.02238956093788147, 0.04945169761776924, 0.07598931342363358, 0.10402031242847443, 0.13040615618228912, 0.14694447815418243, 0.15656836330890656, 0.16337884962558746, 0.1631837636232376, 0.1603015661239624, 0.16246385872364044, 0.16572138667106628, 0.17064054310321808, 0.18372604250907898, 0.20234565436840057, 0.22241328656673431, 0.24551713466644287, 0.26967790722846985, 0.28870028257369995, 0.2987390160560608, 0.3012445867061615, 0.29693105816841125, 0.28473031520843506, 0.26315221190452576, 0.23464646935462952, 0.20520542562007904, 0.1746758371591568, 0.1412055641412735, 0.11365914344787598, 0.09232690930366516, 0.06354404985904694, 0.03707965463399887, 0.012799675576388836, -0.01870451308786869, -0.05155523866415024, -0.08826009929180145, -0.12733514606952667, -0.1623268574476242, -0.18808220326900482, -0.20654962956905365, -0.2182607352733612, -0.218428373336792, -0.20550407469272614, -0.18224743008613586, -0.15124410390853882, -0.11066728830337524, -0.061411067843437195, -0.009161840192973614, 0.04238519072532654, 0.09067562222480774, 0.13248981535434723, 0.1672837883234024, 0.19684626162052155, 0.22298265993595123, 0.24312125146389008, 0.25271862745285034, 0.25312045216560364, 0.24577684700489044, 0.22735323011875153, 0.19648927450180054, 0.15593089163303375, 0.10680103302001953, 0.05073217675089836, -0.007166874594986439, -0.062326472252607346, -0.11217111349105835, -0.15110023319721222, -0.1759231686592102, -0.18895284831523895, -0.19299982488155365, -0.18589594960212708, -0.16961200535297394, -0.15355099737644196, -0.1380576342344284, -0.1258177012205124, -0.12309513986110687, -0.13391460478305817, -0.14699600636959076, -0.16924139857292175, -0.2034061849117279, -0.24360686540603638, -0.2866330146789551, -0.3271894156932831, -0.35812970995903015, -0.379528671503067, -0.3933892250061035, -0.39993545413017273, -0.398647665977478, -0.3953362703323364, -0.39023557305336, -0.37942826747894287, -0.37194696068763733, -0.37144342064857483, -0.36826056241989136, -0.3640500009059906, -0.36606210470199585, -0.36927077174186707, -0.36662396788597107, -0.35978078842163086, -0.3486383557319641, -0.3306220471858978, -0.3028408885002136, -0.26646843552589417, -0.23884908854961395, -0.2261199653148651, -0.21298296749591827, -0.2050590217113495, -0.20863646268844604, -0.2233356535434723, -0.25460749864578247, -0.29718080163002014, -0.3430720865726471, -0.3787175714969635, -0.40656915307044983, -0.4230804741382599, -0.4186374843120575, -0.3948332965373993, -0.3595711886882782, -0.3251396715641022, -0.29326122999191284, -0.2582245469093323, -0.22416739165782928, -0.20438764989376068, -0.19696968793869019, -0.19706737995147705, -0.20650416612625122, -0.21729955077171326, -0.22090280055999756, -0.2212861031293869, -0.21252797544002533, -0.19300085306167603, -0.1597173660993576, -0.12717416882514954, -0.10814954340457916, -0.08363689482212067, -0.06253230571746826, -0.05631249397993088, -0.056096624583005905, -0.06508835405111313, -0.08880520612001419, -0.12080370634794235, -0.15714554488658905, -0.19445019960403442, -0.23069924116134644, -0.2638545036315918, -0.2929026186466217, -0.31469228863716125, -0.3269721567630768, -0.33167019486427307, -0.3320971727371216, -0.327226847410202, -0.31437042355537415, -0.29734721779823303, -0.2827763259410858, -0.2734237015247345, -0.2688126862049103, -0.26744845509529114, -0.26972851157188416, -0.27492088079452515, -0.2784596085548401, -0.27583351731300354, -0.267563134431839, -0.25384560227394104, -0.23028644919395447, -0.1985180526971817, -0.16100101172924042, -0.11505741626024246, -0.06687676906585693, -0.020864352583885193, 0.020580153912305832, 0.05124809592962265, 0.07564983516931534, 0.09292752295732498, 0.09942567348480225, 0.09794724732637405, 0.09080076217651367, 0.08215106278657913, 0.07725627720355988, 0.07722330093383789, 0.0815562903881073, 0.0912661924958229, 0.10632044821977615, 0.12836091220378876, 0.15891027450561523, 0.19376374781131744, 0.22629661858081818, 0.25408071279525757, 0.28258195519447327, 0.3125736117362976, 0.3395962417125702, 0.3631932735443115, 0.38351598381996155, 0.39983341097831726, 0.40995264053344727, 0.41322603821754456, 0.4097251892089844, 0.3993643820285797, 0.3825289011001587, 0.3603491485118866, 0.33428218960762024, 0.305012583732605, 0.2711695730686188, 0.23264116048812866, 0.19237062335014343, 0.15115714073181152, 0.10943491011857986, 0.0701497346162796, 0.036616578698158264, 0.008993460796773434, -0.01669183187186718, -0.03659540414810181, -0.04748809337615967, -0.061287771910429, -0.07482078671455383, -0.07802280783653259, -0.08532320708036423, -0.09631000459194183, -0.10217365622520447, -0.10565995424985886, -0.11439792811870575, -0.12543347477912903, -0.1395595222711563, -0.15775270760059357, -0.17550575733184814, -0.19271790981292725, -0.20764108002185822, -0.21427205204963684, -0.21012482047080994, -0.20285595953464508, -0.18815860152244568, -0.15772536396980286, -0.11998651176691055, -0.07186444103717804, -0.021408945322036743, 0.023952271789312363, 0.06539575010538101, 0.10787045955657959, 0.14185430109500885, 0.1673930585384369, 0.19101180136203766, 0.2120300531387329, 0.22899490594863892, 0.24144108593463898, 0.24899350106716156, 0.25401026010513306, 0.2617991268634796, 0.27220284938812256, 0.28201085329055786, 0.2900053560733795, 0.2948295772075653, 0.29349368810653687, 0.2833307385444641, 0.2667388916015625, 0.24472185969352722, 0.21483096480369568, 0.18053507804870605, 0.14582078158855438, 0.11202546954154968, 0.08136335760354996, 0.061167728155851364, 0.05201757326722145, 0.047463901340961456, 0.05117589980363846, 0.06683393567800522, 0.0876191183924675, 0.11222127079963684, 0.1400606632232666, 0.16392354667186737, 0.17961405217647552, 0.1887834519147873, 0.19187118113040924, 0.18499618768692017, 0.16703832149505615, 0.13504421710968018, 0.08685261011123657, 0.02719668671488762, -0.03863082081079483, -0.10582493245601654, -0.17347955703735352, -0.23860526084899902, -0.29470106959342957, -0.33740606904029846, -0.3706870973110199, -0.39418792724609375, -0.4045359790325165, -0.4035476744174957, -0.39201417565345764, -0.37276339530944824, -0.3469512164592743, -0.31430089473724365, -0.27867117524147034, -0.24132700264453888, -0.19998420774936676, -0.1587149053812027, -0.117971271276474, -0.07891210168600082, -0.042518243193626404, -0.0042225057259202, 0.03226535767316818, 0.06432683765888214, 0.09723880141973495, 0.13133682310581207, 0.15880633890628815, 0.17578980326652527, 0.18818417191505432, 0.19083760678768158, 0.17199455201625824, 0.14448469877243042, 0.1150563657283783, 0.07744736224412918, 0.03795727342367172, 0.0053413668647408485, -0.02136419527232647, -0.04640033841133118, -0.06682229042053223, -0.08120097219944, -0.09434811770915985, -0.10434271395206451, -0.10963001847267151, -0.11464482545852661, -0.12021088600158691, -0.13147857785224915, -0.15295623242855072, -0.18015538156032562, -0.20826329290866852, -0.24091942608356476, -0.28114306926727295, -0.3248114585876465, -0.3647063076496124, -0.39972060918807983, -0.43239912390708923, -0.4595896303653717, -0.47861236333847046, -0.49042752385139465, -0.4935445487499237, -0.4870290458202362, -0.46862852573394775, -0.4379580616950989, -0.39762288331985474, -0.3478873074054718, -0.2923363149166107, -0.23103728890419006, -0.16355358064174652, -0.09863297641277313, -0.03596704453229904, 0.023869015276432037, 0.07735448330640793, 0.12255973368883133, 0.15704485774040222, 0.18243655562400818, 0.19880907237529755, 0.20438240468502045, 0.20271646976470947, 0.18809866905212402, 0.1569405049085617, 0.1190895140171051, 0.08209443092346191, 0.04145893082022667, -0.0031441738829016685, -0.04099014401435852, -0.07249812036752701, -0.1034986823797226, -0.12573300302028656, -0.13127142190933228, -0.12883682548999786, -0.12615972757339478, -0.11880014091730118, -0.10463149845600128, -0.09792464226484299, -0.0972733348608017, -0.09706863015890121, -0.10792424529790878, -0.1279132217168808, -0.14468953013420105, -0.1643584966659546, -0.18148431181907654, -0.1953963190317154, -0.2023719996213913, -0.19474808871746063, -0.18224702775478363, -0.16284851729869843, -0.12667585909366608, -0.08126579225063324, -0.03354678675532341, 0.019953329116106033, 0.07367361336946487, 0.1193799376487732, 0.15918134152889252, 0.2034960836172104, 0.2489563375711441, 0.28684356808662415, 0.3199155926704407, 0.3504043221473694, 0.3786488473415375, 0.40523970127105713, 0.4247293472290039, 0.44013711810112, 0.4548777937889099, 0.46438053250312805, 0.46823447942733765, 0.46714210510253906, 0.4550672471523285, 0.4283469319343567, 0.3990388512611389, 0.36899393796920776, 0.3237067461013794, 0.26600801944732666, 0.2094780057668686, 0.15269137918949127, 0.09237238019704819, 0.03159347549080849, -0.02663235366344452, -0.08018910139799118, -0.13137350976467133, -0.18432800471782684, -0.23946711421012878, -0.29369574785232544, -0.34286051988601685, -0.3894622325897217, -0.434617817401886, -0.4756477177143097, -0.5136786103248596, -0.5446311831474304, -0.5600259900093079, -0.5653061270713806, -0.5734924674034119, -0.5745040774345398, -0.5649449825286865, -0.55824214220047, -0.5514718294143677, -0.536808431148529, -0.5098300576210022, -0.47417667508125305, -0.4305930435657501, -0.38004231452941895, -0.3265661895275116, -0.2632441818714142, -0.1881188601255417, -0.11566571146249771, -0.0492529533803463, 0.0178793054074049, 0.07869856059551239, 0.12309562414884567, 0.15545059740543365, 0.1814393252134323, 0.20315322279930115, 0.21810856461524963, 0.22335132956504822, 0.22489847242832184, 0.2298070788383484, 0.23513515293598175, 0.23467452824115753, 0.22600005567073822, 0.20773577690124512, 0.17867344617843628, 0.1369660645723343, 0.08263052999973297, 0.02387024462223053, -0.033770542591810226, -0.0947885662317276, -0.16261309385299683, -0.22740843892097473, -0.28068265318870544, -0.32869186997413635, -0.37473705410957336, -0.410354882478714, -0.4379296600818634, -0.45944395661354065, -0.4745604693889618, -0.48402777314186096, -0.4865816831588745, -0.4830453097820282, -0.47304078936576843, -0.46245822310447693, -0.45630165934562683, -0.4472080171108246, -0.4312145709991455, -0.41286712884902954, -0.39641955494880676, -0.3806711435317993, -0.3585893511772156, -0.3259641230106354, -0.2852227985858917, -0.24044263362884521, -0.19074669480323792, -0.12978243827819824, -0.057830147445201874, 0.014986755326390266, 0.08526133000850677, 0.1555972397327423, 0.21989257633686066, 0.2726779878139496, 0.3216068148612976, 0.3643863797187805, 0.3915715217590332, 0.40455901622772217, 0.4106399714946747, 0.40885278582572937, 0.3928506672382355, 0.36139389872550964, 0.3188984990119934, 0.27039116621017456, 0.21847200393676758, 0.16687999665737152, 0.11900974065065384, 0.07685607671737671, 0.04074946418404579, 0.009959248825907707, -0.01368397194892168, -0.02714550867676735, -0.030819928273558617, -0.028177041560411453, -0.02225266583263874, -0.01433680858463049, -0.003880982520058751, 0.008327516727149487, 0.019538380205631256, 0.028559809550642967, 0.03602026775479317, 0.041751403361558914, 0.04643082991242409, 0.05197712406516075, 0.05891500785946846, 0.0695599764585495, 0.08657437562942505, 0.10911151021718979, 0.1338677853345871, 0.15627793967723846, 0.17351937294006348, 0.18170404434204102, 0.17754514515399933, 0.16114793717861176, 0.134353905916214, 0.09674786776304245, 0.052264779806137085, 0.009089927189052105, -0.02845548279583454, -0.06323573738336563, -0.09535159170627594, -0.11426674574613571, -0.11900884658098221, -0.11413832753896713, -0.09170400351285934, -0.05690685659646988, -0.016152769327163696, 0.02745792269706726, 0.07176896929740906, 0.12028848379850388, 0.16860748827457428, 0.2090958207845688, 0.24416938424110413, 0.2748102843761444, 0.2928440272808075, 0.2993096113204956, 0.30230191349983215, 0.3048584759235382, 0.2996845245361328, 0.2896900475025177, 0.2922218143939972, 0.29295095801353455, 0.2931341528892517, 0.30782753229141235, 0.32574462890625, 0.331165075302124, 0.33397406339645386, 0.3454596698284149, 0.35511407256126404, 0.35986384749412537, 0.3689471185207367, 0.37648940086364746, 0.3741624355316162, 0.3666706681251526, 0.3576708436012268, 0.34576770663261414, 0.3272482454776764, 0.3011028468608856, 0.275312602519989, 0.25547415018081665, 0.23206420242786407, 0.20653271675109863, 0.18516647815704346, 0.16379491984844208, 0.1414000242948532, 0.12715846300125122, 0.119766004383564, 0.10749933868646622, 0.0940958708524704, 0.08424730598926544, 0.07196129113435745, 0.05601170286536217, 0.0393366776406765, 0.0206089299172163, 0.0017406801925972104, -0.013722066767513752, -0.02626768685877323, -0.03869236633181572, -0.05643712356686592, -0.07981357723474503, -0.10573583841323853, -0.13855819404125214, -0.17874853312969208, -0.21936406195163727, -0.26052868366241455, -0.30213847756385803, -0.3376138210296631, -0.3654487431049347, -0.38624411821365356, -0.39527103304862976, -0.39277830719947815, -0.3799551725387573, -0.36002016067504883, -0.3406391143798828, -0.31274351477622986, -0.27335160970687866, -0.22742123901844025, -0.176465705037117, -0.12128214538097382, -0.060965605080127716, 0.005116484127938747, 0.07251724600791931, 0.13605782389640808, 0.1903855949640274, 0.23164445161819458, 0.2670167088508606, 0.3113829493522644, 0.35702383518218994, 0.3747823238372803, 0.3686272203922272, 0.36023885011672974, 0.33440926671028137, 0.2697605490684509, 0.18461185693740845, 0.10015592724084854, 0.02592153288424015, -0.03433213755488396, -0.08992255479097366, -0.14645367860794067, -0.19392424821853638, -0.22322843968868256, -0.2425808608531952, -0.2580569088459015, -0.2595476508140564, -0.24347670376300812, -0.22275327146053314, -0.20317906141281128, -0.18345387279987335, -0.15934276580810547, -0.12129730731248856, -0.07590526342391968, -0.03771510720252991, -0.00053078040946275, 0.0304547231644392, 0.05133616551756859, 0.06057070195674896, 0.049504026770591736, 0.023953396826982498, -0.008903163485229015, -0.05322619155049324, -0.09970434755086899, -0.14006765186786652, -0.17525742948055267, -0.20518282055854797, -0.22174949944019318, -0.22335870563983917, -0.21846391260623932, -0.20528769493103027, -0.1839771717786789, -0.1544734686613083, -0.122158944606781, -0.09424950182437897, -0.06917198747396469, -0.04710990935564041, -0.033514734357595444, -0.029624853283166885, -0.03354822099208832, -0.04616890475153923, -0.06608230620622635, -0.08652043342590332, -0.10430993884801865, -0.12121087312698364, -0.1380205601453781, -0.14467059075832367, -0.13587547838687897, -0.12348601967096329, -0.11628229171037674, -0.11273526400327682, -0.11194992065429688, -0.1191493421792984, -0.13868220150470734, -0.16757720708847046, -0.20473480224609375, -0.2566104531288147, -0.3215535283088684, -0.39228999614715576, -0.4651530385017395, -0.5338737368583679, -0.5913774967193604, -0.6309244632720947, -0.6559101343154907, -0.6729775667190552, -0.6771262884140015, -0.6633768677711487, -0.6282482743263245, -0.5691191554069519, -0.4919372797012329, -0.4059622883796692, -0.3180685043334961, -0.2392125278711319, -0.1713050752878189, -0.10814749449491501, -0.05621592700481415, -0.026517249643802643, -0.014159646816551685, -0.01628098078072071, -0.030189722776412964, -0.044745974242687225, -0.060082148760557175, -0.07606706768274307, -0.0849667340517044, -0.09941597282886505, -0.11517467349767685, -0.12599261105060577, -0.14109119772911072, -0.15524110198020935, -0.1730845868587494, -0.19176450371742249, -0.20082730054855347, -0.20288310945034027, -0.197166308760643, -0.1868375688791275, -0.17572224140167236, -0.1586506962776184, -0.13365358114242554, -0.11380244046449661, -0.08686666935682297, -0.051768958568573, -0.02909439243376255, -0.010293524712324142, 0.017080029472708702, 0.049256715923547745, 0.08386656641960144, 0.12393944710493088, 0.16678301990032196, 0.20392997562885284, 0.24566532671451569, 0.29226237535476685, 0.3248831033706665, 0.34733933210372925, 0.36878859996795654, 0.3840850591659546, 0.3961374759674072, 0.40658387541770935, 0.41115549206733704, 0.40975919365882874, 0.4057014584541321, 0.4003674387931824, 0.39768555760383606, 0.40037697553634644, 0.406167596578598, 0.4087637960910797, 0.4059140384197235, 0.4026090204715729, 0.39663147926330566, 0.38430431485176086, 0.36955347657203674, 0.35209032893180847, 0.3283933401107788, 0.30470579862594604, 0.2874245345592499, 0.2682766020298004, 0.2407262921333313, 0.20935583114624023, 0.17844651639461517, 0.14713096618652344, 0.11331158131361008, 0.07461974024772644, 0.03190755471587181, -0.00961232278496027, -0.046795934438705444, -0.0827372595667839, -0.1183626651763916, -0.14823584258556366, -0.1688614785671234, -0.18355782330036163, -0.19151628017425537, -0.19061951339244843, -0.18637223541736603, -0.18043699860572815, -0.16860607266426086, -0.15637995302677155, -0.1489415168762207, -0.14297331869602203, -0.1382710486650467, -0.13854579627513885, -0.14229774475097656, -0.1467457413673401, -0.15271885693073273, -0.16083911061286926, -0.16834166646003723, -0.1698622852563858, -0.1643526554107666, -0.15527571737766266, -0.1421975940465927, -0.1249832957983017, -0.10989975929260254, -0.0976276621222496, -0.08602315187454224, -0.08180086314678192, -0.08769164979457855, -0.09803800284862518, -0.11358492821455002, -0.13667987287044525, -0.16341881453990936, -0.19379183650016785, -0.22871339321136475, -0.2657150328159332, -0.3019148111343384, -0.3381316065788269, -0.3757314085960388, -0.4108460545539856, -0.43894484639167786, -0.4583689570426941, -0.4678404629230499, -0.4647746980190277, -0.44965142011642456, -0.43073150515556335, -0.41242721676826477, -0.39157429337501526, -0.37428927421569824, -0.3641498386859894, -0.3550451397895813, -0.35177934169769287, -0.35838404297828674, -0.36331242322921753, -0.36101314425468445, -0.3576222360134125, -0.3493032157421112, -0.33998167514801025, -0.3289451003074646, -0.3197438716888428, -0.32890573143959045, -0.34433284401893616, -0.3559814393520355, -0.38073018193244934, -0.41663727164268494, -0.44953563809394836, -0.47749465703964233, -0.4993281662464142, -0.5097693204879761, -0.5042185187339783, -0.48512372374534607, -0.4582987129688263, -0.4260357916355133, -0.38589271903038025, -0.33884119987487793, -0.2874589264392853, -0.23167967796325684, -0.17354878783226013, -0.11675684154033661, -0.059570737183094025, -0.0005848506116308272, 0.05787312984466553, 0.11290779709815979, 0.16835781931877136, 0.22637249529361725, 0.2805902659893036, 0.3236601650714874, 0.36123988032341003, 0.40020471811294556, 0.43283066153526306, 0.4590780735015869, 0.4825747609138489, 0.49863964319229126, 0.504632294178009, 0.5027940273284912, 0.49198123812675476, 0.47469502687454224, 0.4527968168258667, 0.42319685220718384, 0.3883325159549713, 0.34813758730888367, 0.2985239624977112, 0.24790513515472412, 0.2061794102191925, 0.16900020837783813, 0.13462835550308228, 0.10900235176086426, 0.090232715010643, 0.07332594692707062, 0.0607808381319046, 0.053167179226875305, 0.0471918098628521, 0.04283884912729263, 0.04016585648059845, 0.03854139521718025, 0.036507412791252136, 0.032561104744672775, 0.02876533754169941, 0.025435207411646843, 0.01689969375729561, -0.003782161045819521, -0.03605378046631813, -0.07409759610891342, -0.11863444745540619, -0.17133958637714386, -0.23119089007377625, -0.29212504625320435, -0.3486761450767517, -0.4002717435359955, -0.4449104368686676, -0.4791342318058014, -0.5045846700668335, -0.5203596949577332, -0.5261452794075012, -0.523672342300415, -0.5106467604637146, -0.4869222939014435, -0.4544360339641571, -0.41137489676475525, -0.35765981674194336, -0.29939666390419006, -0.24029290676116943, -0.18363073468208313, -0.1349160373210907, -0.09684876352548599, -0.0690627172589302, -0.05331600084900856, -0.05399433523416519, -0.06883763521909714, -0.09218715131282806, -0.1234617531299591, -0.15864957869052887, -0.1923012137413025, -0.2235250025987625, -0.2522929012775421, -0.2775394022464752, -0.2966640591621399, -0.30795910954475403, -0.30885404348373413, -0.2947004437446594, -0.26859211921691895, -0.23173968493938446, -0.1887233704328537, -0.14870229363441467, -0.10610511153936386, -0.05840238928794861, -0.023459311574697495, 0.004280853550881147, 0.031031882390379906, 0.04833690822124481, 0.058663398027420044, 0.070155568420887, 0.07771904766559601, 0.07700569182634354, 0.07461963593959808, 0.062142014503479004, 0.032863203436136246, -0.0032377727329730988, -0.046561628580093384, -0.1021290048956871, -0.1651022583246231, -0.2265947163105011, -0.28295984864234924, -0.3368420898914337, -0.38137948513031006, -0.41153421998023987, -0.4298396110534668, -0.4306029975414276, -0.4218481183052063, -0.4209194481372833, -0.4111415147781372, -0.3953784108161926, -0.3879148066043854, -0.3850197196006775, -0.37001144886016846, -0.3455762565135956, -0.3181110918521881, -0.29006606340408325, -0.26135531067848206, -0.22173035144805908, -0.16454629600048065, -0.09981688857078552, -0.03271033614873886, 0.027627814561128616, 0.08485692739486694, 0.14129772782325745, 0.19136151671409607, 0.23275770246982574, 0.2600231170654297, 0.2684810161590576, 0.2622925341129303, 0.23997116088867188, 0.20075713098049164, 0.15295323729515076, 0.09970370680093765, 0.045548196882009506, 4.299868305679411e-05, -0.03721495717763901, -0.06993541866540909, -0.08637532591819763, -0.08046282827854156, -0.06478983908891678, -0.044541165232658386, -0.013645057566463947, 0.021903440356254578, 0.049241866916418076, 0.06661684066057205, 0.07893501222133636, 0.08930594474077225, 0.09578576683998108, 0.09439694136381149, 0.08892100304365158, 0.08050519973039627, 0.06873622536659241, 0.0577978640794754, 0.04668110981583595, 0.033564578741788864, 0.02603735402226448, 0.02395913191139698, 0.022049471735954285, 0.022241583094000816, 0.02690841443836689, 0.031136540696024895, 0.035404399037361145, 0.03970390558242798, 0.035338759422302246, 0.02110959216952324, 0.0036982677411288023, -0.015063990838825703, -0.03697317838668823, -0.058417342603206635, -0.07467106729745865, -0.08531204611063004, -0.09027974307537079, -0.0801846981048584, -0.06057615578174591, -0.04344695806503296, -0.021161124110221863, -0.0045815398916602135, 0.0065794517286121845, 0.01625904254615307, 0.012867673300206661, 0.00431587640196085, -0.0032328572124242783, -0.016493165865540504, -0.03926348313689232, -0.07060177624225616, -0.10276883840560913, -0.12887758016586304, -0.15173503756523132, -0.18495534360408783, -0.21427112817764282, -0.22886382043361664, -0.2431984692811966, -0.25426945090293884, -0.2526850402355194, -0.24602456390857697, -0.23127199709415436, -0.20581240952014923, -0.1776011884212494, -0.15003347396850586, -0.1186426430940628, -0.08307775855064392, -0.049198269844055176, -0.018969641998410225, 0.010549413040280342, 0.038764432072639465, 0.06247985363006592, 0.07960055023431778, 0.0885729268193245, 0.08897855132818222, 0.08294101804494858, 0.07191827893257141, 0.058148909360170364, 0.04294709116220474, 0.02411898784339428, 0.0036578173749148846, -0.01537817157804966, -0.0342106819152832, -0.053334228694438934, -0.06791649013757706, -0.07451418787240982, -0.07595451921224594, -0.07595257461071014, -0.07278577983379364, -0.06605629622936249, -0.05618315562605858, -0.041137710213661194, -0.02661617286503315, -0.01753186620771885, -0.010350462980568409, -0.0029851377476006746, 0.0008368476410396397, 0.0018265985418111086, 0.0035125038120895624, 0.011117047630250454, 0.021301908418536186, 0.024605926126241684, 0.023131797090172768, 0.017117509618401527, 0.002355114324018359, -0.0187736377120018, -0.04676101356744766, -0.0823935866355896, -0.12734302878379822, -0.18103905022144318, -0.2375960648059845, -0.2933802306652069, -0.3492656946182251, -0.3988839387893677, -0.4409092664718628, -0.46916866302490234, -0.4804506003856659, -0.4824308156967163, -0.47682473063468933, -0.4558112919330597, -0.41449394822120667, -0.36005616188049316, -0.3027360141277313, -0.2434372752904892, -0.1803004890680313, -0.1190265640616417, -0.06365437060594559, -0.012518391013145447, 0.03181395307183266, 0.06253064423799515, 0.08803478628396988, 0.11456062644720078, 0.136460080742836, 0.15712647140026093, 0.17503425478935242, 0.19039921462535858, 0.20545253157615662, 0.2150128334760666, 0.20853351056575775, 0.19247005879878998, 0.1768503189086914, 0.14814415574073792, 0.10099668055772781, 0.04812554270029068, -0.005328077357262373, -0.06018558144569397, -0.11218442767858505, -0.15678641200065613, -0.1914985626935959, -0.2142152190208435, -0.22460825741291046, -0.22424153983592987, -0.21275757253170013, -0.1788007616996765, -0.1300213485956192, -0.07843293994665146, -0.022656861692667007, 0.038321733474731445, 0.10350623726844788, 0.16695189476013184, 0.2225046306848526, 0.27140530943870544, 0.31681156158447266, 0.35395902395248413, 0.3783332407474518, 0.39221546053886414, 0.39311251044273376, 0.3800775110721588, 0.3589535653591156, 0.33193084597587585, 0.30322930216789246, 0.2757074534893036, 0.24819576740264893, 0.2291002720594406, 0.22176536917686462, 0.2128443866968155, 0.2021941989660263, 0.19345028698444366, 0.1806618571281433, 0.15904299914836884, 0.1319243311882019, 0.11046900600194931, 0.08788731694221497, 0.055571358650922775, 0.01913684792816639, -0.014957387000322342, -0.047091372311115265, -0.08404047787189484, -0.1263962835073471, -0.16404052078723907, -0.2009265422821045, -0.24002297222614288, -0.27346426248550415, -0.30253416299819946, -0.3318749964237213, -0.3531777858734131, -0.36186978220939636, -0.3604814112186432, -0.3470265865325928, -0.32488518953323364, -0.2917531132698059, -0.2495899200439453, -0.20437249541282654, -0.15324430167675018, -0.09498395770788193, -0.04048016294836998, 0.00682737585157156, 0.04796538129448891, 0.07605454325675964, 0.0880887508392334, 0.09235671162605286, 0.09319285303354263, 0.08913625776767731, 0.084856316447258, 0.08194625377655029, 0.08155577629804611, 0.08232228457927704, 0.0864722803235054, 0.1012139841914177, 0.11946196109056473, 0.13221116364002228, 0.13956481218338013, 0.14512021839618683, 0.14397993683815002, 0.13236211240291595, 0.11442504078149796, 0.08901746571063995, 0.053551919758319855, 0.01018290314823389, -0.03841617703437805, -0.08811048418283463, -0.13597531616687775, -0.1825358122587204, -0.2247069776058197, -0.2558116912841797, -0.27587592601776123, -0.28927600383758545, -0.2980935573577881, -0.3026215136051178, -0.304613322019577, -0.30934229493141174, -0.3167327344417572, -0.3269398510456085, -0.33886080980300903, -0.35283103585243225, -0.3683825731277466, -0.3783443868160248, -0.3799927234649658, -0.37673550844192505, -0.36618518829345703, -0.34637144207954407, -0.3203014135360718, -0.2912479341030121, -0.2605932950973511, -0.23069392144680023, -0.20265626907348633, -0.1791277527809143, -0.16493667662143707, -0.15697216987609863, -0.15067800879478455, -0.14515116810798645, -0.13823920488357544, -0.13324476778507233, -0.13559222221374512, -0.14713507890701294, -0.16756102442741394, -0.19935163855552673, -0.2417406290769577, -0.293371319770813, -0.35548973083496094, -0.4268675744533539, -0.5018666386604309, -0.5717576146125793, -0.6337653994560242, -0.6893215775489807, -0.7340049743652344, -0.7589473724365234, -0.7633612751960754, -0.756587564945221, -0.7449734807014465, -0.7267706990242004, -0.7030341029167175, -0.6784248948097229, -0.6533728837966919, -0.6266074180603027, -0.5954922437667847, -0.556894838809967, -0.5122517943382263, -0.46931782364845276, -0.43166717886924744, -0.3888225555419922, -0.3479064106941223, -0.3157852590084076, -0.2843386232852936, -0.2545945942401886, -0.22568371891975403, -0.19235968589782715, -0.15488873422145844, -0.11928984522819519, -0.08632258325815201, -0.04772454872727394, -0.0012913475511595607, 0.04609176516532898, 0.08877712488174438, 0.12862113118171692, 0.16539983451366425, 0.19555963575839996, 0.22333863377571106, 0.2512630224227905, 0.2782664895057678, 0.3061521649360657, 0.330384224653244, 0.3490908741950989, 0.3646315634250641, 0.37439265847206116, 0.37327101826667786, 0.356587678194046, 0.3227362632751465, 0.2870005667209625, 0.23430965840816498, 0.1627875566482544, 0.08197656273841858, -0.0009126512450166047, -0.06455041468143463, -0.123886838555336, -0.17769335210323334, -0.20757605135440826, -0.21708306670188904, -0.2138940691947937, -0.19410058856010437, -0.16033680737018585, -0.11324995756149292, -0.06000452861189842, -0.009639254771173, 0.031000137329101562, 0.060977764427661896, 0.08256857097148895, 0.10028322041034698, 0.11470450460910797, 0.11803555488586426, 0.11350277066230774, 0.10997960716485977, 0.10964811593294144, 0.10655434429645538, 0.09961564093828201, 0.09001879394054413, 0.07693103700876236, 0.05822950229048729, 0.029206808656454086, -0.012398269027471542, -0.06283020973205566, -0.1181410551071167, -0.17616689205169678, -0.23480550944805145, -0.29090845584869385, -0.3405383229255676, -0.38157007098197937, -0.4108230173587799, -0.4266020953655243, -0.4352130889892578, -0.4429730474948883, -0.4492395520210266, -0.45554497838020325, -0.46351081132888794, -0.47172364592552185, -0.4813246726989746, -0.4932407736778259, -0.5015586018562317, -0.5014559626579285, -0.495154470205307, -0.4825674295425415, -0.45866715908050537, -0.42317935824394226, -0.3793347179889679, -0.3312801122665405, -0.28054091334342957, -0.22451762855052948, -0.16518889367580414, -0.1117154061794281, -0.06729376316070557, -0.02884923294186592, 0.0018876324174925685, 0.020712358877062798, 0.028709525242447853, 0.027897346764802933, 0.020763972774147987, 0.013537099584937096, 0.009512350894510746, 0.007429418619722128, 0.006871512625366449, 0.007439556997269392, 0.010341734625399113, 0.017122425138950348, 0.022991295903921127, 0.02523736096918583, 0.02308100275695324, 0.01578838750720024, 0.004570764023810625, -0.010381389409303665, -0.026686934754252434, -0.03876343369483948, -0.047700583934783936, -0.05920729786157608, -0.06835755705833435, -0.07108697295188904, -0.07444413751363754, -0.07327046990394592, -0.06271111220121384, -0.04603792726993561, -0.028003565967082977, -0.013324938714504242, -0.001249565975740552, 0.009006671607494354, 0.019577089697122574, 0.030340541154146194, 0.029397180303931236, 0.023352788761258125, 0.019534796476364136, 0.01841130293905735, 0.018282271921634674, 0.025599876418709755, 0.04211432859301567, 0.0810137465596199, 0.12638632953166962, 0.15656886994838715, 0.19070561230182648, 0.22983719408512115, 0.2588905096054077, 0.28091347217559814, 0.29626694321632385, 0.29544422030448914, 0.28150269389152527, 0.2672911584377289, 0.2520124316215515, 0.2257755696773529, 0.19178977608680725, 0.1616959124803543, 0.13880415260791779, 0.11928460001945496, 0.1041639894247055, 0.09471870213747025, 0.08970266580581665, 0.08948095887899399, 0.09143874794244766, 0.08946508169174194, 0.08368939906358719, 0.07138720154762268, 0.047754526138305664, 0.017715150490403175, -0.015449753031134605, -0.053615231066942215, -0.09349928051233292, -0.13301262259483337, -0.1734563112258911, -0.2148616909980774, -0.2541348934173584, -0.29249513149261475, -0.32810038328170776, -0.36126670241355896, -0.3921181559562683, -0.4146882891654968, -0.42395180463790894, -0.42111966013908386, -0.4239248037338257, -0.4324229061603546, -0.42378318309783936, -0.4134904444217682, -0.4242503046989441, -0.43728742003440857, -0.4416157901287079, -0.4435003101825714, -0.44870540499687195, -0.45133498311042786, -0.44845879077911377, -0.447384774684906, -0.4453440308570862, -0.4368721544742584, -0.43853652477264404, -0.4415906071662903, -0.4366590976715088, -0.4293292760848999, -0.4220939874649048, -0.41049471497535706, -0.38413870334625244, -0.3466278612613678, -0.306926965713501, -0.2571939527988434, -0.19548900425434113, -0.13640367984771729, -0.07807841151952744, -0.01517458911985159, 0.041598305106163025, 0.10052530467510223, 0.15528449416160583, 0.2020740658044815, 0.2419327348470688, 0.2865530550479889, 0.3118366003036499, 0.3224981725215912, 0.33474260568618774, 0.34385260939598083, 0.3426845669746399, 0.3244558572769165, 0.2971154749393463, 0.27302414178848267, 0.2446228265762329, 0.21538282930850983, 0.20334532856941223, 0.20050132274627686, 0.1880633383989334, 0.17131519317626953, 0.16278059780597687, 0.15981349349021912, 0.15671347081661224, 0.14941491186618805, 0.13684041798114777, 0.12388363480567932, 0.11108630150556564, 0.10018450021743774, 0.09677019715309143, 0.09332465380430222, 0.08491028100252151, 0.07944417744874954, 0.06991911679506302, 0.05362165719270706, 0.03236202895641327, -0.0002886933507397771, -0.04077836871147156, -0.07889878749847412, -0.11913685500621796, -0.16181012988090515, -0.20189304649829865, -0.23310618102550507, -0.25666695833206177, -0.2768256366252899, -0.2914222478866577, -0.3030683100223541, -0.3146524429321289, -0.32444116473197937, -0.33114710450172424, -0.33563193678855896, -0.336921751499176, -0.3283797800540924, -0.305574893951416, -0.2757757604122162, -0.2455071061849594, -0.20484314858913422, -0.15518958866596222, -0.10014264285564423, -0.03730179741978645, 0.030901826918125153, 0.10229825973510742, 0.17243735492229462, 0.23703241348266602, 0.3065195083618164, 0.3721524178981781, 0.4164186120033264, 0.4523364007472992, 0.4861750304698944, 0.5144592523574829, 0.5405698418617249, 0.5637338161468506, 0.5860066413879395, 0.6124064326286316, 0.630851149559021, 0.6355908513069153, 0.6253191828727722, 0.6054536700248718, 0.5803853869438171, 0.5504589676856995, 0.5148711800575256, 0.4701363444328308, 0.41467660665512085, 0.34838172793388367, 0.2737453579902649, 0.20496651530265808, 0.14907032251358032, 0.09603194892406464, 0.04295702651143074, -0.007458525709807873, -0.056044191122055054, -0.10119526833295822, -0.1406605839729309, -0.1752152293920517, -0.20479123294353485, -0.2292122095823288, -0.24748946726322174, -0.2566484212875366, -0.26016074419021606, -0.25696372985839844, -0.24266842007637024, -0.22019200026988983, -0.19653917849063873, -0.17519423365592957, -0.15277445316314697, -0.1292855590581894, -0.11266778409481049, -0.10838128626346588, -0.10452980548143387, -0.09398877620697021, -0.08640953153371811, -0.07877518236637115, -0.06360900402069092, -0.04766033962368965, -0.035118408501148224, -0.02883131243288517, -0.027577456086874008, -0.02947421558201313, -0.04221583902835846, -0.06663119792938232, -0.09151844680309296, -0.11936204135417938, -0.15268321335315704, -0.1873825639486313, -0.22339311242103577, -0.2633627653121948, -0.3075650632381439, -0.3551338315010071, -0.40266016125679016, -0.44728872179985046, -0.49287426471710205, -0.5395457744598389, -0.5755611062049866, -0.5950616002082825, -0.6042072772979736, -0.6016247868537903, -0.5799021124839783, -0.542268693447113, -0.4981265962123871, -0.454190194606781, -0.41518139839172363, -0.37722188234329224, -0.34063687920570374, -0.31336531043052673, -0.2979239821434021, -0.29201290011405945, -0.2889445126056671, -0.28672221302986145, -0.28419288992881775, -0.27757197618484497, -0.26455947756767273, -0.24462170898914337, -0.21906554698944092, -0.1879173219203949, -0.14861586689949036, -0.10040777176618576, -0.04615681990981102, 0.006187647581100464, 0.05183324217796326, 0.0943281278014183, 0.13102100789546967, 0.15712811052799225, 0.17323704063892365, 0.174781933426857, 0.16268423199653625, 0.14527137577533722, 0.12538182735443115, 0.10136830806732178, 0.07811760902404785, 0.06055144965648651, 0.0441763699054718, 0.027134321630001068, 0.012446785345673561, 0.004545777104794979, 0.003855255665257573, 0.007263521663844585, 0.011875362135469913, 0.018678070977330208, 0.028332160785794258, 0.04111013934016228, 0.058524228632450104, 0.07816287130117416, 0.0934450775384903, 0.10343096405267715, 0.1101849302649498, 0.10987351089715958, 0.10031937062740326, 0.08038057386875153, 0.05032593384385109, 0.01497671939432621, -0.022729570046067238, -0.05604879930615425, -0.08019063621759415, -0.09826124459505081, -0.10861241072416306, -0.10503190010786057, -0.08986285328865051, -0.06796974688768387, -0.04038840904831886, -0.009110329672694206, 0.020592238754034042, 0.04305226355791092, 0.06307820975780487, 0.08127108961343765, 0.08658983558416367, 0.08257502317428589, 0.07756339013576508, 0.06464654952287674, 0.03817252814769745, 0.0022383718751370907, 